~o
<STREAMINFO> 1 25
<VECSIZE> 25<NULLD><MFCC_D_N_Z_0><DIAGC>
~h "proto"
<BEGINHMM>
<NUMSTATES> 5
<STATE> 2
<MEAN> 25
 -1.118406e-008 6.902663e-008 -6.127934e-008 -1.132241e-009 1.805760e-009 2.941641e-009 -3.920247e-008 -3.669770e-009 -5.191560e-008 -1.454802e-008 -2.627090e-008 3.876559e-008 2.510028e-002 3.968836e-004 8.013876e-003 -9.237975e-003 8.363929e-003 -6.403908e-003 3.811424e-003 -9.137135e-003 -5.245406e-003 -8.095243e-003 -3.207545e-003 -3.381838e-003 3.557804e-002
<VARIANCE> 25
 6.664439e+001 4.403650e+001 5.783500e+001 5.743623e+001 6.515208e+001 5.500425e+001 5.372772e+001 4.345287e+001 4.255812e+001 4.180091e+001 3.585940e+001 3.108589e+001 1.968051e+000 1.809448e+000 1.938954e+000 2.304791e+000 2.836484e+000 2.744093e+000 2.863587e+000 2.754002e+000 2.523799e+000 2.575277e+000 2.427561e+000 2.158062e+000 2.903915e+000
<GCONST> 1.039577e+002
<STATE> 3
<MEAN> 25
 -1.118406e-008 6.902663e-008 -6.127934e-008 -1.132241e-009 1.805760e-009 2.941641e-009 -3.920247e-008 -3.669770e-009 -5.191560e-008 -1.454802e-008 -2.627090e-008 3.876559e-008 2.510028e-002 3.968836e-004 8.013876e-003 -9.237975e-003 8.363929e-003 -6.403908e-003 3.811424e-003 -9.137135e-003 -5.245406e-003 -8.095243e-003 -3.207545e-003 -3.381838e-003 3.557804e-002
<VARIANCE> 25
 6.664439e+001 4.403650e+001 5.783500e+001 5.743623e+001 6.515208e+001 5.500425e+001 5.372772e+001 4.345287e+001 4.255812e+001 4.180091e+001 3.585940e+001 3.108589e+001 1.968051e+000 1.809448e+000 1.938954e+000 2.304791e+000 2.836484e+000 2.744093e+000 2.863587e+000 2.754002e+000 2.523799e+000 2.575277e+000 2.427561e+000 2.158062e+000 2.903915e+000
<GCONST> 1.039577e+002
<STATE> 4
<MEAN> 25
 -1.118406e-008 6.902663e-008 -6.127934e-008 -1.132241e-009 1.805760e-009 2.941641e-009 -3.920247e-008 -3.669770e-009 -5.191560e-008 -1.454802e-008 -2.627090e-008 3.876559e-008 2.510028e-002 3.968836e-004 8.013876e-003 -9.237975e-003 8.363929e-003 -6.403908e-003 3.811424e-003 -9.137135e-003 -5.245406e-003 -8.095243e-003 -3.207545e-003 -3.381838e-003 3.557804e-002
<VARIANCE> 25
 6.664439e+001 4.403650e+001 5.783500e+001 5.743623e+001 6.515208e+001 5.500425e+001 5.372772e+001 4.345287e+001 4.255812e+001 4.180091e+001 3.585940e+001 3.108589e+001 1.968051e+000 1.809448e+000 1.938954e+000 2.304791e+000 2.836484e+000 2.744093e+000 2.863587e+000 2.754002e+000 2.523799e+000 2.575277e+000 2.427561e+000 2.158062e+000 2.903915e+000
<GCONST> 1.039577e+002
<TRANSP> 5
 0.000000e+000 1.000000e+000 0.000000e+000 0.000000e+000 0.000000e+000
 0.000000e+000 6.000000e-001 4.000000e-001 0.000000e+000 0.000000e+000
 0.000000e+000 0.000000e+000 6.000000e-001 4.000000e-001 0.000000e+000
 0.000000e+000 0.000000e+000 0.000000e+000 7.000000e-001 3.000000e-001
 0.000000e+000 0.000000e+000 0.000000e+000 0.000000e+000 0.000000e+000
<ENDHMM>
