~o
<STREAMINFO> 1 25
<VECSIZE> 25<NULLD><MFCC_D_N_Z_0><DIAGC>
~h "proto"
<BEGINHMM>
<NUMSTATES> 5
<STATE> 2
<MEAN> 25
 -1.205808e-008 7.471832e-008 -5.503286e-008 1.714419e-009 -4.314622e-009 -6.243344e-009 -3.245967e-008 5.886173e-009 -4.663221e-008 -2.217316e-008 -2.948801e-008 4.270333e-008 2.560044e-002 3.139617e-004 8.288709e-003 -9.700003e-003 8.491755e-003 -6.657258e-003 3.393384e-003 -9.661411e-003 -5.902453e-003 -8.686491e-003 -3.965416e-003 -3.687867e-003 3.609585e-002
<VARIANCE> 25
 6.743311e+001 4.386040e+001 5.738831e+001 5.798326e+001 6.474918e+001 5.654857e+001 5.389107e+001 4.411510e+001 4.258719e+001 4.208948e+001 3.679993e+001 3.124355e+001 1.965594e+000 1.803727e+000 1.934022e+000 2.333615e+000 2.834451e+000 2.798423e+000 2.861493e+000 2.778302e+000 2.531476e+000 2.589815e+000 2.444618e+000 2.166934e+000 2.889750e+000
<GCONST> 1.040926e+002
<STATE> 3
<MEAN> 25
 -1.205808e-008 7.471832e-008 -5.503286e-008 1.714419e-009 -4.314622e-009 -6.243344e-009 -3.245967e-008 5.886173e-009 -4.663221e-008 -2.217316e-008 -2.948801e-008 4.270333e-008 2.560044e-002 3.139617e-004 8.288709e-003 -9.700003e-003 8.491755e-003 -6.657258e-003 3.393384e-003 -9.661411e-003 -5.902453e-003 -8.686491e-003 -3.965416e-003 -3.687867e-003 3.609585e-002
<VARIANCE> 25
 6.743311e+001 4.386040e+001 5.738831e+001 5.798326e+001 6.474918e+001 5.654857e+001 5.389107e+001 4.411510e+001 4.258719e+001 4.208948e+001 3.679993e+001 3.124355e+001 1.965594e+000 1.803727e+000 1.934022e+000 2.333615e+000 2.834451e+000 2.798423e+000 2.861493e+000 2.778302e+000 2.531476e+000 2.589815e+000 2.444618e+000 2.166934e+000 2.889750e+000
<GCONST> 1.040926e+002
<STATE> 4
<MEAN> 25
 -1.205808e-008 7.471832e-008 -5.503286e-008 1.714419e-009 -4.314622e-009 -6.243344e-009 -3.245967e-008 5.886173e-009 -4.663221e-008 -2.217316e-008 -2.948801e-008 4.270333e-008 2.560044e-002 3.139617e-004 8.288709e-003 -9.700003e-003 8.491755e-003 -6.657258e-003 3.393384e-003 -9.661411e-003 -5.902453e-003 -8.686491e-003 -3.965416e-003 -3.687867e-003 3.609585e-002
<VARIANCE> 25
 6.743311e+001 4.386040e+001 5.738831e+001 5.798326e+001 6.474918e+001 5.654857e+001 5.389107e+001 4.411510e+001 4.258719e+001 4.208948e+001 3.679993e+001 3.124355e+001 1.965594e+000 1.803727e+000 1.934022e+000 2.333615e+000 2.834451e+000 2.798423e+000 2.861493e+000 2.778302e+000 2.531476e+000 2.589815e+000 2.444618e+000 2.166934e+000 2.889750e+000
<GCONST> 1.040926e+002
<TRANSP> 5
 0.000000e+000 1.000000e+000 0.000000e+000 0.000000e+000 0.000000e+000
 0.000000e+000 6.000000e-001 4.000000e-001 0.000000e+000 0.000000e+000
 0.000000e+000 0.000000e+000 6.000000e-001 4.000000e-001 0.000000e+000
 0.000000e+000 0.000000e+000 0.000000e+000 7.000000e-001 3.000000e-001
 0.000000e+000 0.000000e+000 0.000000e+000 0.000000e+000 0.000000e+000
<ENDHMM>
