~o
<STREAMINFO> 1 25
<VECSIZE> 25<NULLD><MFCC_D_N_Z_0><DIAGC>
~s "silst"
<MEAN> 25
 -3.867804e+000 2.963933e+000 1.354405e+000 4.537296e+000 3.857769e+000 2.647595e+000 3.935606e+000 1.696248e+000 6.014031e-001 4.479188e-002 -1.919159e+000 2.740380e-001 -9.332860e-002 -1.479491e-002 1.680829e-002 7.861820e-002 -1.527523e-002 7.534642e-003 3.401755e-002 8.591769e-002 1.873081e-002 -8.751395e-003 -5.579919e-002 -7.883001e-003 -5.102362e-002
<VARIANCE> 25
 1.153615e+001 2.451779e+001 2.032771e+001 2.952306e+001 1.390229e+001 2.103138e+001 1.661231e+001 1.767571e+001 2.384737e+001 2.397645e+001 1.568950e+001 1.599624e+001 3.907637e-001 6.002696e-001 7.142087e-001 7.500039e-001 1.179570e+000 1.151392e+000 1.337607e+000 1.333883e+000 1.545326e+000 1.513271e+000 1.249730e+000 1.253796e+000 3.891015e-001
<GCONST> 8.038897e+001
~h "a"
<BEGINHMM>
<NUMSTATES> 5
<STATE> 2
<MEAN> 25
 -1.118406e-008 6.902663e-008 -6.127934e-008 -1.132241e-009 1.805760e-009 2.941641e-009 -3.920247e-008 -3.669770e-009 -5.191560e-008 -1.454802e-008 -2.627090e-008 3.876559e-008 2.510028e-002 3.968836e-004 8.013876e-003 -9.237975e-003 8.363929e-003 -6.403908e-003 3.811424e-003 -9.137135e-003 -5.245406e-003 -8.095243e-003 -3.207545e-003 -3.381838e-003 3.557804e-002
<VARIANCE> 25
 6.664439e+001 4.403650e+001 5.783500e+001 5.743623e+001 6.515208e+001 5.500425e+001 5.372772e+001 4.345287e+001 4.255812e+001 4.180091e+001 3.585940e+001 3.108589e+001 1.968051e+000 1.809448e+000 1.938954e+000 2.304791e+000 2.836484e+000 2.744093e+000 2.863587e+000 2.754002e+000 2.523799e+000 2.575277e+000 2.427561e+000 2.158062e+000 2.903915e+000
<GCONST> 1.039577e+002
<STATE> 3
<MEAN> 25
 -1.118406e-008 6.902663e-008 -6.127934e-008 -1.132241e-009 1.805760e-009 2.941641e-009 -3.920247e-008 -3.669770e-009 -5.191560e-008 -1.454802e-008 -2.627090e-008 3.876559e-008 2.510028e-002 3.968836e-004 8.013876e-003 -9.237975e-003 8.363929e-003 -6.403908e-003 3.811424e-003 -9.137135e-003 -5.245406e-003 -8.095243e-003 -3.207545e-003 -3.381838e-003 3.557804e-002
<VARIANCE> 25
 6.664439e+001 4.403650e+001 5.783500e+001 5.743623e+001 6.515208e+001 5.500425e+001 5.372772e+001 4.345287e+001 4.255812e+001 4.180091e+001 3.585940e+001 3.108589e+001 1.968051e+000 1.809448e+000 1.938954e+000 2.304791e+000 2.836484e+000 2.744093e+000 2.863587e+000 2.754002e+000 2.523799e+000 2.575277e+000 2.427561e+000 2.158062e+000 2.903915e+000
<GCONST> 1.039577e+002
<STATE> 4
<MEAN> 25
 -1.118406e-008 6.902663e-008 -6.127934e-008 -1.132241e-009 1.805760e-009 2.941641e-009 -3.920247e-008 -3.669770e-009 -5.191560e-008 -1.454802e-008 -2.627090e-008 3.876559e-008 2.510028e-002 3.968836e-004 8.013876e-003 -9.237975e-003 8.363929e-003 -6.403908e-003 3.811424e-003 -9.137135e-003 -5.245406e-003 -8.095243e-003 -3.207545e-003 -3.381838e-003 3.557804e-002
<VARIANCE> 25
 6.664439e+001 4.403650e+001 5.783500e+001 5.743623e+001 6.515208e+001 5.500425e+001 5.372772e+001 4.345287e+001 4.255812e+001 4.180091e+001 3.585940e+001 3.108589e+001 1.968051e+000 1.809448e+000 1.938954e+000 2.304791e+000 2.836484e+000 2.744093e+000 2.863587e+000 2.754002e+000 2.523799e+000 2.575277e+000 2.427561e+000 2.158062e+000 2.903915e+000
<GCONST> 1.039577e+002
<TRANSP> 5
 0.000000e+000 1.000000e+000 0.000000e+000 0.000000e+000 0.000000e+000
 0.000000e+000 6.000000e-001 4.000000e-001 0.000000e+000 0.000000e+000
 0.000000e+000 0.000000e+000 6.000000e-001 4.000000e-001 0.000000e+000
 0.000000e+000 0.000000e+000 0.000000e+000 7.000000e-001 3.000000e-001
 0.000000e+000 0.000000e+000 0.000000e+000 0.000000e+000 0.000000e+000
<ENDHMM>
~h "b"
<BEGINHMM>
<NUMSTATES> 5
<STATE> 2
<MEAN> 25
 -5.689017e+000 3.894719e+000 1.349481e+000 3.039724e+000 2.719311e+000 9.052495e-003 -1.754342e+000 -2.155473e+000 1.882555e+000 -8.745192e-001 -3.802071e+000 -2.078307e+000 3.175613e-001 -2.774384e-001 -9.485797e-003 -9.472768e-002 4.500410e-002 -3.069697e-001 -1.923417e-001 -1.580562e-001 -1.343069e-001 -2.499235e-001 1.107344e-001 -2.601392e-002 1.565978e-001
<VARIANCE> 25
 5.244214e+001 3.290948e+001 1.629395e+001 6.253160e+000 1.371892e+001 1.555480e+001 2.189466e+001 2.211188e+001 2.149366e+001 1.761371e+001 2.021379e+001 1.482275e+001 1.254216e+000 8.718904e-001 1.237224e+000 1.672867e+000 1.056130e+000 1.533457e+000 2.416763e+000 1.521016e+000 2.100230e+000 2.239212e+000 1.715288e+000 1.427306e+000 4.610815e+000
<GCONST> 8.778146e+001
<STATE> 3
<MEAN> 25
 3.069777e+000 2.736413e-001 -2.044358e+000 -1.052494e+000 -7.615516e-001 9.013311e-001 -1.167227e+000 -1.579172e+000 -2.062816e+000 7.499906e-001 3.473911e+000 -1.368084e+000 -2.407745e-001 -1.554397e-001 -7.623576e-002 -1.865605e-001 9.157585e-002 -4.683828e-003 2.768432e-001 3.375527e-001 -1.650689e-001 1.281451e-001 -6.244332e-002 1.641616e-001 1.303382e-002
<VARIANCE> 25
 7.958070e+001 1.197871e+001 5.230193e+001 1.770510e+001 3.167600e+001 2.898168e+001 2.102905e+001 2.781759e+001 3.450875e+001 2.603254e+001 6.073026e+001 6.461578e+001 3.196048e+000 7.036670e-001 1.743304e+000 1.092852e+000 1.646685e+000 2.108729e+000 1.049376e+000 1.240430e+000 2.966045e+000 2.625784e+000 3.617287e+000 4.352469e+000 4.263105e+000
<GCONST> 9.712959e+001
<STATE> 4
<MEAN> 25
 -3.550912e+000 -4.958037e-001 1.031535e+000 7.177500e-001 2.870666e+000 1.548718e+000 1.900048e+000 1.892783e+000 4.423122e-001 1.803278e+000 -7.649755e-001 5.805346e-001 9.487224e-002 8.291155e-002 -3.804573e-002 1.119502e-001 -3.005141e-002 6.110594e-002 4.773927e-003 1.610576e-002 8.698189e-002 -7.431121e-003 -4.067767e-002 -4.414899e-002 -5.647194e-003
<VARIANCE> 25
 1.683763e+001 1.279261e+001 8.909513e+000 1.135825e+001 1.816586e+001 1.280430e+001 1.351123e+001 1.711725e+001 2.148915e+001 1.474328e+001 1.622776e+001 1.283955e+001 3.493453e-001 7.592374e-001 8.643310e-001 5.688023e-001 1.491188e+000 1.172906e+000 1.047709e+000 1.637521e+000 1.448027e+000 1.674883e+000 1.673623e+000 1.408455e+000 5.350826e-001
<GCONST> 7.810678e+001
<TRANSP> 5
 0.000000e+000 1.000000e+000 0.000000e+000 0.000000e+000 0.000000e+000
 0.000000e+000 6.178460e-001 3.821540e-001 0.000000e+000 0.000000e+000
 0.000000e+000 0.000000e+000 7.108296e-001 2.891704e-001 0.000000e+000
 0.000000e+000 0.000000e+000 0.000000e+000 9.306653e-001 6.933471e-002
 0.000000e+000 0.000000e+000 0.000000e+000 0.000000e+000 0.000000e+000
<ENDHMM>
~h "d"
<BEGINHMM>
<NUMSTATES> 5
<STATE> 2
<MEAN> 25
 7.978175e+000 1.521567e+000 2.831010e+000 2.105641e+000 -4.272917e+000 -6.535146e+000 -1.955173e+000 -1.412142e+000 -2.427114e-001 -4.936409e+000 -2.085528e+000 2.564156e+000 6.832757e-003 1.165793e+000 3.241868e-001 4.789573e-001 2.800966e-001 4.066688e-001 3.040262e-001 -1.772063e-001 -4.319191e-002 -5.913392e-001 -5.619058e-002 -2.969334e-001 -1.413872e+000
<VARIANCE> 25
 3.162795e+001 4.628540e+001 3.521419e+001 3.916191e+001 4.925216e+001 4.119407e+001 3.724336e+001 7.914639e+001 7.079609e+001 6.956882e+001 4.304530e+001 4.010642e+001 9.169168e-001 2.100300e+000 1.757728e+000 2.957150e+000 2.609457e+000 2.565474e+000 3.350509e+000 2.793555e+000 2.209351e+000 3.730272e+000 3.034164e+000 3.076122e+000 1.508750e+000
<GCONST> 1.032202e+002
<STATE> 3
<MEAN> 25
 5.543051e+000 4.339008e+000 4.995260e+000 7.354546e+000 3.820525e+000 -3.199233e+000 -3.808635e+000 -3.924492e+000 -5.038906e-001 -5.232216e+000 -3.573382e+000 -4.629925e-001 -7.399322e-001 2.288483e-001 -4.338583e-001 1.229963e-001 9.360174e-001 7.284818e-001 8.095959e-001 3.830458e-001 1.961657e-001 6.846284e-001 1.811397e-001 2.937232e-002 -1.170707e+000
<VARIANCE> 25
 2.381726e+001 1.944381e+001 2.327088e+001 4.524088e+001 5.119567e+001 2.131902e+001 5.404943e+001 5.601712e+001 6.970124e+001 8.152064e+001 2.852199e+001 2.407448e+001 1.228144e+000 1.905230e+000 1.737400e+000 2.331517e+000 3.946183e+000 2.665153e+000 3.426813e+000 4.976029e+000 3.152444e+000 3.464339e+000 3.057304e+000 2.131846e+000 9.531280e-001
<GCONST> 1.008873e+002
<STATE> 4
<MEAN> 25
 3.074646e-001 6.119930e+000 3.235453e+000 6.857097e+000 4.392044e+000 1.994436e+000 4.162628e+000 2.828859e-001 3.256136e+000 2.975901e-001 -2.741280e+000 4.538925e-001 -5.738199e-001 -1.542610e-001 -1.884385e-001 -7.544596e-002 1.191908e-002 2.861733e-001 3.493339e-001 3.509648e-001 4.015715e-002 1.690732e-001 1.319547e-001 5.916129e-002 -4.877446e-001
<VARIANCE> 25
 2.144979e+001 1.067328e+001 1.670888e+001 2.569693e+001 2.692341e+001 2.366644e+001 2.519182e+001 2.530222e+001 2.883209e+001 2.952098e+001 3.077831e+001 2.869170e+001 3.885182e-001 5.507634e-001 9.251173e-001 1.163496e+000 1.130774e+000 1.442218e+000 1.391166e+000 2.258381e+000 2.015983e+000 1.997266e+000 1.831909e+000 2.213675e+000 1.982830e-001
<GCONST> 8.522762e+001
<TRANSP> 5
 0.000000e+000 1.000000e+000 0.000000e+000 0.000000e+000 0.000000e+000
 0.000000e+000 6.247212e-001 3.752788e-001 0.000000e+000 0.000000e+000
 0.000000e+000 0.000000e+000 6.695505e-001 3.304496e-001 0.000000e+000
 0.000000e+000 0.000000e+000 0.000000e+000 8.430858e-001 1.569142e-001
 0.000000e+000 0.000000e+000 0.000000e+000 0.000000e+000 0.000000e+000
<ENDHMM>
~h "f"
<BEGINHMM>
<NUMSTATES> 5
<STATE> 2
<MEAN> 25
 3.171870e-001 -1.991457e-002 4.756843e-002 -9.593881e-001 -1.913743e+000 -1.373202e+000 -2.136813e+000 9.543986e-001 -1.213232e+000 -3.305873e+000 4.004485e+000 9.410620e-001 1.246062e+000 -1.989117e-001 -1.564652e-001 -1.965201e-001 -5.179777e-001 9.565631e-003 -5.543839e-001 -4.790130e-001 -5.440316e-001 1.043322e-001 5.468699e-001 -3.001907e-001 9.039702e-001
<VARIANCE> 25
 6.292384e+001 4.168579e+001 7.792663e+001 4.899374e+001 8.626070e+001 4.598848e+001 3.335490e+001 4.140098e+001 6.693269e+001 2.340879e+001 5.238177e+001 2.388723e+001 9.589157e+000 4.615863e+000 4.929799e+000 4.567713e+000 7.256919e+000 5.046352e+000 6.190483e+000 3.363981e+000 6.860081e+000 3.294174e+000 5.101186e+000 4.065158e+000 6.460322e+000
<GCONST> 1.136281e+002
<STATE> 3
<MEAN> 25
 7.715016e+000 -3.142361e+000 -9.963501e-002 -1.716308e+000 -6.705791e+000 -1.914898e+000 -7.178009e+000 1.841467e+000 -1.337572e+000 -2.046545e+000 2.899938e+000 -3.258665e+000 -6.414757e-001 4.445361e-001 1.849612e-001 6.660219e-001 6.611488e-001 -2.038161e-001 6.729789e-001 6.884817e-003 5.903972e-001 -9.403403e-002 -9.281455e-001 -1.857865e-001 -4.050654e-001
<VARIANCE> 25
 3.382676e+001 6.087905e+001 3.719068e+001 5.245940e+001 6.862781e+001 4.256151e+001 8.163914e+001 9.156791e+001 6.628550e+001 4.080439e+001 4.367275e+001 3.333858e+001 1.394860e+000 3.031617e+000 2.499331e+000 2.820516e+000 5.164301e+000 3.956981e+000 5.104954e+000 5.048127e+000 3.640342e+000 2.944598e+000 3.094715e+000 2.608814e+000 2.340541e+000
<GCONST> 1.082107e+002
<STATE> 4
<MEAN> 25
 -3.237808e-001 2.985800e+000 -2.969138e+000 4.354020e+000 3.401664e+000 -6.197207e-002 1.027645e+000 -3.062210e+000 9.243759e-001 -4.265522e+000 -1.685940e+000 7.000851e-001 -4.177179e-001 -1.995894e-001 -4.660677e-001 -1.483533e-001 6.063207e-001 5.596383e-001 -1.095955e-002 3.231908e-001 2.515196e-001 9.922449e-002 2.321437e-001 2.268680e-001 -2.481733e-001
<VARIANCE> 25
 5.808215e+001 3.276507e+001 3.414612e+001 1.470197e+002 3.405555e+001 7.226973e+001 5.194930e+001 3.694082e+001 2.410972e+001 5.225390e+001 4.114820e+001 4.496268e+001 1.563181e+000 1.857646e+000 1.813905e+000 3.310883e+000 3.637604e+000 2.953530e+000 4.052224e+000 3.085725e+000 2.639857e+000 2.668401e+000 2.529746e+000 1.959698e+000 2.977663e+000
<GCONST> 1.044525e+002
<TRANSP> 5
 0.000000e+000 1.000000e+000 0.000000e+000 0.000000e+000 0.000000e+000
 0.000000e+000 7.312217e-001 2.687784e-001 0.000000e+000 0.000000e+000
 0.000000e+000 0.000000e+000 7.713214e-001 2.286787e-001 0.000000e+000
 0.000000e+000 0.000000e+000 0.000000e+000 7.765806e-001 2.234193e-001
 0.000000e+000 0.000000e+000 0.000000e+000 0.000000e+000 0.000000e+000
<ENDHMM>
~h "g"
<BEGINHMM>
<NUMSTATES> 5
<STATE> 2
<MEAN> 25
 -1.118406e-008 6.902663e-008 -6.127934e-008 -1.132241e-009 1.805760e-009 2.941641e-009 -3.920247e-008 -3.669770e-009 -5.191560e-008 -1.454802e-008 -2.627090e-008 3.876559e-008 2.510028e-002 3.968836e-004 8.013876e-003 -9.237975e-003 8.363929e-003 -6.403908e-003 3.811424e-003 -9.137135e-003 -5.245406e-003 -8.095243e-003 -3.207545e-003 -3.381838e-003 3.557804e-002
<VARIANCE> 25
 6.664439e+001 4.403650e+001 5.783500e+001 5.743623e+001 6.515208e+001 5.500425e+001 5.372772e+001 4.345287e+001 4.255812e+001 4.180091e+001 3.585940e+001 3.108589e+001 1.968051e+000 1.809448e+000 1.938954e+000 2.304791e+000 2.836484e+000 2.744093e+000 2.863587e+000 2.754002e+000 2.523799e+000 2.575277e+000 2.427561e+000 2.158062e+000 2.903915e+000
<GCONST> 1.039577e+002
<STATE> 3
<MEAN> 25
 -1.118406e-008 6.902663e-008 -6.127934e-008 -1.132241e-009 1.805760e-009 2.941641e-009 -3.920247e-008 -3.669770e-009 -5.191560e-008 -1.454802e-008 -2.627090e-008 3.876559e-008 2.510028e-002 3.968836e-004 8.013876e-003 -9.237975e-003 8.363929e-003 -6.403908e-003 3.811424e-003 -9.137135e-003 -5.245406e-003 -8.095243e-003 -3.207545e-003 -3.381838e-003 3.557804e-002
<VARIANCE> 25
 6.664439e+001 4.403650e+001 5.783500e+001 5.743623e+001 6.515208e+001 5.500425e+001 5.372772e+001 4.345287e+001 4.255812e+001 4.180091e+001 3.585940e+001 3.108589e+001 1.968051e+000 1.809448e+000 1.938954e+000 2.304791e+000 2.836484e+000 2.744093e+000 2.863587e+000 2.754002e+000 2.523799e+000 2.575277e+000 2.427561e+000 2.158062e+000 2.903915e+000
<GCONST> 1.039577e+002
<STATE> 4
<MEAN> 25
 -1.118406e-008 6.902663e-008 -6.127934e-008 -1.132241e-009 1.805760e-009 2.941641e-009 -3.920247e-008 -3.669770e-009 -5.191560e-008 -1.454802e-008 -2.627090e-008 3.876559e-008 2.510028e-002 3.968836e-004 8.013876e-003 -9.237975e-003 8.363929e-003 -6.403908e-003 3.811424e-003 -9.137135e-003 -5.245406e-003 -8.095243e-003 -3.207545e-003 -3.381838e-003 3.557804e-002
<VARIANCE> 25
 6.664439e+001 4.403650e+001 5.783500e+001 5.743623e+001 6.515208e+001 5.500425e+001 5.372772e+001 4.345287e+001 4.255812e+001 4.180091e+001 3.585940e+001 3.108589e+001 1.968051e+000 1.809448e+000 1.938954e+000 2.304791e+000 2.836484e+000 2.744093e+000 2.863587e+000 2.754002e+000 2.523799e+000 2.575277e+000 2.427561e+000 2.158062e+000 2.903915e+000
<GCONST> 1.039577e+002
<TRANSP> 5
 0.000000e+000 1.000000e+000 0.000000e+000 0.000000e+000 0.000000e+000
 0.000000e+000 6.000000e-001 4.000000e-001 0.000000e+000 0.000000e+000
 0.000000e+000 0.000000e+000 6.000000e-001 4.000000e-001 0.000000e+000
 0.000000e+000 0.000000e+000 0.000000e+000 7.000000e-001 3.000000e-001
 0.000000e+000 0.000000e+000 0.000000e+000 0.000000e+000 0.000000e+000
<ENDHMM>
~h "i"
<BEGINHMM>
<NUMSTATES> 5
<STATE> 2
<MEAN> 25
 9.364074e-001 8.251742e-001 1.588279e+001 -7.509200e+000 -1.574304e+001 -2.909279e+000 -7.337795e+000 -8.077597e+000 -1.504018e+000 2.318976e+000 7.208069e+000 2.584754e+000 -5.168346e-002 6.294125e-002 8.027892e-003 -2.637263e-001 4.767258e-001 2.571249e-001 1.124363e-001 1.703767e-001 1.319005e-001 3.246182e-001 7.158148e-002 -4.164013e-002 -2.314233e-001
<VARIANCE> 25
 1.972760e+001 3.504391e+001 4.450583e+001 1.117795e+002 4.081818e+001 4.555887e+001 3.226984e+001 7.003747e+001 3.295068e+001 1.109613e+002 4.341859e+001 5.131559e+001 1.268016e+000 2.297831e+000 2.470668e+000 3.820313e+000 4.925436e+000 6.789306e+000 2.105197e+000 6.276578e+000 4.927159e+000 7.459859e+000 3.293887e+000 3.628416e+000 1.375614e+000
<GCONST> 1.079714e+002
<STATE> 3
<MEAN> 25
 -1.074290e+000 8.120975e+000 9.751524e+000 3.064061e+000 1.759401e+000 1.281645e+000 3.178006e+000 -1.373185e+000 1.902617e+000 -6.321307e-001 -8.059245e-001 4.747421e+000 -2.827815e-001 -1.830201e-001 -5.761796e-001 5.305511e-001 5.766056e-001 1.444374e-001 4.953817e-001 2.170292e-001 2.489083e-001 1.717062e-001 -2.319452e-002 -1.034443e-001 -5.902289e-001
<VARIANCE> 25
 1.078631e+001 1.877352e+001 5.362889e+001 6.868578e+001 1.791703e+001 1.701206e+001 2.338565e+001 5.229342e+001 2.979785e+001 2.248219e+001 2.024689e+001 1.667365e+001 3.026939e-001 6.978197e-001 1.019079e+000 2.063095e+000 2.363945e+000 2.169607e+000 2.966201e+000 2.363254e+000 3.226709e+000 2.764786e+000 2.986520e+000 1.473704e+000 7.302704e-001
<GCONST> 9.075339e+001
<STATE> 4
<MEAN> 25
 -5.157699e+000 -1.000439e+001 -6.813934e+000 4.156501e-001 1.365323e+001 8.876005e+000 -9.121765e+000 -1.670900e+000 8.287030e+000 3.472803e+000 6.084162e+000 2.553050e+000 -3.171884e-001 -2.372795e-001 3.108128e-002 5.185952e-001 1.030160e-001 -4.073227e-001 2.593308e-001 2.680792e-001 8.074353e-002 -1.330703e-001 3.603400e-001 -2.231208e-002 1.942980e-001
<VARIANCE> 25
 1.666137e+001 3.975220e+001 1.375212e+001 1.556054e+001 4.163013e+001 2.964065e+001 8.849207e+001 8.864051e+000 1.802818e+001 1.366776e+001 2.329842e+001 1.046846e+001 1.393800e+000 1.010666e+000 9.145989e-001 3.031853e+000 3.202882e+000 3.096379e+000 6.480081e+000 1.281446e+000 1.877329e+000 1.530454e+000 2.261807e+000 1.630969e+000 5.394338e-001
<GCONST> 9.011230e+001
<TRANSP> 5
 0.000000e+000 1.000000e+000 0.000000e+000 0.000000e+000 0.000000e+000
 0.000000e+000 9.439479e-001 5.605219e-002 0.000000e+000 0.000000e+000
 0.000000e+000 0.000000e+000 9.256781e-001 7.432181e-002 0.000000e+000
 0.000000e+000 0.000000e+000 0.000000e+000 8.139262e-001 1.860738e-001
 0.000000e+000 0.000000e+000 0.000000e+000 0.000000e+000 0.000000e+000
<ENDHMM>
~h "k"
<BEGINHMM>
<NUMSTATES> 5
<STATE> 2
<MEAN> 25
 -2.547552e+000 -7.907296e-001 -4.390059e-001 -2.107366e+000 -1.785988e+000 -1.266260e+000 1.304586e+000 1.628758e+000 -1.727320e+000 -1.200834e+000 -9.996399e-001 1.835706e+000 9.648017e-001 -6.363345e-001 -5.107367e-001 -1.795534e+000 -3.291019e+000 -8.694957e-001 -9.046236e-001 7.679092e-001 3.221163e-001 -1.733245e+000 1.952810e-001 -1.336169e-001 3.298459e+000
<VARIANCE> 25
 3.502325e+001 2.608138e+001 4.048280e+001 4.852341e+001 9.770576e+001 5.024512e+001 4.403825e+001 4.575124e+001 3.483012e+001 5.713472e+001 2.244575e+001 2.309572e+001 4.878719e+000 2.477009e+000 6.466180e+000 4.892657e+000 8.346541e+000 6.764804e+000 3.880708e+000 6.587775e+000 5.248892e+000 7.232444e+000 2.946160e+000 2.169743e+000 7.419512e+000
<GCONST> 1.110178e+002
<STATE> 3
<MEAN> 25
 3.956248e+000 8.546456e-001 4.599883e+000 -3.881798e+000 -1.167298e+001 -6.667193e+000 -8.795514e-001 1.829525e+000 -2.388491e+000 -2.751707e+000 1.242758e+000 -1.646585e+000 8.168179e-001 4.596931e-001 4.150920e-002 1.451986e-001 4.230251e-001 2.260490e-001 -3.168589e-001 -3.786829e-001 1.733912e-001 5.119173e-001 1.269933e-002 -5.165854e-002 -4.394729e-001
<VARIANCE> 25
 4.962817e+001 3.375862e+001 8.277371e+001 3.030187e+001 6.752768e+001 8.002803e+001 3.066612e+001 8.360453e+001 6.351408e+001 5.752175e+001 3.024675e+001 2.738576e+001 4.247770e+000 2.345852e+000 2.591033e+000 1.951271e+000 2.599798e+000 3.782027e+000 2.571928e+000 2.468663e+000 3.394075e+000 2.911490e+000 1.939677e+000 2.023220e+000 3.460356e+000
<GCONST> 1.055179e+002
<STATE> 4
<MEAN> 25
 1.870729e+000 -1.427491e+000 -1.915176e+000 -7.155311e-001 1.534357e-002 6.273630e-001 -1.184807e+000 -4.975459e-001 3.028634e-001 -2.968589e-001 -3.555222e-001 6.587381e-001 3.966886e-002 4.227581e-002 -4.319716e-001 -1.642995e-001 2.608026e-002 8.935881e-002 1.239510e-001 2.396227e-002 1.220106e-001 -3.547943e-002 -1.112763e-001 -1.539147e-001 6.848680e-002
<VARIANCE> 25
 2.859498e+001 1.712483e+001 4.252965e+001 3.655231e+001 4.741749e+001 3.097647e+001 2.704685e+001 2.198174e+001 2.016784e+001 2.013999e+001 2.092776e+001 2.464084e+001 1.262070e+000 1.281199e+000 1.471337e+000 1.041358e+000 1.912965e+000 2.184225e+000 2.490340e+000 1.503352e+000 1.507503e+000 1.683147e+000 2.051814e+000 2.062827e+000 1.977357e+000
<GCONST> 9.213487e+001
<TRANSP> 5
 0.000000e+000 1.000000e+000 0.000000e+000 0.000000e+000 0.000000e+000
 0.000000e+000 6.944331e-001 3.055669e-001 0.000000e+000 0.000000e+000
 0.000000e+000 0.000000e+000 8.191133e-001 1.808867e-001 0.000000e+000
 0.000000e+000 0.000000e+000 0.000000e+000 8.161824e-001 1.838176e-001
 0.000000e+000 0.000000e+000 0.000000e+000 0.000000e+000 0.000000e+000
<ENDHMM>
~h "l"
<BEGINHMM>
<NUMSTATES> 5
<STATE> 2
<MEAN> 25
 9.362051e+000 3.046666e+000 7.840156e-001 -3.731233e+000 -1.300260e+001 -8.855420e+000 -6.108623e+000 5.336063e-002 3.596420e+000 -2.723842e+000 2.231687e-001 -1.080789e+000 -3.179631e-002 1.764423e-001 4.447756e-001 1.107318e-001 7.048784e-002 -1.484658e-003 1.066455e-001 6.618849e-002 8.000416e-003 1.902110e-001 -2.076008e-001 6.606113e-002 -3.833908e-001
<VARIANCE> 25
 9.204712e+000 1.215820e+001 5.040897e+001 4.019936e+001 1.243927e+002 6.573979e+001 4.497028e+001 6.258933e+001 3.187713e+001 2.590292e+001 1.960641e+001 1.575930e+001 2.012712e-001 5.216731e-001 1.306661e+000 1.372691e+000 2.047530e+000 1.926291e+000 1.443506e+000 2.001088e+000 1.764228e+000 1.562326e+000 1.592438e+000 1.188673e+000 2.391560e-001
<GCONST> 8.866473e+001
<STATE> 3
<MEAN> 25
 4.728260e+000 4.314267e+000 5.540964e-001 -1.609038e+000 -1.270067e+000 1.455168e+000 1.372985e+000 2.859664e-001 5.275309e-001 1.627089e+000 -8.437220e-001 -1.030380e+000 -8.335184e-001 -3.868912e-001 -2.210057e-001 3.878034e-001 1.017578e+000 7.674775e-001 9.548753e-001 3.034120e-001 1.752721e-001 1.059449e-001 1.057903e-001 5.896845e-002 -9.330704e-001
<VARIANCE> 25
 1.907911e+001 1.537421e+001 4.452001e+001 3.107076e+001 7.663563e+001 8.176750e+001 4.848575e+001 3.523527e+001 2.915959e+001 2.706392e+001 2.103469e+001 1.577890e+001 6.406092e-001 1.262422e+000 2.039781e+000 3.166196e+000 2.268650e+000 2.949569e+000 2.460248e+000 2.347088e+000 1.923425e+000 2.142071e+000 1.442703e+000 1.040972e+000 1.296741e+000
<GCONST> 9.491227e+001
<STATE> 4
<MEAN> 25
 -3.385463e+000 -1.708673e+000 -1.522746e-001 6.065857e-001 3.374383e+000 1.827414e+000 2.683688e+000 1.358611e+000 6.760949e-001 1.750062e+000 5.301819e-001 1.376329e+000 -8.822277e-002 -3.628182e-002 -2.030959e-002 4.188031e-002 2.965191e-002 -7.638382e-002 -7.943944e-002 -6.663215e-002 -7.542805e-002 -3.808469e-002 2.877794e-003 2.841436e-002 -7.111178e-002
<VARIANCE> 25
 4.991004e+000 3.748735e+000 7.058499e+000 1.071236e+001 1.489383e+001 1.330410e+001 2.091902e+001 1.327482e+001 1.392168e+001 1.306701e+001 1.075938e+001 9.686972e+000 2.124983e-001 3.282428e-001 6.975783e-001 7.081351e-001 8.764988e-001 1.092328e+000 1.440508e+000 1.331174e+000 1.270064e+000 1.179296e+000 1.103028e+000 9.282042e-001 1.323529e-001
<GCONST> 6.961198e+001
<TRANSP> 5
 0.000000e+000 1.000000e+000 0.000000e+000 0.000000e+000 0.000000e+000
 0.000000e+000 8.766015e-001 1.233985e-001 0.000000e+000 0.000000e+000
 0.000000e+000 0.000000e+000 8.421628e-001 1.578372e-001 0.000000e+000
 0.000000e+000 0.000000e+000 0.000000e+000 9.576928e-001 4.230723e-002
 0.000000e+000 0.000000e+000 0.000000e+000 0.000000e+000 0.000000e+000
<ENDHMM>
~h "m"
<BEGINHMM>
<NUMSTATES> 5
<STATE> 2
<MEAN> 25
 9.396813e+000 3.700978e+000 -1.203615e+000 2.056962e+000 -1.509539e+000 1.831478e+000 -1.615324e-001 -6.463686e+000 -1.175627e+000 6.899946e-001 3.285402e-002 -9.262861e+000 -4.065498e-001 5.262546e-001 1.080257e+000 1.656380e+000 1.435358e+000 -4.981970e-001 3.641194e-001 -6.655478e-001 -8.496920e-001 7.492311e-002 -5.333009e-002 -6.708875e-001 -1.033945e+000
<VARIANCE> 25
 1.330284e+001 1.143056e+001 4.347089e+001 5.149817e+001 2.729835e+001 2.954023e+001 3.125922e+001 2.933303e+001 2.537628e+001 2.761894e+001 2.378261e+001 1.764433e+001 5.806784e-001 7.444541e-001 2.609701e+000 2.369308e+000 2.176777e+000 4.964182e+000 1.163043e+000 2.186020e+000 2.293932e+000 2.513974e+000 1.202443e+000 2.558016e+000 5.156112e-001
<GCONST> 9.129984e+001
<STATE> 3
<MEAN> 25
 5.822857e+000 6.810467e+000 3.695866e+000 8.135517e+000 5.654356e+000 -3.746172e-001 -1.132556e+000 -6.402311e+000 -3.158973e+000 -1.270252e+000 -1.216789e+000 -7.525415e+000 -5.347043e-001 -3.064500e-001 2.573057e-001 -2.141890e-002 3.887326e-001 4.155970e-001 -3.057247e-003 5.873415e-001 3.234559e-001 -5.972425e-003 -1.174370e-001 8.659139e-001 -6.116281e-001
<VARIANCE> 25
 7.195480e+000 1.397974e+001 1.821948e+001 1.471978e+001 2.083264e+001 2.980901e+001 2.409612e+001 2.900760e+001 2.282256e+001 1.672779e+001 2.589959e+001 3.188232e+001 7.340986e-001 2.416141e+000 1.860737e+000 1.760308e+000 1.832825e+000 2.390908e+000 2.559821e+000 3.316335e+000 2.083199e+000 2.150231e+000 2.904866e+000 3.728599e+000 1.387925e+000
<GCONST> 9.137727e+001
<STATE> 4
<MEAN> 25
 5.230132e-001 3.662815e+000 2.846811e+000 4.154289e+000 6.431314e+000 3.874602e+000 9.353533e-001 -4.346275e-001 5.859635e-001 -7.201207e-002 -1.168477e+000 -2.676191e+000 -4.720289e-001 -7.267879e-001 -5.764161e-001 -7.082490e-001 -5.473751e-001 -3.807529e-002 -1.191367e-001 2.894944e-001 3.284442e-001 2.650957e-001 1.219637e-001 5.183008e-001 1.603691e-002
<VARIANCE> 25
 1.051247e+001 1.346983e+001 1.263202e+001 2.167828e+001 2.363772e+001 1.901215e+001 1.857692e+001 2.649202e+001 3.027577e+001 1.276678e+001 1.883232e+001 2.477885e+001 7.413402e-001 1.720240e+000 8.232840e-001 1.284891e+000 2.217748e+000 2.068608e+000 2.745821e+000 2.374347e+000 2.383587e+000 2.210652e+000 1.814896e+000 2.146823e+000 1.057017e+000
<GCONST> 8.769685e+001
<TRANSP> 5
 0.000000e+000 1.000000e+000 0.000000e+000 0.000000e+000 0.000000e+000
 0.000000e+000 7.074466e-001 2.925534e-001 0.000000e+000 0.000000e+000
 0.000000e+000 0.000000e+000 8.043116e-001 1.956884e-001 0.000000e+000
 0.000000e+000 0.000000e+000 0.000000e+000 7.555940e-001 2.444061e-001
 0.000000e+000 0.000000e+000 0.000000e+000 0.000000e+000 0.000000e+000
<ENDHMM>
~h "n"
<BEGINHMM>
<NUMSTATES> 5
<STATE> 2
<MEAN> 25
 3.737860e+000 -7.610929e+000 3.991511e-001 -1.094193e-001 -3.053227e+000 -3.438089e+000 -3.008754e+000 4.649880e+000 -1.206966e-001 -3.873950e+000 -4.282798e-001 -1.630010e+000 9.294724e-002 -6.846541e-001 5.659685e-003 -3.376011e-001 -8.008154e-002 -2.191223e-001 2.768497e-001 6.225944e-001 -1.526625e-001 3.169782e-001 2.439523e-002 -4.477480e-001 5.135279e-001
<VARIANCE> 25
 5.046648e+001 8.576059e+001 5.927174e+001 6.853522e+001 1.151059e+002 6.543073e+001 3.283302e+001 1.294846e+002 5.582726e+001 7.777132e+001 5.787796e+001 5.615321e+001 3.254992e+000 4.065235e+000 2.527394e+000 3.306609e+000 7.327972e+000 3.976483e+000 3.058173e+000 6.921370e+000 5.562252e+000 5.143137e+000 6.225041e+000 4.988470e+000 5.058839e+000
<GCONST> 1.159144e+002
<STATE> 3
<MEAN> 25
 7.212029e+000 -6.033505e+000 -1.193049e+000 -1.893050e+000 -5.647957e+000 -5.111718e+000 -4.676897e-001 2.226253e+000 -4.126163e+000 -5.114103e+000 -3.528558e+000 -4.453279e-001 5.504124e-001 1.378623e+000 6.089181e-001 9.220470e-001 -5.115464e-001 -2.487862e-002 3.073491e-001 -1.283406e+000 1.459393e-001 -1.670174e-001 -5.482367e-001 -2.354110e-001 -1.737912e+000
<VARIANCE> 25
 2.034134e+001 4.842942e+001 4.378037e+001 4.265656e+001 5.600297e+001 5.231602e+001 3.603545e+001 6.297693e+001 5.376147e+001 1.013336e+002 4.360637e+001 6.988889e+001 1.341420e+000 1.240539e+000 1.647275e+000 2.284115e+000 3.499357e+000 3.392179e+000 3.147667e+000 5.174941e+000 3.649597e+000 5.719396e+000 3.242024e+000 3.955976e+000 9.800428e-001
<GCONST> 1.053758e+002
<STATE> 4
<MEAN> 25
 8.731680e+000 3.037606e+000 3.381357e+000 6.075076e+000 -1.532311e+000 -2.441727e+000 9.546556e-002 -5.516988e+000 1.078125e+000 2.819088e-001 -6.264770e+000 -4.949832e+000 -2.020132e-001 7.178111e-001 4.288803e-001 4.284438e-001 4.631661e-001 2.565044e-001 1.910582e-001 -3.369858e-001 1.525179e-001 1.497218e-001 2.809659e-002 3.764614e-001 -9.122148e-001
<VARIANCE> 25
 2.409491e+001 3.996778e+001 2.578400e+001 2.351334e+001 6.361797e+001 3.298893e+001 2.771143e+001 3.747090e+001 3.721756e+001 3.241108e+001 3.481474e+001 3.688925e+001 9.804392e-001 1.419851e+000 1.189331e+000 1.948409e+000 1.644190e+000 2.017518e+000 2.529995e+000 4.386132e+000 2.269022e+000 2.748733e+000 2.438926e+000 2.595185e+000 6.920316e-001
<GCONST> 9.615661e+001
<TRANSP> 5
 0.000000e+000 1.000000e+000 0.000000e+000 0.000000e+000 0.000000e+000
 0.000000e+000 6.782602e-001 3.217398e-001 0.000000e+000 0.000000e+000
 0.000000e+000 0.000000e+000 7.535335e-001 2.464665e-001 0.000000e+000
 0.000000e+000 0.000000e+000 0.000000e+000 7.588765e-001 2.411235e-001
 0.000000e+000 0.000000e+000 0.000000e+000 0.000000e+000 0.000000e+000
<ENDHMM>
~h "p"
<BEGINHMM>
<NUMSTATES> 5
<STATE> 2
<MEAN> 25
 -2.923859e+000 -1.158457e+000 -3.239593e+000 2.517605e+000 2.046843e+000 2.186320e-001 2.622661e+000 1.415065e+000 2.086509e+000 5.782001e-001 3.589201e-003 3.957940e-002 9.820246e-001 -1.637224e+000 -5.445544e-001 -4.992007e-001 -6.948221e-001 -1.283606e+000 -1.136566e+000 -1.905152e-001 -8.793564e-003 -3.214112e-001 8.601224e-001 -2.274563e-001 5.383317e+000
<VARIANCE> 25
 2.359308e+001 4.140258e+001 4.972489e+001 6.120316e+001 5.584336e+001 3.505505e+001 4.628603e+001 2.449620e+001 2.307198e+001 2.798076e+001 3.678946e+001 2.071248e+001 4.994406e+000 6.607861e+000 1.027940e+001 7.684474e+000 7.370642e+000 3.808823e+000 7.160594e+000 3.356434e+000 2.365024e+000 4.245850e+000 7.299841e+000 2.670156e+000 1.618497e+001
<GCONST> 1.110119e+002
<STATE> 3
<MEAN> 25
 -9.743932e-001 -6.091970e+000 -4.561440e+000 -2.057281e+000 2.850681e+000 4.371388e+000 -1.493007e+000 -3.403546e+000 1.585888e+000 -8.096894e-001 1.306199e+000 -5.392878e-001 1.121492e+000 2.318069e-001 1.101637e+000 -1.034182e-002 -2.337484e-001 -6.320637e-002 -1.590362e+000 -7.473686e-001 -5.856585e-001 -6.311211e-001 -4.121218e-001 -3.550879e-001 1.439435e+000
<VARIANCE> 25
 4.236998e+001 5.293045e+001 7.571339e+001 5.530683e+001 8.225698e+001 1.012056e+002 4.268993e+001 3.169498e+001 3.518518e+001 2.882122e+001 5.569120e+001 2.085461e+001 4.896766e+000 3.253240e+000 4.531213e+000 2.349525e+000 6.237588e+000 7.234331e+000 8.517745e+000 3.481179e+000 4.214189e+000 2.694103e+000 3.735159e+000 2.529942e+000 1.063377e+001
<GCONST> 1.115904e+002
<STATE> 4
<MEAN> 25
 9.438748e+000 -2.371504e-001 -4.502219e+000 -3.719749e+000 -6.105125e+000 -4.481763e+000 -5.922558e+000 -2.143852e+000 1.353650e+000 -1.717702e-001 -1.288748e+000 -2.252526e+000 2.735899e-001 2.016462e-001 3.202302e-001 -5.345742e-002 -1.655413e-001 -2.184761e-001 7.434966e-002 7.018840e-002 -4.377959e-001 -1.726427e-002 2.604433e-001 -7.102410e-002 4.018312e-003
<VARIANCE> 25
 4.405347e+001 5.957646e+001 8.994094e+001 3.299655e+001 6.704031e+001 4.291438e+001 3.618994e+001 5.009795e+001 3.565302e+001 2.978379e+001 4.978510e+001 3.977684e+001 2.646967e+000 1.855851e+000 3.403121e+000 2.191330e+000 3.496065e+000 2.840823e+000 2.452884e+000 2.210140e+000 3.409708e+000 3.639471e+000 2.321638e+000 2.826907e+000 4.228542e+000
<GCONST> 1.052700e+002
<TRANSP> 5
 0.000000e+000 1.000000e+000 0.000000e+000 0.000000e+000 0.000000e+000
 0.000000e+000 5.747191e-001 4.252808e-001 0.000000e+000 0.000000e+000
 0.000000e+000 0.000000e+000 6.481789e-001 3.518211e-001 0.000000e+000
 0.000000e+000 0.000000e+000 0.000000e+000 7.317314e-001 2.682686e-001
 0.000000e+000 0.000000e+000 0.000000e+000 0.000000e+000 0.000000e+000
<ENDHMM>
~h "r"
<BEGINHMM>
<NUMSTATES> 5
<STATE> 2
<MEAN> 25
 2.532419e+000 -6.834378e-001 -2.381898e+000 5.362040e-001 -6.076657e-001 3.251013e+000 -1.361699e+000 2.571394e-001 2.744096e+000 -6.505071e-001 -1.852206e+000 -5.830609e-001 5.480809e-001 -4.873186e-001 -3.619148e-001 1.447278e-001 -1.846606e-001 -2.910942e-001 -5.208097e-001 1.440232e-001 1.797246e-001 -5.202793e-001 1.976283e-001 2.031512e-001 7.026129e-001
<VARIANCE> 25
 4.745828e+001 9.614301e+001 3.776420e+001 6.448165e+001 3.083518e+001 4.855912e+001 3.854982e+001 3.532679e+001 2.789925e+001 3.562333e+001 4.138389e+001 4.552590e+001 2.781098e+000 4.604487e+000 1.925070e+000 2.968085e+000 3.025270e+000 3.616906e+000 2.745315e+000 3.616011e+000 2.312614e+000 3.991179e+000 3.722712e+000 3.540177e+000 2.081642e+000
<GCONST> 1.056561e+002
<STATE> 3
<MEAN> 25
 7.048136e+000 -4.465526e+000 -3.832381e+000 -3.679193e-001 -2.892520e+000 -1.317335e+000 -4.815757e+000 5.862487e-001 4.574279e+000 -3.152343e+000 6.341585e-001 -9.911570e-001 6.742817e-001 -2.629114e-001 -3.313728e-001 2.563313e-001 -4.045444e-002 -1.010331e+000 -7.538622e-001 -1.944848e-001 4.404260e-001 -4.483195e-001 4.072659e-001 4.483067e-001 1.178203e+000
<VARIANCE> 25
 4.264859e+001 8.028504e+001 6.738403e+001 6.934198e+001 5.792701e+001 7.836077e+001 4.503237e+001 7.485363e+001 4.155006e+001 6.536410e+001 4.145271e+001 3.789285e+001 5.668846e+000 5.889047e+000 4.011102e+000 5.095980e+000 6.933288e+000 3.749536e+000 4.970449e+000 6.610427e+000 4.082739e+000 6.362138e+000 4.673892e+000 3.533048e+000 6.357704e+000
<GCONST> 1.155313e+002
<STATE> 4
<MEAN> 25
 8.017714e+000 -4.735060e+000 -6.831989e+000 6.153090e-001 7.757384e-002 -1.736922e+000 -5.159137e+000 2.987318e-002 2.868856e+000 -4.548406e+000 1.837675e+000 2.451438e+000 -1.480012e-001 5.724279e-002 2.515983e-001 1.122711e-001 1.461401e-001 -1.937212e-001 3.800802e-001 -1.576505e-001 -4.329899e-001 9.048580e-002 1.133183e-001 -4.834311e-002 -2.095042e-001
<VARIANCE> 25
 4.154728e+001 6.274288e+001 4.158931e+001 8.380837e+001 6.841851e+001 6.917613e+001 7.457946e+001 5.061795e+001 5.050883e+001 6.250098e+001 3.480158e+001 2.269840e+001 6.856697e-001 9.158331e-001 1.605359e+000 1.150537e+000 2.584153e+000 2.506701e+000 2.576957e+000 2.868100e+000 2.154757e+000 2.274284e+000 2.586575e+000 1.964005e+000 9.520264e-001
<GCONST> 1.005794e+002
<TRANSP> 5
 0.000000e+000 1.000000e+000 0.000000e+000 0.000000e+000 0.000000e+000
 0.000000e+000 5.951274e-001 4.048726e-001 0.000000e+000 0.000000e+000
 0.000000e+000 0.000000e+000 6.253117e-001 3.746883e-001 0.000000e+000
 0.000000e+000 0.000000e+000 0.000000e+000 8.092068e-001 1.907932e-001
 0.000000e+000 0.000000e+000 0.000000e+000 0.000000e+000 0.000000e+000
<ENDHMM>
~h "s"
<BEGINHMM>
<NUMSTATES> 5
<STATE> 2
<MEAN> 25
 -6.186907e+000 4.356364e+000 2.784999e+000 2.732155e+000 3.444146e+000 -3.078018e+000 2.252622e+000 6.245303e-001 -2.358455e+000 -9.350834e-001 2.803317e-001 5.102837e-001 -2.690973e+000 -6.547484e-002 6.985849e-002 4.638813e-002 7.745174e-001 1.906192e-002 5.243497e-002 1.029711e+000 3.733382e-001 -4.478875e-001 6.257958e-001 5.808355e-001 5.772631e-001
<VARIANCE> 25
 8.336429e+001 9.054623e+001 5.555117e+001 3.640283e+001 6.983922e+001 6.928116e+001 3.419715e+001 5.023072e+001 3.571053e+001 4.072678e+001 4.506084e+001 3.511704e+001 4.190347e+000 5.265922e+000 6.328892e+000 4.145391e+000 6.240087e+000 4.432379e+000 3.073460e+000 3.971253e+000 3.458206e+000 3.847798e+000 2.352527e+000 2.908309e+000 2.118255e+000
<GCONST> 1.105150e+002
<STATE> 3
<MEAN> 25
 -1.696863e+001 -7.289921e+000 1.255830e+001 3.967009e+000 -3.152577e+000 5.192558e+000 1.766990e+000 3.706328e+000 1.614872e+000 -1.677327e+000 3.715771e+000 -1.629468e+000 9.826485e-003 1.471520e-001 -2.986602e-001 -1.166663e-001 1.591295e-001 -9.613580e-003 -1.643987e-001 7.884498e-002 3.291680e-002 -6.353080e-002 -1.376856e-001 -5.892552e-002 1.056571e-001
<VARIANCE> 25
 4.193725e+001 7.701106e+001 9.833435e+001 3.735549e+001 4.581429e+001 4.097870e+001 2.892287e+001 2.568955e+001 1.618625e+001 4.456198e+001 3.188947e+001 1.701760e+001 4.738590e+000 1.300309e+000 2.350888e+000 1.261493e+000 1.829388e+000 1.611493e+000 1.531000e+000 1.659712e+000 1.599945e+000 1.782018e+000 1.404290e+000 1.148917e+000 8.638003e-001
<GCONST> 9.556063e+001
<STATE> 4
<MEAN> 25
 -1.217614e+001 4.565802e+000 -2.400403e+000 -2.017716e+000 4.357985e+000 -2.109435e+000 8.314148e-003 2.475379e+000 -8.342694e-001 2.056531e-001 -2.041482e+000 1.462461e+000 6.323495e-001 -2.671483e-001 -1.985071e-001 1.277081e-002 -2.351951e-001 5.467010e-002 -1.242735e-001 -2.592748e-001 1.103889e-001 6.262833e-002 1.556745e-001 1.438859e-002 -3.570083e-001
<VARIANCE> 25
 3.761384e+001 2.625420e+001 1.856345e+001 2.326043e+001 2.825943e+001 3.057413e+001 2.412319e+001 2.259610e+001 1.787688e+001 2.574007e+001 1.956265e+001 1.952894e+001 2.950455e+000 1.564644e+000 1.870412e+000 1.370860e+000 1.947684e+000 2.185440e+000 1.869861e+000 2.266258e+000 1.901192e+000 2.054286e+000 1.840008e+000 1.820273e+000 1.357597e+000
<GCONST> 9.229023e+001
<TRANSP> 5
 0.000000e+000 1.000000e+000 0.000000e+000 0.000000e+000 0.000000e+000
 0.000000e+000 6.939346e-001 3.060654e-001 0.000000e+000 0.000000e+000
 0.000000e+000 0.000000e+000 7.930529e-001 2.069471e-001 0.000000e+000
 0.000000e+000 0.000000e+000 0.000000e+000 8.435639e-001 1.564362e-001
 0.000000e+000 0.000000e+000 0.000000e+000 0.000000e+000 0.000000e+000
<ENDHMM>
~h "t"
<BEGINHMM>
<NUMSTATES> 5
<STATE> 2
<MEAN> 25
 -4.781608e+000 1.102650e+000 1.865637e-001 1.916363e+000 5.086768e-001 -6.194656e-001 2.922153e+000 1.326408e+000 2.085584e+000 1.387982e+000 3.131984e+000 -3.351531e-001 1.162921e+000 -1.840549e+000 -8.271133e-001 -1.597375e+000 -9.476891e-001 -1.725041e+000 -5.215264e-001 2.875722e-001 7.775069e-002 3.194360e-002 5.837180e-001 1.724164e-001 4.639140e+000
<VARIANCE> 25
 6.435427e+001 3.582547e+001 4.347124e+001 4.277685e+001 2.954168e+001 5.694585e+001 3.126825e+001 4.116968e+001 3.592877e+001 3.923932e+001 4.541632e+001 2.422197e+001 8.282801e+000 4.401439e+000 4.969374e+000 5.622007e+000 5.690460e+000 5.950989e+000 5.613204e+000 4.063005e+000 4.094701e+000 5.863251e+000 6.216053e+000 2.517993e+000 2.236305e+001
<GCONST> 1.126725e+002
<STATE> 3
<MEAN> 25
 8.160647e-001 -2.859584e+000 -1.036707e+000 -1.819706e+000 -2.197130e+000 -5.398933e+000 -1.737656e+000 1.594684e+000 1.018118e+000 -7.093029e-001 -4.784800e-001 -4.797384e-001 1.325594e+000 -8.833255e-001 -2.514833e-002 -5.361970e-001 -7.384793e-002 2.890261e-001 -8.260759e-001 5.518278e-001 -1.111774e-001 4.187092e-001 -4.461822e-001 -2.083690e-001 1.479089e+000
<VARIANCE> 25
 3.562857e+001 4.503072e+001 4.164549e+001 4.718681e+001 5.718501e+001 5.574173e+001 5.202378e+001 4.569868e+001 5.036663e+001 3.055649e+001 2.967717e+001 3.122424e+001 5.178281e+000 2.159594e+000 3.811854e+000 3.220379e+000 4.680491e+000 5.652548e+000 7.402276e+000 5.260539e+000 3.634272e+000 4.449553e+000 6.985947e+000 2.969183e+000 8.157550e+000
<GCONST> 1.106959e+002
<STATE> 4
<MEAN> 25
 3.790022e+000 -3.122426e+000 -1.402112e+000 -4.733557e+000 -1.609862e+000 -3.281689e+000 1.990367e-002 -1.503456e+000 -4.623223e-001 5.604953e+000 1.343326e+000 3.271348e+000 2.414427e-001 -6.339788e-002 -1.420430e-001 1.673770e-001 3.235627e-001 6.806120e-001 1.295073e-001 -4.373682e-001 -1.828244e-001 -8.912845e-002 2.774572e-001 8.855266e-002 -5.668683e-002
<VARIANCE> 25
 3.454335e+001 4.490326e+001 6.409116e+001 8.395315e+001 5.486654e+001 9.926580e+001 6.693758e+001 4.927567e+001 6.564545e+001 9.694862e+001 4.739037e+001 4.443278e+001 1.822984e+000 1.353960e+000 1.777300e+000 2.310965e+000 2.989568e+000 3.790145e+000 2.607784e+000 2.806325e+000 2.540088e+000 3.459237e+000 3.894926e+000 2.700521e+000 2.274020e+000
<GCONST> 1.070811e+002
<TRANSP> 5
 0.000000e+000 1.000000e+000 0.000000e+000 0.000000e+000 0.000000e+000
 0.000000e+000 5.357828e-001 4.642173e-001 0.000000e+000 0.000000e+000
 0.000000e+000 0.000000e+000 3.116274e-001 6.883726e-001 0.000000e+000
 0.000000e+000 0.000000e+000 0.000000e+000 6.652117e-001 3.347883e-001
 0.000000e+000 0.000000e+000 0.000000e+000 0.000000e+000 0.000000e+000
<ENDHMM>
~h "v"
<BEGINHMM>
<NUMSTATES> 5
<STATE> 2
<MEAN> 25
 2.780611e+000 2.146876e-001 -3.509600e+000 -3.149542e+000 8.239399e-001 1.130371e+000 -7.630105e-001 5.009487e-001 -2.948951e-001 2.815723e-001 8.412990e-001 2.643831e+000 1.674255e+000 6.211568e-001 -6.674336e-001 -2.472996e+000 5.005010e-002 1.533704e+000 -8.069329e-001 -9.785302e-001 -5.661581e-001 3.518001e-001 5.587063e-001 -1.716925e-001 9.103032e-001
<VARIANCE> 25
 2.721620e+001 2.935427e+001 2.998526e+001 9.159931e+001 3.249617e+001 6.500562e+001 3.977639e+001 3.565100e+001 2.670938e+001 3.209864e+001 4.158579e+001 1.528931e+001 4.185275e+000 4.712259e+000 4.966488e+000 6.135155e+000 4.653971e+000 5.691990e+000 2.654362e+000 5.678169e+000 5.026742e+000 6.260662e+000 3.711034e+000 1.968163e+000 6.917886e+000
<GCONST> 1.084294e+002
<STATE> 3
<MEAN> 25
 7.423899e+000 1.085989e+000 -9.274180e-001 -8.085551e+000 -4.346254e+000 6.283604e+000 -3.413692e+000 -8.222385e-002 -2.449691e+000 -4.232694e+000 2.118454e+000 5.599262e-001 -1.026120e-001 2.683261e-001 -1.494410e-001 -5.667834e-001 -1.023106e+000 -1.313180e-001 4.771138e-001 3.711842e-001 8.812714e-001 -8.968583e-002 -7.145056e-001 -6.383780e-001 1.069574e+000
<VARIANCE> 25
 2.581989e+001 2.851470e+001 3.109544e+001 1.618375e+002 4.918171e+001 1.982683e+002 6.069182e+001 2.817177e+001 1.811435e+001 5.606099e+001 1.488472e+001 2.097002e+001 1.711084e+000 1.634341e+000 1.206035e+000 3.502482e+000 3.117157e+000 4.458166e+000 1.911158e+000 1.816211e+000 1.156093e+000 1.954577e+000 1.978539e+000 1.704367e+000 2.305466e+000
<GCONST> 9.957935e+001
<STATE> 4
<MEAN> 25
 2.975425e+000 4.120477e+000 -4.318521e+000 -6.946552e+000 -2.029572e+000 1.815617e+000 6.001304e-001 5.835904e-001 2.719332e+000 1.074662e+000 -5.318100e-001 2.788561e+000 -5.446538e-001 -3.233834e-002 1.216883e-001 9.149684e-001 5.395513e-001 -1.295755e+000 2.077917e-001 -1.910997e-002 5.875463e-001 5.587015e-001 -4.517016e-001 -5.378510e-001 -2.478622e-001
<VARIANCE> 25
 3.810313e+001 1.774946e+001 2.214840e+001 1.044927e+002 4.920368e+001 7.248093e+001 4.372579e+001 4.100207e+001 3.030797e+001 3.446593e+001 1.989354e+001 5.147164e+001 9.381658e-001 1.348193e+000 1.514946e+000 2.386397e+000 1.755606e+000 7.002092e+000 2.248663e+000 1.623890e+000 2.206736e+000 3.054314e+000 4.500436e+000 2.905127e+000 9.358342e-001
<GCONST> 9.950081e+001
<TRANSP> 5
 0.000000e+000 1.000000e+000 0.000000e+000 0.000000e+000 0.000000e+000
 0.000000e+000 6.331375e-001 3.668624e-001 0.000000e+000 0.000000e+000
 0.000000e+000 0.000000e+000 5.391411e-001 4.608589e-001 0.000000e+000
 0.000000e+000 0.000000e+000 0.000000e+000 6.563709e-001 3.436291e-001
 0.000000e+000 0.000000e+000 0.000000e+000 0.000000e+000 0.000000e+000
<ENDHMM>
~h "w"
<BEGINHMM>
<NUMSTATES> 5
<STATE> 2
<MEAN> 25
 7.709506e+000 2.141203e+000 -4.164630e+000 -1.058938e+001 -3.133895e+000 6.346987e-001 8.876597e-001 1.480840e+000 -4.373168e-004 3.328203e-001 -3.128471e+000 -3.724068e+000 5.275604e-001 4.153702e-003 -5.342311e-001 -5.941166e-001 1.658710e-002 1.111830e-001 -6.066703e-001 -2.333448e-001 2.680578e-001 -8.999527e-003 3.169819e-001 -7.155870e-002 1.016905e+000
<VARIANCE> 25
 5.788091e+001 7.054515e+001 5.330629e+001 6.534361e+001 7.442957e+001 1.297303e+002 8.820753e+001 3.328735e+001 7.079135e+001 3.515207e+001 2.868876e+001 4.671427e+001 5.961159e+000 5.061779e+000 4.140089e+000 7.974768e+000 7.324640e+000 1.055354e+001 1.021227e+001 4.840040e+000 4.506168e+000 3.636679e+000 3.146384e+000 3.244690e+000 5.763517e+000
<GCONST> 1.166210e+002
<STATE> 3
<MEAN> 25
 1.063199e+001 1.958035e+000 -2.807449e+000 -1.124144e+001 -4.234967e+000 2.153305e-001 -1.086819e+001 1.985233e+000 -5.183560e+000 1.345752e+000 8.371508e+000 -3.745581e+000 -4.658410e-001 -1.421533e+000 -6.032534e-001 4.046005e-001 1.581743e-001 1.267123e-001 -2.029829e-001 1.147089e+000 4.208744e-001 -3.205449e-002 4.921865e-001 -1.063555e+000 1.235163e+000
<VARIANCE> 25
 2.644053e+001 5.421029e+001 5.343705e+001 1.206140e+002 4.117155e+001 1.189184e+002 7.074078e+001 2.562346e+001 5.522343e+001 2.387767e+001 4.443660e+001 4.433526e+001 1.305825e+000 1.300544e+000 1.910171e+000 4.424645e+000 3.389218e+000 8.594157e+000 4.259474e+000 1.940063e+000 3.949605e+000 2.888397e+000 4.830976e+000 3.115136e+000 8.775634e-001
<GCONST> 1.059173e+002
<STATE> 4
<MEAN> 25
 -1.617923e+000 -1.096318e+001 -8.277800e+000 -3.386569e+000 7.928468e+000 7.226695e+000 -5.024330e+000 -9.685784e-001 4.358208e-001 -3.395131e+000 7.702051e+000 -1.233580e+000 -2.143845e-001 -2.421031e-001 2.246679e-001 4.110138e-001 -3.618684e-002 -7.493684e-001 5.756282e-001 2.503656e-001 -4.054256e-001 -3.171240e-001 -1.629909e-001 7.856959e-001 7.453808e-002
<VARIANCE> 25
 2.370438e+001 2.132914e+001 9.044898e+000 2.156371e+001 7.156736e+001 1.122422e+002 3.557283e+001 5.228303e+001 3.328347e+001 1.051767e+001 1.549562e+001 5.302779e+001 3.888888e-001 6.110112e-001 3.341613e-001 7.513205e-001 1.168491e+000 1.768101e+000 1.843646e+000 2.139552e+000 1.885968e+000 1.869096e+000 1.488976e+000 2.152797e+000 1.873625e-001
<GCONST> 8.656377e+001
<TRANSP> 5
 0.000000e+000 1.000000e+000 0.000000e+000 0.000000e+000 0.000000e+000
 0.000000e+000 8.935337e-001 1.064663e-001 0.000000e+000 0.000000e+000
 0.000000e+000 0.000000e+000 8.134522e-001 1.865478e-001 0.000000e+000
 0.000000e+000 0.000000e+000 0.000000e+000 8.286145e-001 1.713855e-001
 0.000000e+000 0.000000e+000 0.000000e+000 0.000000e+000 0.000000e+000
<ENDHMM>
~h "y"
<BEGINHMM>
<NUMSTATES> 5
<STATE> 2
<MEAN> 25
 3.945289e+000 8.136741e-001 1.305883e+001 2.919522e+000 -1.247704e+001 -9.455136e+000 -6.413639e-001 -3.067402e+000 -1.307819e+001 -5.102502e+000 5.820269e+000 -6.721583e+000 3.643618e-001 -3.546394e-001 -1.649747e-001 2.048871e-001 -5.357080e-001 -7.529975e-001 -4.989275e-002 3.355998e-001 -5.968959e-002 -1.193496e-001 3.948779e-001 1.258023e-001 1.915307e-001
<VARIANCE> 25
 7.496306e+000 9.220458e+000 3.007321e+001 2.364784e+001 2.463051e+001 4.124737e+001 2.149911e+001 2.436012e+001 3.158833e+001 2.089261e+001 2.412494e+001 2.163398e+001 7.745439e-001 1.163913e+000 3.541785e+000 1.513668e+000 4.268082e+000 2.917218e+000 1.712286e+000 2.189223e+000 4.714253e+000 1.606962e+000 3.287110e+000 2.686559e+000 1.229882e+000
<GCONST> 9.251266e+001
<STATE> 3
<MEAN> 25
 5.185719e+000 -5.549300e-001 5.113342e-001 4.901733e+000 -6.702575e+000 -1.173654e+001 -4.320931e+000 -1.389606e+000 8.693218e-001 -3.710084e+000 -3.009430e+000 2.881655e+000 6.317002e-001 9.774306e-002 -1.102368e+000 -5.372923e-002 2.115125e-001 4.923141e-002 -2.667829e-002 -2.822655e-001 1.197373e+000 -2.749186e-001 2.862753e-002 1.299753e-001 -1.917800e-001
<VARIANCE> 25
 7.061133e+001 6.296864e+001 4.643288e+001 1.781026e+001 5.346104e+001 4.809986e+001 1.897323e+001 1.106383e+001 5.588563e+001 1.943703e+001 3.429300e+001 2.261024e+001 6.704255e+000 3.680272e+000 1.588994e+000 1.626105e+000 4.599376e+000 5.752075e+000 1.928500e+000 1.296777e+000 2.340736e+000 1.664951e+000 3.297044e+000 1.766472e+000 2.087414e+000
<GCONST> 1.001126e+002
<STATE> 4
<MEAN> 25
 1.038977e+001 -1.223131e+000 -4.964445e+000 3.395492e+000 -7.674357e+000 -9.921487e+000 -3.487042e+000 1.041586e+000 6.810049e+000 -8.115190e+000 1.013456e+000 1.369736e-001 -4.442523e-001 3.370012e-001 3.454755e-001 -2.714648e-002 4.049259e-001 6.010563e-001 6.209767e-001 2.288007e-001 -3.284084e-001 3.105110e-001 -2.291001e-001 -1.024259e-001 -6.158680e-001
<VARIANCE> 25
 1.981522e+001 1.361402e+001 4.002119e+001 3.465277e+001 5.032844e+001 3.613750e+001 2.756236e+001 5.335319e+001 4.966035e+001 3.913170e+001 2.770881e+001 1.407141e+001 4.223571e-001 9.862553e-001 1.558202e+000 1.091397e+000 2.214291e+000 2.168292e+000 1.566892e+000 1.780616e+000 1.833752e+000 1.568799e+000 1.612997e+000 1.340556e+000 5.187342e-001
<GCONST> 9.053825e+001
<TRANSP> 5
 0.000000e+000 1.000000e+000 0.000000e+000 0.000000e+000 0.000000e+000
 0.000000e+000 8.795026e-001 1.204974e-001 0.000000e+000 0.000000e+000
 0.000000e+000 0.000000e+000 7.857867e-001 2.142133e-001 0.000000e+000
 0.000000e+000 0.000000e+000 0.000000e+000 8.138704e-001 1.861297e-001
 0.000000e+000 0.000000e+000 0.000000e+000 0.000000e+000 0.000000e+000
<ENDHMM>
~h "z"
<BEGINHMM>
<NUMSTATES> 5
<STATE> 2
<MEAN> 25
 -2.155912e+000 1.548221e+000 -6.504192e+000 -5.691556e+000 6.239828e+000 4.465219e+000 -5.167984e+000 -2.578188e-001 4.626138e+000 -2.057899e+000 2.802029e-001 5.217099e+000 -1.379192e+000 9.233616e-001 3.513476e-001 5.624563e-001 4.627919e-001 -1.315704e+000 9.759431e-001 1.172357e+000 4.574628e-001 -4.786903e-001 -4.903648e-001 3.386214e-001 5.120580e-002
<VARIANCE> 25
 2.630951e+001 1.248434e+002 3.095883e+001 3.828722e+001 3.440383e+001 6.104422e+001 5.888213e+001 3.620708e+001 5.122157e+001 4.478762e+001 2.827271e+001 2.954758e+001 4.667089e+000 3.719390e+000 1.241625e+000 2.780159e+000 4.100749e+000 4.828640e+000 5.732001e+000 4.235749e+000 6.546657e+000 3.603096e+000 4.262662e+000 3.213321e+000 1.893321e+000
<GCONST> 1.075869e+002
<STATE> 3
<MEAN> 25
 -7.835612e+000 7.345376e+000 -4.063457e+000 9.809249e-001 1.136026e+001 -9.584457e+000 -4.105023e+000 6.595916e+000 5.870768e+000 2.123407e-001 1.017516e+000 7.272936e+000 1.086556e+000 -1.076216e+000 6.293241e-001 1.541986e+000 -4.058408e-001 -1.382099e+000 -7.819017e-001 -3.162048e-001 5.788743e-002 4.019387e-001 -7.608168e-001 -6.021766e-001 4.542639e-002
<VARIANCE> 25
 4.638770e+001 5.211900e+001 2.697382e+001 5.880358e+001 3.485900e+001 4.440780e+001 2.868477e+001 4.125725e+001 3.996080e+001 4.516110e+001 3.156568e+001 3.389965e+001 6.300098e+000 3.544303e+000 1.522889e+000 1.911988e+000 3.734606e+000 3.529572e+000 4.738322e+000 3.663025e+000 3.478108e+000 4.759165e+000 2.942307e+000 3.355561e+000 2.101584e+000
<GCONST> 1.054476e+002
<STATE> 4
<MEAN> 25
 1.743224e+000 6.098844e+000 -1.797972e+000 1.016440e-001 -1.536602e+000 -1.374833e+001 -1.435787e+000 1.036480e-001 1.408493e+000 -2.446679e+000 -2.384146e+000 3.912431e+000 3.754001e-001 -2.764532e-001 4.762398e-001 -2.153603e-001 -6.255795e-001 -1.716242e-001 -1.613600e-001 2.108563e-001 -1.367789e-001 -2.678856e-002 2.404627e-001 -1.277785e-001 4.853946e-001
<VARIANCE> 25
 2.414157e+001 9.176449e+001 3.142206e+001 4.675560e+001 3.070566e+001 3.969584e+001 6.053022e+001 2.439449e+001 3.283944e+001 6.193016e+001 4.970992e+001 5.108747e+001 2.871974e+000 8.631118e+000 1.743454e+000 3.143298e+000 3.215841e+000 2.814143e+000 5.317847e+000 2.862882e+000 2.180753e+000 5.060191e+000 2.353620e+000 5.264894e+000 2.191851e+000
<GCONST> 1.063431e+002
<TRANSP> 5
 0.000000e+000 1.000000e+000 0.000000e+000 0.000000e+000 0.000000e+000
 0.000000e+000 7.524025e-001 2.475975e-001 0.000000e+000 0.000000e+000
 0.000000e+000 0.000000e+000 7.462034e-001 2.537966e-001 0.000000e+000
 0.000000e+000 0.000000e+000 0.000000e+000 7.862746e-001 2.137254e-001
 0.000000e+000 0.000000e+000 0.000000e+000 0.000000e+000 0.000000e+000
<ENDHMM>
~h "aa"
<BEGINHMM>
<NUMSTATES> 5
<STATE> 2
<MEAN> 25
 6.732226e+000 -1.530529e+000 -7.408347e+000 -1.068508e+001 -9.965616e-001 5.768095e+000 -2.615820e+000 -1.931417e+000 -2.895301e+000 2.737847e+000 4.863306e+000 -3.315976e+000 1.360782e+000 5.822482e-001 -5.747816e-001 -1.060268e+000 -5.634820e-001 3.851650e-001 1.579742e-001 -7.819856e-001 -3.554539e-001 5.823530e-002 1.583496e-001 -4.586380e-001 3.899242e-001
<VARIANCE> 25
 2.362117e+001 4.121765e+001 4.930377e+001 5.518925e+001 3.840557e+001 3.658371e+001 2.929789e+001 3.558474e+001 1.575135e+001 2.367807e+001 5.197777e+001 2.146016e+001 1.960349e+000 1.949975e+000 1.935781e+000 4.042610e+000 2.832344e+000 2.509654e+000 2.207803e+000 2.559940e+000 2.050605e+000 2.928911e+000 1.604787e+000 3.913861e+000 3.784055e+000
<GCONST> 9.992508e+001
<STATE> 3
<MEAN> 25
 8.163600e+000 3.177946e+000 -5.720675e+000 -1.112923e+001 -1.961196e+000 6.210620e+000 2.756512e+000 -3.792888e+000 -2.318679e+000 5.546752e-001 -3.850088e-001 2.041332e-001 -9.083744e-001 4.999927e-001 6.604511e-001 1.113649e+000 6.496366e-001 -6.843215e-001 -1.809926e-001 4.144086e-001 3.681557e-001 7.762635e-002 -6.740364e-001 -1.903520e-002 -1.058999e+000
<VARIANCE> 25
 2.329902e+001 2.420150e+001 2.837159e+001 1.003040e+002 2.183613e+001 4.971264e+001 5.961349e+001 5.931772e+001 5.071915e+001 3.442378e+001 2.633544e+001 4.063020e+001 9.868773e-001 1.656252e+000 2.832541e+000 4.839391e+000 2.173387e+000 5.015123e+000 5.643847e+000 5.115104e+000 2.808814e+000 2.438422e+000 3.868375e+000 5.240117e+000 1.779819e+000
<GCONST> 1.042071e+002
<STATE> 4
<MEAN> 25
 -2.020972e+000 7.237832e+000 3.900576e+000 4.616450e+000 3.214969e+000 1.607399e+000 8.532633e-001 -1.315493e+000 3.069316e+000 2.400610e+000 -2.457539e+000 -1.905620e+000 -2.540047e-001 -8.043581e-002 8.356637e-002 3.951557e-001 -1.180753e-003 2.241886e-001 8.424191e-002 1.647691e-001 1.684700e-001 -5.546761e-002 -8.312829e-002 -2.511751e-001 -2.892104e-001
<VARIANCE> 25
 2.212626e+001 1.934486e+001 2.816667e+001 6.372921e+001 2.158693e+001 3.079697e+001 3.409660e+001 2.421068e+001 2.688635e+001 2.601748e+001 2.275736e+001 2.638968e+001 3.598913e-001 6.085983e-001 8.390344e-001 1.477515e+000 1.727998e+000 2.812452e+000 1.839469e+000 1.896652e+000 2.596947e+000 2.095352e+000 1.621652e+000 1.548454e+000 1.097426e+000
<GCONST> 8.989727e+001
<TRANSP> 5
 0.000000e+000 1.000000e+000 0.000000e+000 0.000000e+000 0.000000e+000
 0.000000e+000 7.713546e-001 2.286454e-001 0.000000e+000 0.000000e+000
 0.000000e+000 0.000000e+000 7.888717e-001 2.111283e-001 0.000000e+000
 0.000000e+000 0.000000e+000 0.000000e+000 8.079531e-001 1.920469e-001
 0.000000e+000 0.000000e+000 0.000000e+000 0.000000e+000 0.000000e+000
<ENDHMM>
~h "ae"
<BEGINHMM>
<NUMSTATES> 5
<STATE> 2
<MEAN> 25
 3.099283e+000 -1.386159e+000 -3.542051e+000 -2.434710e-001 -1.924422e+000 -4.002811e+000 8.591544e-001 -5.216376e-001 -4.187750e+000 -3.969164e+000 -3.062248e+000 -2.286182e+000 -5.740190e-001 1.858357e+000 8.901364e-002 2.026014e-001 -2.864527e-001 -4.068055e-001 8.182042e-001 -4.736299e-001 3.143271e-001 -3.452681e-001 -4.047195e-001 -4.797821e-001 -7.291797e-001
<VARIANCE> 25
 5.508333e+001 1.431700e+002 2.204217e+001 2.989196e+001 4.771152e+001 3.888317e+001 7.710265e+001 4.991869e+001 4.820893e+001 7.950094e+001 5.309479e+001 4.127523e+001 7.456021e+000 5.620418e+000 2.733073e+000 3.714353e+000 6.090961e+000 5.518990e+000 7.659381e+000 4.824147e+000 5.139683e+000 7.353726e+000 6.053341e+000 4.533775e+000 2.926421e+000
<GCONST> 1.143310e+002
<STATE> 3
<MEAN> 25
 -8.799182e+000 2.514805e+000 -3.223249e+000 9.237895e-001 2.751379e+000 -1.566715e+000 3.932365e+000 1.427714e+000 1.665736e+000 2.599524e+000 4.546480e+000 -1.869584e+000 1.244871e+000 -1.114233e+000 -6.620837e-001 -1.084432e+000 1.857984e-001 3.099646e-001 -1.091183e+000 -1.438002e-001 1.345963e-002 3.230544e-001 2.118757e-001 8.292682e-003 5.104416e-001
<VARIANCE> 25
 1.303415e+002 7.358105e+001 3.843795e+001 5.244293e+001 4.434799e+001 2.552808e+001 6.638798e+001 7.475681e+001 5.018364e+001 5.691215e+001 5.994423e+001 2.720936e+001 7.836040e+000 2.730166e+000 3.594174e+000 6.185802e+000 3.248320e+000 2.435267e+000 5.463987e+000 6.699673e+000 5.173780e+000 7.095509e+000 4.429167e+000 3.309796e+000 3.119269e+000
<GCONST> 1.128789e+002
<STATE> 4
<MEAN> 25
 6.012784e+000 -8.134082e+000 -9.862615e+000 -9.113177e+000 1.809614e+000 -2.086677e+000 -3.248972e+000 7.506625e-001 6.835093e+000 3.113822e+000 -1.744759e+000 -5.131536e+000 -3.284075e-001 -1.672939e-001 8.895933e-002 1.580452e-001 -1.929325e-001 -2.255673e-002 2.692555e-001 1.842621e-001 4.660799e-002 -2.190255e-001 -2.418024e-001 1.177006e-001 3.533085e-001
<VARIANCE> 25
 1.852104e+001 1.882578e+001 1.686458e+001 4.543132e+001 4.232513e+001 2.925458e+001 3.379144e+001 3.544221e+001 4.731614e+001 5.878059e+001 2.397843e+001 2.514242e+001 6.337252e-001 6.156995e-001 8.318501e-001 1.774729e+000 1.771499e+000 1.822503e+000 2.058384e+000 2.077490e+000 2.904258e+000 2.829440e+000 1.203178e+000 1.978004e+000 7.071007e-001
<GCONST> 9.168464e+001
<TRANSP> 5
 0.000000e+000 1.000000e+000 0.000000e+000 0.000000e+000 0.000000e+000
 0.000000e+000 8.300079e-001 1.699921e-001 0.000000e+000 0.000000e+000
 0.000000e+000 0.000000e+000 8.596610e-001 1.403390e-001 0.000000e+000
 0.000000e+000 0.000000e+000 0.000000e+000 8.747460e-001 1.252540e-001
 0.000000e+000 0.000000e+000 0.000000e+000 0.000000e+000 0.000000e+000
<ENDHMM>
~h "ah"
<BEGINHMM>
<NUMSTATES> 5
<STATE> 2
<MEAN> 25
 4.296969e+000 -1.446953e+000 -2.292391e+000 1.137778e+000 1.954505e+000 -1.512439e-001 -4.350883e+000 -3.432954e+000 -1.063717e+000 -1.980799e+000 1.285451e+000 1.305836e-001 3.340507e-001 -3.193339e-001 -1.169524e-001 -3.344262e-001 -5.378066e-001 2.389265e-001 -6.750201e-001 -2.775076e-001 -2.075772e-001 -6.470415e-001 2.778015e-001 9.264509e-002 6.884618e-001
<VARIANCE> 25
 3.283372e+001 4.440438e+001 5.882530e+001 5.655116e+001 5.275570e+001 6.190575e+001 8.230615e+001 5.312210e+001 4.851221e+001 4.497181e+001 4.289367e+001 2.306153e+001 3.123961e+000 2.910351e+000 3.589683e+000 4.610646e+000 6.224598e+000 3.208554e+000 5.264939e+000 4.156390e+000 4.387191e+000 5.073501e+000 3.901841e+000 2.752807e+000 3.897694e+000
<GCONST> 1.103315e+002
<STATE> 3
<MEAN> 25
 4.289641e+000 -3.000765e+000 -4.192742e-001 4.214403e-001 7.994361e-001 -2.409386e+000 -4.632341e+000 1.564493e-001 -2.369931e+000 -5.621814e+000 6.615452e-001 6.589478e-002 3.427008e-001 9.324989e-001 -2.485358e-002 -5.480118e-001 -7.956607e-001 -3.100952e-001 4.571606e-001 5.035580e-001 4.751011e-002 8.955805e-002 -3.695618e-001 -9.368932e-002 -6.569095e-001
<VARIANCE> 25
 4.376905e+001 5.958934e+001 5.479417e+001 5.851341e+001 7.302287e+001 6.003236e+001 5.748276e+001 6.945248e+001 6.556897e+001 4.992609e+001 4.088179e+001 3.729209e+001 1.527591e+000 2.873448e+000 2.819942e+000 2.116807e+000 4.783164e+000 2.987573e+000 3.432448e+000 5.863943e+000 3.503838e+000 3.321963e+000 3.629939e+000 3.227116e+000 2.161209e+000
<GCONST> 1.086004e+002
<STATE> 4
<MEAN> 25
 5.836325e+000 1.840339e-001 -1.875486e+000 -2.897519e+000 -2.343496e+000 -2.343779e+000 -1.031768e+000 -1.774914e-001 8.147747e-002 -9.945678e-001 -6.574169e-001 -1.679988e-001 -2.227197e-001 1.175349e-001 1.437034e-001 1.513130e-001 -1.563016e-001 -1.215562e-001 4.228739e-001 -1.348210e-002 1.631080e-002 1.591305e-001 -8.911142e-002 -1.577340e-002 -4.547973e-001
<VARIANCE> 25
 2.705005e+001 3.637202e+001 5.329606e+001 4.434028e+001 7.331664e+001 5.636959e+001 6.147261e+001 4.203023e+001 3.762340e+001 3.067658e+001 3.891962e+001 4.136971e+001 6.247306e-001 1.184418e+000 1.286021e+000 1.462842e+000 2.544024e+000 1.996055e+000 2.206726e+000 2.162515e+000 1.734932e+000 1.654565e+000 2.224926e+000 1.936543e+000 7.264230e-001
<GCONST> 9.693900e+001
<TRANSP> 5
 0.000000e+000 1.000000e+000 0.000000e+000 0.000000e+000 0.000000e+000
 0.000000e+000 6.014543e-001 3.985457e-001 0.000000e+000 0.000000e+000
 0.000000e+000 0.000000e+000 5.199546e-001 4.800454e-001 0.000000e+000
 0.000000e+000 0.000000e+000 0.000000e+000 6.924429e-001 3.075570e-001
 0.000000e+000 0.000000e+000 0.000000e+000 0.000000e+000 0.000000e+000
<ENDHMM>
~h "ao"
<BEGINHMM>
<NUMSTATES> 5
<STATE> 2
<MEAN> 25
 4.115673e+000 1.683056e+000 -5.621170e+000 -1.352159e+000 -3.287801e+000 5.791992e-002 1.992107e+000 -9.154264e-001 -2.947700e+000 -3.237820e+000 1.948825e+000 -1.407066e+000 3.123691e+000 7.618883e-001 -7.450542e-001 -2.979186e+000 -2.369846e+000 6.485347e-001 -3.070775e-001 -7.033029e-001 -1.394050e+000 -8.534772e-001 1.041259e+000 -1.876861e-001 3.138376e+000
<VARIANCE> 25
 5.003132e+001 2.518415e+001 2.451076e+001 6.835193e+001 6.065505e+001 4.211426e+001 4.816103e+001 5.851947e+001 3.704337e+001 3.319313e+001 4.357845e+001 2.315845e+001 5.783816e+000 2.943192e+000 2.543444e+000 5.380438e+000 4.141167e+000 7.734335e+000 4.717523e+000 6.558891e+000 4.749512e+000 2.817698e+000 7.651148e+000 2.439593e+000 3.489062e+000
<GCONST> 1.094503e+002
<STATE> 3
<MEAN> 25
 3.546567e+000 -4.882064e+000 -7.093219e+000 -4.657392e+000 -3.313033e+000 3.003751e+000 1.018729e+001 1.858831e+000 -4.515918e+000 -3.481701e+000 5.208842e-001 -2.826974e-001 4.961217e-001 -2.556752e-001 -1.899231e-001 -7.831892e-001 -2.665357e-003 1.121681e+000 -6.255039e-001 -2.726346e-001 5.851226e-001 -2.352036e-002 2.466848e-001 -3.768973e-001 1.838305e-001
<VARIANCE> 25
 3.723215e+001 2.837370e+001 8.947623e+000 4.275254e+001 2.923683e+001 4.964153e+001 1.045043e+002 6.973856e+001 2.833462e+001 7.315321e+000 3.359987e+001 1.643842e+001 1.194281e+000 2.409755e-001 7.159859e-001 2.452456e+000 1.644778e+000 6.483141e+000 1.280671e+000 2.121793e+000 8.772138e-001 8.906627e-001 1.146807e+000 1.465000e+000 9.506119e-001
<GCONST> 8.958414e+001
<STATE> 4
<MEAN> 25
 1.355286e+001 3.130117e+000 -6.478775e+000 -1.310900e+001 -9.954995e+000 1.140882e+001 -3.514654e+000 -6.533449e+000 -2.591163e+000 -2.909333e+000 4.759822e+000 -6.434684e-001 -1.219216e-001 -5.154964e-002 -4.450629e-002 3.468555e-001 1.483932e-001 5.043639e-002 -2.929765e-001 1.964271e-001 2.695979e-001 2.399540e-001 -2.147234e-001 -5.839369e-002 -7.766564e-002
<VARIANCE> 25
 1.094709e+001 1.804850e+001 2.989424e+001 5.904586e+001 3.077301e+001 6.124516e+001 2.481920e+001 4.501203e+001 1.838489e+001 1.357987e+001 2.799301e+001 3.178918e+001 2.984622e-001 7.442346e-001 1.031960e+000 2.585707e+000 1.495897e+000 2.805435e+000 1.669705e+000 1.617224e+000 1.568952e+000 1.270110e+000 1.468034e+000 1.703347e+000 3.399397e-001
<GCONST> 8.801195e+001
<TRANSP> 5
 0.000000e+000 1.000000e+000 0.000000e+000 0.000000e+000 0.000000e+000
 0.000000e+000 7.480250e-001 2.519750e-001 0.000000e+000 0.000000e+000
 0.000000e+000 0.000000e+000 7.198439e-001 2.801561e-001 0.000000e+000
 0.000000e+000 0.000000e+000 0.000000e+000 9.311066e-001 6.889343e-002
 0.000000e+000 0.000000e+000 0.000000e+000 0.000000e+000 0.000000e+000
<ENDHMM>
~h "aw"
<BEGINHMM>
<NUMSTATES> 5
<STATE> 2
<MEAN> 25
 3.902644e+000 -1.356162e+000 -2.792888e+000 -1.146354e+000 4.900940e+000 -8.261129e-001 -8.523033e+000 -2.231917e+000 -1.554075e+000 -7.652916e-001 2.285377e+000 1.940519e+000 5.261801e-001 -1.221031e+000 -5.859137e-001 -4.088899e-001 6.092498e-001 1.514545e+000 -1.170789e+000 5.407233e-001 7.008348e-002 -9.012807e-002 4.261004e-001 -8.944225e-001 2.769003e+000
<VARIANCE> 25
 4.379425e+001 6.409442e+001 3.463390e+001 4.538116e+001 3.554305e+001 7.303189e+001 8.863132e+001 3.533657e+001 6.118834e+001 2.140956e+001 4.484962e+001 4.160767e+001 4.284037e+000 5.224001e+000 2.994983e+000 4.435052e+000 4.290393e+000 6.970720e+000 8.124851e+000 4.160340e+000 4.988587e+000 2.159790e+000 4.856707e+000 5.936489e+000 1.014637e+001
<GCONST> 1.125362e+002
<STATE> 3
<MEAN> 25
 2.821776e+000 -1.096933e+001 -7.899534e+000 -5.304339e+000 9.341114e+000 1.099942e+001 -9.130055e+000 3.282637e-001 1.118105e+000 9.482738e-001 4.293460e+000 -5.350469e+000 3.303911e-001 2.070946e-001 7.037792e-002 -1.003091e+000 -3.476838e-001 6.441971e-001 1.707648e-001 -2.605254e-001 -3.399948e-001 6.373137e-001 1.606275e-001 -6.012363e-001 -2.778385e-002
<VARIANCE> 25
 3.297846e+001 1.074204e+001 1.530050e+001 3.144925e+001 3.537853e+001 3.064724e+001 4.210489e+001 3.217703e+001 4.433236e+001 2.661409e+001 5.079042e+001 3.632925e+001 8.127497e-001 1.036893e+000 1.063912e+000 1.909436e+000 2.077945e+000 2.744505e+000 3.514354e+000 2.328817e+000 1.439484e+000 1.655709e+000 2.792612e+000 2.120025e+000 8.064341e-001
<GCONST> 9.359940e+001
<STATE> 4
<MEAN> 25
 9.065775e+000 -2.134175e+000 -7.315839e+000 -1.381530e+001 1.365919e+000 7.489252e+000 -1.024014e+001 -2.630586e+000 -3.299115e+000 6.387662e+000 5.269261e+000 -1.758544e+000 -2.295241e-001 1.429764e+000 -1.082936e-001 2.947085e-001 -4.411777e-002 -1.281599e+000 -2.553873e-001 -4.514136e-001 4.898703e-001 -2.651664e-001 -1.939179e-001 1.627260e+000 -5.481437e-001
<VARIANCE> 25
 1.641630e+001 2.509432e+001 2.066539e+001 4.262347e+001 2.279770e+001 6.489523e+001 5.271902e+001 2.211160e+001 3.525360e+001 2.807237e+001 3.132756e+001 4.605917e+001 1.432502e+000 1.131823e+000 1.668926e+000 5.095007e+000 2.811663e+000 7.132747e+000 4.582640e+000 2.505226e+000 2.438903e+000 3.801631e+000 2.625950e+000 2.486198e+000 3.960423e-001
<GCONST> 9.852076e+001
<TRANSP> 5
 0.000000e+000 1.000000e+000 0.000000e+000 0.000000e+000 0.000000e+000
 0.000000e+000 8.390971e-001 1.609030e-001 0.000000e+000 0.000000e+000
 0.000000e+000 0.000000e+000 8.814806e-001 1.185194e-001 0.000000e+000
 0.000000e+000 0.000000e+000 0.000000e+000 8.589275e-001 1.410725e-001
 0.000000e+000 0.000000e+000 0.000000e+000 0.000000e+000 0.000000e+000
<ENDHMM>
~h "ay"
<BEGINHMM>
<NUMSTATES> 5
<STATE> 2
<MEAN> 25
 8.556095e+000 -3.420488e+000 -9.371988e+000 -2.988435e+000 -4.774877e+000 -2.974621e+000 -2.835016e+000 -5.915763e+000 2.983536e+000 -3.417276e+000 7.154515e+000 2.616466e+000 -3.645862e-001 1.222145e-001 3.513058e-001 1.282024e+000 7.495003e-001 -4.309677e-001 -1.009413e+000 -1.425980e+000 -5.372996e-001 7.622432e-003 6.463036e-001 3.777682e-002 -2.932244e-001
<VARIANCE> 25
 1.455737e+001 1.956384e+001 3.708257e+001 4.514344e+001 5.109469e+001 2.552753e+001 7.307252e+001 6.063123e+001 1.606079e+001 2.112867e+001 2.687483e+001 4.345797e+001 7.252924e-001 7.049878e-001 3.360498e+000 2.255990e+000 3.292960e+000 1.858580e+000 6.225134e+000 2.280322e+000 2.389952e+000 1.638778e+000 1.940704e+000 2.976588e+000 5.179552e-001
<GCONST> 9.576202e+001
<STATE> 3
<MEAN> 25
 5.913715e+000 -2.049172e+000 -2.830264e+000 4.944294e+000 2.806294e+000 -4.291315e+000 -9.212259e+000 -9.158990e+000 -1.287119e+000 -6.233507e+000 4.787020e+000 -4.168456e-001 -3.424459e-001 4.594759e-001 1.126486e+000 1.083761e+000 7.979991e-001 1.638514e-001 3.887416e-001 1.145782e+000 -9.302728e-001 -5.212440e-001 -1.494022e+000 -6.574003e-001 -1.168374e+000
<VARIANCE> 25
 1.855062e+001 1.808927e+001 2.757743e+001 2.400550e+001 6.847575e+001 3.149020e+001 7.897215e+001 4.273464e+001 3.521722e+001 3.719420e+001 3.002892e+001 1.803138e+001 6.846007e-001 6.944592e-001 1.976086e+000 2.026706e+000 5.927953e+000 1.659061e+000 5.531289e+000 2.645927e+000 2.081607e+000 2.504879e+000 1.552554e+000 2.809184e+000 9.449081e-001
<GCONST> 9.621112e+001
<STATE> 4
<MEAN> 25
 2.455169e+000 -2.120573e+000 1.433719e-001 6.010255e+000 9.746745e+000 1.215749e+000 -8.338401e+000 -7.640546e+000 -2.181073e+000 -2.719605e+000 1.405249e+000 -1.893975e+000 -1.275704e-001 1.887306e-001 -2.417706e-002 -5.241722e-001 -9.456549e-001 6.445995e-002 1.335446e+000 5.471519e-001 6.067880e-002 8.445351e-001 -1.903940e-001 -1.220453e-001 -7.005671e-001
<VARIANCE> 25
 2.086109e+001 2.690068e+001 4.693507e+001 2.666971e+001 7.169919e+001 3.063304e+001 7.154968e+001 5.283725e+001 3.591433e+001 5.545309e+001 2.372294e+001 1.909818e+001 1.150492e+000 9.151160e-001 2.831000e+000 2.910175e+000 4.936218e+000 1.932824e+000 5.156944e+000 4.237099e+000 1.862806e+000 4.575436e+000 1.855475e+000 2.559911e+000 2.438314e+000
<GCONST> 1.011465e+002
<TRANSP> 5
 0.000000e+000 1.000000e+000 0.000000e+000 0.000000e+000 0.000000e+000
 0.000000e+000 7.656948e-001 2.343052e-001 0.000000e+000 0.000000e+000
 0.000000e+000 0.000000e+000 6.494292e-001 3.505708e-001 0.000000e+000
 0.000000e+000 0.000000e+000 0.000000e+000 7.356913e-001 2.643087e-001
 0.000000e+000 0.000000e+000 0.000000e+000 0.000000e+000 0.000000e+000
<ENDHMM>
~h "ch"
<BEGINHMM>
<NUMSTATES> 5
<STATE> 2
<MEAN> 25
 -1.118406e-008 6.902663e-008 -6.127934e-008 -1.132241e-009 1.805760e-009 2.941641e-009 -3.920247e-008 -3.669770e-009 -5.191560e-008 -1.454802e-008 -2.627090e-008 3.876559e-008 2.510028e-002 3.968836e-004 8.013876e-003 -9.237975e-003 8.363929e-003 -6.403908e-003 3.811424e-003 -9.137135e-003 -5.245406e-003 -8.095243e-003 -3.207545e-003 -3.381838e-003 3.557804e-002
<VARIANCE> 25
 6.664439e+001 4.403650e+001 5.783500e+001 5.743623e+001 6.515208e+001 5.500425e+001 5.372772e+001 4.345287e+001 4.255812e+001 4.180091e+001 3.585940e+001 3.108589e+001 1.968051e+000 1.809448e+000 1.938954e+000 2.304791e+000 2.836484e+000 2.744093e+000 2.863587e+000 2.754002e+000 2.523799e+000 2.575277e+000 2.427561e+000 2.158062e+000 2.903915e+000
<GCONST> 1.039577e+002
<STATE> 3
<MEAN> 25
 -1.118406e-008 6.902663e-008 -6.127934e-008 -1.132241e-009 1.805760e-009 2.941641e-009 -3.920247e-008 -3.669770e-009 -5.191560e-008 -1.454802e-008 -2.627090e-008 3.876559e-008 2.510028e-002 3.968836e-004 8.013876e-003 -9.237975e-003 8.363929e-003 -6.403908e-003 3.811424e-003 -9.137135e-003 -5.245406e-003 -8.095243e-003 -3.207545e-003 -3.381838e-003 3.557804e-002
<VARIANCE> 25
 6.664439e+001 4.403650e+001 5.783500e+001 5.743623e+001 6.515208e+001 5.500425e+001 5.372772e+001 4.345287e+001 4.255812e+001 4.180091e+001 3.585940e+001 3.108589e+001 1.968051e+000 1.809448e+000 1.938954e+000 2.304791e+000 2.836484e+000 2.744093e+000 2.863587e+000 2.754002e+000 2.523799e+000 2.575277e+000 2.427561e+000 2.158062e+000 2.903915e+000
<GCONST> 1.039577e+002
<STATE> 4
<MEAN> 25
 -1.118406e-008 6.902663e-008 -6.127934e-008 -1.132241e-009 1.805760e-009 2.941641e-009 -3.920247e-008 -3.669770e-009 -5.191560e-008 -1.454802e-008 -2.627090e-008 3.876559e-008 2.510028e-002 3.968836e-004 8.013876e-003 -9.237975e-003 8.363929e-003 -6.403908e-003 3.811424e-003 -9.137135e-003 -5.245406e-003 -8.095243e-003 -3.207545e-003 -3.381838e-003 3.557804e-002
<VARIANCE> 25
 6.664439e+001 4.403650e+001 5.783500e+001 5.743623e+001 6.515208e+001 5.500425e+001 5.372772e+001 4.345287e+001 4.255812e+001 4.180091e+001 3.585940e+001 3.108589e+001 1.968051e+000 1.809448e+000 1.938954e+000 2.304791e+000 2.836484e+000 2.744093e+000 2.863587e+000 2.754002e+000 2.523799e+000 2.575277e+000 2.427561e+000 2.158062e+000 2.903915e+000
<GCONST> 1.039577e+002
<TRANSP> 5
 0.000000e+000 1.000000e+000 0.000000e+000 0.000000e+000 0.000000e+000
 0.000000e+000 6.000000e-001 4.000000e-001 0.000000e+000 0.000000e+000
 0.000000e+000 0.000000e+000 6.000000e-001 4.000000e-001 0.000000e+000
 0.000000e+000 0.000000e+000 0.000000e+000 7.000000e-001 3.000000e-001
 0.000000e+000 0.000000e+000 0.000000e+000 0.000000e+000 0.000000e+000
<ENDHMM>
~h "dh"
<BEGINHMM>
<NUMSTATES> 5
<STATE> 2
<MEAN> 25
 -1.118406e-008 6.902663e-008 -6.127934e-008 -1.132241e-009 1.805760e-009 2.941641e-009 -3.920247e-008 -3.669770e-009 -5.191560e-008 -1.454802e-008 -2.627090e-008 3.876559e-008 2.510028e-002 3.968836e-004 8.013876e-003 -9.237975e-003 8.363929e-003 -6.403908e-003 3.811424e-003 -9.137135e-003 -5.245406e-003 -8.095243e-003 -3.207545e-003 -3.381838e-003 3.557804e-002
<VARIANCE> 25
 6.664439e+001 4.403650e+001 5.783500e+001 5.743623e+001 6.515208e+001 5.500425e+001 5.372772e+001 4.345287e+001 4.255812e+001 4.180091e+001 3.585940e+001 3.108589e+001 1.968051e+000 1.809448e+000 1.938954e+000 2.304791e+000 2.836484e+000 2.744093e+000 2.863587e+000 2.754002e+000 2.523799e+000 2.575277e+000 2.427561e+000 2.158062e+000 2.903915e+000
<GCONST> 1.039577e+002
<STATE> 3
<MEAN> 25
 -1.118406e-008 6.902663e-008 -6.127934e-008 -1.132241e-009 1.805760e-009 2.941641e-009 -3.920247e-008 -3.669770e-009 -5.191560e-008 -1.454802e-008 -2.627090e-008 3.876559e-008 2.510028e-002 3.968836e-004 8.013876e-003 -9.237975e-003 8.363929e-003 -6.403908e-003 3.811424e-003 -9.137135e-003 -5.245406e-003 -8.095243e-003 -3.207545e-003 -3.381838e-003 3.557804e-002
<VARIANCE> 25
 6.664439e+001 4.403650e+001 5.783500e+001 5.743623e+001 6.515208e+001 5.500425e+001 5.372772e+001 4.345287e+001 4.255812e+001 4.180091e+001 3.585940e+001 3.108589e+001 1.968051e+000 1.809448e+000 1.938954e+000 2.304791e+000 2.836484e+000 2.744093e+000 2.863587e+000 2.754002e+000 2.523799e+000 2.575277e+000 2.427561e+000 2.158062e+000 2.903915e+000
<GCONST> 1.039577e+002
<STATE> 4
<MEAN> 25
 -1.118406e-008 6.902663e-008 -6.127934e-008 -1.132241e-009 1.805760e-009 2.941641e-009 -3.920247e-008 -3.669770e-009 -5.191560e-008 -1.454802e-008 -2.627090e-008 3.876559e-008 2.510028e-002 3.968836e-004 8.013876e-003 -9.237975e-003 8.363929e-003 -6.403908e-003 3.811424e-003 -9.137135e-003 -5.245406e-003 -8.095243e-003 -3.207545e-003 -3.381838e-003 3.557804e-002
<VARIANCE> 25
 6.664439e+001 4.403650e+001 5.783500e+001 5.743623e+001 6.515208e+001 5.500425e+001 5.372772e+001 4.345287e+001 4.255812e+001 4.180091e+001 3.585940e+001 3.108589e+001 1.968051e+000 1.809448e+000 1.938954e+000 2.304791e+000 2.836484e+000 2.744093e+000 2.863587e+000 2.754002e+000 2.523799e+000 2.575277e+000 2.427561e+000 2.158062e+000 2.903915e+000
<GCONST> 1.039577e+002
<TRANSP> 5
 0.000000e+000 1.000000e+000 0.000000e+000 0.000000e+000 0.000000e+000
 0.000000e+000 6.000000e-001 4.000000e-001 0.000000e+000 0.000000e+000
 0.000000e+000 0.000000e+000 6.000000e-001 4.000000e-001 0.000000e+000
 0.000000e+000 0.000000e+000 0.000000e+000 7.000000e-001 3.000000e-001
 0.000000e+000 0.000000e+000 0.000000e+000 0.000000e+000 0.000000e+000
<ENDHMM>
~h "eh"
<BEGINHMM>
<NUMSTATES> 5
<STATE> 2
<MEAN> 25
 2.523950e+000 -3.212227e+000 1.589765e+000 4.422230e+000 -3.586303e+000 -4.882551e+000 -1.038905e+000 1.151023e-001 2.034976e-001 -9.683823e-001 5.193754e+000 4.064727e-001 -7.253837e-001 -1.594248e+000 9.539599e-001 -5.090537e-001 -1.006092e+000 9.868532e-001 2.132038e-001 1.178679e+000 5.584908e-001 3.584012e-001 9.682124e-002 3.935266e-001 5.424133e-001
<VARIANCE> 25
 4.476501e+001 4.649231e+001 2.951733e+001 2.281004e+001 7.586491e+001 9.898328e+001 3.765533e+001 7.290086e+001 5.681186e+001 4.138732e+001 3.472158e+001 2.103152e+001 4.385782e+000 3.721730e+000 3.922722e+000 2.445060e+000 6.603998e+000 6.034393e+000 6.816527e+000 7.117863e+000 6.469631e+000 5.351945e+000 4.632866e+000 1.892288e+000 1.081360e+001
<GCONST> 1.120143e+002
<STATE> 3
<MEAN> 25
 6.781091e-001 -1.061153e+001 6.339260e+000 3.963830e+000 -5.327563e+000 -3.666832e+000 -4.601810e+000 6.796294e+000 -2.744444e-001 -3.719122e+000 5.178415e+000 1.530341e+000 1.338918e-001 3.951195e-001 3.228688e-001 -5.146755e-001 2.609808e-001 2.718999e-001 4.230583e-001 -4.457991e-001 -1.105110e+000 6.903125e-002 5.450043e-002 -1.213466e-001 -1.459402e-001
<VARIANCE> 25
 8.951955e+001 6.452808e+001 3.055033e+001 2.369459e+001 8.408934e+001 7.444866e+001 5.418320e+001 6.035136e+001 9.857543e+001 3.468894e+001 2.392028e+001 2.065490e+001 2.614556e+000 3.341784e+000 3.568125e+000 3.479696e+000 2.035535e+000 1.933017e+000 3.614644e+000 2.132510e+000 4.515273e+000 2.297817e+000 1.758114e+000 1.421105e+000 6.848354e-001
<GCONST> 1.033428e+002
<STATE> 4
<MEAN> 25
 -1.046932e+000 6.275111e+000 8.965487e+000 5.598666e+000 -1.235605e+000 1.749572e+000 -1.971774e+000 -1.752594e+000 -3.573345e+000 -1.034091e-001 -3.528848e+000 -3.692423e+000 -1.130844e-001 2.167099e-001 -5.850084e-002 1.043643e-002 1.675462e-001 2.547163e-001 -3.012471e-003 -1.489876e-001 5.502877e-002 -5.226951e-002 -3.109742e-001 -2.758134e-002 -3.122263e-001
<VARIANCE> 25
 2.425707e+001 4.906322e+001 5.387888e+001 3.602694e+001 4.608798e+001 3.437959e+001 2.813318e+001 2.929035e+001 8.184007e+001 2.411652e+001 3.855565e+001 1.690527e+001 3.798413e-001 5.068556e-001 6.147626e-001 8.336489e-001 9.216626e-001 1.545601e+000 1.326045e+000 1.616323e+000 9.474173e-001 1.372614e+000 1.166439e+000 1.104437e+000 1.868881e-001
<GCONST> 8.638831e+001
<TRANSP> 5
 0.000000e+000 1.000000e+000 0.000000e+000 0.000000e+000 0.000000e+000
 0.000000e+000 7.056679e-001 2.943321e-001 0.000000e+000 0.000000e+000
 0.000000e+000 0.000000e+000 7.579266e-001 2.420733e-001 0.000000e+000
 0.000000e+000 0.000000e+000 0.000000e+000 8.315690e-001 1.684310e-001
 0.000000e+000 0.000000e+000 0.000000e+000 0.000000e+000 0.000000e+000
<ENDHMM>
~h "er"
<BEGINHMM>
<NUMSTATES> 5
<STATE> 2
<MEAN> 25
 9.744656e+000 -1.492179e+000 -6.121964e+000 3.640015e+000 -4.137737e+000 -7.010704e+000 -8.005472e+000 1.412719e+000 3.192343e+000 -1.555223e+000 -1.699883e-001 -1.925089e+000 2.090525e-002 1.710188e-001 4.025026e-002 1.364516e-001 1.279355e-001 -2.964865e-001 1.076811e-001 2.792720e-001 1.976596e-001 -2.443738e-001 -2.284525e-001 1.371332e-001 -3.069918e-001
<VARIANCE> 25
 2.917358e+001 2.399993e+001 4.069448e+001 4.165915e+001 4.056094e+001 6.166004e+001 4.871365e+001 3.768438e+001 3.091197e+001 3.600965e+001 1.900931e+001 3.575179e+001 1.953442e+000 9.177364e-001 2.156317e+000 2.017488e+000 2.808595e+000 3.327637e+000 3.593505e+000 2.602998e+000 1.694826e+000 1.932297e+000 1.611409e+000 1.775982e+000 1.840558e+000
<GCONST> 9.818253e+001
<STATE> 3
<MEAN> 25
 1.095010e+000 -2.917311e+000 -4.330438e-001 5.731332e+000 3.885787e+000 -2.455000e+000 -9.757581e-001 6.732553e+000 4.481335e+000 -4.509836e+000 -2.661731e+000 8.691135e-001 -7.143383e-001 -2.628828e-001 2.333283e-001 -4.164781e-001 5.712402e-001 8.060332e-001 9.048998e-001 -3.681875e-002 -1.330507e-001 3.774886e-001 -6.382823e-002 -4.058018e-004 -5.425047e-001
<VARIANCE> 25
 4.553146e+001 6.929545e+001 3.301716e+001 6.647672e+001 2.890762e+001 4.294054e+001 3.971755e+001 5.414267e+001 2.710356e+001 2.972715e+001 1.846315e+001 2.287150e+001 2.435272e+000 2.342129e+000 1.506245e+000 2.498834e+000 2.932719e+000 2.390486e+000 2.043118e+000 3.023080e+000 2.523978e+000 1.939799e+000 1.529863e+000 1.288488e+000 5.717527e-001
<GCONST> 9.777509e+001
<STATE> 4
<MEAN> 25
 -2.540544e+000 -1.047305e+000 -1.657035e+000 -6.465184e-004 3.334274e+000 3.081352e+000 2.918450e+000 8.426766e-001 1.506695e+000 1.994683e+000 1.728702e-001 3.354713e-001 -5.559747e-002 4.087875e-002 9.043688e-002 3.177000e-002 -1.063865e-002 3.265676e-002 3.863051e-003 -1.205811e-001 -6.178839e-002 4.499212e-002 4.435997e-002 4.473098e-002 -9.034555e-002
<VARIANCE> 25
 5.292202e+000 1.718014e+001 1.314034e+001 1.904476e+001 1.148600e+001 2.154275e+001 1.466474e+001 1.714677e+001 1.463447e+001 1.709593e+001 1.732420e+001 1.653363e+001 1.966746e-001 4.691738e-001 5.583768e-001 8.879841e-001 9.418720e-001 1.191325e+000 1.144651e+000 1.371557e+000 1.294005e+000 1.445776e+000 1.444028e+000 1.129156e+000 1.602955e-001
<GCONST> 7.496381e+001
<TRANSP> 5
 0.000000e+000 1.000000e+000 0.000000e+000 0.000000e+000 0.000000e+000
 0.000000e+000 8.366199e-001 1.633802e-001 0.000000e+000 0.000000e+000
 0.000000e+000 0.000000e+000 7.734957e-001 2.265042e-001 0.000000e+000
 0.000000e+000 0.000000e+000 0.000000e+000 9.298199e-001 7.018006e-002
 0.000000e+000 0.000000e+000 0.000000e+000 0.000000e+000 0.000000e+000
<ENDHMM>
~h "ey"
<BEGINHMM>
<NUMSTATES> 5
<STATE> 2
<MEAN> 25
 -1.504815e-001 -3.553304e+000 4.648094e+000 -2.406239e+000 -6.368749e+000 -2.776784e+000 1.557400e+000 -1.988500e-001 2.893422e-001 5.724651e-001 4.633815e-002 -1.626914e+000 1.468689e+000 4.239053e-002 1.161977e+000 -3.288333e-001 -1.569825e+000 -1.319486e+000 -3.355046e-001 -3.182530e-001 -7.945184e-001 -9.435757e-002 1.016073e+000 9.908061e-002 9.978954e-001
<VARIANCE> 25
 4.137778e+001 2.852652e+001 3.626228e+001 5.133398e+001 4.049173e+001 5.619488e+001 7.321455e+001 4.282672e+001 1.938123e+001 5.129306e+001 5.190366e+001 3.894612e+001 5.471324e+000 3.817637e+000 2.906640e+000 2.122429e+000 4.985421e+000 5.163054e+000 4.259849e+000 3.418237e+000 3.079286e+000 3.247493e+000 3.055899e+000 1.855133e+000 3.053282e+000
<GCONST> 1.067825e+002
<STATE> 3
<MEAN> 25
 4.052958e+000 -6.011900e+000 1.039027e+001 -1.238975e+000 -1.266105e+001 -7.392282e+000 -3.892856e+000 3.045276e+000 -4.607726e+000 -2.212711e+000 8.275554e+000 1.132074e+000 -2.782057e-001 4.262306e-001 4.063285e-001 -1.044168e+000 -7.665035e-001 6.592288e-001 -2.039527e-002 -4.012119e-001 -3.774941e-001 3.466925e-001 2.016037e-001 -4.097117e-001 1.788615e-001
<VARIANCE> 25
 1.054436e+001 1.385364e+001 2.533853e+001 3.585087e+001 3.634654e+001 4.435101e+001 6.376553e+001 4.655569e+001 2.538055e+001 3.620858e+001 3.413562e+001 1.980256e+001 4.036632e-001 8.444811e-001 1.879471e+000 1.067263e+000 2.739409e+000 2.202172e+000 3.060446e+000 3.248662e+000 2.951361e+000 2.190461e+000 1.829930e+000 1.757410e+000 8.554232e-001
<GCONST> 9.305550e+001
<STATE> 4
<MEAN> 25
 2.339044e+000 1.737623e+000 1.278446e+001 -4.566641e+000 -1.121403e+001 -2.431751e+000 -5.785637e+000 -3.390699e+000 -9.461619e+000 -5.355130e-001 4.380132e+000 -1.908984e+000 2.243036e-002 6.506962e-001 3.368815e-002 5.566493e-001 5.071694e-001 -4.919835e-002 -1.777387e-002 -1.109890e-001 -2.421376e-001 1.358918e-001 -5.356623e-001 3.538122e-002 -7.849991e-001
<VARIANCE> 25
 1.315841e+001 2.368833e+001 4.349776e+001 2.869263e+001 3.706780e+001 5.754726e+001 4.708260e+001 4.194132e+001 5.130132e+001 4.657602e+001 3.808355e+001 5.679264e+001 4.195851e-001 1.196588e+000 1.952904e+000 1.374821e+000 2.260383e+000 2.075503e+000 2.831605e+000 2.915102e+000 2.056725e+000 2.047953e+000 1.866866e+000 2.895781e+000 8.292420e-001
<GCONST> 9.642318e+001
<TRANSP> 5
 0.000000e+000 1.000000e+000 0.000000e+000 0.000000e+000 0.000000e+000
 0.000000e+000 6.817378e-001 3.182622e-001 0.000000e+000 0.000000e+000
 0.000000e+000 0.000000e+000 7.975557e-001 2.024443e-001 0.000000e+000
 0.000000e+000 0.000000e+000 0.000000e+000 9.026352e-001 9.736488e-002
 0.000000e+000 0.000000e+000 0.000000e+000 0.000000e+000 0.000000e+000
<ENDHMM>
~h "hh"
<BEGINHMM>
<NUMSTATES> 5
<STATE> 2
<MEAN> 25
 -2.035705e+000 -1.071761e+001 -9.511267e+000 8.325194e-002 7.578245e+000 -1.534593e+000 1.888862e+000 -1.640504e+000 3.158235e+000 -3.297090e+000 8.114114e-001 3.850615e+000 1.985306e-001 -6.726925e-001 1.303122e-001 -1.843846e-001 8.970568e-001 9.058301e-001 -5.660455e-004 -2.258694e-001 -8.280627e-002 1.607345e-001 1.982560e-001 -3.858256e-002 -4.236049e-001
<VARIANCE> 25
 3.552744e+001 3.421059e+001 1.006387e+002 5.453865e+001 3.627279e+001 3.669111e+001 1.421590e+001 3.634735e+001 6.021260e+001 3.134767e+001 4.611824e+001 5.018779e+001 1.790666e+000 2.992727e+000 1.402180e+000 1.807244e+000 2.906447e+000 1.916841e+000 7.083746e-001 2.701458e+000 4.560446e+000 4.344705e+000 5.594091e+000 5.914868e+000 2.728728e+000
<GCONST> 1.028559e+002
<STATE> 3
<MEAN> 25
 -7.091639e-001 -1.320230e+001 -4.399804e+000 1.235777e+000 1.554460e+001 1.546779e+000 -3.599620e-001 -2.940544e+000 -1.659336e+000 8.380550e-001 4.630729e+000 -2.030177e+000 5.090163e-001 -2.445845e-003 -3.989551e-001 -4.304792e-001 -4.432167e-001 -2.127218e-001 -2.316417e-001 -2.869283e-001 -1.575303e-001 1.409163e-001 -4.551499e-002 -5.568746e-001 1.628007e+000
<VARIANCE> 25
 3.056118e+001 2.119268e+001 3.974192e+001 2.972716e+001 3.482642e+001 6.161224e+001 1.764636e+001 3.678413e+001 1.622416e+001 2.471842e+001 2.851109e+001 4.205909e+001 4.028910e+000 2.429769e+000 3.042435e+000 2.542751e+000 4.884724e+000 2.709700e+000 2.587349e+000 4.735952e+000 2.537411e+000 2.024782e+000 1.782132e+000 2.520679e+000 2.479480e+000
<GCONST> 1.001880e+002
<STATE> 4
<MEAN> 25
 -2.603307e+000 2.058625e+000 1.397484e+000 7.317860e+000 6.099448e+000 3.355016e+000 1.940505e+000 -9.166697e-002 8.584076e-001 -5.259400e-002 -1.194380e+000 4.175984e-002 -4.328554e-003 -2.006171e-001 -7.404872e-002 -2.397527e-002 -2.499271e-001 -1.591687e-001 1.442649e-001 1.341989e-001 -2.391108e-001 -2.669493e-001 2.268970e-001 -8.747920e-002 4.733586e-001
<VARIANCE> 25
 1.099765e+001 1.272356e+002 6.459590e+001 4.336485e+001 2.145897e+001 1.303264e+001 1.808965e+001 1.892738e+001 2.572096e+001 1.841686e+001 5.422754e+001 2.804486e+001 8.936441e-001 2.016791e+000 2.716589e+000 2.287680e+000 2.437582e+000 1.423002e+000 2.251959e+000 2.070055e+000 1.305563e+000 2.636321e+000 2.098044e+000 2.850879e+000 2.459478e+000
<GCONST> 9.520929e+001
<TRANSP> 5
 0.000000e+000 1.000000e+000 0.000000e+000 0.000000e+000 0.000000e+000
 0.000000e+000 8.592647e-001 1.407353e-001 0.000000e+000 0.000000e+000
 0.000000e+000 0.000000e+000 8.787444e-001 1.212556e-001 0.000000e+000
 0.000000e+000 0.000000e+000 0.000000e+000 9.086487e-001 9.135129e-002
 0.000000e+000 0.000000e+000 0.000000e+000 0.000000e+000 0.000000e+000
<ENDHMM>
~h "ih"
<BEGINHMM>
<NUMSTATES> 5
<STATE> 2
<MEAN> 25
 1.200994e+000 3.503006e+000 1.990552e+000 1.725820e+000 -3.480065e+000 -5.785933e+000 -5.982325e-001 -2.487044e+000 -1.839022e+000 -2.550081e+000 -1.377554e+000 -9.092659e-001 5.164866e-002 1.338128e-001 1.860696e-001 1.737077e-001 4.028867e-001 5.687448e-002 -2.679330e-001 -3.023227e-001 -2.633328e-001 -7.207519e-002 5.751555e-002 3.224437e-002 -7.801056e-002
<VARIANCE> 25
 6.693480e+001 2.365184e+001 2.776399e+001 1.755307e+001 6.790640e+001 5.692739e+001 3.440532e+001 2.759028e+001 3.929728e+001 2.708402e+001 1.819185e+001 2.374626e+001 3.299217e+000 1.473436e+000 2.071840e+000 1.484608e+000 4.255111e+000 2.445704e+000 4.505255e+000 1.836345e+000 3.646072e+000 1.961977e+000 1.672461e+000 2.631111e+000 1.782442e+000
<GCONST> 9.884477e+001
<STATE> 3
<MEAN> 25
 2.529151e+000 1.501111e+000 4.534246e+000 7.017752e+000 7.205821e+000 -7.273521e-001 -7.958726e+000 -3.531410e+000 1.103595e+000 -3.698613e+000 -1.231777e+000 -2.043020e+000 -4.836558e-001 -2.607570e-001 9.546798e-002 -9.524495e-002 -2.579946e-002 2.248353e-001 4.612488e-001 3.601660e-001 4.327934e-001 5.244363e-001 2.219147e-003 -2.334153e-002 -4.456004e-001
<VARIANCE> 25
 2.821793e+001 3.094032e+001 4.459761e+001 3.426345e+001 3.442960e+001 3.029906e+001 1.046951e+002 7.343185e+001 2.448140e+001 3.429055e+001 1.979528e+001 2.237087e+001 6.509363e-001 1.157133e+000 2.143151e+000 2.003821e+000 1.398551e+000 2.639771e+000 3.575928e+000 1.961334e+000 2.223105e+000 1.830656e+000 1.586745e+000 1.715014e+000 3.722765e-001
<GCONST> 9.461861e+001
<STATE> 4
<MEAN> 25
 -2.911928e+000 -7.831169e-001 -5.017215e-002 -7.101284e-001 2.532456e+000 1.849909e+000 2.287282e+000 1.339601e+000 1.662163e+000 1.843503e+000 6.787701e-001 1.622359e+000 -8.849651e-003 2.377770e-002 1.596631e-002 2.589187e-002 1.501887e-002 2.904294e-003 1.975758e-002 -7.458084e-002 -5.083672e-002 1.866142e-002 -4.352917e-002 -4.816610e-003 1.153865e-002
<VARIANCE> 25
 5.177075e+000 7.554291e+000 9.210256e+000 1.259090e+001 1.435664e+001 1.411511e+001 1.871451e+001 1.744347e+001 1.351184e+001 1.692943e+001 1.410980e+001 1.303430e+001 3.036884e-001 5.021114e-001 5.233542e-001 8.136494e-001 9.874248e-001 1.184132e+000 1.340778e+000 1.218038e+000 1.422276e+000 1.733307e+000 1.236092e+000 1.309750e+000 2.333314e-001
<GCONST> 7.395460e+001
<TRANSP> 5
 0.000000e+000 1.000000e+000 0.000000e+000 0.000000e+000 0.000000e+000
 0.000000e+000 7.661896e-001 2.338105e-001 0.000000e+000 0.000000e+000
 0.000000e+000 0.000000e+000 7.726451e-001 2.273549e-001 0.000000e+000
 0.000000e+000 0.000000e+000 0.000000e+000 9.436926e-001 5.630743e-002
 0.000000e+000 0.000000e+000 0.000000e+000 0.000000e+000 0.000000e+000
<ENDHMM>
~h "iy"
<BEGINHMM>
<NUMSTATES> 5
<STATE> 2
<MEAN> 25
 -3.271846e+000 2.433079e+000 6.698386e+000 6.547084e-001 -5.427895e+000 -2.656639e+000 1.867001e+000 -4.933835e+000 -4.281768e+000 1.282201e+000 3.642572e+000 7.250425e-001 1.405283e-001 -1.225206e-001 1.369275e+000 -8.509879e-001 -8.437862e-001 5.434518e-002 -7.656320e-001 -6.168771e-001 -6.065726e-001 2.516780e-001 -8.113261e-002 -1.512682e-001 1.152969e+000
<VARIANCE> 25
 6.352250e+001 4.772515e+001 1.157756e+002 1.106190e+002 8.119344e+001 9.361172e+001 6.092891e+001 9.418857e+001 5.423808e+001 7.821008e+001 9.241949e+001 4.780313e+001 3.877419e+000 3.150162e+000 8.638142e+000 7.296092e+000 6.408934e+000 7.051345e+000 7.418672e+000 7.540437e+000 5.182374e+000 5.484076e+000 8.302217e+000 4.207304e+000 7.537834e+000
<GCONST> 1.211605e+002
<STATE> 3
<MEAN> 25
 2.389382e+000 1.268902e+000 1.765608e+001 -5.954492e+000 -1.313992e+001 6.048456e-001 -8.824445e+000 -7.536075e+000 -1.128681e+001 -1.040676e+000 4.319794e+000 1.565742e+000 2.274643e-001 2.986251e-001 1.563670e-002 -2.688848e-001 -1.120563e-001 -9.842535e-003 1.291510e-001 1.474217e-001 -3.220698e-001 1.810328e-001 -1.400424e-001 -7.602687e-002 -3.897508e-001
<VARIANCE> 25
 1.599094e+001 1.687099e+001 5.833821e+001 7.024385e+001 3.651120e+001 6.406546e+001 6.108253e+001 3.452377e+001 4.252977e+001 9.333644e+001 3.771535e+001 8.755511e+001 6.135526e-001 1.395123e+000 3.066762e+000 2.699136e+000 2.262721e+000 2.859872e+000 4.281065e+000 2.152474e+000 1.841863e+000 1.733610e+000 2.419754e+000 2.335788e+000 1.534540e+000
<GCONST> 1.010304e+002
<STATE> 4
<MEAN> 25
 1.318513e+000 5.193306e+000 1.295345e+001 -9.837026e+000 -8.533673e+000 -1.527635e+000 -4.910309e+000 -5.582363e+000 -7.639610e+000 4.929761e+000 -3.429477e+000 -9.390061e-001 -1.048804e-001 1.950443e-001 -7.146633e-001 8.030967e-001 6.881740e-001 -8.416615e-002 3.951748e-001 3.233951e-001 5.495585e-001 -2.975242e-001 7.423101e-002 1.650615e-001 -9.590105e-001
<VARIANCE> 25
 1.576816e+001 1.874859e+001 3.814273e+001 1.067770e+002 3.641389e+001 3.034769e+001 5.495609e+001 2.991763e+001 5.022041e+001 8.109022e+001 5.199149e+001 3.124433e+001 7.341223e-001 1.460256e+000 1.626042e+000 2.311471e+000 2.988648e+000 1.963049e+000 2.649207e+000 2.371470e+000 2.940093e+000 2.533268e+000 2.422515e+000 2.290494e+000 1.721809e+000
<GCONST> 9.933123e+001
<TRANSP> 5
 0.000000e+000 1.000000e+000 0.000000e+000 0.000000e+000 0.000000e+000
 0.000000e+000 8.754126e-001 1.245874e-001 0.000000e+000 0.000000e+000
 0.000000e+000 0.000000e+000 8.492033e-001 1.507967e-001 0.000000e+000
 0.000000e+000 0.000000e+000 0.000000e+000 8.955304e-001 1.044696e-001
 0.000000e+000 0.000000e+000 0.000000e+000 0.000000e+000 0.000000e+000
<ENDHMM>
~h "jh"
<BEGINHMM>
<NUMSTATES> 5
<STATE> 2
<MEAN> 25
 5.682183e+000 1.091024e-001 5.394088e+000 4.776432e+000 4.886495e+000 2.498529e+000 -8.527331e+000 -9.296118e+000 2.377612e-001 -3.783411e+000 -7.021367e+000 -5.119000e+000 2.945650e-001 -4.577221e-001 4.120128e-001 1.411392e-001 2.888598e-001 6.954179e-002 -9.835869e-001 -6.799918e-001 -2.982981e-001 -3.271801e-001 -6.552405e-002 -2.894198e-001 5.692120e-001
<VARIANCE> 25
 1.483452e+001 1.670964e+001 3.166900e+001 3.950336e+001 5.969643e+001 1.632681e+001 8.106962e+001 4.020773e+001 2.810578e+001 2.214712e+001 1.952965e+001 1.338073e+001 6.993152e-001 1.320941e+000 2.142034e+000 2.110454e+000 6.564276e+000 2.489166e+000 6.292908e+000 5.659232e+000 1.629633e+000 1.796256e+000 2.978574e+000 2.975499e+000 2.371987e+000
<GCONST> 9.747777e+001
<STATE> 3
<MEAN> 25
 1.000264e+000 -1.664583e+000 5.784388e+000 7.477363e+000 4.136856e+000 1.690393e+000 -2.830567e+000 5.050541e-001 1.446915e+000 -4.204060e+000 -1.322495e-001 9.093366e-001 -2.436078e-002 -4.166738e-001 -1.530256e-001 2.290652e-001 -2.726460e-001 -2.890592e-001 -1.433368e-001 2.426504e-001 1.738167e-001 -4.099014e-001 -9.416349e-002 1.505916e-001 3.687488e-001
<VARIANCE> 25
 1.074116e+001 7.296083e+001 2.470275e+001 2.009283e+001 3.176475e+001 1.752431e+001 4.924876e+001 3.476118e+001 4.219117e+001 3.783172e+001 1.687019e+001 1.762941e+001 2.697457e+000 1.085892e+001 3.766896e+000 4.149708e+000 6.139377e+000 2.715740e+000 9.842827e+000 7.476165e+000 7.762003e+000 4.120560e+000 2.406015e+000 3.395738e+000 8.072101e+000
<GCONST> 1.065490e+002
<STATE> 4
<MEAN> 25
 9.484535e+000 -5.181924e+000 -2.432530e+000 3.859412e+000 4.821382e+000 -4.920056e-001 -1.372087e+001 -1.118170e+001 -3.055544e+000 -6.480249e+000 4.516604e+000 -2.499691e+000 2.102414e-001 8.011512e-001 -1.092546e+000 -1.231857e+000 -3.482470e-001 -1.953341e-001 6.251235e-001 -6.759740e-001 -6.267050e-001 3.259595e-001 1.456151e+000 3.851686e-001 -1.154927e-001
<VARIANCE> 25
 4.094073e+000 1.284431e+001 3.107824e+001 1.125701e+001 2.237038e+001 4.707938e+001 9.874774e+000 3.205868e+001 2.048888e+001 8.145583e+000 3.409875e+001 6.308204e+000 3.974200e+000 9.452391e-001 6.592991e+000 6.698685e-001 1.759978e+000 1.383692e+000 3.870380e+000 5.202073e+000 3.392339e+000 1.024239e+000 1.618060e+000 3.135696e-001 1.088408e+000
<GCONST> 8.632545e+001
<TRANSP> 5
 0.000000e+000 1.000000e+000 0.000000e+000 0.000000e+000 0.000000e+000
 0.000000e+000 9.446152e-001 5.538480e-002 0.000000e+000 0.000000e+000
 0.000000e+000 0.000000e+000 9.103507e-001 8.964927e-002 0.000000e+000
 0.000000e+000 0.000000e+000 0.000000e+000 8.620381e-001 1.379620e-001
 0.000000e+000 0.000000e+000 0.000000e+000 0.000000e+000 0.000000e+000
<ENDHMM>
~h "ng"
<BEGINHMM>
<NUMSTATES> 5
<STATE> 2
<MEAN> 25
 3.417583e+000 6.499393e+000 -5.980793e-001 1.967331e+000 3.889486e+000 -1.110937e+000 -1.833807e-001 -2.053353e+000 3.083083e+000 2.693102e+000 -6.456820e-001 -3.728203e+000 -4.196156e-001 -2.072618e-001 4.103221e-002 -6.419566e-002 -4.091659e-002 2.096494e-001 4.167986e-001 5.357968e-001 1.886171e-001 2.881310e-001 1.028624e-001 3.892145e-001 -2.353945e-001
<VARIANCE> 25
 2.061998e+001 1.103014e+001 1.636143e+001 1.343606e+001 5.404602e+000 8.212324e+000 1.755592e+001 2.562711e+001 1.388956e+001 1.145248e+001 8.692298e+000 1.619072e+001 2.347047e-001 7.746655e-001 7.795035e-001 4.397931e-001 6.605243e-001 6.020893e-001 1.312953e+000 8.591779e-001 9.613050e-001 9.934528e-001 5.106518e-001 4.829261e-001 2.033905e-001
<GCONST> 7.006934e+001
<STATE> 3
<MEAN> 25
 -3.529501e+000 -5.739672e-001 -2.164294e-001 1.030789e+000 4.643047e+000 2.696291e-001 5.944935e+000 3.962200e+000 -3.245531e-001 4.170940e+000 -5.367506e-001 1.896863e+000 -6.170562e-002 -1.037943e-001 -9.047621e-003 -4.728039e-003 -5.761680e-002 -8.814818e-002 -9.499460e-003 3.824465e-004 -1.650381e-001 -4.954076e-002 -1.296968e-001 5.011664e-002 -1.179431e-001
<VARIANCE> 25
 1.460805e+000 2.786732e+000 5.252263e+000 4.418830e+000 5.897027e+000 5.125281e+000 9.549116e+000 1.050139e+001 1.358437e+001 9.303731e+000 1.532525e+001 5.862022e+000 9.160750e-002 3.057616e-001 2.456233e-001 2.921892e-001 3.972222e-001 4.322827e-001 8.366172e-001 9.003160e-001 7.040964e-001 7.294104e-001 7.138721e-001 3.835012e-001 3.979522e-002
<GCONST> 5.440857e+001
<STATE> 4
<MEAN> 25
 -3.174684e+000 -1.664736e+000 5.938216e-001 6.646867e-001 1.732003e+000 -1.247084e+000 5.009483e+000 5.452114e+000 4.337509e-001 4.029729e+000 -1.857345e+000 1.636582e+000 2.215116e-001 -3.120303e-001 6.186090e-001 6.905089e-003 -1.102919e+000 -6.709574e-001 -3.473250e-002 4.344308e-002 -3.414305e-001 -5.034047e-001 9.051409e-001 1.850457e-001 5.751581e-001
<VARIANCE> 25
 4.419713e+000 1.520925e+000 2.381551e+000 7.710024e+000 8.743543e+000 5.691044e+000 4.076202e+000 5.445187e+000 7.403109e+000 8.083654e+000 1.409482e+001 9.622763e+000 5.301879e-001 4.058919e-001 9.450899e-001 1.147815e+000 1.225005e+000 1.872392e-001 3.974951e-001 3.205347e-001 3.954715e-001 1.899901e+000 8.620662e-001 4.145578e-001 4.553565e-001
<GCONST> 5.968230e+001
<TRANSP> 5
 0.000000e+000 1.000000e+000 0.000000e+000 0.000000e+000 0.000000e+000
 0.000000e+000 9.545357e-001 4.546432e-002 0.000000e+000 0.000000e+000
 0.000000e+000 0.000000e+000 9.666397e-001 3.336029e-002 0.000000e+000
 0.000000e+000 0.000000e+000 0.000000e+000 6.635295e-001 3.364706e-001
 0.000000e+000 0.000000e+000 0.000000e+000 0.000000e+000 0.000000e+000
<ENDHMM>
~h "ow"
<BEGINHMM>
<NUMSTATES> 5
<STATE> 2
<MEAN> 25
 5.582824e+000 7.668213e-001 -8.099463e+000 -1.058072e+001 -1.005077e+000 5.880981e+000 -1.894455e+000 -7.863336e-001 -2.024007e+000 1.167813e+000 3.937014e+000 -2.327321e+000 4.228050e-001 3.077648e-001 -9.665436e-002 -3.911162e-001 -3.464293e-001 -3.398053e-002 1.989486e-001 -8.555766e-003 -1.806973e-001 -2.505688e-001 -3.723944e-003 -1.194526e-001 1.944367e-001
<VARIANCE> 25
 5.607017e+001 2.347597e+001 4.015844e+001 9.926379e+001 2.608804e+001 2.546491e+001 4.829269e+001 4.466944e+001 2.356930e+001 2.261796e+001 1.749043e+001 6.562732e+001 3.345943e+000 1.312261e+000 1.893063e+000 6.330943e+000 3.149712e+000 1.920353e+000 3.501467e+000 2.241214e+000 3.457272e+000 2.343708e+000 1.594053e+000 3.056306e+000 2.377784e+000
<GCONST> 1.012848e+002
<STATE> 3
<MEAN> 25
 1.079575e+001 8.851322e+000 -4.736861e+000 -8.902118e+000 -4.197423e+000 4.916989e+000 5.481769e+000 1.146830e+000 -1.987714e+000 -2.469017e+000 5.308590e-002 7.828450e-002 -6.151463e-001 -1.678598e-001 3.304743e-002 1.043825e+000 5.480555e-001 -7.758235e-002 2.556586e-001 -4.258154e-002 3.903646e-002 1.437813e-001 -4.056344e-002 1.451021e-001 -6.399655e-001
<VARIANCE> 25
 2.801159e+001 2.786231e+001 1.514374e+001 4.821472e+001 3.240483e+001 2.770230e+001 4.483345e+001 4.047456e+001 1.734556e+001 2.408109e+001 2.296312e+001 4.727084e+001 9.603451e-001 1.036777e+000 1.209692e+000 2.450850e+000 1.360614e+000 1.844369e+000 2.522231e+000 2.058255e+000 1.381788e+000 1.445884e+000 2.826519e+000 1.639930e+000 2.045933e-001
<GCONST> 9.081667e+001
<STATE> 4
<MEAN> 25
 -2.378124e+000 4.416304e+000 1.312951e+000 7.425228e+000 4.783825e+000 2.557695e+000 6.633086e+000 2.625693e+000 1.861541e+000 -6.447684e-002 -3.315665e+000 2.593115e+000 -2.655015e-001 -2.461943e-001 4.862011e-002 1.205809e-001 -3.872736e-002 -1.174489e-001 -5.188764e-002 2.105708e-001 1.035659e-001 -4.907340e-003 -1.938134e-001 -1.485860e-001 -3.678854e-001
<VARIANCE> 25
 1.216333e+001 2.022373e+001 3.451342e+001 5.253893e+001 1.802487e+001 1.638056e+001 3.291041e+001 2.790393e+001 2.531214e+001 3.010600e+001 4.688486e+001 2.880747e+001 3.159985e-001 9.907835e-001 1.277636e+000 1.766430e+000 1.552456e+000 1.861776e+000 2.397909e+000 3.202191e+000 2.227493e+000 2.515892e+000 2.997103e+000 3.295202e+000 2.499135e-001
<GCONST> 9.068933e+001
<TRANSP> 5
 0.000000e+000 1.000000e+000 0.000000e+000 0.000000e+000 0.000000e+000
 0.000000e+000 9.181845e-001 8.181551e-002 0.000000e+000 0.000000e+000
 0.000000e+000 0.000000e+000 9.061792e-001 9.382078e-002 0.000000e+000
 0.000000e+000 0.000000e+000 0.000000e+000 8.795820e-001 1.204179e-001
 0.000000e+000 0.000000e+000 0.000000e+000 0.000000e+000 0.000000e+000
<ENDHMM>
~h "oy"
<BEGINHMM>
<NUMSTATES> 5
<STATE> 2
<MEAN> 25
 1.356022e+001 7.356382e+000 -3.203948e+000 -5.145173e+000 -9.166677e+000 -8.607366e+000 -4.375191e+000 3.640920e+000 2.756269e+000 -4.368812e-001 -1.307759e+000 -1.398458e+000 1.837700e-001 -2.544049e-001 3.151234e-002 2.078735e-002 5.860915e-001 1.923827e-001 -1.161367e-001 -2.497956e-001 -6.355491e-001 -2.010784e-001 1.993395e-001 -1.510869e-001 1.944988e-001
<VARIANCE> 25
 4.887034e+000 1.686848e+001 3.219604e+001 8.990197e+000 3.045037e+001 7.314892e+001 2.393161e+001 2.760070e+001 3.351936e+001 4.871425e+001 1.266742e+001 1.037242e+001 8.137194e-001 1.354103e+000 1.714983e+000 8.471420e-001 3.606245e+000 4.469899e+000 2.417334e+000 2.276400e+000 2.029822e+000 3.229150e+000 1.502869e+000 1.631056e+000 2.391719e-001
<GCONST> 8.880686e+001
<STATE> 3
<MEAN> 25
 -1.682562e+000 -6.802551e+000 9.524169e+000 4.827021e+000 4.686932e+000 3.421241e+000 -5.668080e+000 -2.419106e+000 -1.302361e+000 -8.186188e+000 1.721331e+000 -2.754774e+000 -3.466737e+000 -2.035653e+000 1.959220e+000 9.499529e-001 -1.185513e+000 2.436418e-001 8.706093e-001 7.350209e-001 1.520795e+000 1.869113e-002 5.473763e-001 4.497149e-001 3.978728e-002
<VARIANCE> 25
 1.338944e+002 3.533435e+001 7.323571e+001 2.602755e+001 1.014110e+002 2.688533e+001 3.354320e+001 4.098955e+001 5.752938e+001 1.056866e+001 2.305523e+001 1.013726e+001 5.320710e+000 1.758273e+000 3.001335e+000 3.617210e+000 7.792788e+000 3.514679e+000 2.265458e+000 2.013229e+000 1.266987e+000 1.808001e+000 3.224446e+000 2.247026e+000 3.477316e-001
<GCONST> 1.001642e+002
<STATE> 4
<MEAN> 25
 -1.383766e+001 -1.249566e+001 1.244511e+001 2.728846e+000 -2.096414e+000 5.453709e+000 1.780123e+000 -6.368580e-001 1.354121e+000 -7.113240e+000 4.457917e+000 2.470114e+000 6.065453e-001 7.501411e-001 -6.716104e-001 -2.331487e-001 8.691344e-001 3.289646e-001 1.049427e-001 -4.938456e-001 -8.694050e-001 4.063739e-001 -9.521821e-002 1.538656e-001 -1.041709e+000
<VARIANCE> 25
 4.434711e+001 3.599586e+001 3.847210e+001 2.545378e+001 2.219234e+001 1.771584e+001 1.568160e+001 7.169574e+000 2.905393e+001 1.826419e+001 9.537647e+000 1.461412e+001 1.992294e+000 2.006934e+000 1.136631e+000 5.435472e-001 8.883992e-001 1.358937e+000 2.439815e+000 1.035595e+000 1.480138e+000 1.496688e+000 1.183960e+000 1.683854e+000 2.758825e+000
<GCONST> 8.663679e+001
<TRANSP> 5
 0.000000e+000 1.000000e+000 0.000000e+000 0.000000e+000 0.000000e+000
 0.000000e+000 9.425882e-001 5.741189e-002 0.000000e+000 0.000000e+000
 0.000000e+000 0.000000e+000 8.296341e-001 1.703659e-001 0.000000e+000
 0.000000e+000 0.000000e+000 0.000000e+000 9.047979e-001 9.520213e-002
 0.000000e+000 0.000000e+000 0.000000e+000 0.000000e+000 0.000000e+000
<ENDHMM>
~h "sh"
<BEGINHMM>
<NUMSTATES> 5
<STATE> 2
<MEAN> 25
 4.875536e+000 8.642790e+000 4.023186e+000 4.864771e+000 2.705174e+000 -1.148889e+000 2.721499e+000 -2.375594e+000 -3.518579e+000 -8.822808e-001 -2.823142e+000 -3.394186e+000 -2.635675e-001 1.701485e-001 -2.484460e-001 7.478457e-001 1.100182e+000 2.915660e-002 2.616430e-001 6.343800e-001 6.048993e-001 3.739877e-001 -8.663365e-001 -2.960458e-001 -7.828540e-001
<VARIANCE> 25
 2.681097e+000 4.147253e+000 2.242027e+001 3.068588e+001 1.674508e+001 1.240675e+001 8.656850e+000 1.681330e+001 1.637604e+001 1.864534e+001 1.631273e+001 1.575240e+001 1.694862e-001 8.169274e-001 3.339430e-001 1.169562e+000 1.548823e+000 1.495200e+000 1.179544e+000 2.239513e+000 2.743685e+000 1.008471e+000 2.073408e+000 1.411424e+000 4.663441e-001
<GCONST> 7.669908e+001
<STATE> 3
<MEAN> 25
