~o
<STREAMINFO> 1 25
<VECSIZE> 25<NULLD><MFCC_D_N_Z_0><DIAGC>
~s "silst"
<MEAN> 25
 -3.431592e+000 1.078538e+000 4.739397e-001 2.735358e+000 3.245674e+000 2.085195e+000 2.994925e+000 8.940575e-001 1.419227e-001 5.921011e-001 -1.385728e+000 4.997154e-001 -5.165441e-002 -9.998817e-003 4.248229e-002 6.985500e-002 -1.532457e-002 -3.496853e-002 8.931615e-003 6.340185e-002 1.853294e-002 1.745174e-002 -6.852654e-002 -3.419169e-004 -3.481799e-002
<VARIANCE> 25
 7.148291e+000 2.180594e+001 1.671223e+001 2.432583e+001 1.537364e+001 1.760323e+001 1.790899e+001 1.335980e+001 2.011761e+001 2.079383e+001 1.655832e+001 1.464941e+001 3.469373e-001 5.583437e-001 7.203934e-001 7.852695e-001 1.065197e+000 9.908698e-001 1.262832e+000 1.228356e+000 1.487385e+000 1.493682e+000 1.209536e+000 1.239442e+000 3.374921e-001
<GCONST> 7.800838e+001
~h "a"
<BEGINHMM>
<NUMSTATES> 5
<STATE> 2
<MEAN> 25
 -1.205808e-008 7.471832e-008 -5.503286e-008 1.714419e-009 -4.314622e-009 -6.243344e-009 -3.245967e-008 5.886173e-009 -4.663221e-008 -2.217316e-008 -2.948801e-008 4.270333e-008 2.560044e-002 3.139617e-004 8.288709e-003 -9.700003e-003 8.491755e-003 -6.657258e-003 3.393384e-003 -9.661411e-003 -5.902453e-003 -8.686491e-003 -3.965416e-003 -3.687867e-003 3.609585e-002
<VARIANCE> 25
 6.743311e+001 4.386040e+001 5.738831e+001 5.798326e+001 6.474918e+001 5.654857e+001 5.389107e+001 4.411510e+001 4.258719e+001 4.208948e+001 3.679993e+001 3.124355e+001 1.965594e+000 1.803727e+000 1.934022e+000 2.333615e+000 2.834451e+000 2.798423e+000 2.861493e+000 2.778302e+000 2.531476e+000 2.589815e+000 2.444618e+000 2.166934e+000 2.889750e+000
<GCONST> 1.040926e+002
<STATE> 3
<MEAN> 25
 -1.205808e-008 7.471832e-008 -5.503286e-008 1.714419e-009 -4.314622e-009 -6.243344e-009 -3.245967e-008 5.886173e-009 -4.663221e-008 -2.217316e-008 -2.948801e-008 4.270333e-008 2.560044e-002 3.139617e-004 8.288709e-003 -9.700003e-003 8.491755e-003 -6.657258e-003 3.393384e-003 -9.661411e-003 -5.902453e-003 -8.686491e-003 -3.965416e-003 -3.687867e-003 3.609585e-002
<VARIANCE> 25
 6.743311e+001 4.386040e+001 5.738831e+001 5.798326e+001 6.474918e+001 5.654857e+001 5.389107e+001 4.411510e+001 4.258719e+001 4.208948e+001 3.679993e+001 3.124355e+001 1.965594e+000 1.803727e+000 1.934022e+000 2.333615e+000 2.834451e+000 2.798423e+000 2.861493e+000 2.778302e+000 2.531476e+000 2.589815e+000 2.444618e+000 2.166934e+000 2.889750e+000
<GCONST> 1.040926e+002
<STATE> 4
<MEAN> 25
 -1.205808e-008 7.471832e-008 -5.503286e-008 1.714419e-009 -4.314622e-009 -6.243344e-009 -3.245967e-008 5.886173e-009 -4.663221e-008 -2.217316e-008 -2.948801e-008 4.270333e-008 2.560044e-002 3.139617e-004 8.288709e-003 -9.700003e-003 8.491755e-003 -6.657258e-003 3.393384e-003 -9.661411e-003 -5.902453e-003 -8.686491e-003 -3.965416e-003 -3.687867e-003 3.609585e-002
<VARIANCE> 25
 6.743311e+001 4.386040e+001 5.738831e+001 5.798326e+001 6.474918e+001 5.654857e+001 5.389107e+001 4.411510e+001 4.258719e+001 4.208948e+001 3.679993e+001 3.124355e+001 1.965594e+000 1.803727e+000 1.934022e+000 2.333615e+000 2.834451e+000 2.798423e+000 2.861493e+000 2.778302e+000 2.531476e+000 2.589815e+000 2.444618e+000 2.166934e+000 2.889750e+000
<GCONST> 1.040926e+002
<TRANSP> 5
 0.000000e+000 1.000000e+000 0.000000e+000 0.000000e+000 0.000000e+000
 0.000000e+000 6.000000e-001 4.000000e-001 0.000000e+000 0.000000e+000
 0.000000e+000 0.000000e+000 6.000000e-001 4.000000e-001 0.000000e+000
 0.000000e+000 0.000000e+000 0.000000e+000 7.000000e-001 3.000000e-001
 0.000000e+000 0.000000e+000 0.000000e+000 0.000000e+000 0.000000e+000
<ENDHMM>
~h "b"
<BEGINHMM>
<NUMSTATES> 5
<STATE> 2
<MEAN> 25
 -4.999993e+000 4.399453e+000 1.468868e+000 2.886144e+000 2.013112e+000 -6.052728e-002 -1.592479e+000 -2.433179e+000 1.412890e+000 -6.887096e-001 -3.914289e+000 -2.318416e+000 -1.578115e-001 -3.921582e-001 5.974309e-002 6.546488e-002 2.740395e-001 -1.476601e-001 1.266575e-001 -2.474268e-002 -2.153035e-001 -1.660935e-001 -9.787858e-002 2.775158e-002 -2.737512e-001
<VARIANCE> 25
 6.225002e+001 3.384869e+001 1.577083e+001 8.341139e+000 1.228285e+001 1.353934e+001 2.331036e+001 2.173821e+001 2.077783e+001 1.687255e+001 2.188976e+001 1.692016e+001 6.817739e-001 7.122149e-001 6.167413e-001 1.872610e+000 1.588979e+000 1.609103e+000 2.186243e+000 1.134973e+000 2.112477e+000 2.421581e+000 1.565582e+000 1.357090e+000 2.796628e+000
<GCONST> 8.627867e+001
<STATE> 3
<MEAN> 25
 -1.809805e+000 -7.647555e-003 3.576926e+000 1.149844e+000 2.362155e+000 1.065098e+000 -9.164216e-002 -6.972383e-002 3.920962e-001 -5.369460e-001 4.418528e-001 -6.023548e-001 5.627370e-001 -3.691313e-001 2.017002e-001 -3.296738e-001 8.418090e-003 1.475266e-001 2.440683e-001 4.880958e-001 -2.791165e-001 -2.302070e-001 5.877503e-001 7.095321e-001 4.461582e-002
<VARIANCE> 25
 2.528206e+001 1.462866e+001 1.643873e+001 1.181493e+001 1.973096e+001 2.521239e+001 3.137321e+001 2.164674e+001 2.992948e+001 2.605461e+001 2.976710e+001 1.692639e+001 1.167336e+000 6.141849e-001 9.798552e-001 1.155526e+000 1.181603e+000 9.458873e-001 1.166246e+000 7.998343e-001 2.336031e+000 2.307122e+000 1.993786e+000 1.058282e+000 1.848022e+000
<GCONST> 8.561906e+001
<STATE> 4
<MEAN> 25
 -2.484243e+000 -1.253599e+000 1.298292e+000 7.241009e-001 2.634631e+000 1.996968e+000 2.339208e+000 1.131227e+000 5.844653e-001 1.521391e+000 -4.114200e-001 9.379452e-001 8.305224e-003 9.528501e-002 -1.205203e-001 1.107112e-001 4.071001e-002 2.981180e-002 2.619924e-002 2.227698e-002 8.589300e-002 6.998891e-002 -6.272533e-002 -3.862964e-002 2.523517e-002
<VARIANCE> 25
 5.895157e+000 7.969533e+000 7.614175e+000 1.097007e+001 1.784022e+001 1.011830e+001 1.300590e+001 1.240271e+001 2.135759e+001 1.646254e+001 1.399936e+001 1.160873e+001 1.543505e-001 6.015545e-001 7.423478e-001 5.309753e-001 1.372619e+000 1.156254e+000 9.871531e-001 1.266392e+000 1.614871e+000 1.653797e+000 1.566888e+000 1.319996e+000 4.102560e-001
<GCONST> 7.364973e+001
<TRANSP> 5
 0.000000e+000 1.000000e+000 0.000000e+000 0.000000e+000 0.000000e+000
 0.000000e+000 6.049359e-001 3.950641e-001 0.000000e+000 0.000000e+000
 0.000000e+000 0.000000e+000 3.991526e-001 6.008474e-001 0.000000e+000
 0.000000e+000 0.000000e+000 0.000000e+000 9.181538e-001 8.184616e-002
 0.000000e+000 0.000000e+000 0.000000e+000 0.000000e+000 0.000000e+000
<ENDHMM>
~h "d"
<BEGINHMM>
<NUMSTATES> 5
<STATE> 2
<MEAN> 25
 8.352493e+000 1.734673e+000 3.334604e+000 1.836645e+000 -4.971778e+000 -6.900536e+000 -1.924458e+000 -1.388633e+000 -3.496218e-001 -4.688039e+000 -2.714182e+000 2.051200e+000 -3.383222e-002 1.128426e+000 3.754025e-001 6.526130e-001 2.921831e-001 4.544488e-001 2.334047e-001 -2.392356e-001 -6.127063e-002 -7.144085e-001 -2.867430e-002 -1.838396e-001 -1.418037e+000
<VARIANCE> 25
 2.774512e+001 4.526860e+001 3.628116e+001 3.852235e+001 5.367255e+001 3.820644e+001 3.627898e+001 7.438048e+001 7.539395e+001 7.475685e+001 4.640335e+001 4.308985e+001 7.256412e-001 1.987664e+000 1.615200e+000 2.569705e+000 2.533297e+000 2.519754e+000 2.938538e+000 2.534067e+000 2.295041e+000 3.129006e+000 2.861551e+000 2.939061e+000 1.284784e+000
<GCONST> 1.020915e+002
<STATE> 3
<MEAN> 25
 5.552024e+000 4.528185e+000 5.733600e+000 7.346179e+000 2.148355e+000 -3.245524e+000 -3.585929e+000 -3.651621e+000 -1.143667e+000 -4.668105e+000 -3.520104e+000 -8.133546e-001 -7.708562e-001 1.595655e-001 -4.572975e-001 1.433877e-001 1.072671e+000 7.553670e-001 8.164855e-001 3.013177e-001 1.606944e-001 5.205088e-001 2.065338e-001 1.139997e-001 -1.138481e+000
<VARIANCE> 25
 2.290977e+001 1.989837e+001 2.472624e+001 4.015761e+001 8.314622e+001 2.153268e+001 5.104392e+001 5.330525e+001 8.325719e+001 7.352362e+001 2.922975e+001 2.835988e+001 1.199175e+000 1.929798e+000 1.903450e+000 2.126085e+000 3.920014e+000 2.524180e+000 3.223349e+000 4.593622e+000 3.498108e+000 3.535925e+000 3.014406e+000 2.209589e+000 8.641886e-001
<GCONST> 1.012979e+002
<STATE> 4
<MEAN> 25
 2.263683e-001 6.079443e+000 3.210454e+000 7.071314e+000 4.531336e+000 2.083399e+000 4.245693e+000 1.996288e-001 2.946437e+000 2.591664e-001 -2.900558e+000 4.506978e-001 -5.572315e-001 -1.142679e-001 -1.716985e-001 -5.113140e-002 3.823647e-002 3.011023e-001 3.236474e-001 3.462157e-001 3.201710e-002 1.618330e-001 1.165403e-001 2.604444e-002 -4.834596e-001
<VARIANCE> 25
 2.054548e+001 1.084810e+001 1.493733e+001 2.430132e+001 2.428099e+001 2.280020e+001 2.439846e+001 2.513703e+001 2.885583e+001 2.739666e+001 2.945570e+001 2.820986e+001 3.302535e-001 5.365173e-001 9.732118e-001 1.179959e+000 1.138824e+000 1.396037e+000 1.342824e+000 2.199685e+000 1.977388e+000 1.900484e+000 1.871509e+000 2.186782e+000 1.983963e-001
<GCONST> 8.444864e+001
<TRANSP> 5
 0.000000e+000 1.000000e+000 0.000000e+000 0.000000e+000 0.000000e+000
 0.000000e+000 6.304122e-001 3.695878e-001 0.000000e+000 0.000000e+000
 0.000000e+000 0.000000e+000 7.072785e-001 2.927215e-001 0.000000e+000
 0.000000e+000 0.000000e+000 0.000000e+000 8.374776e-001 1.625224e-001
 0.000000e+000 0.000000e+000 0.000000e+000 0.000000e+000 0.000000e+000
<ENDHMM>
~h "f"
<BEGINHMM>
<NUMSTATES> 5
<STATE> 2
<MEAN> 25
 4.659593e-001 6.990231e-001 1.022767e+000 4.138316e-001 -2.388252e+000 -3.227969e+000 -1.961971e+000 9.655967e-002 -1.593259e+000 -3.699275e+000 3.049670e+000 2.191135e+000 1.435877e+000 2.190600e-001 -1.459585e-001 1.889558e-001 -4.947355e-001 2.224345e-001 -4.461773e-001 -4.014924e-001 -4.495789e-001 -2.960035e-002 5.116627e-001 -4.673708e-001 5.984091e-001
<VARIANCE> 25
 6.440070e+001 3.090782e+001 9.191415e+001 5.461826e+001 9.946068e+001 5.010977e+001 3.586933e+001 4.248798e+001 8.111769e+001 2.024787e+001 3.981719e+001 2.362326e+001 1.032569e+001 4.369309e+000 4.941571e+000 5.077733e+000 8.671649e+000 4.849662e+000 8.027269e+000 4.227660e+000 9.939897e+000 3.741399e+000 6.562892e+000 3.866114e+000 4.989595e+000
<GCONST> 1.149101e+002
<STATE> 3
<MEAN> 25
 6.423809e+000 -3.445861e+000 -1.815494e+000 6.278262e-001 -6.481989e+000 9.810261e-001 -5.865988e+000 2.724169e+000 -1.013815e-001 -3.485183e+000 3.875190e+000 -3.218888e+000 -4.188171e-001 3.842456e-001 5.527938e-001 -1.544269e-002 6.626987e-001 4.951379e-001 1.802078e-001 -7.706148e-002 7.467381e-002 1.550818e-001 -8.748534e-001 -4.078494e-001 -2.566497e-001
<VARIANCE> 25
 3.647529e+001 5.146614e+001 3.347317e+001 5.693865e+001 4.996714e+001 5.879119e+001 8.727648e+001 6.751435e+001 4.530343e+001 4.844995e+001 8.175252e+001 3.347638e+001 1.477376e+000 2.963380e+000 3.108105e+000 5.968773e+000 6.170647e+000 6.064002e+000 5.458859e+000 5.086682e+000 3.082379e+000 2.818573e+000 3.274457e+000 2.331548e+000 4.270194e+000
<GCONST> 1.103019e+002
<STATE> 4
<MEAN> 25
 7.940971e-001 2.687989e+000 -2.969984e+000 3.001215e+000 3.343422e+000 6.420839e-001 4.923154e-001 -4.163529e+000 4.356057e-001 -3.771353e+000 -1.921070e+000 2.746227e-001 -3.670610e-001 -1.948171e-001 -3.598196e-001 -1.094616e-001 5.222498e-001 4.694661e-001 -1.927053e-001 3.340378e-001 2.916411e-001 2.429062e-001 1.882600e-001 1.568235e-001 -2.805679e-001
<VARIANCE> 25
 6.286592e+001 2.895086e+001 3.226645e+001 1.524072e+002 4.128197e+001 7.718740e+001 6.015964e+001 4.256455e+001 3.014866e+001 5.473404e+001 4.299203e+001 4.199755e+001 1.112098e+000 1.677591e+000 1.796437e+000 2.875750e+000 3.367268e+000 3.245102e+000 4.663752e+000 2.965174e+000 2.665533e+000 2.695370e+000 2.744256e+000 2.103009e+000 2.759492e+000
<GCONST> 1.047996e+002
<TRANSP> 5
 0.000000e+000 1.000000e+000 0.000000e+000 0.000000e+000 0.000000e+000
 0.000000e+000 7.163135e-001 2.836865e-001 0.000000e+000 0.000000e+000
 0.000000e+000 0.000000e+000 6.390542e-001 3.609458e-001 0.000000e+000
 0.000000e+000 0.000000e+000 0.000000e+000 7.663580e-001 2.336420e-001
 0.000000e+000 0.000000e+000 0.000000e+000 0.000000e+000 0.000000e+000
<ENDHMM>
~h "g"
<BEGINHMM>
<NUMSTATES> 5
<STATE> 2
<MEAN> 25
 -1.205808e-008 7.471832e-008 -5.503286e-008 1.714419e-009 -4.314622e-009 -6.243344e-009 -3.245967e-008 5.886173e-009 -4.663221e-008 -2.217316e-008 -2.948801e-008 4.270333e-008 2.560044e-002 3.139617e-004 8.288709e-003 -9.700003e-003 8.491755e-003 -6.657258e-003 3.393384e-003 -9.661411e-003 -5.902453e-003 -8.686491e-003 -3.965416e-003 -3.687867e-003 3.609585e-002
<VARIANCE> 25
 6.743311e+001 4.386040e+001 5.738831e+001 5.798326e+001 6.474918e+001 5.654857e+001 5.389107e+001 4.411510e+001 4.258719e+001 4.208948e+001 3.679993e+001 3.124355e+001 1.965594e+000 1.803727e+000 1.934022e+000 2.333615e+000 2.834451e+000 2.798423e+000 2.861493e+000 2.778302e+000 2.531476e+000 2.589815e+000 2.444618e+000 2.166934e+000 2.889750e+000
<GCONST> 1.040926e+002
<STATE> 3
<MEAN> 25
 -1.205808e-008 7.471832e-008 -5.503286e-008 1.714419e-009 -4.314622e-009 -6.243344e-009 -3.245967e-008 5.886173e-009 -4.663221e-008 -2.217316e-008 -2.948801e-008 4.270333e-008 2.560044e-002 3.139617e-004 8.288709e-003 -9.700003e-003 8.491755e-003 -6.657258e-003 3.393384e-003 -9.661411e-003 -5.902453e-003 -8.686491e-003 -3.965416e-003 -3.687867e-003 3.609585e-002
<VARIANCE> 25
 6.743311e+001 4.386040e+001 5.738831e+001 5.798326e+001 6.474918e+001 5.654857e+001 5.389107e+001 4.411510e+001 4.258719e+001 4.208948e+001 3.679993e+001 3.124355e+001 1.965594e+000 1.803727e+000 1.934022e+000 2.333615e+000 2.834451e+000 2.798423e+000 2.861493e+000 2.778302e+000 2.531476e+000 2.589815e+000 2.444618e+000 2.166934e+000 2.889750e+000
<GCONST> 1.040926e+002
<STATE> 4
<MEAN> 25
 -1.205808e-008 7.471832e-008 -5.503286e-008 1.714419e-009 -4.314622e-009 -6.243344e-009 -3.245967e-008 5.886173e-009 -4.663221e-008 -2.217316e-008 -2.948801e-008 4.270333e-008 2.560044e-002 3.139617e-004 8.288709e-003 -9.700003e-003 8.491755e-003 -6.657258e-003 3.393384e-003 -9.661411e-003 -5.902453e-003 -8.686491e-003 -3.965416e-003 -3.687867e-003 3.609585e-002
<VARIANCE> 25
 6.743311e+001 4.386040e+001 5.738831e+001 5.798326e+001 6.474918e+001 5.654857e+001 5.389107e+001 4.411510e+001 4.258719e+001 4.208948e+001 3.679993e+001 3.124355e+001 1.965594e+000 1.803727e+000 1.934022e+000 2.333615e+000 2.834451e+000 2.798423e+000 2.861493e+000 2.778302e+000 2.531476e+000 2.589815e+000 2.444618e+000 2.166934e+000 2.889750e+000
<GCONST> 1.040926e+002
<TRANSP> 5
 0.000000e+000 1.000000e+000 0.000000e+000 0.000000e+000 0.000000e+000
 0.000000e+000 6.000000e-001 4.000000e-001 0.000000e+000 0.000000e+000
 0.000000e+000 0.000000e+000 6.000000e-001 4.000000e-001 0.000000e+000
 0.000000e+000 0.000000e+000 0.000000e+000 7.000000e-001 3.000000e-001
 0.000000e+000 0.000000e+000 0.000000e+000 0.000000e+000 0.000000e+000
<ENDHMM>
~h "i"
<BEGINHMM>
<NUMSTATES> 5
<STATE> 2
<MEAN> 25
 7.979245e-001 8.521718e-001 1.615772e+001 -7.498195e+000 -1.573427e+001 -2.765629e+000 -7.440774e+000 -8.269430e+000 -1.649946e+000 2.273368e+000 7.252142e+000 2.650489e+000 -4.201316e-002 8.660979e-002 5.469595e-002 -1.989229e-001 4.126000e-001 1.195153e-001 1.101139e-001 2.287330e-001 1.669935e-001 3.970992e-001 7.106096e-002 -1.846570e-002 -2.555681e-001
<VARIANCE> 25
 1.895751e+001 3.570993e+001 4.034585e+001 1.130909e+002 4.167344e+001 4.552149e+001 3.209913e+001 6.899221e+001 3.146410e+001 1.117891e+002 4.385638e+001 5.174694e+001 1.294510e+000 2.292896e+000 2.338693e+000 3.644452e+000 4.713387e+000 5.687912e+000 2.138402e+000 6.172285e+000 4.927553e+000 7.195899e+000 3.332569e+000 3.646458e+000 1.355682e+000
<GCONST> 1.075036e+002
<STATE> 3
<MEAN> 25
 -9.751236e-001 8.168812e+000 9.928255e+000 2.673826e+000 1.529166e+000 1.173773e+000 3.090885e+000 -1.642280e+000 1.723835e+000 -6.796579e-001 -8.776415e-001 4.574787e+000 -2.903874e-001 -1.820610e-001 -6.188387e-001 5.606175e-001 5.574868e-001 1.522323e-001 4.953725e-001 2.693665e-001 3.095406e-001 1.449010e-001 -1.926956e-002 -1.458166e-001 -6.142375e-001
<VARIANCE> 25
 1.086399e+001 1.982015e+001 5.463012e+001 6.573794e+001 1.678537e+001 1.703658e+001 2.417781e+001 5.258746e+001 2.916473e+001 2.301494e+001 2.081153e+001 1.620720e+001 3.073901e-001 7.150727e-001 9.933633e-001 2.170856e+000 2.390545e+000 2.085766e+000 3.110881e+000 2.338079e+000 3.272117e+000 2.834135e+000 3.101055e+000 1.432742e+000 7.354682e-001
<GCONST> 9.089480e+001
<STATE> 4
<MEAN> 25
 -5.186108e+000 -1.049502e+001 -7.250988e+000 5.713810e-001 1.302370e+001 8.428170e+000 -8.062615e+000 -1.258031e+000 8.549435e+000 2.937231e+000 6.192602e+000 2.956804e+000 -2.508398e-001 -2.405881e-001 4.517492e-002 3.824584e-001 -3.421031e-002 -3.729429e-001 4.491897e-001 4.099815e-001 -7.291897e-002 -2.155537e-001 3.954203e-001 2.097290e-001 9.315039e-002
<VARIANCE> 25
 1.517482e+001 3.741659e+001 1.204874e+001 1.716549e+001 4.429719e+001 2.974304e+001 9.600752e+001 1.011965e+001 1.537773e+001 1.581157e+001 2.044850e+001 1.234726e+001 1.154268e+000 8.775060e-001 8.563787e-001 2.827751e+000 3.389858e+000 2.834796e+000 6.297961e+000 9.742724e-001 2.126586e+000 1.967925e+000 1.840322e+000 1.419963e+000 4.634354e-001
<GCONST> 8.930510e+001
<TRANSP> 5
 0.000000e+000 1.000000e+000 0.000000e+000 0.000000e+000 0.000000e+000
 0.000000e+000 9.431777e-001 5.682233e-002 0.000000e+000 0.000000e+000
 0.000000e+000 0.000000e+000 9.227371e-001 7.726289e-002 0.000000e+000
 0.000000e+000 0.000000e+000 0.000000e+000 8.274872e-001 1.725128e-001
 0.000000e+000 0.000000e+000 0.000000e+000 0.000000e+000 0.000000e+000
<ENDHMM>
~h "k"
<BEGINHMM>
<NUMSTATES> 5
<STATE> 2
<MEAN> 25
 -2.869569e+000 -1.266000e+000 1.714294e-001 -1.395354e+000 -1.744990e+000 -6.270447e-001 1.570317e+000 1.666059e+000 -1.946502e+000 -1.250988e+000 -1.051989e+000 1.947529e+000 1.052744e+000 -4.125144e-001 -3.369309e-001 -1.565619e+000 -2.845043e+000 -8.918806e-001 -9.404113e-001 6.094468e-001 1.894498e-001 -1.448132e+000 5.932941e-002 -3.775670e-001 3.077266e+000
<VARIANCE> 25
 3.173979e+001 2.295486e+001 4.688300e+001 5.463990e+001 1.096587e+002 4.323235e+001 4.174101e+001 5.017048e+001 4.179180e+001 5.851741e+001 2.244861e+001 1.724775e+001 5.073007e+000 2.846100e+000 7.181786e+000 4.798396e+000 8.985212e+000 5.078179e+000 3.841847e+000 6.382521e+000 5.374022e+000 7.600462e+000 3.161581e+000 1.938108e+000 8.232424e+000
<GCONST> 1.111187e+002
<STATE> 3
<MEAN> 25
 4.127180e+000 -3.738274e-001 2.956029e+000 -3.908123e+000 -9.985184e+000 -5.319494e+000 -2.256295e+000 2.445237e+000 -1.398282e+000 -6.792393e-001 9.509302e-001 -1.381672e+000 5.109587e-001 3.874049e-001 -5.985713e-002 4.185389e-002 3.363158e-001 5.046124e-002 4.658186e-002 -2.061261e-001 3.008111e-002 4.423535e-001 -9.086636e-002 1.950888e-002 -7.296709e-001
<VARIANCE> 25
 4.632214e+001 2.450643e+001 1.009477e+002 3.618438e+001 8.934743e+001 8.257635e+001 3.508581e+001 7.542611e+001 6.025721e+001 4.867133e+001 2.691392e+001 2.135330e+001 4.460420e+000 1.701484e+000 2.586373e+000 1.854616e+000 2.925668e+000 3.645737e+000 3.422155e+000 2.828908e+000 3.900613e+000 3.459095e+000 1.711415e+000 1.953459e+000 4.493123e+000
<GCONST> 1.058530e+002
<STATE> 4
<MEAN> 25
 -2.378280e-002 7.502254e-001 -1.522668e+000 -1.224347e+000 -3.518950e-001 -1.004653e+000 2.191767e+000 1.369743e+000 -5.077834e-001 1.224952e+000 -1.242580e+000 1.435638e+000 -6.608151e-002 8.127256e-002 -3.901072e-001 -6.339905e-002 3.476995e-001 4.115588e-001 3.925627e-001 7.041872e-003 2.148234e-001 3.526320e-002 -8.204797e-002 -1.597487e-001 -1.177111e-001
<VARIANCE> 25
 1.816156e+001 1.903888e+001 3.253230e+001 2.715284e+001 4.909212e+001 3.930672e+001 3.071091e+001 2.463755e+001 1.825010e+001 2.917473e+001 2.342171e+001 1.459888e+001 1.587560e+000 2.119348e+000 1.263802e+000 1.183069e+000 1.708770e+000 2.586914e+000 2.162860e+000 1.291103e+000 1.805100e+000 2.069170e+000 2.041436e+000 1.291514e+000 1.454390e+000
<GCONST> 9.167303e+001
<TRANSP> 5
 0.000000e+000 1.000000e+000 0.000000e+000 0.000000e+000 0.000000e+000
 0.000000e+000 6.974051e-001 3.025948e-001 0.000000e+000 0.000000e+000
 0.000000e+000 0.000000e+000 8.036901e-001 1.963100e-001 0.000000e+000
 0.000000e+000 0.000000e+000 0.000000e+000 6.716667e-001 3.283333e-001
 0.000000e+000 0.000000e+000 0.000000e+000 0.000000e+000 0.000000e+000
<ENDHMM>
~h "l"
<BEGINHMM>
<NUMSTATES> 5
<STATE> 2
<MEAN> 25
 9.207337e+000 3.325871e+000 2.124811e+000 -3.370423e+000 -1.331813e+001 -9.186342e+000 -5.238427e+000 -7.060071e-001 1.970116e+000 -3.225633e+000 8.487642e-001 -1.713820e+000 -4.601241e-003 1.400085e-001 2.821639e-001 4.789094e-002 6.891735e-002 7.358274e-002 6.079653e-002 -1.713679e-002 7.342516e-002 2.260814e-001 -1.535831e-001 1.124042e-001 -3.265633e-001
<VARIANCE> 25
 9.833015e+000 1.318450e+001 6.395677e+001 4.145265e+001 1.055786e+002 6.120922e+001 4.870571e+001 6.442930e+001 4.910378e+001 2.694345e+001 2.269573e+001 1.837976e+001 2.483865e-001 5.823137e-001 1.596597e+000 1.337949e+000 2.111978e+000 2.074947e+000 1.502710e+000 2.208366e+000 1.851267e+000 1.748540e+000 1.699440e+000 1.331982e+000 3.513791e-001
<GCONST> 9.118900e+001
<STATE> 3
<MEAN> 25
 5.081952e+000 4.394100e+000 2.063574e-001 -1.955749e+000 -7.852884e-001 2.194176e+000 9.097028e-001 -6.385553e-001 -5.507714e-003 1.902719e+000 -7.461721e-001 -7.844180e-001 -8.606200e-001 -3.756915e-001 -2.428991e-001 5.046255e-001 1.148227e+000 7.957903e-001 1.069127e+000 3.372090e-001 2.419118e-001 2.655178e-001 1.501566e-001 5.901780e-002 -1.056674e+000
<VARIANCE> 25
 1.939975e+001 1.470409e+001 5.419021e+001 3.892492e+001 7.597142e+001 7.924460e+001 4.711744e+001 3.440652e+001 2.650463e+001 2.694793e+001 1.857467e+001 1.455335e+001 7.793871e-001 1.318724e+000 1.759209e+000 2.858962e+000 2.107319e+000 3.227387e+000 2.358689e+000 2.353714e+000 1.782703e+000 1.863195e+000 1.473417e+000 9.345455e-001 1.244000e+000
<GCONST> 9.453165e+001
<STATE> 4
<MEAN> 25
 -3.166635e+000 -1.998108e+000 -4.744554e-001 5.195396e-001 3.033331e+000 1.726412e+000 2.942790e+000 1.359608e+000 8.056716e-001 1.901264e+000 3.012559e-001 1.360254e+000 -1.114787e-001 -5.649866e-002 -3.854388e-002 4.615600e-002 3.975104e-002 -8.361212e-002 -9.663363e-002 -5.715805e-002 -9.439503e-002 -7.127816e-002 -1.798007e-002 1.408927e-002 -8.795213e-002
<VARIANCE> 25
 5.139072e+000 4.908393e+000 8.447010e+000 1.172554e+001 1.526928e+001 1.453415e+001 1.872734e+001 1.569426e+001 1.553720e+001 1.414864e+001 1.319878e+001 1.124749e+001 2.386190e-001 3.802137e-001 7.819617e-001 7.709407e-001 1.006924e+000 1.234778e+000 1.381240e+000 1.374972e+000 1.356679e+000 1.303540e+000 1.225634e+000 1.041607e+000 1.656929e-001
<GCONST> 7.221901e+001
<TRANSP> 5
 0.000000e+000 1.000000e+000 0.000000e+000 0.000000e+000 0.000000e+000
 0.000000e+000 8.940956e-001 1.059044e-001 0.000000e+000 0.000000e+000
 0.000000e+000 0.000000e+000 8.456545e-001 1.543454e-001 0.000000e+000
 0.000000e+000 0.000000e+000 0.000000e+000 9.506993e-001 4.930069e-002
 0.000000e+000 0.000000e+000 0.000000e+000 0.000000e+000 0.000000e+000
<ENDHMM>
~h "m"
<BEGINHMM>
<NUMSTATES> 5
<STATE> 2
<MEAN> 25
 9.356031e+000 4.045893e+000 -1.767559e+000 2.218362e+000 -2.236722e+000 5.358917e-001 -9.975196e-001 -5.515876e+000 7.894418e-002 -4.600556e-001 5.395110e-001 -1.021978e+001 -4.094050e-001 7.670146e-001 9.357932e-001 1.847471e+000 1.780482e+000 -4.644548e-001 5.637175e-001 -9.159301e-001 -1.120117e+000 3.887234e-001 5.080617e-002 -8.470603e-001 -1.304454e+000
<VARIANCE> 25
 1.260662e+001 1.630879e+001 3.490564e+001 5.944372e+001 2.834789e+001 2.972751e+001 2.802077e+001 3.578960e+001 3.151392e+001 3.605716e+001 2.287873e+001 2.480294e+001 6.115394e-001 9.872514e-001 2.724254e+000 2.553957e+000 2.397101e+000 4.350649e+000 2.526905e+000 2.200313e+000 1.958898e+000 3.088761e+000 1.280395e+000 3.956117e+000 6.998911e-001
<GCONST> 9.449563e+001
<STATE> 3
<MEAN> 25
 5.877400e+000 6.785721e+000 3.559596e+000 8.039324e+000 5.533029e+000 -5.431025e-001 -1.200669e+000 -6.524310e+000 -3.214707e+000 -1.221692e+000 -1.052859e+000 -7.525044e+000 -5.534837e-001 -3.218551e-001 2.901285e-001 1.619425e-002 4.466243e-001 4.248347e-001 5.550363e-003 5.914948e-001 3.634640e-001 6.106889e-002 -1.259637e-001 8.796563e-001 -6.415926e-001
<VARIANCE> 25
 7.252303e+000 1.387536e+001 1.831231e+001 1.520046e+001 2.031904e+001 2.546748e+001 2.414786e+001 2.953170e+001 2.257761e+001 1.777333e+001 2.684101e+001 3.115543e+001 7.646097e-001 2.399527e+000 1.870434e+000 1.925421e+000 1.800821e+000 2.513419e+000 2.751254e+000 3.353274e+000 2.108132e+000 2.192593e+000 2.873796e+000 3.767808e+000 1.385665e+000
<GCONST> 9.158873e+001
<STATE> 4
<MEAN> 25
 7.629635e-001 4.234596e+000 3.324680e+000 4.500766e+000 6.661507e+000 3.851058e+000 1.538178e+000 -2.626785e-001 4.921077e-001 -2.779329e-003 -1.506202e+000 -2.841099e+000 -4.515365e-001 -6.223251e-001 -5.079454e-001 -6.032926e-001 -4.251986e-001 9.639057e-002 -3.247226e-002 2.773199e-001 3.382162e-001 2.259894e-001 1.273976e-001 3.862012e-001 -3.983027e-002
<VARIANCE> 25
 1.059450e+001 1.346601e+001 1.485973e+001 1.997318e+001 2.054743e+001 1.762584e+001 2.062555e+001 2.384335e+001 2.918247e+001 1.338572e+001 1.761845e+001 2.220161e+001 6.882900e-001 1.610666e+000 8.336325e-001 1.333424e+000 2.074771e+000 2.190520e+000 2.431606e+000 2.206492e+000 2.151302e+000 2.033107e+000 1.715047e+000 2.197241e+000 9.159418e-001
<GCONST> 8.674480e+001
<TRANSP> 5
 0.000000e+000 1.000000e+000 0.000000e+000 0.000000e+000 0.000000e+000
 0.000000e+000 7.236204e-001 2.763796e-001 0.000000e+000 0.000000e+000
 0.000000e+000 0.000000e+000 8.069795e-001 1.930205e-001 0.000000e+000
 0.000000e+000 0.000000e+000 0.000000e+000 7.663636e-001 2.336364e-001
 0.000000e+000 0.000000e+000 0.000000e+000 0.000000e+000 0.000000e+000
<ENDHMM>
~h "n"
<BEGINHMM>
<NUMSTATES> 5
<STATE> 2
<MEAN> 25
 4.022543e+000 -7.229770e+000 5.146586e-001 1.143042e-001 -2.782270e+000 -3.159859e+000 -3.121811e+000 4.479313e+000 -7.343673e-002 -3.747459e+000 -7.487085e-001 -1.886168e+000 9.169199e-002 -7.305850e-001 -6.822542e-002 -4.390190e-001 -1.190803e-001 -1.361551e-001 2.617864e-001 6.799222e-001 -1.367942e-001 3.341643e-001 -1.037497e-001 -5.394168e-001 6.158549e-001
<VARIANCE> 25
 5.157467e+001 8.874277e+001 5.840594e+001 6.815128e+001 1.106722e+002 6.442125e+001 3.127503e+001 1.303024e+002 5.286155e+001 7.581825e+001 6.029472e+001 5.631752e+001 3.069025e+000 4.076361e+000 2.492387e+000 3.248300e+000 7.280612e+000 3.731772e+000 3.061623e+000 6.926593e+000 5.435016e+000 5.069546e+000 6.283676e+000 4.919089e+000 5.183914e+000
<GCONST> 1.156429e+002
<STATE> 3
<MEAN> 25
 7.137021e+000 -6.092494e+000 -1.209378e+000 -1.898568e+000 -5.500720e+000 -4.849794e+000 -4.529248e-001 2.450077e+000 -3.784989e+000 -5.015887e+000 -3.705405e+000 -7.775299e-001 5.764177e-001 1.354583e+000 5.892731e-001 9.134059e-001 -5.659425e-001 -1.002700e-001 4.056744e-001 -1.269717e+000 1.622503e-001 -2.230810e-001 -5.209762e-001 -2.281978e-001 -1.696304e+000
<VARIANCE> 25
 2.320924e+001 4.699298e+001 4.290680e+001 4.201034e+001 5.727367e+001 5.081440e+001 3.716121e+001 6.090576e+001 5.540323e+001 1.017300e+002 4.411524e+001 7.154267e+001 1.286498e+000 1.279569e+000 1.701521e+000 2.243465e+000 3.434524e+000 3.351314e+000 3.302565e+000 5.185305e+000 3.593148e+000 5.634934e+000 3.330126e+000 3.977096e+000 9.863113e-001
<GCONST> 1.055326e+002
<STATE> 4
<MEAN> 25
 8.549584e+000 3.000388e+000 3.437850e+000 5.882767e+000 -1.423744e+000 -2.347558e+000 2.098720e-001 -5.376163e+000 1.135097e+000 2.157715e-001 -6.298562e+000 -5.174335e+000 -1.651282e-001 7.314370e-001 4.308085e-001 4.100989e-001 3.882032e-001 2.107150e-001 1.710030e-001 -3.858687e-001 1.821765e-001 1.778523e-001 2.094522e-003 3.318435e-001 -9.012089e-001
<VARIANCE> 25
 2.646815e+001 4.242966e+001 2.664423e+001 2.346873e+001 6.409663e+001 3.335978e+001 2.809639e+001 3.693004e+001 3.588391e+001 3.047978e+001 3.407001e+001 3.600531e+001 1.045045e+000 1.409767e+000 1.241964e+000 2.143141e+000 1.687973e+000 2.011701e+000 2.557114e+000 4.170184e+000 2.062162e+000 2.564400e+000 2.281563e+000 2.463045e+000 7.354411e-001
<GCONST> 9.617106e+001
<TRANSP> 5
 0.000000e+000 1.000000e+000 0.000000e+000 0.000000e+000 0.000000e+000
 0.000000e+000 6.795125e-001 3.204875e-001 0.000000e+000 0.000000e+000
 0.000000e+000 0.000000e+000 7.550645e-001 2.449355e-001 0.000000e+000
 0.000000e+000 0.000000e+000 0.000000e+000 7.439595e-001 2.560405e-001
 0.000000e+000 0.000000e+000 0.000000e+000 0.000000e+000 0.000000e+000
<ENDHMM>
~h "p"
<BEGINHMM>
<NUMSTATES> 5
<STATE> 2
<MEAN> 25
 -3.369952e+000 -3.482384e-001 -2.547262e+000 2.544510e+000 1.743307e+000 1.030358e+000 3.171314e+000 1.589753e+000 1.968736e+000 1.000191e+000 -1.045637e-001 3.908264e-001 1.092793e+000 -1.544988e+000 -4.555993e-001 -4.814454e-001 -5.781756e-001 -1.192547e+000 -1.056054e+000 -3.283250e-001 -2.796899e-002 -2.176578e-001 9.609694e-001 -2.351419e-001 5.440201e+000
<VARIANCE> 25
 2.285967e+001 4.014899e+001 4.556273e+001 6.325667e+001 5.484551e+001 3.031932e+001 4.503976e+001 2.382606e+001 2.153722e+001 2.823361e+001 3.255384e+001 2.107246e+001 4.950469e+000 7.348094e+000 1.058874e+001 7.741174e+000 7.707315e+000 3.879780e+000 7.107409e+000 3.840773e+000 2.151724e+000 4.293472e+000 6.885840e+000 2.689230e+000 1.648466e+001
<GCONST> 1.107205e+002
<STATE> 3
<MEAN> 25
 -1.213898e+000 -5.982393e+000 -4.725535e+000 -1.813290e+000 2.773113e+000 4.519767e+000 -1.034564e+000 -3.540185e+000 1.824565e+000 -4.753425e-001 1.572500e+000 -5.339023e-001 9.962860e-001 1.082379e-001 1.135731e+000 -2.678090e-002 -7.291902e-002 -1.011910e-001 -1.775275e+000 -7.152700e-001 -4.770581e-001 -7.073392e-001 -4.702806e-001 -4.258832e-001 1.563596e+000
<VARIANCE> 25
 3.852965e+001 5.554143e+001 6.809629e+001 6.041166e+001 8.278450e+001 1.018271e+002 3.429210e+001 3.185367e+001 3.693874e+001 2.970205e+001 5.098265e+001 2.179428e+001 4.703591e+000 2.822935e+000 4.295177e+000 2.205198e+000 6.540109e+000 8.177828e+000 8.864772e+000 3.767211e+000 4.023961e+000 2.682370e+000 3.733868e+000 2.541684e+000 1.157261e+001
<GCONST> 1.113869e+002
<STATE> 4
<MEAN> 25
 6.468337e+000 -2.786751e-001 -1.009078e+000 -3.472588e+000 -3.807432e+000 -4.334093e+000 -5.456460e+000 -5.225890e-001 4.854118e-001 -4.289215e-001 -2.804770e+000 -3.513645e+000 5.354027e-001 2.848342e-001 7.545218e-001 7.259644e-002 -7.827154e-001 -7.745437e-001 -1.118622e-001 1.995219e-001 -5.793338e-001 -2.708239e-001 2.959094e-001 -2.425503e-001 6.515065e-001
<VARIANCE> 25
 4.995003e+001 8.674933e+001 6.165185e+001 3.913289e+001 9.447270e+001 5.763954e+001 4.826791e+001 4.264519e+001 3.470557e+001 3.508117e+001 3.301609e+001 2.246619e+001 2.847749e+000 2.655110e+000 3.118288e+000 2.956371e+000 4.527013e+000 2.151823e+000 3.316490e+000 2.012000e+000 3.203225e+000 3.446586e+000 2.685978e+000 2.663761e+000 5.522263e+000
<GCONST> 1.065520e+002
<TRANSP> 5
 0.000000e+000 1.000000e+000 0.000000e+000 0.000000e+000 0.000000e+000
 0.000000e+000 5.495925e-001 4.504075e-001 0.000000e+000 0.000000e+000
 0.000000e+000 0.000000e+000 6.121106e-001 3.878894e-001 0.000000e+000
 0.000000e+000 0.000000e+000 0.000000e+000 5.868825e-001 4.131175e-001
 0.000000e+000 0.000000e+000 0.000000e+000 0.000000e+000 0.000000e+000
<ENDHMM>
~h "r"
<BEGINHMM>
<NUMSTATES> 5
<STATE> 2
<MEAN> 25
 -7.392297e-002 4.050082e+000 1.423157e+000 4.195300e+000 2.154512e+000 4.523389e+000 1.554932e+000 2.203935e-001 2.205556e+000 -8.857303e-001 -1.158847e+000 -1.046741e+000 1.740600e-001 -8.759245e-002 3.241837e-002 1.491774e-001 -7.100073e-002 -4.708525e-002 -1.782867e-001 6.555907e-002 9.865025e-002 -1.248540e-001 3.519771e-002 6.929312e-002 2.313039e-001
<VARIANCE> 25
 3.487276e+001 4.764917e+001 3.264374e+001 4.950433e+001 3.416554e+001 3.143581e+001 3.602176e+001 3.606689e+001 2.745405e+001 2.987582e+001 3.309443e+001 2.891838e+001 1.718072e+000 2.112428e+000 1.539439e+000 1.644675e+000 1.880044e+000 2.365050e+000 1.785564e+000 2.186451e+000 1.522350e+000 2.687595e+000 2.582300e+000 2.279526e+000 1.214941e+000
<GCONST> 9.692064e+001
<STATE> 3
<MEAN> 25
 4.418179e+000 -3.885558e+000 -2.555209e+000 2.249907e-001 -1.983287e+000 1.540816e-001 -3.185660e+000 -4.568543e-001 2.331017e+000 -1.666328e+000 1.827071e+000 9.171687e-001 9.332719e-001 -9.142615e-001 -6.608680e-001 -1.287060e-001 -9.012872e-001 -9.182557e-001 -1.030223e+000 -3.722464e-001 1.821146e-002 -6.776450e-001 7.310939e-001 5.766294e-001 2.065966e+000
<VARIANCE> 25
 6.291020e+001 8.083218e+001 6.246074e+001 6.498728e+001 6.585237e+001 7.999810e+001 4.144449e+001 5.704667e+001 3.827463e+001 6.475600e+001 5.488690e+001 4.349911e+001 5.803461e+000 6.830637e+000 3.665346e+000 4.774928e+000 6.063980e+000 4.437591e+000 4.071187e+000 6.372074e+000 4.459291e+000 5.706980e+000 4.727006e+000 3.790713e+000 6.027550e+000
<GCONST> 1.157302e+002
<STATE> 4
<MEAN> 25
 1.010303e+001 -2.214791e+000 -5.889454e+000 -1.510705e+000 -3.108638e+000 -8.956501e-001 -7.327375e+000 -2.716633e-001 2.697206e+000 -5.045093e+000 2.741249e+000 1.780177e+000 -7.277526e-002 1.458197e-001 1.843934e-001 3.758045e-002 2.259506e-001 -4.396605e-001 2.814276e-001 -4.856073e-002 -1.023083e-001 5.676771e-002 2.675821e-002 -5.144096e-002 -2.493827e-001
<VARIANCE> 25
 2.819012e+001 5.758474e+001 5.288382e+001 1.241513e+002 4.876785e+001 1.184009e+002 7.011977e+001 6.800874e+001 6.002530e+001 5.410668e+001 3.829417e+001 3.415297e+001 1.143580e+000 1.152097e+000 2.094554e+000 3.432087e+000 2.808810e+000 4.641950e+000 3.784821e+000 3.159898e+000 2.800853e+000 3.209878e+000 2.608672e+000 2.561125e+000 1.174089e+000
<GCONST> 1.060752e+002
<TRANSP> 5
 0.000000e+000 1.000000e+000 0.000000e+000 0.000000e+000 0.000000e+000
 0.000000e+000 7.215603e-001 2.784397e-001 0.000000e+000 0.000000e+000
 0.000000e+000 0.000000e+000 6.496536e-001 3.503464e-001 0.000000e+000
 0.000000e+000 0.000000e+000 0.000000e+000 8.350500e-001 1.649499e-001
 0.000000e+000 0.000000e+000 0.000000e+000 0.000000e+000 0.000000e+000
<ENDHMM>
~h "s"
<BEGINHMM>
<NUMSTATES> 5
<STATE> 2
<MEAN> 25
 -7.099785e+000 5.108085e+000 2.894658e+000 2.880981e+000 3.305764e+000 -4.675213e+000 2.643511e+000 5.930383e-001 -3.062269e+000 -1.213150e+000 9.330317e-001 1.518999e+000 -2.531043e+000 -6.492863e-002 1.713006e-002 1.053836e-001 7.240541e-001 -8.371603e-002 3.787002e-002 9.087627e-001 3.463351e-001 -3.313960e-001 6.298762e-001 5.685390e-001 5.440876e-001
<VARIANCE> 25
 8.424874e+001 9.049850e+001 5.662634e+001 3.382803e+001 6.772982e+001 8.086816e+001 3.279826e+001 4.634657e+001 4.200115e+001 4.174835e+001 5.073313e+001 4.825481e+001 4.760484e+000 5.151515e+000 6.280822e+000 3.982572e+000 6.250040e+000 4.259631e+000 3.422805e+000 3.980220e+000 3.352621e+000 3.893199e+000 2.593684e+000 3.051540e+000 2.136328e+000
<GCONST> 1.113605e+002
<STATE> 3
<MEAN> 25
 -1.717123e+001 -7.442061e+000 1.267696e+001 3.977894e+000 -3.184491e+000 4.875442e+000 1.823793e+000 3.772566e+000 1.674250e+000 -1.730669e+000 3.685806e+000 -1.510424e+000 -6.087757e-003 1.277006e-001 -2.834047e-001 -1.398938e-001 1.317867e-001 3.928617e-003 -1.439963e-001 4.616265e-002 3.435420e-002 -4.940824e-002 -1.309910e-001 -4.640107e-002 1.086494e-001
<VARIANCE> 25
 3.649849e+001 7.517345e+001 9.852245e+001 3.510563e+001 4.633506e+001 4.320141e+001 2.686401e+001 2.583121e+001 1.715509e+001 4.474328e+001 3.262354e+001 1.618859e+001 4.738183e+000 1.278904e+000 2.353729e+000 1.242414e+000 1.869140e+000 1.576070e+000 1.459948e+000 1.577407e+000 1.566743e+000 1.725162e+000 1.421325e+000 1.183698e+000 9.559776e-001
<GCONST> 9.532820e+001
<STATE> 4
<MEAN> 25
 -1.240048e+001 4.647381e+000 -2.277155e+000 -2.046388e+000 4.552831e+000 -2.500188e+000 1.380699e-001 2.783972e+000 -1.022605e+000 4.833590e-001 -2.219385e+000 1.451598e+000 5.732167e-001 -2.691327e-001 -1.727227e-001 -2.400262e-002 -2.209258e-001 1.669845e-001 -1.141579e-001 -2.560993e-001 8.273705e-002 2.094820e-002 1.546616e-001 1.731505e-002 -3.547094e-001
<VARIANCE> 25
 3.275457e+001 2.497941e+001 2.016088e+001 2.256872e+001 2.834269e+001 2.873085e+001 2.274992e+001 2.491614e+001 1.888056e+001 2.617027e+001 1.928259e+001 1.963083e+001 2.724731e+000 1.547535e+000 1.788750e+000 1.353640e+000 1.876230e+000 2.181015e+000 1.966045e+000 2.527975e+000 1.885245e+000 2.069765e+000 1.755908e+000 1.735762e+000 1.369004e+000
<GCONST> 9.208167e+001
<TRANSP> 5
 0.000000e+000 1.000000e+000 0.000000e+000 0.000000e+000 0.000000e+000
 0.000000e+000 7.264345e-001 2.735654e-001 0.000000e+000 0.000000e+000
 0.000000e+000 0.000000e+000 7.918601e-001 2.081399e-001 0.000000e+000
 0.000000e+000 0.000000e+000 0.000000e+000 8.597080e-001 1.402920e-001
 0.000000e+000 0.000000e+000 0.000000e+000 0.000000e+000 0.000000e+000
<ENDHMM>
~h "t"
<BEGINHMM>
<NUMSTATES> 5
<STATE> 2
<MEAN> 25
 -4.062134e+000 1.538145e+000 -1.669233e-001 2.138075e+000 3.256409e-001 -7.805461e-001 2.914386e+000 8.331782e-001 2.288878e+000 2.784832e-001 2.616326e+000 1.155453e-001 1.070742e+000 -1.804026e+000 -9.025740e-001 -1.614427e+000 -6.383304e-001 -1.579524e+000 -3.515406e-001 3.618913e-001 1.263326e-001 -5.737618e-002 6.114320e-001 1.858804e-001 4.689683e+000
<VARIANCE> 25
 6.521609e+001 3.789635e+001 4.259547e+001 4.179119e+001 2.997491e+001 6.302208e+001 3.483345e+001 3.736618e+001 3.382889e+001 3.381852e+001 4.273062e+001 2.160480e+001 8.322459e+000 4.637040e+000 5.028675e+000 5.889832e+000 5.973228e+000 6.801737e+000 6.011939e+000 3.477107e+000 4.003249e+000 5.404249e+000 5.851584e+000 2.221710e+000 2.348460e+001
<GCONST> 1.124107e+002
<STATE> 3
<MEAN> 25
 1.093899e+000 -4.278574e+000 -1.797593e+000 -2.040034e+000 -1.215874e+000 -5.463701e+000 -1.857120e+000 2.866440e+000 1.720524e+000 -6.997201e-001 -4.918896e-001 -8.189954e-001 7.381841e-001 -8.824199e-001 -1.547363e-001 -4.661603e-001 2.633093e-001 7.708904e-001 -4.526438e-001 6.496933e-001 -2.363728e-001 6.985906e-001 -4.860291e-001 -8.080021e-002 9.985154e-001
<VARIANCE> 25
 3.694992e+001 5.460661e+001 3.147847e+001 5.795506e+001 5.571998e+001 5.325536e+001 6.669359e+001 4.994031e+001 4.212611e+001 5.243550e+001 3.449635e+001 3.400188e+001 3.953134e+000 2.293201e+000 3.690747e+000 2.462728e+000 3.864911e+000 5.791726e+000 6.613741e+000 4.330370e+000 4.246799e+000 4.660267e+000 6.752053e+000 3.742383e+000 6.732151e+000
<GCONST> 1.109359e+002
<STATE> 4
<MEAN> 25
 1.722732e+000 -4.319189e+000 -3.802397e+000 -1.545634e+000 9.012958e-001 4.623173e-001 9.731887e-001 -5.096424e-002 1.391208e+000 2.285892e+000 1.475761e+000 2.259060e+000 -7.309433e-002 -3.252571e-002 1.042720e-001 4.308247e-001 4.739005e-001 5.615096e-001 2.036163e-002 -5.253237e-001 -3.037360e-001 -9.686636e-003 2.082788e-001 -4.624604e-002 -2.187362e-001
<VARIANCE> 25
 2.882856e+001 7.703510e+001 3.785211e+001 5.526727e+001 6.403229e+001 3.331677e+001 5.440848e+001 3.921795e+001 3.528673e+001 3.840084e+001 5.067408e+001 2.731490e+001 1.605009e+000 1.264329e+000 1.248527e+000 1.575693e+000 3.205689e+000 2.886935e+000 2.992217e+000 2.988250e+000 2.415305e+000 2.750066e+000 3.147635e+000 2.234964e+000 1.687647e+000
<GCONST> 1.012418e+002
<TRANSP> 5
 0.000000e+000 1.000000e+000 0.000000e+000 0.000000e+000 0.000000e+000
 0.000000e+000 5.057595e-001 4.942405e-001 0.000000e+000 0.000000e+000
 0.000000e+000 0.000000e+000 4.534292e-001 5.465709e-001 0.000000e+000
 0.000000e+000 0.000000e+000 0.000000e+000 6.983610e-001 3.016390e-001
 0.000000e+000 0.000000e+000 0.000000e+000 0.000000e+000 0.000000e+000
<ENDHMM>
~h "v"
<BEGINHMM>
<NUMSTATES> 5
<STATE> 2
<MEAN> 25
 3.986560e+000 -6.958072e-001 -3.878258e+000 -4.848940e+000 5.631860e-001 1.893319e+000 -1.782017e+000 1.032894e+000 -7.794033e-001 1.459358e-001 9.358866e-001 2.051772e+000 1.700291e+000 9.676465e-001 -5.307199e-001 -2.645576e+000 -2.762624e-001 1.706712e+000 -7.740099e-001 -7.244763e-001 -5.294035e-001 -1.374646e-002 5.713674e-001 -8.089364e-002 1.314984e+000
<VARIANCE> 25
 2.978314e+001 2.639486e+001 3.755596e+001 1.083496e+002 4.030373e+001 8.179721e+001 3.232903e+001 2.548879e+001 2.852030e+001 3.602714e+001 3.810842e+001 1.899656e+001 4.257555e+000 4.124429e+000 5.188345e+000 5.813313e+000 5.264747e+000 5.766619e+000 3.011553e+000 5.062425e+000 5.248569e+000 5.471605e+000 3.610507e+000 2.019083e+000 6.490933e+000
<GCONST> 1.088837e+002
<STATE> 3
<MEAN> 25
 6.472208e+000 1.518086e+000 -1.249718e+000 -8.359061e+000 -5.913132e+000 5.914526e+000 -3.183764e+000 1.720022e+000 -1.210974e+000 -4.306100e+000 1.658569e+000 1.200847e-001 -5.297827e-001 6.880810e-001 -3.211618e-001 1.167898e-001 -4.751270e-001 -1.162424e+000 8.523188e-001 2.219003e-001 8.406745e-001 3.309231e-001 -7.961883e-001 -2.165632e-001 5.756378e-001
<VARIANCE> 25
 2.177401e+001 3.233545e+001 2.794990e+001 1.445517e+002 4.665113e+001 1.951686e+002 6.299910e+001 1.463293e+001 1.725267e+001 4.403767e+001 1.692891e+001 3.312251e+001 1.480974e+000 2.096682e+000 1.297422e+000 3.889165e+000 3.109488e+000 7.403114e+000 2.052574e+000 1.944887e+000 1.607355e+000 2.827917e+000 1.628624e+000 2.263315e+000 1.972019e+000
<GCONST> 1.004831e+002
<STATE> 4
<MEAN> 25
 2.367665e+000 3.400954e+000 -3.905531e+000 -4.904957e+000 -1.210077e-001 -1.923913e+000 -1.970584e-001 4.670031e-001 2.465385e+000 2.425210e+000 -7.251239e-001 1.110895e+000 -4.936066e-001 2.514940e-001 4.478571e-001 8.348842e-001 7.359119e-001 -5.075032e-001 -3.647641e-001 -5.445971e-001 -1.541021e-002 3.491931e-002 -2.412411e-001 -1.475386e-001 -5.968723e-001
<VARIANCE> 25
 4.137875e+001 2.054323e+001 3.429532e+001 9.311120e+001 3.686374e+001 3.573997e+001 4.125124e+001 3.207655e+001 2.938334e+001 3.117691e+001 2.044086e+001 6.307043e+001 1.086494e+000 7.001259e-001 1.371363e+000 4.325456e+000 1.804582e+000 4.101090e+000 2.777824e+000 1.870919e+000 2.227890e+000 3.263154e+000 3.152566e+000 3.392117e+000 6.828501e-001
<GCONST> 9.824263e+001
<TRANSP> 5
 0.000000e+000 1.000000e+000 0.000000e+000 0.000000e+000 0.000000e+000
 0.000000e+000 6.300210e-001 3.699789e-001 0.000000e+000 0.000000e+000
 0.000000e+000 0.000000e+000 5.930015e-001 4.069985e-001 0.000000e+000
 0.000000e+000 0.000000e+000 0.000000e+000 6.592396e-001 3.407604e-001
 0.000000e+000 0.000000e+000 0.000000e+000 0.000000e+000 0.000000e+000
<ENDHMM>
~h "w"
<BEGINHMM>
<NUMSTATES> 5
<STATE> 2
<MEAN> 25
 6.705738e+000 2.502827e+000 -3.882685e+000 -9.549805e+000 -3.590477e+000 -9.402842e-001 9.449832e-001 1.217500e+000 -2.833537e-001 -8.198498e-001 -2.843840e+000 -2.500972e+000 6.346367e-001 1.939572e-001 -3.931895e-001 -5.287312e-001 -2.009529e-001 -2.118440e-001 -6.945556e-001 -2.529802e-001 2.427164e-001 -1.166996e-001 2.395077e-001 -1.154193e-002 8.097953e-001
<VARIANCE> 25
 5.743521e+001 7.128994e+001 4.773793e+001 6.112526e+001 7.220915e+001 1.408189e+002 7.655923e+001 3.623822e+001 6.663110e+001 4.163574e+001 3.094038e+001 5.592506e+001 5.495912e+000 4.890590e+000 4.057790e+000 7.738824e+000 7.377362e+000 1.061950e+001 8.991741e+000 4.673087e+000 4.393239e+000 3.835074e+000 3.274838e+000 3.267059e+000 6.068009e+000
<GCONST> 1.166173e+002
<STATE> 3
<MEAN> 25
 1.101702e+001 2.600966e+000 -2.896508e+000 -1.169400e+001 -4.584808e+000 -4.635216e-002 -1.061548e+001 1.284277e+000 -5.738879e+000 1.465862e+000 8.169626e+000 -3.576444e+000 -4.255333e-001 -1.506822e+000 -6.961196e-001 3.984419e-001 2.677889e-001 2.161293e-001 -3.233347e-001 1.042313e+000 3.687558e-001 1.368717e-001 5.965376e-001 -1.130197e+000 1.327587e+000
<VARIANCE> 25
 2.383632e+001 4.855886e+001 5.545493e+001 1.229424e+002 3.832936e+001 1.239552e+002 6.588864e+001 2.846662e+001 4.882304e+001 3.119599e+001 4.645104e+001 4.149755e+001 1.492086e+000 1.335673e+000 1.907008e+000 4.391458e+000 3.423433e+000 8.903900e+000 4.386994e+000 2.423915e+000 4.142509e+000 2.765077e+000 4.739845e+000 3.018514e+000 1.069687e+000
<GCONST> 1.064860e+002
<STATE> 4
<MEAN> 25
 -1.027912e+000 -1.054750e+001 -8.369249e+000 -3.613371e+000 7.172280e+000 6.762445e+000 -4.854262e+000 -1.185759e+000 3.315584e-001 -3.217210e+000 7.678277e+000 -1.493180e+000 -2.394296e-001 -2.764943e-001 1.730588e-001 4.568359e-001 -4.536639e-004 -7.207010e-001 6.243925e-001 2.848754e-001 -2.633315e-001 -2.777060e-001 -1.660380e-001 8.089581e-001 6.931251e-002
<VARIANCE> 25
 3.167088e+001 2.376834e+001 9.854471e+000 2.061094e+001 8.616515e+001 1.192645e+002 3.097917e+001 5.823054e+001 3.374883e+001 1.096179e+001 1.555100e+001 5.379573e+001 3.553493e-001 5.426251e-001 3.778710e-001 9.145329e-001 1.173607e+000 2.084362e+000 1.877560e+000 2.409864e+000 1.842607e+000 1.936784e+000 1.537970e+000 2.072566e+000 2.459146e-001
<GCONST> 8.798669e+001
<TRANSP> 5
 0.000000e+000 1.000000e+000 0.000000e+000 0.000000e+000 0.000000e+000
 0.000000e+000 9.045135e-001 9.548652e-002 0.000000e+000 0.000000e+000
 0.000000e+000 0.000000e+000 8.196979e-001 1.803022e-001 0.000000e+000
 0.000000e+000 0.000000e+000 0.000000e+000 8.333429e-001 1.666571e-001
 0.000000e+000 0.000000e+000 0.000000e+000 0.000000e+000 0.000000e+000
<ENDHMM>
~h "y"
<BEGINHMM>
<NUMSTATES> 5
<STATE> 2
<MEAN> 25
 2.597187e+000 1.712658e+000 1.046848e+001 2.708047e+000 -1.055896e+001 -9.616153e+000 -1.447281e+000 -2.202476e+000 -1.085345e+001 -3.449470e+000 3.417509e+000 -4.810122e+000 2.414046e-001 -2.941342e-001 -2.437994e-001 1.464897e-001 -2.970878e-001 -3.544351e-001 4.735678e-002 1.436132e-001 2.404191e-001 -5.107323e-002 1.851605e-001 2.292475e-001 -3.398325e-002
<VARIANCE> 25
 1.991922e+001 2.061724e+001 3.990230e+001 2.288893e+001 4.775094e+001 4.419232e+001 1.960468e+001 2.134240e+001 5.194637e+001 1.958756e+001 5.038505e+001 3.585295e+001 3.329044e+000 2.211605e+000 3.024580e+000 1.865138e+000 5.368131e+000 4.579238e+000 1.794412e+000 2.095793e+000 5.753923e+000 1.833177e+000 3.632025e+000 3.193728e+000 2.375299e+000
<GCONST> 1.008222e+002
<STATE> 3
<MEAN> 25
 1.158855e+001 -4.818163e+000 -5.850454e+000 4.239881e+000 -8.679413e+000 -1.310432e+001 -3.964028e+000 1.469625e+000 8.769425e+000 -7.437514e+000 -1.121626e+000 2.017054e+000 2.684861e-001 2.369236e-001 -3.252466e-001 -3.711488e-002 1.710564e-001 2.574765e-001 5.033609e-002 1.577647e-001 3.454401e-001 -4.434486e-001 1.753753e-001 -2.546807e-001 -3.008491e-001
<VARIANCE> 25
 2.390865e+001 1.723774e+001 4.798453e+001 2.313971e+001 3.427044e+001 3.137750e+001 2.724134e+001 3.549293e+001 4.361574e+001 2.382713e+001 2.198895e+001 2.328733e+001 1.598336e+000 1.645957e+000 2.549570e+000 1.339630e+000 2.208966e+000 2.743309e+000 1.622952e+000 1.330736e+000 2.260397e+000 1.204273e+000 1.593046e+000 1.422326e+000 3.965518e-001
<GCONST> 9.168151e+001
<STATE> 4
<MEAN> 25
 2.318222e+000 -3.275085e+000 8.258963e-002 1.560059e+000 -2.739792e+000 -2.417197e+000 -3.042903e+000 -2.489027e+000 1.281726e+000 -9.944707e-001 2.812703e+000 1.113289e+000 -3.521270e-001 5.006571e-001 2.670732e-001 4.647050e-001 5.407683e-001 1.196779e+000 1.930145e-001 -1.543502e-001 8.591986e-002 2.916880e-001 -7.059923e-001 -2.032275e-001 -4.361358e-001
<VARIANCE> 25
 2.586633e+001 1.995967e+001 2.133539e+001 1.550498e+001 5.443597e+001 4.513344e+001 3.139421e+001 3.142961e+001 2.933993e+001 6.156937e+001 2.299816e+001 1.543073e+001 1.184947e+000 1.962602e+000 2.303273e+000 1.117928e+000 2.108099e+000 2.449470e+000 1.176640e+000 1.877524e+000 1.355968e+000 6.905988e-001 9.682158e-001 1.123238e+000 4.918625e-001
<GCONST> 8.959975e+001
<TRANSP> 5
 0.000000e+000 1.000000e+000 0.000000e+000 0.000000e+000 0.000000e+000
 0.000000e+000 9.079758e-001 9.202423e-002 0.000000e+000 0.000000e+000
 0.000000e+000 0.000000e+000 7.783620e-001 2.216380e-001 0.000000e+000
 0.000000e+000 0.000000e+000 0.000000e+000 5.418095e-001 4.581905e-001
 0.000000e+000 0.000000e+000 0.000000e+000 0.000000e+000 0.000000e+000
<ENDHMM>
~h "z"
<BEGINHMM>
<NUMSTATES> 5
<STATE> 2
<MEAN> 25
 -4.001167e+000 3.095306e+000 -7.083244e+000 -5.717372e+000 9.829440e+000 4.747156e+000 -6.415243e+000 2.911495e+000 5.782772e+000 -1.949111e+000 3.768022e+000 5.971041e+000 -1.338488e+000 5.897896e-001 2.943302e-001 5.811213e-001 2.361379e-001 -1.181418e+000 1.262584e+000 1.026344e+000 6.055080e-001 -1.637523e-001 -7.328410e-001 1.540726e-001 -4.770828e-002
<VARIANCE> 25
 1.973328e+001 1.325965e+002 2.750296e+001 3.368762e+001 4.430045e+001 8.084311e+001 6.114248e+001 4.194630e+001 4.010963e+001 4.026692e+001 4.415346e+001 2.263311e+001 2.977489e+000 2.362653e+000 1.230499e+000 2.530072e+000 3.840744e+000 4.406343e+000 3.597248e+000 3.945306e+000 4.314475e+000 3.571573e+000 3.864981e+000 2.367925e+000 5.742751e-001
<GCONST> 1.039375e+002
<STATE> 3
<MEAN> 25
 -7.055741e+000 4.759496e+000 -3.698811e+000 2.619171e+000 1.042502e+001 -9.378973e+000 -3.691635e+000 5.335405e+000 5.931915e+000 1.152280e+000 -4.623292e-001 6.380985e+000 1.703149e+000 -1.329050e+000 6.853946e-001 1.146616e+000 -9.231393e-001 -1.085749e+000 -1.234298e+000 -4.861781e-001 1.245865e-001 1.588239e-001 -7.666394e-001 -6.819077e-001 5.057237e-001
<VARIANCE> 25
 5.304608e+001 5.118670e+001 2.702169e+001 4.753255e+001 4.753901e+001 6.009870e+001 3.778717e+001 3.995469e+001 4.336175e+001 4.709899e+001 2.994573e+001 3.272340e+001 5.508746e+000 3.271151e+000 1.552992e+000 2.566710e+000 4.188369e+000 4.087957e+000 4.768986e+000 3.757903e+000 4.525856e+000 4.305047e+000 3.011199e+000 3.333947e+000 3.719887e+000
<GCONST> 1.073886e+002
<STATE> 4
<MEAN> 25
 1.643917e+000 5.301864e+000 -2.172836e+000 -2.880991e-001 -1.712388e+000 -1.330780e+001 -1.133936e+000 2.281000e-001 1.468702e+000 -2.229661e+000 -2.472372e+000 3.929688e+000 2.991028e-001 -3.919452e-001 4.434118e-001 -2.308288e-001 -5.713349e-001 -2.521949e-001 -1.990568e-001 3.066727e-001 -1.757135e-001 -6.595717e-002 3.049938e-001 -4.708285e-002 5.529054e-001
<VARIANCE> 25
 2.353259e+001 1.046029e+002 3.358310e+001 4.467018e+001 3.011364e+001 4.456360e+001 6.340031e+001 2.419864e+001 3.367531e+001 6.143657e+001 4.950647e+001 4.394305e+001 2.598153e+000 8.432868e+000 1.732310e+000 3.015343e+000 2.945615e+000 3.087575e+000 5.522826e+000 2.979759e+000 2.070194e+000 5.066860e+000 2.324341e+000 5.252689e+000 2.664770e+000
<GCONST> 1.065074e+002
<TRANSP> 5
 0.000000e+000 1.000000e+000 0.000000e+000 0.000000e+000 0.000000e+000
 0.000000e+000 7.878000e-001 2.122000e-001 0.000000e+000 0.000000e+000
 0.000000e+000 0.000000e+000 7.197073e-001 2.802927e-001 0.000000e+000
 0.000000e+000 0.000000e+000 0.000000e+000 7.894956e-001 2.105044e-001
 0.000000e+000 0.000000e+000 0.000000e+000 0.000000e+000 0.000000e+000
<ENDHMM>
~h "aa"
<BEGINHMM>
<NUMSTATES> 5
<STATE> 2
<MEAN> 25
 8.205616e+000 -1.636300e+000 -8.900085e+000 -9.330910e+000 -2.213892e+000 5.315280e+000 -3.035024e+000 -2.502192e+000 -2.981777e+000 2.375084e+000 5.832567e+000 -5.200853e+000 1.463292e+000 4.090513e-001 -6.619648e-001 -1.016682e+000 -7.940980e-001 5.007438e-001 2.095890e-001 -7.524523e-001 -4.731256e-001 -8.312191e-002 2.020561e-001 -3.879616e-001 4.457718e-001
<VARIANCE> 25
 2.953072e+001 3.235071e+001 3.968753e+001 5.580333e+001 3.750531e+001 3.410198e+001 2.862501e+001 2.923794e+001 1.854460e+001 2.301437e+001 6.436763e+001 4.172789e+001 2.455117e+000 2.014490e+000 2.432922e+000 3.577003e+000 1.725310e+000 2.281286e+000 2.029291e+000 2.081105e+000 1.712039e+000 2.419189e+000 2.819941e+000 4.138213e+000 3.416027e+000
<GCONST> 1.000270e+002
<STATE> 3
<MEAN> 25
 8.570756e+000 2.816160e+000 -5.578536e+000 -1.143147e+001 -2.910313e+000 6.365308e+000 2.080389e+000 -3.254893e+000 -2.569994e+000 2.211681e-001 1.679147e-001 4.661566e-001 -1.052350e+000 3.453729e-001 7.536055e-001 9.804918e-001 8.403203e-001 -6.397677e-001 -5.656504e-002 4.996678e-001 5.015801e-001 1.087069e-001 -5.258958e-001 1.739153e-001 -1.127883e+000
<VARIANCE> 25
 2.504837e+001 2.406812e+001 2.752317e+001 9.252995e+001 2.590516e+001 4.608629e+001 4.982205e+001 6.358524e+001 5.186390e+001 2.729430e+001 2.772738e+001 4.102998e+001 1.482215e+000 1.745946e+000 2.636769e+000 4.336737e+000 2.156027e+000 4.615259e+000 5.225611e+000 4.775927e+000 3.246349e+000 2.269557e+000 3.647473e+000 5.310260e+000 1.929454e+000
<GCONST> 1.041493e+002
<STATE> 4
<MEAN> 25
 -2.158872e+000 5.471312e+000 3.540149e+000 3.622138e+000 2.929032e+000 1.597204e+000 1.270185e+000 -5.085785e-001 2.922687e+000 1.777738e+000 -2.068966e+000 -7.611516e-001 -2.670041e-001 -1.184285e-001 3.001580e-002 3.104205e-001 1.013229e-001 1.942897e-001 5.914826e-002 1.844259e-001 1.744536e-001 9.361520e-003 -6.962389e-002 -1.984455e-001 -3.176127e-001
<VARIANCE> 25
 1.678411e+001 2.968667e+001 2.444858e+001 5.955764e+001 2.095073e+001 2.863700e+001 2.623697e+001 2.223340e+001 2.451401e+001 2.395264e+001 2.320488e+001 2.364966e+001 5.485239e-001 5.025211e-001 6.271594e-001 1.224550e+000 1.458391e+000 2.546336e+000 1.561374e+000 1.723429e+000 2.639305e+000 2.148163e+000 1.644220e+000 1.729674e+000 9.859725e-001
<GCONST> 8.840569e+001
<TRANSP> 5
 0.000000e+000 1.000000e+000 0.000000e+000 0.000000e+000 0.000000e+000
 0.000000e+000 8.001791e-001 1.998208e-001 0.000000e+000 0.000000e+000
 0.000000e+000 0.000000e+000 8.184074e-001 1.815927e-001 0.000000e+000
 0.000000e+000 0.000000e+000 0.000000e+000 8.155265e-001 1.844735e-001
 0.000000e+000 0.000000e+000 0.000000e+000 0.000000e+000 0.000000e+000
<ENDHMM>
~h "ae"
<BEGINHMM>
<NUMSTATES> 5
<STATE> 2
<MEAN> 25
 3.432405e+000 -1.066528e+000 -2.997363e+000 -5.353464e-001 -2.621083e+000 -4.019296e+000 4.133359e-001 -4.301471e-001 -3.828617e+000 -4.610132e+000 -3.237034e+000 -2.031571e+000 -4.908622e-001 1.947842e+000 1.423060e-001 3.006992e-001 -4.334103e-001 -4.310144e-001 1.004796e+000 -5.796639e-001 2.758900e-001 -5.182733e-001 -4.016576e-001 -5.729710e-001 -5.204637e-001
<VARIANCE> 25
 4.595101e+001 1.179080e+002 2.619855e+001 2.756004e+001 4.778791e+001 3.727284e+001 7.524762e+001 5.109983e+001 4.496452e+001 7.629974e+001 5.295150e+001 3.906259e+001 7.587573e+000 5.822624e+000 3.514350e+000 3.675067e+000 6.726006e+000 5.785333e+000 7.989068e+000 4.420664e+000 5.419165e+000 7.344935e+000 6.419382e+000 4.717824e+000 4.655572e+000
<GCONST> 1.148462e+002
<STATE> 3
<MEAN> 25
 -8.724247e+000 3.146769e+000 -2.778271e+000 1.184898e+000 1.857338e+000 -1.832930e+000 4.611519e+000 1.121266e+000 1.167415e+000 2.538091e+000 4.804659e+000 -2.154099e+000 1.044710e+000 -1.198962e+000 -6.170784e-001 -1.122286e+000 3.194896e-001 2.324952e-001 -9.895911e-001 -2.400154e-002 1.870094e-001 3.787383e-001 1.447963e-001 -3.651487e-002 6.475781e-001
<VARIANCE> 25
 1.248659e+002 8.590027e+001 3.958894e+001 5.210694e+001 4.416681e+001 2.543289e+001 6.328450e+001 7.599483e+001 4.100688e+001 6.125792e+001 5.866774e+001 2.535245e+001 8.199487e+000 2.589167e+000 3.794414e+000 6.096014e+000 3.294276e+000 2.631903e+000 4.766611e+000 6.510004e+000 4.102759e+000 7.281127e+000 4.597762e+000 3.116804e+000 3.857828e+000
<GCONST> 1.126960e+002
<STATE> 4
<MEAN> 25
 5.793013e+000 -8.436250e+000 -9.542421e+000 -9.689751e+000 1.917904e+000 -1.556242e+000 -2.881117e+000 6.045995e-001 7.006592e+000 3.000917e+000 -2.172416e+000 -4.903680e+000 -2.849487e-001 -2.212074e-001 9.731403e-002 1.695058e-001 -2.747691e-001 -7.244202e-002 2.922302e-001 1.743577e-001 7.888643e-002 -3.333287e-001 -1.912423e-001 1.771866e-001 3.540661e-001
<VARIANCE> 25
 2.124649e+001 1.611419e+001 2.342869e+001 4.577398e+001 4.602739e+001 2.676566e+001 3.567507e+001 3.368227e+001 4.799889e+001 6.419519e+001 2.683271e+001 2.700543e+001 6.198645e-001 5.975627e-001 8.707614e-001 1.878333e+000 1.512937e+000 1.610142e+000 2.099461e+000 2.098455e+000 2.813075e+000 2.714613e+000 1.326521e+000 2.003418e+000 6.822507e-001
<GCONST> 9.208713e+001
<TRANSP> 5
 0.000000e+000 1.000000e+000 0.000000e+000 0.000000e+000 0.000000e+000
 0.000000e+000 8.117133e-001 1.882866e-001 0.000000e+000 0.000000e+000
 0.000000e+000 0.000000e+000 8.543754e-001 1.456247e-001 0.000000e+000
 0.000000e+000 0.000000e+000 0.000000e+000 8.729396e-001 1.270603e-001
 0.000000e+000 0.000000e+000 0.000000e+000 0.000000e+000 0.000000e+000
<ENDHMM>
~h "ah"
<BEGINHMM>
<NUMSTATES> 5
<STATE> 2
<MEAN> 25
 4.410480e+000 -6.088612e-001 -1.938289e+000 1.474638e+000 1.780344e+000 -4.577690e-001 -3.258968e+000 -3.570051e+000 -1.765315e+000 -2.333645e+000 9.637328e-001 -2.360691e-001 3.954799e-001 -3.305864e-001 -1.375579e-001 -1.791375e-001 -4.486070e-001 1.682985e-001 -8.644806e-001 -2.726308e-001 -2.194874e-001 -6.258290e-001 2.031270e-001 -2.541805e-002 6.804886e-001
<VARIANCE> 25
 3.312651e+001 4.539034e+001 5.858081e+001 5.153045e+001 5.703421e+001 5.174644e+001 7.084365e+001 5.272738e+001 5.248163e+001 4.452916e+001 5.010407e+001 2.719042e+001 3.162473e+000 2.812613e+000 3.629008e+000 4.360476e+000 6.587122e+000 3.112425e+000 4.845513e+000 4.308125e+000 4.377633e+000 4.880873e+000 3.929786e+000 2.938394e+000 3.740340e+000
<GCONST> 1.102979e+002
<STATE> 3
<MEAN> 25
 4.368267e+000 -2.724599e+000 1.320648e-001 8.471470e-001 7.548378e-001 -2.460263e+000 -4.947822e+000 -1.644697e-001 -2.687248e+000 -5.273068e+000 7.977946e-001 -1.643808e-001 2.835313e-001 8.666521e-001 -1.515824e-001 -5.949787e-001 -6.818438e-001 -2.364115e-001 4.238912e-001 5.138656e-001 1.494617e-001 1.182953e-001 -3.295253e-001 5.127456e-002 -6.768693e-001
<VARIANCE> 25
 4.148775e+001 5.800106e+001 5.299549e+001 5.446239e+001 7.733823e+001 5.783662e+001 6.312132e+001 7.355047e+001 6.824710e+001 4.928502e+001 3.800837e+001 3.736236e+001 1.446580e+000 2.835350e+000 2.774405e+000 1.798413e+000 4.907875e+000 3.048430e+000 3.235016e+000 5.688894e+000 3.738034e+000 3.254666e+000 3.625473e+000 3.265233e+000 2.390044e+000
<GCONST> 1.084066e+002
<STATE> 4
<MEAN> 25
 5.883934e+000 1.893344e-001 -2.076073e+000 -2.742236e+000 -2.845145e+000 -2.546290e+000 -1.141601e+000 -7.287284e-001 3.263365e-001 -1.436718e+000 -7.705559e-001 -1.922930e-001 -2.346240e-001 1.071741e-001 9.967625e-002 6.671944e-002 -1.857455e-001 -1.017494e-001 4.326642e-001 -4.733512e-002 -4.672813e-004 1.578982e-001 -6.119277e-002 1.186402e-002 -4.635339e-001
<VARIANCE> 25
 2.993255e+001 3.375769e+001 5.300065e+001 4.661037e+001 7.529621e+001 5.394102e+001 5.964435e+001 4.531955e+001 3.674901e+001 3.403941e+001 3.651105e+001 4.122486e+001 6.155843e-001 1.228763e+000 1.281522e+000 1.393559e+000 2.378585e+000 2.044932e+000 2.193487e+000 2.218218e+000 1.763455e+000 1.725185e+000 2.192617e+000 1.807492e+000 7.238638e-001
<GCONST> 9.696825e+001
<TRANSP> 5
 0.000000e+000 1.000000e+000 0.000000e+000 0.000000e+000 0.000000e+000
 0.000000e+000 6.077766e-001 3.922233e-001 0.000000e+000 0.000000e+000
 0.000000e+000 0.000000e+000 5.342004e-001 4.657997e-001 0.000000e+000
 0.000000e+000 0.000000e+000 0.000000e+000 6.954789e-001 3.045211e-001
 0.000000e+000 0.000000e+000 0.000000e+000 0.000000e+000 0.000000e+000
<ENDHMM>
~h "ao"
<BEGINHMM>
<NUMSTATES> 5
<STATE> 2
<MEAN> 25
 1.547547e+000 2.060351e+000 -5.348980e+000 3.929422e-001 -3.122934e+000 -1.617060e-001 2.349126e+000 3.949861e-001 -2.101427e+000 -1.684043e-001 2.116613e+000 -1.920374e+000 2.847327e+000 6.137733e-001 -7.795889e-001 -2.589738e+000 -2.073007e+000 4.549629e-001 -1.016406e-001 -4.763312e-001 -8.669364e-001 -6.950862e-001 9.930598e-001 -3.101965e-001 3.002078e+000
<VARIANCE> 25
 6.774316e+001 1.722977e+001 2.121868e+001 7.547543e+001 5.394386e+001 3.486087e+001 3.502849e+001 5.576809e+001 3.016262e+001 5.856638e+001 4.133881e+001 1.691794e+001 5.369011e+000 3.044093e+000 2.197391e+000 4.992597e+000 4.023145e+000 6.364499e+000 4.141418e+000 5.528504e+000 4.704754e+000 2.412476e+000 6.301262e+000 2.016981e+000 5.429958e+000
<GCONST> 1.077579e+002
<STATE> 3
<MEAN> 25
 4.051218e+000 -3.765481e+000 -6.569546e+000 -4.010903e+000 -3.432166e+000 1.836532e+000 1.091296e+001 2.764666e+000 -5.166844e+000 -3.831900e+000 2.380358e-001 -6.573915e-001 3.341112e-001 -3.259356e-001 -1.943502e-001 -6.528320e-001 6.996374e-002 1.200683e+000 -4.588774e-001 -3.005052e-001 5.902721e-001 5.865640e-002 3.258551e-001 -1.938108e-001 2.211678e-001
<VARIANCE> 25
 3.614567e+001 2.500837e+001 9.552135e+000 4.564169e+001 3.034972e+001 4.475461e+001 1.000846e+002 6.485660e+001 2.688031e+001 7.887402e+000 3.712706e+001 1.175934e+001 1.331708e+000 2.667724e-001 7.396330e-001 2.984332e+000 1.686987e+000 5.975682e+000 2.062100e+000 1.996153e+000 9.131952e-001 1.160827e+000 1.153532e+000 1.088675e+000 1.080009e+000
<GCONST> 9.010467e+001
<STATE> 4
<MEAN> 25
 1.343789e+001 3.181584e+000 -6.242641e+000 -1.315120e+001 -9.710983e+000 1.156672e+001 -3.615854e+000 -6.140018e+000 -2.704469e+000 -2.783664e+000 4.631601e+000 -4.871082e-001 -1.543021e-001 -8.877935e-003 3.050202e-002 2.811046e-001 1.116255e-001 1.368660e-001 -2.361272e-001 2.072340e-001 2.298562e-001 1.932479e-001 -2.763638e-001 -2.716332e-002 -1.085355e-001
<VARIANCE> 25
 1.063747e+001 1.662290e+001 3.013476e+001 6.393093e+001 3.105046e+001 6.335751e+001 2.539964e+001 4.418868e+001 1.875561e+001 1.154202e+001 2.739705e+001 3.242028e+001 2.755330e-001 7.418509e-001 9.214449e-001 2.586507e+000 1.445565e+000 2.688536e+000 1.669600e+000 1.340661e+000 1.589391e+000 1.164385e+000 1.335958e+000 1.718693e+000 3.085116e-001
<GCONST> 8.717474e+001
<TRANSP> 5
 0.000000e+000 1.000000e+000 0.000000e+000 0.000000e+000 0.000000e+000
 0.000000e+000 8.070343e-001 1.929657e-001 0.000000e+000 0.000000e+000
 0.000000e+000 0.000000e+000 7.171252e-001 2.828748e-001 0.000000e+000
 0.000000e+000 0.000000e+000 0.000000e+000 9.269691e-001 7.303083e-002
 0.000000e+000 0.000000e+000 0.000000e+000 0.000000e+000 0.000000e+000
<ENDHMM>
~h "aw"
<BEGINHMM>
<NUMSTATES> 5
<STATE> 2
<MEAN> 25
 4.302830e+000 -1.086798e+000 -2.833960e+000 -1.245991e+000 4.942356e+000 -9.332269e-001 -8.627731e+000 -2.353809e+000 -1.960741e+000 -8.203206e-001 2.596649e+000 1.685318e+000 6.169131e-001 -1.165095e+000 -4.661093e-001 -3.729882e-001 5.339939e-001 1.640306e+000 -1.036331e+000 4.805296e-001 -1.625200e-002 -1.371843e-001 4.467290e-001 -9.654559e-001 2.583853e+000
<VARIANCE> 25
 4.209766e+001 6.338824e+001 3.406712e+001 4.216439e+001 3.347468e+001 6.606010e+001 9.015360e+001 3.583461e+001 6.363592e+001 2.204238e+001 4.614894e+001 4.136648e+001 4.267929e+000 5.082168e+000 2.738943e+000 4.110144e+000 4.166031e+000 6.868405e+000 8.135032e+000 4.054776e+000 5.060866e+000 2.241217e+000 4.858863e+000 6.199509e+000 9.707103e+000
<GCONST> 1.121429e+002
<STATE> 3
<MEAN> 25
 3.871395e+000 -1.070153e+001 -7.556277e+000 -5.955682e+000 7.952463e+000 1.083720e+001 -8.247664e+000 -5.655776e-001 1.982297e-001 8.190119e-001 2.581709e+000 -6.298385e+000 3.633057e-001 1.946745e-001 8.143183e-002 -1.030579e+000 -3.406299e-001 6.028921e-001 3.509851e-003 -2.017379e-001 -4.571126e-001 7.314393e-001 1.621643e-001 -6.423031e-001 -1.112230e-002
<VARIANCE> 25
 2.783593e+001 1.249727e+001 1.574921e+001 3.241882e+001 2.260044e+001 3.350971e+001 3.255125e+001 3.190892e+001 4.239368e+001 2.936728e+001 4.232639e+001 3.471444e+001 9.531589e-001 1.230365e+000 1.204714e+000 2.023396e+000 2.144708e+000 3.044586e+000 3.626986e+000 2.497843e+000 1.514956e+000 1.698473e+000 2.904015e+000 2.244371e+000 1.055495e+000
<GCONST> 9.403345e+001
<STATE> 4
<MEAN> 25
 9.150194e+000 -1.692535e+000 -7.405783e+000 -1.372027e+001 1.344698e+000 6.811631e+000 -1.061095e+001 -2.664769e+000 -3.519900e+000 6.165517e+000 5.490512e+000 -1.302763e+000 -4.285032e-001 1.460289e+000 -6.553648e-002 4.272045e-001 1.315860e-001 -1.347635e+000 -1.517671e-001 -3.183494e-001 5.792747e-001 -3.231674e-001 -6.307265e-002 1.634340e+000 -5.044168e-001
<VARIANCE> 25
 1.612468e+001 2.619509e+001 2.099250e+001 4.440038e+001 2.433407e+001 6.483627e+001 5.197003e+001 2.313973e+001 3.291844e+001 2.904984e+001 3.102763e+001 4.536107e+001 1.787349e+000 1.259188e+000 1.639431e+000 5.361507e+000 3.146653e+000 7.084061e+000 4.640720e+000 2.672964e+000 2.758642e+000 3.990313e+000 2.508693e+000 2.673210e+000 4.189042e-001
<GCONST> 9.943738e+001
<TRANSP> 5
 0.000000e+000 1.000000e+000 0.000000e+000 0.000000e+000 0.000000e+000
 0.000000e+000 8.269160e-001 1.730841e-001 0.000000e+000 0.000000e+000
 0.000000e+000 0.000000e+000 8.699653e-001 1.300347e-001 0.000000e+000
 0.000000e+000 0.000000e+000 0.000000e+000 8.603029e-001 1.396971e-001
 0.000000e+000 0.000000e+000 0.000000e+000 0.000000e+000 0.000000e+000
<ENDHMM>
~h "ay"
<BEGINHMM>
<NUMSTATES> 5
<STATE> 2
<MEAN> 25
 8.341507e+000 -3.316518e+000 -9.465283e+000 -2.658333e+000 -3.141124e+000 -2.718174e+000 -4.027468e+000 -7.448974e+000 2.955152e+000 -3.346832e+000 7.452988e+000 3.052755e+000 -3.722011e-001 3.056741e-002 5.113622e-001 1.372632e+000 9.565849e-001 -4.339409e-001 -1.288353e+000 -1.204173e+000 -4.398771e-001 -1.343541e-001 3.498001e-001 -1.697199e-001 -2.791743e-001
<VARIANCE> 25
 1.424802e+001 1.830423e+001 2.988160e+001 3.859794e+001 5.402369e+001 1.982822e+001 7.251798e+001 5.430717e+001 1.621682e+001 1.909892e+001 2.501136e+001 3.781958e+001 6.395394e-001 6.488320e-001 3.402007e+000 2.186850e+000 3.641988e+000 2.103218e+000 5.574993e+000 2.625132e+000 2.204360e+000 1.945409e+000 2.185506e+000 3.538445e+000 5.320494e-001
<GCONST> 9.512106e+001
<STATE> 3
<MEAN> 25
 7.486868e+000 -5.044760e+000 -2.079672e+000 3.631818e+000 3.769898e+000 -2.812906e+000 -1.143088e+001 -4.090394e+000 -4.215656e+000 -5.425100e+000 4.234443e+000 -1.950027e+000 -2.642246e-001 5.253162e-001 1.127705e+000 6.798489e-001 -2.314865e-001 -6.107875e-002 1.115753e+000 1.331914e+000 -1.226670e+000 -9.417142e-002 -1.051567e+000 -2.573292e-001 -9.843422e-001
<VARIANCE> 25
 2.764766e+001 3.621281e+001 3.212931e+001 3.993293e+001 7.624609e+001 2.524643e+001 6.897575e+001 1.245860e+002 3.494093e+001 3.731652e+001 3.032804e+001 2.361196e+001 8.612743e-001 9.406493e-001 1.622671e+000 2.354866e+000 5.647042e+000 1.246556e+000 5.111100e+000 3.962356e+000 2.024175e+000 3.362515e+000 2.599439e+000 2.572207e+000 1.248800e+000
<GCONST> 1.005111e+002
<STATE> 4
<MEAN> 25
 2.595098e+000 -2.162621e+000 2.379051e-001 5.842190e+000 9.365761e+000 1.285197e+000 -8.372561e+000 -7.946847e+000 -2.429995e+000 -2.167465e+000 1.659989e+000 -1.890186e+000 -1.561155e-001 1.834860e-001 -2.900143e-002 -4.350149e-001 -1.034504e+000 3.879178e-002 1.384496e+000 5.512257e-001 2.844785e-001 6.273841e-001 -2.270140e-001 -3.511431e-002 -5.910630e-001
<VARIANCE> 25
 2.053255e+001 2.290038e+001 4.747193e+001 2.601997e+001 7.629710e+001 3.154254e+001 6.646584e+001 5.210772e+001 3.462844e+001 5.267726e+001 2.414882e+001 1.846953e+001 1.081618e+000 1.063927e+000 2.784956e+000 2.640339e+000 4.974861e+000 1.916392e+000 4.804839e+000 4.226693e+000 1.807579e+000 4.557009e+000 1.967981e+000 2.416179e+000 2.386910e+000
<GCONST> 1.007036e+002
<TRANSP> 5
 0.000000e+000 1.000000e+000 0.000000e+000 0.000000e+000 0.000000e+000
 0.000000e+000 7.723891e-001 2.276109e-001 0.000000e+000 0.000000e+000
 0.000000e+000 0.000000e+000 6.729434e-001 3.270567e-001 0.000000e+000
 0.000000e+000 0.000000e+000 0.000000e+000 7.299248e-001 2.700752e-001
 0.000000e+000 0.000000e+000 0.000000e+000 0.000000e+000 0.000000e+000
<ENDHMM>
~h "ch"
<BEGINHMM>
<NUMSTATES> 5
<STATE> 2
<MEAN> 25
 -1.205808e-008 7.471832e-008 -5.503286e-008 1.714419e-009 -4.314622e-009 -6.243344e-009 -3.245967e-008 5.886173e-009 -4.663221e-008 -2.217316e-008 -2.948801e-008 4.270333e-008 2.560044e-002 3.139617e-004 8.288709e-003 -9.700003e-003 8.491755e-003 -6.657258e-003 3.393384e-003 -9.661411e-003 -5.902453e-003 -8.686491e-003 -3.965416e-003 -3.687867e-003 3.609585e-002
<VARIANCE> 25
 6.743311e+001 4.386040e+001 5.738831e+001 5.798326e+001 6.474918e+001 5.654857e+001 5.389107e+001 4.411510e+001 4.258719e+001 4.208948e+001 3.679993e+001 3.124355e+001 1.965594e+000 1.803727e+000 1.934022e+000 2.333615e+000 2.834451e+000 2.798423e+000 2.861493e+000 2.778302e+000 2.531476e+000 2.589815e+000 2.444618e+000 2.166934e+000 2.889750e+000
<GCONST> 1.040926e+002
<STATE> 3
<MEAN> 25
 -1.205808e-008 7.471832e-008 -5.503286e-008 1.714419e-009 -4.314622e-009 -6.243344e-009 -3.245967e-008 5.886173e-009 -4.663221e-008 -2.217316e-008 -2.948801e-008 4.270333e-008 2.560044e-002 3.139617e-004 8.288709e-003 -9.700003e-003 8.491755e-003 -6.657258e-003 3.393384e-003 -9.661411e-003 -5.902453e-003 -8.686491e-003 -3.965416e-003 -3.687867e-003 3.609585e-002
<VARIANCE> 25
 6.743311e+001 4.386040e+001 5.738831e+001 5.798326e+001 6.474918e+001 5.654857e+001 5.389107e+001 4.411510e+001 4.258719e+001 4.208948e+001 3.679993e+001 3.124355e+001 1.965594e+000 1.803727e+000 1.934022e+000 2.333615e+000 2.834451e+000 2.798423e+000 2.861493e+000 2.778302e+000 2.531476e+000 2.589815e+000 2.444618e+000 2.166934e+000 2.889750e+000
<GCONST> 1.040926e+002
<STATE> 4
<MEAN> 25
 -1.205808e-008 7.471832e-008 -5.503286e-008 1.714419e-009 -4.314622e-009 -6.243344e-009 -3.245967e-008 5.886173e-009 -4.663221e-008 -2.217316e-008 -2.948801e-008 4.270333e-008 2.560044e-002 3.139617e-004 8.288709e-003 -9.700003e-003 8.491755e-003 -6.657258e-003 3.393384e-003 -9.661411e-003 -5.902453e-003 -8.686491e-003 -3.965416e-003 -3.687867e-003 3.609585e-002
<VARIANCE> 25
 6.743311e+001 4.386040e+001 5.738831e+001 5.798326e+001 6.474918e+001 5.654857e+001 5.389107e+001 4.411510e+001 4.258719e+001 4.208948e+001 3.679993e+001 3.124355e+001 1.965594e+000 1.803727e+000 1.934022e+000 2.333615e+000 2.834451e+000 2.798423e+000 2.861493e+000 2.778302e+000 2.531476e+000 2.589815e+000 2.444618e+000 2.166934e+000 2.889750e+000
<GCONST> 1.040926e+002
<TRANSP> 5
 0.000000e+000 1.000000e+000 0.000000e+000 0.000000e+000 0.000000e+000
 0.000000e+000 6.000000e-001 4.000000e-001 0.000000e+000 0.000000e+000
 0.000000e+000 0.000000e+000 6.000000e-001 4.000000e-001 0.000000e+000
 0.000000e+000 0.000000e+000 0.000000e+000 7.000000e-001 3.000000e-001
 0.000000e+000 0.000000e+000 0.000000e+000 0.000000e+000 0.000000e+000
<ENDHMM>
~h "dh"
<BEGINHMM>
<NUMSTATES> 5
<STATE> 2
<MEAN> 25
 -1.205808e-008 7.471832e-008 -5.503286e-008 1.714419e-009 -4.314622e-009 -6.243344e-009 -3.245967e-008 5.886173e-009 -4.663221e-008 -2.217316e-008 -2.948801e-008 4.270333e-008 2.560044e-002 3.139617e-004 8.288709e-003 -9.700003e-003 8.491755e-003 -6.657258e-003 3.393384e-003 -9.661411e-003 -5.902453e-003 -8.686491e-003 -3.965416e-003 -3.687867e-003 3.609585e-002
<VARIANCE> 25
 6.743311e+001 4.386040e+001 5.738831e+001 5.798326e+001 6.474918e+001 5.654857e+001 5.389107e+001 4.411510e+001 4.258719e+001 4.208948e+001 3.679993e+001 3.124355e+001 1.965594e+000 1.803727e+000 1.934022e+000 2.333615e+000 2.834451e+000 2.798423e+000 2.861493e+000 2.778302e+000 2.531476e+000 2.589815e+000 2.444618e+000 2.166934e+000 2.889750e+000
<GCONST> 1.040926e+002
<STATE> 3
<MEAN> 25
 -1.205808e-008 7.471832e-008 -5.503286e-008 1.714419e-009 -4.314622e-009 -6.243344e-009 -3.245967e-008 5.886173e-009 -4.663221e-008 -2.217316e-008 -2.948801e-008 4.270333e-008 2.560044e-002 3.139617e-004 8.288709e-003 -9.700003e-003 8.491755e-003 -6.657258e-003 3.393384e-003 -9.661411e-003 -5.902453e-003 -8.686491e-003 -3.965416e-003 -3.687867e-003 3.609585e-002
<VARIANCE> 25
 6.743311e+001 4.386040e+001 5.738831e+001 5.798326e+001 6.474918e+001 5.654857e+001 5.389107e+001 4.411510e+001 4.258719e+001 4.208948e+001 3.679993e+001 3.124355e+001 1.965594e+000 1.803727e+000 1.934022e+000 2.333615e+000 2.834451e+000 2.798423e+000 2.861493e+000 2.778302e+000 2.531476e+000 2.589815e+000 2.444618e+000 2.166934e+000 2.889750e+000
<GCONST> 1.040926e+002
<STATE> 4
<MEAN> 25
 -1.205808e-008 7.471832e-008 -5.503286e-008 1.714419e-009 -4.314622e-009 -6.243344e-009 -3.245967e-008 5.886173e-009 -4.663221e-008 -2.217316e-008 -2.948801e-008 4.270333e-008 2.560044e-002 3.139617e-004 8.288709e-003 -9.700003e-003 8.491755e-003 -6.657258e-003 3.393384e-003 -9.661411e-003 -5.902453e-003 -8.686491e-003 -3.965416e-003 -3.687867e-003 3.609585e-002
<VARIANCE> 25
 6.743311e+001 4.386040e+001 5.738831e+001 5.798326e+001 6.474918e+001 5.654857e+001 5.389107e+001 4.411510e+001 4.258719e+001 4.208948e+001 3.679993e+001 3.124355e+001 1.965594e+000 1.803727e+000 1.934022e+000 2.333615e+000 2.834451e+000 2.798423e+000 2.861493e+000 2.778302e+000 2.531476e+000 2.589815e+000 2.444618e+000 2.166934e+000 2.889750e+000
<GCONST> 1.040926e+002
<TRANSP> 5
 0.000000e+000 1.000000e+000 0.000000e+000 0.000000e+000 0.000000e+000
 0.000000e+000 6.000000e-001 4.000000e-001 0.000000e+000 0.000000e+000
 0.000000e+000 0.000000e+000 6.000000e-001 4.000000e-001 0.000000e+000
 0.000000e+000 0.000000e+000 0.000000e+000 7.000000e-001 3.000000e-001
 0.000000e+000 0.000000e+000 0.000000e+000 0.000000e+000 0.000000e+000
<ENDHMM>
~h "eh"
<BEGINHMM>
<NUMSTATES> 5
<STATE> 2
<MEAN> 25
 5.605800e+000 -3.952975e+000 5.868795e-001 3.628735e+000 -3.959226e+000 -5.668462e-001 -1.260734e+000 1.032119e+000 -1.040686e-001 -5.024347e+000 5.090159e+000 5.750701e-001 -7.041506e-002 -1.104373e+000 6.616594e-001 -1.302171e-001 -8.614067e-001 2.938235e-001 -5.046344e-001 7.333211e-001 4.587122e-001 -2.432033e-002 2.145315e-001 2.984545e-002 1.116743e+000
<VARIANCE> 25
 6.170182e+001 4.437334e+001 3.004950e+001 1.106654e+002 9.791302e+001 1.717433e+002 2.656440e+001 4.158905e+001 4.083732e+001 4.989445e+001 6.924497e+001 3.875781e+001 3.829511e+000 4.602001e+000 4.100691e+000 6.051225e+000 6.758683e+000 1.230913e+001 3.460791e+000 6.909093e+000 5.419417e+000 4.884989e+000 4.962124e+000 3.879354e+000 6.408218e+000
<GCONST> 1.159906e+002
<STATE> 3
<MEAN> 25
 2.409760e+000 -1.007836e+001 8.149155e+000 2.861681e+000 -4.630930e+000 -5.570501e+000 -2.204663e+000 1.052137e+001 1.685531e+000 -2.714909e+000 4.046161e+000 1.378305e-001 -9.983802e-002 4.818415e-001 2.641988e-001 -4.066637e-001 3.315896e-001 9.259749e-002 5.703769e-001 -1.379242e-001 -6.896456e-001 6.086484e-002 -1.069252e-001 2.413532e-002 -3.114846e-001
<VARIANCE> 25
 7.788482e+001 5.990254e+001 3.336563e+001 2.209223e+001 6.682944e+001 7.621289e+001 7.458994e+001 7.029291e+001 8.984137e+001 3.666556e+001 2.718764e+001 2.930695e+001 2.453246e+000 2.908804e+000 3.354127e+000 3.171971e+000 2.178239e+000 2.292522e+000 4.480059e+000 3.822267e+000 5.078003e+000 3.376150e+000 1.819575e+000 1.900493e+000 1.526404e+000
<GCONST> 1.061621e+002
<STATE> 4
<MEAN> 25
 -9.004704e-001 6.119442e+000 8.384376e+000 5.154728e+000 -8.749144e-001 1.086280e+000 -1.087923e+000 -1.032241e+000 -2.503062e+000 3.194743e-001 -3.934418e+000 -3.563035e+000 -2.007435e-001 1.719183e-001 -6.511641e-002 4.807580e-002 1.596787e-001 2.164478e-001 -8.286205e-002 -2.703786e-001 -1.312130e-002 -9.861527e-002 -1.773623e-001 1.073000e-001 -3.412230e-001
<VARIANCE> 25
 2.395035e+001 4.554195e+001 4.838175e+001 3.647100e+001 4.232346e+001 4.075829e+001 3.180984e+001 3.225751e+001 8.362437e+001 2.763547e+001 3.481753e+001 1.889717e+001 4.098727e-001 5.696262e-001 5.636011e-001 9.936220e-001 9.588733e-001 1.916143e+000 1.310351e+000 1.797474e+000 1.029765e+000 1.419616e+000 1.522541e+000 1.756142e+000 2.394343e-001
<GCONST> 8.840253e+001
<TRANSP> 5
 0.000000e+000 1.000000e+000 0.000000e+000 0.000000e+000 0.000000e+000
 0.000000e+000 7.990820e-001 2.009179e-001 0.000000e+000 0.000000e+000
 0.000000e+000 0.000000e+000 8.106561e-001 1.893438e-001 0.000000e+000
 0.000000e+000 0.000000e+000 0.000000e+000 8.371389e-001 1.628611e-001
 0.000000e+000 0.000000e+000 0.000000e+000 0.000000e+000 0.000000e+000
<ENDHMM>
~h "er"
<BEGINHMM>
<NUMSTATES> 5
<STATE> 2
<MEAN> 25
 9.935941e+000 -9.967317e-001 -5.760606e+000 2.625077e+000 -4.220305e+000 -6.596247e+000 -8.313831e+000 9.265687e-001 3.151395e+000 -1.508210e+000 -1.658515e-001 -1.768553e+000 -7.051472e-002 4.682236e-002 9.175249e-002 2.407705e-001 2.247113e-001 -2.717002e-001 1.858010e-001 3.413451e-001 1.556204e-001 -3.421957e-001 -3.020790e-001 1.265725e-001 -2.780401e-001
<VARIANCE> 25
 2.631314e+001 2.535367e+001 3.720012e+001 5.193478e+001 4.602292e+001 5.637058e+001 4.472823e+001 3.908952e+001 3.355875e+001 3.740424e+001 1.818649e+001 3.291837e+001 1.994392e+000 1.038764e+000 2.053757e+000 2.219675e+000 2.787123e+000 3.249014e+000 3.369722e+000 2.653317e+000 1.875110e+000 2.041967e+000 1.520579e+000 1.846474e+000 1.628326e+000
<GCONST> 9.837547e+001
<STATE> 3
<MEAN> 25
 9.122508e-001 -2.170716e+000 -7.002937e-001 5.192110e+000 3.877210e+000 -2.171873e+000 8.184679e-001 7.211062e+000 3.937093e+000 -4.436294e+000 -2.864819e+000 5.776176e-001 -7.750290e-001 -3.503430e-001 1.509351e-001 -4.653093e-001 5.343768e-001 6.672466e-001 7.442320e-001 -1.146321e-001 -6.020821e-004 5.518757e-001 -8.855451e-002 -3.242452e-002 -6.525908e-001
<VARIANCE> 25
 3.585063e+001 6.131338e+001 2.761695e+001 6.665179e+001 2.693595e+001 4.536764e+001 3.679896e+001 4.915670e+001 2.584484e+001 3.174585e+001 1.548812e+001 2.253508e+001 1.582538e+000 1.717510e+000 1.092895e+000 2.632294e+000 2.906424e+000 2.894309e+000 2.084362e+000 2.960428e+000 1.992329e+000 1.874195e+000 1.477616e+000 1.370169e+000 6.361041e-001
<GCONST> 9.591048e+001
<STATE> 4
<MEAN> 25
 -3.173915e+000 -1.516127e+000 -1.136610e+000 -3.530940e-001 3.267871e+000 2.850259e+000 2.197155e+000 1.104581e+000 1.661880e+000 1.776682e+000 6.149671e-001 1.265287e+000 -3.558542e-002 3.152138e-002 4.003704e-002 -3.407634e-004 -5.663994e-003 3.991800e-002 -1.817314e-002 -9.118798e-002 -2.150130e-002 4.440103e-002 5.973033e-002 4.500553e-002 -4.471415e-002
<VARIANCE> 25
 4.031368e+000 9.685099e+000 9.395421e+000 1.208484e+001 9.650159e+000 1.439789e+001 1.218791e+001 1.375169e+001 1.446062e+001 1.469985e+001 1.364949e+001 1.403537e+001 1.571139e-001 3.740005e-001 4.831061e-001 6.814329e-001 8.563111e-001 1.052187e+000 1.038450e+000 1.270270e+000 1.393863e+000 1.425149e+000 1.395852e+000 1.013583e+000 1.030535e-001
<GCONST> 7.000220e+001
<TRANSP> 5
 0.000000e+000 1.000000e+000 0.000000e+000 0.000000e+000 0.000000e+000
 0.000000e+000 8.740218e-001 1.259781e-001 0.000000e+000 0.000000e+000
 0.000000e+000 0.000000e+000 8.009719e-001 1.990281e-001 0.000000e+000
 0.000000e+000 0.000000e+000 0.000000e+000 9.572166e-001 4.278338e-002
 0.000000e+000 0.000000e+000 0.000000e+000 0.000000e+000 0.000000e+000
<ENDHMM>
~h "ey"
<BEGINHMM>
<NUMSTATES> 5
<STATE> 2
<MEAN> 25
 2.968416e-002 -4.141336e+000 5.064796e+000 -1.509407e+000 -5.620064e+000 -3.071197e+000 5.583541e-001 -3.851517e-001 5.423614e-001 3.778715e-001 2.292111e-001 -1.052660e+000 1.658432e+000 2.907326e-001 1.055970e+000 -4.951541e-001 -1.567145e+000 -1.203777e+000 -2.622609e-001 -4.323816e-001 -1.078586e+000 -1.225423e-001 1.046731e+000 1.157091e-001 1.110922e+000
<VARIANCE> 25
 4.068623e+001 3.693306e+001 3.342760e+001 5.307784e+001 5.158180e+001 5.561334e+001 7.523698e+001 4.078056e+001 2.863066e+001 4.606875e+001 4.491060e+001 3.931884e+001 5.476412e+000 5.262473e+000 3.312857e+000 2.358641e+000 5.661126e+000 5.071910e+000 3.877846e+000 3.553647e+000 3.294142e+000 2.948991e+000 3.292874e+000 1.829407e+000 3.041242e+000
<GCONST> 1.079737e+002
<STATE> 3
<MEAN> 25
 4.158321e+000 -6.313037e+000 9.969128e+000 -7.888948e-001 -1.250682e+001 -7.119136e+000 -3.413229e+000 3.506675e+000 -4.565237e+000 -3.059623e+000 8.525246e+000 6.340217e-001 -2.802272e-001 3.988524e-001 4.803709e-001 -1.104904e+000 -8.963224e-001 7.498193e-001 -1.563114e-004 -1.868299e-001 -5.236915e-001 2.664521e-001 2.300957e-001 -3.501359e-001 6.599390e-002
<VARIANCE> 25
 9.670737e+000 1.621514e+001 2.730318e+001 3.751293e+001 4.100904e+001 4.944424e+001 6.200649e+001 4.599634e+001 2.409392e+001 3.529142e+001 3.901292e+001 1.899631e+001 3.824122e-001 8.335649e-001 1.492509e+000 1.058420e+000 2.079509e+000 2.330630e+000 3.466520e+000 2.861473e+000 3.204586e+000 2.184146e+000 1.958284e+000 1.578490e+000 3.778111e-001
<GCONST> 9.214552e+001
<STATE> 4
<MEAN> 25
 2.436997e+000 1.450967e+000 1.271516e+001 -4.573960e+000 -1.121929e+001 -2.726382e+000 -6.017909e+000 -3.332880e+000 -9.296285e+000 -3.654916e-001 4.423336e+000 -1.591277e+000 3.446236e-003 6.663064e-001 -3.779469e-002 4.768902e-001 4.985775e-001 -6.981964e-002 -5.839714e-004 -1.846940e-001 -1.825081e-001 1.672756e-001 -5.281994e-001 -2.597524e-002 -6.927199e-001
<VARIANCE> 25
 1.316367e+001 2.452146e+001 4.301600e+001 2.765258e+001 3.597265e+001 5.742939e+001 4.604006e+001 4.254900e+001 4.948497e+001 4.579074e+001 3.776223e+001 5.666082e+001 4.253720e-001 1.151138e+000 2.055419e+000 1.423021e+000 2.462739e+000 2.054507e+000 2.713730e+000 3.109223e+000 2.168061e+000 2.069742e+000 1.802363e+000 2.906353e+000 1.138136e+000
<GCONST> 9.681273e+001
<TRANSP> 5
 0.000000e+000 1.000000e+000 0.000000e+000 0.000000e+000 0.000000e+000
 0.000000e+000 7.077333e-001 2.922666e-001 0.000000e+000 0.000000e+000
 0.000000e+000 0.000000e+000 7.766110e-001 2.233890e-001 0.000000e+000
 0.000000e+000 0.000000e+000 0.000000e+000 9.073873e-001 9.261271e-002
 0.000000e+000 0.000000e+000 0.000000e+000 0.000000e+000 0.000000e+000
<ENDHMM>
~h "hh"
<BEGINHMM>
<NUMSTATES> 5
<STATE> 2
<MEAN> 25
 -1.966001e+000 -1.110418e+001 -1.087589e+001 -2.782304e-001 8.318164e+000 -2.160502e+000 1.830463e+000 -1.699908e+000 3.683326e+000 -2.509383e+000 2.248483e+000 3.530969e+000 1.605415e-001 -6.086852e-001 5.474447e-002 -1.553339e-002 7.150056e-001 8.764834e-001 1.557007e-001 -1.691331e-001 -9.403379e-002 1.559812e-001 3.592870e-001 -1.070089e-001 -2.393997e-001
<VARIANCE> 25
 3.106753e+001 3.095705e+001 9.860564e+001 4.977605e+001 3.611416e+001 3.581725e+001 1.371483e+001 3.221829e+001 5.614285e+001 3.186638e+001 5.691985e+001 4.484986e+001 1.547871e+000 2.679958e+000 1.316212e+000 1.881201e+000 3.003599e+000 1.738096e+000 8.646470e-001 2.441161e+000 4.330347e+000 3.872334e+000 5.162637e+000 5.243637e+000 2.775545e+000
<GCONST> 1.017727e+002
<STATE> 3
<MEAN> 25
 -6.849717e-001 -1.332433e+001 -4.685085e+000 1.135005e+000 1.565185e+001 1.733215e+000 -3.753017e-001 -2.927699e+000 -1.708603e+000 1.018526e+000 4.610440e+000 -2.131173e+000 3.885404e-001 3.493922e-002 -4.116527e-001 -4.946257e-001 -4.246202e-001 -2.827724e-001 -1.455198e-001 -2.976510e-001 -6.113777e-002 9.953927e-002 -6.559768e-002 -5.966721e-001 1.648661e+000
<VARIANCE> 25
 2.967919e+001 2.159002e+001 4.042033e+001 3.028245e+001 3.546984e+001 6.336221e+001 1.747374e+001 3.703673e+001 1.428970e+001 2.457711e+001 2.965015e+001 4.377847e+001 3.793776e+000 2.467963e+000 3.167866e+000 2.488400e+000 5.062554e+000 2.692444e+000 2.475652e+000 4.873543e+000 2.239766e+000 2.047243e+000 1.778498e+000 2.623592e+000 2.558567e+000
<GCONST> 1.001464e+002
<STATE> 4
<MEAN> 25
 -2.730693e+000 2.012733e+000 1.387949e+000 7.226773e+000 6.120915e+000 3.266440e+000 2.029344e+000 -5.157782e-002 9.475832e-001 -1.273190e-001 -1.187976e+000 2.132768e-002 1.047484e-002 -1.866094e-001 -4.746266e-002 4.106312e-003 -2.393339e-001 -1.448814e-001 1.416548e-001 1.212937e-001 -2.587053e-001 -2.603298e-001 2.125852e-001 -8.374299e-002 4.604466e-001
<VARIANCE> 25
 1.017811e+001 1.264138e+002 6.464552e+001 4.406098e+001 2.156218e+001 1.390852e+001 1.743963e+001 1.871737e+001 2.586079e+001 1.885132e+001 5.372073e+001 2.798755e+001 9.190974e-001 1.998505e+000 2.654262e+000 2.218294e+000 2.420222e+000 1.416514e+000 2.236660e+000 2.063875e+000 1.299134e+000 2.655830e+000 2.108524e+000 2.831204e+000 2.438639e+000
<GCONST> 9.511688e+001
<TRANSP> 5
 0.000000e+000 1.000000e+000 0.000000e+000 0.000000e+000 0.000000e+000
 0.000000e+000 8.772511e-001 1.227489e-001 0.000000e+000 0.000000e+000
 0.000000e+000 0.000000e+000 8.728725e-001 1.271275e-001 0.000000e+000
 0.000000e+000 0.000000e+000 0.000000e+000 9.092215e-001 9.077857e-002
 0.000000e+000 0.000000e+000 0.000000e+000 0.000000e+000 0.000000e+000
<ENDHMM>
~h "ih"
<BEGINHMM>
<NUMSTATES> 5
<STATE> 2
<MEAN> 25
 1.285884e+000 3.587201e+000 2.708894e+000 1.920758e+000 -3.451592e+000 -5.658661e+000 -4.948908e-001 -2.695439e+000 -2.011815e+000 -2.490354e+000 -1.358375e+000 -8.088911e-001 8.954429e-002 1.196648e-001 1.326277e-001 1.121421e-001 3.773160e-001 1.026936e-001 -3.393210e-001 -3.211829e-001 -2.282174e-001 -5.309812e-002 4.786308e-002 -1.926923e-003 -2.470489e-002
<VARIANCE> 25
 6.382819e+001 2.323796e+001 3.105997e+001 1.433185e+001 6.774322e+001 5.799984e+001 3.559025e+001 2.916330e+001 3.846239e+001 2.267337e+001 1.864180e+001 2.669613e+001 3.421443e+000 1.450559e+000 2.384179e+000 1.581133e+000 4.273983e+000 2.550396e+000 4.665256e+000 1.818313e+000 3.621396e+000 2.064816e+000 1.703924e+000 2.414137e+000 1.843093e+000
<GCONST> 9.904273e+001
<STATE> 3
<MEAN> 25
 2.366236e+000 1.776259e+000 5.057728e+000 7.294878e+000 7.090336e+000 -2.987772e-001 -7.222377e+000 -2.889123e+000 1.435089e+000 -3.371696e+000 -1.466026e+000 -2.142572e+000 -4.843433e-001 -2.195760e-001 -1.363408e-002 -1.041334e-001 -1.963248e-002 1.890825e-001 4.039255e-001 3.662155e-001 4.214800e-001 4.791965e-001 -5.626268e-004 3.325985e-002 -4.212273e-001
<VARIANCE> 25
 2.615947e+001 3.061397e+001 4.010545e+001 2.944669e+001 3.358763e+001 3.012925e+001 1.121434e+002 7.578742e+001 2.426933e+001 3.299428e+001 1.842615e+001 2.029143e+001 6.400771e-001 1.076821e+000 2.060350e+000 1.765564e+000 1.364534e+000 2.493775e+000 3.559852e+000 1.826077e+000 2.071166e+000 1.761340e+000 1.547795e+000 1.590222e+000 3.515590e-001
<GCONST> 9.344878e+001
<STATE> 4
<MEAN> 25
 -2.903355e+000 -1.155997e+000 6.509796e-002 -4.028831e-001 2.811082e+000 2.168557e+000 1.806280e+000 8.759305e-001 1.525793e+000 1.746659e+000 9.410362e-001 1.923997e+000 1.306861e-003 -9.533305e-003 -2.675156e-002 -1.933009e-002 -5.365479e-003 9.399004e-003 6.629874e-004 -6.463868e-002 -4.198577e-002 9.929504e-003 -1.200136e-002 8.413150e-003 -1.564360e-004
<VARIANCE> 25
 4.506402e+000 5.983052e+000 7.266822e+000 1.124784e+001 1.267138e+001 1.286856e+001 1.812623e+001 1.822660e+001 1.445281e+001 1.637622e+001 1.380481e+001 1.304945e+001 2.527883e-001 4.276505e-001 5.167417e-001 7.901279e-001 9.237229e-001 1.121719e+000 1.476517e+000 1.379562e+000 1.419809e+000 1.643357e+000 1.252835e+000 1.302367e+000 1.786039e-001
<GCONST> 7.244053e+001
<TRANSP> 5
 0.000000e+000 1.000000e+000 0.000000e+000 0.000000e+000 0.000000e+000
 0.000000e+000 7.668913e-001 2.331087e-001 0.000000e+000 0.000000e+000
 0.000000e+000 0.000000e+000 7.764879e-001 2.235121e-001 0.000000e+000
 0.000000e+000 0.000000e+000 0.000000e+000 9.473042e-001 5.269575e-002
 0.000000e+000 0.000000e+000 0.000000e+000 0.000000e+000 0.000000e+000
<ENDHMM>
~h "iy"
<BEGINHMM>
<NUMSTATES> 5
<STATE> 2
<MEAN> 25
 -2.322453e+000 1.287595e+000 4.882805e+000 1.983668e-001 -5.975578e+000 -2.661485e+000 2.783765e+000 -4.095510e+000 -2.751298e+000 2.736618e+000 2.785193e+000 -4.257053e-001 1.457427e-001 -1.210067e-001 1.587186e+000 -1.059667e+000 -1.024884e+000 1.589652e-001 -9.465635e-001 -7.905670e-001 -6.925658e-001 1.772095e-001 -9.934344e-002 -1.808877e-001 1.370056e+000
<VARIANCE> 25
 5.578738e+001 4.417693e+001 9.753188e+001 1.250821e+002 8.287430e+001 5.322899e+001 5.482045e+001 8.632147e+001 5.340516e+001 7.881065e+001 9.892709e+001 3.707027e+001 3.736732e+000 3.179611e+000 8.860699e+000 8.155860e+000 6.652482e+000 6.709312e+000 7.288563e+000 7.832872e+000 5.691448e+000 6.265830e+000 9.290484e+000 4.494124e+000 8.457542e+000
<GCONST> 1.206114e+002
<STATE> 3
<MEAN> 25
 2.139462e+000 1.856928e+000 1.839695e+001 -5.176837e+000 -1.272503e+001 1.921920e+000 -8.836265e+000 -8.588649e+000 -1.124896e+001 -1.744276e+000 4.662866e+000 1.198326e+000 2.154737e-001 2.528206e-001 -6.532905e-002 -1.597930e-001 -1.105791e-001 -2.003277e-001 2.325759e-001 1.731707e-001 -3.216090e-001 2.295051e-001 -1.600925e-001 -2.048627e-002 -3.450301e-001
<VARIANCE> 25
 1.660008e+001 1.679560e+001 5.629013e+001 7.211045e+001 3.624400e+001 7.821172e+001 5.819276e+001 4.653294e+001 3.958059e+001 8.547154e+001 3.803209e+001 8.177520e+001 6.149737e-001 1.307410e+000 2.560405e+000 2.560084e+000 2.001808e+000 3.484401e+000 4.175823e+000 2.299721e+000 1.819458e+000 1.583531e+000 2.352347e+000 2.153335e+000 1.364279e+000
<GCONST> 1.007665e+002
<STATE> 4
<MEAN> 25
 1.147859e+000 5.143784e+000 1.304013e+001 -1.031644e+001 -8.377176e+000 -1.641958e+000 -5.234240e+000 -5.779856e+000 -7.939347e+000 5.489690e+000 -3.943950e+000 -6.782944e-001 -1.159516e-001 2.185877e-001 -6.948927e-001 7.826864e-001 6.742883e-001 -9.985837e-002 3.043843e-001 3.127973e-001 5.561594e-001 -3.456159e-001 1.129610e-001 2.209130e-001 -9.363828e-001
<VARIANCE> 25
 1.610902e+001 1.951963e+001 2.927588e+001 1.090238e+002 3.590812e+001 3.075789e+001 5.575145e+001 2.681365e+001 4.796068e+001 8.159892e+001 5.081919e+001 3.176100e+001 7.708881e-001 1.569507e+000 1.622702e+000 2.328050e+000 3.034522e+000 2.183723e+000 2.646137e+000 2.319361e+000 3.033458e+000 2.607661e+000 2.380676e+000 2.229962e+000 1.769000e+000
<GCONST> 9.927478e+001
<TRANSP> 5
 0.000000e+000 1.000000e+000 0.000000e+000 0.000000e+000 0.000000e+000
 0.000000e+000 8.562513e-001 1.437487e-001 0.000000e+000 0.000000e+000
 0.000000e+000 0.000000e+000 8.591860e-001 1.408140e-001 0.000000e+000
 0.000000e+000 0.000000e+000 0.000000e+000 8.881166e-001 1.118834e-001
 0.000000e+000 0.000000e+000 0.000000e+000 0.000000e+000 0.000000e+000
<ENDHMM>
~h "jh"
<BEGINHMM>
<NUMSTATES> 5
<STATE> 2
<MEAN> 25
 5.664435e+000 1.162003e-001 5.411493e+000 4.792053e+000 4.935569e+000 2.535027e+000 -8.505047e+000 -9.252944e+000 2.313039e-001 -3.794503e+000 -6.990705e+000 -5.098118e+000 2.950835e-001 -4.493822e-001 4.104899e-001 1.410929e-001 2.873931e-001 7.102864e-002 -9.654940e-001 -6.804492e-001 -3.042220e-001 -3.184435e-001 -5.396981e-002 -2.780273e-001 5.534806e-001
<VARIANCE> 25
 1.494627e+001 1.679717e+001 3.143327e+001 3.942943e+001 5.909990e+001 1.618556e+001 8.161649e+001 4.127155e+001 2.811313e+001 2.194195e+001 1.985397e+001 1.364101e+001 7.058070e-001 1.318416e+000 2.139210e+000 2.117539e+000 6.540293e+000 2.466730e+000 6.305326e+000 5.693007e+000 1.622999e+000 1.812672e+000 2.965017e+000 2.948345e+000 2.340932e+000
<GCONST> 9.750462e+001
<STATE> 3
<MEAN> 25
 9.560992e-001 -1.640590e+000 5.742588e+000 7.447989e+000 4.111145e+000 1.704415e+000 -2.723653e+000 5.464113e-001 1.491576e+000 -4.191346e+000 -1.012077e-001 9.764003e-001 -5.410426e-002 -4.479821e-001 -1.319550e-001 2.384826e-001 -2.937012e-001 -2.802446e-001 -1.375557e-001 2.563138e-001 1.987694e-001 -4.160910e-001 -1.078280e-001 1.524465e-001 3.845825e-001
<VARIANCE> 25
 1.063074e+001 7.353758e+001 2.459176e+001 2.012035e+001 3.191702e+001 1.756689e+001 4.840514e+001 3.485901e+001 4.233607e+001 3.814706e+001 1.687701e+001 1.730332e+001 2.558832e+000 1.085357e+001 3.726983e+000 4.136366e+000 6.110677e+000 2.730763e+000 9.876341e+000 7.477326e+000 7.719393e+000 4.140280e+000 2.398392e+000 3.403559e+000 8.112515e+000
<GCONST> 1.064703e+002
<STATE> 4
<MEAN> 25
 9.342999e+000 -5.333999e+000 -1.911646e+000 4.030146e+000 4.700234e+000 -1.181624e-001 -1.362200e+001 -1.127927e+001 -3.172436e+000 -6.575253e+000 4.173833e+000 -2.535519e+000 2.213297e-001 8.451247e-001 -1.085190e+000 -1.228996e+000 -3.101167e-001 -2.079836e-001 5.915373e-001 -6.822928e-001 -6.836713e-001 2.940815e-001 1.512584e+000 3.603623e-001 -1.396660e-001
<VARIANCE> 25
 4.445672e+000 1.186708e+001 3.181969e+001 1.136613e+001 2.250382e+001 4.403075e+001 1.016687e+001 3.174535e+001 2.081058e+001 8.430479e+000 3.291283e+001 6.551488e+000 4.348315e+000 1.032751e+000 6.746856e+000 7.117816e-001 1.901225e+000 1.398315e+000 3.982558e+000 5.332361e+000 3.469714e+000 1.029495e+000 1.418461e+000 3.314171e-001 1.178874e+000
<GCONST> 8.680716e+001
<TRANSP> 5
 0.000000e+000 1.000000e+000 0.000000e+000 0.000000e+000 0.000000e+000
 0.000000e+000 9.447340e-001 5.526605e-002 0.000000e+000 0.000000e+000
 0.000000e+000 0.000000e+000 9.094859e-001 9.051406e-002 0.000000e+000
 0.000000e+000 0.000000e+000 0.000000e+000 8.615975e-001 1.384025e-001
 0.000000e+000 0.000000e+000 0.000000e+000 0.000000e+000 0.000000e+000
<ENDHMM>
~h "ng"
<BEGINHMM>
<NUMSTATES> 5
<STATE> 2
<MEAN> 25
 3.410414e+000 6.499694e+000 -5.941551e-001 1.966830e+000 3.885233e+000 -1.111091e+000 -1.796802e-001 -2.046768e+000 3.086060e+000 2.696538e+000 -6.445163e-001 -3.723495e+000 -4.206271e-001 -2.088057e-001 4.228491e-002 -6.456970e-002 -4.101158e-002 2.098888e-001 4.165108e-001 5.375753e-001 1.889246e-001 2.879003e-001 1.024012e-001 3.896049e-001 -2.349025e-001
<VARIANCE> 25
 2.060474e+001 1.104397e+001 1.636142e+001 1.345132e+001 5.396749e+000 8.221612e+000 1.756773e+001 2.562821e+001 1.389667e+001 1.145684e+001 8.700773e+000 1.619150e+001 2.341070e-001 7.735007e-001 7.788640e-001 4.400826e-001 6.611279e-001 6.025347e-001 1.314134e+000 8.569301e-001 9.618646e-001 9.945480e-001 5.108605e-001 4.833070e-001 2.033799e-001
<GCONST> 7.007185e+001
<STATE> 3
<MEAN> 25
 -3.529583e+000 -5.739806e-001 -2.165312e-001 1.030673e+000 4.643170e+000 2.695990e-001 5.944832e+000 3.962067e+000 -3.246158e-001 4.170780e+000 -5.366014e-001 1.897053e+000 -6.166864e-002 -1.037329e-001 -9.041029e-003 -4.692509e-003 -5.757791e-002 -8.815340e-002 -9.487817e-003 3.692107e-004 -1.650593e-001 -4.954173e-002 -1.297322e-001 5.013565e-002 -1.179529e-001
<VARIANCE> 25
 1.460679e+000 2.786896e+000 5.252445e+000 4.418934e+000 5.896863e+000 5.125558e+000 9.549629e+000 1.050136e+001 1.358375e+001 9.303860e+000 1.532612e+001 5.861763e+000 9.159576e-002 3.056887e-001 2.455879e-001 2.920988e-001 3.972155e-001 4.322969e-001 8.366589e-001 9.003485e-001 7.041340e-001 7.294199e-001 7.138793e-001 3.835163e-001 3.979592e-002
<GCONST> 5.440808e+001
<STATE> 4
<MEAN> 25
 -3.169887e+000 -1.656216e+000 5.886415e-001 6.569795e-001 1.734642e+000 -1.243904e+000 4.993356e+000 5.459993e+000 4.344289e-001 4.011177e+000 -1.881278e+000 1.643382e+000 2.202850e-001 -3.148959e-001 6.201670e-001 4.892174e-003 -1.108466e+000 -6.724699e-001 -3.065851e-002 4.574729e-002 -3.419832e-001 -5.030599e-001 9.109682e-001 1.872353e-001 5.770953e-001
<VARIANCE> 25
 4.425082e+000 1.504093e+000 2.382756e+000 7.713500e+000 8.773405e+000 5.708489e+000 4.007239e+000 5.446631e+000 7.439837e+000 8.001082e+000 1.397356e+001 9.637034e+000 5.316124e-001 4.044797e-001 9.473081e-001 1.149805e+000 1.218722e+000 1.870927e-001 3.936269e-001 3.197153e-001 3.966169e-001 1.906378e+000 8.547480e-001 4.141957e-001 4.554181e-001
<GCONST> 5.963258e+001
<TRANSP> 5
 0.000000e+000 1.000000e+000 0.000000e+000 0.000000e+000 0.000000e+000
 0.000000e+000 9.544838e-001 4.551616e-002 0.000000e+000 0.000000e+000
 0.000000e+000 0.000000e+000 9.666375e-001 3.336254e-002 0.000000e+000
 0.000000e+000 0.000000e+000 0.000000e+000 6.625457e-001 3.374543e-001
 0.000000e+000 0.000000e+000 0.000000e+000 0.000000e+000 0.000000e+000
<ENDHMM>
~h "ow"
<BEGINHMM>
<NUMSTATES> 5
<STATE> 2
<MEAN> 25
 5.830635e+000 7.614546e-001 -7.606716e+000 -1.106474e+001 -1.186871e+000 6.598654e+000 -2.216233e+000 -9.839203e-001 -1.963126e+000 1.054142e+000 3.954723e+000 -2.047621e+000 5.191042e-001 2.697374e-001 -3.584844e-002 -4.067057e-001 -4.469414e-001 1.223296e-001 8.609030e-002 -1.108612e-002 -8.884554e-002 -2.384872e-001 5.080130e-002 -9.669331e-002 3.440059e-001
<VARIANCE> 25
 5.557167e+001 2.202818e+001 4.131066e+001 9.429960e+001 2.673705e+001 3.345564e+001 5.064914e+001 4.385954e+001 2.333437e+001 2.185076e+001 1.763445e+001 6.355033e+001 3.662894e+000 1.270208e+000 1.892026e+000 6.159182e+000 3.311229e+000 2.851872e+000 3.519571e+000 2.279470e+000 3.325944e+000 2.277479e+000 1.548059e+000 2.939385e+000 2.806745e+000
<GCONST> 1.019752e+002
<STATE> 3
<MEAN> 25
 1.069587e+001 8.810878e+000 -4.769126e+000 -8.863330e+000 -4.134128e+000 4.832369e+000 5.629101e+000 1.291257e+000 -1.903288e+000 -2.303030e+000 1.187326e-001 2.045190e-001 -6.341993e-001 -2.017036e-001 -3.594347e-004 1.014938e+000 5.428370e-001 -5.332256e-002 3.155796e-001 -1.300568e-002 5.790059e-002 1.565190e-001 -3.290297e-002 1.567636e-001 -6.244701e-001
<VARIANCE> 25
 2.790671e+001 2.831484e+001 1.528512e+001 4.381562e+001 3.182030e+001 2.817764e+001 4.463051e+001 3.987941e+001 1.751792e+001 2.600613e+001 2.315590e+001 4.949866e+001 9.468832e-001 1.093662e+000 1.143837e+000 2.338158e+000 1.197610e+000 1.789381e+000 2.214813e+000 1.980213e+000 1.424711e+000 1.432493e+000 2.740653e+000 1.666086e+000 2.003097e-001
<GCONST> 9.045815e+001
<STATE> 4
<MEAN> 25
 -2.366556e+000 4.970592e+000 1.819406e+000 8.240204e+000 4.892801e+000 2.277052e+000 6.288601e+000 2.596421e+000 1.772290e+000 -4.908208e-001 -3.871499e+000 2.545497e+000 -2.709171e-001 -2.753148e-001 9.159856e-002 2.082838e-001 7.605025e-002 -1.410858e-001 -2.289351e-001 2.824590e-002 5.593708e-002 -2.212032e-002 -1.835850e-001 -2.013371e-001 -3.950286e-001
<VARIANCE> 25
 1.208408e+001 1.928649e+001 3.271083e+001 4.915924e+001 1.847843e+001 1.803918e+001 3.125274e+001 2.977580e+001 2.716192e+001 2.823854e+001 4.586488e+001 2.762768e+001 3.218014e-001 9.985001e-001 1.408943e+000 2.049623e+000 1.715533e+000 2.059498e+000 3.151117e+000 4.001905e+000 2.241474e+000 2.596811e+000 3.095067e+000 3.176207e+000 2.878609e-001
<GCONST> 9.173649e+001
<TRANSP> 5
 0.000000e+000 1.000000e+000 0.000000e+000 0.000000e+000 0.000000e+000
 0.000000e+000 9.224586e-001 7.754136e-002 0.000000e+000 0.000000e+000
 0.000000e+000 0.000000e+000 9.055140e-001 9.448592e-002 0.000000e+000
 0.000000e+000 0.000000e+000 0.000000e+000 8.713056e-001 1.286944e-001
 0.000000e+000 0.000000e+000 0.000000e+000 0.000000e+000 0.000000e+000
<ENDHMM>
~h "oy"
<BEGINHMM>
<NUMSTATES> 5
<STATE> 2
<MEAN> 25
 1.327802e+001 7.183155e+000 -3.239157e+000 -5.144783e+000 -9.118815e+000 -8.091198e+000 -4.409508e+000 3.416384e+000 2.957436e+000 -7.336075e-001 -1.316089e+000 -1.130017e+000 3.139673e-001 -1.612889e-001 -2.584508e-002 -2.649176e-003 4.176851e-001 6.926564e-002 -1.130078e-001 -1.815659e-001 -6.012463e-001 -1.491480e-001 2.022118e-001 -2.577818e-001 2.517159e-001
<VARIANCE> 25
 8.302375e+000 1.779820e+001 3.138008e+001 9.384886e+000 2.909137e+001 7.726269e+001 2.355992e+001 2.808450e+001 3.279676e+001 4.832021e+001 1.189014e+001 1.158205e+001 1.098669e+000 1.557795e+000 1.778568e+000 8.421678e-001 4.001517e+000 4.600872e+000 2.393393e+000 2.271870e+000 1.962330e+000 3.263475e+000 1.467464e+000 1.765460e+000 3.278666e-001
<GCONST> 9.037496e+001
<STATE> 3
<MEAN> 25
 -1.596377e+000 -6.756660e+000 9.451210e+000 4.780565e+000 4.721298e+000 3.451546e+000 -5.687093e+000 -2.459280e+000 -1.354040e+000 -8.203198e+000 1.745119e+000 -2.747251e+000 -3.456614e+000 -2.035079e+000 1.962507e+000 9.590808e-001 -1.156827e+000 2.348349e-001 8.488399e-001 7.334266e-001 1.513205e+000 1.493652e-002 5.455099e-001 4.341507e-001 3.899174e-002
<VARIANCE> 25
 1.337538e+002 3.550579e+001 7.394812e+001 2.622552e+001 1.011690e+002 2.689182e+001 3.364382e+001 4.137286e+001 5.812450e+001 1.051342e+001 2.291425e+001 1.011920e+001 5.312550e+000 1.747199e+000 2.985887e+000 3.625224e+000 7.901069e+000 3.527027e+000 2.333806e+000 2.028181e+000 1.286198e+000 1.789535e+000 3.222092e+000 2.270542e+000 3.463460e-001
<GCONST> 1.002466e+002
<STATE> 4
<MEAN> 25
 -1.370648e+001 -1.230409e+001 1.237445e+001 2.641501e+000 -1.981277e+000 5.485380e+000 1.763619e+000 -6.630712e-001 1.259371e+000 -7.098282e+000 4.325983e+000 2.451735e+000 6.087409e-001 7.488589e-001 -6.797919e-001 -2.237528e-001 8.567808e-001 2.995232e-001 1.045641e-001 -4.928635e-001 -8.566744e-001 4.161752e-001 -9.111607e-002 1.864992e-001 -1.030467e+000
<VARIANCE> 25
 4.443364e+001 3.706005e+001 3.793068e+001 2.535998e+001 2.239255e+001 1.753982e+001 1.542559e+001 7.049309e+000 2.874447e+001 1.797213e+001 1.020680e+001 1.449680e+001 1.948726e+000 1.967068e+000 1.115132e+000 5.345580e-001 8.875021e-001 1.374713e+000 2.393783e+000 1.019148e+000 1.461994e+000 1.483672e+000 1.167189e+000 1.704201e+000 2.708357e+000
<GCONST> 8.650428e+001
<TRANSP> 5
 0.000000e+000 1.000000e+000 0.000000e+000 0.000000e+000 0.000000e+000
 0.000000e+000 9.456252e-001 5.437486e-002 0.000000e+000 0.000000e+000
 0.000000e+000 0.000000e+000 8.304948e-001 1.695052e-001 0.000000e+000
 0.000000e+000 0.000000e+000 0.000000e+000 9.067264e-001 9.327362e-002
 0.000000e+000 0.000000e+000 0.000000e+000 0.000000e+000 0.000000e+000
<ENDHMM>
~h "sh"
<BEGINHMM>
<NUMSTATES> 5
<STATE> 2
<MEAN> 25
 4.884483e+000 8.638425e+000 3.944733e+000 4.653971e+000 2.525685e+000 -1.134780e+000 2.766701e+000 -2.647981e+000 -3.720320e+000 -7.713596e-001 -2.651412e+000 -3.463008e+000 -2.431293e-001 2.139572e-001 -2.596321e-001 7.875583e-001 1.093193e+000 1.545953e-002 2.845427e-001 6.150846e-001 5.968626e-001 3.902387e-001 -9.201175e-001 -3.708884e-001 -7.797859e-001
<VARIANCE> 25
 2.754783e+000 4.441925e+000 2.297197e+001 3.248373e+001 1.697041e+001 1.337121e+001 8.641154e+000 1.578940e+001 1.488928e+001 1.872602e+001 1.720023e+001 1.550488e+001 1.558648e-001 8.157136e-001 3.178394e-001 1.160489e+000 1.575865e+000 1.490317e+000 1.184070e+000 2.347792e+000 2.702147e+000 1.024330e+000 2.081787e+000 1.329142e+000 4.761809e-001
<GCONST> 7.673374e+001
<STATE> 3
<MEAN> 25
