~o
<STREAMINFO> 1 25
<VECSIZE> 25<NULLD><MFCC_D_N_Z_0><DIAGC>
~s "silst"
<MEAN> 25
 -3.424297e+000 3.013089e+000 1.489475e+000 4.628060e+000 4.191842e+000 3.038430e+000 4.128073e+000 1.159550e+000 5.338300e-001 -2.813577e-002 -2.544927e+000 -2.760152e-001 -9.909660e-002 -2.909768e-003 3.114039e-002 1.117941e-001 -1.476351e-002 4.181523e-002 4.299369e-002 1.005424e-001 1.551764e-002 -1.241399e-002 -8.159298e-002 -6.321967e-002 -9.395277e-002
<VARIANCE> 25
 5.545543e+000 2.446248e+001 1.906552e+001 2.586929e+001 1.276390e+001 2.099996e+001 1.680727e+001 1.832397e+001 2.370263e+001 2.276032e+001 1.653348e+001 1.682696e+001 3.253644e-001 6.271664e-001 7.605705e-001 7.530192e-001 1.146889e+000 1.219922e+000 1.334222e+000 1.340120e+000 1.570505e+000 1.523014e+000 1.360946e+000 1.325471e+000 3.040874e-001
<GCONST> 7.933998e+001
~h "a"
<BEGINHMM>
<NUMSTATES> 5
<STATE> 2
<MEAN> 25
 -1.118406e-008 6.902663e-008 -6.127934e-008 -1.132241e-009 1.805760e-009 2.941641e-009 -3.920247e-008 -3.669770e-009 -5.191560e-008 -1.454802e-008 -2.627090e-008 3.876559e-008 2.510028e-002 3.968836e-004 8.013876e-003 -9.237975e-003 8.363929e-003 -6.403908e-003 3.811424e-003 -9.137135e-003 -5.245406e-003 -8.095243e-003 -3.207545e-003 -3.381838e-003 3.557804e-002
<VARIANCE> 25
 6.664439e+001 4.403650e+001 5.783500e+001 5.743623e+001 6.515208e+001 5.500425e+001 5.372772e+001 4.345287e+001 4.255812e+001 4.180091e+001 3.585940e+001 3.108589e+001 1.968051e+000 1.809448e+000 1.938954e+000 2.304791e+000 2.836484e+000 2.744093e+000 2.863587e+000 2.754002e+000 2.523799e+000 2.575277e+000 2.427561e+000 2.158062e+000 2.903915e+000
<GCONST> 1.039577e+002
<STATE> 3
<MEAN> 25
 -1.118406e-008 6.902663e-008 -6.127934e-008 -1.132241e-009 1.805760e-009 2.941641e-009 -3.920247e-008 -3.669770e-009 -5.191560e-008 -1.454802e-008 -2.627090e-008 3.876559e-008 2.510028e-002 3.968836e-004 8.013876e-003 -9.237975e-003 8.363929e-003 -6.403908e-003 3.811424e-003 -9.137135e-003 -5.245406e-003 -8.095243e-003 -3.207545e-003 -3.381838e-003 3.557804e-002
<VARIANCE> 25
 6.664439e+001 4.403650e+001 5.783500e+001 5.743623e+001 6.515208e+001 5.500425e+001 5.372772e+001 4.345287e+001 4.255812e+001 4.180091e+001 3.585940e+001 3.108589e+001 1.968051e+000 1.809448e+000 1.938954e+000 2.304791e+000 2.836484e+000 2.744093e+000 2.863587e+000 2.754002e+000 2.523799e+000 2.575277e+000 2.427561e+000 2.158062e+000 2.903915e+000
<GCONST> 1.039577e+002
<STATE> 4
<MEAN> 25
 -1.118406e-008 6.902663e-008 -6.127934e-008 -1.132241e-009 1.805760e-009 2.941641e-009 -3.920247e-008 -3.669770e-009 -5.191560e-008 -1.454802e-008 -2.627090e-008 3.876559e-008 2.510028e-002 3.968836e-004 8.013876e-003 -9.237975e-003 8.363929e-003 -6.403908e-003 3.811424e-003 -9.137135e-003 -5.245406e-003 -8.095243e-003 -3.207545e-003 -3.381838e-003 3.557804e-002
<VARIANCE> 25
 6.664439e+001 4.403650e+001 5.783500e+001 5.743623e+001 6.515208e+001 5.500425e+001 5.372772e+001 4.345287e+001 4.255812e+001 4.180091e+001 3.585940e+001 3.108589e+001 1.968051e+000 1.809448e+000 1.938954e+000 2.304791e+000 2.836484e+000 2.744093e+000 2.863587e+000 2.754002e+000 2.523799e+000 2.575277e+000 2.427561e+000 2.158062e+000 2.903915e+000
<GCONST> 1.039577e+002
<TRANSP> 5
 0.000000e+000 1.000000e+000 0.000000e+000 0.000000e+000 0.000000e+000
 0.000000e+000 6.000000e-001 4.000000e-001 0.000000e+000 0.000000e+000
 0.000000e+000 0.000000e+000 6.000000e-001 4.000000e-001 0.000000e+000
 0.000000e+000 0.000000e+000 0.000000e+000 7.000000e-001 3.000000e-001
 0.000000e+000 0.000000e+000 0.000000e+000 0.000000e+000 0.000000e+000
<ENDHMM>
~h "b"
<BEGINHMM>
<NUMSTATES> 5
<STATE> 2
<MEAN> 25
 -5.798124e+000 3.466386e+000 1.419355e+000 3.156041e+000 2.943753e+000 1.031297e-001 -1.457246e+000 -1.875822e+000 1.905306e+000 -5.666028e-001 -3.870226e+000 -2.496182e+000 1.985206e-001 -3.842976e-001 -1.202534e-001 -1.703524e-001 -5.872969e-002 -3.590700e-001 -3.609823e-001 -1.168237e-001 -3.266689e-002 -2.757029e-001 9.145734e-002 6.602184e-002 1.466727e-001
<VARIANCE> 25
 4.659893e+001 3.173389e+001 1.330830e+001 6.437400e+000 1.332999e+001 1.542010e+001 2.426509e+001 2.199748e+001 2.081039e+001 1.699827e+001 1.971081e+001 1.316220e+001 1.038246e+000 9.215996e-001 1.224189e+000 1.684781e+000 1.165753e+000 1.509565e+000 2.794214e+000 1.357040e+000 2.157294e+000 2.285952e+000 1.484269e+000 1.179220e+000 3.886940e+000
<GCONST> 8.682001e+001
<STATE> 3
<MEAN> 25
 2.828959e+000 -5.298043e-002 -2.236372e+000 -1.158249e+000 -1.008626e+000 9.366815e-001 -1.142646e+000 -1.555554e+000 -1.964306e+000 4.745602e-001 3.505243e+000 -1.163135e+000 -1.751569e-001 -1.204819e-001 -1.251651e-001 -2.123814e-001 7.424796e-002 -2.105834e-002 2.461846e-001 2.676617e-001 -2.360425e-001 1.356259e-001 -3.925202e-002 1.502575e-001 4.997338e-002
<VARIANCE> 25
 7.800557e+001 1.081052e+001 4.949998e+001 1.709686e+001 3.057075e+001 2.819913e+001 2.116331e+001 2.731506e+001 3.384031e+001 2.662696e+001 5.878047e+001 6.420531e+001 3.342838e+000 7.118496e-001 1.924059e+000 1.099365e+000 1.635337e+000 2.075891e+000 1.125323e+000 1.364252e+000 2.898779e+000 2.617143e+000 3.757656e+000 4.423019e+000 4.553493e+000
<GCONST> 9.720351e+001
<STATE> 4
<MEAN> 25
 -3.615364e+000 -4.715111e-001 9.849764e-001 7.428151e-001 2.913674e+000 1.543189e+000 1.893522e+000 1.889603e+000 4.262836e-001 1.756553e+000 -8.242952e-001 5.312949e-001 1.008793e-001 1.099444e-001 -1.305237e-002 1.111460e-001 -6.596370e-004 7.972623e-002 2.011946e-002 -8.516653e-003 9.514895e-002 1.117963e-003 -3.238379e-002 -2.722299e-002 -1.649251e-002
<VARIANCE> 25
 1.633942e+001 1.214936e+001 8.692190e+000 1.094464e+001 1.764840e+001 1.283820e+001 1.355248e+001 1.719080e+001 2.170197e+001 1.510610e+001 1.608851e+001 1.278487e+001 3.472932e-001 7.848283e-001 8.397905e-001 5.690244e-001 1.417493e+000 1.197039e+000 1.051454e+000 1.710774e+000 1.461092e+000 1.630566e+000 1.660636e+000 1.377138e+000 4.956738e-001
<GCONST> 7.785697e+001
<TRANSP> 5
 0.000000e+000 1.000000e+000 0.000000e+000 0.000000e+000 0.000000e+000
 0.000000e+000 6.412265e-001 3.587735e-001 0.000000e+000 0.000000e+000
 0.000000e+000 0.000000e+000 7.194943e-001 2.805057e-001 0.000000e+000
 0.000000e+000 0.000000e+000 0.000000e+000 9.303253e-001 6.967471e-002
 0.000000e+000 0.000000e+000 0.000000e+000 0.000000e+000 0.000000e+000
<ENDHMM>
~h "d"
<BEGINHMM>
<NUMSTATES> 5
<STATE> 2
<MEAN> 25
 7.859734e+000 1.918295e+000 2.881779e+000 2.262207e+000 -3.935538e+000 -6.599536e+000 -1.960076e+000 -1.301788e+000 4.681981e-002 -5.144017e+000 -2.253533e+000 2.261758e+000 -3.928827e-002 1.079045e+000 3.960444e-001 4.705486e-001 4.481197e-001 4.743066e-001 3.168935e-001 -1.989827e-001 -8.484695e-002 -6.450368e-001 -4.649974e-002 -2.930564e-001 -1.421005e+000
<VARIANCE> 25
 3.318012e+001 4.779784e+001 3.464059e+001 3.803645e+001 4.650780e+001 3.837534e+001 3.529027e+001 7.754703e+001 7.122581e+001 6.886942e+001 4.219318e+001 4.040823e+001 9.425021e-001 2.294761e+000 1.684028e+000 2.809766e+000 2.904389e+000 2.619504e+000 3.291102e+000 2.949015e+000 2.293994e+000 3.764998e+000 3.179929e+000 3.277548e+000 1.542801e+000
<GCONST> 1.034015e+002
<STATE> 3
<MEAN> 25
 5.198454e+000 4.055835e+000 4.828427e+000 7.428279e+000 4.203180e+000 -2.936893e+000 -3.583941e+000 -4.006012e+000 -4.689627e-001 -5.095709e+000 -3.570655e+000 -4.531254e-001 -7.437490e-001 2.292719e-001 -4.278901e-001 2.915579e-002 8.254327e-001 7.461225e-001 8.198180e-001 4.126550e-001 2.501894e-001 7.734177e-001 2.734454e-001 -1.553265e-003 -1.174414e+000
<VARIANCE> 25
 2.444651e+001 1.893106e+001 2.131636e+001 4.507379e+001 4.668006e+001 2.078326e+001 5.712393e+001 5.548500e+001 6.760046e+001 8.207491e+001 2.845939e+001 2.350793e+001 1.255641e+000 1.890174e+000 1.724218e+000 2.327043e+000 3.770731e+000 2.526940e+000 3.487600e+000 5.070322e+000 3.235507e+000 3.391412e+000 3.096366e+000 1.987900e+000 8.909644e-001
<GCONST> 1.004957e+002
<STATE> 4
<MEAN> 25
 3.860215e-001 5.996382e+000 3.224156e+000 6.864621e+000 4.158332e+000 1.814617e+000 4.083026e+000 1.790866e-002 3.196477e+000 4.370461e-001 -2.601325e+000 5.101512e-001 -5.880423e-001 -1.624919e-001 -1.806727e-001 -8.229303e-002 -8.128032e-003 3.038623e-001 3.639485e-001 3.586064e-001 4.898381e-002 1.569197e-001 1.265202e-001 8.754279e-002 -4.909902e-001
<VARIANCE> 25
 2.189173e+001 1.077124e+001 1.635639e+001 2.647080e+001 2.758294e+001 2.395425e+001 2.589027e+001 2.485524e+001 2.923650e+001 3.032231e+001 3.205969e+001 3.044313e+001 3.716055e-001 5.569273e-001 9.377941e-001 1.178167e+000 1.161329e+000 1.439140e+000 1.401973e+000 2.326169e+000 2.006391e+000 2.049565e+000 1.883734e+000 2.257038e+000 1.939931e-001
<GCONST> 8.555316e+001
<TRANSP> 5
 0.000000e+000 1.000000e+000 0.000000e+000 0.000000e+000 0.000000e+000
 0.000000e+000 6.161420e-001 3.838579e-001 0.000000e+000 0.000000e+000
 0.000000e+000 0.000000e+000 6.600578e-001 3.399422e-001 0.000000e+000
 0.000000e+000 0.000000e+000 0.000000e+000 8.244479e-001 1.755520e-001
 0.000000e+000 0.000000e+000 0.000000e+000 0.000000e+000 0.000000e+000
<ENDHMM>
~h "f"
<BEGINHMM>
<NUMSTATES> 5
<STATE> 2
<MEAN> 25
 -3.203895e-001 -2.124132e+000 -2.778163e+000 -1.404298e+000 2.300817e-001 4.245506e-001 -1.392578e+000 1.235518e+000 -1.250960e-001 -1.999462e+000 4.674430e+000 8.873596e-001 1.373806e+000 -3.167658e-001 -2.540970e-002 -6.083840e-001 -8.548609e-001 1.191297e-001 -6.252374e-001 -4.461916e-001 -8.383567e-001 8.594835e-002 6.861148e-001 -3.103032e-001 1.405234e+000
<VARIANCE> 25
 6.704030e+001 6.766554e+001 7.431531e+001 5.547526e+001 7.521611e+001 4.604140e+001 3.230635e+001 3.858374e+001 6.310725e+001 3.942308e+001 5.639942e+001 2.454085e+001 9.370753e+000 5.009544e+000 4.727006e+000 5.322330e+000 7.218883e+000 4.860947e+000 6.003510e+000 3.406209e+000 7.249328e+000 4.216671e+000 5.149621e+000 3.650105e+000 7.047771e+000
<GCONST> 1.149774e+002
<STATE> 3
<MEAN> 25
 7.473881e+000 -1.878895e+000 1.458061e+000 -4.737512e+000 -7.927693e+000 -5.855715e-001 -7.283578e+000 1.860110e+000 -2.691202e+000 -1.148612e+000 3.575248e+000 -3.170656e+000 -6.345327e-001 4.512445e-001 1.782909e-001 7.263446e-001 4.830108e-001 -5.932344e-001 5.015615e-001 5.788421e-002 7.589521e-001 1.036850e-002 -8.044512e-001 -1.942297e-001 -4.242971e-001
<VARIANCE> 25
 3.018682e+001 6.694172e+001 5.298861e+001 7.834579e+001 6.242814e+001 9.264231e+001 7.862230e+001 7.913834e+001 6.335950e+001 4.471415e+001 3.553442e+001 2.988637e+001 1.399332e+000 2.515815e+000 2.372950e+000 3.700929e+000 4.205503e+000 4.806477e+000 4.951587e+000 4.280447e+000 3.207217e+000 3.191066e+000 3.073247e+000 2.608057e+000 2.143300e+000
<GCONST> 1.088659e+002
<STATE> 4
<MEAN> 25
 -2.123265e+000 2.325091e+000 -3.080563e+000 4.396814e+000 2.010120e+000 -2.799989e+000 5.835588e-002 -2.765444e+000 1.734346e+000 -3.258949e+000 -9.716801e-001 1.172428e+000 -3.457873e-001 -2.568898e-001 -4.541629e-001 -6.607760e-002 6.026946e-001 5.615895e-001 6.429242e-002 1.475690e-001 1.491934e-001 1.399895e-001 9.751594e-002 2.048689e-001 -3.792177e-001
<VARIANCE> 25
 6.150290e+001 2.947115e+001 3.568163e+001 1.204705e+002 3.401274e+001 9.284451e+001 4.741702e+001 3.251694e+001 2.650205e+001 5.000719e+001 4.074163e+001 4.053647e+001 1.538545e+000 1.638111e+000 1.882393e+000 2.967807e+000 3.214815e+000 3.055342e+000 3.760854e+000 3.235598e+000 3.101768e+000 2.803070e+000 2.684476e+000 2.212331e+000 2.484454e+000
<GCONST> 1.040953e+002
<TRANSP> 5
 0.000000e+000 1.000000e+000 0.000000e+000 0.000000e+000 0.000000e+000
 0.000000e+000 7.676212e-001 2.323787e-001 0.000000e+000 0.000000e+000
 0.000000e+000 0.000000e+000 8.208409e-001 1.791591e-001 0.000000e+000
 0.000000e+000 0.000000e+000 0.000000e+000 8.134327e-001 1.865674e-001
 0.000000e+000 0.000000e+000 0.000000e+000 0.000000e+000 0.000000e+000
<ENDHMM>
~h "g"
<BEGINHMM>
<NUMSTATES> 5
<STATE> 2
<MEAN> 25
 -1.118406e-008 6.902663e-008 -6.127934e-008 -1.132241e-009 1.805760e-009 2.941641e-009 -3.920247e-008 -3.669770e-009 -5.191560e-008 -1.454802e-008 -2.627090e-008 3.876559e-008 2.510028e-002 3.968836e-004 8.013876e-003 -9.237975e-003 8.363929e-003 -6.403908e-003 3.811424e-003 -9.137135e-003 -5.245406e-003 -8.095243e-003 -3.207545e-003 -3.381838e-003 3.557804e-002
<VARIANCE> 25
 6.664439e+001 4.403650e+001 5.783500e+001 5.743623e+001 6.515208e+001 5.500425e+001 5.372772e+001 4.345287e+001 4.255812e+001 4.180091e+001 3.585940e+001 3.108589e+001 1.968051e+000 1.809448e+000 1.938954e+000 2.304791e+000 2.836484e+000 2.744093e+000 2.863587e+000 2.754002e+000 2.523799e+000 2.575277e+000 2.427561e+000 2.158062e+000 2.903915e+000
<GCONST> 1.039577e+002
<STATE> 3
<MEAN> 25
 -1.118406e-008 6.902663e-008 -6.127934e-008 -1.132241e-009 1.805760e-009 2.941641e-009 -3.920247e-008 -3.669770e-009 -5.191560e-008 -1.454802e-008 -2.627090e-008 3.876559e-008 2.510028e-002 3.968836e-004 8.013876e-003 -9.237975e-003 8.363929e-003 -6.403908e-003 3.811424e-003 -9.137135e-003 -5.245406e-003 -8.095243e-003 -3.207545e-003 -3.381838e-003 3.557804e-002
<VARIANCE> 25
 6.664439e+001 4.403650e+001 5.783500e+001 5.743623e+001 6.515208e+001 5.500425e+001 5.372772e+001 4.345287e+001 4.255812e+001 4.180091e+001 3.585940e+001 3.108589e+001 1.968051e+000 1.809448e+000 1.938954e+000 2.304791e+000 2.836484e+000 2.744093e+000 2.863587e+000 2.754002e+000 2.523799e+000 2.575277e+000 2.427561e+000 2.158062e+000 2.903915e+000
<GCONST> 1.039577e+002
<STATE> 4
<MEAN> 25
 -1.118406e-008 6.902663e-008 -6.127934e-008 -1.132241e-009 1.805760e-009 2.941641e-009 -3.920247e-008 -3.669770e-009 -5.191560e-008 -1.454802e-008 -2.627090e-008 3.876559e-008 2.510028e-002 3.968836e-004 8.013876e-003 -9.237975e-003 8.363929e-003 -6.403908e-003 3.811424e-003 -9.137135e-003 -5.245406e-003 -8.095243e-003 -3.207545e-003 -3.381838e-003 3.557804e-002
<VARIANCE> 25
 6.664439e+001 4.403650e+001 5.783500e+001 5.743623e+001 6.515208e+001 5.500425e+001 5.372772e+001 4.345287e+001 4.255812e+001 4.180091e+001 3.585940e+001 3.108589e+001 1.968051e+000 1.809448e+000 1.938954e+000 2.304791e+000 2.836484e+000 2.744093e+000 2.863587e+000 2.754002e+000 2.523799e+000 2.575277e+000 2.427561e+000 2.158062e+000 2.903915e+000
<GCONST> 1.039577e+002
<TRANSP> 5
 0.000000e+000 1.000000e+000 0.000000e+000 0.000000e+000 0.000000e+000
 0.000000e+000 6.000000e-001 4.000000e-001 0.000000e+000 0.000000e+000
 0.000000e+000 0.000000e+000 6.000000e-001 4.000000e-001 0.000000e+000
 0.000000e+000 0.000000e+000 0.000000e+000 7.000000e-001 3.000000e-001
 0.000000e+000 0.000000e+000 0.000000e+000 0.000000e+000 0.000000e+000
<ENDHMM>
~h "i"
<BEGINHMM>
<NUMSTATES> 5
<STATE> 2
<MEAN> 25
 9.883953e-001 8.304766e-001 1.583799e+001 -7.490068e+000 -1.579629e+001 -2.922523e+000 -7.296011e+000 -8.059447e+000 -1.552929e+000 2.222030e+000 7.136636e+000 2.606694e+000 -5.650666e-002 6.029575e-002 9.320069e-003 -2.612644e-001 4.864834e-001 2.745484e-001 1.018250e-001 1.509093e-001 1.262265e-001 3.224089e-001 8.346310e-002 -5.257065e-002 -2.271808e-001
<VARIANCE> 25
 2.013549e+001 3.480895e+001 4.470876e+001 1.114124e+002 4.074887e+001 4.531218e+001 3.255756e+001 6.983631e+001 3.337120e+001 1.122344e+002 4.439913e+001 5.122659e+001 1.264151e+000 2.285772e+000 2.466332e+000 3.812362e+000 4.925754e+000 6.849973e+000 2.101422e+000 6.334669e+000 4.918715e+000 7.435806e+000 3.308921e+000 3.637802e+000 1.372440e+000
<GCONST> 1.080340e+002
<STATE> 3
<MEAN> 25
 -1.064664e+000 8.122478e+000 9.758525e+000 3.042880e+000 1.743444e+000 1.283137e+000 3.178759e+000 -1.390415e+000 1.890594e+000 -6.318285e-001 -8.091535e-001 4.750690e+000 -2.838483e-001 -1.813098e-001 -5.801296e-001 5.286475e-001 5.802248e-001 1.456418e-001 5.016750e-001 2.167910e-001 2.481526e-001 1.728712e-001 -2.294921e-002 -1.033753e-001 -5.906863e-001
<VARIANCE> 25
 1.083952e+001 1.873194e+001 5.379839e+001 6.872034e+001 1.789786e+001 1.698040e+001 2.338464e+001 5.222474e+001 2.969932e+001 2.245245e+001 2.026558e+001 1.664378e+001 3.055171e-001 7.032094e-001 1.010968e+000 2.056695e+000 2.386772e+000 2.169798e+000 2.961262e+000 2.364587e+000 3.226024e+000 2.769822e+000 2.998390e+000 1.470473e+000 7.338095e-001
<GCONST> 9.077264e+001
<STATE> 4
<MEAN> 25
 -5.147620e+000 -9.751370e+000 -6.641788e+000 4.265288e-001 1.393313e+001 9.171642e+000 -9.704751e+000 -1.803809e+000 8.483118e+000 3.711079e+000 5.936913e+000 2.506354e+000 -3.971391e-001 -2.397381e-001 5.258102e-002 6.081374e-001 2.178009e-001 -3.479185e-001 1.171363e-001 2.241439e-001 1.970464e-001 -1.143814e-002 4.715805e-001 -6.046407e-002 2.098560e-001
<VARIANCE> 25
 1.736956e+001 4.004907e+001 1.359363e+001 1.642620e+001 4.145430e+001 2.956494e+001 8.448548e+001 8.938123e+000 1.790142e+001 1.313618e+001 2.342499e+001 1.051180e+001 1.345905e+000 1.049156e+000 9.173980e-001 3.062400e+000 3.110324e+000 3.117872e+000 6.016055e+000 1.292414e+000 1.684348e+000 1.288026e+000 2.120251e+000 1.652805e+000 5.643892e-001
<GCONST> 8.976221e+001
<TRANSP> 5
 0.000000e+000 1.000000e+000 0.000000e+000 0.000000e+000 0.000000e+000
 0.000000e+000 9.442102e-001 5.578975e-002 0.000000e+000 0.000000e+000
 0.000000e+000 0.000000e+000 9.256970e-001 7.430298e-002 0.000000e+000
 0.000000e+000 0.000000e+000 0.000000e+000 8.051702e-001 1.948298e-001
 0.000000e+000 0.000000e+000 0.000000e+000 0.000000e+000 0.000000e+000
<ENDHMM>
~h "k"
<BEGINHMM>
<NUMSTATES> 5
<STATE> 2
<MEAN> 25
 -2.338532e+000 -4.487005e-001 -5.346028e-001 -2.145538e+000 -2.287485e+000 -1.222750e+000 1.452064e+000 1.791267e+000 -1.977338e+000 -1.489177e+000 -1.087836e+000 2.102047e+000 8.904531e-001 -5.862492e-001 -5.701205e-001 -1.888171e+000 -3.418760e+000 -1.038481e+000 -8.703272e-001 9.863839e-001 3.735327e-001 -1.701606e+000 1.719188e-001 9.878615e-003 3.216778e+000
<VARIANCE> 25
 3.339051e+001 2.293460e+001 4.257450e+001 4.479036e+001 9.503481e+001 5.239487e+001 4.335742e+001 4.869928e+001 3.094250e+001 5.841602e+001 2.395885e+001 1.989662e+001 4.392015e+000 2.061438e+000 6.792305e+000 4.694408e+000 8.669437e+000 5.553692e+000 3.950785e+000 6.295512e+000 5.779094e+000 7.816315e+000 2.958715e+000 1.937288e+000 7.703495e+000
<GCONST> 1.103274e+002
<STATE> 3
<MEAN> 25
 4.387104e+000 1.533144e+000 5.578573e+000 -4.300794e+000 -1.205082e+001 -6.840852e+000 -7.553411e-001 1.944969e+000 -2.278067e+000 -2.846632e+000 1.130476e+000 -1.436199e+000 7.360443e-001 4.217693e-001 1.254624e-001 2.076413e-001 4.687974e-001 1.397082e-001 -2.268429e-001 -2.731946e-001 2.002923e-001 5.919291e-001 -1.841312e-003 -1.955520e-001 -5.106840e-001
<VARIANCE> 25
 4.294639e+001 3.477984e+001 9.009747e+001 2.388172e+001 5.401678e+001 7.013788e+001 2.958623e+001 7.930750e+001 6.889233e+001 5.475893e+001 3.123760e+001 2.820083e+001 3.749765e+000 2.303893e+000 2.596512e+000 1.922192e+000 2.574705e+000 3.750242e+000 2.856362e+000 2.532770e+000 3.330206e+000 2.907890e+000 2.018466e+000 2.041042e+000 3.261937e+000
<GCONST> 1.048257e+002
<STATE> 4
<MEAN> 25
 2.250349e+000 -1.177335e+000 -1.779628e+000 -6.550373e-001 9.919414e-002 5.291618e-001 -1.422400e+000 -3.910750e-001 3.246155e-001 -2.027041e-001 -7.610784e-002 7.088693e-001 4.433811e-002 6.131150e-003 -4.302315e-001 -1.769030e-001 2.264278e-002 4.512010e-002 5.974953e-002 6.385103e-003 9.260572e-002 3.504978e-003 -9.474447e-002 -1.348103e-001 3.574939e-002
<VARIANCE> 25
 2.851327e+001 1.912351e+001 4.839969e+001 3.545013e+001 4.633200e+001 2.911264e+001 2.510555e+001 2.196200e+001 2.133437e+001 2.022418e+001 2.306985e+001 2.332833e+001 1.211463e+000 1.363695e+000 1.431165e+000 1.038981e+000 2.007829e+000 2.196883e+000 2.476484e+000 1.565663e+000 1.665268e+000 1.651251e+000 2.037461e+000 2.078630e+000 1.939734e+000
<GCONST> 9.242612e+001
<TRANSP> 5
 0.000000e+000 1.000000e+000 0.000000e+000 0.000000e+000 0.000000e+000
 0.000000e+000 6.676549e-001 3.323450e-001 0.000000e+000 0.000000e+000
 0.000000e+000 0.000000e+000 8.272145e-001 1.727856e-001 0.000000e+000
 0.000000e+000 0.000000e+000 0.000000e+000 8.333724e-001 1.666276e-001
 0.000000e+000 0.000000e+000 0.000000e+000 0.000000e+000 0.000000e+000
<ENDHMM>
~h "l"
<BEGINHMM>
<NUMSTATES> 5
<STATE> 2
<MEAN> 25
 9.314177e+000 3.084894e+000 9.913002e-001 -3.658699e+000 -1.299230e+001 -8.909718e+000 -6.100599e+000 -9.929149e-002 3.582049e+000 -2.618014e+000 1.765148e-001 -1.154717e+000 -4.777798e-002 1.682964e-001 4.703590e-001 1.412434e-001 6.513093e-002 -2.607392e-003 1.249934e-001 8.983675e-002 -3.095292e-003 1.793734e-001 -1.819819e-001 6.386497e-002 -3.921629e-001
<VARIANCE> 25
 9.295848e+000 1.229133e+001 4.848365e+001 4.036883e+001 1.274212e+002 6.653266e+001 4.566132e+001 6.247135e+001 3.281468e+001 2.579959e+001 1.950212e+001 1.583541e+001 1.990025e-001 5.275913e-001 1.279152e+000 1.352845e+000 2.004340e+000 1.913130e+000 1.431893e+000 1.956644e+000 1.765729e+000 1.593502e+000 1.644310e+000 1.209177e+000 2.405780e-001
<GCONST> 8.870570e+001
<STATE> 3
<MEAN> 25
 4.139906e+000 4.049200e+000 1.266165e+000 -1.187540e+000 -1.699961e+000 1.229622e+000 1.865243e+000 8.395000e-001 8.550978e-001 1.961191e+000 -7.751987e-001 -1.193596e+000 -8.559362e-001 -4.083430e-001 -2.465863e-001 3.263814e-001 9.917080e-001 7.758276e-001 9.517887e-001 3.396228e-001 1.892263e-001 7.327390e-002 1.145576e-001 8.952983e-002 -9.405041e-001
<VARIANCE> 25
 1.830971e+001 1.606441e+001 3.483467e+001 2.757267e+001 7.519379e+001 8.289518e+001 4.759223e+001 3.336107e+001 2.792507e+001 2.661152e+001 2.079203e+001 1.463614e+001 6.289511e-001 1.201687e+000 2.007897e+000 3.194844e+000 2.328508e+000 2.873633e+000 2.397674e+000 2.342037e+000 1.967927e+000 2.241108e+000 1.397419e+000 1.115723e+000 1.318225e+000
<GCONST> 9.434438e+001
<STATE> 4
<MEAN> 25
 -3.398823e+000 -1.706582e+000 -1.355478e-001 6.275819e-001 3.399312e+000 1.810843e+000 2.668901e+000 1.352722e+000 6.769357e-001 1.747961e+000 5.330521e-001 1.389581e+000 -8.410416e-002 -3.142365e-002 -1.455536e-002 5.144134e-002 3.616912e-002 -7.560580e-002 -8.128559e-002 -6.960040e-002 -6.833150e-002 -3.589829e-002 2.080424e-003 2.514385e-002 -6.986837e-002
<VARIANCE> 25
 4.931258e+000 3.722251e+000 6.821961e+000 1.059997e+001 1.459859e+001 1.324241e+001 2.087009e+001 1.310168e+001 1.396088e+001 1.311132e+001 1.076304e+001 9.627365e+000 2.085189e-001 3.204136e-001 6.861149e-001 7.092217e-001 8.831971e-001 1.085832e+000 1.438051e+000 1.335012e+000 1.275706e+000 1.172908e+000 1.101031e+000 9.267220e-001 1.306093e-001
<GCONST> 6.943551e+001
<TRANSP> 5
 0.000000e+000 1.000000e+000 0.000000e+000 0.000000e+000 0.000000e+000
 0.000000e+000 8.713780e-001 1.286220e-001 0.000000e+000 0.000000e+000
 0.000000e+000 0.000000e+000 8.363078e-001 1.636922e-001 0.000000e+000
 0.000000e+000 0.000000e+000 0.000000e+000 9.562257e-001 4.377432e-002
 0.000000e+000 0.000000e+000 0.000000e+000 0.000000e+000 0.000000e+000
<ENDHMM>
~h "m"
<BEGINHMM>
<NUMSTATES> 5
<STATE> 2
<MEAN> 25
 9.382139e+000 3.442307e+000 -1.519367e+000 1.831002e+000 -1.644362e+000 1.943232e+000 -3.075015e-001 -6.513834e+000 -1.129839e+000 6.777580e-001 1.815563e-001 -9.138742e+000 -4.142587e-001 5.224329e-001 1.102102e+000 1.644852e+000 1.427880e+000 -4.896267e-001 4.059005e-001 -6.433370e-001 -8.416585e-001 4.993085e-002 -4.984624e-002 -6.501641e-001 -1.038403e+000
<VARIANCE> 25
 1.394704e+001 1.181144e+001 4.181400e+001 5.151781e+001 2.706189e+001 3.128101e+001 3.122196e+001 2.881049e+001 2.498984e+001 2.886201e+001 2.386464e+001 1.819673e+001 5.588390e-001 7.557487e-001 2.636943e+000 2.389957e+000 2.140995e+000 5.009960e+000 1.125231e+000 2.212567e+000 2.300373e+000 2.505359e+000 1.197717e+000 2.604585e+000 5.068098e-001
<GCONST> 9.139742e+001
<STATE> 3
<MEAN> 25
 5.946225e+000 6.820051e+000 3.636032e+000 7.981233e+000 5.424553e+000 -5.389025e-001 -1.410366e+000 -6.663599e+000 -3.221592e+000 -1.353951e+000 -1.304389e+000 -7.560093e+000 -5.185591e-001 -2.825183e-001 2.791130e-001 4.679987e-002 4.496475e-001 4.099337e-001 -4.007904e-002 5.320731e-001 2.927571e-001 1.104279e-002 -7.934196e-002 8.545876e-001 -5.979944e-001
<VARIANCE> 25
 6.866959e+000 1.456314e+001 1.857107e+001 1.450035e+001 1.935757e+001 2.956504e+001 2.299684e+001 2.735979e+001 2.302070e+001 1.682041e+001 2.523053e+001 3.318700e+001 6.678885e-001 2.291625e+000 1.807177e+000 1.675027e+000 1.840790e+000 2.412329e+000 2.344446e+000 3.304619e+000 2.143301e+000 2.103767e+000 2.780580e+000 3.376776e+000 1.364617e+000
<GCONST> 9.075914e+001
<STATE> 4
<MEAN> 25
 1.046016e+000 3.493319e+000 2.688906e+000 4.844369e+000 6.863262e+000 3.693962e+000 1.003348e+000 -1.140305e-001 2.638421e-001 2.067562e-001 -7.446361e-001 -2.771434e+000 -6.905918e-001 -7.956136e-001 -5.860879e-001 -8.714210e-001 -7.494170e-001 -9.662964e-003 1.606334e-001 6.354044e-001 4.765219e-001 2.812196e-001 -1.637902e-001 5.843294e-001 -9.612411e-002
<VARIANCE> 25
 1.069127e+001 1.450569e+001 1.217588e+001 2.619296e+001 2.872522e+001 1.961073e+001 1.325603e+001 2.898588e+001 2.791532e+001 1.128053e+001 1.515627e+001 2.620073e+001 8.171489e-001 1.782423e+000 9.151694e-001 1.470200e+000 2.247608e+000 1.771591e+000 3.191293e+000 2.432070e+000 1.991893e+000 2.172554e+000 1.941347e+000 3.138050e+000 1.263187e+000
<GCONST> 8.838673e+001
<TRANSP> 5
 0.000000e+000 1.000000e+000 0.000000e+000 0.000000e+000 0.000000e+000
 0.000000e+000 7.039196e-001 2.960804e-001 0.000000e+000 0.000000e+000
 0.000000e+000 0.000000e+000 8.013273e-001 1.986727e-001 0.000000e+000
 0.000000e+000 0.000000e+000 0.000000e+000 6.665033e-001 3.334968e-001
 0.000000e+000 0.000000e+000 0.000000e+000 0.000000e+000 0.000000e+000
<ENDHMM>
~h "n"
<BEGINHMM>
<NUMSTATES> 5
<STATE> 2
<MEAN> 25
 3.615038e+000 -7.833696e+000 3.469921e-001 -2.493780e-001 -3.135021e+000 -3.520618e+000 -2.771765e+000 4.884623e+000 -1.278629e-001 -3.598590e+000 -3.960989e-001 -1.660715e+000 1.162963e-001 -6.683059e-001 -6.485362e-003 -2.998373e-001 -1.139606e-001 -2.391544e-001 2.621893e-001 5.850646e-001 -1.612355e-001 2.731544e-001 -7.883341e-003 -4.710824e-001 5.082886e-001
<VARIANCE> 25
 4.990453e+001 8.502973e+001 5.903494e+001 6.907061e+001 1.163599e+002 6.448180e+001 3.586070e+001 1.267008e+002 5.727930e+001 8.013995e+001 5.745115e+001 5.402441e+001 3.332346e+000 3.984077e+000 2.524092e+000 3.293362e+000 7.164479e+000 3.924828e+000 3.039465e+000 6.868933e+000 5.488745e+000 5.141310e+000 6.185751e+000 4.960625e+000 4.923080e+000
<GCONST> 1.158666e+002
<STATE> 3
<MEAN> 25
 7.399825e+000 -5.761406e+000 -1.257870e+000 -1.856532e+000 -5.806094e+000 -5.216584e+000 -5.988220e-001 2.287865e+000 -3.995934e+000 -5.377594e+000 -3.815595e+000 -3.590041e-001 5.140055e-001 1.423384e+000 5.904287e-001 9.171081e-001 -4.647847e-001 4.688410e-003 3.491199e-001 -1.165294e+000 1.467543e-001 -1.263228e-001 -5.257791e-001 -2.326590e-001 -1.791910e+000
<VARIANCE> 25
 1.930978e+001 4.719353e+001 4.459211e+001 4.003616e+001 5.368129e+001 5.082804e+001 3.410489e+001 6.216865e+001 5.434722e+001 9.943760e+001 4.179034e+001 6.919895e+001 1.322457e+000 1.220489e+000 1.613657e+000 2.320495e+000 3.612345e+000 3.400561e+000 3.240881e+000 5.196477e+000 3.788578e+000 5.743959e+000 3.289135e+000 3.846565e+000 8.967667e-001
<GCONST> 1.050247e+002
<STATE> 4
<MEAN> 25
 8.804780e+000 3.048540e+000 3.427592e+000 6.295667e+000 -1.537004e+000 -2.493632e+000 9.588341e-002 -5.437165e+000 1.219947e+000 3.964230e-001 -6.395094e+000 -5.012111e+000 -2.079635e-001 7.576095e-001 4.531324e-001 4.745096e-001 4.904768e-001 2.525570e-001 2.016641e-001 -4.106386e-001 1.258084e-001 1.622215e-001 1.427520e-002 3.983881e-001 -9.165329e-001
<VARIANCE> 25
 2.366749e+001 3.869165e+001 2.562127e+001 2.194849e+001 6.204787e+001 3.315675e+001 2.839852e+001 3.833263e+001 3.831692e+001 3.131460e+001 3.539333e+001 3.710623e+001 9.323586e-001 1.386642e+000 1.238837e+000 2.005457e+000 1.627775e+000 2.026317e+000 2.588233e+000 4.507184e+000 2.332635e+000 2.761874e+000 2.374053e+000 2.524698e+000 6.616951e-001
<GCONST> 9.604850e+001
<TRANSP> 5
 0.000000e+000 1.000000e+000 0.000000e+000 0.000000e+000 0.000000e+000
 0.000000e+000 6.858084e-001 3.141916e-001 0.000000e+000 0.000000e+000
 0.000000e+000 0.000000e+000 7.600931e-001 2.399069e-001 0.000000e+000
 0.000000e+000 0.000000e+000 0.000000e+000 7.591410e-001 2.408591e-001
 0.000000e+000 0.000000e+000 0.000000e+000 0.000000e+000 0.000000e+000
<ENDHMM>
~h "p"
<BEGINHMM>
<NUMSTATES> 5
<STATE> 2
<MEAN> 25
 -2.961138e+000 -1.188596e+000 -3.245696e+000 2.683428e+000 2.034391e+000 -1.567120e-001 2.408736e+000 1.388979e+000 2.318155e+000 8.084351e-001 1.770223e-001 -2.144166e-002 1.059311e+000 -1.651065e+000 -5.081849e-001 -5.188896e-001 -6.222275e-001 -1.200984e+000 -1.206639e+000 -9.777532e-002 -3.232898e-003 -3.924417e-001 8.694036e-001 -2.375260e-001 5.486374e+000
<VARIANCE> 25
 2.326864e+001 4.202704e+001 4.976715e+001 5.970958e+001 5.662427e+001 3.698925e+001 3.903777e+001 2.479126e+001 2.310987e+001 2.706487e+001 3.705849e+001 2.019259e+001 4.862571e+000 6.641770e+000 1.051683e+001 7.817000e+000 7.474423e+000 3.495636e+000 7.795115e+000 3.597868e+000 2.494961e+000 4.191385e+000 7.371661e+000 2.754659e+000 1.579169e+001
<GCONST> 1.110064e+002
<STATE> 3
<MEAN> 25
 -1.085781e+000 -6.002238e+000 -4.197563e+000 -1.898178e+000 2.989856e+000 4.639551e+000 -1.609546e+000 -3.225425e+000 1.664197e+000 -7.538263e-001 1.067543e+000 -7.207671e-001 1.074695e+000 2.807800e-001 1.055820e+000 -6.486189e-002 -2.813652e-001 7.688238e-002 -1.331168e+000 -7.083709e-001 -6.544732e-001 -7.169085e-001 -4.351313e-001 -3.690757e-001 1.443063e+000
<VARIANCE> 25
 4.297345e+001 5.475586e+001 7.915483e+001 5.162971e+001 7.990929e+001 9.485724e+001 4.276823e+001 3.127699e+001 3.289540e+001 2.883641e+001 5.789006e+001 1.912983e+001 4.906902e+000 3.221606e+000 4.555737e+000 2.408396e+000 6.014185e+000 6.463699e+000 7.915937e+000 3.321076e+000 4.179390e+000 2.573670e+000 3.579117e+000 2.459328e+000 1.000743e+001
<GCONST> 1.109618e+002
<STATE> 4
<MEAN> 25
 9.011316e+000 1.221607e-001 -4.368700e+000 -3.773012e+000 -5.945460e+000 -4.654776e+000 -5.503988e+000 -2.021262e+000 1.128755e+000 1.292095e-002 -1.181162e+000 -2.123105e+000 1.872051e-001 1.020603e-001 2.482879e-001 -5.548002e-002 -1.481869e-001 -2.064991e-001 1.313782e-001 5.004617e-002 -4.148705e-001 -1.107201e-002 2.963182e-001 4.024995e-003 3.675206e-003
<VARIANCE> 25
 4.391708e+001 5.710863e+001 8.574159e+001 3.070587e+001 6.392667e+001 4.127555e+001 3.736464e+001 4.879958e+001 3.549119e+001 2.951899e+001 4.639643e+001 3.827750e+001 2.636309e+000 1.749814e+000 3.177095e+000 1.923672e+000 3.266584e+000 2.816956e+000 2.406137e+000 2.110376e+000 3.242765e+000 3.404925e+000 2.276067e+000 2.785596e+000 3.909758e+000
<GCONST> 1.042682e+002
<TRANSP> 5
 0.000000e+000 1.000000e+000 0.000000e+000 0.000000e+000 0.000000e+000
 0.000000e+000 5.747879e-001 4.252121e-001 0.000000e+000 0.000000e+000
 0.000000e+000 0.000000e+000 6.523444e-001 3.476556e-001 0.000000e+000
 0.000000e+000 0.000000e+000 0.000000e+000 7.471886e-001 2.528115e-001
 0.000000e+000 0.000000e+000 0.000000e+000 0.000000e+000 0.000000e+000
<ENDHMM>
~h "r"
<BEGINHMM>
<NUMSTATES> 5
<STATE> 2
<MEAN> 25
 3.849380e+000 -2.181690e+000 -2.533777e+000 -1.035578e-001 2.605440e-001 1.850384e+000 -8.354473e-001 -1.419505e-001 2.600351e+000 -3.603919e-001 -1.622410e+000 2.151081e-001 7.416882e-001 -2.062779e-001 -2.310408e-001 3.712255e-001 -2.076066e-002 -3.909903e-001 -7.844138e-001 -1.058668e-001 3.177177e-001 -6.977138e-001 1.914485e-001 4.724489e-001 9.580855e-001
<VARIANCE> 25
 4.189203e+001 8.193147e+001 3.609554e+001 6.132713e+001 4.657723e+001 4.845721e+001 4.179151e+001 4.107518e+001 2.812553e+001 3.688741e+001 4.032920e+001 4.776623e+001 3.101945e+000 5.226775e+000 2.152818e+000 3.106576e+000 3.821693e+000 3.553399e+000 2.682029e+000 3.565305e+000 2.298543e+000 3.740150e+000 3.227902e+000 3.652878e+000 1.943088e+000
<GCONST> 1.063037e+002
<STATE> 3
<MEAN> 25
 8.588196e+000 -3.781998e+000 -1.233613e+000 4.922292e-002 -3.614548e+000 -1.021545e+000 -4.150914e+000 1.894238e+000 2.841584e+000 -4.377233e+000 2.738483e+000 2.870886e-002 6.322894e-001 -1.844403e-001 -2.006657e-001 2.375349e-002 -3.389124e-001 -7.179255e-001 -5.747730e-001 3.802369e-002 2.344362e-001 -3.795446e-001 4.344835e-001 2.849373e-001 7.578490e-001
<VARIANCE> 25
 3.744077e+001 6.655239e+001 8.269639e+001 8.250201e+001 5.590108e+001 1.125202e+002 4.781000e+001 9.710072e+001 4.936016e+001 5.656116e+001 5.795698e+001 4.990633e+001 4.146835e+000 4.958220e+000 4.082841e+000 6.190629e+000 5.949866e+000 6.886547e+000 5.202026e+000 7.269003e+000 3.964175e+000 6.084475e+000 4.833822e+000 4.006415e+000 4.405672e+000
<GCONST> 1.169180e+002
<STATE> 4
<MEAN> 25
 8.829184e+000 -4.596464e+000 -6.311006e+000 1.491252e-001 -3.075478e-001 -1.323890e+000 -5.909482e+000 2.791765e-001 2.085928e+000 -4.712518e+000 2.162785e+000 2.656250e+000 -1.630956e-001 9.915460e-002 1.997698e-001 6.606185e-002 2.351640e-001 -1.567575e-001 2.116022e-001 -2.595105e-001 -4.004083e-001 7.324238e-002 1.644648e-001 -7.162108e-002 -1.408214e-001
<VARIANCE> 25
 3.239383e+001 7.128374e+001 4.261587e+001 9.855928e+001 6.771412e+001 9.048030e+001 7.584533e+001 5.696207e+001 6.060967e+001 5.928271e+001 3.921985e+001 2.633202e+001 6.241610e-001 1.022736e+000 1.532696e+000 1.112816e+000 2.530849e+000 2.455761e+000 2.766958e+000 2.776248e+000 2.120901e+000 2.108393e+000 2.518516e+000 2.062648e+000 8.765851e-001
<GCONST> 1.012173e+002
<TRANSP> 5
 0.000000e+000 1.000000e+000 0.000000e+000 0.000000e+000 0.000000e+000
 0.000000e+000 5.512844e-001 4.487155e-001 0.000000e+000 0.000000e+000
 0.000000e+000 0.000000e+000 7.077726e-001 2.922274e-001 0.000000e+000
 0.000000e+000 0.000000e+000 0.000000e+000 8.009979e-001 1.990022e-001
 0.000000e+000 0.000000e+000 0.000000e+000 0.000000e+000 0.000000e+000
<ENDHMM>
~h "s"
<BEGINHMM>
<NUMSTATES> 5
<STATE> 2
<MEAN> 25
 -7.058556e+000 5.597976e+000 2.745020e+000 2.795009e+000 3.544964e+000 -4.397345e+000 2.748123e+000 4.252744e-001 -3.080639e+000 -1.042245e+000 8.074057e-001 1.467204e+000 -2.633965e+000 -3.602235e-003 2.959067e-003 2.000111e-001 8.962448e-001 -2.778482e-002 1.886891e-002 9.565200e-001 3.434835e-001 -4.388181e-001 6.498195e-001 6.292995e-001 4.620021e-001
<VARIANCE> 25
 8.491292e+001 8.691862e+001 5.615971e+001 3.697055e+001 6.643572e+001 8.194307e+001 3.535460e+001 4.412446e+001 4.290975e+001 4.445543e+001 5.419576e+001 4.974396e+001 4.284529e+000 5.226960e+000 6.220066e+000 4.315849e+000 6.156933e+000 4.523270e+000 3.797580e+000 3.603011e+000 3.514607e+000 3.835966e+000 2.694004e+000 3.057275e+000 1.990074e+000
<GCONST> 1.116396e+002
<STATE> 3
<MEAN> 25
 -1.719675e+001 -7.070358e+000 1.244508e+001 4.177599e+000 -3.055933e+000 5.115731e+000 2.079538e+000 3.770951e+000 1.472059e+000 -1.722749e+000 3.726629e+000 -1.584601e+000 -2.564633e-002 8.564032e-002 -2.643496e-001 -1.512161e-001 1.331972e-001 3.964627e-002 -9.124607e-002 8.238686e-002 4.847477e-002 -6.272842e-002 -1.323659e-001 -8.900601e-002 1.156283e-001
<VARIANCE> 25
 3.461022e+001 7.898885e+001 9.816671e+001 3.532405e+001 4.441146e+001 4.164844e+001 2.855036e+001 2.555135e+001 1.790510e+001 4.259260e+001 3.206528e+001 1.732958e+001 4.669173e+000 1.249049e+000 2.368400e+000 1.177724e+000 1.834139e+000 1.630995e+000 1.382274e+000 1.548813e+000 1.539664e+000 1.733726e+000 1.462679e+000 1.181736e+000 8.375056e-001
<GCONST> 9.508160e+001
<STATE> 4
<MEAN> 25
 -1.244618e+001 4.555282e+000 -2.378789e+000 -2.029325e+000 4.807901e+000 -2.477790e+000 2.220437e-001 2.582686e+000 -8.117388e-001 9.182493e-002 -2.128899e+000 1.601197e+000 6.435378e-001 -2.985816e-001 -2.017733e-001 -2.214803e-002 -2.663670e-001 1.201912e-001 -1.335711e-001 -3.081690e-001 1.382880e-001 8.239613e-002 1.488744e-001 3.845703e-003 -3.573629e-001
<VARIANCE> 25
 3.308152e+001 2.596156e+001 1.876062e+001 2.228506e+001 3.071679e+001 2.987094e+001 2.370419e+001 2.384990e+001 1.961660e+001 2.704444e+001 1.925186e+001 1.945071e+001 3.062914e+000 1.569407e+000 1.970874e+000 1.426197e+000 2.004970e+000 2.312545e+000 2.041369e+000 2.364439e+000 1.983374e+000 2.167911e+000 1.898779e+000 1.858104e+000 1.373840e+000
<GCONST> 9.284531e+001
<TRANSP> 5
 0.000000e+000 1.000000e+000 0.000000e+000 0.000000e+000 0.000000e+000
 0.000000e+000 7.223215e-001 2.776785e-001 0.000000e+000 0.000000e+000
 0.000000e+000 0.000000e+000 7.952788e-001 2.047211e-001 0.000000e+000
 0.000000e+000 0.000000e+000 0.000000e+000 8.475931e-001 1.524069e-001
 0.000000e+000 0.000000e+000 0.000000e+000 0.000000e+000 0.000000e+000
<ENDHMM>
~h "t"
<BEGINHMM>
<NUMSTATES> 5
<STATE> 2
<MEAN> 25
 -4.984723e+000 1.086570e+000 6.710583e-002 1.754082e+000 2.969256e-001 -2.607220e-001 3.240615e+000 1.243139e+000 1.869604e+000 1.491241e+000 3.335989e+000 -5.697392e-001 1.229447e+000 -1.736006e+000 -7.888536e-001 -1.601009e+000 -9.603317e-001 -1.812263e+000 -5.445598e-001 2.126059e-001 -1.555920e-002 4.959645e-002 5.125220e-001 2.099610e-001 4.617854e+000
<VARIANCE> 25
 6.345339e+001 3.568942e+001 4.300907e+001 4.289072e+001 2.854065e+001 5.509764e+001 3.079938e+001 4.287991e+001 3.729844e+001 3.841182e+001 5.138514e+001 2.419508e+001 8.272746e+000 4.649851e+000 4.964373e+000 5.566326e+000 5.977249e+000 6.178108e+000 5.243869e+000 4.280351e+000 4.353923e+000 5.684297e+000 6.263461e+000 2.401261e+000 2.210139e+001
<GCONST> 1.128353e+002
<STATE> 3
<MEAN> 25
 1.079605e+000 -2.919023e+000 -1.190082e+000 -1.817617e+000 -2.277511e+000 -5.334397e+000 -1.499148e+000 1.531648e+000 7.875537e-001 -5.902822e-001 -8.880572e-001 -5.383273e-001 1.480868e+000 -8.739784e-001 4.697417e-002 -5.754150e-001 -5.289190e-002 1.755973e-001 -9.197595e-001 4.812162e-001 -1.389621e-001 5.083169e-001 -6.329460e-001 -2.031090e-001 1.589879e+000
<VARIANCE> 25
 3.254477e+001 4.276010e+001 4.050118e+001 4.443808e+001 5.773650e+001 5.044049e+001 4.715242e+001 4.733587e+001 5.446983e+001 2.881862e+001 3.066488e+001 2.911038e+001 5.253493e+000 2.267895e+000 4.115714e+000 3.661397e+000 4.918085e+000 5.808489e+000 7.038817e+000 5.326552e+000 3.813456e+000 4.642889e+000 7.453424e+000 3.036503e+000 8.151255e+000
<GCONST> 1.107790e+002
<STATE> 4
<MEAN> 25
 4.398643e+000 -3.049069e+000 -7.057140e-001 -5.072124e+000 -1.864259e+000 -3.747690e+000 -1.437736e-002 -1.809741e+000 -7.396587e-001 6.278570e+000 3.490810e-001 3.398148e+000 2.757701e-001 -8.858486e-002 -2.198661e-001 9.178352e-002 3.830025e-001 7.238668e-001 1.087215e-001 -3.528959e-001 -1.195238e-001 -5.506341e-003 1.911496e-001 2.135374e-001 -1.280821e-001
<VARIANCE> 25
 2.993262e+001 4.401728e+001 6.646726e+001 8.794131e+001 6.278869e+001 1.021678e+002 6.934197e+001 5.126149e+001 7.085408e+001 1.000373e+002 5.892370e+001 4.584044e+001 1.630409e+000 1.368150e+000 1.676587e+000 2.248301e+000 2.880466e+000 3.773922e+000 2.664294e+000 2.502744e+000 2.511340e+000 3.248269e+000 4.510669e+000 2.861816e+000 1.804363e+000
<GCONST> 1.071735e+002
<TRANSP> 5
 0.000000e+000 1.000000e+000 0.000000e+000 0.000000e+000 0.000000e+000
 0.000000e+000 5.231615e-001 4.768385e-001 0.000000e+000 0.000000e+000
 0.000000e+000 0.000000e+000 3.469283e-001 6.530716e-001 0.000000e+000
 0.000000e+000 0.000000e+000 0.000000e+000 6.481488e-001 3.518512e-001
 0.000000e+000 0.000000e+000 0.000000e+000 0.000000e+000 0.000000e+000
<ENDHMM>
~h "v"
<BEGINHMM>
<NUMSTATES> 5
<STATE> 2
<MEAN> 25
 2.673004e+000 -1.239859e-002 -3.608126e+000 -2.794674e+000 1.010395e+000 8.632961e-001 -5.854262e-001 2.067816e-001 -4.261941e-001 5.688859e-001 8.542701e-001 2.401645e+000 1.721847e+000 6.856515e-001 -7.484882e-001 -2.534271e+000 4.719552e-002 1.527020e+000 -7.135184e-001 -8.952099e-001 -5.677364e-001 3.435784e-001 5.888382e-001 -1.776182e-001 8.950552e-001
<VARIANCE> 25
 2.714974e+001 2.993696e+001 3.051422e+001 8.405589e+001 3.281646e+001 5.452932e+001 3.813172e+001 3.333126e+001 2.391988e+001 3.002805e+001 4.145338e+001 1.540701e+001 4.211412e+000 4.727016e+000 4.863460e+000 6.203546e+000 4.669430e+000 5.548775e+000 2.526574e+000 5.505661e+000 5.072243e+000 6.451029e+000 3.783749e+000 1.882507e+000 6.715993e+000
<GCONST> 1.078116e+002
<STATE> 3
<MEAN> 25
 7.656824e+000 1.580077e+000 -1.117183e+000 -9.344582e+000 -4.654583e+000 7.542034e+000 -3.675474e+000 -3.260946e-001 -2.627380e+000 -4.540819e+000 2.053532e+000 8.340821e-001 -6.851547e-002 1.835865e-001 -1.033684e-001 -5.320675e-001 -9.354379e-001 -2.058736e-002 3.728345e-001 2.703206e-001 8.630512e-001 -7.073362e-003 -5.882384e-001 -6.067885e-001 1.147433e+000
<VARIANCE> 25
 2.439585e+001 2.735165e+001 2.806121e+001 1.603356e+002 4.718718e+001 1.941989e+002 5.678598e+001 3.260567e+001 1.699717e+001 5.311518e+001 1.431950e+001 1.837980e+001 1.701197e+000 1.548536e+000 1.278937e+000 3.415239e+000 2.988628e+000 4.967027e+000 2.047323e+000 1.747574e+000 1.048421e+000 2.029169e+000 1.949090e+000 1.669926e+000 2.433579e+000
<GCONST> 9.912667e+001
<STATE> 4
<MEAN> 25
 2.986950e+000 3.761133e+000 -4.462470e+000 -7.067740e+000 -1.927473e+000 1.255594e+000 5.010037e-001 4.297979e-001 2.992976e+000 1.798439e+000 -3.276468e-001 2.560060e+000 -5.532302e-001 1.312390e-003 1.318505e-001 9.270465e-001 5.430549e-001 -1.400177e+000 1.630407e-001 4.601934e-002 6.333573e-001 5.996817e-001 -4.974983e-001 -5.023067e-001 -2.411866e-001
<VARIANCE> 25
 3.741607e+001 1.929035e+001 2.220880e+001 9.949228e+001 4.581942e+001 6.116714e+001 4.574143e+001 4.285097e+001 2.863629e+001 2.965390e+001 2.091900e+001 5.533574e+001 9.356469e-001 1.449770e+000 1.518999e+000 2.298564e+000 1.801089e+000 6.722386e+000 2.165117e+000 1.577857e+000 2.242783e+000 3.047888e+000 4.525268e+000 2.865464e+000 9.449561e-001
<GCONST> 9.925215e+001
<TRANSP> 5
 0.000000e+000 1.000000e+000 0.000000e+000 0.000000e+000 0.000000e+000
 0.000000e+000 6.193627e-001 3.806373e-001 0.000000e+000 0.000000e+000
 0.000000e+000 0.000000e+000 5.779820e-001 4.220180e-001 0.000000e+000
 0.000000e+000 0.000000e+000 0.000000e+000 6.453189e-001 3.546810e-001
 0.000000e+000 0.000000e+000 0.000000e+000 0.000000e+000 0.000000e+000
<ENDHMM>
~h "w"
<BEGINHMM>
<NUMSTATES> 5
<STATE> 2
<MEAN> 25
 7.733537e+000 2.110841e+000 -4.121666e+000 -1.057595e+001 -3.063019e+000 9.437743e-001 8.636446e-001 1.476158e+000 3.024918e-001 4.202089e-001 -3.217317e+000 -3.874924e+000 5.006652e-001 1.660526e-002 -5.979362e-001 -6.525584e-001 -3.807933e-002 6.619325e-002 -6.161533e-001 -1.527474e-001 3.637972e-001 -1.384020e-002 3.504313e-001 2.398849e-002 1.035211e+000
<VARIANCE> 25
 5.913247e+001 7.236182e+001 5.312343e+001 6.303658e+001 7.756096e+001 1.318424e+002 9.220893e+001 3.373359e+001 7.050782e+001 3.123261e+001 2.946405e+001 4.575604e+001 5.900250e+000 4.961631e+000 4.075366e+000 8.137773e+000 7.432300e+000 1.056317e+001 1.066599e+001 4.907157e+000 4.399999e+000 3.693446e+000 3.159137e+000 3.108553e+000 5.631152e+000
<GCONST> 1.166037e+002
<STATE> 3
<MEAN> 25
 1.052581e+001 1.692007e+000 -3.222961e+000 -1.147839e+001 -4.026710e+000 2.720379e-001 -1.070865e+001 2.136065e+000 -5.166008e+000 1.611499e+000 8.403091e+000 -3.955525e+000 -5.568460e-001 -1.503363e+000 -5.901991e-001 4.588308e-001 2.284853e-001 1.852777e-001 -5.447960e-002 1.117578e+000 3.690883e-001 -7.465371e-002 4.599052e-001 -1.054983e+000 1.279366e+000
<VARIANCE> 25
 2.800882e+001 5.459276e+001 5.314362e+001 1.242238e+002 4.130070e+001 1.171099e+002 6.893518e+001 2.581736e+001 5.557182e+001 2.543626e+001 4.235232e+001 4.461054e+001 1.228963e+000 1.285177e+000 1.940572e+000 4.255319e+000 3.375376e+000 8.655560e+000 4.293116e+000 2.038207e+000 4.017369e+000 2.881024e+000 4.809731e+000 3.388498e+000 9.189439e-001
<GCONST> 1.061078e+002
<STATE> 4
<MEAN> 25
 -1.958463e+000 -1.135793e+001 -8.380404e+000 -3.333482e+000 8.635390e+000 7.916335e+000 -5.096481e+000 -1.084138e+000 3.892737e-001 -3.383139e+000 7.969041e+000 -9.163259e-001 -1.957966e-001 -2.698596e-001 2.249781e-001 3.968783e-001 -1.006272e-001 -7.186348e-001 5.834149e-001 2.722252e-001 -4.736942e-001 -2.972162e-001 -1.505837e-001 7.595330e-001 9.231330e-002
<VARIANCE> 25
 2.136915e+001 1.868481e+001 8.294176e+000 2.017085e+001 6.016285e+001 9.792503e+001 3.612428e+001 5.291878e+001 3.316013e+001 9.904657e+000 1.413735e+001 5.227353e+001 3.714176e-001 5.757099e-001 2.932226e-001 7.718729e-001 1.075527e+000 1.663901e+000 1.682587e+000 2.100188e+000 1.796402e+000 1.777529e+000 1.422070e+000 2.135637e+000 1.386659e-001
<GCONST> 8.480522e+001
<TRANSP> 5
 0.000000e+000 1.000000e+000 0.000000e+000 0.000000e+000 0.000000e+000
 0.000000e+000 8.898135e-001 1.101865e-001 0.000000e+000 0.000000e+000
 0.000000e+000 0.000000e+000 8.169789e-001 1.830212e-001 0.000000e+000
 0.000000e+000 0.000000e+000 0.000000e+000 8.225060e-001 1.774941e-001
 0.000000e+000 0.000000e+000 0.000000e+000 0.000000e+000 0.000000e+000
<ENDHMM>
~h "y"
<BEGINHMM>
<NUMSTATES> 5
<STATE> 2
<MEAN> 25
 3.752700e+000 7.567911e-001 1.328393e+001 3.049124e+000 -1.240769e+001 -9.338217e+000 -3.625436e-001 -2.979193e+000 -1.314842e+001 -4.870177e+000 5.799071e+000 -6.854792e+000 4.184729e-001 -4.140311e-001 -1.725888e-001 1.674860e-001 -6.293270e-001 -7.923768e-001 -1.157602e-001 4.207494e-001 -8.036708e-002 -1.456677e-001 4.613778e-001 1.869922e-002 3.145289e-001
<VARIANCE> 25
 6.459650e+000 9.219326e+000 2.658834e+001 2.282097e+001 2.290813e+001 4.263546e+001 1.942168e+001 2.441071e+001 3.293495e+001 2.127744e+001 2.622467e+001 2.116378e+001 6.771258e-001 1.051888e+000 3.640228e+000 1.451689e+000 4.323362e+000 2.444817e+000 1.790783e+000 2.159492e+000 4.458361e+000 1.561373e+000 2.918867e+000 2.667292e+000 9.027130e-001
<GCONST> 9.128497e+001
<STATE> 3
<MEAN> 25
 4.923761e+000 -8.089470e-002 1.591476e+000 4.566339e+000 -7.209282e+000 -1.082182e+001 -4.620342e+000 -1.326257e+000 1.756117e-001 -3.605355e+000 -3.376283e+000 1.915756e+000 5.685493e-001 1.933674e-002 -1.182139e+000 -1.104913e-002 1.977243e-001 1.627964e-001 -1.563256e-001 -2.932196e-001 1.253749e+000 -2.906457e-001 -1.176473e-001 3.300855e-001 -2.319216e-001
<VARIANCE> 25
 6.671342e+001 6.408180e+001 3.394020e+001 1.904097e+001 4.964616e+001 5.147007e+001 1.909700e+001 8.227001e+000 4.946717e+001 2.218506e+001 3.279261e+001 2.725815e+001 6.892076e+000 3.808582e+000 1.549031e+000 1.830558e+000 5.213974e+000 5.998820e+000 2.156858e+000 1.399762e+000 2.431952e+000 2.197548e+000 3.813519e+000 1.899230e+000 3.005007e+000
<GCONST> 1.010919e+002
<STATE> 4
<MEAN> 25
 1.149067e+001 -1.192222e+000 -5.840442e+000 3.622299e+000 -8.946861e+000 -1.056043e+001 -3.856133e+000 1.588056e+000 7.789463e+000 -9.476947e+000 8.104658e-001 7.225112e-002 -4.103414e-001 4.156685e-001 2.149499e-001 -1.088458e-001 4.406161e-001 5.435596e-001 5.295109e-001 1.866736e-001 -2.247445e-001 2.772848e-001 2.720419e-002 -7.797243e-002 -5.761525e-001
<VARIANCE> 25
 1.375537e+001 1.285619e+001 4.046279e+001 3.567366e+001 4.578019e+001 3.409967e+001 3.469065e+001 4.898017e+001 4.153381e+001 2.446850e+001 2.785865e+001 1.475883e+001 3.717956e-001 1.269592e+000 1.836614e+000 1.103177e+000 2.080824e+000 2.212488e+000 1.727164e+000 1.911776e+000 1.984652e+000 1.680218e+000 1.843496e+000 1.277123e+000 5.291805e-001
<GCONST> 9.023190e+001
<TRANSP> 5
 0.000000e+000 1.000000e+000 0.000000e+000 0.000000e+000 0.000000e+000
 0.000000e+000 8.752421e-001 1.247579e-001 0.000000e+000 0.000000e+000
 0.000000e+000 0.000000e+000 7.936491e-001 2.063509e-001 0.000000e+000
 0.000000e+000 0.000000e+000 0.000000e+000 8.127542e-001 1.872458e-001
 0.000000e+000 0.000000e+000 0.000000e+000 0.000000e+000 0.000000e+000
<ENDHMM>
~h "z"
<BEGINHMM>
<NUMSTATES> 5
<STATE> 2
<MEAN> 25
 -1.418239e+000 5.944355e+000 -5.966618e+000 -6.476694e+000 6.304550e+000 1.752901e+000 -5.277552e+000 7.906814e-001 2.648613e+000 -2.704106e+000 1.525335e+000 6.476933e+000 -2.163204e+000 1.386418e+000 4.066857e-001 8.836410e-001 1.082802e+000 -1.483150e+000 1.264625e+000 1.707687e+000 9.112154e-001 -7.913713e-001 -3.873048e-001 6.645831e-001 -6.955977e-005
<VARIANCE> 25
 3.364436e+001 7.594520e+001 3.035486e+001 4.175768e+001 3.980209e+001 3.967255e+001 6.155011e+001 3.264595e+001 4.667573e+001 4.823130e+001 2.252604e+001 2.528696e+001 3.249255e+000 2.740685e+000 1.645784e+000 3.415810e+000 3.666755e+000 4.795312e+000 4.303965e+000 3.027982e+000 5.855227e+000 3.825417e+000 3.021554e+000 2.970492e+000 9.090148e-001
<GCONST> 1.045277e+002
<STATE> 3
<MEAN> 25
 -8.245295e+000 7.674414e+000 -4.194993e+000 8.524699e-001 1.153138e+001 -9.908904e+000 -3.879575e+000 6.937074e+000 6.052752e+000 3.006339e-001 1.059139e+000 7.427797e+000 9.212327e-001 -1.243412e+000 6.023898e-001 1.592767e+000 -2.971912e-001 -1.385506e+000 -7.766755e-001 -3.241044e-001 6.677055e-002 3.795751e-001 -7.908873e-001 -6.236551e-001 1.002574e-002
<VARIANCE> 25
 4.209702e+001 4.912520e+001 2.636118e+001 5.878444e+001 3.388976e+001 4.005089e+001 2.832903e+001 3.844305e+001 4.119884e+001 4.444627e+001 3.160679e+001 3.399926e+001 5.912967e+000 3.005478e+000 1.589600e+000 1.779470e+000 3.207781e+000 3.300440e+000 4.868796e+000 3.765948e+000 3.752767e+000 4.822423e+000 2.948547e+000 3.146113e+000 2.057520e+000
<GCONST> 1.046564e+002
<STATE> 4
<MEAN> 25
 1.441344e+000 6.635192e+000 -1.721121e+000 5.818206e-001 -1.446289e+000 -1.387606e+001 -1.240114e+000 1.723104e-002 1.426371e+000 -2.696511e+000 -2.685987e+000 3.781568e+000 3.905610e-001 -3.783359e-001 4.519244e-001 -1.661421e-001 -7.315191e-001 -1.699397e-001 -3.014557e-001 2.515969e-001 -6.865023e-003 7.370220e-002 2.979589e-001 -1.828689e-001 6.237057e-001
<VARIANCE> 25
 2.402761e+001 9.009184e+001 2.855643e+001 4.581789e+001 3.278906e+001 3.693094e+001 5.930779e+001 2.263488e+001 3.442031e+001 6.264122e+001 4.948652e+001 5.137429e+001 3.187635e+000 9.053617e+000 1.813905e+000 3.263227e+000 3.681602e+000 2.885325e+000 5.805478e+000 3.122239e+000 2.300986e+000 4.698961e+000 2.177220e+000 5.202684e+000 2.665150e+000
<GCONST> 1.068109e+002
<TRANSP> 5
 0.000000e+000 1.000000e+000 0.000000e+000 0.000000e+000 0.000000e+000
 0.000000e+000 6.854398e-001 3.145602e-001 0.000000e+000 0.000000e+000
 0.000000e+000 0.000000e+000 7.378893e-001 2.621107e-001 0.000000e+000
 0.000000e+000 0.000000e+000 0.000000e+000 7.765653e-001 2.234347e-001
 0.000000e+000 0.000000e+000 0.000000e+000 0.000000e+000 0.000000e+000
<ENDHMM>
~h "aa"
<BEGINHMM>
<NUMSTATES> 5
<STATE> 2
<MEAN> 25
 6.718421e+000 -1.342374e+000 -7.331856e+000 -1.063207e+001 -7.998258e-001 5.789069e+000 -2.751395e+000 -2.191603e+000 -3.036743e+000 2.845549e+000 4.837536e+000 -3.347367e+000 1.373432e+000 6.530054e-001 -6.051386e-001 -1.066794e+000 -5.981985e-001 3.912793e-001 1.363546e-001 -8.112963e-001 -4.146711e-001 5.588912e-002 1.310167e-001 -4.540827e-001 3.746330e-001
<VARIANCE> 25
 2.249884e+001 4.264388e+001 4.946310e+001 5.479647e+001 3.734208e+001 3.597212e+001 3.061211e+001 3.413636e+001 1.508280e+001 2.438715e+001 5.211880e+001 2.120692e+001 2.152585e+000 1.943267e+000 2.074397e+000 4.102663e+000 2.831176e+000 2.431269e+000 2.304846e+000 2.422580e+000 1.931238e+000 2.973245e+000 1.671262e+000 3.962998e+000 3.811331e+000
<GCONST> 9.998589e+001
<STATE> 3
<MEAN> 25
 7.788250e+000 2.979142e+000 -6.187044e+000 -1.120314e+001 -2.223533e+000 5.292282e+000 3.106102e+000 -3.333737e+000 -2.442343e+000 3.512772e-001 -4.022938e-001 4.339188e-001 -9.137505e-001 4.356478e-001 6.183422e-001 1.123823e+000 5.481316e-001 -8.329180e-001 -2.256240e-001 3.507463e-001 4.486092e-001 1.597013e-001 -5.865738e-001 -3.663950e-002 -1.047493e+000
<VARIANCE> 25
 2.462469e+001 2.291429e+001 2.799262e+001 9.051398e+001 2.386114e+001 5.930126e+001 6.559817e+001 5.985822e+001 4.861895e+001 3.411251e+001 2.504162e+001 4.249250e+001 9.745479e-001 1.638670e+000 2.715040e+000 4.932662e+000 2.993591e+000 5.805278e+000 6.069285e+000 5.043104e+000 2.748320e+000 2.509994e+000 3.623419e+000 5.050145e+000 1.644441e+000
<GCONST> 1.047086e+002
<STATE> 4
<MEAN> 25
 -2.214889e+000 7.251106e+000 4.091881e+000 5.023266e+000 3.239985e+000 1.507786e+000 9.194779e-001 -1.309165e+000 3.257453e+000 2.434641e+000 -2.354185e+000 -1.799805e+000 -2.473428e-001 -7.590583e-002 1.201306e-001 3.853970e-001 3.407608e-002 2.739014e-001 8.632351e-002 1.498954e-001 1.941795e-001 -6.825242e-002 -6.241050e-002 -2.469228e-001 -2.951559e-001
<VARIANCE> 25
 1.991634e+001 1.949262e+001 2.582726e+001 5.795865e+001 2.169988e+001 3.133898e+001 3.182035e+001 2.344760e+001 2.471725e+001 2.494465e+001 2.412830e+001 2.640789e+001 3.596920e-001 6.069467e-001 8.305589e-001 1.436174e+000 1.692898e+000 2.675266e+000 1.880118e+000 1.995498e+000 2.654800e+000 2.025870e+000 1.689163e+000 1.371946e+000 1.077951e+000
<GCONST> 8.932304e+001
<TRANSP> 5
 0.000000e+000 1.000000e+000 0.000000e+000 0.000000e+000 0.000000e+000
 0.000000e+000 7.721546e-001 2.278453e-001 0.000000e+000 0.000000e+000
 0.000000e+000 0.000000e+000 8.047345e-001 1.952655e-001 0.000000e+000
 0.000000e+000 0.000000e+000 0.000000e+000 8.065469e-001 1.934532e-001
 0.000000e+000 0.000000e+000 0.000000e+000 0.000000e+000 0.000000e+000
<ENDHMM>
~h "ae"
<BEGINHMM>
<NUMSTATES> 5
<STATE> 2
<MEAN> 25
 2.468981e+000 -2.738309e-001 -3.424058e+000 -2.093105e-002 -2.638899e+000 -4.318225e+000 1.153663e+000 -1.226497e+000 -3.326067e+000 -5.141276e+000 -2.642488e+000 -1.997477e+000 -6.006057e-001 1.910148e+000 6.096801e-002 3.073097e-001 -2.694861e-001 -4.383996e-001 7.614813e-001 -5.377733e-001 2.962562e-001 -4.093243e-001 -3.394598e-001 -5.361932e-001 -7.046086e-001
<VARIANCE> 25
 5.947803e+001 1.442386e+002 2.378734e+001 3.172460e+001 4.595764e+001 4.132915e+001 7.669085e+001 4.924552e+001 4.632597e+001 6.739518e+001 5.398721e+001 4.236559e+001 7.991975e+000 6.101448e+000 2.931309e+000 3.842615e+000 6.471938e+000 5.996412e+000 7.929800e+000 4.829443e+000 5.237494e+000 7.571530e+000 6.543275e+000 4.815531e+000 3.203178e+000
<GCONST> 1.151047e+002
<STATE> 3
<MEAN> 25
 -8.408771e+000 2.213403e+000 -2.856707e+000 1.253796e+000 2.137551e+000 -1.720190e+000 3.976294e+000 1.243771e+000 1.185565e+000 2.763238e+000 5.208224e+000 -2.008086e+000 1.298663e+000 -1.187846e+000 -7.307988e-001 -1.196847e+000 2.310175e-001 3.251152e-001 -1.014412e+000 -8.671099e-002 7.454135e-002 3.700039e-001 1.118744e-001 -2.801205e-002 5.187200e-001
<VARIANCE> 25
 1.324255e+002 7.510329e+001 3.763115e+001 5.163933e+001 3.931552e+001 2.505770e+001 6.449484e+001 7.584801e+001 4.312119e+001 5.805596e+001 5.528773e+001 2.677519e+001 7.055911e+000 2.534643e+000 3.346487e+000 5.912565e+000 3.117379e+000 2.457876e+000 4.700128e+000 6.973512e+000 4.338115e+000 6.983501e+000 4.167658e+000 3.078228e+000 3.130320e+000
<GCONST> 1.117362e+002
<STATE> 4
<MEAN> 25
 6.006381e+000 -8.150105e+000 -9.890754e+000 -9.063973e+000 1.795715e+000 -2.075824e+000 -3.296340e+000 7.383246e-001 6.825628e+000 3.084752e+000 -1.690455e+000 -5.053018e+000 -3.276954e-001 -1.508007e-001 8.035669e-002 1.435524e-001 -1.746884e-001 -1.031952e-002 2.819248e-001 1.917107e-001 2.300857e-002 -2.074181e-001 -2.423570e-001 1.267786e-001 3.512827e-001
<VARIANCE> 25
 1.836484e+001 1.835886e+001 1.665990e+001 4.588012e+001 4.231244e+001 2.896081e+001 3.345851e+001 3.684052e+001 4.731729e+001 5.842268e+001 2.475391e+001 2.618898e+001 6.232820e-001 6.130234e-001 8.296794e-001 1.779181e+000 1.779937e+000 1.815968e+000 2.042332e+000 2.051085e+000 2.903162e+000 2.831967e+000 1.213794e+000 1.957237e+000 6.793181e-001
<GCONST> 9.165173e+001
<TRANSP> 5
 0.000000e+000 1.000000e+000 0.000000e+000 0.000000e+000 0.000000e+000
 0.000000e+000 8.134580e-001 1.865421e-001 0.000000e+000 0.000000e+000
 0.000000e+000 0.000000e+000 8.475100e-001 1.524899e-001 0.000000e+000
 0.000000e+000 0.000000e+000 0.000000e+000 8.746856e-001 1.253144e-001
 0.000000e+000 0.000000e+000 0.000000e+000 0.000000e+000 0.000000e+000
<ENDHMM>
~h "ah"
<BEGINHMM>
<NUMSTATES> 5
<STATE> 2
<MEAN> 25
 3.792995e+000 -1.752477e+000 -2.218095e+000 1.262105e+000 2.156945e+000 -5.449057e-003 -4.475217e+000 -3.590066e+000 -7.966671e-001 -1.832422e+000 1.758175e+000 2.719716e-001 3.445476e-001 -3.604835e-001 -5.872261e-002 -2.945405e-001 -5.547847e-001 2.966427e-001 -6.947882e-001 -3.367883e-001 -2.704997e-001 -7.006496e-001 3.080341e-001 5.221085e-002 7.362844e-001
<VARIANCE> 25
 4.200233e+001 4.517753e+001 6.249749e+001 5.737792e+001 5.414701e+001 6.311291e+001 7.977381e+001 5.188826e+001 4.847989e+001 4.131808e+001 4.654237e+001 2.554730e+001 3.612176e+000 2.922782e+000 3.488073e+000 5.094917e+000 6.143139e+000 3.651392e+000 5.089485e+000 4.215930e+000 4.363785e+000 4.812156e+000 3.933189e+000 2.832944e+000 4.244518e+000
<GCONST> 1.111401e+002
<STATE> 3
<MEAN> 25
 4.398926e+000 -3.067183e+000 -7.082630e-001 4.693807e-001 1.097728e+000 -1.902458e+000 -4.679308e+000 -1.968603e-001 -2.613872e+000 -6.133515e+000 6.717467e-001 2.135022e-001 3.722882e-001 9.500929e-001 6.095453e-002 -6.049635e-001 -7.989046e-001 -2.731961e-001 4.620963e-001 4.807026e-001 -5.815388e-002 4.311705e-002 -4.248393e-001 -1.046472e-001 -7.000958e-001
<VARIANCE> 25
 4.150510e+001 5.634768e+001 5.520323e+001 5.922512e+001 7.042438e+001 6.458794e+001 5.573959e+001 7.063356e+001 6.547193e+001 5.096519e+001 4.143243e+001 3.701042e+001 1.483790e+000 2.866600e+000 2.859948e+000 1.927583e+000 4.676252e+000 3.052092e+000 3.258684e+000 5.788104e+000 3.574899e+000 3.300442e+000 3.687315e+000 3.230043e+000 2.341096e+000
<GCONST> 1.084917e+002
<STATE> 4
<MEAN> 25
 6.284001e+000 1.703030e-001 -2.031823e+000 -3.198012e+000 -2.189716e+000 -2.235021e+000 -1.573168e+000 -5.729018e-001 -2.208166e-001 -9.570650e-001 -5.694771e-001 3.608126e-003 -1.977704e-001 9.441857e-002 1.529602e-001 1.679933e-001 -1.584021e-001 -1.793502e-001 3.940451e-001 -2.734536e-002 2.994175e-002 1.962876e-001 -5.313599e-002 -2.101775e-002 -4.256333e-001
<VARIANCE> 25
 2.626399e+001 3.625160e+001 5.612852e+001 4.451938e+001 7.424576e+001 6.173974e+001 6.100729e+001 4.322404e+001 3.934790e+001 3.092059e+001 3.963586e+001 4.213599e+001 5.867469e-001 1.199678e+000 1.366920e+000 1.441498e+000 2.580073e+000 1.987345e+000 2.267986e+000 2.126003e+000 1.700042e+000 1.606248e+000 2.232823e+000 1.889367e+000 7.607076e-001
<GCONST> 9.716682e+001
<TRANSP> 5
 0.000000e+000 1.000000e+000 0.000000e+000 0.000000e+000 0.000000e+000
 0.000000e+000 6.291761e-001 3.708239e-001 0.000000e+000 0.000000e+000
 0.000000e+000 0.000000e+000 5.358189e-001 4.641812e-001 0.000000e+000
 0.000000e+000 0.000000e+000 0.000000e+000 7.026746e-001 2.973254e-001
 0.000000e+000 0.000000e+000 0.000000e+000 0.000000e+000 0.000000e+000
<ENDHMM>
~h "ao"
<BEGINHMM>
<NUMSTATES> 5
<STATE> 2
<MEAN> 25
 4.150305e+000 1.858896e+000 -5.474455e+000 -1.310963e+000 -3.324303e+000 2.704454e-003 2.024772e+000 -1.040887e+000 -2.982386e+000 -3.204003e+000 1.738923e+000 -1.496505e+000 3.139790e+000 7.619257e-001 -7.613378e-001 -3.011585e+000 -2.387198e+000 6.577958e-001 -3.268835e-001 -7.023633e-001 -1.396933e+000 -8.716627e-001 1.131948e+000 -2.319988e-001 3.075530e+000
<VARIANCE> 25
 5.081730e+001 2.375932e+001 2.358004e+001 6.838454e+001 6.168459e+001 4.104869e+001 4.845150e+001 5.976660e+001 3.697615e+001 3.436786e+001 4.159437e+001 2.181709e+001 5.821595e+000 2.970941e+000 2.557775e+000 5.350767e+000 4.183783e+000 7.782283e+000 4.729694e+000 6.639561e+000 4.766105e+000 2.811255e+000 7.433393e+000 2.221540e+000 3.503236e+000
<GCONST> 1.092444e+002
<STATE> 3
<MEAN> 25
 3.055252e+000 -5.613188e+000 -7.372104e+000 -5.027824e+000 -3.356519e+000 3.633803e+000 9.436907e+000 1.045537e+000 -3.952409e+000 -3.288243e+000 5.967047e-001 3.033788e-002 5.502564e-001 -2.187332e-001 -2.081125e-001 -7.683727e-001 -2.078943e-002 9.996741e-001 -5.942025e-001 -1.814577e-001 6.002222e-001 -2.124414e-002 2.063473e-001 -4.852523e-001 1.735775e-001
<VARIANCE> 25
 3.804523e+001 3.286420e+001 9.487761e+000 4.127887e+001 2.740101e+001 5.377964e+001 1.045780e+002 7.272712e+001 3.083365e+001 7.608930e+000 3.178419e+001 1.916322e+001 1.106082e+000 2.397510e-001 6.622410e-001 2.258006e+000 1.608178e+000 6.785974e+000 1.378201e+000 2.240177e+000 8.442414e-001 1.005689e+000 1.075842e+000 1.777849e+000 8.717305e-001
<GCONST> 9.009036e+001
<STATE> 4
<MEAN> 25
 1.355533e+001 3.167379e+000 -6.468395e+000 -1.315503e+001 -9.908002e+000 1.139627e+001 -3.508226e+000 -6.511911e+000 -2.595020e+000 -2.876634e+000 4.723547e+000 -6.410312e-001 -1.237296e-001 -4.881322e-002 -4.423013e-002 3.545214e-001 1.623618e-001 5.509976e-002 -2.836915e-001 1.995404e-001 2.654055e-001 2.408484e-001 -2.065275e-001 -5.457754e-002 -8.360789e-002
<VARIANCE> 25
 1.038159e+001 1.789880e+001 2.972626e+001 5.827298e+001 3.095583e+001 6.092887e+001 2.491036e+001 4.511924e+001 1.826407e+001 1.380456e+001 2.827384e+001 3.152633e+001 2.865638e-001 7.404844e-001 1.028561e+000 2.588901e+000 1.515483e+000 2.763718e+000 1.677018e+000 1.617345e+000 1.567775e+000 1.272866e+000 1.467651e+000 1.669930e+000 3.388005e-001
<GCONST> 8.788271e+001
<TRANSP> 5
 0.000000e+000 1.000000e+000 0.000000e+000 0.000000e+000 0.000000e+000
 0.000000e+000 7.443255e-001 2.556746e-001 0.000000e+000 0.000000e+000
 0.000000e+000 0.000000e+000 7.411960e-001 2.588040e-001 0.000000e+000
 0.000000e+000 0.000000e+000 0.000000e+000 9.312692e-001 6.873078e-002
 0.000000e+000 0.000000e+000 0.000000e+000 0.000000e+000 0.000000e+000
<ENDHMM>
~h "aw"
<BEGINHMM>
<NUMSTATES> 5
<STATE> 2
<MEAN> 25
 4.154210e+000 -1.723048e+000 -2.879789e+000 -1.516302e+000 4.966587e+000 -3.679031e-001 -8.774978e+000 -2.134001e+000 -1.459228e+000 -7.667418e-001 2.314008e+000 1.569457e+000 4.846587e-001 -1.201030e+000 -5.392460e-001 -4.665295e-001 5.969435e-001 1.517913e+000 -1.036758e+000 5.359110e-001 1.402708e-002 -3.990000e-002 3.628753e-001 -9.183878e-001 2.686605e+000
<VARIANCE> 25
 4.382174e+001 6.685493e+001 3.322191e+001 4.770914e+001 3.380575e+001 7.447757e+001 8.745556e+001 3.471047e+001 6.020621e+001 2.195129e+001 4.490882e+001 4.365226e+001 4.239805e+000 5.059294e+000 2.694793e+000 4.450013e+000 4.173222e+000 6.879982e+000 8.001418e+000 4.173520e+000 4.813288e+000 2.086739e+000 4.922675e+000 5.771780e+000 9.750871e+000
<GCONST> 1.122615e+002
<STATE> 3
<MEAN> 25
 1.631652e+000 -1.108301e+001 -8.494401e+000 -4.733284e+000 9.429437e+000 1.172796e+001 -8.297549e+000 -3.462729e-001 2.575288e+000 8.332886e-001 3.737334e+000 -4.256245e+000 4.316092e-001 2.388564e-001 4.582216e-002 -8.725700e-001 -5.019124e-001 4.281317e-001 1.916354e-001 -3.270032e-001 -3.151903e-001 5.652384e-001 -1.703978e-001 -6.280368e-001 -1.224815e-001
<VARIANCE> 25
 3.047268e+001 7.556241e+000 1.493797e+001 2.101409e+001 3.400266e+001 3.123095e+001 4.477238e+001 3.435522e+001 5.145710e+001 2.640588e+001 5.576067e+001 4.078835e+001 8.593358e-001 6.613057e-001 1.013599e+000 1.812254e+000 2.151697e+000 3.228283e+000 3.739514e+000 2.659905e+000 1.704608e+000 1.740118e+000 3.943770e+000 2.273253e+000 6.283082e-001
<GCONST> 9.347954e+001
<STATE> 4
<MEAN> 25
 9.467999e+000 -2.485075e+000 -7.269743e+000 -1.417452e+001 1.173083e+000 7.341430e+000 -1.013436e+001 -2.365975e+000 -3.566203e+000 6.425906e+000 4.894337e+000 -2.357298e+000 -1.202881e-001 1.379503e+000 1.221563e-003 1.523463e-001 -1.424318e-001 -1.305988e+000 -2.400960e-001 -4.389201e-001 2.471343e-001 -1.809993e-001 6.176097e-002 1.589098e+000 -5.802822e-001
<VARIANCE> 25
 1.166236e+001 2.472275e+001 2.110665e+001 4.065142e+001 1.974871e+001 6.479084e+001 5.219845e+001 2.278727e+001 3.123236e+001 2.770090e+001 3.323695e+001 4.665390e+001 1.207880e+000 1.082416e+000 1.553893e+000 4.869133e+000 2.598546e+000 7.052519e+000 4.708045e+000 2.209364e+000 2.770629e+000 4.029067e+000 2.302896e+000 2.653080e+000 4.156811e-001
<GCONST> 9.759721e+001
<TRANSP> 5
 0.000000e+000 1.000000e+000 0.000000e+000 0.000000e+000 0.000000e+000
 0.000000e+000 8.416014e-001 1.583986e-001 0.000000e+000 0.000000e+000
 0.000000e+000 0.000000e+000 8.869894e-001 1.130106e-001 0.000000e+000
 0.000000e+000 0.000000e+000 0.000000e+000 8.635041e-001 1.364959e-001
 0.000000e+000 0.000000e+000 0.000000e+000 0.000000e+000 0.000000e+000
<ENDHMM>
~h "ay"
<BEGINHMM>
<NUMSTATES> 5
<STATE> 2
<MEAN> 25
 8.872138e+000 -3.417844e+000 -9.878804e+000 -3.817431e+000 -5.364024e+000 -2.895183e+000 -2.003468e+000 -4.879692e+000 3.300815e+000 -3.355568e+000 6.601075e+000 2.791294e+000 -3.498613e-001 8.818050e-002 2.460459e-001 1.212416e+000 6.465705e-001 -4.250712e-001 -7.892164e-001 -1.491980e+000 -5.566884e-001 8.344156e-002 7.203074e-001 1.530660e-001 -2.726533e-001
<VARIANCE> 25
 1.495080e+001 1.995088e+001 3.383741e+001 4.980076e+001 4.759019e+001 2.604523e+001 7.303384e+001 6.102497e+001 1.704286e+001 2.250365e+001 2.634200e+001 4.307201e+001 7.149987e-001 7.240250e-001 3.355045e+000 2.306861e+000 2.989748e+000 1.897399e+000 6.419551e+000 2.236711e+000 2.483622e+000 1.682630e+000 1.972885e+000 2.722920e+000 4.830248e-001
<GCONST> 9.575424e+001
<STATE> 3
<MEAN> 25
 5.900203e+000 -2.128282e+000 -3.004921e+000 4.598855e+000 2.567981e+000 -4.462990e+000 -9.275239e+000 -9.546574e+000 -8.585779e-001 -5.979611e+000 5.593432e+000 -4.395822e-001 -3.492146e-001 4.396096e-001 1.118860e+000 1.118033e+000 9.054152e-001 1.499517e-001 1.736706e-001 1.036902e+000 -7.965322e-001 -5.551789e-001 -1.428144e+000 -6.607691e-001 -1.130482e+000
<VARIANCE> 25
 1.619154e+001 1.707027e+001 2.797732e+001 2.133375e+001 6.590308e+001 3.144928e+001 7.382738e+001 4.322706e+001 3.321439e+001 3.461547e+001 3.112788e+001 1.889922e+001 6.383387e-001 6.389160e-001 1.904870e+000 1.887745e+000 5.830760e+000 1.675052e+000 5.868435e+000 2.460899e+000 1.985022e+000 2.181704e+000 1.562258e+000 2.916593e+000 8.837441e-001
<GCONST> 9.528043e+001
<STATE> 4
<MEAN> 25
 2.362385e+000 -2.100780e+000 2.260088e-001 6.117768e+000 9.900127e+000 1.207482e+000 -8.197155e+000 -7.430108e+000 -2.212950e+000 -2.905024e+000 1.305363e+000 -1.909613e+000 -1.447171e-001 2.182263e-001 -2.779831e-002 -5.780952e-001 -9.877791e-001 4.250047e-002 1.358487e+000 5.650067e-001 1.262667e-003 9.465794e-001 -1.436180e-001 -1.439574e-001 -7.085853e-001
<VARIANCE> 25
 2.141703e+001 2.782700e+001 4.681916e+001 2.709905e+001 6.956549e+001 3.062665e+001 7.258587e+001 5.456136e+001 3.645411e+001 5.586693e+001 2.400644e+001 1.931220e+001 1.197500e+000 9.274646e-001 2.844354e+000 2.993287e+000 4.872476e+000 1.964085e+000 5.212412e+000 4.368336e+000 1.944938e+000 4.815998e+000 1.754015e+000 2.538013e+000 2.403324e+000
<GCONST> 1.014272e+002
<TRANSP> 5
 0.000000e+000 1.000000e+000 0.000000e+000 0.000000e+000 0.000000e+000
 0.000000e+000 7.613925e-001 2.386075e-001 0.000000e+000 0.000000e+000
 0.000000e+000 0.000000e+000 6.874462e-001 3.125539e-001 0.000000e+000
 0.000000e+000 0.000000e+000 0.000000e+000 7.377436e-001 2.622564e-001
 0.000000e+000 0.000000e+000 0.000000e+000 0.000000e+000 0.000000e+000
<ENDHMM>
~h "ch"
<BEGINHMM>
<NUMSTATES> 5
<STATE> 2
<MEAN> 25
 -1.118406e-008 6.902663e-008 -6.127934e-008 -1.132241e-009 1.805760e-009 2.941641e-009 -3.920247e-008 -3.669770e-009 -5.191560e-008 -1.454802e-008 -2.627090e-008 3.876559e-008 2.510028e-002 3.968836e-004 8.013876e-003 -9.237975e-003 8.363929e-003 -6.403908e-003 3.811424e-003 -9.137135e-003 -5.245406e-003 -8.095243e-003 -3.207545e-003 -3.381838e-003 3.557804e-002
<VARIANCE> 25
 6.664439e+001 4.403650e+001 5.783500e+001 5.743623e+001 6.515208e+001 5.500425e+001 5.372772e+001 4.345287e+001 4.255812e+001 4.180091e+001 3.585940e+001 3.108589e+001 1.968051e+000 1.809448e+000 1.938954e+000 2.304791e+000 2.836484e+000 2.744093e+000 2.863587e+000 2.754002e+000 2.523799e+000 2.575277e+000 2.427561e+000 2.158062e+000 2.903915e+000
<GCONST> 1.039577e+002
<STATE> 3
<MEAN> 25
 -1.118406e-008 6.902663e-008 -6.127934e-008 -1.132241e-009 1.805760e-009 2.941641e-009 -3.920247e-008 -3.669770e-009 -5.191560e-008 -1.454802e-008 -2.627090e-008 3.876559e-008 2.510028e-002 3.968836e-004 8.013876e-003 -9.237975e-003 8.363929e-003 -6.403908e-003 3.811424e-003 -9.137135e-003 -5.245406e-003 -8.095243e-003 -3.207545e-003 -3.381838e-003 3.557804e-002
<VARIANCE> 25
 6.664439e+001 4.403650e+001 5.783500e+001 5.743623e+001 6.515208e+001 5.500425e+001 5.372772e+001 4.345287e+001 4.255812e+001 4.180091e+001 3.585940e+001 3.108589e+001 1.968051e+000 1.809448e+000 1.938954e+000 2.304791e+000 2.836484e+000 2.744093e+000 2.863587e+000 2.754002e+000 2.523799e+000 2.575277e+000 2.427561e+000 2.158062e+000 2.903915e+000
<GCONST> 1.039577e+002
<STATE> 4
<MEAN> 25
 -1.118406e-008 6.902663e-008 -6.127934e-008 -1.132241e-009 1.805760e-009 2.941641e-009 -3.920247e-008 -3.669770e-009 -5.191560e-008 -1.454802e-008 -2.627090e-008 3.876559e-008 2.510028e-002 3.968836e-004 8.013876e-003 -9.237975e-003 8.363929e-003 -6.403908e-003 3.811424e-003 -9.137135e-003 -5.245406e-003 -8.095243e-003 -3.207545e-003 -3.381838e-003 3.557804e-002
<VARIANCE> 25
 6.664439e+001 4.403650e+001 5.783500e+001 5.743623e+001 6.515208e+001 5.500425e+001 5.372772e+001 4.345287e+001 4.255812e+001 4.180091e+001 3.585940e+001 3.108589e+001 1.968051e+000 1.809448e+000 1.938954e+000 2.304791e+000 2.836484e+000 2.744093e+000 2.863587e+000 2.754002e+000 2.523799e+000 2.575277e+000 2.427561e+000 2.158062e+000 2.903915e+000
<GCONST> 1.039577e+002
<TRANSP> 5
 0.000000e+000 1.000000e+000 0.000000e+000 0.000000e+000 0.000000e+000
 0.000000e+000 6.000000e-001 4.000000e-001 0.000000e+000 0.000000e+000
 0.000000e+000 0.000000e+000 6.000000e-001 4.000000e-001 0.000000e+000
 0.000000e+000 0.000000e+000 0.000000e+000 7.000000e-001 3.000000e-001
 0.000000e+000 0.000000e+000 0.000000e+000 0.000000e+000 0.000000e+000
<ENDHMM>
~h "dh"
<BEGINHMM>
<NUMSTATES> 5
<STATE> 2
<MEAN> 25
 -1.118406e-008 6.902663e-008 -6.127934e-008 -1.132241e-009 1.805760e-009 2.941641e-009 -3.920247e-008 -3.669770e-009 -5.191560e-008 -1.454802e-008 -2.627090e-008 3.876559e-008 2.510028e-002 3.968836e-004 8.013876e-003 -9.237975e-003 8.363929e-003 -6.403908e-003 3.811424e-003 -9.137135e-003 -5.245406e-003 -8.095243e-003 -3.207545e-003 -3.381838e-003 3.557804e-002
<VARIANCE> 25
 6.664439e+001 4.403650e+001 5.783500e+001 5.743623e+001 6.515208e+001 5.500425e+001 5.372772e+001 4.345287e+001 4.255812e+001 4.180091e+001 3.585940e+001 3.108589e+001 1.968051e+000 1.809448e+000 1.938954e+000 2.304791e+000 2.836484e+000 2.744093e+000 2.863587e+000 2.754002e+000 2.523799e+000 2.575277e+000 2.427561e+000 2.158062e+000 2.903915e+000
<GCONST> 1.039577e+002
<STATE> 3
<MEAN> 25
 -1.118406e-008 6.902663e-008 -6.127934e-008 -1.132241e-009 1.805760e-009 2.941641e-009 -3.920247e-008 -3.669770e-009 -5.191560e-008 -1.454802e-008 -2.627090e-008 3.876559e-008 2.510028e-002 3.968836e-004 8.013876e-003 -9.237975e-003 8.363929e-003 -6.403908e-003 3.811424e-003 -9.137135e-003 -5.245406e-003 -8.095243e-003 -3.207545e-003 -3.381838e-003 3.557804e-002
<VARIANCE> 25
 6.664439e+001 4.403650e+001 5.783500e+001 5.743623e+001 6.515208e+001 5.500425e+001 5.372772e+001 4.345287e+001 4.255812e+001 4.180091e+001 3.585940e+001 3.108589e+001 1.968051e+000 1.809448e+000 1.938954e+000 2.304791e+000 2.836484e+000 2.744093e+000 2.863587e+000 2.754002e+000 2.523799e+000 2.575277e+000 2.427561e+000 2.158062e+000 2.903915e+000
<GCONST> 1.039577e+002
<STATE> 4
<MEAN> 25
 -1.118406e-008 6.902663e-008 -6.127934e-008 -1.132241e-009 1.805760e-009 2.941641e-009 -3.920247e-008 -3.669770e-009 -5.191560e-008 -1.454802e-008 -2.627090e-008 3.876559e-008 2.510028e-002 3.968836e-004 8.013876e-003 -9.237975e-003 8.363929e-003 -6.403908e-003 3.811424e-003 -9.137135e-003 -5.245406e-003 -8.095243e-003 -3.207545e-003 -3.381838e-003 3.557804e-002
<VARIANCE> 25
 6.664439e+001 4.403650e+001 5.783500e+001 5.743623e+001 6.515208e+001 5.500425e+001 5.372772e+001 4.345287e+001 4.255812e+001 4.180091e+001 3.585940e+001 3.108589e+001 1.968051e+000 1.809448e+000 1.938954e+000 2.304791e+000 2.836484e+000 2.744093e+000 2.863587e+000 2.754002e+000 2.523799e+000 2.575277e+000 2.427561e+000 2.158062e+000 2.903915e+000
<GCONST> 1.039577e+002
<TRANSP> 5
 0.000000e+000 1.000000e+000 0.000000e+000 0.000000e+000 0.000000e+000
 0.000000e+000 6.000000e-001 4.000000e-001 0.000000e+000 0.000000e+000
 0.000000e+000 0.000000e+000 6.000000e-001 4.000000e-001 0.000000e+000
 0.000000e+000 0.000000e+000 0.000000e+000 7.000000e-001 3.000000e-001
 0.000000e+000 0.000000e+000 0.000000e+000 0.000000e+000 0.000000e+000
<ENDHMM>
~h "eh"
<BEGINHMM>
<NUMSTATES> 5
<STATE> 2
<MEAN> 25
 1.710727e+000 -3.495095e+000 1.468089e+000 3.968272e+000 -2.413497e+000 -5.713850e+000 4.905091e-001 1.517575e+000 1.064451e+000 -1.561977e+000 4.527767e+000 2.422068e-001 -8.180084e-001 -1.587939e+000 8.786266e-001 -5.022346e-001 -8.668643e-001 6.996934e-001 2.460609e-001 1.304266e+000 3.765495e-001 -1.085988e-001 -2.141432e-002 2.114604e-001 6.612173e-001
<VARIANCE> 25
 4.685585e+001 3.899627e+001 2.584900e+001 2.260069e+001 8.226749e+001 9.372702e+001 4.749236e+001 7.662302e+001 5.561444e+001 4.307217e+001 3.827786e+001 1.929012e+001 4.336489e+000 3.353263e+000 3.648972e+000 2.316774e+000 6.576239e+000 6.136447e+000 6.623594e+000 6.922707e+000 6.263891e+000 6.253791e+000 5.082372e+000 1.867036e+000 9.967940e+000
<GCONST> 1.119156e+002
<STATE> 3
<MEAN> 25
 5.473843e-001 -1.062308e+001 6.255914e+000 3.817212e+000 -5.339483e+000 -3.818924e+000 -3.822592e+000 7.030701e+000 -4.654658e-001 -3.853423e+000 4.579115e+000 1.142602e+000 1.376251e-001 4.122016e-001 3.347639e-001 -4.847327e-001 2.833376e-001 2.924172e-001 3.083923e-001 -4.859844e-001 -1.035283e+000 1.514581e-001 -4.080164e-002 -1.847637e-001 -1.562361e-001
<VARIANCE> 25
 8.711913e+001 6.309339e+001 3.064042e+001 2.273061e+001 8.501934e+001 7.613107e+001 5.793874e+001 5.667286e+001 9.776123e+001 3.981382e+001 3.054086e+001 2.376360e+001 2.564536e+000 3.238932e+000 3.455699e+000 3.275856e+000 1.934102e+000 1.924436e+000 3.638109e+000 2.136671e+000 4.564653e+000 2.336002e+000 1.900438e+000 1.480599e+000 6.699166e-001
<GCONST> 1.037402e+002
<STATE> 4
<MEAN> 25
 -1.355310e+000 5.130838e+000 8.316353e+000 5.083885e+000 -7.796829e-001 9.311884e-001 -1.160359e+000 -1.647613e+000 -2.855948e+000 -1.184919e-001 -4.630219e+000 -3.941843e+000 -8.266559e-002 2.535127e-001 -1.187343e-001 1.372710e-002 9.576584e-002 3.358694e-001 -2.203932e-002 -3.009622e-001 8.924324e-002 9.116989e-002 -3.632953e-001 3.513986e-003 -4.003207e-001
<VARIANCE> 25
 2.180217e+001 5.798233e+001 5.380726e+001 3.519017e+001 4.311133e+001 3.929868e+001 3.246463e+001 2.973324e+001 7.992665e+001 2.293670e+001 4.561116e+001 1.611945e+001 3.788662e-001 4.760390e-001 6.065123e-001 8.280447e-001 9.119653e-001 1.600360e+000 1.206657e+000 1.824564e+000 1.106546e+000 1.709160e+000 1.297900e+000 1.066957e+000 2.349298e-001
<GCONST> 8.733673e+001
<TRANSP> 5
 0.000000e+000 1.000000e+000 0.000000e+000 0.000000e+000 0.000000e+000
 0.000000e+000 7.178048e-001 2.821952e-001 0.000000e+000 0.000000e+000
 0.000000e+000 0.000000e+000 7.478227e-001 2.521773e-001 0.000000e+000
 0.000000e+000 0.000000e+000 0.000000e+000 8.357680e-001 1.642320e-001
 0.000000e+000 0.000000e+000 0.000000e+000 0.000000e+000 0.000000e+000
<ENDHMM>
~h "er"
<BEGINHMM>
<NUMSTATES> 5
<STATE> 2
<MEAN> 25
 9.883816e+000 -1.328783e+000 -6.127235e+000 3.872419e+000 -3.989678e+000 -6.998525e+000 -8.015838e+000 1.559939e+000 3.274276e+000 -1.595691e+000 -2.677611e-001 -1.961297e+000 2.344308e-002 1.531303e-001 2.573600e-002 1.910750e-001 1.933085e-001 -3.072386e-001 1.196673e-001 2.946519e-001 1.842606e-001 -2.833133e-001 -2.224132e-001 1.836798e-001 -3.386241e-001
<VARIANCE> 25
 2.852243e+001 2.334091e+001 4.072142e+001 4.170927e+001 4.149812e+001 6.366391e+001 4.966485e+001 3.674389e+001 3.014540e+001 3.752337e+001 1.895466e+001 3.695576e+001 1.967270e+000 9.414340e-001 2.135341e+000 2.145954e+000 2.812320e+000 3.481678e+000 3.668941e+000 2.669213e+000 1.721817e+000 1.990329e+000 1.640907e+000 1.942816e+000 1.847983e+000
<GCONST> 9.856348e+001
<STATE> 3
<MEAN> 25
 9.093980e-001 -2.889143e+000 -4.521866e-001 5.556974e+000 3.998126e+000 -2.407625e+000 -7.100132e-001 6.916603e+000 4.325214e+000 -4.448905e+000 -2.699672e+000 7.106549e-001 -7.289692e-001 -3.000605e-001 2.315579e-001 -4.050425e-001 5.479943e-001 7.284768e-001 8.332895e-001 -3.826990e-003 -1.154480e-001 3.374366e-001 -5.051608e-002 8.507341e-003 -5.325985e-001
<VARIANCE> 25
 4.349273e+001 6.718552e+001 3.146145e+001 6.844943e+001 2.879601e+001 4.197045e+001 3.798940e+001 5.219752e+001 2.612449e+001 2.949330e+001 1.876510e+001 2.374656e+001 2.234575e+000 2.152371e+000 1.407355e+000 2.503650e+000 2.858556e+000 2.422413e+000 2.071963e+000 3.018715e+000 2.455637e+000 1.970803e+000 1.538621e+000 1.328642e+000 5.758281e-001
<GCONST> 9.737627e+001
<STATE> 4
<MEAN> 25
 -2.747108e+000 -1.666021e+000 -1.698719e+000 -5.773186e-001 3.067038e+000 2.652418e+000 2.591161e+000 7.129652e-001 1.362484e+000 2.289116e+000 6.564725e-001 6.680484e-001 -4.337128e-002 3.178850e-002 5.615843e-002 3.407412e-003 -4.494024e-003 3.276393e-002 6.131551e-003 -8.827931e-002 -3.544534e-002 4.491713e-002 4.634343e-002 5.529079e-002 -6.539109e-002
<VARIANCE> 25
 5.290038e+000 1.118886e+001 1.070767e+001 1.283329e+001 1.113919e+001 1.786099e+001 1.331551e+001 1.642900e+001 1.367897e+001 1.576820e+001 1.603938e+001 1.527248e+001 1.837848e-001 4.370320e-001 5.110689e-001 7.577296e-001 9.194137e-001 1.087201e+000 1.045387e+000 1.357623e+000 1.218001e+000 1.417458e+000 1.452432e+000 1.081391e+000 1.428716e-001
<GCONST> 7.243774e+001
<TRANSP> 5
 0.000000e+000 1.000000e+000 0.000000e+000 0.000000e+000 0.000000e+000
 0.000000e+000 8.373063e-001 1.626936e-001 0.000000e+000 0.000000e+000
 0.000000e+000 0.000000e+000 7.722570e-001 2.277430e-001 0.000000e+000
 0.000000e+000 0.000000e+000 0.000000e+000 9.331793e-001 6.682073e-002
 0.000000e+000 0.000000e+000 0.000000e+000 0.000000e+000 0.000000e+000
<ENDHMM>
~h "ey"
<BEGINHMM>
<NUMSTATES> 5
<STATE> 2
<MEAN> 25
 -1.713502e-001 -3.803314e+000 5.004882e+000 -2.374434e+000 -6.435940e+000 -2.811872e+000 1.326821e+000 -3.339024e-001 2.829791e-001 5.905795e-001 1.546750e-001 -1.436027e+000 1.500625e+000 1.186272e-001 1.154268e+000 -3.916214e-001 -1.501258e+000 -1.247312e+000 -2.826134e-001 -3.662728e-001 -8.835448e-001 -4.493878e-002 1.039118e+000 1.371558e-001 9.687248e-001
<VARIANCE> 25
 4.202265e+001 3.210554e+001 3.607694e+001 5.308793e+001 4.408517e+001 5.376564e+001 7.275741e+001 4.204733e+001 2.181750e+001 5.097836e+001 5.078090e+001 3.819868e+001 5.406094e+000 4.145477e+000 3.033391e+000 2.189728e+000 5.245149e+000 5.037349e+000 4.195806e+000 3.431120e+000 3.212372e+000 3.180381e+000 2.949258e+000 1.963535e+000 2.969944e+000
<GCONST> 1.072059e+002
<STATE> 3
<MEAN> 25
 3.879008e+000 -5.980037e+000 1.035779e+001 -1.329422e+000 -1.260035e+001 -7.307076e+000 -4.081587e+000 3.117716e+000 -4.582476e+000 -2.248412e+000 8.424606e+000 1.090186e+000 -3.068074e-001 4.499219e-001 2.974209e-001 -9.912507e-001 -6.212377e-001 6.882167e-001 -4.129315e-002 -4.575174e-001 -3.562410e-001 3.310908e-001 1.509309e-001 -4.274697e-001 1.995731e-001
<VARIANCE> 25
 1.099508e+001 1.346578e+001 2.519708e+001 3.511468e+001 3.677999e+001 4.762511e+001 6.322506e+001 4.539865e+001 2.590651e+001 3.462318e+001 3.290818e+001 2.093750e+001 3.541005e-001 7.931585e-001 1.824973e+000 1.067291e+000 2.622216e+000 2.197796e+000 2.942647e+000 3.269090e+000 2.863408e+000 2.161941e+000 1.780874e+000 1.582211e+000 6.906977e-001
<GCONST> 9.239562e+001
<STATE> 4
<MEAN> 25
 2.391230e+000 1.823731e+000 1.280961e+001 -4.555634e+000 -1.115784e+001 -2.328486e+000 -5.846809e+000 -3.527630e+000 -9.555152e+000 -5.557374e-001 4.349039e+000 -1.928810e+000 3.885799e-002 6.687770e-001 6.086709e-002 5.580449e-001 4.589011e-001 -5.671941e-002 -4.506498e-003 -8.203731e-002 -2.440611e-001 1.435347e-001 -5.410789e-001 2.611520e-002 -8.283503e-001
<VARIANCE> 25
 1.301871e+001 2.329067e+001 4.427326e+001 2.836034e+001 3.716502e+001 5.639132e+001 4.657825e+001 4.178442e+001 5.107167e+001 4.694751e+001 3.772280e+001 5.713454e+001 4.199369e-001 1.199357e+000 1.925640e+000 1.393950e+000 2.345779e+000 2.039271e+000 2.888568e+000 2.862728e+000 1.994053e+000 2.029412e+000 1.899309e+000 2.956373e+000 8.322663e-001
<GCONST> 9.639506e+001
<TRANSP> 5
 0.000000e+000 1.000000e+000 0.000000e+000 0.000000e+000 0.000000e+000
 0.000000e+000 6.987270e-001 3.012729e-001 0.000000e+000 0.000000e+000
 0.000000e+000 0.000000e+000 8.001336e-001 1.998664e-001 0.000000e+000
 0.000000e+000 0.000000e+000 0.000000e+000 9.004416e-001 9.955828e-002
 0.000000e+000 0.000000e+000 0.000000e+000 0.000000e+000 0.000000e+000
<ENDHMM>
~h "hh"
<BEGINHMM>
<NUMSTATES> 5
<STATE> 2
<MEAN> 25
 -1.974139e+000 -1.068384e+001 -9.445426e+000 3.742144e-002 7.294997e+000 -1.699856e+000 1.810452e+000 -1.810296e+000 3.229427e+000 -3.465508e+000 4.558545e-001 3.955611e+000 2.137890e-001 -6.691039e-001 1.466707e-001 -2.241183e-001 9.258236e-001 8.841923e-001 -2.341749e-003 -2.555262e-001 -6.362505e-002 1.921422e-001 2.106120e-001 -5.533852e-002 -4.566590e-001
<VARIANCE> 25
 3.703141e+001 3.461133e+001 1.028185e+002 5.600293e+001 3.441062e+001 3.667838e+001 1.447223e+001 3.656684e+001 6.155152e+001 3.133956e+001 4.312688e+001 5.111500e+001 1.854320e+000 3.103145e+000 1.416284e+000 1.806067e+000 2.839779e+000 1.936692e+000 7.225013e-001 2.784754e+000 4.601600e+000 4.434973e+000 5.804987e+000 6.104812e+000 2.808373e+000
<GCONST> 1.031454e+002
<STATE> 3
<MEAN> 25
 -7.841932e-001 -1.327094e+001 -4.584854e+000 1.170672e+000 1.570746e+001 1.684937e+000 -3.116881e-001 -2.785266e+000 -1.635807e+000 9.326316e-001 4.659431e+000 -1.951022e+000 4.328004e-001 -1.251586e-002 -3.894993e-001 -4.223231e-001 -3.901917e-001 -1.930444e-001 -1.918236e-001 -2.516912e-001 -8.257106e-002 1.315777e-001 -5.722534e-002 -5.417457e-001 1.616600e+000
<VARIANCE> 25
 2.984007e+001 2.082721e+001 3.744417e+001 2.949004e+001 3.460969e+001 6.147923e+001 1.726392e+001 3.743374e+001 1.519374e+001 2.438295e+001 2.867997e+001 4.305379e+001 3.838924e+000 2.441297e+000 3.068257e+000 2.536810e+000 4.897426e+000 2.785900e+000 2.466958e+000 4.702276e+000 2.413924e+000 2.001162e+000 1.747335e+000 2.555278e+000 2.504026e+000
<GCONST> 9.989657e+001
<STATE> 4
<MEAN> 25
 -2.686001e+000 2.101300e+000 1.447010e+000 7.325954e+000 6.124665e+000 3.328719e+000 1.980303e+000 -7.096446e-002 9.346622e-001 -6.337376e-002 -1.221907e+000 3.226681e-002 1.017112e-003 -1.948383e-001 -6.518941e-002 -7.189747e-004 -2.360381e-001 -1.469782e-001 1.461638e-001 1.213779e-001 -2.469589e-001 -2.536118e-001 2.261646e-001 -8.686286e-002 4.695690e-001
<VARIANCE> 25
 1.051474e+001 1.263789e+002 6.421242e+001 4.328448e+001 2.144891e+001 1.347255e+001 1.778337e+001 1.898673e+001 2.566986e+001 1.862797e+001 5.401953e+001 2.798930e+001 9.075168e-001 2.016318e+000 2.688451e+000 2.266755e+000 2.419564e+000 1.418510e+000 2.263602e+000 2.060327e+000 1.284986e+000 2.623877e+000 2.103333e+000 2.857802e+000 2.457745e+000
<GCONST> 9.514124e+001
<TRANSP> 5
 0.000000e+000 1.000000e+000 0.000000e+000 0.000000e+000 0.000000e+000
 0.000000e+000 8.530287e-001 1.469713e-001 0.000000e+000 0.000000e+000
 0.000000e+000 0.000000e+000 8.780813e-001 1.219187e-001 0.000000e+000
 0.000000e+000 0.000000e+000 0.000000e+000 9.085153e-001 9.148467e-002
 0.000000e+000 0.000000e+000 0.000000e+000 0.000000e+000 0.000000e+000
<ENDHMM>
~h "ih"
<BEGINHMM>
<NUMSTATES> 5
<STATE> 2
<MEAN> 25
 9.608624e-001 3.448090e+000 2.379573e+000 1.609287e+000 -4.168474e+000 -5.763402e+000 -5.534651e-001 -2.342353e+000 -1.941288e+000 -2.518355e+000 -1.144493e+000 -5.402219e-001 1.204886e-001 9.373814e-002 1.716602e-001 -1.961549e-002 2.442765e-001 1.000635e-001 -3.378582e-001 -3.387403e-001 -3.198332e-001 -5.218152e-002 7.157042e-002 1.101874e-002 4.771329e-002
<VARIANCE> 25
 6.590881e+001 2.319787e+001 4.215311e+001 1.712222e+001 6.322668e+001 5.936546e+001 3.462009e+001 2.678778e+001 3.971588e+001 2.562981e+001 1.857281e+001 2.603666e+001 3.382501e+000 1.577236e+000 2.633442e+000 1.559315e+000 4.307271e+000 2.549351e+000 4.543020e+000 2.021265e+000 3.633120e+000 2.129380e+000 1.603089e+000 2.452133e+000 1.988997e+000
<GCONST> 9.983321e+001
<STATE> 3
<MEAN> 25
 2.723478e+000 1.476472e+000 4.474936e+000 7.116281e+000 6.891275e+000 -6.646339e-001 -7.900632e+000 -3.226682e+000 1.174774e+000 -3.887276e+000 -1.218374e+000 -2.142657e+000 -5.012245e-001 -2.328390e-001 1.097945e-001 -1.149889e-001 3.169580e-002 2.639049e-001 4.569545e-001 3.621026e-001 4.445535e-001 5.546935e-001 1.201594e-003 -3.566653e-002 -4.406543e-001
<VARIANCE> 25
 2.789084e+001 3.039378e+001 4.895869e+001 3.258147e+001 3.637852e+001 2.844486e+001 1.028706e+002 7.359262e+001 2.598152e+001 3.544386e+001 1.976122e+001 2.271250e+001 6.670120e-001 1.144814e+000 2.182885e+000 1.996435e+000 1.501014e+000 2.611678e+000 3.589638e+000 1.908447e+000 2.277444e+000 1.730915e+000 1.597290e+000 1.680619e+000 3.862788e-001
<GCONST> 9.477088e+001
<STATE> 4
<MEAN> 25
 -2.890607e+000 -7.952048e-001 -3.587813e-002 -7.286182e-001 2.478319e+000 1.857286e+000 2.259923e+000 1.303403e+000 1.641511e+000 1.834595e+000 7.017295e-001 1.634588e+000 -7.363274e-003 2.610360e-002 2.454923e-002 2.477743e-002 1.452355e-002 -1.839256e-003 1.240790e-002 -7.023836e-002 -4.482235e-002 2.593573e-002 -4.475132e-002 -1.095651e-002 1.499244e-002
<VARIANCE> 25
 5.103017e+000 7.582169e+000 9.527603e+000 1.266698e+001 1.448440e+001 1.396479e+001 1.904659e+001 1.774761e+001 1.383448e+001 1.680185e+001 1.414593e+001 1.314051e+001 3.040664e-001 4.911225e-001 5.235925e-001 8.127439e-001 9.814417e-001 1.180262e+000 1.328182e+000 1.223195e+000 1.409802e+000 1.701026e+000 1.232389e+000 1.317324e+000 2.280226e-001
<GCONST> 7.395954e+001
<TRANSP> 5
 0.000000e+000 1.000000e+000 0.000000e+000 0.000000e+000 0.000000e+000
 0.000000e+000 7.767012e-001 2.232988e-001 0.000000e+000 0.000000e+000
 0.000000e+000 0.000000e+000 7.746243e-001 2.253756e-001 0.000000e+000
 0.000000e+000 0.000000e+000 0.000000e+000 9.437373e-001 5.626274e-002
 0.000000e+000 0.000000e+000 0.000000e+000 0.000000e+000 0.000000e+000
<ENDHMM>
~h "iy"
<BEGINHMM>
<NUMSTATES> 5
<STATE> 2
<MEAN> 25
 -2.328093e+000 1.444376e+000 5.354889e+000 4.349251e-001 -5.760256e+000 -3.037194e+000 2.478314e+000 -4.306496e+000 -2.338377e+000 2.630349e+000 3.411136e+000 -1.870960e-001 -2.103000e-002 -1.599921e-001 1.581016e+000 -1.021211e+000 -9.108776e-001 3.306215e-001 -9.598511e-001 -8.371515e-001 -6.984458e-001 2.671518e-001 2.188489e-002 -1.795824e-001 1.424261e+000
<VARIANCE> 25
 5.635424e+001 4.276419e+001 9.944475e+001 1.298620e+002 8.520439e+001 5.669840e+001 5.278192e+001 8.497536e+001 4.904466e+001 8.753382e+001 9.558494e+001 3.837749e+001 3.519953e+000 3.342482e+000 9.155921e+000 8.306308e+000 6.546134e+000 6.496343e+000 7.647723e+000 7.879671e+000 5.599689e+000 7.416238e+000 9.072025e+000 4.541960e+000 8.602220e+000
<GCONST> 1.209063e+002
<STATE> 3
<MEAN> 25
 2.199738e+000 2.008086e+000 1.848287e+001 -4.934409e+000 -1.271157e+001 1.867866e+000 -8.899163e+000 -8.671707e+000 -1.126366e+001 -2.087012e+000 4.887034e+000 1.105428e+000 1.886263e-001 2.267827e-001 -1.471585e-001 -1.300385e-001 -7.361808e-002 -1.761499e-001 3.006010e-001 1.873824e-001 -2.793742e-001 2.200405e-001 -1.634348e-001 -2.918146e-002 -3.531304e-001
<VARIANCE> 25
 1.750974e+001 1.592019e+001 5.790674e+001 7.049020e+001 3.721449e+001 7.934418e+001 5.655606e+001 4.582904e+001 4.026659e+001 7.992871e+001 3.636803e+001 8.120924e+001 6.115186e-001 1.314248e+000 2.416881e+000 2.552579e+000 1.988263e+000 3.351143e+000 4.115916e+000 2.321671e+000 1.727961e+000 1.555163e+000 2.315289e+000 2.148957e+000 1.369352e+000
<GCONST> 1.004717e+002
<STATE> 4
<MEAN> 25
 8.771929e-001 5.214651e+000 1.207608e+001 -1.135560e+001 -8.107968e+000 -1.110878e+000 -5.619285e+000 -6.029987e+000 -7.516469e+000 5.473191e+000 -3.919429e+000 -7.805624e-002 -6.639943e-002 2.311054e-001 -6.727355e-001 7.658482e-001 6.490526e-001 7.164019e-003 3.366884e-001 3.171243e-001 4.816785e-001 -3.759879e-001 6.127407e-002 1.437422e-001 -9.264296e-001
<VARIANCE> 25
 1.583559e+001 2.024209e+001 4.085685e+001 1.186593e+002 3.230652e+001 2.511678e+001 5.243565e+001 2.807017e+001 5.258344e+001 8.611552e+001 4.792401e+001 3.687824e+001 6.890851e-001 1.417584e+000 1.837185e+000 2.361944e+000 2.919101e+000 2.145234e+000 2.444386e+000 2.235302e+000 3.558897e+000 2.784044e+000 2.598835e+000 2.815641e+000 1.716415e+000
<GCONST> 9.989253e+001
<TRANSP> 5
 0.000000e+000 1.000000e+000 0.000000e+000 0.000000e+000 0.000000e+000
 0.000000e+000 8.483230e-001 1.516769e-001 0.000000e+000 0.000000e+000
 0.000000e+000 0.000000e+000 8.592280e-001 1.407720e-001 0.000000e+000
 0.000000e+000 0.000000e+000 0.000000e+000 8.979806e-001 1.020194e-001
 0.000000e+000 0.000000e+000 0.000000e+000 0.000000e+000 0.000000e+000
<ENDHMM>
~h "jh"
<BEGINHMM>
<NUMSTATES> 5
<STATE> 2
<MEAN> 25
 5.663908e+000 1.369604e-001 5.347974e+000 4.736241e+000 4.782524e+000 2.457494e+000 -8.442000e+000 -9.232904e+000 3.070434e-001 -3.748230e+000 -7.023625e+000 -5.070163e+000 3.089395e-001 -4.850601e-001 4.154673e-001 1.293033e-001 2.755730e-001 6.459271e-002 -1.015513e+000 -7.184696e-001 -3.050531e-001 -3.418410e-001 -8.810998e-002 -3.233535e-001 6.129431e-001
<VARIANCE> 25
 1.495701e+001 1.663487e+001 3.189208e+001 3.946779e+001 6.013260e+001 1.656186e+001 8.210477e+001 4.150405e+001 2.786650e+001 2.250437e+001 1.964055e+001 1.353598e+001 6.878067e-001 1.298273e+000 2.137639e+000 2.041876e+000 6.664291e+000 2.522333e+000 6.231371e+000 5.639333e+000 1.604646e+000 1.756196e+000 2.969586e+000 2.979698e+000 2.352890e+000
<GCONST> 9.747659e+001
<STATE> 3
<MEAN> 25
 1.103500e+000 -1.697145e+000 5.843295e+000 7.531306e+000 4.239742e+000 1.696897e+000 -3.048391e+000 3.768552e-001 1.319358e+000 -4.212454e+000 -1.989753e-001 7.341776e-001 1.046749e-002 -3.522129e-001 -1.816580e-001 2.328998e-001 -2.455119e-001 -3.090110e-001 -1.295218e-001 2.419115e-001 1.481339e-001 -3.798896e-001 -6.316644e-002 1.625870e-001 3.187478e-001
<VARIANCE> 25
 1.100480e+001 7.158192e+001 2.491972e+001 1.994361e+001 3.186464e+001 1.741456e+001 5.049134e+001 3.491763e+001 4.224437e+001 3.707479e+001 1.679335e+001 1.866178e+001 2.888508e+000 1.081317e+001 3.804264e+000 4.217796e+000 6.134563e+000 2.680009e+000 9.754108e+000 7.441823e+000 7.804668e+000 4.113326e+000 2.432955e+000 3.395177e+000 8.023515e+000
<GCONST> 1.066864e+002
<STATE> 4
<MEAN> 25
 9.710465e+000 -5.172812e+000 -3.027304e+000 3.804279e+000 5.023591e+000 -8.684160e-001 -1.392287e+001 -1.122975e+001 -2.826655e+000 -6.349982e+000 4.753711e+000 -2.545419e+000 2.727895e-001 7.426602e-001 -1.185619e+000 -1.282160e+000 -4.174730e-001 -2.140652e-001 5.957745e-001 -7.557606e-001 -6.047344e-001 3.526773e-001 1.472127e+000 4.090425e-001 -2.882172e-002
<VARIANCE> 25
 3.229534e+000 1.349734e+001 2.539371e+001 1.059907e+001 2.232896e+001 4.667634e+001 8.780793e+000 3.238718e+001 1.991099e+001 7.536500e+000 3.420139e+001 5.980451e+000 3.227697e+000 8.118197e-001 6.190576e+000 5.693970e-001 1.609630e+000 1.380757e+000 3.696708e+000 4.985554e+000 3.329307e+000 1.029372e+000 1.717458e+000 2.902631e-001 8.968385e-001
<GCONST> 8.461075e+001
<TRANSP> 5
 0.000000e+000 1.000000e+000 0.000000e+000 0.000000e+000 0.000000e+000
 0.000000e+000 9.444718e-001 5.552816e-002 0.000000e+000 0.000000e+000
 0.000000e+000 0.000000e+000 9.123548e-001 8.764522e-002 0.000000e+000
 0.000000e+000 0.000000e+000 0.000000e+000 8.560770e-001 1.439230e-001
 0.000000e+000 0.000000e+000 0.000000e+000 0.000000e+000 0.000000e+000
<ENDHMM>
~h "ng"
<BEGINHMM>
<NUMSTATES> 5
<STATE> 2
<MEAN> 25
 3.417092e+000 6.505503e+000 -5.982417e-001 1.965987e+000 3.889487e+000 -1.112046e+000 -1.877148e-001 -2.057289e+000 3.085308e+000 2.691222e+000 -6.448541e-001 -3.726214e+000 -4.201002e-001 -2.067903e-001 4.262834e-002 -6.320035e-002 -4.024268e-002 2.097810e-001 4.166769e-001 5.366668e-001 1.888143e-001 2.884894e-001 1.029868e-001 3.900944e-001 -2.352700e-001
<VARIANCE> 25
 2.061064e+001 1.101311e+001 1.637453e+001 1.345772e+001 5.395028e+000 8.223650e+000 1.752153e+001 2.558308e+001 1.390450e+001 1.145100e+001 8.706491e+000 1.620341e+001 2.345143e-001 7.728286e-001 7.792633e-001 4.382818e-001 6.611245e-001 6.028628e-001 1.314834e+000 8.588163e-001 9.623289e-001 9.947573e-001 5.112022e-001 4.831804e-001 2.035837e-001
<GCONST> 7.007024e+001
<STATE> 3
<MEAN> 25
 -3.528614e+000 -5.743554e-001 -2.146008e-001 1.031993e+000 4.641429e+000 2.745652e-001 5.948144e+000 3.972700e+000 -3.161125e-001 4.181663e+000 -5.434753e-001 1.894549e+000 -6.329615e-002 -1.049646e-001 -6.050574e-003 -2.726316e-003 -5.826464e-002 -8.851776e-002 -1.183680e-002 -7.280123e-004 -1.641961e-001 -5.087418e-002 -1.268015e-001 4.971727e-002 -1.170451e-001
<VARIANCE> 25
 1.459687e+000 2.778133e+000 5.237565e+000 4.406119e+000 5.886620e+000 5.118514e+000 9.520416e+000 1.053093e+001 1.362375e+001 9.320649e+000 1.528986e+001 5.852823e+000 9.196925e-002 3.062868e-001 2.497804e-001 2.958353e-001 3.968134e-001 4.310987e-001 8.358908e-001 8.981842e-001 7.019369e-001 7.298952e-001 7.144466e-001 3.823561e-001 3.992524e-002
<GCONST> 5.442307e+001
<STATE> 4
<MEAN> 25
 -3.133503e+000 -1.662125e+000 5.994917e-001 6.224192e-001 1.627045e+000 -1.341594e+000 4.901304e+000 5.446745e+000 4.158887e-001 3.863379e+000 -1.908920e+000 1.649475e+000 2.404330e-001 -3.279257e-001 6.057783e-001 -3.333370e-002 -1.154543e+000 -6.874595e-001 2.179295e-003 6.984864e-002 -3.568887e-001 -5.102924e-001 9.249626e-001 2.002790e-001 5.957053e-001
<VARIANCE> 25
 4.559630e+000 1.490359e+000 2.429035e+000 7.966431e+000 8.780522e+000 5.575128e+000 3.868481e+000 5.092799e+000 6.855356e+000 7.535810e+000 1.410933e+001 9.993134e+000 5.377353e-001 4.142372e-001 9.704732e-001 1.158963e+000 1.206094e+000 1.871848e-001 3.736756e-001 3.176882e-001 4.049133e-001 1.950591e+000 8.664414e-001 4.233892e-001 4.654922e-001
<GCONST> 5.958398e+001
<TRANSP> 5
 0.000000e+000 1.000000e+000 0.000000e+000 0.000000e+000 0.000000e+000
 0.000000e+000 9.544581e-001 4.554192e-002 0.000000e+000 0.000000e+000
 0.000000e+000 0.000000e+000 9.667649e-001 3.323507e-002 0.000000e+000
 0.000000e+000 0.000000e+000 0.000000e+000 6.482199e-001 3.517801e-001
 0.000000e+000 0.000000e+000 0.000000e+000 0.000000e+000 0.000000e+000
<ENDHMM>
~h "ow"
<BEGINHMM>
<NUMSTATES> 5
<STATE> 2
<MEAN> 25
 5.664183e+000 6.699443e-001 -7.616246e+000 -1.081661e+001 -1.000719e+000 6.448844e+000 -2.307211e+000 -8.573342e-001 -1.891559e+000 1.164676e+000 3.978250e+000 -1.996258e+000 5.248676e-001 2.690485e-001 -2.947413e-002 -4.167748e-001 -4.402956e-001 1.428911e-001 9.501348e-002 -1.277231e-002 -9.442653e-002 -2.593880e-001 2.432860e-002 -1.290370e-001 3.577325e-001
<VARIANCE> 25
 5.495107e+001 2.214028e+001 4.241426e+001 9.890211e+001 2.712905e+001 3.434200e+001 4.851636e+001 4.305280e+001 2.328167e+001 2.163861e+001 1.638110e+001 6.416271e+001 3.699285e+000 1.275485e+000 1.893484e+000 6.092504e+000 3.341346e+000 2.869440e+000 3.592856e+000 2.296152e+000 3.380280e+000 2.288584e+000 1.552029e+000 2.985062e+000 2.812683e+000
<GCONST> 1.020342e+002
<STATE> 3
<MEAN> 25
 1.096494e+001 8.787758e+000 -4.767321e+000 -9.132341e+000 -4.332117e+000 4.954467e+000 5.423417e+000 1.143285e+000 -2.089004e+000 -2.529994e+000 1.401547e-001 6.906789e-002 -6.085165e-001 -1.561563e-001 4.417465e-003 9.826185e-001 4.910300e-001 -1.665737e-002 3.571788e-001 4.941323e-003 5.851256e-002 1.101940e-001 -1.091480e-001 1.498373e-001 -6.399409e-001
<VARIANCE> 25
 2.628016e+001 2.819067e+001 1.517188e+001 4.568560e+001 3.147728e+001 2.782062e+001 4.534740e+001 4.098103e+001 1.731039e+001 2.393330e+001 2.283911e+001 4.750257e+001 9.511299e-001 1.040681e+000 1.134956e+000 2.328789e+000 1.232602e+000 1.739464e+000 2.124328e+000 1.983596e+000 1.404139e+000 1.422195e+000 2.700902e+000 1.657290e+000 1.968180e-001
<GCONST> 9.014201e+001
<STATE> 4
<MEAN> 25
 -2.380950e+000 4.512031e+000 1.219654e+000 7.278859e+000 4.791776e+000 2.408616e+000 6.863515e+000 2.693761e+000 2.152744e+000 -1.429725e-001 -3.498971e+000 2.658339e+000 -2.915745e-001 -2.741981e-001 5.958756e-002 1.391113e-001 -8.920039e-003 -1.732390e-001 -1.955271e-001 5.483362e-002 7.704193e-002 6.771843e-002 -1.251892e-001 -1.803476e-001 -3.947073e-001
<VARIANCE> 25
 1.254593e+001 2.074311e+001 3.509379e+001 5.349654e+001 1.849500e+001 1.722183e+001 3.349884e+001 2.969633e+001 2.519358e+001 3.053803e+001 4.768552e+001 2.980769e+001 3.433229e-001 1.015475e+000 1.405694e+000 2.005299e+000 1.775485e+000 2.011873e+000 2.882617e+000 3.682793e+000 2.244808e+000 2.595459e+000 3.164388e+000 3.358158e+000 2.717847e-001
<GCONST> 9.205844e+001
<TRANSP> 5
 0.000000e+000 1.000000e+000 0.000000e+000 0.000000e+000 0.000000e+000
 0.000000e+000 9.227875e-001 7.721245e-002 0.000000e+000 0.000000e+000
 0.000000e+000 0.000000e+000 9.055186e-001 9.448145e-002 0.000000e+000
 0.000000e+000 0.000000e+000 0.000000e+000 8.769284e-001 1.230715e-001
 0.000000e+000 0.000000e+000 0.000000e+000 0.000000e+000 0.000000e+000
<ENDHMM>
~h "oy"
<BEGINHMM>
<NUMSTATES> 5
<STATE> 2
<MEAN> 25
 1.370262e+001 7.355596e+000 -3.380558e+000 -5.292425e+000 -9.608118e+000 -8.730847e+000 -4.190719e+000 3.929284e+000 3.105150e+000 -2.633229e-001 -1.481161e+000 -1.411482e+000 1.740555e-001 -2.545687e-001 -1.181913e-002 -8.977439e-002 4.498973e-001 2.732014e-001 1.394299e-002 -2.580434e-001 -6.571897e-001 -2.602153e-001 2.178677e-001 -6.705347e-002 1.787275e-001
<VARIANCE> 25
 4.471342e+000 1.610912e+001 3.373841e+001 9.404756e+000 2.054526e+001 7.209035e+001 2.424394e+001 2.161725e+001 2.630390e+001 4.729698e+001 1.208903e+001 1.104860e+001 6.246451e-001 1.314229e+000 1.615214e+000 6.990586e-001 3.588982e+000 4.505190e+000 2.197352e+000 2.521729e+000 2.120581e+000 3.198550e+000 1.630116e+000 1.576139e+000 2.029480e-001
<GCONST> 8.724946e+001
<STATE> 3
<MEAN> 25
 2.639236e-001 -5.790222e+000 8.017948e+000 3.972296e+000 5.812455e+000 3.894089e+000 -6.286326e+000 -3.562884e+000 -2.775910e+000 -8.522423e+000 2.148780e+000 -2.473352e+000 -3.398445e+000 -1.981807e+000 2.045371e+000 1.131216e+000 -6.598893e-001 1.182842e-001 5.115736e-001 6.331965e-001 1.385495e+000 1.243659e-001 5.160326e-001 1.175405e-001 1.672020e-002
<VARIANCE> 25
 1.270367e+002 3.441138e+001 8.209203e+001 3.272213e+001 9.010567e+001 2.756066e+001 3.019063e+001 4.502089e+001 6.556147e+001 9.824959e+000 2.547200e+001 1.039898e+001 5.166878e+000 1.751466e+000 2.730567e+000 3.527836e+000 1.018430e+001 3.381025e+000 3.465266e+000 2.061469e+000 1.363502e+000 1.761197e+000 2.925648e+000 2.630734e+000 3.363920e-001
<GCONST> 1.011054e+002
<STATE> 4
<MEAN> 25
 -1.389920e+001 -1.247469e+001 1.251348e+001 2.753296e+000 -2.045841e+000 5.402241e+000 1.651999e+000 -6.851820e-001 1.382226e+000 -7.084328e+000 4.446167e+000 2.413293e+000 5.708196e-001 7.057245e-001 -6.507942e-001 -1.931276e-001 7.783573e-001 2.733128e-001 1.280265e-001 -4.403977e-001 -7.838929e-001 4.442416e-001 -1.011026e-001 2.257686e-001 -1.015683e+000
<VARIANCE> 25
 4.232185e+001 3.542643e+001 3.629233e+001 2.458173e+001 2.373028e+001 1.738638e+001 1.588487e+001 7.612994e+000 2.973052e+001 1.804109e+001 1.086775e+001 1.453756e+001 1.975520e+000 2.013964e+000 1.129177e+000 5.796829e-001 8.638655e-001 1.346277e+000 2.363631e+000 1.003421e+000 1.488619e+000 1.517660e+000 1.088934e+000 1.748098e+000 2.669563e+000
<GCONST> 8.663075e+001
<TRANSP> 5
 0.000000e+000 1.000000e+000 0.000000e+000 0.000000e+000 0.000000e+000
 0.000000e+000 9.413624e-001 5.863757e-002 0.000000e+000 0.000000e+000
 0.000000e+000 0.000000e+000 8.366538e-001 1.633462e-001 0.000000e+000
 0.000000e+000 0.000000e+000 0.000000e+000 9.084185e-001 9.158152e-002
 0.000000e+000 0.000000e+000 0.000000e+000 0.000000e+000 0.000000e+000
<ENDHMM>
~h "sh"
<BEGINHMM>
<NUMSTATES> 5
<STATE> 2
<MEAN> 25
 4.891232e+000 8.685945e+000 4.050700e+000 4.877457e+000 2.630192e+000 -1.240703e+000 2.740716e+000 -2.353514e+000 -3.502622e+000 -8.789926e-001 -2.883272e+000 -3.444691e+000 -2.547292e-001 1.732321e-001 -2.449907e-001 7.527645e-001 1.104503e+000 3.968416e-002 2.647166e-001 6.128300e-001 5.961167e-001 3.796811e-001 -8.623717e-001 -2.963144e-001 -7.816334e-001
<VARIANCE> 25
 2.711328e+000 4.083677e+000 2.221578e+001 2.977983e+001 1.639804e+001 1.200493e+001 8.746151e+000 1.672565e+001 1.655729e+001 1.887089e+001 1.592941e+001 1.552521e+001 1.636091e-001 8.040032e-001 3.501020e-001 1.159129e+000 1.546297e+000 1.533303e+000 1.199913e+000 2.344161e+000 2.805195e+000 1.019791e+000 2.053546e+000 1.394461e+000 4.734285e-001
<GCONST> 7.669168e+001
<STATE> 3
<MEAN> 25
