~o
<STREAMINFO> 1 25
<VECSIZE> 25<NULLD><MFCC_D_N_Z_0><DIAGC>
~s "silst"
<MEAN> 25
 -4.214270e+000 1.226417e+000 5.717204e-002 2.901091e+000 3.363020e+000 2.014123e+000 3.464513e+000 1.055719e+000 -5.216034e-001 1.298687e+000 -1.324049e+000 8.413721e-001 -9.163646e-002 -4.993120e-002 7.470596e-003 3.816334e-002 -2.447651e-002 -6.636992e-002 3.743745e-002 4.834461e-002 -1.090832e-002 -4.574369e-002 -6.380223e-002 1.318967e-002 4.152795e-002
<VARIANCE> 25
 1.328146e+001 2.428364e+001 1.517507e+001 2.618158e+001 1.369645e+001 2.057189e+001 1.762317e+001 1.593211e+001 2.104094e+001 2.147230e+001 1.581215e+001 1.376009e+001 5.281596e-001 5.058798e-001 5.900666e-001 7.285740e-001 1.186594e+000 9.209852e-001 1.147811e+000 1.188543e+000 1.215646e+000 1.547755e+000 1.153468e+000 1.109459e+000 6.773075e-001
<GCONST> 7.920667e+001
~h "a"
<BEGINHMM>
<NUMSTATES> 5
<STATE> 2
<MEAN> 25
 -1.205808e-008 7.471832e-008 -5.503286e-008 1.714419e-009 -4.314622e-009 -6.243344e-009 -3.245967e-008 5.886173e-009 -4.663221e-008 -2.217316e-008 -2.948801e-008 4.270333e-008 2.560044e-002 3.139617e-004 8.288709e-003 -9.700003e-003 8.491755e-003 -6.657258e-003 3.393384e-003 -9.661411e-003 -5.902453e-003 -8.686491e-003 -3.965416e-003 -3.687867e-003 3.609585e-002
<VARIANCE> 25
 6.743311e+001 4.386040e+001 5.738831e+001 5.798326e+001 6.474918e+001 5.654857e+001 5.389107e+001 4.411510e+001 4.258719e+001 4.208948e+001 3.679993e+001 3.124355e+001 1.965594e+000 1.803727e+000 1.934022e+000 2.333615e+000 2.834451e+000 2.798423e+000 2.861493e+000 2.778302e+000 2.531476e+000 2.589815e+000 2.444618e+000 2.166934e+000 2.889750e+000
<GCONST> 1.040926e+002
<STATE> 3
<MEAN> 25
 -1.205808e-008 7.471832e-008 -5.503286e-008 1.714419e-009 -4.314622e-009 -6.243344e-009 -3.245967e-008 5.886173e-009 -4.663221e-008 -2.217316e-008 -2.948801e-008 4.270333e-008 2.560044e-002 3.139617e-004 8.288709e-003 -9.700003e-003 8.491755e-003 -6.657258e-003 3.393384e-003 -9.661411e-003 -5.902453e-003 -8.686491e-003 -3.965416e-003 -3.687867e-003 3.609585e-002
<VARIANCE> 25
 6.743311e+001 4.386040e+001 5.738831e+001 5.798326e+001 6.474918e+001 5.654857e+001 5.389107e+001 4.411510e+001 4.258719e+001 4.208948e+001 3.679993e+001 3.124355e+001 1.965594e+000 1.803727e+000 1.934022e+000 2.333615e+000 2.834451e+000 2.798423e+000 2.861493e+000 2.778302e+000 2.531476e+000 2.589815e+000 2.444618e+000 2.166934e+000 2.889750e+000
<GCONST> 1.040926e+002
<STATE> 4
<MEAN> 25
 -1.205808e-008 7.471832e-008 -5.503286e-008 1.714419e-009 -4.314622e-009 -6.243344e-009 -3.245967e-008 5.886173e-009 -4.663221e-008 -2.217316e-008 -2.948801e-008 4.270333e-008 2.560044e-002 3.139617e-004 8.288709e-003 -9.700003e-003 8.491755e-003 -6.657258e-003 3.393384e-003 -9.661411e-003 -5.902453e-003 -8.686491e-003 -3.965416e-003 -3.687867e-003 3.609585e-002
<VARIANCE> 25
 6.743311e+001 4.386040e+001 5.738831e+001 5.798326e+001 6.474918e+001 5.654857e+001 5.389107e+001 4.411510e+001 4.258719e+001 4.208948e+001 3.679993e+001 3.124355e+001 1.965594e+000 1.803727e+000 1.934022e+000 2.333615e+000 2.834451e+000 2.798423e+000 2.861493e+000 2.778302e+000 2.531476e+000 2.589815e+000 2.444618e+000 2.166934e+000 2.889750e+000
<GCONST> 1.040926e+002
<TRANSP> 5
 0.000000e+000 1.000000e+000 0.000000e+000 0.000000e+000 0.000000e+000
 0.000000e+000 6.000000e-001 4.000000e-001 0.000000e+000 0.000000e+000
 0.000000e+000 0.000000e+000 6.000000e-001 4.000000e-001 0.000000e+000
 0.000000e+000 0.000000e+000 0.000000e+000 7.000000e-001 3.000000e-001
 0.000000e+000 0.000000e+000 0.000000e+000 0.000000e+000 0.000000e+000
<ENDHMM>
~h "b"
<BEGINHMM>
<NUMSTATES> 5
<STATE> 2
<MEAN> 25
 -5.566375e+000 4.664942e+000 1.258914e+000 2.707066e+000 1.763606e+000 2.896747e-001 -1.162455e+000 -2.086696e+000 1.234926e+000 -6.865021e-001 -3.585536e+000 -2.002933e+000 -1.066706e-001 -3.843632e-001 4.886234e-002 5.578552e-002 2.546599e-001 -7.796108e-002 1.635550e-001 -7.003410e-002 -1.846764e-001 -5.816725e-002 -6.013843e-002 5.632893e-002 -4.290315e-001
<VARIANCE> 25
 6.084580e+001 3.093214e+001 1.452577e+001 8.607196e+000 1.188319e+001 1.364329e+001 2.171879e+001 1.972280e+001 2.189855e+001 1.747703e+001 2.300723e+001 1.821927e+001 6.730221e-001 7.182953e-001 6.091909e-001 1.736911e+000 1.533463e+000 1.489335e+000 1.892107e+000 1.016679e+000 1.891762e+000 2.468478e+000 1.456159e+000 1.384931e+000 2.455307e+000
<GCONST> 8.540005e+001
<STATE> 3
<MEAN> 25
 -2.036734e+000 -9.929734e-003 3.164028e+000 1.393891e+000 2.474963e+000 1.062166e+000 -1.099440e-001 -7.775821e-002 6.590473e-001 -2.631910e-001 3.614246e-002 -6.529908e-001 4.704398e-001 -3.662937e-001 2.289152e-001 -2.167110e-001 1.222224e-001 7.021525e-002 1.072043e-001 4.221835e-001 -5.585484e-002 -2.442320e-001 3.987347e-001 5.459118e-001 9.319963e-002
<VARIANCE> 25
 2.747560e+001 1.679438e+001 1.685227e+001 1.220931e+001 1.977703e+001 2.342639e+001 3.030381e+001 2.120343e+001 2.725216e+001 2.591139e+001 2.932664e+001 1.739587e+001 1.183190e+000 5.885982e-001 9.014327e-001 1.208760e+000 1.099287e+000 1.262774e+000 1.244871e+000 7.637181e-001 1.771813e+000 2.141623e+000 2.029185e+000 1.214821e+000 2.057658e+000
<GCONST> 8.576516e+001
<STATE> 4
<MEAN> 25
 -2.513501e+000 -1.232717e+000 1.264844e+000 7.429702e-001 2.672232e+000 1.967524e+000 2.303487e+000 1.132441e+000 6.544949e-001 1.601246e+000 -4.599717e-001 9.134172e-001 9.337260e-003 9.500664e-002 -1.274292e-001 1.158692e-001 4.580691e-002 3.790654e-002 3.083428e-002 2.039423e-002 9.014520e-002 6.000645e-002 -7.527489e-002 -4.187163e-002 3.628280e-002
<VARIANCE> 25
 5.906713e+000 8.232264e+000 7.621902e+000 1.108963e+001 1.794145e+001 1.018039e+001 1.325443e+001 1.286701e+001 2.097930e+001 1.606173e+001 1.463885e+001 1.186968e+001 1.647056e-001 6.167607e-001 7.517897e-001 5.356278e-001 1.329663e+000 1.163887e+000 9.869656e-001 1.267298e+000 1.629181e+000 1.705386e+000 1.579113e+000 1.318201e+000 4.565585e-001
<GCONST> 7.402727e+001
<TRANSP> 5
 0.000000e+000 1.000000e+000 0.000000e+000 0.000000e+000 0.000000e+000
 0.000000e+000 5.516429e-001 4.483571e-001 0.000000e+000 0.000000e+000
 0.000000e+000 0.000000e+000 4.295576e-001 5.704424e-001 0.000000e+000
 0.000000e+000 0.000000e+000 0.000000e+000 9.175737e-001 8.242629e-002
 0.000000e+000 0.000000e+000 0.000000e+000 0.000000e+000 0.000000e+000
<ENDHMM>
~h "d"
<BEGINHMM>
<NUMSTATES> 5
<STATE> 2
<MEAN> 25
 8.654597e+000 1.206825e+000 3.308389e+000 1.931075e+000 -5.286734e+000 -6.778103e+000 -2.021783e+000 -1.426286e+000 6.593798e-003 -4.258938e+000 -3.042281e+000 1.982643e+000 -3.988361e-002 1.169919e+000 3.405686e-001 6.463684e-001 1.780501e-001 3.233179e-001 2.080796e-001 -2.697687e-001 5.180436e-002 -5.871764e-001 2.656225e-002 -2.581338e-001 -1.419748e+000
<VARIANCE> 25
 2.680013e+001 4.259258e+001 3.642656e+001 3.773487e+001 5.371205e+001 3.823255e+001 3.835331e+001 7.236853e+001 7.256400e+001 7.570770e+001 4.743808e+001 4.361178e+001 6.852327e-001 1.835775e+000 1.515882e+000 2.450267e+000 2.354766e+000 2.338324e+000 2.816428e+000 2.580025e+000 2.218828e+000 3.184873e+000 2.867382e+000 2.849071e+000 1.123767e+000
<GCONST> 1.014182e+002
<STATE> 3
<MEAN> 25
 5.870124e+000 4.618220e+000 5.641391e+000 7.290583e+000 1.710272e+000 -3.491227e+000 -3.622147e+000 -3.680364e+000 -8.319511e-001 -4.303959e+000 -3.613242e+000 -8.330140e-001 -7.634445e-001 2.483364e-001 -4.543594e-001 1.474534e-001 1.113255e+000 7.134536e-001 7.379267e-001 2.851695e-001 1.376143e-001 5.112645e-001 1.593297e-001 1.358458e-001 -1.156271e+000
<VARIANCE> 25
 2.397258e+001 1.932871e+001 2.732101e+001 4.121164e+001 8.641429e+001 1.987642e+001 4.824495e+001 5.555262e+001 8.747266e+001 7.452750e+001 3.234883e+001 2.893832e+001 1.101131e+000 1.864033e+000 1.742901e+000 2.098030e+000 3.977236e+000 2.554574e+000 3.190057e+000 4.579866e+000 3.405116e+000 3.450479e+000 3.013195e+000 2.347361e+000 8.237267e-001
<GCONST> 1.013203e+002
<STATE> 4
<MEAN> 25
 7.050471e-002 5.758337e+000 3.112418e+000 6.720722e+000 4.374306e+000 1.989500e+000 4.016774e+000 2.933782e-001 2.714699e+000 1.664068e-001 -2.985012e+000 3.237873e-001 -5.641582e-001 -1.198717e-001 -1.757266e-001 -2.927560e-002 4.247501e-002 3.153773e-001 3.464231e-001 3.435560e-001 4.733869e-002 1.429975e-001 9.029149e-002 5.820040e-002 -4.567911e-001
<VARIANCE> 25
 2.073565e+001 1.305797e+001 1.620700e+001 2.541017e+001 2.534201e+001 2.290759e+001 2.351806e+001 2.530981e+001 2.927371e+001 2.739019e+001 3.018791e+001 2.779223e+001 3.698208e-001 6.041450e-001 1.133121e+000 1.230579e+000 1.243979e+000 1.469658e+000 1.322083e+000 2.215147e+000 2.083794e+000 1.835878e+000 1.884017e+000 2.180373e+000 2.321233e-001
<GCONST> 8.554652e+001
<TRANSP> 5
 0.000000e+000 1.000000e+000 0.000000e+000 0.000000e+000 0.000000e+000
 0.000000e+000 6.608313e-001 3.391687e-001 0.000000e+000 0.000000e+000
 0.000000e+000 0.000000e+000 7.132809e-001 2.867191e-001 0.000000e+000
 0.000000e+000 0.000000e+000 0.000000e+000 8.481042e-001 1.518958e-001
 0.000000e+000 0.000000e+000 0.000000e+000 0.000000e+000 0.000000e+000
<ENDHMM>
~h "f"
<BEGINHMM>
<NUMSTATES> 5
<STATE> 2
<MEAN> 25
 9.269989e-001 1.110174e+000 1.464221e+000 2.500677e-002 -2.767222e+000 -3.192827e+000 -2.080329e+000 4.911972e-001 -1.204306e+000 -3.218445e+000 2.556033e+000 1.846634e+000 1.119142e+000 2.551547e-001 -1.618123e-001 2.049953e-001 -3.043558e-001 1.472270e-001 -2.755745e-001 -2.661697e-001 -2.839967e-001 -1.483083e-001 3.546673e-001 -4.080732e-001 4.310535e-001
<VARIANCE> 25
 6.047646e+001 3.261830e+001 8.531421e+001 5.692018e+001 1.008984e+002 4.860088e+001 3.903384e+001 4.504244e+001 7.845719e+001 2.214482e+001 3.651579e+001 2.416727e+001 1.045239e+001 4.180179e+000 4.754047e+000 4.588445e+000 9.211841e+000 4.590893e+000 7.483912e+000 3.980072e+000 8.967095e+000 3.373572e+000 6.137239e+000 3.641910e+000 4.784184e+000
<GCONST> 1.143148e+002
<STATE> 3
<MEAN> 25
 6.088081e+000 -2.908597e+000 -1.333901e+000 1.525701e+000 -5.933751e+000 6.840269e-002 -5.361534e+000 2.527615e+000 6.100950e-001 -3.548481e+000 3.084641e+000 -2.866430e+000 -3.518941e-001 4.157998e-001 4.016461e-001 -1.254491e-001 7.115889e-001 7.079006e-001 3.295561e-001 -5.749037e-002 -6.108680e-002 -1.841997e-003 -7.314031e-001 -2.952165e-001 -3.005892e-001
<VARIANCE> 25
 4.114576e+001 5.294027e+001 3.860338e+001 6.716409e+001 5.751580e+001 6.783354e+001 8.776329e+001 6.210151e+001 4.438251e+001 4.706371e+001 8.983922e+001 3.447141e+001 1.591810e+000 2.964356e+000 3.321159e+000 5.923899e+000 6.158609e+000 5.860842e+000 5.174408e+000 4.876884e+000 3.066832e+000 2.726913e+000 3.752227e+000 2.470937e+000 4.272664e+000
<GCONST> 1.111969e+002
<STATE> 4
<MEAN> 25
 1.612825e+000 3.008882e+000 -2.864416e+000 2.583456e+000 2.934013e+000 1.458632e+000 -6.052996e-002 -3.813662e+000 2.188212e-001 -4.447757e+000 -1.234000e+000 6.607004e-001 -3.676054e-001 -1.920619e-001 -2.907991e-001 -1.091411e-001 5.240278e-001 4.769530e-001 -2.339599e-001 3.332644e-001 2.796783e-001 2.352712e-001 2.080733e-001 1.067192e-001 -1.888514e-001
<VARIANCE> 25
 7.193309e+001 3.041977e+001 3.038053e+001 1.634133e+002 5.081292e+001 7.389648e+001 6.298118e+001 4.548415e+001 3.275077e+001 5.262022e+001 4.410786e+001 4.163690e+001 1.311211e+000 1.894253e+000 1.757956e+000 3.093837e+000 3.413717e+000 3.291325e+000 4.576620e+000 2.955834e+000 2.854649e+000 2.856725e+000 2.564507e+000 2.114427e+000 2.863246e+000
<GCONST> 1.057748e+002
<TRANSP> 5
 0.000000e+000 1.000000e+000 0.000000e+000 0.000000e+000 0.000000e+000
 0.000000e+000 7.224724e-001 2.775275e-001 0.000000e+000 0.000000e+000
 0.000000e+000 0.000000e+000 6.405479e-001 3.594521e-001 0.000000e+000
 0.000000e+000 0.000000e+000 0.000000e+000 7.564112e-001 2.435888e-001
 0.000000e+000 0.000000e+000 0.000000e+000 0.000000e+000 0.000000e+000
<ENDHMM>
~h "g"
<BEGINHMM>
<NUMSTATES> 5
<STATE> 2
<MEAN> 25
 -1.205808e-008 7.471832e-008 -5.503286e-008 1.714419e-009 -4.314622e-009 -6.243344e-009 -3.245967e-008 5.886173e-009 -4.663221e-008 -2.217316e-008 -2.948801e-008 4.270333e-008 2.560044e-002 3.139617e-004 8.288709e-003 -9.700003e-003 8.491755e-003 -6.657258e-003 3.393384e-003 -9.661411e-003 -5.902453e-003 -8.686491e-003 -3.965416e-003 -3.687867e-003 3.609585e-002
<VARIANCE> 25
 6.743311e+001 4.386040e+001 5.738831e+001 5.798326e+001 6.474918e+001 5.654857e+001 5.389107e+001 4.411510e+001 4.258719e+001 4.208948e+001 3.679993e+001 3.124355e+001 1.965594e+000 1.803727e+000 1.934022e+000 2.333615e+000 2.834451e+000 2.798423e+000 2.861493e+000 2.778302e+000 2.531476e+000 2.589815e+000 2.444618e+000 2.166934e+000 2.889750e+000
<GCONST> 1.040926e+002
<STATE> 3
<MEAN> 25
 -1.205808e-008 7.471832e-008 -5.503286e-008 1.714419e-009 -4.314622e-009 -6.243344e-009 -3.245967e-008 5.886173e-009 -4.663221e-008 -2.217316e-008 -2.948801e-008 4.270333e-008 2.560044e-002 3.139617e-004 8.288709e-003 -9.700003e-003 8.491755e-003 -6.657258e-003 3.393384e-003 -9.661411e-003 -5.902453e-003 -8.686491e-003 -3.965416e-003 -3.687867e-003 3.609585e-002
<VARIANCE> 25
 6.743311e+001 4.386040e+001 5.738831e+001 5.798326e+001 6.474918e+001 5.654857e+001 5.389107e+001 4.411510e+001 4.258719e+001 4.208948e+001 3.679993e+001 3.124355e+001 1.965594e+000 1.803727e+000 1.934022e+000 2.333615e+000 2.834451e+000 2.798423e+000 2.861493e+000 2.778302e+000 2.531476e+000 2.589815e+000 2.444618e+000 2.166934e+000 2.889750e+000
<GCONST> 1.040926e+002
<STATE> 4
<MEAN> 25
 -1.205808e-008 7.471832e-008 -5.503286e-008 1.714419e-009 -4.314622e-009 -6.243344e-009 -3.245967e-008 5.886173e-009 -4.663221e-008 -2.217316e-008 -2.948801e-008 4.270333e-008 2.560044e-002 3.139617e-004 8.288709e-003 -9.700003e-003 8.491755e-003 -6.657258e-003 3.393384e-003 -9.661411e-003 -5.902453e-003 -8.686491e-003 -3.965416e-003 -3.687867e-003 3.609585e-002
<VARIANCE> 25
 6.743311e+001 4.386040e+001 5.738831e+001 5.798326e+001 6.474918e+001 5.654857e+001 5.389107e+001 4.411510e+001 4.258719e+001 4.208948e+001 3.679993e+001 3.124355e+001 1.965594e+000 1.803727e+000 1.934022e+000 2.333615e+000 2.834451e+000 2.798423e+000 2.861493e+000 2.778302e+000 2.531476e+000 2.589815e+000 2.444618e+000 2.166934e+000 2.889750e+000
<GCONST> 1.040926e+002
<TRANSP> 5
 0.000000e+000 1.000000e+000 0.000000e+000 0.000000e+000 0.000000e+000
 0.000000e+000 6.000000e-001 4.000000e-001 0.000000e+000 0.000000e+000
 0.000000e+000 0.000000e+000 6.000000e-001 4.000000e-001 0.000000e+000
 0.000000e+000 0.000000e+000 0.000000e+000 7.000000e-001 3.000000e-001
 0.000000e+000 0.000000e+000 0.000000e+000 0.000000e+000 0.000000e+000
<ENDHMM>
~h "i"
<BEGINHMM>
<NUMSTATES> 5
<STATE> 2
<MEAN> 25
 7.468036e-001 9.617040e-001 1.626175e+001 -7.450599e+000 -1.570546e+001 -2.724486e+000 -7.572658e+000 -8.347575e+000 -1.604872e+000 2.134204e+000 7.308455e+000 2.725600e+000 -5.159649e-002 1.053265e-001 5.908926e-002 -2.033185e-001 4.080951e-001 1.439257e-001 9.759313e-002 2.292190e-001 1.404125e-001 3.772706e-001 9.893573e-002 -4.448626e-003 -2.298429e-001
<VARIANCE> 25
 1.906511e+001 3.585217e+001 4.025539e+001 1.118290e+002 4.088670e+001 4.484154e+001 3.277773e+001 6.910081e+001 3.091402e+001 1.119926e+002 4.293913e+001 5.165708e+001 1.272449e+000 2.281280e+000 2.328425e+000 3.577475e+000 4.790170e+000 5.734973e+000 2.240173e+000 6.084223e+000 4.904867e+000 7.132309e+000 3.368522e+000 3.593209e+000 1.400860e+000
<GCONST> 1.074761e+002
<STATE> 3
<MEAN> 25
 -1.019385e+000 8.198838e+000 9.918160e+000 2.868081e+000 1.633973e+000 1.223198e+000 3.062155e+000 -1.528242e+000 1.780256e+000 -7.169989e-001 -8.657528e-001 4.648552e+000 -2.831815e-001 -1.969452e-001 -5.899360e-001 5.649160e-001 5.617653e-001 1.534946e-001 4.659399e-001 2.433227e-001 3.133623e-001 1.576320e-001 -3.187703e-002 -1.027084e-001 -6.042197e-001
<VARIANCE> 25
 1.092151e+001 1.938642e+001 5.328709e+001 6.745673e+001 1.678445e+001 1.728486e+001 2.384533e+001 5.322870e+001 2.988181e+001 2.285815e+001 2.089577e+001 1.618518e+001 3.101639e-001 7.030282e-001 9.967762e-001 2.146373e+000 2.322402e+000 2.153614e+000 2.996558e+000 2.365240e+000 3.276134e+000 2.843361e+000 3.108257e+000 1.461747e+000 7.533320e-001
<GCONST> 9.092381e+001
<STATE> 4
<MEAN> 25
 -5.123007e+000 -1.055722e+001 -7.232513e+000 5.498381e-001 1.301306e+001 8.279685e+000 -7.850070e+000 -1.316134e+000 8.295921e+000 2.710839e+000 5.914619e+000 2.914562e+000 -2.476990e-001 -2.421121e-001 2.682164e-002 3.731728e-001 -8.400452e-002 -4.705306e-001 3.945054e-001 3.863506e-001 -1.493209e-001 -2.662117e-001 3.280723e-001 1.159650e-001 1.092869e-001
<VARIANCE> 25
 1.514048e+001 3.714811e+001 1.375317e+001 1.851451e+001 4.267805e+001 3.071830e+001 9.613841e+001 1.012957e+001 1.641282e+001 1.555576e+001 2.220483e+001 1.211695e+001 1.248336e+000 8.955147e-001 8.911452e-001 2.942480e+000 3.518535e+000 2.872812e+000 6.375081e+000 1.103640e+000 2.283588e+000 1.996741e+000 2.020562e+000 1.449744e+000 4.934077e-001
<GCONST> 9.024165e+001
<TRANSP> 5
 0.000000e+000 1.000000e+000 0.000000e+000 0.000000e+000 0.000000e+000
 0.000000e+000 9.439119e-001 5.608814e-002 0.000000e+000 0.000000e+000
 0.000000e+000 0.000000e+000 9.224471e-001 7.755286e-002 0.000000e+000
 0.000000e+000 0.000000e+000 0.000000e+000 8.307379e-001 1.692621e-001
 0.000000e+000 0.000000e+000 0.000000e+000 0.000000e+000 0.000000e+000
<ENDHMM>
~h "k"
<BEGINHMM>
<NUMSTATES> 5
<STATE> 2
<MEAN> 25
 -3.135675e+000 -1.147398e+000 4.207793e-001 -1.414693e+000 -1.678521e+000 -7.090715e-001 1.697259e+000 1.202726e+000 -1.896245e+000 -6.739908e-001 -1.071315e+000 1.801475e+000 1.168997e+000 -3.534063e-001 -2.507475e-001 -1.552306e+000 -2.902967e+000 -7.247158e-001 -8.712947e-001 3.631828e-001 9.813870e-002 -1.358868e+000 2.640907e-001 -3.924402e-001 3.137135e+000
<VARIANCE> 25
 3.695986e+001 2.384870e+001 4.176036e+001 5.497599e+001 1.111764e+002 4.289664e+001 3.976128e+001 4.704464e+001 4.140336e+001 5.480676e+001 2.322820e+001 1.877671e+001 5.684077e+000 2.804794e+000 6.733714e+000 4.818068e+000 8.752401e+000 6.430883e+000 4.085936e+000 6.642007e+000 5.219677e+000 7.525098e+000 2.908173e+000 1.885694e+000 8.596754e+000
<GCONST> 1.113802e+002
<STATE> 3
<MEAN> 25
 4.654776e+000 7.777510e-001 3.266831e+000 -3.799811e+000 -9.646049e+000 -5.840497e+000 -1.782584e+000 6.485906e-001 -2.953212e+000 -1.329308e+000 1.408859e+000 -2.329866e+000 5.894386e-001 3.150540e-001 -4.893431e-003 2.869706e-002 1.317298e-001 8.809099e-002 -7.041910e-002 -1.564117e-001 1.502040e-001 3.364558e-001 4.610666e-003 7.502200e-002 -4.350119e-001
<VARIANCE> 25
 4.285738e+001 3.030545e+001 9.632912e+001 3.729113e+001 9.559584e+001 8.925119e+001 3.218721e+001 8.531117e+001 5.705667e+001 5.131503e+001 2.972925e+001 2.513077e+001 3.897244e+000 1.665709e+000 2.445783e+000 2.138531e+000 3.571830e+000 3.260947e+000 2.952479e+000 2.794215e+000 3.748552e+000 3.587341e+000 1.749271e+000 2.082463e+000 4.050759e+000
<GCONST> 1.062511e+002
<STATE> 4
<MEAN> 25
 -2.711223e-001 -1.580809e-001 -1.800595e+000 -1.197952e-001 6.728913e-001 -4.805478e-002 1.544985e+000 3.080776e-001 -5.620680e-001 9.752828e-001 -1.020472e+000 1.381366e+000 -9.764852e-002 5.863743e-002 -2.789972e-001 -8.630693e-002 2.154526e-001 2.128216e-001 6.090004e-002 -1.491043e-002 8.282267e-002 -6.195955e-003 -7.836541e-002 -5.090441e-002 2.166180e-002
<VARIANCE> 25
 1.548425e+001 2.051656e+001 2.517337e+001 2.635835e+001 4.081580e+001 3.417460e+001 2.511745e+001 2.166737e+001 1.546656e+001 2.060507e+001 2.003053e+001 1.423291e+001 9.275993e-001 1.449721e+000 1.118873e+000 1.012878e+000 1.725971e+000 2.281056e+000 1.728469e+000 1.431633e+000 1.607615e+000 1.541492e+000 1.846311e+000 1.388385e+000 1.141622e+000
<GCONST> 8.784161e+001
<TRANSP> 5
 0.000000e+000 1.000000e+000 0.000000e+000 0.000000e+000 0.000000e+000
 0.000000e+000 7.009321e-001 2.990679e-001 0.000000e+000 0.000000e+000
 0.000000e+000 0.000000e+000 8.280126e-001 1.719873e-001 0.000000e+000
 0.000000e+000 0.000000e+000 0.000000e+000 8.241180e-001 1.758820e-001
 0.000000e+000 0.000000e+000 0.000000e+000 0.000000e+000 0.000000e+000
<ENDHMM>
~h "l"
<BEGINHMM>
<NUMSTATES> 5
<STATE> 2
<MEAN> 25
 9.267627e+000 3.119993e+000 1.232906e+000 -3.485106e+000 -1.324148e+001 -9.043586e+000 -5.565664e+000 -1.570405e-001 3.121592e+000 -2.905164e+000 4.377490e-001 -1.463582e+000 -9.850550e-003 7.231621e-002 1.961858e-001 4.122676e-002 9.753546e-002 -2.438982e-003 1.032625e-002 3.012243e-002 1.591726e-001 2.196039e-001 -1.497822e-001 1.372177e-001 -2.690178e-001
<VARIANCE> 25
 1.026205e+001 1.274136e+001 5.589108e+001 4.303133e+001 1.088563e+002 5.875231e+001 4.789194e+001 6.379013e+001 3.843906e+001 2.721407e+001 2.053951e+001 1.650000e+001 2.558253e-001 5.705289e-001 1.742555e+000 1.368327e+000 2.184810e+000 2.095565e+000 1.473657e+000 2.330283e+000 1.854048e+000 1.856663e+000 1.645430e+000 1.415037e+000 3.937743e-001
<GCONST> 9.102090e+001
<STATE> 3
<MEAN> 25
 5.983255e+000 4.484627e+000 -5.151093e-001 -2.346633e+000 -9.025632e-001 1.601617e+000 -2.779280e-001 -9.320406e-001 4.674930e-002 1.808094e+000 -5.888556e-001 -2.915600e-001 -7.655632e-001 -2.904699e-001 -1.239162e-001 4.484774e-001 1.093564e+000 8.751146e-001 1.050941e+000 2.654902e-001 1.102724e-001 3.408041e-001 1.451559e-001 1.796662e-002 -9.771100e-001
<VARIANCE> 25
 1.663043e+001 1.472657e+001 4.879309e+001 3.922555e+001 7.614387e+001 8.953527e+001 5.189487e+001 3.445064e+001 2.475973e+001 3.010709e+001 1.994364e+001 1.505242e+001 6.397693e-001 1.312809e+000 1.711694e+000 2.569707e+000 1.887271e+000 3.093545e+000 2.508777e+000 2.276982e+000 1.769075e+000 1.817940e+000 1.487930e+000 9.010958e-001 1.031376e+000
<GCONST> 9.394535e+001
<STATE> 4
<MEAN> 25
 -3.081874e+000 -1.658998e+000 -2.457355e-001 4.189169e-001 2.745363e+000 1.541005e+000 2.679149e+000 1.310477e+000 8.295069e-001 1.821954e+000 3.157719e-001 1.137357e+000 -1.208515e-001 -5.169870e-002 -1.996979e-002 3.784856e-002 3.091583e-002 -7.590760e-002 -5.574806e-002 -4.171599e-002 -1.036472e-001 -8.433602e-002 -2.838047e-002 4.367651e-003 -8.836080e-002
<VARIANCE> 25
 5.598525e+000 4.607813e+000 8.214815e+000 1.199620e+001 1.585402e+001 1.487856e+001 2.031169e+001 1.528153e+001 1.582566e+001 1.414067e+001 1.234617e+001 1.115276e+001 2.569470e-001 3.830184e-001 7.345934e-001 8.387571e-001 9.357222e-001 1.208514e+000 1.374560e+000 1.324212e+000 1.412328e+000 1.310523e+000 1.156935e+000 9.982244e-001 1.656325e-001
<GCONST> 7.220538e+001
<TRANSP> 5
 0.000000e+000 1.000000e+000 0.000000e+000 0.000000e+000 0.000000e+000
 0.000000e+000 8.833180e-001 1.166820e-001 0.000000e+000 0.000000e+000
 0.000000e+000 0.000000e+000 8.347223e-001 1.652777e-001 0.000000e+000
 0.000000e+000 0.000000e+000 0.000000e+000 9.544315e-001 4.556847e-002
 0.000000e+000 0.000000e+000 0.000000e+000 0.000000e+000 0.000000e+000
<ENDHMM>
~h "m"
<BEGINHMM>
<NUMSTATES> 5
<STATE> 2
<MEAN> 25
 9.243167e+000 4.071733e+000 -1.183192e+000 2.651982e+000 -1.974270e+000 3.304458e-001 -1.019849e+000 -5.711648e+000 -1.874076e-001 -2.106074e-001 3.715721e-001 -1.032061e+001 -3.821592e-001 7.437793e-001 9.052183e-001 1.815035e+000 1.664339e+000 -3.845479e-001 5.403646e-001 -9.038005e-001 -1.025163e+000 3.809652e-001 4.533519e-002 -8.410183e-001 -1.260617e+000
<VARIANCE> 25
 1.250350e+001 1.528020e+001 3.552979e+001 5.548275e+001 2.662084e+001 2.786830e+001 2.981678e+001 3.512037e+001 3.192489e+001 3.252816e+001 2.253208e+001 2.492449e+001 6.443926e-001 1.011565e+000 2.572820e+000 2.465230e+000 2.429842e+000 4.595117e+000 2.464748e+000 2.081134e+000 2.127076e+000 3.036505e+000 1.258885e+000 3.750431e+000 7.351027e-001
<GCONST> 9.420222e+001
<STATE> 3
<MEAN> 25
 5.693215e+000 6.619814e+000 3.469768e+000 7.986673e+000 5.710920e+000 -6.990986e-002 -1.071103e+000 -6.291145e+000 -3.022159e+000 -1.282906e+000 -1.020192e+000 -7.339184e+000 -5.789024e-001 -3.913523e-001 2.401775e-001 -8.958916e-002 3.737422e-001 4.363149e-001 1.665355e-002 6.265090e-001 3.617151e-001 7.738266e-002 -1.404351e-001 9.650311e-001 -6.619763e-001
<VARIANCE> 25
 8.158513e+000 1.479036e+001 1.755660e+001 1.601976e+001 2.129987e+001 2.809719e+001 2.495465e+001 3.015330e+001 2.229931e+001 1.758608e+001 2.741497e+001 3.034177e+001 8.612919e-001 2.515866e+000 1.963816e+000 2.051383e+000 1.944449e+000 2.312011e+000 2.841581e+000 3.333923e+000 2.092907e+000 2.252142e+000 2.954027e+000 3.970666e+000 1.409052e+000
<GCONST> 9.236598e+001
<STATE> 4
<MEAN> 25
 8.910226e-001 4.310888e+000 3.447716e+000 4.453979e+000 6.405902e+000 3.685816e+000 1.316711e+000 -3.997233e-001 6.107534e-001 -5.714726e-003 -1.589836e+000 -2.871014e+000 -3.961051e-001 -5.685921e-001 -4.702543e-001 -5.233220e-001 -3.641798e-001 6.539243e-002 -1.035487e-001 2.439058e-001 3.028474e-001 2.090404e-001 1.283723e-001 3.394573e-001 7.082946e-003
<VARIANCE> 25
 1.148931e+001 1.414349e+001 1.562135e+001 1.967957e+001 2.171844e+001 2.103044e+001 2.259249e+001 2.529652e+001 3.026193e+001 1.381719e+001 1.713454e+001 2.351596e+001 5.913059e-001 1.443983e+000 8.002244e-001 1.211166e+000 2.080468e+000 2.064836e+000 2.431085e+000 2.205121e+000 2.231328e+000 2.001374e+000 1.621761e+000 1.731009e+000 8.536731e-001
<GCONST> 8.659072e+001
<TRANSP> 5
 0.000000e+000 1.000000e+000 0.000000e+000 0.000000e+000 0.000000e+000
 0.000000e+000 7.344353e-001 2.655647e-001 0.000000e+000 0.000000e+000
 0.000000e+000 0.000000e+000 8.090541e-001 1.909460e-001 0.000000e+000
 0.000000e+000 0.000000e+000 0.000000e+000 7.616634e-001 2.383366e-001
 0.000000e+000 0.000000e+000 0.000000e+000 0.000000e+000 0.000000e+000
<ENDHMM>
~h "n"
<BEGINHMM>
<NUMSTATES> 5
<STATE> 2
<MEAN> 25
 3.676756e+000 -7.265254e+000 6.680383e-001 -7.867829e-001 -3.136626e+000 -3.345399e+000 -3.427886e+000 4.315516e+000 -3.551887e-001 -3.623928e+000 -5.475581e-001 -1.565498e+000 1.677821e-001 -6.300204e-001 4.519648e-002 -5.275065e-001 -1.357666e-001 -1.270279e-001 1.626606e-001 4.680650e-001 -1.088062e-001 4.942206e-001 -7.439984e-002 -4.837604e-001 5.216601e-001
<VARIANCE> 25
 5.403181e+001 8.236368e+001 5.828508e+001 7.392596e+001 1.099895e+002 6.365646e+001 3.493538e+001 1.268286e+002 5.278207e+001 8.485165e+001 6.141841e+001 6.490499e+001 3.093752e+000 4.436412e+000 2.591141e+000 3.853492e+000 7.632409e+000 3.713721e+000 3.329802e+000 7.331472e+000 5.436362e+000 5.469419e+000 7.464382e+000 5.175954e+000 6.135614e+000
<GCONST> 1.169844e+002
<STATE> 3
<MEAN> 25
 7.030752e+000 -6.229902e+000 -1.441097e+000 -2.377285e+000 -5.046277e+000 -4.413430e+000 -8.901925e-001 1.729028e+000 -3.655293e+000 -3.723857e+000 -3.417015e+000 -8.791386e-001 5.928736e-001 1.358119e+000 6.025001e-001 9.855210e-001 -5.990347e-001 -1.642713e-001 4.275285e-001 -1.393170e+000 1.457710e-001 -2.699006e-001 -5.143116e-001 -3.125487e-002 -1.648389e+000
<VARIANCE> 25
 2.324749e+001 5.006938e+001 4.432961e+001 5.445078e+001 5.874499e+001 5.309671e+001 4.610821e+001 6.735986e+001 5.590380e+001 1.158103e+002 4.698139e+001 7.284976e+001 1.312638e+000 1.265623e+000 1.764430e+000 2.161996e+000 3.338270e+000 3.299931e+000 3.312723e+000 5.207426e+000 3.524654e+000 5.360424e+000 3.272245e+000 4.253649e+000 1.089241e+000
<GCONST> 1.065468e+002
<STATE> 4
<MEAN> 25
 8.266854e+000 3.109924e+000 3.133351e+000 5.143771e+000 -1.558694e+000 -2.356214e+000 1.800273e-001 -5.168639e+000 3.906378e-001 -4.582008e-001 -5.735590e+000 -4.557630e+000 -2.319691e-001 6.745095e-001 3.621129e-001 3.084557e-001 3.623238e-001 2.299073e-001 1.103030e-001 -1.920698e-001 2.334523e-001 1.067057e-001 8.160694e-002 3.250569e-001 -8.787422e-001
<VARIANCE> 25
 2.804673e+001 4.226783e+001 2.929598e+001 2.886880e+001 6.821648e+001 3.257199e+001 2.782298e+001 3.647871e+001 3.321098e+001 3.994770e+001 3.455679e+001 4.258462e+001 1.159676e+000 1.610819e+000 1.350486e+000 2.124071e+000 1.836452e+000 2.057984e+000 2.322443e+000 3.698962e+000 2.145876e+000 2.786937e+000 2.458762e+000 2.500376e+000 8.197082e-001
<GCONST> 9.744302e+001
<TRANSP> 5
 0.000000e+000 1.000000e+000 0.000000e+000 0.000000e+000 0.000000e+000
 0.000000e+000 6.915251e-001 3.084750e-001 0.000000e+000 0.000000e+000
 0.000000e+000 0.000000e+000 7.471109e-001 2.528891e-001 0.000000e+000
 0.000000e+000 0.000000e+000 0.000000e+000 7.416228e-001 2.583773e-001
 0.000000e+000 0.000000e+000 0.000000e+000 0.000000e+000 0.000000e+000
<ENDHMM>
~h "p"
<BEGINHMM>
<NUMSTATES> 5
<STATE> 2
<MEAN> 25
 -3.409630e+000 -5.959275e-001 -2.692826e+000 2.682563e+000 2.072016e+000 9.346617e-001 2.937451e+000 1.564555e+000 1.792655e+000 8.659909e-001 -2.007088e-001 8.273645e-002 9.572428e-001 -1.615997e+000 -5.395916e-001 -5.397359e-001 -5.471984e-001 -1.189396e+000 -9.558632e-001 -2.579861e-001 -6.299505e-002 -3.082973e-001 7.654546e-001 -2.627919e-001 5.320256e+000
<VARIANCE> 25
 2.253996e+001 4.122944e+001 4.489993e+001 6.067074e+001 5.228049e+001 3.073662e+001 4.485907e+001 2.231246e+001 2.117947e+001 2.815206e+001 3.428393e+001 2.232319e+001 4.973921e+000 6.914235e+000 1.008613e+001 7.633817e+000 7.334191e+000 4.073790e+000 5.948153e+000 3.130082e+000 2.317048e+000 3.912097e+000 6.919141e+000 2.449399e+000 1.626816e+001
<GCONST> 1.100395e+002
<STATE> 3
<MEAN> 25
 -1.284152e+000 -5.884950e+000 -4.629853e+000 -1.677149e+000 2.674462e+000 4.148338e+000 -1.024902e+000 -3.227737e+000 1.862427e+000 -8.456357e-001 1.282814e+000 -4.036451e-001 1.207991e+000 1.826253e-001 1.259247e+000 1.030790e-002 -2.038303e-001 -1.986484e-001 -1.883759e+000 -6.485032e-001 -4.438516e-001 -6.898521e-001 -3.719562e-001 -3.660913e-001 1.646757e+000
<VARIANCE> 25
 3.915989e+001 5.396927e+001 6.808344e+001 6.089284e+001 7.910387e+001 1.049519e+002 3.632526e+001 3.219191e+001 3.758400e+001 2.994410e+001 5.187003e+001 2.016116e+001 4.757895e+000 3.072768e+000 4.438385e+000 2.537103e+000 6.387919e+000 7.851976e+000 9.144015e+000 4.003038e+000 4.254997e+000 2.903503e+000 4.190679e+000 2.634452e+000 1.201948e+001
<GCONST> 1.120209e+002
<STATE> 4
<MEAN> 25
 8.756672e+000 -2.032509e+000 -2.563738e+000 -2.664566e+000 -6.105846e+000 -4.811140e+000 -5.421450e+000 5.190152e-001 1.919716e+000 -9.545009e-001 -3.678538e+000 -3.515083e+000 5.211956e-001 3.642352e-001 7.687134e-001 6.937727e-002 -5.097882e-001 -5.569871e-001 -1.542715e-001 8.621088e-002 -3.526590e-001 -4.314565e-002 3.552328e-001 -1.308289e-001 1.944170e-001
<VARIANCE> 25
 5.976405e+001 6.335416e+001 7.584396e+001 3.796291e+001 8.212301e+001 5.319954e+001 4.287538e+001 3.362172e+001 3.201588e+001 3.181195e+001 3.422435e+001 2.698958e+001 3.230538e+000 2.257795e+000 3.475533e+000 2.437829e+000 3.641002e+000 2.675324e+000 2.733023e+000 1.675900e+000 3.181279e+000 3.332839e+000 2.653108e+000 2.308285e+000 5.274719e+000
<GCONST> 1.053198e+002
<TRANSP> 5
 0.000000e+000 1.000000e+000 0.000000e+000 0.000000e+000 0.000000e+000
 0.000000e+000 5.601398e-001 4.398602e-001 0.000000e+000 0.000000e+000
 0.000000e+000 0.000000e+000 6.230790e-001 3.769210e-001 0.000000e+000
 0.000000e+000 0.000000e+000 0.000000e+000 6.466553e-001 3.533447e-001
 0.000000e+000 0.000000e+000 0.000000e+000 0.000000e+000 0.000000e+000
<ENDHMM>
~h "r"
<BEGINHMM>
<NUMSTATES> 5
<STATE> 2
<MEAN> 25
 6.553121e-001 2.896764e+000 4.045720e-001 3.464505e+000 1.780090e+000 4.256724e+000 6.320675e-001 -9.847940e-002 2.193907e+000 -8.310435e-001 -1.261625e+000 -1.020859e+000 2.203228e-001 -1.582215e-001 -2.605163e-002 1.979037e-001 -2.059283e-002 -1.250314e-001 -2.112253e-001 7.567059e-002 1.550480e-001 -1.886513e-001 9.584955e-002 3.531020e-002 2.760639e-001
<VARIANCE> 25
 3.716873e+001 5.747970e+001 3.456493e+001 5.060705e+001 3.473554e+001 3.767065e+001 4.041133e+001 3.549555e+001 2.727294e+001 3.022717e+001 3.310915e+001 3.123075e+001 1.835732e+000 2.565901e+000 1.626867e+000 1.763626e+000 2.032513e+000 3.035383e+000 2.463353e+000 2.266140e+000 1.619623e+000 2.906161e+000 2.789072e+000 2.466547e+000 1.550643e+000
<GCONST> 9.924098e+001
<STATE> 3
<MEAN> 25
 4.752796e+000 -3.647310e+000 -2.733927e+000 1.718222e-001 -1.821106e+000 3.488076e-001 -3.744318e+000 -2.815446e-001 2.999713e+000 -2.146894e+000 1.893878e+000 6.374047e-001 8.712465e-001 -7.960963e-001 -6.918774e-001 -1.825175e-001 -6.472659e-001 -6.542439e-001 -1.038312e+000 -3.526966e-001 1.432874e-001 -6.096536e-001 7.932004e-001 4.913337e-001 1.929335e+000
<VARIANCE> 25
 6.191257e+001 8.047121e+001 5.898554e+001 6.930494e+001 6.006306e+001 7.711732e+001 4.485440e+001 6.102604e+001 3.454109e+001 6.266176e+001 5.616780e+001 4.554885e+001 5.952960e+000 6.909656e+000 3.582690e+000 4.545082e+000 5.737238e+000 3.813551e+000 4.153601e+000 6.549944e+000 3.923379e+000 5.720111e+000 4.713063e+000 3.936283e+000 5.477538e+000
<GCONST> 1.152869e+002
<STATE> 4
<MEAN> 25
 9.409453e+000 -1.841923e+000 -5.722241e+000 -1.797434e+000 -2.424627e+000 -4.855640e-001 -6.791382e+000 -4.582886e-001 2.867214e+000 -4.970151e+000 3.276543e+000 1.880609e+000 -1.222334e-001 9.088536e-002 1.519592e-001 1.687025e-002 1.578500e-001 -4.035192e-001 3.906024e-001 -6.049182e-002 -2.168418e-001 6.288229e-002 1.641090e-002 -4.437469e-002 -2.035324e-001
<VARIANCE> 25
 3.128783e+001 5.887691e+001 5.286596e+001 1.263801e+002 5.132685e+001 1.192277e+002 7.596969e+001 7.080514e+001 5.949786e+001 5.654680e+001 3.723714e+001 3.479856e+001 1.293668e+000 1.074500e+000 1.966041e+000 3.244401e+000 2.890143e+000 4.644825e+000 3.690926e+000 3.747563e+000 2.906211e+000 3.422251e+000 2.501427e+000 2.515440e+000 1.285605e+000
<GCONST> 1.066641e+002
<TRANSP> 5
 0.000000e+000 1.000000e+000 0.000000e+000 0.000000e+000 0.000000e+000
 0.000000e+000 7.142348e-001 2.857652e-001 0.000000e+000 0.000000e+000
 0.000000e+000 0.000000e+000 6.269413e-001 3.730587e-001 0.000000e+000
 0.000000e+000 0.000000e+000 0.000000e+000 8.309467e-001 1.690533e-001
 0.000000e+000 0.000000e+000 0.000000e+000 0.000000e+000 0.000000e+000
<ENDHMM>
~h "s"
<BEGINHMM>
<NUMSTATES> 5
<STATE> 2
<MEAN> 25
 -6.304676e+000 3.902180e+000 3.310374e+000 2.648294e+000 3.265353e+000 -2.869581e+000 2.037909e+000 9.615041e-001 -2.145494e+000 -1.408992e+000 1.727988e-001 5.910186e-001 -2.703031e+000 -1.945715e-001 1.051392e-001 1.732804e-002 6.179563e-001 8.972590e-003 1.036973e-001 1.023220e+000 4.898621e-001 -4.134717e-001 6.554926e-001 5.827840e-001 5.694302e-001
<VARIANCE> 25
 7.673000e+001 9.527455e+001 5.699707e+001 3.521030e+001 6.907075e+001 6.761369e+001 3.051365e+001 4.899596e+001 3.758760e+001 4.063844e+001 4.416437e+001 3.208964e+001 3.935296e+000 5.275664e+000 6.379030e+000 3.804332e+000 6.284086e+000 4.246184e+000 2.931297e+000 3.879823e+000 3.462437e+000 3.975428e+000 2.366132e+000 2.836526e+000 2.251739e+000
<GCONST> 1.100702e+002
<STATE> 3
<MEAN> 25
 -1.717134e+001 -7.311130e+000 1.230139e+001 3.653022e+000 -2.508782e+000 4.648988e+000 1.813607e+000 4.009530e+000 1.853297e+000 -1.726674e+000 3.542709e+000 -1.424376e+000 1.109471e-001 2.086218e-001 -3.383551e-001 -9.878195e-002 2.013220e-001 2.684830e-002 -2.477619e-001 -4.659840e-002 -3.513807e-003 -8.046519e-003 -1.484281e-001 -4.465332e-002 3.589248e-002
<VARIANCE> 25
 4.269315e+001 7.450195e+001 1.017412e+002 3.633196e+001 6.108025e+001 4.792643e+001 3.026847e+001 2.629700e+001 1.628485e+001 4.492863e+001 3.322215e+001 1.700365e+001 4.846979e+000 1.341390e+000 2.345628e+000 1.451515e+000 1.891596e+000 1.729944e+000 1.720903e+000 1.756202e+000 1.641521e+000 1.809993e+000 1.491831e+000 1.246759e+000 9.263856e-001
<GCONST> 9.684206e+001
<STATE> 4
<MEAN> 25
 -1.223556e+001 4.596144e+000 -2.278253e+000 -1.610679e+000 3.968676e+000 -1.664431e+000 1.723976e-001 2.222120e+000 -8.143350e-001 4.233786e-001 -1.739984e+000 1.458821e+000 6.236981e-001 -2.662053e-001 -1.996857e-001 -7.275428e-003 -2.372224e-001 5.486919e-002 -1.116903e-001 -2.277129e-001 8.321328e-002 1.214181e-002 1.568100e-001 -1.046165e-002 -3.262059e-001
<VARIANCE> 25
 3.680235e+001 2.643076e+001 2.003773e+001 2.760184e+001 2.366819e+001 3.158655e+001 2.498925e+001 2.068952e+001 1.697762e+001 2.410511e+001 2.026309e+001 1.998131e+001 2.737014e+000 1.500283e+000 1.813309e+000 1.344557e+000 1.883322e+000 2.130801e+000 1.794228e+000 2.178383e+000 1.827976e+000 1.924891e+000 1.708124e+000 1.725594e+000 1.339161e+000
<GCONST> 9.171289e+001
<TRANSP> 5
 0.000000e+000 1.000000e+000 0.000000e+000 0.000000e+000 0.000000e+000
 0.000000e+000 7.027358e-001 2.972642e-001 0.000000e+000 0.000000e+000
 0.000000e+000 0.000000e+000 7.933628e-001 2.066372e-001 0.000000e+000
 0.000000e+000 0.000000e+000 0.000000e+000 8.379827e-001 1.620174e-001
 0.000000e+000 0.000000e+000 0.000000e+000 0.000000e+000 0.000000e+000
<ENDHMM>
~h "t"
<BEGINHMM>
<NUMSTATES> 5
<STATE> 2
<MEAN> 25
 -3.907948e+000 1.823698e+000 -5.130910e-001 2.311801e+000 3.035572e-001 -6.249462e-001 2.935435e+000 6.974003e-001 2.578239e+000 -8.987864e-002 2.141129e+000 3.028851e-001 1.187342e+000 -1.816946e+000 -8.437027e-001 -1.411559e+000 -5.425709e-001 -1.569076e+000 -1.697141e-001 2.611885e-001 1.391705e-001 -1.733517e-001 4.242050e-001 1.886486e-001 4.565692e+000
<VARIANCE> 25
 6.732242e+001 3.761586e+001 4.186784e+001 4.009353e+001 3.133895e+001 6.384163e+001 3.515805e+001 3.927667e+001 3.150088e+001 3.425977e+001 4.189481e+001 2.215873e+001 8.703732e+000 4.551599e+000 5.038938e+000 5.938063e+000 5.535581e+000 6.825043e+000 6.373419e+000 3.791335e+000 3.943446e+000 5.198365e+000 5.273567e+000 2.113915e+000 2.324113e+001
<GCONST> 1.123307e+002
<STATE> 3
<MEAN> 25
 4.072649e-001 -3.367551e+000 -2.023612e+000 -1.017300e+000 -1.333616e+000 -4.578283e+000 -3.875916e-002 1.747724e+000 2.123763e+000 -1.257045e+000 -3.941275e-001 -1.023907e-001 6.045280e-001 -8.525604e-001 -1.590939e-001 -2.603095e-001 1.621910e-001 6.357777e-001 -3.605508e-001 5.891433e-001 -1.638166e-001 4.748078e-001 -2.123182e-001 -3.945361e-002 9.662009e-001
<VARIANCE> 25
 4.219641e+001 5.382505e+001 3.372248e+001 4.535907e+001 5.718350e+001 5.828141e+001 5.646688e+001 5.138679e+001 3.579440e+001 3.488909e+001 3.277560e+001 2.821598e+001 3.779082e+000 2.167136e+000 3.463291e+000 2.443377e+000 3.567132e+000 6.294219e+000 6.860617e+000 4.640170e+000 3.895803e+000 3.804268e+000 6.013371e+000 2.926480e+000 6.999929e+000
<GCONST> 1.093720e+002
<STATE> 4
<MEAN> 25
 1.228195e+000 -4.634349e+000 -3.425825e+000 -7.472227e-001 9.009466e-001 4.103090e-001 2.228503e+000 4.712200e-001 1.683467e+000 1.323337e+000 1.650588e+000 1.934485e+000 4.131306e-002 -1.788812e-001 1.016022e-001 3.270349e-001 4.748815e-001 4.724858e-001 -9.671014e-002 -5.117474e-001 -2.894107e-001 5.909153e-002 2.317334e-001 -7.591796e-002 -6.277296e-002
<VARIANCE> 25
 2.607900e+001 7.079865e+001 4.180065e+001 4.690454e+001 6.498250e+001 3.471852e+001 4.031902e+001 3.407121e+001 3.479915e+001 3.519149e+001 4.366682e+001 2.787993e+001 1.740508e+000 1.138476e+000 1.339196e+000 1.721823e+000 3.531259e+000 3.025794e+000 2.860512e+000 3.134067e+000 2.593010e+000 2.749988e+000 3.254079e+000 1.964840e+000 1.988848e+000
<GCONST> 1.007993e+002
<TRANSP> 5
 0.000000e+000 1.000000e+000 0.000000e+000 0.000000e+000 0.000000e+000
 0.000000e+000 5.157402e-001 4.842598e-001 0.000000e+000 0.000000e+000
 0.000000e+000 0.000000e+000 3.878272e-001 6.121728e-001 0.000000e+000
 0.000000e+000 0.000000e+000 0.000000e+000 6.518292e-001 3.481708e-001
 0.000000e+000 0.000000e+000 0.000000e+000 0.000000e+000 0.000000e+000
<ENDHMM>
~h "v"
<BEGINHMM>
<NUMSTATES> 5
<STATE> 2
<MEAN> 25
 3.717650e+000 -4.732332e-001 -3.554564e+000 -4.565182e+000 3.798104e-001 2.041927e+000 -1.656010e+000 1.131595e+000 -6.479745e-001 5.146805e-002 1.183625e+000 2.167183e+000 1.674825e+000 8.619857e-001 -5.388847e-001 -2.562725e+000 -3.479807e-001 1.600209e+000 -8.283889e-001 -7.003706e-001 -5.267212e-001 -2.984329e-002 5.634553e-001 -1.241112e-001 1.355740e+000
<VARIANCE> 25
 3.064329e+001 2.690961e+001 3.883488e+001 1.087371e+002 4.310196e+001 9.041719e+001 3.351710e+001 2.511607e+001 2.897080e+001 3.604308e+001 3.834925e+001 1.912121e+001 4.266501e+000 4.361283e+000 5.318433e+000 6.003373e+000 5.149855e+000 5.982365e+000 3.186862e+000 5.715659e+000 5.577828e+000 5.497979e+000 3.636812e+000 1.987875e+000 6.667840e+000
<GCONST> 1.095779e+002
<STATE> 3
<MEAN> 25
 6.375062e+000 1.565362e+000 -1.618617e+000 -8.603118e+000 -5.569693e+000 5.697713e+000 -2.705909e+000 1.496395e+000 -1.162838e+000 -3.786970e+000 1.530765e+000 -2.711337e-001 -5.325842e-001 7.535628e-001 -3.207234e-001 1.206494e-001 -3.718719e-001 -1.195392e+000 7.840695e-001 1.374991e-001 7.622787e-001 3.658485e-001 -7.890865e-001 -1.870704e-001 4.603436e-001
<VARIANCE> 25
 2.321877e+001 3.165171e+001 2.872950e+001 1.430580e+002 5.066476e+001 1.826830e+002 6.687516e+001 1.550466e+001 1.896709e+001 4.495674e+001 1.667546e+001 3.542103e+001 1.638318e+000 2.031040e+000 1.237292e+000 4.054955e+000 3.206725e+000 7.234318e+000 2.018206e+000 1.927104e+000 1.654215e+000 2.580090e+000 1.677499e+000 2.271364e+000 1.821572e+000
<GCONST> 1.007804e+002
<STATE> 4
<MEAN> 25
 2.296380e+000 3.445842e+000 -3.238232e+000 -4.039047e+000 -5.067900e-001 -2.333670e+000 -2.700704e-001 2.520263e-001 1.935037e+000 1.688394e+000 -7.277569e-001 1.806467e+000 -4.519212e-001 1.971213e-001 3.864604e-001 7.425395e-001 7.162448e-001 -4.224952e-001 -2.942203e-001 -4.969022e-001 -6.299297e-002 -7.162824e-002 -2.460750e-001 -1.163965e-001 -5.963374e-001
<VARIANCE> 25
 4.157960e+001 1.989439e+001 3.861672e+001 9.580667e+001 3.652570e+001 3.816486e+001 3.762477e+001 3.145580e+001 3.194407e+001 3.734838e+001 2.053649e+001 5.672900e+001 1.103346e+000 6.476371e-001 1.398123e+000 4.139010e+000 1.899998e+000 3.825856e+000 2.748144e+000 1.872358e+000 2.227945e+000 3.055474e+000 3.163144e+000 3.429876e+000 7.091873e-001
<GCONST> 9.834167e+001
<TRANSP> 5
 0.000000e+000 1.000000e+000 0.000000e+000 0.000000e+000 0.000000e+000
 0.000000e+000 6.282026e-001 3.717975e-001 0.000000e+000 0.000000e+000
 0.000000e+000 0.000000e+000 6.033077e-001 3.966924e-001 0.000000e+000
 0.000000e+000 0.000000e+000 0.000000e+000 6.660766e-001 3.339234e-001
 0.000000e+000 0.000000e+000 0.000000e+000 0.000000e+000 0.000000e+000
<ENDHMM>
~h "w"
<BEGINHMM>
<NUMSTATES> 5
<STATE> 2
<MEAN> 25
 6.872856e+000 2.487030e+000 -4.245297e+000 -1.020524e+001 -3.642274e+000 -7.796507e-001 1.131475e+000 1.410886e+000 -5.136867e-001 -4.867464e-001 -2.748272e+000 -2.700656e+000 5.707914e-001 9.965660e-002 -4.177725e-001 -5.888087e-001 -1.533628e-001 -1.098821e-001 -5.389071e-001 -2.395490e-001 1.924319e-001 -1.152513e-001 1.767726e-001 -1.187618e-001 8.151370e-001
<VARIANCE> 25
 5.769725e+001 7.110082e+001 4.609424e+001 6.213155e+001 7.082562e+001 1.336092e+002 7.434888e+001 3.495486e+001 6.636489e+001 4.308200e+001 3.146645e+001 5.484645e+001 5.459417e+000 5.121274e+000 4.028549e+000 7.606738e+000 7.256791e+000 1.080822e+001 8.743448e+000 4.703839e+000 4.462384e+000 3.773685e+000 3.104114e+000 3.490866e+000 6.317637e+000
<GCONST> 1.165379e+002
<STATE> 3
<MEAN> 25
 1.083261e+001 2.521709e+000 -2.126825e+000 -1.081918e+001 -4.301477e+000 7.705261e-002 -1.078109e+001 9.424578e-001 -5.585715e+000 9.580783e-001 8.141062e+000 -3.449395e+000 -1.997341e-001 -1.331164e+000 -6.248695e-001 4.916497e-001 1.624920e-001 5.504152e-002 -5.531273e-001 1.124075e+000 4.012414e-001 1.406920e-001 6.032937e-001 -1.065339e+000 1.251592e+000
<VARIANCE> 25
 2.453761e+001 4.949779e+001 5.583165e+001 1.192248e+002 3.680280e+001 1.235476e+002 6.820615e+001 3.036824e+001 4.747633e+001 2.753643e+001 4.974735e+001 4.184706e+001 2.020759e+000 1.482188e+000 1.892101e+000 4.613873e+000 3.413824e+000 9.063817e+000 4.706822e+000 2.348589e+000 4.091459e+000 2.761430e+000 5.037093e+000 2.934508e+000 9.554596e-001
<GCONST> 1.068984e+002
<STATE> 4
<MEAN> 25
 1.727220e-001 -9.096321e+000 -8.505582e+000 -3.807656e+000 5.226106e+000 4.735631e+000 -4.286680e+000 -1.135839e+000 3.971399e-001 -3.331419e+000 6.557233e+000 -1.432753e+000 -2.513597e-001 -2.217016e-001 9.603588e-002 4.243855e-001 1.080731e-001 -4.401790e-001 6.162179e-001 6.563381e-002 -1.543770e-001 -1.188749e-001 -1.028443e-001 7.702228e-001 -8.917896e-002
<VARIANCE> 25
 3.880326e+001 3.575871e+001 1.200062e+001 2.711293e+001 1.061060e+002 1.450953e+002 3.288639e+001 5.834333e+001 4.380059e+001 1.700691e+001 2.370439e+001 5.122116e+001 3.401841e-001 5.583692e-001 5.254673e-001 9.710519e-001 1.576148e+000 2.595577e+000 2.064150e+000 3.127125e+000 2.045541e+000 2.405404e+000 1.991472e+000 1.912471e+000 5.585693e-001
<GCONST> 9.317156e+001
<TRANSP> 5
 0.000000e+000 1.000000e+000 0.000000e+000 0.000000e+000 0.000000e+000
 0.000000e+000 9.054572e-001 9.454280e-002 0.000000e+000 0.000000e+000
 0.000000e+000 0.000000e+000 8.159661e-001 1.840339e-001 0.000000e+000
 0.000000e+000 0.000000e+000 0.000000e+000 8.537214e-001 1.462786e-001
 0.000000e+000 0.000000e+000 0.000000e+000 0.000000e+000 0.000000e+000
<ENDHMM>
~h "y"
<BEGINHMM>
<NUMSTATES> 5
<STATE> 2
<MEAN> 25
 2.588338e+000 1.720670e+000 1.042128e+001 2.687995e+000 -1.054836e+001 -9.618602e+000 -1.435819e+000 -2.213126e+000 -1.084375e+001 -3.438767e+000 3.397436e+000 -4.857900e+000 2.071490e-001 -3.027986e-001 -2.324126e-001 1.670242e-001 -3.047569e-001 -3.672864e-001 7.316943e-002 1.671026e-001 2.384960e-001 -5.299590e-002 1.756006e-001 2.576232e-001 -4.305508e-002
<VARIANCE> 25
 1.978710e+001 2.050499e+001 3.982680e+001 2.313486e+001 4.872931e+001 4.379111e+001 1.967730e+001 2.151347e+001 5.260038e+001 1.972242e+001 5.080747e+001 3.605569e+001 3.280483e+000 2.192351e+000 2.973879e+000 1.931054e+000 5.361480e+000 4.590939e+000 1.794222e+000 2.124391e+000 5.639079e+000 1.789256e+000 3.591271e+000 3.125750e+000 2.369664e+000
<GCONST> 1.008047e+002
<STATE> 3
<MEAN> 25
 1.129699e+001 -5.074438e+000 -5.685237e+000 3.939670e+000 -8.864664e+000 -1.288626e+001 -3.433979e+000 1.000234e+000 8.852862e+000 -7.060983e+000 -1.137535e+000 2.027313e+000 3.651125e-001 2.205163e-001 -4.002593e-001 -8.625362e-002 1.485383e-001 1.570563e-001 -6.377836e-002 1.212005e-001 4.943646e-001 -4.045715e-001 2.101463e-001 -3.193310e-001 -2.848548e-001
<VARIANCE> 25
 2.611803e+001 1.846664e+001 5.456567e+001 2.388212e+001 3.734882e+001 3.353975e+001 2.603385e+001 3.676251e+001 4.887185e+001 2.353139e+001 2.533767e+001 2.554702e+001 1.756804e+000 1.729967e+000 2.680764e+000 1.455646e+000 2.299030e+000 2.712063e+000 1.648667e+000 1.312832e+000 2.440802e+000 1.256992e+000 1.598953e+000 1.446466e+000 4.380145e-001
<GCONST> 9.302483e+001
<STATE> 4
<MEAN> 25
 4.439672e+000 -3.120697e+000 -1.156292e+000 2.719379e+000 -3.412994e+000 -4.851256e+000 -3.884360e+000 -4.989937e-001 2.432898e+000 -2.997137e+000 2.144113e+000 1.178566e+000 -3.668811e-001 3.951257e-001 2.086061e-001 4.222845e-001 5.263919e-001 1.146835e+000 2.622940e-001 -5.854329e-002 -2.569173e-002 1.260180e-001 -6.304356e-001 -1.584879e-001 -4.274258e-001
<VARIANCE> 25
 4.046999e+001 1.583188e+001 2.386662e+001 1.936129e+001 4.708765e+001 6.257510e+001 3.232830e+001 3.595447e+001 3.137071e+001 6.735598e+001 2.124041e+001 1.430105e+001 1.013611e+000 1.536273e+000 2.149417e+000 8.916721e-001 2.044461e+000 2.310346e+000 1.066109e+000 1.709900e+000 1.394588e+000 1.001899e+000 1.120497e+000 1.041288e+000 3.863804e-001
<GCONST> 8.974815e+001
<TRANSP> 5
 0.000000e+000 1.000000e+000 0.000000e+000 0.000000e+000 0.000000e+000
 0.000000e+000 9.072331e-001 9.276690e-002 0.000000e+000 0.000000e+000
 0.000000e+000 0.000000e+000 7.537922e-001 2.462078e-001 0.000000e+000
 0.000000e+000 0.000000e+000 0.000000e+000 6.312012e-001 3.687988e-001
 0.000000e+000 0.000000e+000 0.000000e+000 0.000000e+000 0.000000e+000
<ENDHMM>
~h "z"
<BEGINHMM>
<NUMSTATES> 5
<STATE> 2
<MEAN> 25
 -4.355976e+000 1.269206e+000 -6.818072e+000 -4.748645e+000 1.009909e+001 4.715866e+000 -7.144910e+000 3.234427e+000 5.916096e+000 -1.541777e+000 4.446682e+000 5.492692e+000 -1.172122e+000 3.824506e-001 2.345544e-001 4.553675e-001 2.277805e-001 -8.692673e-001 9.315944e-001 7.502737e-001 6.707988e-001 -1.566150e-001 -6.170065e-001 2.009197e-001 8.777443e-002
<VARIANCE> 25
 1.875350e+001 1.564001e+002 2.738264e+001 3.437778e+001 4.176004e+001 7.516953e+001 5.820552e+001 3.830571e+001 3.786429e+001 3.943998e+001 4.111026e+001 2.202719e+001 2.988016e+000 3.150255e+000 1.161973e+000 2.571805e+000 3.363601e+000 4.368070e+000 4.225159e+000 4.119401e+000 4.367530e+000 3.236129e+000 4.031604e+000 1.892415e+000 1.402359e+000
<GCONST> 1.045563e+002
<STATE> 3
<MEAN> 25
 -6.558893e+000 3.546257e+000 -4.096342e+000 1.945363e+000 9.962449e+000 -7.965399e+000 -3.673572e+000 4.559886e+000 5.585583e+000 7.837617e-001 -8.222663e-001 6.165590e+000 1.737331e+000 -1.048254e+000 7.068856e-001 1.097628e+000 -1.043144e+000 -1.202943e+000 -8.673359e-001 -4.369370e-001 -1.517732e-001 1.639231e-001 -7.036083e-001 -6.851436e-001 3.886943e-001
<VARIANCE> 25
 5.495596e+001 6.479597e+001 2.830015e+001 5.319665e+001 5.153168e+001 8.949171e+001 4.012965e+001 5.005738e+001 4.314124e+001 4.852519e+001 3.324427e+001 3.343116e+001 5.443959e+000 3.703043e+000 1.446924e+000 2.652270e+000 4.318765e+000 4.340751e+000 5.773492e+000 4.038084e+000 4.062741e+000 4.289105e+000 3.160395e+000 3.665437e+000 3.490529e+000
<GCONST> 1.091293e+002
<STATE> 4
<MEAN> 25
 1.910819e+000 5.150092e+000 -1.899151e+000 -3.259592e-001 -1.648681e+000 -1.326046e+001 -1.525066e+000 3.947178e-001 1.626027e+000 -2.074666e+000 -2.504622e+000 4.061671e+000 3.793398e-001 -3.109483e-001 4.656132e-001 -2.746462e-001 -5.751262e-001 -2.099102e-001 -1.189306e-001 2.966462e-001 -1.484027e-001 -8.594871e-002 1.880750e-001 -8.554254e-002 4.806876e-001
<VARIANCE> 25
 2.303860e+001 9.833615e+001 3.257333e+001 4.568715e+001 3.096942e+001 4.730203e+001 6.644611e+001 2.635530e+001 3.296124e+001 6.032482e+001 4.908937e+001 4.255045e+001 2.660985e+000 8.210176e+000 1.697854e+000 2.968201e+000 2.826420e+000 3.125833e+000 5.122755e+000 2.834158e+000 1.899986e+000 5.170295e+000 2.519485e+000 5.117968e+000 2.224359e+000
<GCONST> 1.061714e+002
<TRANSP> 5
 0.000000e+000 1.000000e+000 0.000000e+000 0.000000e+000 0.000000e+000
 0.000000e+000 8.080940e-001 1.919060e-001 0.000000e+000 0.000000e+000
 0.000000e+000 0.000000e+000 7.284318e-001 2.715681e-001 0.000000e+000
 0.000000e+000 0.000000e+000 0.000000e+000 7.997434e-001 2.002566e-001
 0.000000e+000 0.000000e+000 0.000000e+000 0.000000e+000 0.000000e+000
<ENDHMM>
~h "aa"
<BEGINHMM>
<NUMSTATES> 5
<STATE> 2
<MEAN> 25
 8.013634e+000 -1.712129e+000 -8.938148e+000 -9.518971e+000 -2.081617e+000 5.716137e+000 -2.923898e+000 -2.389528e+000 -3.384730e+000 2.415803e+000 6.861315e+000 -4.885302e+000 1.446173e+000 4.517556e-001 -6.382726e-001 -1.005017e+000 -8.291208e-001 5.063931e-001 1.083960e-001 -7.286686e-001 -4.230975e-001 -5.174503e-002 2.001551e-001 -4.892732e-001 4.515084e-001
<VARIANCE> 25
 3.216348e+001 3.468430e+001 4.297213e+001 6.061925e+001 4.074429e+001 3.177271e+001 2.877165e+001 3.069523e+001 1.732884e+001 2.430178e+001 5.511600e+001 4.101008e+001 2.405588e+000 1.956853e+000 2.337693e+000 3.773491e+000 1.825377e+000 2.474590e+000 1.960813e+000 2.413807e+000 1.659702e+000 2.436297e+000 2.910407e+000 4.337050e+000 3.626727e+000
<GCONST> 1.005545e+002
<STATE> 3
<MEAN> 25
 8.346036e+000 3.141405e+000 -5.356984e+000 -1.081345e+001 -2.538397e+000 6.528461e+000 2.082204e+000 -3.801318e+000 -2.877195e+000 1.061737e-001 1.555236e-001 7.409061e-001 -9.363060e-001 3.057024e-001 8.136738e-001 9.781550e-001 7.732234e-001 -5.155266e-001 -6.148717e-002 3.687343e-001 4.358397e-001 7.109869e-002 -5.773091e-001 2.376966e-001 -1.063875e+000
<VARIANCE> 25
 3.044356e+001 2.633759e+001 3.381968e+001 1.096618e+002 2.584509e+001 4.972698e+001 4.837262e+001 6.094654e+001 5.274844e+001 2.828691e+001 3.030614e+001 4.385449e+001 1.309235e+000 1.674825e+000 2.560105e+000 4.568939e+000 1.533362e+000 5.117838e+000 5.216094e+000 5.371768e+000 3.786942e+000 2.369551e+000 3.877887e+000 5.561600e+000 2.120931e+000
<GCONST> 1.051549e+002
<STATE> 4
<MEAN> 25
 -3.320961e+000 3.191602e+000 1.934111e+000 1.893091e+000 2.546620e+000 1.159683e+000 8.320662e-001 1.206437e+000 1.655181e+000 1.404924e+000 -1.702647e+000 -3.466763e-001 -1.590277e-001 -5.572261e-002 1.117481e-002 1.637030e-001 -5.092792e-003 8.256089e-003 7.718913e-003 1.741171e-001 1.540695e-001 2.102946e-002 -5.895841e-002 -1.254625e-001 -1.451188e-001
<VARIANCE> 25
 3.139178e+001 2.667942e+001 2.105136e+001 3.885147e+001 1.919729e+001 2.460296e+001 2.075813e+001 2.504263e+001 2.093123e+001 2.080886e+001 2.199364e+001 1.732916e+001 9.132438e-001 6.618648e-001 9.156720e-001 1.021468e+000 1.213577e+000 2.057106e+000 1.354458e+000 1.873126e+000 1.601360e+000 1.909383e+000 1.617233e+000 1.743680e+000 1.349101e+000
<GCONST> 8.754436e+001
<TRANSP> 5
 0.000000e+000 1.000000e+000 0.000000e+000 0.000000e+000 0.000000e+000
 0.000000e+000 7.796801e-001 2.203198e-001 0.000000e+000 0.000000e+000
 0.000000e+000 0.000000e+000 8.131443e-001 1.868557e-001 0.000000e+000
 0.000000e+000 0.000000e+000 0.000000e+000 9.029263e-001 9.707371e-002
 0.000000e+000 0.000000e+000 0.000000e+000 0.000000e+000 0.000000e+000
<ENDHMM>
~h "ae"
<BEGINHMM>
<NUMSTATES> 5
<STATE> 2
<MEAN> 25
 3.670688e+000 -3.178509e+000 -3.464907e+000 -9.442835e-001 -1.490308e+000 -3.822938e+000 2.434509e-001 9.255905e-001 -4.693422e+000 -3.561944e+000 -3.460907e+000 -2.045589e+000 -3.530134e-001 1.677628e+000 2.135383e-001 1.778905e-001 -3.834100e-001 -4.552286e-001 9.424481e-001 -4.464440e-001 1.372786e-001 -4.462862e-001 -5.911133e-001 -5.106632e-001 -4.419196e-001
<VARIANCE> 25
 4.714059e+001 1.317964e+002 2.358214e+001 2.688675e+001 5.352753e+001 3.581162e+001 7.843828e+001 4.703137e+001 4.608079e+001 8.100376e+001 4.810175e+001 3.548743e+001 6.522997e+000 5.519003e+000 3.033165e+000 3.656062e+000 6.251712e+000 5.193692e+000 7.216134e+000 4.334322e+000 4.871931e+000 6.815816e+000 5.738919e+000 4.719388e+000 4.386073e+000
<GCONST> 1.137653e+002
<STATE> 3
<MEAN> 25
 -8.589059e+000 3.190268e+000 -2.869762e+000 1.021780e+000 2.162861e+000 -1.751816e+000 4.225170e+000 8.958828e-001 1.367779e+000 2.458472e+000 4.577271e+000 -2.097426e+000 1.014011e+000 -1.050862e+000 -6.321372e-001 -1.052823e+000 3.008402e-001 2.754996e-001 -9.696142e-001 -1.325975e-001 1.195110e-001 3.849074e-001 2.277641e-001 -5.715728e-002 5.975431e-001
<VARIANCE> 25
 1.253378e+002 8.355256e+001 3.990945e+001 5.127140e+001 4.594455e+001 2.481108e+001 6.267340e+001 8.131398e+001 4.540332e+001 5.838730e+001 6.038930e+001 2.573699e+001 8.919820e+000 3.172387e+000 3.873652e+000 6.131845e+000 3.477975e+000 2.618137e+000 5.406195e+000 6.576556e+000 4.807471e+000 7.290431e+000 4.842379e+000 3.205577e+000 3.763339e+000
<GCONST> 1.135483e+002
<STATE> 4
<MEAN> 25
 5.870354e+000 -8.392425e+000 -9.462302e+000 -9.642509e+000 1.835308e+000 -1.570734e+000 -2.786484e+000 6.317379e-001 6.843729e+000 2.939202e+000 -2.237766e+000 -4.964947e+000 -2.677355e-001 -2.083130e-001 9.557474e-002 2.032428e-001 -2.771640e-001 -7.086665e-002 2.518120e-001 1.553971e-001 9.197227e-002 -3.452211e-001 -1.875505e-001 1.595919e-001 3.386122e-001
<VARIANCE> 25
 2.016015e+001 1.670228e+001 2.343932e+001 4.523765e+001 4.608536e+001 2.713679e+001 3.652234e+001 3.331979e+001 4.854649e+001 6.481097e+001 2.634117e+001 2.577349e+001 6.474056e-001 6.248755e-001 8.959520e-001 1.914448e+000 1.572518e+000 1.611058e+000 2.132317e+000 2.178648e+000 2.853860e+000 2.798782e+000 1.309836e+000 2.019169e+000 7.438089e-001
<GCONST> 9.239700e+001
<TRANSP> 5
 0.000000e+000 1.000000e+000 0.000000e+000 0.000000e+000 0.000000e+000
 0.000000e+000 8.341649e-001 1.658352e-001 0.000000e+000 0.000000e+000
 0.000000e+000 0.000000e+000 8.620542e-001 1.379458e-001 0.000000e+000
 0.000000e+000 0.000000e+000 0.000000e+000 8.760628e-001 1.239372e-001
 0.000000e+000 0.000000e+000 0.000000e+000 0.000000e+000 0.000000e+000
<ENDHMM>
~h "ah"
<BEGINHMM>
<NUMSTATES> 5
<STATE> 2
<MEAN> 25
 4.519445e+000 -3.345347e-001 -1.799046e+000 1.509362e+000 1.549816e+000 -5.476964e-001 -3.453332e+000 -3.634732e+000 -2.049774e+000 -2.393291e+000 8.453684e-001 -4.707621e-001 2.994553e-001 -1.988180e-001 -1.747530e-001 -1.754599e-001 -3.861856e-001 1.976998e-001 -7.411063e-001 -2.271227e-001 -2.034754e-001 -6.218778e-001 1.684432e-001 5.616737e-002 5.040952e-001
<VARIANCE> 25
 3.192532e+001 4.452405e+001 5.999726e+001 5.182325e+001 5.944530e+001 4.903206e+001 7.036009e+001 5.102457e+001 5.453885e+001 4.597754e+001 4.866228e+001 2.765490e+001 2.803128e+000 2.907394e+000 3.573745e+000 4.068632e+000 6.431096e+000 2.994862e+000 4.912327e+000 4.326316e+000 4.387462e+000 4.813426e+000 3.899812e+000 2.993659e+000 3.918222e+000
<GCONST> 1.101064e+002
<STATE> 3
<MEAN> 25
 4.266478e+000 -2.432227e+000 2.476619e-001 1.040647e+000 6.905190e-001 -2.243453e+000 -5.026987e+000 -1.172014e-001 -2.454371e+000 -4.986282e+000 8.877932e-001 -3.270645e-001 1.996899e-001 7.443168e-001 -1.587016e-001 -5.440635e-001 -6.323812e-001 -3.163297e-001 5.781971e-001 6.912031e-001 6.334014e-002 1.672481e-001 -2.454207e-001 -8.543038e-002 -6.659457e-001
<VARIANCE> 25
 4.475115e+001 6.049781e+001 5.358704e+001 5.579951e+001 8.056654e+001 5.996355e+001 6.156143e+001 7.233066e+001 6.899635e+001 4.780226e+001 3.800261e+001 3.484514e+001 1.393117e+000 2.691903e+000 2.661582e+000 1.922688e+000 5.100196e+000 3.034953e+000 3.475072e+000 5.372344e+000 3.680169e+000 3.119076e+000 3.413721e+000 3.004286e+000 2.325142e+000
<GCONST> 1.082604e+002
<STATE> 4
<MEAN> 25
 4.593402e+000 7.887579e-001 -1.232682e+000 -1.331385e+000 -1.685225e+000 -2.154313e+000 -1.996167e-001 -8.269352e-005 1.100895e-001 -1.661267e+000 -1.129684e+000 7.619830e-002 -2.262539e-001 8.496772e-002 1.255091e-001 6.712247e-002 -1.182379e-001 -8.070298e-002 4.118319e-001 -5.014390e-002 -2.603876e-002 1.365981e-001 -8.392458e-002 -1.449596e-002 -4.540430e-001
<VARIANCE> 25
 3.677426e+001 3.408759e+001 5.282715e+001 5.555662e+001 7.508846e+001 4.820173e+001 5.666982e+001 4.313294e+001 3.429793e+001 3.104181e+001 3.525667e+001 3.711935e+001 6.057723e-001 1.154150e+000 1.241001e+000 1.446581e+000 2.325637e+000 2.068574e+000 2.154083e+000 2.181830e+000 1.841957e+000 1.671127e+000 2.024910e+000 1.864405e+000 6.826702e-001
<GCONST> 9.662456e+001
<TRANSP> 5
 0.000000e+000 1.000000e+000 0.000000e+000 0.000000e+000 0.000000e+000
 0.000000e+000 6.347589e-001 3.652411e-001 0.000000e+000 0.000000e+000
 0.000000e+000 0.000000e+000 5.031149e-001 4.968851e-001 0.000000e+000
 0.000000e+000 0.000000e+000 0.000000e+000 7.165148e-001 2.834852e-001
 0.000000e+000 0.000000e+000 0.000000e+000 0.000000e+000 0.000000e+000
<ENDHMM>
~h "ao"
<BEGINHMM>
<NUMSTATES> 5
<STATE> 2
<MEAN> 25
 1.467898e+000 2.117694e+000 -5.287110e+000 5.175582e-001 -3.112235e+000 -7.023410e-003 2.566118e+000 5.573577e-001 -2.121683e+000 -1.882663e-001 2.095395e+000 -1.935192e+000 2.798274e+000 5.665033e-001 -8.396728e-001 -2.619875e+000 -2.127590e+000 4.121479e-001 -9.032340e-002 -4.883631e-001 -8.982667e-001 -7.068840e-001 9.523292e-001 -2.951683e-001 3.088325e+000
<VARIANCE> 25
 6.744949e+001 1.779370e+001 2.240150e+001 7.799369e+001 5.270572e+001 3.538079e+001 3.576041e+001 5.518169e+001 3.005276e+001 5.916590e+001 4.058487e+001 1.710442e+001 5.558551e+000 3.034499e+000 2.173202e+000 4.750072e+000 3.885973e+000 6.447562e+000 4.220479e+000 5.661127e+000 4.755278e+000 2.443966e+000 6.409591e+000 2.105368e+000 5.082998e+000
<GCONST> 1.078828e+002
<STATE> 3
<MEAN> 25
 4.991095e+000 -2.884865e+000 -6.480359e+000 -4.946168e+000 -4.613798e+000 1.726334e+000 1.023713e+001 2.172674e+000 -5.693483e+000 -3.653513e+000 8.569972e-001 -1.159936e+000 3.433021e-001 -3.639435e-001 -2.963072e-001 -6.516898e-001 4.753885e-003 1.484608e+000 -4.488105e-001 -3.796288e-001 6.602522e-001 2.568125e-002 4.768814e-001 -2.905398e-001 2.756139e-001
<VARIANCE> 25
 4.708716e+001 2.356961e+001 9.499207e+000 4.749155e+001 3.092096e+001 4.521981e+001 1.074580e+002 7.925062e+001 2.231995e+001 8.149720e+000 3.946731e+001 9.830654e+000 1.528415e+000 2.840670e-001 8.460494e-001 3.087385e+000 1.720634e+000 5.081621e+000 1.816992e+000 2.068770e+000 9.646221e-001 1.080596e+000 1.271180e+000 1.131967e+000 1.120019e+000
<GCONST> 9.066481e+001
<STATE> 4
<MEAN> 25
 1.334833e+001 3.104435e+000 -6.317281e+000 -1.288098e+001 -9.670190e+000 1.163094e+001 -3.662849e+000 -5.992293e+000 -2.569933e+000 -2.787572e+000 4.574597e+000 -4.377443e-001 -1.447494e-001 -1.810596e-002 4.241829e-002 2.902436e-001 1.551902e-001 8.134650e-002 -2.489504e-001 2.617718e-001 2.045901e-001 1.850119e-001 -3.217129e-001 4.115834e-002 -1.178850e-001
<VARIANCE> 25
 1.140764e+001 1.736558e+001 3.170403e+001 6.970849e+001 3.238231e+001 6.313025e+001 2.674054e+001 4.420527e+001 1.924962e+001 1.151787e+001 2.753815e+001 3.326803e+001 2.813745e-001 7.469097e-001 9.003454e-001 2.643048e+000 1.485627e+000 2.838965e+000 1.609140e+000 1.371321e+000 1.554992e+000 1.154532e+000 1.316997e+000 1.740910e+000 3.020726e-001
<GCONST> 8.761153e+001
<TRANSP> 5
 0.000000e+000 1.000000e+000 0.000000e+000 0.000000e+000 0.000000e+000
 0.000000e+000 8.015433e-001 1.984567e-001 0.000000e+000 0.000000e+000
 0.000000e+000 0.000000e+000 7.123008e-001 2.876992e-001 0.000000e+000
 0.000000e+000 0.000000e+000 0.000000e+000 9.267303e-001 7.326975e-002
 0.000000e+000 0.000000e+000 0.000000e+000 0.000000e+000 0.000000e+000
<ENDHMM>
~h "aw"
<BEGINHMM>
<NUMSTATES> 5
<STATE> 2
<MEAN> 25
 3.989576e+000 -1.492375e+000 -2.855050e+000 -1.816097e-001 4.819085e+000 -1.103522e+000 -8.297502e+000 -1.527107e+000 -1.571241e+000 -8.180115e-001 2.699013e+000 1.713676e+000 7.747655e-001 -1.524520e+000 -8.890274e-001 -5.779958e-001 5.439247e-001 1.811335e+000 -1.296304e+000 5.429636e-001 -1.097897e-001 -2.625028e-001 3.021063e-001 -8.127320e-001 3.127996e+000
<VARIANCE> 25
 4.047385e+001 5.611472e+001 3.926690e+001 2.988568e+001 3.130635e+001 6.564296e+001 9.876026e+001 3.384027e+001 6.322586e+001 2.184661e+001 4.531409e+001 4.260795e+001 4.157386e+000 6.269645e+000 4.599789e+000 4.475521e+000 3.850225e+000 6.991920e+000 8.864994e+000 3.781356e+000 5.071968e+000 2.376169e+000 4.700839e+000 6.380085e+000 1.202420e+001
<GCONST> 1.127489e+002
<STATE> 3
<MEAN> 25
 4.942903e+000 -9.477245e+000 -7.336397e+000 -6.707549e+000 7.525105e+000 1.021940e+001 -8.119700e+000 -8.679659e-001 -7.679156e-001 9.369420e-001 2.334681e+000 -6.175045e+000 2.652354e-001 1.252399e-001 8.740956e-002 -1.080888e+000 -2.654806e-001 7.700800e-001 -4.521566e-002 -2.672254e-001 -4.418407e-001 7.988444e-001 2.950099e-001 -6.615791e-001 1.819430e-001
<VARIANCE> 25
 2.686308e+001 3.106587e+001 1.799047e+001 4.116464e+001 2.148961e+001 3.715841e+001 3.390998e+001 3.058692e+001 4.321717e+001 2.860680e+001 3.838135e+001 3.740590e+001 1.047885e+000 1.627621e+000 1.262257e+000 2.186181e+000 2.299099e+000 2.861807e+000 3.695809e+000 2.552304e+000 1.529983e+000 1.596367e+000 2.669803e+000 2.500743e+000 1.405612e+000
<GCONST> 9.610670e+001
<STATE> 4
<MEAN> 25
 8.547791e+000 -1.881363e+000 -7.576939e+000 -1.336767e+001 1.537199e+000 7.035552e+000 -1.041633e+001 -2.909536e+000 -3.025326e+000 6.016146e+000 5.102590e+000 -1.344648e+000 -3.999301e-001 1.399768e+000 -1.076663e-001 4.984658e-001 1.579923e-001 -1.404683e+000 -2.485653e-001 -1.941079e-001 5.946284e-001 -3.682863e-001 -8.188384e-002 1.490432e+000 -5.100357e-001
<VARIANCE> 25
 1.986545e+001 2.882331e+001 1.989875e+001 4.543185e+001 2.513149e+001 6.333640e+001 5.009498e+001 2.415253e+001 3.482717e+001 2.952184e+001 3.129197e+001 4.585094e+001 2.015907e+000 1.346416e+000 1.654319e+000 5.033301e+000 3.248964e+000 6.639560e+000 4.629570e+000 2.719621e+000 2.823379e+000 3.930814e+000 2.577881e+000 3.000947e+000 4.514737e-001
<GCONST> 1.001589e+002
<TRANSP> 5
 0.000000e+000 1.000000e+000 0.000000e+000 0.000000e+000 0.000000e+000
 0.000000e+000 8.222072e-001 1.777929e-001 0.000000e+000 0.000000e+000
 0.000000e+000 0.000000e+000 8.693681e-001 1.306320e-001 0.000000e+000
 0.000000e+000 0.000000e+000 0.000000e+000 8.643937e-001 1.356063e-001
 0.000000e+000 0.000000e+000 0.000000e+000 0.000000e+000 0.000000e+000
<ENDHMM>
~h "ay"
<BEGINHMM>
<NUMSTATES> 5
<STATE> 2
<MEAN> 25
 8.200193e+000 -3.671422e+000 -9.273431e+000 -2.024989e+000 -2.804172e+000 -2.351461e+000 -4.605747e+000 -7.705018e+000 2.374501e+000 -3.442356e+000 7.866254e+000 3.334169e+000 -3.657863e-001 2.363383e-002 6.105859e-001 1.444861e+000 9.832545e-001 -6.010240e-001 -1.528684e+000 -1.107521e+000 -4.202070e-001 -2.197051e-001 3.473285e-001 -2.677461e-001 -2.710006e-001
<VARIANCE> 25
 1.576148e+001 1.899101e+001 2.977672e+001 3.301684e+001 5.827399e+001 2.153185e+001 7.155922e+001 5.131653e+001 1.507764e+001 1.894079e+001 2.270967e+001 3.791268e+001 7.674301e-001 7.025596e-001 3.424604e+000 2.253642e+000 3.754559e+000 1.938499e+000 5.548665e+000 2.839698e+000 2.177452e+000 1.988729e+000 2.167931e+000 3.672692e+000 6.323925e-001
<GCONST> 9.554508e+001
<STATE> 3
<MEAN> 25
 7.151629e+000 -4.699193e+000 -1.766426e+000 3.834939e+000 4.395649e+000 -2.639038e+000 -1.149092e+001 -4.475348e+000 -4.142773e+000 -5.574960e+000 3.930191e+000 -1.796515e+000 -3.566901e-001 5.304865e-001 1.178779e+000 6.262998e-001 -2.581866e-001 -8.072308e-002 1.198446e+000 1.270282e+000 -1.165096e+000 5.500099e-002 -1.104040e+000 -3.419514e-001 -1.030663e+000
<VARIANCE> 25
 2.831770e+001 3.560670e+001 3.099160e+001 3.959155e+001 7.125540e+001 2.476884e+001 6.329471e+001 1.237633e+002 3.809857e+001 3.880940e+001 2.937645e+001 2.285697e+001 7.565074e-001 9.071051e-001 1.608000e+000 2.486279e+000 5.796413e+000 1.324608e+000 5.201397e+000 3.914608e+000 2.069176e+000 3.875052e+000 2.444747e+000 2.572127e+000 1.590919e+000
<GCONST> 1.006715e+002
<STATE> 4
<MEAN> 25
 2.775509e+000 -2.287420e+000 3.449709e-002 5.557884e+000 8.922390e+000 1.091364e+000 -8.471023e+000 -8.155294e+000 -2.238546e+000 -1.925674e+000 1.940469e+000 -1.982749e+000 -1.172517e-001 1.444801e-001 -3.461907e-002 -3.571176e-001 -1.041495e+000 5.780005e-002 1.263564e+000 5.365052e-001 3.294552e-001 4.820398e-001 -2.407355e-001 -8.437700e-003 -4.664100e-001
<VARIANCE> 25
 1.955332e+001 2.245822e+001 4.783165e+001 2.616880e+001 8.171358e+001 3.100109e+001 6.450890e+001 4.981914e+001 3.212617e+001 5.062583e+001 2.595747e+001 1.802916e+001 1.035598e+000 1.124449e+000 2.746599e+000 2.585722e+000 4.927662e+000 1.943250e+000 4.606394e+000 4.167347e+000 1.821821e+000 4.106255e+000 1.964625e+000 2.489907e+000 2.284135e+000
<GCONST> 1.003715e+002
<TRANSP> 5
 0.000000e+000 1.000000e+000 0.000000e+000 0.000000e+000 0.000000e+000
 0.000000e+000 7.530392e-001 2.469608e-001 0.000000e+000 0.000000e+000
 0.000000e+000 0.000000e+000 6.800961e-001 3.199039e-001 0.000000e+000
 0.000000e+000 0.000000e+000 0.000000e+000 7.247010e-001 2.752990e-001
 0.000000e+000 0.000000e+000 0.000000e+000 0.000000e+000 0.000000e+000
<ENDHMM>
~h "ch"
<BEGINHMM>
<NUMSTATES> 5
<STATE> 2
<MEAN> 25
 -1.205808e-008 7.471832e-008 -5.503286e-008 1.714419e-009 -4.314622e-009 -6.243344e-009 -3.245967e-008 5.886173e-009 -4.663221e-008 -2.217316e-008 -2.948801e-008 4.270333e-008 2.560044e-002 3.139617e-004 8.288709e-003 -9.700003e-003 8.491755e-003 -6.657258e-003 3.393384e-003 -9.661411e-003 -5.902453e-003 -8.686491e-003 -3.965416e-003 -3.687867e-003 3.609585e-002
<VARIANCE> 25
 6.743311e+001 4.386040e+001 5.738831e+001 5.798326e+001 6.474918e+001 5.654857e+001 5.389107e+001 4.411510e+001 4.258719e+001 4.208948e+001 3.679993e+001 3.124355e+001 1.965594e+000 1.803727e+000 1.934022e+000 2.333615e+000 2.834451e+000 2.798423e+000 2.861493e+000 2.778302e+000 2.531476e+000 2.589815e+000 2.444618e+000 2.166934e+000 2.889750e+000
<GCONST> 1.040926e+002
<STATE> 3
<MEAN> 25
 -1.205808e-008 7.471832e-008 -5.503286e-008 1.714419e-009 -4.314622e-009 -6.243344e-009 -3.245967e-008 5.886173e-009 -4.663221e-008 -2.217316e-008 -2.948801e-008 4.270333e-008 2.560044e-002 3.139617e-004 8.288709e-003 -9.700003e-003 8.491755e-003 -6.657258e-003 3.393384e-003 -9.661411e-003 -5.902453e-003 -8.686491e-003 -3.965416e-003 -3.687867e-003 3.609585e-002
<VARIANCE> 25
 6.743311e+001 4.386040e+001 5.738831e+001 5.798326e+001 6.474918e+001 5.654857e+001 5.389107e+001 4.411510e+001 4.258719e+001 4.208948e+001 3.679993e+001 3.124355e+001 1.965594e+000 1.803727e+000 1.934022e+000 2.333615e+000 2.834451e+000 2.798423e+000 2.861493e+000 2.778302e+000 2.531476e+000 2.589815e+000 2.444618e+000 2.166934e+000 2.889750e+000
<GCONST> 1.040926e+002
<STATE> 4
<MEAN> 25
 -1.205808e-008 7.471832e-008 -5.503286e-008 1.714419e-009 -4.314622e-009 -6.243344e-009 -3.245967e-008 5.886173e-009 -4.663221e-008 -2.217316e-008 -2.948801e-008 4.270333e-008 2.560044e-002 3.139617e-004 8.288709e-003 -9.700003e-003 8.491755e-003 -6.657258e-003 3.393384e-003 -9.661411e-003 -5.902453e-003 -8.686491e-003 -3.965416e-003 -3.687867e-003 3.609585e-002
<VARIANCE> 25
 6.743311e+001 4.386040e+001 5.738831e+001 5.798326e+001 6.474918e+001 5.654857e+001 5.389107e+001 4.411510e+001 4.258719e+001 4.208948e+001 3.679993e+001 3.124355e+001 1.965594e+000 1.803727e+000 1.934022e+000 2.333615e+000 2.834451e+000 2.798423e+000 2.861493e+000 2.778302e+000 2.531476e+000 2.589815e+000 2.444618e+000 2.166934e+000 2.889750e+000
<GCONST> 1.040926e+002
<TRANSP> 5
 0.000000e+000 1.000000e+000 0.000000e+000 0.000000e+000 0.000000e+000
 0.000000e+000 6.000000e-001 4.000000e-001 0.000000e+000 0.000000e+000
 0.000000e+000 0.000000e+000 6.000000e-001 4.000000e-001 0.000000e+000
 0.000000e+000 0.000000e+000 0.000000e+000 7.000000e-001 3.000000e-001
 0.000000e+000 0.000000e+000 0.000000e+000 0.000000e+000 0.000000e+000
<ENDHMM>
~h "dh"
<BEGINHMM>
<NUMSTATES> 5
<STATE> 2
<MEAN> 25
 -1.205808e-008 7.471832e-008 -5.503286e-008 1.714419e-009 -4.314622e-009 -6.243344e-009 -3.245967e-008 5.886173e-009 -4.663221e-008 -2.217316e-008 -2.948801e-008 4.270333e-008 2.560044e-002 3.139617e-004 8.288709e-003 -9.700003e-003 8.491755e-003 -6.657258e-003 3.393384e-003 -9.661411e-003 -5.902453e-003 -8.686491e-003 -3.965416e-003 -3.687867e-003 3.609585e-002
<VARIANCE> 25
 6.743311e+001 4.386040e+001 5.738831e+001 5.798326e+001 6.474918e+001 5.654857e+001 5.389107e+001 4.411510e+001 4.258719e+001 4.208948e+001 3.679993e+001 3.124355e+001 1.965594e+000 1.803727e+000 1.934022e+000 2.333615e+000 2.834451e+000 2.798423e+000 2.861493e+000 2.778302e+000 2.531476e+000 2.589815e+000 2.444618e+000 2.166934e+000 2.889750e+000
<GCONST> 1.040926e+002
<STATE> 3
<MEAN> 25
 -1.205808e-008 7.471832e-008 -5.503286e-008 1.714419e-009 -4.314622e-009 -6.243344e-009 -3.245967e-008 5.886173e-009 -4.663221e-008 -2.217316e-008 -2.948801e-008 4.270333e-008 2.560044e-002 3.139617e-004 8.288709e-003 -9.700003e-003 8.491755e-003 -6.657258e-003 3.393384e-003 -9.661411e-003 -5.902453e-003 -8.686491e-003 -3.965416e-003 -3.687867e-003 3.609585e-002
<VARIANCE> 25
 6.743311e+001 4.386040e+001 5.738831e+001 5.798326e+001 6.474918e+001 5.654857e+001 5.389107e+001 4.411510e+001 4.258719e+001 4.208948e+001 3.679993e+001 3.124355e+001 1.965594e+000 1.803727e+000 1.934022e+000 2.333615e+000 2.834451e+000 2.798423e+000 2.861493e+000 2.778302e+000 2.531476e+000 2.589815e+000 2.444618e+000 2.166934e+000 2.889750e+000
<GCONST> 1.040926e+002
<STATE> 4
<MEAN> 25
 -1.205808e-008 7.471832e-008 -5.503286e-008 1.714419e-009 -4.314622e-009 -6.243344e-009 -3.245967e-008 5.886173e-009 -4.663221e-008 -2.217316e-008 -2.948801e-008 4.270333e-008 2.560044e-002 3.139617e-004 8.288709e-003 -9.700003e-003 8.491755e-003 -6.657258e-003 3.393384e-003 -9.661411e-003 -5.902453e-003 -8.686491e-003 -3.965416e-003 -3.687867e-003 3.609585e-002
<VARIANCE> 25
 6.743311e+001 4.386040e+001 5.738831e+001 5.798326e+001 6.474918e+001 5.654857e+001 5.389107e+001 4.411510e+001 4.258719e+001 4.208948e+001 3.679993e+001 3.124355e+001 1.965594e+000 1.803727e+000 1.934022e+000 2.333615e+000 2.834451e+000 2.798423e+000 2.861493e+000 2.778302e+000 2.531476e+000 2.589815e+000 2.444618e+000 2.166934e+000 2.889750e+000
<GCONST> 1.040926e+002
<TRANSP> 5
 0.000000e+000 1.000000e+000 0.000000e+000 0.000000e+000 0.000000e+000
 0.000000e+000 6.000000e-001 4.000000e-001 0.000000e+000 0.000000e+000
 0.000000e+000 0.000000e+000 6.000000e-001 4.000000e-001 0.000000e+000
 0.000000e+000 0.000000e+000 0.000000e+000 7.000000e-001 3.000000e-001
 0.000000e+000 0.000000e+000 0.000000e+000 0.000000e+000 0.000000e+000
<ENDHMM>
~h "eh"
<BEGINHMM>
<NUMSTATES> 5
<STATE> 2
<MEAN> 25
 5.807023e+000 -3.972940e+000 3.923926e-001 3.673916e+000 -4.047802e+000 -5.459578e-001 -1.400467e+000 1.077134e+000 -1.794807e-001 -5.020668e+000 5.212409e+000 6.757851e-001 1.239921e-002 -1.132812e+000 6.232615e-001 -1.450208e-001 -9.203231e-001 3.063828e-001 -5.566220e-001 6.943161e-001 4.624311e-001 -4.291404e-002 2.128678e-001 3.922319e-005 1.175173e+000
<VARIANCE> 25
 6.307125e+001 4.506299e+001 2.982383e+001 1.141014e+002 9.959361e+001 1.729111e+002 2.679294e+001 4.045906e+001 4.068177e+001 5.278881e+001 6.938877e+001 3.940472e+001 3.567198e+000 4.615512e+000 4.021709e+000 6.212669e+000 6.791407e+000 1.251147e+001 3.452413e+000 6.749154e+000 5.440961e+000 4.907735e+000 4.957132e+000 3.996693e+000 6.277217e+000
<GCONST> 1.160779e+002
<STATE> 3
<MEAN> 25
 2.311898e+000 -1.059193e+001 8.247001e+000 3.035199e+000 -4.814837e+000 -5.797929e+000 -2.974522e+000 1.069598e+001 1.563291e+000 -3.123788e+000 4.224672e+000 4.967833e-002 -1.744213e-002 4.003117e-001 2.629701e-001 -4.261603e-001 3.146881e-001 1.191331e-001 6.424591e-001 -5.228589e-002 -6.997344e-001 6.147248e-002 -9.310275e-002 6.043147e-002 -2.535311e-001
<VARIANCE> 25
 7.940402e+001 5.410304e+001 3.355873e+001 2.239756e+001 6.631680e+001 7.699952e+001 6.709778e+001 7.069334e+001 9.017780e+001 3.353820e+001 2.507855e+001 2.923485e+001 2.490945e+000 2.990908e+000 3.448862e+000 3.231883e+000 2.238111e+000 2.250318e+000 4.226141e+000 4.015588e+000 5.138340e+000 3.325769e+000 1.854689e+000 1.721384e+000 1.829741e+000
<GCONST> 1.060202e+002
<STATE> 4
<MEAN> 25
 -4.191141e-001 5.584663e+000 8.018984e+000 4.997400e+000 -1.048665e+000 4.853231e-001 -7.061995e-001 -2.614010e-001 -2.126822e+000 2.657630e-001 -3.864443e+000 -3.383628e+000 -2.085057e-001 2.513410e-001 -3.755318e-002 7.819650e-002 1.692187e-001 2.395062e-001 -1.164447e-001 -3.327229e-001 -4.203441e-002 -8.426576e-002 -2.198894e-001 4.426482e-002 -3.912051e-001
<VARIANCE> 25
 2.604712e+001 4.800908e+001 4.783735e+001 3.500772e+001 4.196399e+001 4.513106e+001 3.655908e+001 3.916055e+001 8.293658e+001 2.803494e+001 3.605632e+001 1.999163e+001 4.197687e-001 6.681208e-001 5.947253e-001 9.767495e-001 9.687048e-001 1.952634e+000 1.518198e+000 1.855590e+000 1.051151e+000 1.633100e+000 1.489206e+000 1.821759e+000 3.106804e-001
<GCONST> 8.987452e+001
<TRANSP> 5
 0.000000e+000 1.000000e+000 0.000000e+000 0.000000e+000 0.000000e+000
 0.000000e+000 7.926751e-001 2.073249e-001 0.000000e+000 0.000000e+000
 0.000000e+000 0.000000e+000 8.047013e-001 1.952987e-001 0.000000e+000
 0.000000e+000 0.000000e+000 0.000000e+000 8.481243e-001 1.518757e-001
 0.000000e+000 0.000000e+000 0.000000e+000 0.000000e+000 0.000000e+000
<ENDHMM>
~h "er"
<BEGINHMM>
<NUMSTATES> 5
<STATE> 2
<MEAN> 25
 9.754292e+000 -1.231299e+000 -5.842166e+000 2.771928e+000 -4.233065e+000 -6.637372e+000 -8.072144e+000 9.950387e-001 3.059675e+000 -1.480508e+000 1.896627e-002 -1.912009e+000 -5.760356e-002 5.473560e-002 6.351509e-002 2.141605e-001 1.710051e-001 -3.451834e-001 1.376925e-001 3.220035e-001 1.975880e-001 -2.637447e-001 -2.924360e-001 1.341255e-001 -2.606083e-001
<VARIANCE> 25
 2.764835e+001 2.588466e+001 3.900104e+001 4.755771e+001 4.253417e+001 5.827414e+001 4.622593e+001 4.075674e+001 3.244206e+001 3.662538e+001 1.885928e+001 3.327161e+001 2.115268e+000 1.066653e+000 2.085125e+000 2.164030e+000 2.893609e+000 3.294874e+000 3.436299e+000 2.731807e+000 1.886078e+000 2.081500e+000 1.545728e+000 1.771527e+000 1.716370e+000
<GCONST> 9.865408e+001
<STATE> 3
<MEAN> 25
 1.220885e+000 -2.715077e+000 -7.559765e-001 5.313591e+000 3.677683e+000 -2.484793e+000 -1.084822e-002 6.808616e+000 4.264273e+000 -4.439178e+000 -2.645272e+000 8.182265e-001 -6.128328e-001 -1.802281e-001 1.074607e-001 -5.000437e-001 6.323934e-001 7.729463e-001 8.295881e-001 -1.260072e-001 -1.109973e-001 5.313137e-001 -1.374214e-001 -8.524812e-002 -6.533867e-001
<VARIANCE> 25
 4.144255e+001 6.537054e+001 2.883934e+001 6.807878e+001 2.703902e+001 4.532371e+001 4.186862e+001 5.376916e+001 2.653679e+001 3.248848e+001 1.584208e+001 2.236974e+001 2.181552e+000 2.325991e+000 1.138727e+000 2.599774e+000 2.914607e+000 2.743934e+000 2.145252e+000 2.984098e+000 2.240256e+000 1.900668e+000 1.538543e+000 1.347675e+000 7.275377e-001
<GCONST> 9.739898e+001
<STATE> 4
<MEAN> 25
 -3.018371e+000 -6.469663e-001 -8.150527e-001 4.376284e-001 3.535543e+000 3.195148e+000 2.456653e+000 1.091331e+000 1.804200e+000 1.450721e+000 1.202955e-001 9.082636e-001 -4.757498e-002 3.580222e-002 4.904380e-002 2.200851e-002 -4.808822e-003 4.116520e-002 -2.577983e-002 -9.291417e-002 -3.624422e-002 4.284584e-002 4.552063e-002 3.428962e-002 -6.654584e-002
<VARIANCE> 25
 4.020006e+000 1.759265e+001 1.419822e+001 2.018549e+001 1.012153e+001 1.678821e+001 1.343458e+001 1.490515e+001 1.489909e+001 1.670087e+001 1.605131e+001 1.474932e+001 1.718867e-001 3.979171e-001 5.586022e-001 7.747998e-001 9.019282e-001 1.119641e+000 1.144813e+000 1.352980e+000 1.425845e+000 1.489406e+000 1.414338e+000 1.061548e+000 1.220714e-001
<GCONST> 7.326622e+001
<TRANSP> 5
 0.000000e+000 1.000000e+000 0.000000e+000 0.000000e+000 0.000000e+000
 0.000000e+000 8.651242e-001 1.348758e-001 0.000000e+000 0.000000e+000
 0.000000e+000 0.000000e+000 8.049506e-001 1.950494e-001 0.000000e+000
 0.000000e+000 0.000000e+000 0.000000e+000 9.588961e-001 4.110391e-002
 0.000000e+000 0.000000e+000 0.000000e+000 0.000000e+000 0.000000e+000
<ENDHMM>
~h "ey"
<BEGINHMM>
<NUMSTATES> 5
<STATE> 2
<MEAN> 25
 5.756714e-001 -3.274227e+000 4.518536e+000 -1.881180e+000 -5.846724e+000 -3.047527e+000 1.466688e+000 2.998687e-001 4.022276e-002 4.980707e-001 5.916862e-001 -1.341577e+000 1.459463e+000 -7.177491e-002 1.197579e+000 -2.365567e-001 -1.756055e+000 -1.457832e+000 -3.622646e-001 -1.418265e-001 -7.250129e-001 -2.371763e-001 9.789922e-001 3.073046e-002 1.259661e+000
<VARIANCE> 25
 3.719676e+001 2.486064e+001 3.849221e+001 4.678004e+001 3.629268e+001 5.975835e+001 7.821808e+001 4.312524e+001 1.919074e+001 4.946848e+001 4.623494e+001 4.120455e+001 5.773537e+000 3.895590e+000 3.030692e+000 2.049554e+000 5.195759e+000 5.307125e+000 4.395489e+000 3.063684e+000 3.026607e+000 3.226746e+000 3.198701e+000 1.626715e+000 3.088716e+000
<GCONST> 1.063985e+002
<STATE> 3
<MEAN> 25
 3.948474e+000 -6.177039e+000 9.814756e+000 -9.084242e-001 -1.242543e+001 -7.588817e+000 -2.156307e+000 2.869410e+000 -4.136374e+000 -2.490127e+000 7.826126e+000 6.015114e-001 -1.994359e-001 2.948759e-001 7.077348e-001 -1.142276e+000 -1.024361e+000 7.376475e-001 -2.945592e-002 -2.397620e-001 -6.690605e-001 2.827024e-001 3.445032e-001 -2.002613e-001 4.048704e-003
<VARIANCE> 25
 1.268438e+001 1.599200e+001 2.732545e+001 4.458081e+001 3.887410e+001 4.489732e+001 5.684932e+001 4.450184e+001 2.738721e+001 4.026877e+001 4.762329e+001 1.811768e+001 4.235563e-001 8.879883e-001 1.589638e+000 1.245397e+000 2.196878e+000 2.254948e+000 3.664589e+000 3.087339e+000 3.299971e+000 2.359934e+000 2.231153e+000 1.874687e+000 4.436592e-001
<GCONST> 9.383311e+001
<STATE> 4
<MEAN> 25
 2.410935e+000 1.164746e+000 1.274526e+001 -4.482002e+000 -1.145126e+001 -2.823816e+000 -6.207159e+000 -2.845860e+000 -9.108881e+000 -5.431038e-001 4.659156e+000 -1.586200e+000 -2.264724e-002 6.640766e-001 -4.066328e-002 4.460276e-001 5.016490e-001 -1.381339e-002 -1.752390e-002 -2.406717e-001 -1.764716e-001 1.706451e-001 -4.908197e-001 -4.231163e-002 -6.570503e-001
<VARIANCE> 25
 1.301390e+001 2.629269e+001 4.054763e+001 2.731221e+001 3.679966e+001 5.792922e+001 4.701164e+001 4.661731e+001 4.973293e+001 4.477330e+001 3.769743e+001 5.577572e+001 4.377732e-001 1.116422e+000 2.013801e+000 1.419124e+000 2.379592e+000 2.059371e+000 2.631881e+000 3.113993e+000 2.201746e+000 2.043276e+000 1.783115e+000 2.871591e+000 1.099722e+000
<GCONST> 9.676750e+001
<TRANSP> 5
 0.000000e+000 1.000000e+000 0.000000e+000 0.000000e+000 0.000000e+000
 0.000000e+000 6.512595e-001 3.487405e-001 0.000000e+000 0.000000e+000
 0.000000e+000 0.000000e+000 7.622554e-001 2.377446e-001 0.000000e+000
 0.000000e+000 0.000000e+000 0.000000e+000 9.108189e-001 8.918115e-002
 0.000000e+000 0.000000e+000 0.000000e+000 0.000000e+000 0.000000e+000
<ENDHMM>
~h "hh"
<BEGINHMM>
<NUMSTATES> 5
<STATE> 2
<MEAN> 25
 -2.029848e+000 -1.105055e+001 -1.123182e+001 -7.691314e-001 8.715117e+000 -1.766964e+000 2.156988e+000 -1.524984e+000 3.431746e+000 -2.349266e+000 2.443638e+000 3.354156e+000 2.325166e-001 -5.259119e-001 6.174491e-002 3.446645e-002 6.677431e-001 8.775475e-001 1.403842e-001 -1.204285e-001 -5.334571e-002 2.090847e-001 2.338645e-001 -2.272357e-001 -2.221572e-001
<VARIANCE> 25
 3.004774e+001 3.119941e+001 8.746042e+001 4.621087e+001 3.679844e+001 3.997599e+001 1.138695e+001 3.295148e+001 5.806264e+001 3.052815e+001 5.548367e+001 4.275265e+001 1.288163e+000 2.490557e+000 1.290718e+000 1.900527e+000 3.099943e+000 1.753473e+000 8.660178e-001 2.439158e+000 4.334077e+000 3.640644e+000 4.560794e+000 4.955831e+000 2.754947e+000
<GCONST> 1.009614e+002
<STATE> 3
<MEAN> 25
 -5.832041e-001 -1.321279e+001 -4.502269e+000 1.081335e+000 1.533222e+001 1.610993e+000 -4.203667e-001 -3.096716e+000 -1.622717e+000 9.566538e-001 4.631229e+000 -2.152703e+000 4.978778e-001 4.176166e-002 -4.172769e-001 -4.698725e-001 -5.025167e-001 -2.845230e-001 -2.098309e-001 -2.997416e-001 -7.952337e-002 1.290028e-001 -5.453978e-002 -6.480920e-001 1.649823e+000
<VARIANCE> 25
 3.078239e+001 2.226909e+001 4.128706e+001 3.111563e+001 3.720126e+001 6.433025e+001 1.798942e+001 3.483920e+001 1.574422e+001 2.467897e+001 2.879260e+001 4.261850e+001 4.032019e+000 2.451539e+000 3.099248e+000 2.490168e+000 4.897961e+000 2.651692e+000 2.613270e+000 4.871998e+000 2.452116e+000 2.077451e+000 1.796094e+000 2.558636e+000 2.531825e+000
<GCONST> 1.004558e+002
<STATE> 4
<MEAN> 25
 -2.496824e+000 1.921514e+000 1.124129e+000 6.976281e+000 6.122284e+000 3.450109e+000 1.943855e+000 -6.373626e-002 9.460955e-001 -7.904849e-002 -1.012262e+000 -3.468134e-002 -1.031896e-002 -1.952910e-001 -8.623500e-002 -6.443914e-003 -2.064354e-001 -1.676063e-001 1.061382e-001 1.393427e-001 -2.325261e-001 -2.524343e-001 2.401595e-001 -9.778333e-002 4.790035e-001
<VARIANCE> 25
 1.142410e+001 1.252178e+002 6.660957e+001 4.760773e+001 2.101196e+001 1.417111e+001 1.777398e+001 1.851527e+001 2.496214e+001 1.825773e+001 5.466036e+001 2.780148e+001 8.818269e-001 1.977576e+000 2.642445e+000 2.205891e+000 2.427733e+000 1.385385e+000 2.244258e+000 2.077459e+000 1.353395e+000 2.622109e+000 2.108367e+000 2.826893e+000 2.400543e+000
<GCONST> 9.521414e+001
<TRANSP> 5
 0.000000e+000 1.000000e+000 0.000000e+000 0.000000e+000 0.000000e+000
 0.000000e+000 8.802090e-001 1.197910e-001 0.000000e+000 0.000000e+000
 0.000000e+000 0.000000e+000 8.744267e-001 1.255734e-001 0.000000e+000
 0.000000e+000 0.000000e+000 0.000000e+000 9.107869e-001 8.921311e-002
 0.000000e+000 0.000000e+000 0.000000e+000 0.000000e+000 0.000000e+000
<ENDHMM>
~h "ih"
<BEGINHMM>
<NUMSTATES> 5
<STATE> 2
<MEAN> 25
 1.041749e+000 3.835884e+000 2.086299e+000 1.785766e+000 -3.201109e+000 -5.541676e+000 -4.158698e-001 -2.298175e+000 -1.720055e+000 -2.493478e+000 -1.421659e+000 -1.106404e+000 2.425810e-002 1.533321e-001 2.143647e-001 3.044595e-001 4.316868e-001 1.220892e-001 -3.233773e-001 -3.547953e-001 -2.043542e-001 -1.060581e-001 2.652369e-002 2.893051e-002 -1.099518e-001
<VARIANCE> 25
 6.653788e+001 2.274175e+001 2.660517e+001 1.476846e+001 6.700544e+001 5.537115e+001 3.529356e+001 3.094094e+001 3.714465e+001 2.328136e+001 1.880380e+001 2.470956e+001 3.178358e+000 1.392781e+000 1.941923e+000 1.513830e+000 4.072151e+000 2.522558e+000 4.568700e+000 1.885085e+000 3.526429e+000 2.094481e+000 1.681923e+000 2.426306e+000 1.671092e+000
<GCONST> 9.832885e+001
<STATE> 3
<MEAN> 25
 2.246003e+000 1.661367e+000 4.883971e+000 7.243710e+000 7.132605e+000 -6.163143e-001 -7.721648e+000 -3.394220e+000 1.290389e+000 -3.417333e+000 -1.438277e+000 -2.070252e+000 -4.792622e-001 -2.537657e-001 3.472448e-002 -7.980110e-002 -3.576845e-002 2.238747e-001 4.647556e-001 3.908526e-001 4.078056e-001 4.354753e-001 2.217740e-002 2.069306e-002 -4.345294e-001
<VARIANCE> 25
 2.907652e+001 3.029872e+001 3.993430e+001 3.150747e+001 3.501011e+001 3.088374e+001 1.071679e+002 7.177855e+001 2.281147e+001 3.244348e+001 1.891216e+001 2.065982e+001 6.355757e-001 1.137198e+000 2.065026e+000 1.816150e+000 1.388558e+000 2.485878e+000 3.539645e+000 1.875148e+000 2.053609e+000 1.852442e+000 1.514585e+000 1.649521e+000 3.723129e-001
<GCONST> 9.376655e+001
<STATE> 4
<MEAN> 25
 -2.941570e+000 -8.731484e-001 1.154433e-002 -3.803760e-001 2.713457e+000 2.179704e+000 1.962340e+000 9.804149e-001 1.492389e+000 1.628438e+000 8.504441e-001 1.768294e+000 1.849794e-004 -4.814192e-003 -3.415742e-002 -3.647991e-002 -5.748727e-003 -4.599817e-003 2.113855e-002 -6.136509e-002 -5.957007e-002 3.321671e-002 -1.724294e-002 1.780179e-002 6.907446e-003
<VARIANCE> 25
 5.202593e+000 7.556645e+000 8.624652e+000 1.209532e+001 1.432604e+001 1.310091e+001 1.884808e+001 1.880828e+001 1.414924e+001 1.641325e+001 1.396639e+001 1.303410e+001 3.065704e-001 4.740107e-001 5.385992e-001 7.991517e-001 9.350470e-001 1.143374e+000 1.463017e+000 1.353654e+000 1.432723e+000 1.654487e+000 1.263229e+000 1.287700e+000 2.100868e-001
<GCONST> 7.379107e+001
<TRANSP> 5
 0.000000e+000 1.000000e+000 0.000000e+000 0.000000e+000 0.000000e+000
 0.000000e+000 7.726651e-001 2.273349e-001 0.000000e+000 0.000000e+000
 0.000000e+000 0.000000e+000 7.652639e-001 2.347361e-001 0.000000e+000
 0.000000e+000 0.000000e+000 0.000000e+000 9.507189e-001 4.928109e-002
 0.000000e+000 0.000000e+000 0.000000e+000 0.000000e+000 0.000000e+000
<ENDHMM>
~h "iy"
<BEGINHMM>
<NUMSTATES> 5
<STATE> 2
<MEAN> 25
 -3.170042e+000 2.063460e+000 6.479689e+000 6.205956e-001 -5.515079e+000 -2.965540e+000 1.757397e+000 -4.427054e+000 -4.220413e+000 1.275583e+000 3.611501e+000 9.654350e-001 1.695687e-001 -1.869958e-001 1.315095e+000 -8.473428e-001 -9.060784e-001 -3.725282e-002 -7.696286e-001 -6.429904e-001 -6.304891e-001 2.359528e-001 -8.332796e-002 -1.318496e-001 1.285873e+000
<VARIANCE> 25
 6.175037e+001 5.061230e+001 1.128974e+002 1.058519e+002 7.893484e+001 9.650319e+001 6.119600e+001 9.639372e+001 5.454214e+001 7.475033e+001 8.986826e+001 4.670097e+001 3.840415e+000 3.181000e+000 8.423144e+000 7.200152e+000 6.462023e+000 7.381589e+000 7.205662e+000 7.306569e+000 5.386411e+000 5.402279e+000 8.137824e+000 4.090174e+000 7.905138e+000
<GCONST> 1.210385e+002
<STATE> 3
<MEAN> 25
 2.278668e+000 1.173717e+000 1.762811e+001 -6.192516e+000 -1.295822e+001 7.338328e-001 -8.770973e+000 -7.639826e+000 -1.138520e+001 -5.847858e-001 4.087224e+000 1.883602e+000 2.469718e-001 3.252178e-001 7.964614e-002 -3.093853e-001 -1.283236e-001 2.390706e-003 5.395652e-002 1.595136e-001 -3.428790e-001 1.850164e-001 -1.164932e-001 -1.073313e-001 -3.777073e-001
<VARIANCE> 25
 1.546009e+001 1.723485e+001 5.604505e+001 7.006869e+001 3.495678e+001 6.347365e+001 6.143106e+001 3.447109e+001 4.389671e+001 1.017815e+002 3.989002e+001 8.977875e+001 6.383613e-001 1.454337e+000 3.241408e+000 2.781881e+000 2.314902e+000 2.977092e+000 4.286334e+000 2.136877e+000 2.083685e+000 1.821860e+000 2.555050e+000 2.389026e+000 1.594008e+000
<GCONST> 1.016378e+002
<STATE> 4
<MEAN> 25
 1.376593e+000 5.075868e+000 1.299077e+001 -9.364949e+000 -8.629204e+000 -1.515929e+000 -4.865044e+000 -5.651350e+000 -7.637354e+000 4.487999e+000 -3.015997e+000 -1.050223e+000 -1.003304e-001 1.550012e-001 -7.584947e-001 8.201721e-001 6.826429e-001 -1.129038e-001 4.068646e-001 3.010051e-001 5.123298e-001 -2.818682e-001 4.145142e-002 1.584837e-001 -9.558796e-001
<VARIANCE> 25
 1.560176e+001 1.910335e+001 3.944424e+001 1.088380e+002 3.953334e+001 3.106293e+001 5.699320e+001 3.020366e+001 4.853191e+001 7.901922e+001 5.383482e+001 3.004137e+001 7.427403e-001 1.469223e+000 1.635488e+000 2.303888e+000 2.936791e+000 1.930864e+000 2.714882e+000 2.397581e+000 2.828337e+000 2.520415e+000 2.396188e+000 2.285672e+000 1.666947e+000
<GCONST> 9.941139e+001
<TRANSP> 5
 0.000000e+000 1.000000e+000 0.000000e+000 0.000000e+000 0.000000e+000
 0.000000e+000 8.810782e-001 1.189218e-001 0.000000e+000 0.000000e+000
 0.000000e+000 0.000000e+000 8.432004e-001 1.567996e-001 0.000000e+000
 0.000000e+000 0.000000e+000 0.000000e+000 9.006056e-001 9.939445e-002
 0.000000e+000 0.000000e+000 0.000000e+000 0.000000e+000 0.000000e+000
<ENDHMM>
~h "jh"
<BEGINHMM>
<NUMSTATES> 5
<STATE> 2
<MEAN> 25
 5.597586e+000 3.219264e-001 5.570376e+000 5.015693e+000 5.189893e+000 2.665980e+000 -8.230186e+000 -9.101831e+000 -5.859158e-002 -3.804081e+000 -6.834056e+000 -5.019289e+000 2.498863e-001 -3.309374e-001 3.850020e-001 1.069151e-001 2.892194e-001 7.854547e-002 -8.223425e-001 -5.407979e-001 -2.752582e-001 -2.996670e-001 -1.812875e-002 -1.334121e-001 3.855044e-001
<VARIANCE> 25
 1.465217e+001 1.826685e+001 3.006247e+001 3.912804e+001 5.498732e+001 1.500565e+001 8.326831e+001 4.104998e+001 2.840169e+001 2.056663e+001 2.062621e+001 1.379500e+001 7.356570e-001 1.518111e+000 2.101989e+000 2.098166e+000 6.285846e+000 2.314691e+000 6.516459e+000 5.783951e+000 1.638913e+000 1.907920e+000 2.918926e+000 2.913856e+000 2.352748e+000
<GCONST> 9.751784e+001
<STATE> 3
<MEAN> 25
 8.621233e-001 -2.189293e+000 5.601947e+000 7.353338e+000 4.063740e+000 1.633130e+000 -3.110443e+000 6.607614e-001 1.930192e+000 -4.453967e+000 -1.219038e-002 1.163706e+000 3.137098e-002 -6.288669e-001 -1.676385e-001 2.395963e-001 -2.682265e-001 -2.411084e-001 -3.472317e-001 4.618886e-002 1.688404e-001 -4.575093e-001 -7.845332e-002 2.492609e-002 5.916483e-001
<VARIANCE> 25
 1.132324e+001 7.310500e+001 2.534569e+001 2.090346e+001 3.294040e+001 1.837566e+001 4.917540e+001 3.752546e+001 4.092092e+001 3.966638e+001 1.697673e+001 1.740619e+001 2.757149e+000 1.092842e+001 3.893268e+000 4.318733e+000 6.286494e+000 2.868791e+000 1.023776e+001 8.066184e+000 8.058464e+000 4.123980e+000 2.385698e+000 3.255345e+000 8.049869e+000
<GCONST> 1.071180e+002
<STATE> 4
<MEAN> 25
 8.852405e+000 -5.354633e+000 -1.051507e+000 3.682453e+000 4.191315e+000 5.488112e-001 -1.272797e+001 -1.126557e+001 -3.335608e+000 -6.673700e+000 4.417282e+000 -2.228132e+000 -1.691037e-001 7.777124e-001 -7.916074e-001 -1.151206e+000 -3.329631e-001 -2.584722e-001 8.659058e-001 -3.613523e-001 -5.322090e-001 3.908860e-001 1.488392e+000 4.137292e-001 -2.333607e-001
<VARIANCE> 25
 8.615316e+000 1.116612e+001 3.913618e+001 1.113742e+001 2.312602e+001 4.736683e+001 2.441243e+001 3.082553e+001 2.080878e+001 8.799850e+000 3.120284e+001 7.097420e+000 6.001495e+000 1.396417e+000 7.863804e+000 7.636017e-001 1.904580e+000 1.347709e+000 3.637412e+000 5.567918e+000 4.139429e+000 1.183372e+000 1.319828e+000 4.180401e-001 1.225477e+000
<GCONST> 8.989040e+001
<TRANSP> 5
 0.000000e+000 1.000000e+000 0.000000e+000 0.000000e+000 0.000000e+000
 0.000000e+000 9.463105e-001 5.368958e-002 0.000000e+000 0.000000e+000
 0.000000e+000 0.000000e+000 9.039431e-001 9.605695e-002 0.000000e+000
 0.000000e+000 0.000000e+000 0.000000e+000 8.661398e-001 1.338602e-001
 0.000000e+000 0.000000e+000 0.000000e+000 0.000000e+000 0.000000e+000
<ENDHMM>
~h "ng"
<BEGINHMM>
<NUMSTATES> 5
<STATE> 2
<MEAN> 25
 3.397514e+000 6.481774e+000 -5.845138e-001 1.969817e+000 3.876743e+000 -1.107882e+000 -1.596797e-001 -2.021292e+000 3.084529e+000 2.709583e+000 -6.444413e-001 -3.720633e+000 -4.211736e-001 -2.135734e-001 4.007506e-002 -6.803191e-002 -4.347336e-002 2.096786e-001 4.165610e-001 5.387863e-001 1.885451e-001 2.864263e-001 1.008330e-001 3.877749e-001 -2.341898e-001
<VARIANCE> 25
 2.059900e+001 1.112263e+001 1.631460e+001 1.341426e+001 5.408229e+000 8.206627e+000 1.770089e+001 2.575836e+001 1.386868e+001 1.146722e+001 8.673526e+000 1.615709e+001 2.334194e-001 7.760479e-001 7.779039e-001 4.454173e-001 6.604851e-001 6.012146e-001 1.310885e+000 8.526527e-001 9.601996e-001 9.927062e-001 5.094979e-001 4.832002e-001 2.026746e-001
<GCONST> 7.007014e+001
<STATE> 3
<MEAN> 25
 -3.530720e+000 -5.721667e-001 -2.181669e-001 1.023842e+000 4.648634e+000 2.678699e-001 5.942136e+000 3.958733e+000 -3.149742e-001 4.164806e+000 -5.203973e-001 1.904198e+000 -5.882711e-002 -1.005098e-001 -1.065048e-002 -4.927526e-003 -5.420122e-002 -8.670599e-002 -7.682812e-003 5.106989e-005 -1.662656e-001 -5.120582e-002 -1.343113e-001 5.150934e-002 -1.188434e-001
<VARIANCE> 25
 1.455775e+000 2.800444e+000 5.276177e+000 4.439014e+000 5.901500e+000 5.150519e+000 9.606127e+000 1.049206e+001 1.347416e+001 9.317951e+000 1.536874e+001 5.860134e+000 9.069581e-002 3.024892e-001 2.428619e-001 2.866144e-001 3.961159e-001 4.336846e-001 8.410707e-001 9.047598e-001 7.081178e-001 7.285242e-001 7.118388e-001 3.850092e-001 3.987993e-002
<GCONST> 5.439279e+001
<STATE> 4
<MEAN> 25
 -3.269640e+000 -1.707259e+000 5.643764e-001 7.670262e-001 1.888018e+000 -1.170446e+000 5.170019e+000 5.288725e+000 2.146440e-001 4.181978e+000 -1.766625e+000 1.612956e+000 1.994122e-001 -2.786517e-001 6.084549e-001 5.606387e-002 -1.027306e+000 -6.535109e-001 -8.432322e-002 1.196460e-002 -3.259162e-001 -4.580959e-001 8.584094e-001 1.548957e-001 5.330442e-001
<VARIANCE> 25
 4.222730e+000 1.594653e+000 2.392261e+000 7.329437e+000 8.654470e+000 5.527031e+000 4.440422e+000 6.046260e+000 8.809220e+000 8.632838e+000 1.458495e+001 9.087932e+000 5.136641e-001 3.981140e-001 8.895158e-001 1.097289e+000 1.246047e+000 1.816638e-001 4.173802e-001 3.199325e-001 3.739524e-001 1.844937e+000 8.930416e-001 4.075387e-001 4.445733e-001
<GCONST> 5.979140e+001
<TRANSP> 5
 0.000000e+000 1.000000e+000 0.000000e+000 0.000000e+000 0.000000e+000
 0.000000e+000 9.546207e-001 4.537930e-002 0.000000e+000 0.000000e+000
 0.000000e+000 0.000000e+000 9.663911e-001 3.360887e-002 0.000000e+000
 0.000000e+000 0.000000e+000 0.000000e+000 6.885487e-001 3.114512e-001
 0.000000e+000 0.000000e+000 0.000000e+000 0.000000e+000 0.000000e+000
<ENDHMM>
~h "ow"
<BEGINHMM>
<NUMSTATES> 5
<STATE> 2
<MEAN> 25
 6.080813e+000 1.057265e+000 -7.986412e+000 -1.100859e+001 -1.507334e+000 5.903628e+000 -2.031581e+000 -9.237988e-001 -2.176917e+000 1.010431e+000 3.951652e+000 -2.493793e+000 4.220391e-001 3.081151e-001 -9.208298e-002 -4.019561e-001 -3.610958e-001 -6.628809e-002 2.397235e-001 9.104162e-003 -1.989056e-001 -2.579100e-001 -4.047726e-002 -5.390975e-002 1.500766e-001
<VARIANCE> 25
 5.875660e+001 2.299684e+001 3.969118e+001 9.950839e+001 2.673703e+001 2.478710e+001 4.916821e+001 4.648556e+001 2.394621e+001 2.333189e+001 1.849007e+001 6.458943e+001 3.367850e+000 1.319872e+000 1.905622e+000 6.441792e+000 3.129567e+000 1.876622e+000 3.420920e+000 2.286744e+000 3.364294e+000 2.333606e+000 1.609735e+000 2.954130e+000 2.409336e+000
<GCONST> 1.014048e+002
<STATE> 3
<MEAN> 25
 1.022391e+001 8.907265e+000 -4.698586e+000 -8.195353e+000 -3.727557e+000 4.596637e+000 5.858649e+000 1.504909e+000 -1.596458e+000 -2.192327e+000 -1.216808e-001 2.875543e-001 -6.759004e-001 -2.187498e-001 3.862456e-002 1.069640e+000 6.373668e-001 -9.526335e-002 2.507988e-001 -9.958880e-002 6.640503e-002 2.104141e-001 3.157710e-002 1.708993e-001 -6.404918e-001
<VARIANCE> 25
 3.136214e+001 2.794099e+001 1.560368e+001 4.748170e+001 3.377840e+001 2.831236e+001 4.406585e+001 3.944226e+001 1.862447e+001 2.641575e+001 2.332518e+001 5.186113e+001 9.246597e-001 1.128009e+000 1.256394e+000 2.469752e+000 1.337641e+000 1.906609e+000 2.650521e+000 2.158271e+000 1.512268e+000 1.479945e+000 2.853582e+000 1.707157e+000 2.040464e-001
<GCONST> 9.160506e+001
<STATE> 4
<MEAN> 25
 -2.390081e+000 4.879425e+000 2.015010e+000 8.410828e+000 4.935407e+000 2.483717e+000 5.792972e+000 2.497377e+000 1.542443e+000 -5.327070e-001 -3.906515e+000 2.338342e+000 -2.121801e-001 -2.360589e-001 5.605883e-002 1.473308e-001 -5.680584e-002 -8.316894e-002 -9.747040e-002 1.632108e-001 8.691549e-002 -3.700459e-002 -2.501124e-001 -2.505499e-001 -3.455437e-001
<VARIANCE> 25
 1.216326e+001 2.001746e+001 3.299043e+001 5.042496e+001 1.877121e+001 1.724235e+001 2.857845e+001 2.882591e+001 2.607868e+001 2.888722e+001 4.659994e+001 2.629965e+001 2.664650e-001 9.507439e-001 1.317906e+000 1.814001e+000 1.360874e+000 1.859309e+000 2.649319e+000 3.373884e+000 2.052019e+000 2.503125e+000 2.963551e+000 3.198254e+000 2.453964e-001
<GCONST> 9.018568e+001
<TRANSP> 5
 0.000000e+000 1.000000e+000 0.000000e+000 0.000000e+000 0.000000e+000
 0.000000e+000 9.165570e-001 8.344299e-002 0.000000e+000 0.000000e+000
 0.000000e+000 0.000000e+000 9.058120e-001 9.418802e-002 0.000000e+000
 0.000000e+000 0.000000e+000 0.000000e+000 8.637272e-001 1.362728e-001
 0.000000e+000 0.000000e+000 0.000000e+000 0.000000e+000 0.000000e+000
<ENDHMM>
~h "oy"
<BEGINHMM>
<NUMSTATES> 5
<STATE> 2
<MEAN> 25
 1.311478e+001 7.043831e+000 -2.956936e+000 -4.909368e+000 -8.467105e+000 -8.006712e+000 -4.673858e+000 3.125095e+000 2.553683e+000 -8.554742e-001 -1.137497e+000 -1.207079e+000 2.962400e-001 -1.589334e-001 7.113892e-002 1.434167e-001 5.640450e-001 -9.779925e-003 -2.042384e-001 -1.706412e-001 -4.902328e-001 -1.268907e-001 1.512498e-001 -2.917284e-001 2.361331e-001
<VARIANCE> 25
 9.076237e+000 1.971003e+001 3.013355e+001 9.635316e+000 4.560856e+001 7.692995e+001 2.452086e+001 3.225787e+001 4.041773e+001 4.896442e+001 1.286097e+001 1.072899e+001 1.293903e+000 1.651791e+000 1.941057e+000 1.119694e+000 3.724954e+000 4.506291e+000 2.480223e+000 2.206611e+000 2.096277e+000 3.150097e+000 1.423590e+000 1.697978e+000 3.607463e-001
<GCONST> 9.196535e+001
<STATE> 3
<MEAN> 25
 -3.700242e+000 -7.713250e+000 1.113256e+001 5.402302e+000 2.923946e+000 2.980869e+000 -4.558414e+000 -1.310454e+000 6.177419e-001 -8.054250e+000 1.285811e+000 -2.801726e+000 -3.616168e+000 -2.110195e+000 1.806060e+000 6.610655e-001 -1.671963e+000 4.898620e-001 1.181748e+000 6.421548e-001 1.426943e+000 -3.076839e-002 7.631587e-001 7.077095e-001 1.040326e-001
<VARIANCE> 25
 1.304575e+002 3.735273e+001 6.676524e+001 2.315364e+001 1.048856e+002 2.718547e+001 3.421555e+001 3.769753e+001 4.785114e+001 1.043475e+001 2.104022e+001 1.048544e+001 5.222503e+000 1.713296e+000 3.317429e+000 3.235942e+000 5.708092e+000 3.380245e+000 1.180011e+000 2.007984e+000 1.443192e+000 2.109346e+000 3.058746e+000 1.861070e+000 3.201413e-001
<GCONST> 9.860999e+001
<STATE> 4
<MEAN> 25
 -1.363996e+001 -1.219981e+001 1.214909e+001 2.688510e+000 -1.929177e+000 5.470356e+000 1.871852e+000 -6.589177e-001 1.065200e+000 -6.964527e+000 4.253031e+000 2.446944e+000 6.586843e-001 7.862043e-001 -7.032604e-001 -2.530046e-001 9.073431e-001 3.425965e-001 1.006361e-001 -4.612426e-001 -8.691237e-001 3.673368e-001 -1.161845e-001 1.332602e-001 -1.046523e+000
<VARIANCE> 25
 4.648539e+001 3.905987e+001 4.020239e+001 2.508414e+001 2.144469e+001 1.794871e+001 1.533795e+001 7.308616e+000 2.693799e+001 1.920334e+001 9.423656e+000 1.502187e+001 1.884983e+000 1.940050e+000 1.118262e+000 5.316826e-001 7.669924e-001 1.448371e+000 2.366266e+000 9.421374e-001 1.629992e+000 1.506301e+000 1.303648e+000 1.701800e+000 2.779404e+000
<GCONST> 8.664194e+001
<TRANSP> 5
 0.000000e+000 1.000000e+000 0.000000e+000 0.000000e+000 0.000000e+000
 0.000000e+000 9.462923e-001 5.370767e-002 0.000000e+000 0.000000e+000
 0.000000e+000 0.000000e+000 8.195014e-001 1.804986e-001 0.000000e+000
 0.000000e+000 0.000000e+000 0.000000e+000 9.040033e-001 9.599674e-002
 0.000000e+000 0.000000e+000 0.000000e+000 0.000000e+000 0.000000e+000
<ENDHMM>
~h "sh"
<BEGINHMM>
<NUMSTATES> 5
<STATE> 2
<MEAN> 25
 4.881370e+000 8.495443e+000 3.844632e+000 4.414931e+000 2.467035e+000 -9.772982e-001 2.762258e+000 -2.780329e+000 -3.668742e+000 -6.851839e-001 -2.474664e+000 -3.294077e+000 -2.502164e-001 2.280116e-001 -2.644545e-001 7.822146e-001 1.088289e+000 5.565482e-003 2.793171e-001 6.150507e-001 6.398740e-001 3.956597e-001 -9.307842e-001 -3.742061e-001 -7.910821e-001
<VARIANCE> 25
 2.814046e+000 4.989172e+000 2.222015e+001 3.672454e+001 1.852477e+001 1.415735e+001 8.223087e+000 1.764318e+001 1.498293e+001 1.872869e+001 1.892698e+001 1.576251e+001 1.583973e-001 8.791648e-001 2.920900e-001 1.194556e+000 1.534070e+000 1.456150e+000 1.134837e+000 2.252165e+000 2.432542e+000 1.021207e+000 2.114526e+000 1.326360e+000 4.861812e-001
<GCONST> 7.711286e+001
<STATE> 3
<MEAN> 25
