~o
<STREAMINFO> 1 25
<VECSIZE> 25<NULLD><MFCC_D_N_Z_0><DIAGC>
~h "a"
<BEGINHMM>
<NUMSTATES> 5
<STATE> 2
<MEAN> 25
 -1.118406e-008 6.902663e-008 -6.127934e-008 -1.132241e-009 1.805760e-009 2.941641e-009 -3.920247e-008 -3.669770e-009 -5.191560e-008 -1.454802e-008 -2.627090e-008 3.876559e-008 2.510028e-002 3.968836e-004 8.013876e-003 -9.237975e-003 8.363929e-003 -6.403908e-003 3.811424e-003 -9.137135e-003 -5.245406e-003 -8.095243e-003 -3.207545e-003 -3.381838e-003 3.557804e-002
<VARIANCE> 25
 6.664439e+001 4.403650e+001 5.783500e+001 5.743623e+001 6.515208e+001 5.500425e+001 5.372772e+001 4.345287e+001 4.255812e+001 4.180091e+001 3.585940e+001 3.108589e+001 1.968051e+000 1.809448e+000 1.938954e+000 2.304791e+000 2.836484e+000 2.744093e+000 2.863587e+000 2.754002e+000 2.523799e+000 2.575277e+000 2.427561e+000 2.158062e+000 2.903915e+000
<GCONST> 1.039577e+002
<STATE> 3
<MEAN> 25
 -1.118406e-008 6.902663e-008 -6.127934e-008 -1.132241e-009 1.805760e-009 2.941641e-009 -3.920247e-008 -3.669770e-009 -5.191560e-008 -1.454802e-008 -2.627090e-008 3.876559e-008 2.510028e-002 3.968836e-004 8.013876e-003 -9.237975e-003 8.363929e-003 -6.403908e-003 3.811424e-003 -9.137135e-003 -5.245406e-003 -8.095243e-003 -3.207545e-003 -3.381838e-003 3.557804e-002
<VARIANCE> 25
 6.664439e+001 4.403650e+001 5.783500e+001 5.743623e+001 6.515208e+001 5.500425e+001 5.372772e+001 4.345287e+001 4.255812e+001 4.180091e+001 3.585940e+001 3.108589e+001 1.968051e+000 1.809448e+000 1.938954e+000 2.304791e+000 2.836484e+000 2.744093e+000 2.863587e+000 2.754002e+000 2.523799e+000 2.575277e+000 2.427561e+000 2.158062e+000 2.903915e+000
<GCONST> 1.039577e+002
<STATE> 4
<MEAN> 25
 -1.118406e-008 6.902663e-008 -6.127934e-008 -1.132241e-009 1.805760e-009 2.941641e-009 -3.920247e-008 -3.669770e-009 -5.191560e-008 -1.454802e-008 -2.627090e-008 3.876559e-008 2.510028e-002 3.968836e-004 8.013876e-003 -9.237975e-003 8.363929e-003 -6.403908e-003 3.811424e-003 -9.137135e-003 -5.245406e-003 -8.095243e-003 -3.207545e-003 -3.381838e-003 3.557804e-002
<VARIANCE> 25
 6.664439e+001 4.403650e+001 5.783500e+001 5.743623e+001 6.515208e+001 5.500425e+001 5.372772e+001 4.345287e+001 4.255812e+001 4.180091e+001 3.585940e+001 3.108589e+001 1.968051e+000 1.809448e+000 1.938954e+000 2.304791e+000 2.836484e+000 2.744093e+000 2.863587e+000 2.754002e+000 2.523799e+000 2.575277e+000 2.427561e+000 2.158062e+000 2.903915e+000
<GCONST> 1.039577e+002
<TRANSP> 5
 0.000000e+000 1.000000e+000 0.000000e+000 0.000000e+000 0.000000e+000
 0.000000e+000 6.000000e-001 4.000000e-001 0.000000e+000 0.000000e+000
 0.000000e+000 0.000000e+000 6.000000e-001 4.000000e-001 0.000000e+000
 0.000000e+000 0.000000e+000 0.000000e+000 7.000000e-001 3.000000e-001
 0.000000e+000 0.000000e+000 0.000000e+000 0.000000e+000 0.000000e+000
<ENDHMM>
~h "b"
<BEGINHMM>
<NUMSTATES> 5
<STATE> 2
<MEAN> 25
 -5.432674e+000 4.613409e+000 1.054707e-001 2.327410e+000 1.463155e+000 5.130216e-001 -6.218136e-001 -1.697403e+000 1.277356e+000 -1.377364e+000 -2.280087e+000 -1.315244e+000 3.889465e-001 -2.868847e-001 -2.113850e-001 1.263058e-002 -5.013742e-002 -5.792769e-002 -2.235677e-001 -1.848369e-001 -1.890257e-001 -1.028834e-002 5.162968e-001 -2.861333e-002 -1.691633e-002
<VARIANCE> 25
 6.198658e+001 2.866092e+001 1.927497e+001 1.016533e+001 1.570471e+001 1.729004e+001 2.061909e+001 1.871173e+001 2.112667e+001 1.979361e+001 2.860455e+001 1.411879e+001 1.737034e+000 8.403798e-001 1.631450e+000 1.308594e+000 1.611680e+000 1.400420e+000 1.904758e+000 1.247995e+000 1.420659e+000 2.313691e+000 1.737326e+000 2.303828e+000 5.015676e+000
<GCONST> 8.930969e+001
<STATE> 3
<MEAN> 25
 2.927549e+000 7.173190e-001 -2.570031e+000 -9.361092e-001 -5.262280e-001 1.218785e+000 -1.484898e+000 -1.856426e+000 -1.912338e+000 1.008089e+000 3.146127e+000 -2.072561e+000 -2.936272e-001 -1.681850e-001 9.861396e-002 -9.232108e-002 2.838534e-001 -4.982821e-002 2.020738e-001 3.371279e-001 -7.785776e-003 2.267517e-001 -2.016246e-001 2.448194e-001 -1.067352e-001
<VARIANCE> 25
 8.615982e+001 1.238401e+001 4.565419e+001 1.908923e+001 3.488000e+001 2.475120e+001 2.107499e+001 2.582529e+001 3.715229e+001 2.590491e+001 6.049629e+001 6.364935e+001 2.820189e+000 5.946100e-001 1.432217e+000 1.036619e+000 1.308743e+000 2.034729e+000 9.764425e-001 1.088327e+000 2.635260e+000 2.277125e+000 3.033775e+000 4.155792e+000 3.767952e+000
<GCONST> 9.548053e+001
<STATE> 4
<MEAN> 25
 -3.380456e+000 -3.759403e-001 9.113625e-001 6.463813e-001 2.871006e+000 1.404777e+000 1.903366e+000 1.910202e+000 5.900708e-001 1.862962e+000 -5.871497e-001 5.155208e-001 6.111584e-002 1.387655e-002 -3.247466e-002 1.056864e-001 3.060839e-002 5.577755e-002 2.015783e-002 1.488625e-002 5.182052e-002 -2.247177e-002 -6.560890e-002 -3.078273e-002 -2.839603e-002
<VARIANCE> 25
 1.893116e+001 1.400041e+001 9.049606e+000 1.239732e+001 1.968809e+001 1.402508e+001 1.539833e+001 1.711288e+001 2.134747e+001 1.456869e+001 1.791593e+001 1.427267e+001 4.021882e-001 7.360767e-001 8.940920e-001 6.310985e-001 1.410173e+000 1.221582e+000 1.065496e+000 1.632710e+000 1.456836e+000 1.632123e+000 1.748449e+000 1.371452e+000 6.072283e-001
<GCONST> 7.927576e+001
<TRANSP> 5
 0.000000e+000 1.000000e+000 0.000000e+000 0.000000e+000 0.000000e+000
 0.000000e+000 5.208629e-001 4.791372e-001 0.000000e+000 0.000000e+000
 0.000000e+000 0.000000e+000 6.968319e-001 3.031681e-001 0.000000e+000
 0.000000e+000 0.000000e+000 0.000000e+000 9.303564e-001 6.964355e-002
 0.000000e+000 0.000000e+000 0.000000e+000 0.000000e+000 0.000000e+000
<ENDHMM>
~h "d"
<BEGINHMM>
<NUMSTATES> 5
<STATE> 2
<MEAN> 25
 8.216102e+000 8.740515e-001 3.284150e+000 2.474882e+000 -5.326774e+000 -7.724560e+000 -2.928810e+000 -6.704536e-001 6.938761e-001 -4.306333e+000 -3.492664e+000 2.611139e+000 7.905155e-002 1.033932e+000 2.769064e-001 4.983156e-001 5.794728e-002 2.511490e-001 1.718289e-001 -1.597252e-001 -3.848601e-003 -3.207257e-001 1.312243e-001 -3.318353e-001 -1.166217e+000
<VARIANCE> 25
 3.350864e+001 3.997960e+001 3.321291e+001 4.206651e+001 5.331265e+001 5.545290e+001 4.164254e+001 6.695689e+001 6.289122e+001 7.235433e+001 4.319189e+001 3.894568e+001 1.370139e+000 1.869456e+000 1.457327e+000 2.657527e+000 2.455851e+000 2.461794e+000 2.652194e+000 2.750623e+000 2.399525e+000 3.248913e+000 2.400061e+000 2.529386e+000 1.483635e+000
<GCONST> 1.024977e+002
<STATE> 3
<MEAN> 25
 6.415812e+000 4.596574e+000 5.412253e+000 6.745557e+000 5.377797e-001 -3.627759e+000 -2.959208e+000 -3.279455e+000 -5.825498e-001 -4.411640e+000 -3.554552e+000 -1.754062e-001 -6.455544e-001 3.826015e-001 -3.180755e-001 2.479869e-001 1.035168e+000 6.416500e-001 6.810487e-001 3.018110e-001 6.797711e-002 4.442996e-001 2.242617e-001 9.531625e-002 -1.147777e+000
<VARIANCE> 25
 2.274952e+001 1.957933e+001 2.931714e+001 4.295543e+001 9.843319e+001 2.203961e+001 4.586798e+001 6.141891e+001 9.168094e+001 7.736125e+001 3.733228e+001 3.214701e+001 1.096124e+000 1.691710e+000 1.364154e+000 2.450640e+000 4.206285e+000 2.661537e+000 3.014068e+000 4.338785e+000 2.998224e+000 3.517957e+000 2.836388e+000 2.510648e+000 9.834525e-001
<GCONST> 1.018800e+002
<STATE> 4
<MEAN> 25
 4.803461e-001 6.210898e+000 3.431777e+000 7.079625e+000 4.374847e+000 1.872965e+000 3.414116e+000 1.486979e-001 2.531169e+000 -3.885114e-001 -2.669870e+000 2.255453e-001 -5.915542e-001 -1.220572e-001 -2.253079e-001 -1.537185e-002 7.805829e-002 3.390420e-001 3.554423e-001 3.039331e-001 4.920282e-002 2.006120e-001 1.492921e-001 1.438811e-002 -4.654361e-001
<VARIANCE> 25
 2.112795e+001 1.360276e+001 1.836168e+001 2.671191e+001 2.621614e+001 2.667973e+001 2.686995e+001 2.883128e+001 3.266729e+001 3.204044e+001 2.684552e+001 2.713909e+001 4.865928e-001 8.334472e-001 1.272420e+000 1.387702e+000 1.333647e+000 1.705952e+000 1.761799e+000 2.390766e+000 2.216139e+000 2.001535e+000 1.975295e+000 2.179351e+000 4.223538e-001
<GCONST> 8.856393e+001
<TRANSP> 5
 0.000000e+000 1.000000e+000 0.000000e+000 0.000000e+000 0.000000e+000
 0.000000e+000 7.100212e-001 2.899788e-001 0.000000e+000 0.000000e+000
 0.000000e+000 0.000000e+000 6.889680e-001 3.110320e-001 0.000000e+000
 0.000000e+000 0.000000e+000 0.000000e+000 8.460982e-001 1.539018e-001
 0.000000e+000 0.000000e+000 0.000000e+000 0.000000e+000 0.000000e+000
<ENDHMM>
~h "f"
<BEGINHMM>
<NUMSTATES> 5
<STATE> 2
<MEAN> 25
 2.051826e+000 9.293548e-001 2.034247e+000 -2.021613e+000 -4.498648e+000 -2.481931e+000 -2.890148e+000 1.103411e+000 -9.321314e-001 -2.536690e+000 2.135914e+000 4.888164e-001 1.060644e+000 4.796355e-001 4.090936e-002 1.631783e-001 -3.150271e-001 4.389632e-002 -6.838378e-002 -2.148385e-001 -1.663195e-001 8.946907e-002 1.157483e-001 -3.779031e-001 9.894705e-002
<VARIANCE> 25
 5.787189e+001 3.137251e+001 6.936477e+001 4.710287e+001 9.523260e+001 4.147543e+001 4.652955e+001 4.803060e+001 8.295296e+001 2.615274e+001 3.779865e+001 2.395855e+001 9.545853e+000 4.058105e+000 4.374853e+000 3.671957e+000 8.384344e+000 3.961313e+000 7.506238e+000 3.919665e+000 8.114080e+000 2.551761e+000 4.812055e+000 3.257950e+000 4.566823e+000
<GCONST> 1.126465e+002
<STATE> 3
<MEAN> 25
 6.131898e+000 -9.132721e-001 4.240137e-001 1.002028e+000 -5.469832e+000 -2.746374e+000 -5.160271e+000 1.145800e+000 1.038962e+000 -2.432812e+000 4.541920e-001 -3.194564e+000 -3.245690e-001 4.710680e-001 -1.164991e-001 5.879868e-001 9.158612e-001 3.643881e-001 6.358458e-001 -1.110948e-001 3.265427e-001 -1.373337e-001 -5.961279e-001 4.650424e-002 -5.120826e-001
<VARIANCE> 25
 4.041261e+001 5.967177e+001 3.557764e+001 7.195469e+001 5.821497e+001 5.462916e+001 8.854830e+001 6.686476e+001 4.930236e+001 4.187944e+001 4.716467e+001 3.658502e+001 2.006252e+000 2.679866e+000 2.751270e+000 3.731346e+000 5.491155e+000 4.688364e+000 5.036356e+000 5.061441e+000 3.291247e+000 3.148051e+000 3.783876e+000 2.687561e+000 2.048746e+000
<GCONST> 1.092917e+002
<STATE> 4
<MEAN> 25
 1.539125e+000 3.199951e+000 -3.569353e+000 2.827594e+000 1.875214e+000 1.487679e+000 5.927356e-001 -2.843893e+000 4.373454e-001 -4.030209e+000 -3.565997e-001 4.464630e-001 -3.977261e-001 -1.984010e-001 -2.401221e-001 -1.084407e-001 5.365988e-001 4.302996e-001 1.299059e-002 4.236167e-001 2.399815e-001 1.298030e-001 3.631677e-002 9.361228e-002 3.145236e-003
<VARIANCE> 25
 7.109161e+001 3.315389e+001 2.673114e+001 1.567624e+002 5.343220e+001 5.452273e+001 6.775450e+001 3.841444e+001 2.951078e+001 5.685388e+001 4.571286e+001 4.253020e+001 1.869627e+000 1.702498e+000 1.799816e+000 3.492548e+000 4.036970e+000 3.356167e+000 4.383596e+000 2.918887e+000 2.825144e+000 3.250901e+000 2.779630e+000 2.002898e+000 2.943099e+000
<GCONST> 1.060572e+002
<TRANSP> 5
 0.000000e+000 1.000000e+000 0.000000e+000 0.000000e+000 0.000000e+000
 0.000000e+000 7.297686e-001 2.702314e-001 0.000000e+000 0.000000e+000
 0.000000e+000 0.000000e+000 6.604226e-001 3.395775e-001 0.000000e+000
 0.000000e+000 0.000000e+000 0.000000e+000 7.724417e-001 2.275584e-001
 0.000000e+000 0.000000e+000 0.000000e+000 0.000000e+000 0.000000e+000
<ENDHMM>
~h "g"
<BEGINHMM>
<NUMSTATES> 5
<STATE> 2
<MEAN> 25
 -1.118406e-008 6.902663e-008 -6.127934e-008 -1.132241e-009 1.805760e-009 2.941641e-009 -3.920247e-008 -3.669770e-009 -5.191560e-008 -1.454802e-008 -2.627090e-008 3.876559e-008 2.510028e-002 3.968836e-004 8.013876e-003 -9.237975e-003 8.363929e-003 -6.403908e-003 3.811424e-003 -9.137135e-003 -5.245406e-003 -8.095243e-003 -3.207545e-003 -3.381838e-003 3.557804e-002
<VARIANCE> 25
 6.664439e+001 4.403650e+001 5.783500e+001 5.743623e+001 6.515208e+001 5.500425e+001 5.372772e+001 4.345287e+001 4.255812e+001 4.180091e+001 3.585940e+001 3.108589e+001 1.968051e+000 1.809448e+000 1.938954e+000 2.304791e+000 2.836484e+000 2.744093e+000 2.863587e+000 2.754002e+000 2.523799e+000 2.575277e+000 2.427561e+000 2.158062e+000 2.903915e+000
<GCONST> 1.039577e+002
<STATE> 3
<MEAN> 25
 -1.118406e-008 6.902663e-008 -6.127934e-008 -1.132241e-009 1.805760e-009 2.941641e-009 -3.920247e-008 -3.669770e-009 -5.191560e-008 -1.454802e-008 -2.627090e-008 3.876559e-008 2.510028e-002 3.968836e-004 8.013876e-003 -9.237975e-003 8.363929e-003 -6.403908e-003 3.811424e-003 -9.137135e-003 -5.245406e-003 -8.095243e-003 -3.207545e-003 -3.381838e-003 3.557804e-002
<VARIANCE> 25
 6.664439e+001 4.403650e+001 5.783500e+001 5.743623e+001 6.515208e+001 5.500425e+001 5.372772e+001 4.345287e+001 4.255812e+001 4.180091e+001 3.585940e+001 3.108589e+001 1.968051e+000 1.809448e+000 1.938954e+000 2.304791e+000 2.836484e+000 2.744093e+000 2.863587e+000 2.754002e+000 2.523799e+000 2.575277e+000 2.427561e+000 2.158062e+000 2.903915e+000
<GCONST> 1.039577e+002
<STATE> 4
<MEAN> 25
 -1.118406e-008 6.902663e-008 -6.127934e-008 -1.132241e-009 1.805760e-009 2.941641e-009 -3.920247e-008 -3.669770e-009 -5.191560e-008 -1.454802e-008 -2.627090e-008 3.876559e-008 2.510028e-002 3.968836e-004 8.013876e-003 -9.237975e-003 8.363929e-003 -6.403908e-003 3.811424e-003 -9.137135e-003 -5.245406e-003 -8.095243e-003 -3.207545e-003 -3.381838e-003 3.557804e-002
<VARIANCE> 25
 6.664439e+001 4.403650e+001 5.783500e+001 5.743623e+001 6.515208e+001 5.500425e+001 5.372772e+001 4.345287e+001 4.255812e+001 4.180091e+001 3.585940e+001 3.108589e+001 1.968051e+000 1.809448e+000 1.938954e+000 2.304791e+000 2.836484e+000 2.744093e+000 2.863587e+000 2.754002e+000 2.523799e+000 2.575277e+000 2.427561e+000 2.158062e+000 2.903915e+000
<GCONST> 1.039577e+002
<TRANSP> 5
 0.000000e+000 1.000000e+000 0.000000e+000 0.000000e+000 0.000000e+000
 0.000000e+000 6.000000e-001 4.000000e-001 0.000000e+000 0.000000e+000
 0.000000e+000 0.000000e+000 6.000000e-001 4.000000e-001 0.000000e+000
 0.000000e+000 0.000000e+000 0.000000e+000 7.000000e-001 3.000000e-001
 0.000000e+000 0.000000e+000 0.000000e+000 0.000000e+000 0.000000e+000
<ENDHMM>
~h "i"
<BEGINHMM>
<NUMSTATES> 5
<STATE> 2
<MEAN> 25
 5.630059e-001 1.213409e+000 1.658132e+001 -7.383783e+000 -1.563176e+001 -2.979365e+000 -7.516651e+000 -8.420182e+000 -1.372532e+000 2.214524e+000 7.336859e+000 2.848097e+000 -3.551547e-002 1.677583e-001 4.079770e-002 -1.967252e-001 3.486950e-001 1.227255e-001 7.507875e-002 2.342863e-001 6.904133e-002 2.718091e-001 1.077176e-001 2.811341e-002 -2.240073e-001
<VARIANCE> 25
 1.645050e+001 3.780427e+001 3.653888e+001 1.062574e+002 4.034757e+001 4.370614e+001 3.411912e+001 6.814424e+001 2.851599e+001 1.101512e+002 3.963771e+001 5.137753e+001 1.163052e+000 2.283703e+000 2.468554e+000 3.601818e+000 5.020510e+000 5.547746e+000 2.441099e+000 5.880343e+000 4.901014e+000 7.145994e+000 3.183522e+000 3.371279e+000 1.478827e+000
<GCONST> 1.070152e+002
<STATE> 3
<MEAN> 25
 -8.550053e-001 8.133245e+000 9.652152e+000 2.703606e+000 1.587862e+000 1.309718e+000 2.703287e+000 -1.272580e+000 1.720097e+000 -9.945057e-001 -7.486799e-001 4.428034e+000 -3.008944e-001 -2.604015e-001 -5.657305e-001 5.615011e-001 6.541213e-001 3.103768e-001 4.225601e-001 1.637079e-001 3.314300e-001 7.382794e-002 -1.104397e-001 -2.280368e-002 -5.716867e-001
<VARIANCE> 25
 1.405310e+001 1.989551e+001 5.508985e+001 7.689872e+001 1.660483e+001 1.778519e+001 2.708009e+001 5.540427e+001 2.923045e+001 2.242107e+001 2.358959e+001 1.666395e+001 3.300153e-001 6.967776e-001 9.984494e-001 2.318555e+000 2.745436e+000 3.780338e+000 2.929666e+000 2.692821e+000 3.483408e+000 3.080935e+000 3.222191e+000 1.368713e+000 8.495964e-001
<GCONST> 9.286140e+001
<STATE> 4
<MEAN> 25
 -4.914977e+000 -9.540216e+000 -6.339709e+000 1.132983e+000 1.262729e+001 7.844951e+000 -6.920709e+000 -1.127248e+000 7.976803e+000 2.531325e+000 5.202700e+000 3.344597e+000 -1.946045e-001 -2.492013e-001 3.236195e-003 3.030781e-001 -1.131030e-001 -6.218141e-001 2.577749e-001 2.704330e-001 -2.946134e-001 -2.426416e-001 2.016312e-001 -1.395434e-002 1.560859e-001
<VARIANCE> 25
 1.482351e+001 5.052633e+001 2.473131e+001 2.602686e+001 3.994704e+001 3.148637e+001 9.751320e+001 1.171520e+001 1.869168e+001 1.464525e+001 2.479045e+001 1.364351e+001 1.375589e+000 9.332342e-001 9.782447e-001 2.920222e+000 3.689465e+000 3.135939e+000 6.018229e+000 1.352735e+000 2.467021e+000 2.145060e+000 2.419382e+000 1.753872e+000 5.150568e-001
<GCONST> 9.293955e+001
<TRANSP> 5
 0.000000e+000 1.000000e+000 0.000000e+000 0.000000e+000 0.000000e+000
 0.000000e+000 9.448036e-001 5.519641e-002 0.000000e+000 0.000000e+000
 0.000000e+000 0.000000e+000 9.187992e-001 8.120078e-002 0.000000e+000
 0.000000e+000 0.000000e+000 0.000000e+000 8.444058e-001 1.555942e-001
 0.000000e+000 0.000000e+000 0.000000e+000 0.000000e+000 0.000000e+000
<ENDHMM>
~h "k"
<BEGINHMM>
<NUMSTATES> 5
<STATE> 2
<MEAN> 25
 -2.688044e+000 -8.543473e-001 8.271503e-001 -2.058273e+000 -3.790122e+000 -1.956354e+000 1.338459e+000 8.355026e-001 -1.381496e+000 -6.332881e-001 -9.811139e-001 1.141912e+000 1.084647e+000 -3.874488e-001 -1.111865e-001 -1.452188e+000 -2.962328e+000 -9.327947e-001 -6.183127e-001 1.422264e-001 7.083223e-002 -1.498028e+000 9.135223e-002 -3.058540e-001 2.812513e+000
<VARIANCE> 25
 5.045958e+001 2.653780e+001 4.088459e+001 3.775906e+001 1.110891e+002 4.483761e+001 4.284983e+001 3.657812e+001 4.213603e+001 5.601493e+001 2.679914e+001 2.368461e+001 6.834541e+000 2.560858e+000 5.561777e+000 4.600361e+000 8.559064e+000 6.228634e+000 4.116359e+000 5.458020e+000 5.199886e+000 7.592321e+000 3.392524e+000 1.661677e+000 9.609290e+000
<GCONST> 1.114394e+002
<STATE> 3
<MEAN> 25
 3.911360e+000 -2.440185e-001 3.510952e+000 -3.785935e+000 -1.001009e+001 -4.940178e+000 -7.590444e-001 5.415490e-001 -3.324315e+000 -3.441502e+000 1.286481e+000 -1.654365e+000 9.034817e-001 4.450808e-001 -1.679921e-001 -1.487870e-001 2.042323e-001 4.126340e-001 -2.888213e-001 -2.095982e-001 3.260405e-001 4.376618e-001 4.911717e-002 -8.186931e-002 -1.781388e-001
<VARIANCE> 25
 5.106452e+001 2.856825e+001 1.068906e+002 3.493143e+001 8.222263e+001 9.834919e+001 3.138301e+001 7.571786e+001 6.815864e+001 5.944704e+001 3.100602e+001 2.528886e+001 4.573478e+000 2.007008e+000 3.276366e+000 2.690879e+000 3.391434e+000 4.135443e+000 2.476449e+000 3.056334e+000 4.180433e+000 3.768913e+000 1.970906e+000 2.257415e+000 4.549801e+000
<GCONST> 1.080236e+002
<STATE> 4
<MEAN> 25
 6.103339e-001 -3.279540e-001 -1.991850e+000 -9.956570e-001 -2.149800e-001 -3.167373e-002 9.802754e-001 3.091424e-001 -1.062242e-001 7.166795e-001 -1.013375e+000 2.814319e-001 -1.338865e-002 3.535213e-002 -2.183526e-001 1.640656e-002 1.789957e-001 1.505950e-001 7.134011e-002 1.765745e-002 6.855214e-002 -3.012190e-002 -7.798214e-002 -1.253885e-001 4.326513e-002
<VARIANCE> 25
 3.044223e+001 2.091849e+001 3.303021e+001 2.799029e+001 4.930787e+001 3.047248e+001 2.677026e+001 2.107238e+001 2.342421e+001 1.947293e+001 2.104565e+001 2.214548e+001 9.202876e-001 1.232707e+000 1.159523e+000 1.121864e+000 1.957750e+000 2.195072e+000 1.879061e+000 1.515088e+000 1.638622e+000 1.310034e+000 1.588097e+000 1.492080e+000 1.946102e+000
<GCONST> 9.033580e+001
<TRANSP> 5
 0.000000e+000 1.000000e+000 0.000000e+000 0.000000e+000 0.000000e+000
 0.000000e+000 6.730884e-001 3.269116e-001 0.000000e+000 0.000000e+000
 0.000000e+000 0.000000e+000 7.811115e-001 2.188886e-001 0.000000e+000
 0.000000e+000 0.000000e+000 0.000000e+000 8.644461e-001 1.355539e-001
 0.000000e+000 0.000000e+000 0.000000e+000 0.000000e+000 0.000000e+000
<ENDHMM>
~h "l"
<BEGINHMM>
<NUMSTATES> 5
<STATE> 2
<MEAN> 25
 9.390919e+000 2.819596e+000 2.202533e-001 -3.958578e+000 -1.235496e+001 -8.356298e+000 -5.913539e+000 -4.192410e-001 3.263142e+000 -2.868672e+000 1.691470e-001 -1.087287e+000 -4.150708e-002 1.082505e-001 3.366622e-001 7.925556e-002 5.833342e-002 -3.542579e-002 4.634649e-002 1.131032e-001 1.207410e-001 2.404838e-001 -2.161629e-001 9.126162e-002 -3.719767e-001
<VARIANCE> 25
 9.976425e+000 1.147921e+001 4.715783e+001 3.822328e+001 1.235413e+002 6.443418e+001 4.832208e+001 5.620721e+001 2.646177e+001 2.618907e+001 2.096271e+001 1.573918e+001 2.395858e-001 5.736740e-001 1.362386e+000 1.567974e+000 1.991243e+000 1.961830e+000 1.530195e+000 2.065489e+000 1.643356e+000 1.677263e+000 1.534217e+000 1.305975e+000 2.994532e-001
<GCONST> 8.920469e+001
<STATE> 3
<MEAN> 25
 5.842763e+000 4.265565e+000 -2.946667e-001 -2.266192e+000 -2.037613e+000 4.044530e-001 -1.211425e-001 -8.446025e-001 -7.785369e-002 1.478541e+000 -6.158175e-001 -2.368772e-001 -7.021221e-001 -3.240132e-001 -1.377426e-002 3.809830e-001 1.019121e+000 8.226919e-001 8.815024e-001 2.204264e-001 8.362639e-002 2.264178e-001 1.002747e-001 5.424851e-002 -7.833916e-001
<VARIANCE> 25
 1.940102e+001 1.660917e+001 5.220282e+001 3.507145e+001 7.827892e+001 8.774431e+001 5.480663e+001 3.734519e+001 2.751871e+001 3.094758e+001 1.941420e+001 1.540202e+001 5.133734e-001 1.253565e+000 1.801186e+000 2.312165e+000 2.016651e+000 2.709176e+000 2.454054e+000 2.108044e+000 1.723287e+000 1.871696e+000 1.485424e+000 1.055468e+000 8.616944e-001
<GCONST> 9.394048e+001
<STATE> 4
<MEAN> 25
 -3.253171e+000 -1.499950e+000 -1.513539e-001 6.205302e-001 3.200923e+000 1.823605e+000 2.482514e+000 1.219730e+000 5.939684e-001 1.653070e+000 5.577106e-001 1.276741e+000 -1.100777e-001 -4.062279e-002 -3.421963e-002 2.847962e-002 4.845489e-002 -6.448597e-002 -4.351641e-002 -5.869209e-002 -8.060277e-002 -3.604706e-002 -3.027542e-003 1.807421e-002 -7.208870e-002
<VARIANCE> 25
 6.678094e+000 4.960357e+000 8.908890e+000 1.120024e+001 1.679135e+001 1.488106e+001 2.031624e+001 1.433355e+001 1.582251e+001 1.322792e+001 1.066580e+001 1.021537e+001 2.702416e-001 4.001790e-001 8.057673e-001 7.524657e-001 9.314204e-001 1.140873e+000 1.419855e+000 1.314344e+000 1.355181e+000 1.273091e+000 1.082411e+000 9.435771e-001 2.103593e-001
<GCONST> 7.224746e+001
<TRANSP> 5
 0.000000e+000 1.000000e+000 0.000000e+000 0.000000e+000 0.000000e+000
 0.000000e+000 8.690944e-001 1.309057e-001 0.000000e+000 0.000000e+000
 0.000000e+000 0.000000e+000 8.100147e-001 1.899853e-001 0.000000e+000
 0.000000e+000 0.000000e+000 0.000000e+000 9.600382e-001 3.996185e-002
 0.000000e+000 0.000000e+000 0.000000e+000 0.000000e+000 0.000000e+000
<ENDHMM>
~h "m"
<BEGINHMM>
<NUMSTATES> 5
<STATE> 2
<MEAN> 25
 8.730247e+000 3.808729e+000 -6.623256e-001 3.052420e+000 -8.486781e-001 1.105838e+000 -6.158778e-001 -5.845245e+000 -9.844248e-001 5.172820e-001 3.228233e-002 -9.254726e+000 -2.690409e-001 6.067694e-001 8.993191e-001 1.637980e+000 1.467596e+000 -5.765831e-001 2.890854e-001 -6.040351e-001 -8.306938e-001 7.826450e-002 -1.585644e-001 -7.691544e-001 -9.264938e-001
<VARIANCE> 25
 1.780334e+001 1.362989e+001 3.802557e+001 4.219418e+001 2.991467e+001 2.773699e+001 3.473881e+001 3.665272e+001 2.333994e+001 2.358869e+001 2.340828e+001 2.103765e+001 1.004208e+000 1.091593e+000 2.532214e+000 2.636257e+000 2.352242e+000 4.463685e+000 1.640383e+000 2.215756e+000 2.269245e+000 2.792875e+000 1.131164e+000 2.577355e+000 9.827529e-001
<GCONST> 9.373121e+001
<STATE> 3
<MEAN> 25
 5.554780e+000 6.474816e+000 2.956637e+000 7.603099e+000 5.621168e+000 2.843535e-002 -1.128216e+000 -6.067811e+000 -2.736101e+000 -8.404500e-001 -1.040803e+000 -7.540349e+000 -5.723912e-001 -4.216660e-001 1.975916e-001 -1.102238e-001 2.715185e-001 3.896743e-001 -1.255058e-002 5.456833e-001 3.320438e-001 5.358274e-002 -1.613589e-001 9.692577e-001 -6.514151e-001
<VARIANCE> 25
 9.686051e+000 1.679434e+001 1.731608e+001 1.704554e+001 2.271871e+001 3.043808e+001 2.672809e+001 3.183464e+001 2.278897e+001 1.746296e+001 2.890402e+001 3.561049e+001 9.058769e-001 2.770172e+000 2.111702e+000 2.153141e+000 2.259801e+000 2.758563e+000 2.621598e+000 3.553951e+000 2.155064e+000 2.352069e+000 2.925848e+000 4.406274e+000 1.498690e+000
<GCONST> 9.401495e+001
<STATE> 4
<MEAN> 25
 1.071278e+000 3.525954e+000 2.907456e+000 4.372434e+000 5.996451e+000 2.937841e+000 4.133826e-001 -7.454302e-001 8.285358e-001 -6.462591e-003 -1.272495e+000 -2.529702e+000 -3.216221e-001 -5.917202e-001 -4.593972e-001 -4.817074e-001 -3.731332e-001 4.786738e-002 -1.980721e-001 3.375541e-001 3.232129e-001 1.486754e-001 1.279247e-001 4.099813e-001 1.010281e-001
<VARIANCE> 25
 1.284037e+001 2.021514e+001 1.701191e+001 2.296669e+001 2.551091e+001 2.701907e+001 2.546939e+001 2.776259e+001 3.114402e+001 1.457574e+001 1.861382e+001 2.466504e+001 6.407646e-001 1.576363e+000 8.563163e-001 1.164349e+000 2.374495e+000 2.118818e+000 2.537602e+000 2.379250e+000 2.500899e+000 2.192227e+000 1.580619e+000 1.478553e+000 9.594709e-001
<GCONST> 8.874780e+001
<TRANSP> 5
 0.000000e+000 1.000000e+000 0.000000e+000 0.000000e+000 0.000000e+000
 0.000000e+000 6.883946e-001 3.116054e-001 0.000000e+000 0.000000e+000
 0.000000e+000 0.000000e+000 7.869499e-001 2.130502e-001 0.000000e+000
 0.000000e+000 0.000000e+000 0.000000e+000 7.364334e-001 2.635666e-001
 0.000000e+000 0.000000e+000 0.000000e+000 0.000000e+000 0.000000e+000
<ENDHMM>
~h "n"
<BEGINHMM>
<NUMSTATES> 5
<STATE> 2
<MEAN> 25
 4.695745e+000 -6.281383e+000 3.682840e-001 -7.684220e-001 -3.605459e+000 -3.307550e+000 -3.155876e+000 3.408825e+000 -5.989193e-001 -3.939660e+000 -1.217270e+000 -1.665602e+000 2.538422e-001 -3.431321e-001 2.144065e-001 -2.458213e-001 -2.222954e-001 -5.043948e-002 -7.566077e-002 5.654574e-002 -1.729417e-002 1.455415e-001 -8.623372e-002 -2.466576e-001 2.496097e-001
<VARIANCE> 25
 4.791119e+001 7.778695e+001 5.600758e+001 6.778541e+001 9.852123e+001 6.656187e+001 3.735569e+001 1.197315e+002 5.407751e+001 8.761445e+001 6.392110e+001 7.038084e+001 3.231018e+000 4.447548e+000 2.722163e+000 3.888465e+000 7.395323e+000 3.896326e+000 3.528549e+000 7.844954e+000 5.217984e+000 6.209599e+000 7.381476e+000 5.614761e+000 6.380955e+000
<GCONST> 1.172433e+002
<STATE> 3
<MEAN> 25
 6.426394e+000 -6.285220e+000 -2.890063e-001 -1.139548e+000 -4.600712e+000 -4.145454e+000 -1.383369e+000 1.356635e+000 -3.159203e+000 -3.583914e+000 -3.122833e+000 -1.016406e+000 6.431618e-001 1.221285e+000 4.989516e-001 9.130136e-001 -5.185648e-001 -1.816682e-001 2.535079e-001 -1.504654e+000 1.458610e-001 -1.474857e-001 -3.805622e-001 2.360646e-001 -1.445424e+000
<VARIANCE> 25
 3.488365e+001 5.613844e+001 5.001591e+001 6.418324e+001 5.761488e+001 5.413706e+001 4.501668e+001 7.568052e+001 6.337661e+001 1.126916e+002 4.748307e+001 7.100680e+001 1.503002e+000 1.716081e+000 1.917561e+000 2.233882e+000 3.545115e+000 3.427735e+000 3.529378e+000 5.259750e+000 3.736540e+000 5.108491e+000 3.142572e+000 4.334594e+000 1.411868e+000
<GCONST> 1.085032e+002
<STATE> 4
<MEAN> 25
 8.065553e+000 2.336212e+000 2.123868e+000 4.275412e+000 -1.723274e+000 -2.649739e+000 -1.680388e-001 -4.648068e+000 -3.787426e-002 -7.724618e-001 -4.959638e+000 -3.405889e+000 -2.670225e-001 6.438189e-001 2.162390e-001 2.211322e-001 2.305815e-001 2.113773e-001 2.149081e-001 -9.882189e-002 2.667642e-001 -2.425851e-002 1.014866e-001 3.628131e-001 -9.365454e-001
<VARIANCE> 25
 2.693882e+001 4.161723e+001 3.807634e+001 3.826884e+001 6.483342e+001 3.228873e+001 3.207341e+001 3.721672e+001 3.687970e+001 5.576235e+001 3.701300e+001 5.256691e+001 1.205191e+000 1.823714e+000 1.369302e+000 2.008573e+000 1.904397e+000 2.186157e+000 2.296996e+000 3.533989e+000 2.144127e+000 2.762152e+000 2.464508e+000 2.628714e+000 9.439496e-001
<GCONST> 9.909580e+001
<TRANSP> 5
 0.000000e+000 1.000000e+000 0.000000e+000 0.000000e+000 0.000000e+000
 0.000000e+000 7.254797e-001 2.745202e-001 0.000000e+000 0.000000e+000
 0.000000e+000 0.000000e+000 6.780332e-001 3.219668e-001 0.000000e+000
 0.000000e+000 0.000000e+000 0.000000e+000 7.593667e-001 2.406333e-001
 0.000000e+000 0.000000e+000 0.000000e+000 0.000000e+000 0.000000e+000
<ENDHMM>
~h "p"
<BEGINHMM>
<NUMSTATES> 5
<STATE> 2
<MEAN> 25
 -3.664453e+000 -1.305633e+000 -2.594607e+000 2.885024e+000 2.054323e+000 9.553826e-001 2.413293e+000 1.094526e+000 1.435741e+000 8.695241e-001 -2.178012e-001 -5.146452e-001 8.486913e-001 -1.567457e+000 -4.805619e-001 -5.021182e-001 -7.347497e-001 -1.103492e+000 -9.423525e-001 -1.404363e-001 1.889946e-001 -4.423997e-001 4.788049e-001 -2.637010e-001 5.182702e+000
<VARIANCE> 25
 2.818099e+001 4.504279e+001 4.719874e+001 5.921091e+001 5.002174e+001 3.051245e+001 4.108217e+001 2.451753e+001 2.163682e+001 2.625369e+001 4.016943e+001 2.093310e+001 4.893821e+000 7.018212e+000 9.169921e+000 7.026496e+000 6.078887e+000 3.777523e+000 5.557761e+000 3.178114e+000 2.126386e+000 3.762940e+000 7.032868e+000 2.585127e+000 1.584093e+001
<GCONST> 1.098009e+002
<STATE> 3
<MEAN> 25
 -1.128545e+000 -5.947738e+000 -4.619044e+000 -5.216054e-001 1.402108e+000 3.052121e+000 -1.579259e+000 -2.883259e+000 2.758278e+000 -1.324649e+000 9.181398e-001 -5.167885e-001 1.487600e+000 2.124568e-001 1.198020e+000 -2.907179e-002 -5.868366e-001 -4.690985e-001 -1.813897e+000 -2.278073e-001 -2.699249e-001 -6.610627e-001 6.405143e-002 -6.741323e-002 1.651955e+000
<VARIANCE> 25
 4.632459e+001 5.273961e+001 7.096548e+001 5.372437e+001 6.376155e+001 1.177352e+002 4.030765e+001 3.584307e+001 3.280476e+001 2.873438e+001 5.471214e+001 1.963270e+001 4.914657e+000 3.460341e+000 5.316394e+000 3.199950e+000 4.909280e+000 6.589262e+000 8.419478e+000 4.235671e+000 4.909338e+000 3.134960e+000 5.334691e+000 2.480071e+000 1.382038e+001
<GCONST> 1.126819e+002
<STATE> 4
<MEAN> 25
 8.437377e+000 1.641192e-001 -3.222795e+000 -3.485581e+000 -6.386080e+000 -4.064882e+000 -5.720038e+000 -1.976610e+000 1.065195e+000 -1.167109e-001 -1.191952e+000 -2.221489e+000 4.572827e-001 3.117324e-001 4.452609e-001 -1.165755e-001 -1.437658e-001 -1.636619e-001 -2.210931e-001 -7.936284e-002 -3.489402e-001 3.745880e-002 4.083929e-001 -1.130376e-002 9.330206e-002
<VARIANCE> 25
 5.970189e+001 5.242237e+001 9.077767e+001 3.957197e+001 7.047887e+001 4.667397e+001 4.541968e+001 4.825988e+001 3.991393e+001 3.739318e+001 4.431487e+001 3.975785e+001 2.794252e+000 1.843015e+000 3.516160e+000 2.126762e+000 3.477596e+000 3.645092e+000 2.213186e+000 2.498962e+000 3.662005e+000 3.948206e+000 2.506180e+000 2.768921e+000 4.383012e+000
<GCONST> 1.067427e+002
<TRANSP> 5
 0.000000e+000 1.000000e+000 0.000000e+000 0.000000e+000 0.000000e+000
 0.000000e+000 5.769013e-001 4.230988e-001 0.000000e+000 0.000000e+000
 0.000000e+000 0.000000e+000 6.004076e-001 3.995924e-001 0.000000e+000
 0.000000e+000 0.000000e+000 0.000000e+000 7.071280e-001 2.928720e-001
 0.000000e+000 0.000000e+000 0.000000e+000 0.000000e+000 0.000000e+000
<ENDHMM>
~h "r"
<BEGINHMM>
<NUMSTATES> 5
<STATE> 2
<MEAN> 25
 3.143577e+000 -2.075097e+000 -2.608165e+000 1.806472e+000 -1.421492e+000 6.032178e-001 -2.456169e+000 1.720656e+000 2.637112e+000 -1.441705e+000 -4.109047e-001 2.934466e-001 4.754640e-001 -6.592624e-001 -4.333083e-001 -7.703543e-003 -2.335460e-001 -3.722009e-001 -3.168181e-001 2.178098e-001 -2.811925e-002 -2.242618e-001 2.994285e-001 7.325329e-003 6.339852e-001
<VARIANCE> 25
 5.250697e+001 9.350658e+001 3.853872e+001 6.001464e+001 4.037388e+001 6.244856e+001 5.053926e+001 4.851743e+001 2.681949e+001 3.658907e+001 5.446820e+001 4.206756e+001 2.844288e+000 3.843571e+000 2.111927e+000 3.171574e+000 3.650692e+000 4.593578e+000 3.582663e+000 3.662702e+000 2.244540e+000 3.752808e+000 4.220793e+000 3.602576e+000 2.331199e+000
<GCONST> 1.078416e+002
<STATE> 3
<MEAN> 25
 6.723393e+000 -4.837676e+000 -5.309995e+000 -1.160895e+000 -2.410013e+000 -1.510747e+000 -3.960398e+000 1.704107e+000 3.529305e+000 -8.154325e-001 8.856052e-001 -4.449436e-002 1.625869e-001 -6.982041e-002 -1.365413e-001 -5.243301e-002 2.274552e-001 -2.031121e-001 -3.414836e-001 -1.706838e-001 2.025611e-001 -5.978400e-002 1.362764e-001 8.009214e-002 1.065816e+000
<VARIANCE> 25
 4.440845e+001 9.336555e+001 4.786670e+001 6.638068e+001 5.993892e+001 8.951835e+001 5.067280e+001 5.345824e+001 3.442849e+001 5.537971e+001 5.128922e+001 3.855978e+001 4.224366e+000 5.274530e+000 2.964240e+000 3.946767e+000 4.109722e+000 3.651903e+000 3.990883e+000 4.894144e+000 3.614864e+000 5.197782e+000 4.073463e+000 3.373233e+000 5.221222e+000
<GCONST> 1.124259e+002
<STATE> 4
<MEAN> 25
 6.252962e+000 -2.044350e+000 -5.049002e+000 8.440771e-001 -1.727409e-001 -9.621044e-001 -3.000951e+000 3.346531e-001 3.613671e+000 -4.022438e+000 1.267884e+000 7.758758e-001 -1.624767e-001 7.277387e-002 3.198546e-001 1.284404e-001 1.586712e-001 -1.524327e-001 3.520118e-001 -6.662848e-002 -2.940535e-001 2.984411e-002 1.635350e-001 -2.758407e-002 -2.392360e-001
<VARIANCE> 25
 5.050178e+001 6.556432e+001 6.022779e+001 8.740203e+001 5.701371e+001 7.411196e+001 7.377776e+001 4.072673e+001 3.485468e+001 5.770380e+001 2.943915e+001 3.063226e+001 8.018286e-001 1.001428e+000 1.550958e+000 1.636490e+000 2.760295e+000 2.785717e+000 2.679399e+000 2.413167e+000 2.153210e+000 2.486338e+000 2.533763e+000 2.137080e+000 1.139392e+000
<GCONST> 1.015041e+002
<TRANSP> 5
 0.000000e+000 1.000000e+000 0.000000e+000 0.000000e+000 0.000000e+000
 0.000000e+000 6.586090e-001 3.413909e-001 0.000000e+000 0.000000e+000
 0.000000e+000 0.000000e+000 6.058635e-001 3.941365e-001 0.000000e+000
 0.000000e+000 0.000000e+000 0.000000e+000 8.435879e-001 1.564121e-001
 0.000000e+000 0.000000e+000 0.000000e+000 0.000000e+000 0.000000e+000
<ENDHMM>
~h "s"
<BEGINHMM>
<NUMSTATES> 5
<STATE> 2
<MEAN> 25
 -7.298696e+000 1.833132e+000 4.391272e+000 2.651571e+000 2.128956e+000 -2.123246e+000 1.926695e+000 2.105640e+000 -1.374259e+000 -1.462527e+000 5.422679e-001 4.855724e-001 -2.396097e+000 -2.327573e-001 1.718337e-001 3.565332e-002 4.216385e-001 1.128969e-001 6.978300e-002 7.511600e-001 4.553972e-001 -4.190777e-001 6.102304e-001 3.583938e-001 5.718192e-001
<VARIANCE> 25
 7.293435e+001 1.104041e+002 6.367191e+001 2.979906e+001 7.750690e+001 7.013089e+001 2.685591e+001 4.111506e+001 3.511709e+001 3.972415e+001 3.981557e+001 2.820283e+001 3.953362e+000 4.628857e+000 5.780591e+000 3.213157e+000 5.569778e+000 3.708423e+000 2.839431e+000 3.539641e+000 3.388347e+000 3.957027e+000 2.426837e+000 3.091879e+000 2.235226e+000
<GCONST> 1.089405e+002
<STATE> 3
<MEAN> 25
 -1.606300e+001 -5.550975e+000 1.016541e+001 2.903915e+000 -9.898351e-001 3.655571e+000 1.936550e+000 3.423634e+000 1.835686e+000 -1.714913e+000 2.788177e+000 -1.005309e+000 3.115470e-001 2.967293e-001 -5.369549e-001 -1.630477e-001 1.432083e-001 3.295009e-002 -3.406471e-001 -1.998654e-001 -5.156183e-002 9.032361e-002 -8.775454e-002 1.662962e-003 3.028598e-003
<VARIANCE> 25
 6.098241e+001 8.781119e+001 1.190856e+002 3.743198e+001 7.390541e+001 6.126858e+001 3.499405e+001 2.554059e+001 1.778156e+001 4.841855e+001 3.566548e+001 2.176745e+001 5.447072e+000 1.696354e+000 2.565165e+000 1.846734e+000 2.307957e+000 2.267508e+000 2.000484e+000 1.975139e+000 1.665307e+000 2.081164e+000 1.760496e+000 1.581545e+000 1.091360e+000
<GCONST> 1.007236e+002
<STATE> 4
<MEAN> 25
 -1.137491e+001 3.629190e+000 -1.666404e+000 -9.733262e-001 2.930721e+000 -6.276986e-001 1.732042e-002 1.597946e+000 -1.030977e+000 -3.518173e-003 -8.745018e-001 8.583758e-001 6.472515e-001 -2.076125e-001 -1.989398e-001 3.131944e-006 -2.138303e-001 -6.338651e-002 -1.563947e-001 -2.944310e-001 5.250454e-002 -1.235119e-002 1.283839e-001 -9.365295e-002 -2.297422e-001
<VARIANCE> 25
 4.874305e+001 3.825709e+001 3.694923e+001 3.343949e+001 2.692883e+001 3.546983e+001 2.500459e+001 2.036714e+001 1.898063e+001 2.360911e+001 2.306119e+001 2.244351e+001 2.922576e+000 1.533612e+000 2.074464e+000 1.396617e+000 1.867287e+000 2.013758e+000 1.430570e+000 2.010914e+000 1.775617e+000 2.020662e+000 1.839395e+000 1.603449e+000 1.288554e+000
<GCONST> 9.360385e+001
<TRANSP> 5
 0.000000e+000 1.000000e+000 0.000000e+000 0.000000e+000 0.000000e+000
 0.000000e+000 7.032487e-001 2.967513e-001 0.000000e+000 0.000000e+000
 0.000000e+000 0.000000e+000 7.604942e-001 2.395058e-001 0.000000e+000
 0.000000e+000 0.000000e+000 0.000000e+000 8.113520e-001 1.886480e-001
 0.000000e+000 0.000000e+000 0.000000e+000 0.000000e+000 0.000000e+000
<ENDHMM>
~h "t"
<BEGINHMM>
<NUMSTATES> 5
<STATE> 2
<MEAN> 25
 -3.495825e+000 1.680051e+000 -5.996923e-001 2.680791e+000 -3.589420e-001 -3.414387e-001 2.979155e+000 7.630723e-001 2.779281e+000 -1.813395e-001 2.249757e+000 2.117543e-001 1.383805e+000 -1.967253e+000 -8.861145e-001 -1.406642e+000 -5.904698e-001 -1.532419e+000 -2.354271e-001 3.974418e-001 6.490503e-002 -2.579868e-001 4.153154e-001 2.584687e-001 4.681368e+000
<VARIANCE> 25
 7.038042e+001 3.753958e+001 4.268921e+001 3.974641e+001 3.253117e+001 6.363744e+001 3.579754e+001 4.109338e+001 3.287522e+001 3.389663e+001 4.148244e+001 2.380127e+001 7.395474e+000 4.109321e+000 4.752306e+000 5.465113e+000 4.989523e+000 6.721098e+000 5.695597e+000 3.905886e+000 3.641112e+000 4.790439e+000 5.506523e+000 2.326199e+000 2.316416e+001
<GCONST> 1.119405e+002
<STATE> 3
<MEAN> 25
 1.320037e+000 -1.991875e+000 -1.769716e+000 -6.733044e-001 -1.901511e+000 -3.098958e+000 1.535666e-001 1.446355e+000 1.696747e+000 -1.029055e+000 5.699791e-001 3.537822e-001 5.882988e-001 -8.490537e-001 -1.559577e-001 -4.553278e-001 1.326917e-001 2.731244e-001 -3.624717e-001 5.512741e-001 -9.599671e-002 2.441987e-001 -2.663151e-001 1.229628e-001 1.305104e+000
<VARIANCE> 25
 4.170092e+001 5.017484e+001 4.150755e+001 5.888490e+001 4.941929e+001 6.875355e+001 5.194277e+001 5.000472e+001 3.318092e+001 3.444540e+001 3.516930e+001 3.085188e+001 4.054729e+000 2.243157e+000 3.435419e+000 2.966095e+000 3.989939e+000 5.235751e+000 5.856916e+000 4.996338e+000 3.316741e+000 3.666915e+000 5.880386e+000 2.135883e+000 8.043956e+000
<GCONST> 1.094768e+002
<STATE> 4
<MEAN> 25
 7.365304e-001 -2.916406e+000 -2.211590e+000 -1.259429e+000 2.358141e-001 -3.999363e-001 1.357697e+000 8.789755e-001 1.623691e+000 9.871579e-001 1.331385e+000 5.582715e-001 2.300099e-001 -1.184604e-001 -2.491644e-003 9.049314e-002 2.144793e-001 2.701373e-001 -1.397491e-002 -3.876998e-001 -3.118706e-001 1.334139e-001 1.993797e-001 -1.028540e-001 1.762529e-001
<VARIANCE> 25
 4.025752e+001 5.151770e+001 5.402095e+001 8.025465e+001 4.243178e+001 4.854251e+001 4.167862e+001 3.835099e+001 2.938294e+001 3.978296e+001 4.038270e+001 2.688493e+001 2.760920e+000 1.661193e+000 2.413449e+000 2.628784e+000 2.884925e+000 3.464732e+000 2.912070e+000 3.534463e+000 2.663722e+000 3.270526e+000 3.334338e+000 1.827536e+000 3.848198e+000
<GCONST> 1.043434e+002
<TRANSP> 5
 0.000000e+000 1.000000e+000 0.000000e+000 0.000000e+000 0.000000e+000
 0.000000e+000 5.271977e-001 4.728023e-001 0.000000e+000 0.000000e+000
 0.000000e+000 0.000000e+000 2.445142e-001 7.554857e-001 0.000000e+000
 0.000000e+000 0.000000e+000 0.000000e+000 5.431975e-001 4.568026e-001
 0.000000e+000 0.000000e+000 0.000000e+000 0.000000e+000 0.000000e+000
<ENDHMM>
~h "v"
<BEGINHMM>
<NUMSTATES> 5
<STATE> 2
<MEAN> 25
 3.182957e+000 1.866046e-001 -3.112933e+000 -4.711843e+000 -8.538358e-002 2.398690e+000 -1.420455e+000 1.311743e+000 -4.748002e-001 2.465088e-001 8.944958e-001 2.500556e+000 1.750186e+000 7.137355e-001 -5.071431e-001 -2.217513e+000 -1.572546e-001 1.353405e+000 -9.741108e-001 -7.867786e-001 -5.702267e-001 3.367310e-002 5.027005e-001 -1.356739e-001 1.305903e+000
<VARIANCE> 25
 2.916608e+001 2.686207e+001 3.704848e+001 1.198914e+002 3.954829e+001 1.025548e+002 3.960352e+001 2.897946e+001 2.729061e+001 4.015868e+001 3.773503e+001 1.690944e+001 3.538405e+000 4.216056e+000 5.488301e+000 6.764407e+000 4.825109e+000 6.420314e+000 2.637520e+000 5.109299e+000 4.569201e+000 5.138667e+000 3.836652e+000 2.025862e+000 6.649172e+000
<GCONST> 1.092730e+002
<STATE> 3
<MEAN> 25
 7.226571e+000 1.133463e+000 -1.834835e+000 -4.439106e+000 -2.369375e+000 9.333156e-001 -1.440111e+000 -7.785422e-001 -1.438656e+000 -5.241926e-001 1.855814e+000 5.377224e-001 1.099181e-001 5.263217e-001 -1.936235e-001 -2.009162e-001 -6.642843e-001 -6.144470e-001 2.660646e-001 4.631741e-001 7.639026e-001 -1.927261e-001 -6.945916e-001 -4.052298e-001 6.767585e-001
<VARIANCE> 25
 2.121130e+001 2.931642e+001 3.072475e+001 1.404562e+002 3.654841e+001 1.225783e+002 4.899370e+001 2.030315e+001 2.269996e+001 4.394497e+001 1.701510e+001 2.535480e+001 2.493418e+000 2.053398e+000 1.893336e+000 3.866861e+000 4.130408e+000 3.899770e+000 2.217387e+000 1.788323e+000 1.941621e+000 2.771959e+000 1.939520e+000 1.970520e+000 2.061464e+000
<GCONST> 1.005599e+002
<STATE> 4
<MEAN> 25
 3.288064e+000 3.951526e+000 -2.736544e+000 -5.404749e+000 -2.724185e+000 1.326311e+000 -6.863065e-001 1.483511e+000 2.091228e+000 -5.977363e-001 -5.168316e-001 2.818309e+000 -4.994310e-001 -4.441783e-002 -1.270790e-001 7.312474e-001 5.364408e-001 -9.463962e-001 2.405091e-001 -2.876238e-001 2.974319e-001 3.051945e-001 -3.874788e-001 -2.676226e-001 -2.693807e-001
<VARIANCE> 25
 3.375545e+001 1.870485e+001 2.987957e+001 1.061540e+002 4.527987e+001 1.136338e+002 4.552240e+001 3.008008e+001 2.941054e+001 5.394847e+001 2.065445e+001 4.690024e+001 1.190019e+000 1.230748e+000 1.802816e+000 2.989615e+000 2.075704e+000 6.935391e+000 2.504178e+000 1.845920e+000 2.297940e+000 3.173053e+000 3.299854e+000 3.064942e+000 9.115689e-001
<GCONST> 1.009422e+002
<TRANSP> 5
 0.000000e+000 1.000000e+000 0.000000e+000 0.000000e+000 0.000000e+000
 0.000000e+000 6.410826e-001 3.589174e-001 0.000000e+000 0.000000e+000
 0.000000e+000 0.000000e+000 4.117705e-001 5.882294e-001 0.000000e+000
 0.000000e+000 0.000000e+000 0.000000e+000 7.017865e-001 2.982135e-001
 0.000000e+000 0.000000e+000 0.000000e+000 0.000000e+000 0.000000e+000
<ENDHMM>
~h "w"
<BEGINHMM>
<NUMSTATES> 5
<STATE> 2
<MEAN> 25
 6.284037e+000 1.189936e+000 -5.067567e+000 -1.153475e+001 -2.679410e+000 2.266686e-001 1.771618e+000 7.612845e-001 -1.708428e+000 -5.447993e-001 -1.592870e+000 -1.970594e+000 2.763051e-001 -2.204106e-002 -3.130493e-001 -4.037328e-001 -8.786111e-002 -7.821466e-002 -1.915073e-001 -1.571850e-001 1.628577e-001 -6.361566e-002 1.059703e-001 -1.514941e-001 7.758131e-001
<VARIANCE> 25
 5.078460e+001 6.831179e+001 4.454362e+001 6.106417e+001 6.829182e+001 1.149927e+002 7.908704e+001 3.063208e+001 6.380457e+001 4.171728e+001 3.070646e+001 5.180825e+001 4.387184e+000 4.363514e+000 3.448606e+000 6.854461e+000 6.818763e+000 9.273406e+000 8.489637e+000 4.423363e+000 4.244292e+000 3.642840e+000 2.985428e+000 3.271006e+000 6.421796e+000
<GCONST> 1.147913e+002
<STATE> 3
<MEAN> 25
 9.126045e+000 1.235393e+000 -2.110293e+000 -9.597283e+000 -3.067134e+000 4.763096e-001 -1.064652e+001 1.426577e+000 -4.375891e+000 6.186785e-001 7.812576e+000 -3.486239e+000 -1.997251e-001 -1.190272e+000 -3.295778e-001 6.465022e-001 2.578118e-001 1.239250e-002 -6.554105e-001 9.377889e-001 2.777712e-001 -9.515834e-003 3.634773e-001 -8.463187e-001 1.091775e+000
<VARIANCE> 25
 3.372041e+001 5.207021e+001 5.021440e+001 1.209164e+002 4.150512e+001 1.299556e+002 7.967023e+001 3.006610e+001 5.564865e+001 2.278872e+001 5.811744e+001 5.332220e+001 2.189439e+000 1.602499e+000 2.228445e+000 3.945971e+000 3.629117e+000 9.606376e+000 5.838685e+000 2.784899e+000 4.156579e+000 3.050499e+000 5.125694e+000 3.547390e+000 1.258171e+000
<GCONST> 1.091269e+002
<STATE> 4
<MEAN> 25
 8.895761e-001 -6.938983e+000 -7.505288e+000 -2.150663e+000 3.769070e+000 2.340409e+000 -3.919163e+000 -1.257802e+000 -3.172285e-001 -3.191128e+000 4.837234e+000 -9.289819e-001 -3.647599e-001 -1.222099e-002 2.224761e-001 5.257127e-001 2.442767e-001 -1.150375e-001 5.073182e-001 -1.560526e-002 -7.968332e-002 4.012647e-002 -7.222082e-002 6.096607e-001 -3.087489e-001
<VARIANCE> 25
 3.705046e+001 5.256978e+001 1.707727e+001 4.811208e+001 1.046008e+002 1.579339e+002 3.552522e+001 6.418322e+001 5.339286e+001 2.749906e+001 3.146688e+001 4.272066e+001 5.127507e-001 8.252635e-001 8.705337e-001 1.176822e+000 2.206591e+000 2.656709e+000 2.241696e+000 3.538229e+000 2.971189e+000 3.487505e+000 2.568166e+000 2.440429e+000 1.017901e+000
<GCONST> 9.936720e+001
<TRANSP> 5
 0.000000e+000 1.000000e+000 0.000000e+000 0.000000e+000 0.000000e+000
 0.000000e+000 9.315711e-001 6.842891e-002 0.000000e+000 0.000000e+000
 0.000000e+000 0.000000e+000 8.130161e-001 1.869839e-001 0.000000e+000
 0.000000e+000 0.000000e+000 0.000000e+000 8.726057e-001 1.273944e-001
 0.000000e+000 0.000000e+000 0.000000e+000 0.000000e+000 0.000000e+000
<ENDHMM>
~h "y"
<BEGINHMM>
<NUMSTATES> 5
<STATE> 2
<MEAN> 25
 3.102114e+000 7.367514e-001 1.200413e+001 3.041801e+000 -1.182166e+001 -8.880483e+000 -7.815057e-001 -3.095061e+000 -1.121203e+001 -4.486596e+000 4.343423e+000 -5.510261e+000 3.332005e-001 -4.272883e-001 -2.133769e-001 3.209159e-001 -6.254112e-001 -6.551660e-001 1.045288e-001 2.543458e-001 7.285251e-002 -1.105690e-001 3.366404e-001 2.364567e-001 2.154450e-001
<VARIANCE> 25
 1.588535e+001 1.106122e+001 3.723783e+001 2.368701e+001 2.772989e+001 4.222373e+001 2.023095e+001 2.277347e+001 5.242109e+001 2.073050e+001 3.579167e+001 3.221419e+001 2.918193e+000 1.582883e+000 3.309120e+000 1.707250e+000 3.885587e+000 4.460180e+000 1.814158e+000 2.087806e+000 4.753823e+000 1.562231e+000 3.204878e+000 2.529985e+000 1.674273e+000
<GCONST> 9.719667e+001
<STATE> 3
<MEAN> 25
 7.965887e+000 -3.108009e-001 -7.843344e-001 3.759127e+000 -8.096688e+000 -1.369867e+001 -3.950557e+000 -1.147603e+000 7.202706e-001 -5.766052e+000 -9.326229e-001 1.525572e+000 4.574246e-001 3.647121e-001 -6.116533e-001 -2.334824e-001 3.501159e-001 -4.616564e-002 -1.421104e-002 4.618013e-002 6.655487e-001 -2.519988e-001 2.634756e-002 -2.572201e-001 -3.643503e-001
<VARIANCE> 25
 4.965554e+001 6.086505e+001 7.878552e+001 2.434570e+001 7.276281e+001 3.392111e+001 2.768319e+001 2.027611e+001 1.159322e+002 2.278868e+001 5.181317e+001 3.119450e+001 2.640170e+000 2.578438e+000 2.362139e+000 1.306569e+000 4.513690e+000 2.617223e+000 2.135626e+000 1.648224e+000 3.025815e+000 1.379161e+000 3.132250e+000 1.754214e+000 7.999400e-001
<GCONST> 1.006103e+002
<STATE> 4
<MEAN> 25
 9.385566e+000 -1.398684e+000 -3.428995e+000 2.976995e+000 -6.974292e+000 -9.095464e+000 -3.802797e+000 5.247843e-001 5.055979e+000 -6.800812e+000 8.238124e-001 -2.732958e-001 -4.855022e-001 3.594402e-001 3.008809e-001 9.258836e-002 5.327218e-001 7.598939e-001 3.248449e-001 8.131307e-002 -1.038718e-001 4.221055e-001 -2.223080e-001 -9.501223e-002 -6.489565e-001
<VARIANCE> 25
 2.628278e+001 1.998639e+001 4.217322e+001 3.090291e+001 4.934462e+001 4.609616e+001 2.262066e+001 4.906587e+001 5.144430e+001 4.511110e+001 2.559738e+001 1.675192e+001 7.483241e-001 1.059528e+000 1.897460e+000 1.044520e+000 2.414467e+000 2.485580e+000 1.362586e+000 1.609547e+000 1.999890e+000 1.830183e+000 1.667406e+000 1.361087e+000 7.203654e-001
<GCONST> 9.275411e+001
<TRANSP> 5
 0.000000e+000 1.000000e+000 0.000000e+000 0.000000e+000 0.000000e+000
 0.000000e+000 8.912975e-001 1.087025e-001 0.000000e+000 0.000000e+000
 0.000000e+000 0.000000e+000 7.830115e-001 2.169885e-001 0.000000e+000
 0.000000e+000 0.000000e+000 0.000000e+000 7.966551e-001 2.033449e-001
 0.000000e+000 0.000000e+000 0.000000e+000 0.000000e+000 0.000000e+000
<ENDHMM>
~h "z"
<BEGINHMM>
<NUMSTATES> 5
<STATE> 2
<MEAN> 25
 -3.661889e+000 7.844875e-001 -6.744717e+000 -4.513775e+000 7.083990e+000 4.261169e+000 -4.829529e+000 2.150152e+000 5.347849e+000 -9.708897e-001 2.067163e+000 4.491919e+000 -1.076116e+000 3.546034e-001 2.855069e-001 2.430596e-001 -1.485977e-001 -9.845095e-001 7.200782e-001 7.570699e-001 4.837271e-001 -1.786167e-001 -6.502779e-001 1.522041e-001 3.904595e-001
<VARIANCE> 25
 2.659700e+001 1.422782e+002 3.101191e+001 3.318525e+001 4.546534e+001 7.324586e+001 4.657979e+001 3.849920e+001 5.915687e+001 4.613474e+001 3.559807e+001 2.661701e+001 3.872345e+000 3.764280e+000 1.226183e+000 3.402501e+000 3.953160e+000 4.349413e+000 4.993420e+000 5.337508e+000 5.881890e+000 3.525591e+000 4.074862e+000 2.211970e+000 3.257500e+000
<GCONST> 1.081370e+002
<STATE> 3
<MEAN> 25
 -6.332405e+000 4.895509e+000 -4.544794e+000 -3.090847e-001 9.292797e+000 -6.913108e+000 -4.403016e+000 5.460777e+000 5.188717e+000 -3.755690e-001 2.640529e-001 6.444684e+000 1.050132e+000 -7.156406e-001 6.456021e-001 1.264228e+000 -5.975896e-001 -1.401701e+000 -4.734758e-001 -2.001969e-001 1.447143e-002 2.134872e-001 -4.967682e-001 -5.176606e-001 -1.582523e-002
<VARIANCE> 25
 5.962563e+001 8.003277e+001 2.848549e+001 6.209953e+001 5.754128e+001 8.601937e+001 4.616907e+001 5.263565e+001 3.767418e+001 5.633693e+001 3.418829e+001 3.682123e+001 6.141529e+000 4.167674e+000 1.357615e+000 2.445603e+000 4.648704e+000 4.395035e+000 5.918862e+000 3.968904e+000 3.856625e+000 4.939723e+000 3.340365e+000 3.704395e+000 2.419362e+000
<GCONST> 1.099590e+002
<STATE> 4
<MEAN> 25
 2.429430e+000 4.631075e+000 -1.342972e+000 -6.812967e-001 -9.993489e-001 -1.323547e+001 -2.749817e+000 6.796327e-001 2.158521e+000 -1.252311e+000 -2.970549e+000 3.861022e+000 4.215098e-001 -2.507188e-001 5.594142e-001 -2.048036e-001 -4.568857e-001 -1.882334e-001 -1.349257e-001 1.259601e-001 -5.217047e-002 -4.122541e-002 -1.603062e-002 -1.273422e-001 3.167740e-001
<VARIANCE> 25
 2.480975e+001 8.769747e+001 2.795864e+001 5.204274e+001 3.384827e+001 4.574696e+001 6.665905e+001 2.850351e+001 3.303216e+001 6.441780e+001 4.625241e+001 4.487831e+001 2.646699e+000 7.424385e+000 1.713529e+000 2.665581e+000 2.847091e+000 3.374499e+000 4.944735e+000 2.573594e+000 1.881168e+000 4.814266e+000 2.555900e+000 4.741890e+000 1.627665e+000
<GCONST> 1.055991e+002
<TRANSP> 5
 0.000000e+000 1.000000e+000 0.000000e+000 0.000000e+000 0.000000e+000
 0.000000e+000 7.306436e-001 2.693564e-001 0.000000e+000 0.000000e+000
 0.000000e+000 0.000000e+000 7.635636e-001 2.364363e-001 0.000000e+000
 0.000000e+000 0.000000e+000 0.000000e+000 8.260018e-001 1.739981e-001
 0.000000e+000 0.000000e+000 0.000000e+000 0.000000e+000 0.000000e+000
<ENDHMM>
~h "aa"
<BEGINHMM>
<NUMSTATES> 5
<STATE> 2
<MEAN> 25
 5.914186e+000 -1.562483e+000 -7.763969e+000 -9.844043e+000 -1.369063e+000 4.193143e+000 -1.308400e+000 -2.053954e+000 -2.000294e+000 3.091086e+000 3.342420e+000 -2.730608e+000 1.421006e+000 4.967340e-001 -5.377178e-001 -1.066138e+000 -4.524916e-001 5.335396e-001 1.360366e-005 -8.621628e-001 -1.019209e-001 2.906535e-001 1.097434e-001 -3.521799e-001 5.095213e-001
<VARIANCE> 25
 3.554292e+001 3.081132e+001 4.987697e+001 6.174309e+001 3.737814e+001 2.966990e+001 2.510677e+001 3.417542e+001 1.914444e+001 1.959281e+001 5.824183e+001 2.705215e+001 2.299886e+000 2.351248e+000 1.641236e+000 3.735858e+000 2.695143e+000 2.537480e+000 1.866744e+000 3.115445e+000 1.957321e+000 2.543768e+000 1.687691e+000 3.853345e+000 4.559375e+000
<GCONST> 1.002126e+002
<STATE> 3
<MEAN> 25
 7.075807e+000 4.095579e+000 -4.990013e+000 -9.747049e+000 -1.900325e+000 6.735366e+000 2.566887e+000 -3.632943e+000 -1.073483e+000 1.933596e+000 -9.525172e-001 1.183587e+000 -8.257768e-001 4.440751e-001 7.645952e-001 9.075296e-001 5.283890e-001 -5.496929e-001 -7.861985e-002 3.239911e-001 2.260829e-001 2.441715e-003 -5.932413e-001 -8.150195e-002 -7.292537e-001
<VARIANCE> 25
 3.682694e+001 2.725234e+001 3.738634e+001 1.174746e+002 1.936055e+001 5.690660e+001 5.429290e+001 6.175920e+001 3.656434e+001 2.038508e+001 3.475883e+001 4.923106e+001 1.376044e+000 2.169626e+000 2.549990e+000 5.433371e+000 1.162956e+000 5.911924e+000 6.433292e+000 5.933982e+000 3.524991e+000 2.680434e+000 4.710718e+000 6.741572e+000 2.364880e+000
<GCONST> 1.062842e+002
<STATE> 4
<MEAN> 25
 -2.315497e+000 4.362833e+000 1.843514e+000 1.589220e+000 3.117362e+000 1.818204e+000 2.028768e+000 -1.204713e+000 3.526696e-001 2.152034e+000 -2.764704e+000 -1.942571e+000 -2.364947e-001 -1.213418e-001 4.176143e-002 2.719920e-001 2.190406e-002 -1.153557e-001 -1.551291e-001 1.830437e-001 2.479745e-001 -5.882942e-002 -1.346256e-001 -3.237220e-001 -9.169382e-002
<VARIANCE> 25
 2.798271e+001 2.363902e+001 2.566571e+001 6.958781e+001 1.836580e+001 2.332166e+001 3.092418e+001 2.145975e+001 3.553234e+001 1.949940e+001 1.824310e+001 1.865191e+001 4.292474e-001 7.055830e-001 7.136986e-001 1.362965e+000 1.380494e+000 2.055137e+000 1.477266e+000 1.384122e+000 1.755220e+000 1.786997e+000 1.182621e+000 1.526141e+000 1.357135e+000
<GCONST> 8.743225e+001
<TRANSP> 5
 0.000000e+000 1.000000e+000 0.000000e+000 0.000000e+000 0.000000e+000
 0.000000e+000 7.102051e-001 2.897949e-001 0.000000e+000 0.000000e+000
 0.000000e+000 0.000000e+000 7.242110e-001 2.757890e-001 0.000000e+000
 0.000000e+000 0.000000e+000 0.000000e+000 8.637556e-001 1.362444e-001
 0.000000e+000 0.000000e+000 0.000000e+000 0.000000e+000 0.000000e+000
<ENDHMM>
~h "ae"
<BEGINHMM>
<NUMSTATES> 5
<STATE> 2
<MEAN> 25
 2.242401e+000 -3.228226e+000 -3.833280e+000 -5.958036e-001 -6.275439e-001 -3.335624e+000 1.216747e+000 1.307660e+000 -4.946181e+000 -3.350756e+000 -2.952762e+000 -2.141809e+000 -3.617216e-001 1.369794e+000 1.688191e-001 9.558136e-003 -3.712096e-001 -4.385993e-001 7.096422e-001 -3.293190e-001 1.644197e-001 -2.666510e-001 -4.748963e-001 -3.644609e-001 -5.695101e-001
<VARIANCE> 25
 6.734389e+001 1.580872e+002 2.096348e+001 3.143635e+001 5.697069e+001 3.965466e+001 7.645612e+001 4.807891e+001 4.570089e+001 7.910168e+001 4.804789e+001 3.826715e+001 6.086924e+000 5.975636e+000 2.469019e+000 3.511423e+000 5.511879e+000 4.894806e+000 7.063001e+000 4.592640e+000 4.178771e+000 6.934782e+000 5.553999e+000 4.525708e+000 3.207914e+000
<GCONST> 1.136371e+002
<STATE> 3
<MEAN> 25
 -8.177056e+000 2.438709e+000 -3.099019e+000 7.144547e-001 2.525172e+000 -1.633519e+000 3.796103e+000 9.070864e-001 1.707338e+000 2.573544e+000 4.580593e+000 -2.011517e+000 1.150998e+000 -8.372551e-001 -7.125977e-001 -9.826759e-001 2.099359e-001 2.538987e-001 -9.180699e-001 -2.898362e-001 1.061035e-001 3.833528e-001 1.970690e-001 -3.989205e-003 4.151180e-001
<VARIANCE> 25
 1.296023e+002 7.594141e+001 3.821832e+001 5.199580e+001 4.636472e+001 2.490751e+001 6.031544e+001 8.347651e+001 4.650004e+001 5.739862e+001 6.402401e+001 2.757994e+001 9.079338e+000 3.616097e+000 3.678942e+000 6.232529e+000 3.248984e+000 2.592030e+000 5.951247e+000 6.854249e+000 5.429103e+000 7.119573e+000 4.777392e+000 3.324034e+000 3.313978e+000
<GCONST> 1.137584e+002
<STATE> 4
<MEAN> 25
 6.092216e+000 -8.021895e+000 -9.597146e+000 -9.064569e+000 1.378829e+000 -2.450975e+000 -2.647219e+000 5.921936e-001 6.533858e+000 2.979617e+000 -2.058138e+000 -5.159278e+000 -2.293465e-001 -8.147652e-002 1.159243e-001 3.505463e-001 -2.277870e-001 -8.042409e-002 9.657282e-002 9.267455e-002 3.146750e-002 -3.282250e-001 -2.177989e-001 1.119297e-001 2.105533e-001
<VARIANCE> 25
 1.823500e+001 2.130777e+001 1.777171e+001 4.343290e+001 4.627250e+001 2.896204e+001 3.468346e+001 3.426881e+001 4.682077e+001 5.760675e+001 2.256400e+001 2.406437e+001 8.363007e-001 9.014467e-001 9.447767e-001 2.035321e+000 2.055326e+000 1.951399e+000 2.281065e+000 2.360185e+000 3.048137e+000 3.208090e+000 1.219132e+000 1.973227e+000 1.132811e+000
<GCONST> 9.376266e+001
<TRANSP> 5
 0.000000e+000 1.000000e+000 0.000000e+000 0.000000e+000 0.000000e+000
 0.000000e+000 8.467187e-001 1.532813e-001 0.000000e+000 0.000000e+000
 0.000000e+000 0.000000e+000 8.578857e-001 1.421143e-001 0.000000e+000
 0.000000e+000 0.000000e+000 0.000000e+000 8.841309e-001 1.158691e-001
 0.000000e+000 0.000000e+000 0.000000e+000 0.000000e+000 0.000000e+000
<ENDHMM>
~h "ah"
<BEGINHMM>
<NUMSTATES> 5
<STATE> 2
<MEAN> 25
 4.801205e+000 -5.739534e-001 -1.527614e+000 7.029182e-001 1.390627e+000 -7.363361e-002 -3.786678e+000 -3.714190e+000 -2.338161e+000 -2.252177e+000 8.631406e-001 -6.547897e-001 1.502873e-001 -6.798633e-002 -4.624384e-002 -2.052375e-001 -4.850540e-001 9.333742e-002 -3.251545e-001 -7.183683e-002 -2.711957e-001 -6.390942e-001 1.152678e-001 1.156672e-001 2.576909e-001
<VARIANCE> 25
 3.183409e+001 4.616650e+001 6.503175e+001 5.364024e+001 5.765455e+001 5.588430e+001 7.461983e+001 4.726971e+001 5.191766e+001 4.514166e+001 4.449974e+001 2.687735e+001 2.318776e+000 2.956460e+000 3.640836e+000 3.852529e+000 6.110291e+000 2.953738e+000 5.487401e+000 4.170346e+000 4.238368e+000 4.313759e+000 3.745294e+000 2.774165e+000 4.316300e+000
<GCONST> 1.097879e+002
<STATE> 3
<MEAN> 25
 4.266015e+000 -1.871676e+000 9.612694e-002 4.407134e-001 1.719894e-001 -2.047885e+000 -4.390837e+000 -9.649193e-002 -2.151998e+000 -4.237823e+000 8.714482e-001 -5.968042e-001 1.279423e-001 6.337914e-001 -5.633177e-002 -3.603708e-001 -6.539248e-001 -4.109734e-001 6.567027e-001 6.479980e-001 -4.660174e-002 1.193099e-001 -2.212889e-001 -3.028311e-001 -6.445622e-001
<VARIANCE> 25
 4.718887e+001 6.321552e+001 5.562828e+001 5.574775e+001 7.645570e+001 6.094005e+001 6.019130e+001 7.030705e+001 6.652243e+001 4.831410e+001 4.293043e+001 3.308839e+001 1.696673e+000 2.443517e+000 2.498477e+000 2.326755e+000 5.295832e+000 2.984586e+000 3.488761e+000 4.860482e+000 3.400811e+000 3.273599e+000 3.451857e+000 2.785688e+000 2.215570e+000
<GCONST> 1.083603e+002
<STATE> 4
<MEAN> 25
 3.906878e+000 9.997737e-001 -7.170279e-002 -1.212598e-002 -1.116094e+000 -1.651974e+000 5.563251e-002 5.501415e-001 -3.297921e-001 -1.512755e+000 -1.077148e+000 -3.879550e-001 -2.145976e-001 1.130996e-001 1.555117e-001 1.778019e-001 -5.175429e-002 -5.979396e-002 3.711690e-001 -8.433174e-002 -4.373141e-002 1.028091e-001 -1.219392e-001 -6.880471e-002 -4.611921e-001
<VARIANCE> 25
 3.739573e+001 3.978328e+001 4.668612e+001 5.063112e+001 7.001542e+001 4.588798e+001 4.982807e+001 3.994702e+001 3.292409e+001 2.893337e+001 3.746622e+001 3.444024e+001 6.742490e-001 1.248793e+000 1.256453e+000 1.559366e+000 2.553864e+000 2.054057e+000 2.029674e+000 2.353526e+000 1.956163e+000 1.712206e+000 1.814081e+000 2.083788e+000 7.584250e-001
<GCONST> 9.669669e+001
<TRANSP> 5
 0.000000e+000 1.000000e+000 0.000000e+000 0.000000e+000 0.000000e+000
 0.000000e+000 6.507807e-001 3.492192e-001 0.000000e+000 0.000000e+000
 0.000000e+000 0.000000e+000 4.679463e-001 5.320537e-001 0.000000e+000
 0.000000e+000 0.000000e+000 0.000000e+000 6.927543e-001 3.072458e-001
 0.000000e+000 0.000000e+000 0.000000e+000 0.000000e+000 0.000000e+000
<ENDHMM>
~h "ao"
<BEGINHMM>
<NUMSTATES> 5
<STATE> 2
<MEAN> 25
 1.445687e+000 -6.355023e-001 -6.689805e-001 4.317336e-001 8.371798e-001 1.080165e+000 -6.782179e-001 -1.551724e+000 2.633415e-001 -3.503271e+000 1.632863e+000 -1.632902e+000 6.185429e-001 7.889596e-003 -1.992386e-003 -7.741929e-001 -6.593397e-001 2.337142e-001 -1.544595e-001 -2.918710e-001 -5.317865e-001 -3.965653e-001 4.212354e-001 -7.498400e-002 1.041860e+000
<VARIANCE> 25
 6.331644e+001 2.609582e+001 5.809426e+001 6.508356e+001 8.572117e+001 3.949794e+001 5.687723e+001 9.456120e+001 5.997808e+001 4.021159e+001 2.244057e+001 1.753718e+001 7.962455e+000 2.580863e+000 3.811238e+000 4.677309e+000 6.158514e+000 4.775694e+000 3.583793e+000 6.146894e+000 4.238524e+000 3.036398e+000 3.256444e+000 1.706542e+000 5.409924e+000
<GCONST> 1.104109e+002
<STATE> 3
<MEAN> 25
 -4.447618e+000 -5.680464e+000 2.143688e+000 -6.289292e-001 -6.232287e+000 3.764940e+000 6.626962e+000 5.334105e+000 -4.424338e+000 -4.193541e+000 2.748454e+000 -1.536783e+000 6.642533e-001 -7.529744e-002 -6.089312e-001 -5.230927e-001 4.814875e-002 1.017644e+000 -3.900338e-001 -2.724586e-001 2.681069e-001 2.315385e-001 1.044643e-001 -2.175792e-001 -1.436525e-001
<VARIANCE> 25
 2.217638e+002 3.948143e+001 1.466231e+002 8.841496e+001 3.025696e+001 3.523349e+001 1.034684e+002 7.876920e+001 2.400767e+001 1.091995e+001 4.194722e+001 9.057150e+000 1.907248e+000 5.781751e-001 9.708966e-001 2.928263e+000 2.027785e+000 3.854452e+000 1.216561e+000 2.099344e+000 1.759263e+000 1.143799e+000 1.791978e+000 1.304987e+000 1.333793e+000
<GCONST> 9.795399e+001
<STATE> 4
<MEAN> 25
 1.100743e+001 3.420817e+000 -4.826840e+000 -8.889138e+000 -7.538220e+000 1.000188e+001 -2.255632e+000 -4.770114e+000 -1.490143e+000 -3.087008e+000 3.509233e+000 -5.118405e-001 -1.030274e-001 -5.343600e-002 -2.073236e-002 3.682887e-001 2.309054e-001 -1.956401e-002 -2.884956e-001 2.328958e-001 1.905575e-001 1.391277e-001 -2.418039e-001 5.829386e-002 -1.405639e-001
<VARIANCE> 25
 4.481553e+001 1.858387e+001 4.836156e+001 1.232259e+002 5.124120e+001 6.030547e+001 3.574848e+001 5.192350e+001 2.206614e+001 1.245802e+001 3.147674e+001 2.761792e+001 3.032292e-001 7.279105e-001 1.083771e+000 2.542610e+000 1.568512e+000 2.706436e+000 1.652906e+000 1.647962e+000 1.511323e+000 1.297448e+000 1.431773e+000 1.610019e+000 3.232750e-001
<GCONST> 9.164079e+001
<TRANSP> 5
 0.000000e+000 1.000000e+000 0.000000e+000 0.000000e+000 0.000000e+000
 0.000000e+000 9.097456e-001 9.025443e-002 0.000000e+000 0.000000e+000
 0.000000e+000 0.000000e+000 7.755680e-001 2.244319e-001 0.000000e+000
 0.000000e+000 0.000000e+000 0.000000e+000 9.443118e-001 5.568820e-002
 0.000000e+000 0.000000e+000 0.000000e+000 0.000000e+000 0.000000e+000
<ENDHMM>
~h "aw"
<BEGINHMM>
<NUMSTATES> 5
<STATE> 2
<MEAN> 25
 4.173913e+000 -1.059508e+000 -2.730952e+000 -3.638770e-001 4.757971e+000 -8.126963e-001 -7.938856e+000 -1.619683e+000 -1.331666e+000 -4.857993e-001 2.424570e+000 1.404346e+000 9.219308e-001 -1.659658e+000 -1.167968e+000 -7.984402e-001 3.123386e-001 1.521845e+000 -1.381779e+000 5.316282e-001 -2.551299e-001 -2.739363e-001 4.454162e-001 -7.177225e-001 3.213411e+000
<VARIANCE> 25
 3.989957e+001 5.454395e+001 3.608210e+001 3.543954e+001 3.201400e+001 6.374574e+001 9.813785e+001 3.415012e+001 6.468932e+001 1.932810e+001 4.685432e+001 3.963957e+001 3.825897e+000 6.899552e+000 5.229472e+000 4.696630e+000 3.365586e+000 7.395718e+000 9.098213e+000 3.734297e+000 4.932469e+000 2.275789e+000 5.303537e+000 6.166277e+000 1.299874e+001
<GCONST> 1.128672e+002
<STATE> 3
<MEAN> 25
 5.799777e+000 -9.270189e+000 -7.419041e+000 -6.872402e+000 7.167278e+000 9.168594e+000 -8.323771e+000 -3.649168e-001 -2.293105e+000 6.032774e-001 3.058956e+000 -5.794438e+000 1.747104e-001 9.565395e-002 -4.428987e-002 -1.014260e+000 -1.139557e-001 9.795339e-001 -1.854407e-001 -1.988095e-001 -3.601376e-001 7.402493e-001 5.168691e-001 -5.194737e-001 3.615519e-001
<VARIANCE> 25
 2.822853e+001 3.673337e+001 2.317526e+001 4.808310e+001 2.690477e+001 3.599963e+001 4.371448e+001 2.770213e+001 3.596067e+001 2.650907e+001 4.494975e+001 4.292088e+001 1.257105e+000 2.436015e+000 1.353828e+000 2.881716e+000 2.479548e+000 2.732110e+000 4.500813e+000 2.432473e+000 1.698734e+000 1.674545e+000 3.153373e+000 3.469537e+000 2.252450e+000
<GCONST> 9.934353e+001
<STATE> 4
<MEAN> 25
 5.809641e+000 -3.844865e+000 -7.658162e+000 -1.002052e+001 4.288014e+000 7.864696e+000 -1.019965e+001 -2.154396e+000 -3.290084e-001 4.322162e+000 4.943080e+000 -1.296581e+000 -3.232698e-001 1.048451e+000 2.033119e-003 2.421687e-001 2.744508e-002 -8.518612e-001 -2.160162e-002 -8.299685e-002 3.853776e-001 -2.779258e-001 -2.646044e-001 9.295870e-001 -3.591031e-001
<VARIANCE> 25
 3.536764e+001 4.581507e+001 1.921382e+001 7.358880e+001 5.379595e+001 7.004208e+001 5.064211e+001 3.212301e+001 4.468012e+001 3.149232e+001 3.639539e+001 4.690598e+001 2.331024e+000 1.737387e+000 1.457832e+000 4.118313e+000 3.427820e+000 6.276717e+000 4.833659e+000 2.842016e+000 2.715399e+000 3.356512e+000 2.357996e+000 3.261506e+000 9.829428e-001
<GCONST> 1.040246e+002
<TRANSP> 5
 0.000000e+000 1.000000e+000 0.000000e+000 0.000000e+000 0.000000e+000
 0.000000e+000 8.256570e-001 1.743430e-001 0.000000e+000 0.000000e+000
 0.000000e+000 0.000000e+000 8.482181e-001 1.517819e-001 0.000000e+000
 0.000000e+000 0.000000e+000 0.000000e+000 9.018089e-001 9.819116e-002
 0.000000e+000 0.000000e+000 0.000000e+000 0.000000e+000 0.000000e+000
<ENDHMM>
~h "ay"
<BEGINHMM>
<NUMSTATES> 5
<STATE> 2
<MEAN> 25
 7.799725e+000 -4.158191e+000 -8.418523e+000 -1.402106e+000 -3.754768e+000 -2.080976e+000 -3.601407e+000 -6.726179e+000 1.947269e+000 -2.907134e+000 6.965345e+000 3.656738e+000 -3.487870e-001 2.015303e-001 5.673038e-001 1.444176e+000 1.272121e+000 -4.933837e-001 -1.469735e+000 -1.129262e+000 -3.308026e-001 -2.379392e-001 2.650717e-001 -3.214760e-001 -3.102648e-001
<VARIANCE> 25
 2.259200e+001 2.144652e+001 4.239114e+001 3.456519e+001 6.218347e+001 3.088120e+001 6.554327e+001 4.684533e+001 1.607472e+001 2.158624e+001 2.627629e+001 4.195863e+001 8.866785e-001 9.018465e-001 3.398439e+000 2.764184e+000 3.847271e+000 1.982379e+000 5.349402e+000 2.132448e+000 2.187516e+000 1.978014e+000 1.898085e+000 2.873502e+000 8.918760e-001
<GCONST> 9.739353e+001
<STATE> 3
<MEAN> 25
 5.264709e+000 -2.480686e+000 -2.611103e+000 4.631543e+000 3.853352e+000 -3.062950e+000 -8.051483e+000 -8.541460e+000 -1.020359e+000 -4.995631e+000 3.263505e+000 -1.974185e-001 -2.885538e-001 5.543756e-001 1.158991e+000 1.003290e+000 6.065089e-001 -1.265266e-001 4.244242e-001 7.392702e-001 -7.385911e-001 -2.236475e-001 -1.180850e+000 -8.435022e-001 -1.007109e+000
<VARIANCE> 25
 2.385645e+001 2.510022e+001 3.059148e+001 4.116567e+001 6.181069e+001 3.199592e+001 7.341423e+001 5.304595e+001 3.921693e+001 4.577363e+001 3.083430e+001 2.196451e+001 8.363193e-001 1.025045e+000 2.064781e+000 3.071117e+000 5.408870e+000 1.565584e+000 5.037576e+000 3.363856e+000 2.234719e+000 4.172055e+000 1.728285e+000 2.269339e+000 1.752700e+000
<GCONST> 1.001677e+002
<STATE> 4
<MEAN> 25
 3.025319e+000 -1.804173e+000 1.582105e-001 5.189174e+000 7.191461e+000 -4.175227e-003 -7.751896e+000 -7.381777e+000 -1.354574e+000 -1.579190e+000 1.874161e+000 -1.389414e+000 -8.672438e-002 2.465288e-001 3.355281e-001 -2.186614e-001 -8.991841e-001 1.486489e-001 9.816656e-001 4.683443e-001 -1.469139e-002 4.097274e-001 -2.328307e-001 -1.590469e-001 -4.172201e-001
<VARIANCE> 25
 1.968589e+001 2.314308e+001 4.540798e+001 3.342472e+001 8.253351e+001 2.932949e+001 7.147205e+001 4.648901e+001 2.564347e+001 5.087245e+001 3.135297e+001 1.647130e+001 9.031866e-001 1.010043e+000 2.467700e+000 2.518739e+000 4.706063e+000 1.537205e+000 4.986428e+000 3.460781e+000 1.773713e+000 3.586396e+000 1.939979e+000 2.083854e+000 1.705624e+000
<GCONST> 9.905766e+001
<TRANSP> 5
 0.000000e+000 1.000000e+000 0.000000e+000 0.000000e+000 0.000000e+000
 0.000000e+000 6.735584e-001 3.264417e-001 0.000000e+000 0.000000e+000
 0.000000e+000 0.000000e+000 5.069987e-001 4.930014e-001 0.000000e+000
 0.000000e+000 0.000000e+000 0.000000e+000 7.981447e-001 2.018553e-001
 0.000000e+000 0.000000e+000 0.000000e+000 0.000000e+000 0.000000e+000
<ENDHMM>
~h "ch"
<BEGINHMM>
<NUMSTATES> 5
<STATE> 2
<MEAN> 25
 -1.118406e-008 6.902663e-008 -6.127934e-008 -1.132241e-009 1.805760e-009 2.941641e-009 -3.920247e-008 -3.669770e-009 -5.191560e-008 -1.454802e-008 -2.627090e-008 3.876559e-008 2.510028e-002 3.968836e-004 8.013876e-003 -9.237975e-003 8.363929e-003 -6.403908e-003 3.811424e-003 -9.137135e-003 -5.245406e-003 -8.095243e-003 -3.207545e-003 -3.381838e-003 3.557804e-002
<VARIANCE> 25
 6.664439e+001 4.403650e+001 5.783500e+001 5.743623e+001 6.515208e+001 5.500425e+001 5.372772e+001 4.345287e+001 4.255812e+001 4.180091e+001 3.585940e+001 3.108589e+001 1.968051e+000 1.809448e+000 1.938954e+000 2.304791e+000 2.836484e+000 2.744093e+000 2.863587e+000 2.754002e+000 2.523799e+000 2.575277e+000 2.427561e+000 2.158062e+000 2.903915e+000
<GCONST> 1.039577e+002
<STATE> 3
<MEAN> 25
 -1.118406e-008 6.902663e-008 -6.127934e-008 -1.132241e-009 1.805760e-009 2.941641e-009 -3.920247e-008 -3.669770e-009 -5.191560e-008 -1.454802e-008 -2.627090e-008 3.876559e-008 2.510028e-002 3.968836e-004 8.013876e-003 -9.237975e-003 8.363929e-003 -6.403908e-003 3.811424e-003 -9.137135e-003 -5.245406e-003 -8.095243e-003 -3.207545e-003 -3.381838e-003 3.557804e-002
<VARIANCE> 25
 6.664439e+001 4.403650e+001 5.783500e+001 5.743623e+001 6.515208e+001 5.500425e+001 5.372772e+001 4.345287e+001 4.255812e+001 4.180091e+001 3.585940e+001 3.108589e+001 1.968051e+000 1.809448e+000 1.938954e+000 2.304791e+000 2.836484e+000 2.744093e+000 2.863587e+000 2.754002e+000 2.523799e+000 2.575277e+000 2.427561e+000 2.158062e+000 2.903915e+000
<GCONST> 1.039577e+002
<STATE> 4
<MEAN> 25
 -1.118406e-008 6.902663e-008 -6.127934e-008 -1.132241e-009 1.805760e-009 2.941641e-009 -3.920247e-008 -3.669770e-009 -5.191560e-008 -1.454802e-008 -2.627090e-008 3.876559e-008 2.510028e-002 3.968836e-004 8.013876e-003 -9.237975e-003 8.363929e-003 -6.403908e-003 3.811424e-003 -9.137135e-003 -5.245406e-003 -8.095243e-003 -3.207545e-003 -3.381838e-003 3.557804e-002
<VARIANCE> 25
 6.664439e+001 4.403650e+001 5.783500e+001 5.743623e+001 6.515208e+001 5.500425e+001 5.372772e+001 4.345287e+001 4.255812e+001 4.180091e+001 3.585940e+001 3.108589e+001 1.968051e+000 1.809448e+000 1.938954e+000 2.304791e+000 2.836484e+000 2.744093e+000 2.863587e+000 2.754002e+000 2.523799e+000 2.575277e+000 2.427561e+000 2.158062e+000 2.903915e+000
<GCONST> 1.039577e+002
<TRANSP> 5
 0.000000e+000 1.000000e+000 0.000000e+000 0.000000e+000 0.000000e+000
 0.000000e+000 6.000000e-001 4.000000e-001 0.000000e+000 0.000000e+000
 0.000000e+000 0.000000e+000 6.000000e-001 4.000000e-001 0.000000e+000
 0.000000e+000 0.000000e+000 0.000000e+000 7.000000e-001 3.000000e-001
 0.000000e+000 0.000000e+000 0.000000e+000 0.000000e+000 0.000000e+000
<ENDHMM>
~h "dh"
<BEGINHMM>
<NUMSTATES> 5
<STATE> 2
<MEAN> 25
 -1.118406e-008 6.902663e-008 -6.127934e-008 -1.132241e-009 1.805760e-009 2.941641e-009 -3.920247e-008 -3.669770e-009 -5.191560e-008 -1.454802e-008 -2.627090e-008 3.876559e-008 2.510028e-002 3.968836e-004 8.013876e-003 -9.237975e-003 8.363929e-003 -6.403908e-003 3.811424e-003 -9.137135e-003 -5.245406e-003 -8.095243e-003 -3.207545e-003 -3.381838e-003 3.557804e-002
<VARIANCE> 25
 6.664439e+001 4.403650e+001 5.783500e+001 5.743623e+001 6.515208e+001 5.500425e+001 5.372772e+001 4.345287e+001 4.255812e+001 4.180091e+001 3.585940e+001 3.108589e+001 1.968051e+000 1.809448e+000 1.938954e+000 2.304791e+000 2.836484e+000 2.744093e+000 2.863587e+000 2.754002e+000 2.523799e+000 2.575277e+000 2.427561e+000 2.158062e+000 2.903915e+000
<GCONST> 1.039577e+002
<STATE> 3
<MEAN> 25
 -1.118406e-008 6.902663e-008 -6.127934e-008 -1.132241e-009 1.805760e-009 2.941641e-009 -3.920247e-008 -3.669770e-009 -5.191560e-008 -1.454802e-008 -2.627090e-008 3.876559e-008 2.510028e-002 3.968836e-004 8.013876e-003 -9.237975e-003 8.363929e-003 -6.403908e-003 3.811424e-003 -9.137135e-003 -5.245406e-003 -8.095243e-003 -3.207545e-003 -3.381838e-003 3.557804e-002
<VARIANCE> 25
 6.664439e+001 4.403650e+001 5.783500e+001 5.743623e+001 6.515208e+001 5.500425e+001 5.372772e+001 4.345287e+001 4.255812e+001 4.180091e+001 3.585940e+001 3.108589e+001 1.968051e+000 1.809448e+000 1.938954e+000 2.304791e+000 2.836484e+000 2.744093e+000 2.863587e+000 2.754002e+000 2.523799e+000 2.575277e+000 2.427561e+000 2.158062e+000 2.903915e+000
<GCONST> 1.039577e+002
<STATE> 4
<MEAN> 25
 -1.118406e-008 6.902663e-008 -6.127934e-008 -1.132241e-009 1.805760e-009 2.941641e-009 -3.920247e-008 -3.669770e-009 -5.191560e-008 -1.454802e-008 -2.627090e-008 3.876559e-008 2.510028e-002 3.968836e-004 8.013876e-003 -9.237975e-003 8.363929e-003 -6.403908e-003 3.811424e-003 -9.137135e-003 -5.245406e-003 -8.095243e-003 -3.207545e-003 -3.381838e-003 3.557804e-002
<VARIANCE> 25
 6.664439e+001 4.403650e+001 5.783500e+001 5.743623e+001 6.515208e+001 5.500425e+001 5.372772e+001 4.345287e+001 4.255812e+001 4.180091e+001 3.585940e+001 3.108589e+001 1.968051e+000 1.809448e+000 1.938954e+000 2.304791e+000 2.836484e+000 2.744093e+000 2.863587e+000 2.754002e+000 2.523799e+000 2.575277e+000 2.427561e+000 2.158062e+000 2.903915e+000
<GCONST> 1.039577e+002
<TRANSP> 5
 0.000000e+000 1.000000e+000 0.000000e+000 0.000000e+000 0.000000e+000
 0.000000e+000 6.000000e-001 4.000000e-001 0.000000e+000 0.000000e+000
 0.000000e+000 0.000000e+000 6.000000e-001 4.000000e-001 0.000000e+000
 0.000000e+000 0.000000e+000 0.000000e+000 7.000000e-001 3.000000e-001
 0.000000e+000 0.000000e+000 0.000000e+000 0.000000e+000 0.000000e+000
<ENDHMM>
~h "eh"
<BEGINHMM>
<NUMSTATES> 5
<STATE> 2
<MEAN> 25
 1.273003e+000 -2.778071e+000 1.293066e+000 4.220218e+000 -2.668296e+000 -4.282886e+000 -1.571775e+000 -9.543378e-001 -2.067355e-001 -4.395513e-001 5.135008e+000 1.115171e+000 -5.014148e-001 -1.503584e+000 6.836214e-001 -5.290515e-001 -1.224685e+000 9.531128e-001 6.560673e-001 1.350047e+000 2.302096e-001 1.407141e-001 2.201890e-001 2.963018e-001 5.548481e-001
<VARIANCE> 25
 6.160405e+001 7.179820e+001 2.988773e+001 2.620606e+001 8.705484e+001 8.317942e+001 4.000724e+001 7.625578e+001 6.583644e+001 4.660174e+001 3.772539e+001 2.208553e+001 2.573926e+000 3.515166e+000 4.310017e+000 2.213934e+000 5.488911e+000 4.303510e+000 6.198674e+000 5.687008e+000 6.751847e+000 4.843499e+000 4.821877e+000 1.926669e+000 8.052764e+000
<GCONST> 1.116551e+002
<STATE> 3
<MEAN> 25
 1.916858e-001 -9.744695e+000 6.068074e+000 4.018253e+000 -4.792999e+000 -3.727649e+000 -4.862697e+000 6.333282e+000 -3.041809e-001 -3.891481e+000 5.448864e+000 2.077682e+000 4.652271e-001 4.737874e-002 2.458401e-001 -4.048992e-001 7.618564e-002 1.689074e-001 2.069757e-001 -1.754607e-001 -1.064134e+000 2.611902e-002 1.449810e-001 -1.910163e-001 9.552167e-003
<VARIANCE> 25
 9.380759e+001 8.055251e+001 3.255615e+001 2.330722e+001 8.004843e+001 7.322322e+001 4.992524e+001 5.413670e+001 9.738995e+001 2.882563e+001 2.460102e+001 1.954526e+001 3.107273e+000 4.535443e+000 3.370406e+000 3.344376e+000 2.498289e+000 2.314955e+000 3.748636e+000 2.631575e+000 4.873709e+000 1.949302e+000 1.710104e+000 1.333637e+000 1.202905e+000
<GCONST> 1.045750e+002
<STATE> 4
<MEAN> 25
 -9.624786e-001 4.774617e+000 7.570905e+000 4.716872e+000 -1.156223e+000 1.018089e+000 -1.791451e+000 -1.101888e+000 -3.629407e+000 -1.464345e-001 -2.715817e+000 -2.977497e+000 -1.550210e-001 1.285256e-001 -1.234778e-001 2.437324e-002 1.792591e-001 2.791974e-001 9.124590e-002 -1.016573e-001 1.220279e-001 5.871759e-002 -2.536640e-001 5.347240e-002 -3.399743e-001
<VARIANCE> 25
 2.188147e+001 5.006507e+001 5.754336e+001 3.147909e+001 4.209585e+001 3.132063e+001 2.492220e+001 3.356022e+001 7.172497e+001 2.170287e+001 3.913061e+001 1.961574e+001 4.042660e-001 7.318845e-001 1.161506e+000 7.189963e-001 1.194133e+000 1.424214e+000 1.300931e+000 1.673346e+000 1.941319e+000 1.345206e+000 1.547302e+000 1.216154e+000 2.805358e-001
<GCONST> 8.858662e+001
<TRANSP> 5
 0.000000e+000 1.000000e+000 0.000000e+000 0.000000e+000 0.000000e+000
 0.000000e+000 6.704479e-001 3.295521e-001 0.000000e+000 0.000000e+000
 0.000000e+000 0.000000e+000 7.547326e-001 2.452674e-001 0.000000e+000
 0.000000e+000 0.000000e+000 0.000000e+000 8.685543e-001 1.314457e-001
 0.000000e+000 0.000000e+000 0.000000e+000 0.000000e+000 0.000000e+000
<ENDHMM>
~h "er"
<BEGINHMM>
<NUMSTATES> 5
<STATE> 2
<MEAN> 25
 8.861024e+000 -2.084389e+000 -5.961169e+000 3.332385e+000 -3.058556e+000 -4.997872e+000 -7.497870e+000 1.385465e+000 2.888386e+000 -1.366617e+000 4.093866e-002 -2.754587e+000 -1.540679e-001 -6.427652e-002 -4.516634e-002 2.629466e-001 1.646967e-001 -2.632305e-001 9.543468e-002 1.858194e-001 3.951136e-001 -6.935098e-002 -2.721893e-001 8.370599e-002 -2.998596e-001
<VARIANCE> 25
 3.348941e+001 3.088322e+001 5.026728e+001 4.858647e+001 4.412104e+001 5.621981e+001 5.975508e+001 4.110330e+001 3.243705e+001 3.549521e+001 2.249335e+001 3.391467e+001 2.348730e+000 1.418080e+000 2.299644e+000 1.980245e+000 2.848404e+000 3.614539e+000 3.302478e+000 2.662554e+000 2.097903e+000 1.939409e+000 1.717903e+000 1.810600e+000 1.962620e+000
<GCONST> 1.004346e+002
<STATE> 3
<MEAN> 25
 2.923231e+000 -2.806801e+000 -1.756234e+000 5.673637e+000 2.812402e+000 -3.030734e+000 -1.106102e+000 5.684762e+000 4.839412e+000 -4.023043e+000 -2.402714e+000 7.496941e-001 -5.719733e-001 6.925645e-002 1.527858e-001 -5.718837e-001 7.104398e-001 6.399747e-001 8.500078e-001 -1.835130e-002 -2.000794e-001 5.462061e-001 -6.851269e-002 5.259707e-002 -7.225562e-001
<VARIANCE> 25
 5.128735e+001 7.180129e+001 3.685292e+001 6.397911e+001 3.394549e+001 5.155307e+001 5.028356e+001 6.150871e+001 2.899132e+001 3.919106e+001 1.678135e+001 2.694930e+001 2.120028e+000 1.983417e+000 1.547783e+000 2.473058e+000 2.689023e+000 2.687752e+000 2.476629e+000 2.442895e+000 2.199593e+000 2.207686e+000 1.612468e+000 1.357798e+000 6.566163e-001
<GCONST> 9.907735e+001
<STATE> 4
<MEAN> 25
 -2.590345e+000 4.828151e-002 -8.651035e-001 9.642166e-001 3.646687e+000 3.098435e+000 3.038818e+000 1.180928e+000 1.584133e+000 1.347079e+000 -3.991325e-001 1.797551e-001 -7.257968e-002 1.089179e-002 1.010030e-001 4.757302e-002 -4.171883e-002 1.201664e-002 -2.855374e-002 -1.180020e-001 -5.857026e-002 9.177188e-003 2.297901e-003 2.696531e-002 -1.075300e-001
<VARIANCE> 25
 6.407958e+000 2.458309e+001 1.947840e+001 2.667218e+001 1.219442e+001 2.219196e+001 1.597556e+001 2.014858e+001 1.542383e+001 1.989353e+001 1.817199e+001 1.663325e+001 3.494612e-001 4.911092e-001 6.220746e-001 9.929122e-001 1.082249e+000 1.254905e+000 1.314935e+000 1.637429e+000 1.330857e+000 1.602529e+000 1.419134e+000 1.248197e+000 2.285406e-001
<GCONST> 7.875381e+001
<TRANSP> 5
 0.000000e+000 1.000000e+000 0.000000e+000 0.000000e+000 0.000000e+000
 0.000000e+000 8.035917e-001 1.964083e-001 0.000000e+000 0.000000e+000
 0.000000e+000 0.000000e+000 7.579532e-001 2.420467e-001 0.000000e+000
 0.000000e+000 0.000000e+000 0.000000e+000 9.442015e-001 5.579851e-002
 0.000000e+000 0.000000e+000 0.000000e+000 0.000000e+000 0.000000e+000
<ENDHMM>
~h "ey"
<BEGINHMM>
<NUMSTATES> 5
<STATE> 2
<MEAN> 25
 1.263039e+000 -3.016052e+000 4.567232e+000 -1.742534e+000 -6.720861e+000 -3.678951e+000 1.821346e+000 1.107064e-001 -3.508199e-001 -2.430314e-001 1.024028e+000 -1.326297e+000 1.292602e+000 -1.242610e-001 1.120038e+000 -2.092206e-001 -1.684972e+000 -1.170906e+000 1.970613e-001 -5.732374e-002 -6.348325e-001 -3.563621e-001 8.901286e-001 -1.440562e-001 9.844931e-001
<VARIANCE> 25
 3.989895e+001 3.001996e+001 3.340332e+001 4.183152e+001 3.102608e+001 6.067482e+001 6.898061e+001 4.567624e+001 2.064709e+001 5.458588e+001 5.117293e+001 3.880674e+001 5.815025e+000 2.061414e+000 3.173070e+000 2.237295e+000 5.405859e+000 6.385164e+000 5.559894e+000 3.460105e+000 2.652952e+000 3.256074e+000 2.979887e+000 1.722166e+000 2.730662e+000
<GCONST> 1.062327e+002
<STATE> 3
<MEAN> 25
 4.135818e+000 -5.401493e+000 9.028312e+000 -1.792653e+000 -1.133171e+001 -6.985013e+000 -7.373101e-001 7.043853e-001 -3.871077e+000 -1.628993e+000 7.079004e+000 6.398551e-001 -9.278072e-002 2.709991e-001 8.987406e-001 -1.206679e+000 -1.125487e+000 7.265651e-001 1.328049e-001 -4.155747e-001 -7.756595e-001 3.030306e-001 6.075152e-001 -1.902583e-001 -4.882325e-002
<VARIANCE> 25
 1.599713e+001 1.936734e+001 2.961115e+001 5.217933e+001 4.560554e+001 5.333430e+001 4.968226e+001 4.752032e+001 3.100863e+001 4.518278e+001 5.781658e+001 2.224997e+001 5.490866e-001 9.888656e-001 2.175842e+000 1.553276e+000 3.155810e+000 2.600864e+000 3.920745e+000 3.401353e+000 3.060100e+000 2.456566e+000 2.280882e+000 2.094491e+000 9.389954e-001
<GCONST> 9.781454e+001
<STATE> 4
<MEAN> 25
 2.349417e+000 6.275082e-001 1.271243e+001 -3.886431e+000 -1.173729e+001 -3.014959e+000 -6.459147e+000 -1.878224e+000 -9.119567e+000 -1.413993e+000 5.059661e+000 -1.506458e+000 -5.655602e-002 6.179265e-001 -3.112806e-002 3.482950e-001 4.386555e-001 7.710128e-002 -8.652290e-002 -1.849792e-001 -2.019298e-001 1.663158e-001 -4.969697e-001 -7.347118e-002 -5.908237e-001
<VARIANCE> 25
 1.256921e+001 2.993477e+001 3.942020e+001 2.998021e+001 3.790669e+001 6.189566e+001 4.511998e+001 5.294133e+001 4.728679e+001 3.981540e+001 3.985590e+001 5.259642e+001 4.513260e-001 1.139738e+000 1.864265e+000 1.479770e+000 2.140131e+000 2.127566e+000 2.572595e+000 3.049503e+000 2.311688e+000 2.071429e+000 1.864374e+000 2.582489e+000 7.475458e-001
<GCONST> 9.645216e+001
<TRANSP> 5
 0.000000e+000 1.000000e+000 0.000000e+000 0.000000e+000 0.000000e+000
 0.000000e+000 6.208377e-001 3.791623e-001 0.000000e+000 0.000000e+000
 0.000000e+000 0.000000e+000 6.762786e-001 3.237215e-001 0.000000e+000
 0.000000e+000 0.000000e+000 0.000000e+000 9.138225e-001 8.617754e-002
 0.000000e+000 0.000000e+000 0.000000e+000 0.000000e+000 0.000000e+000
<ENDHMM>
~h "hh"
<BEGINHMM>
<NUMSTATES> 5
<STATE> 2
<MEAN> 25
 -1.906031e+000 -1.105068e+001 -1.086846e+001 -6.922509e-001 9.614474e+000 -1.050308e+000 1.949965e+000 -1.410600e+000 3.239634e+000 -2.103392e+000 2.265247e+000 2.803908e+000 1.683433e-001 -3.752901e-001 1.615117e-001 1.047028e-001 6.219007e-001 7.770060e-001 8.604386e-002 -1.000790e-001 -1.352037e-001 1.710789e-001 1.819513e-001 -1.991983e-001 -1.476333e-001
<VARIANCE> 25
 2.583144e+001 3.364222e+001 8.506645e+001 4.465609e+001 4.363189e+001 4.065108e+001 1.108401e+001 3.263387e+001 5.599064e+001 2.904652e+001 5.741607e+001 3.556281e+001 1.182795e+000 2.254419e+000 1.401318e+000 1.859604e+000 3.227754e+000 1.841357e+000 8.637400e-001 2.374086e+000 4.182718e+000 3.612494e+000 3.992751e+000 4.611334e+000 3.028460e+000
<GCONST> 1.005195e+002
<STATE> 3
<MEAN> 25
 -1.351696e-001 -1.200461e+001 -4.542216e+000 6.273845e-001 1.409129e+001 1.515486e+000 -6.015261e-001 -2.974612e+000 -9.432520e-001 9.106385e-001 3.879096e+000 -1.883196e+000 4.841679e-001 1.524087e-001 -2.055376e-001 -3.469046e-001 -4.382485e-001 -3.506092e-001 -1.616109e-001 -2.163422e-001 -4.412968e-002 7.240152e-002 -5.636351e-002 -7.358915e-001 1.485763e+000
<VARIANCE> 25
 2.920127e+001 3.877080e+001 4.107198e+001 3.295390e+001 4.311579e+001 6.198365e+001 1.788871e+001 3.349165e+001 2.194888e+001 2.460929e+001 3.455151e+001 4.099680e+001 3.952950e+000 2.562813e+000 4.062214e+000 3.264569e+000 4.771694e+000 2.644024e+000 2.652868e+000 4.967514e+000 2.451088e+000 2.227751e+000 1.867302e+000 2.400262e+000 3.067530e+000
<GCONST> 1.023557e+002
<STATE> 4
<MEAN> 25
 -2.384601e+000 1.054769e+000 6.771835e-001 6.916214e+000 6.376852e+000 3.288644e+000 2.132107e+000 -7.329332e-002 4.915799e-001 -1.589715e-001 -1.121740e-001 -5.421438e-001 4.931566e-002 -2.971574e-001 -2.475651e-001 -6.573097e-002 -2.908592e-001 -1.510083e-001 5.106341e-002 1.907651e-001 -2.465619e-001 -2.340653e-001 1.871192e-001 -8.353906e-002 5.696047e-001
<VARIANCE> 25
 1.253896e+001 1.353654e+002 7.214664e+001 4.804599e+001 2.123470e+001 1.733409e+001 1.688735e+001 1.897361e+001 2.171338e+001 1.865021e+001 5.546574e+001 2.941873e+001 8.781814e-001 1.745369e+000 1.964588e+000 1.859320e+000 2.362379e+000 1.329207e+000 2.336475e+000 2.174519e+000 1.407276e+000 2.579860e+000 2.297600e+000 2.821036e+000 2.177776e+000
<GCONST> 9.504263e+001
<TRANSP> 5
 0.000000e+000 1.000000e+000 0.000000e+000 0.000000e+000 0.000000e+000
 0.000000e+000 8.868184e-001 1.131816e-001 0.000000e+000 0.000000e+000
 0.000000e+000 0.000000e+000 8.749200e-001 1.250801e-001 0.000000e+000
 0.000000e+000 0.000000e+000 0.000000e+000 9.109378e-001 8.906210e-002
 0.000000e+000 0.000000e+000 0.000000e+000 0.000000e+000 0.000000e+000
<ENDHMM>
~h "ih"
<BEGINHMM>
<NUMSTATES> 5
<STATE> 2
<MEAN> 25
 9.044961e-001 3.352267e+000 1.491523e+000 2.138885e+000 -1.573935e+000 -5.058026e+000 -1.215423e+000 -2.449266e+000 -8.848673e-001 -2.863909e+000 -1.042658e+000 -8.306798e-001 -5.569747e-002 8.182753e-002 1.837268e-001 3.255747e-001 4.273300e-001 1.727911e-002 -4.774813e-001 -3.369093e-001 -1.549066e-001 9.183431e-002 2.381910e-002 1.984416e-001 -6.204718e-002
<VARIANCE> 25
 6.930021e+001 2.355981e+001 2.764915e+001 2.168775e+001 7.855692e+001 5.558683e+001 4.365027e+001 4.056667e+001 3.923346e+001 2.385699e+001 2.086584e+001 2.283269e+001 3.462743e+000 1.195989e+000 1.864359e+000 1.486774e+000 4.057566e+000 2.755776e+000 5.086776e+000 1.979708e+000 3.661141e+000 2.006961e+000 1.607561e+000 1.988884e+000 1.597229e+000
<GCONST> 9.939950e+001
<STATE> 3
<MEAN> 25
 1.854968e+000 1.320950e+000 4.830997e+000 6.320030e+000 6.943293e+000 -1.099240e+000 -8.482342e+000 -4.576716e+000 4.136735e-001 -2.533384e+000 -8.963781e-001 -1.829728e+000 -4.830128e-001 -1.620614e-001 -1.675634e-002 -1.275547e-001 -5.036271e-002 2.544304e-001 4.918810e-001 4.491703e-001 3.373784e-001 2.046892e-001 -1.305090e-001 8.868979e-002 -4.018171e-001
<VARIANCE> 25
 3.206507e+001 3.320943e+001 4.187699e+001 3.418077e+001 4.307763e+001 3.398429e+001 1.068444e+002 6.079334e+001 2.122689e+001 3.369940e+001 1.918433e+001 2.270105e+001 1.034705e+000 1.183177e+000 2.070635e+000 1.930568e+000 1.289244e+000 2.484734e+000 3.399709e+000 2.160673e+000 2.024842e+000 2.118421e+000 1.422817e+000 1.906147e+000 4.613113e-001
<GCONST> 9.532746e+001
<STATE> 4
<MEAN> 25
 -3.271185e+000 -7.015529e-001 -7.720188e-002 -6.339913e-001 2.889604e+000 1.970342e+000 1.989245e+000 1.163052e+000 1.202706e+000 1.279674e+000 4.874435e-001 1.524895e+000 -2.249443e-003 -1.403909e-002 -5.940377e-002 -4.478079e-002 -1.263841e-002 -1.260989e-002 4.682769e-002 -3.898716e-002 -1.414763e-002 6.755630e-002 -1.975892e-002 -9.959298e-003 3.227337e-002
<VARIANCE> 25
 1.117459e+001 8.877900e+000 1.002285e+001 1.329491e+001 1.521026e+001 1.381688e+001 1.833801e+001 1.720798e+001 1.517630e+001 1.803052e+001 1.476902e+001 1.348102e+001 4.225469e-001 5.607815e-001 5.876799e-001 8.517181e-001 1.078480e+000 1.123593e+000 1.297987e+000 1.192108e+000 1.470794e+000 1.624935e+000 1.286427e+000 1.344638e+000 2.781604e-001
<GCONST> 7.608058e+001
<TRANSP> 5
 0.000000e+000 1.000000e+000 0.000000e+000 0.000000e+000 0.000000e+000
 0.000000e+000 7.408654e-001 2.591346e-001 0.000000e+000 0.000000e+000
 0.000000e+000 0.000000e+000 7.339352e-001 2.660647e-001 0.000000e+000
 0.000000e+000 0.000000e+000 0.000000e+000 9.502070e-001 4.979302e-002
 0.000000e+000 0.000000e+000 0.000000e+000 0.000000e+000 0.000000e+000
<ENDHMM>
~h "iy"
<BEGINHMM>
<NUMSTATES> 5
<STATE> 2
<MEAN> 25
 -2.951166e+000 1.292986e+000 6.922412e+000 2.863614e-001 -6.208149e+000 -3.255738e+000 1.554586e+000 -4.013863e+000 -4.773317e+000 1.699296e+000 3.531436e+000 1.394947e+000 2.298449e-001 -1.622473e-001 1.180567e+000 -8.215728e-001 -8.189403e-001 -6.034996e-002 -7.242139e-001 -6.216859e-001 -6.091465e-001 3.339997e-001 -6.982782e-002 -4.367218e-002 1.188573e+000
<VARIANCE> 25
 6.241634e+001 6.242034e+001 1.107321e+002 1.104846e+002 8.001913e+001 9.382960e+001 6.390757e+001 1.054965e+002 5.529986e+001 7.835552e+001 8.829105e+001 5.525746e+001 3.989694e+000 3.647853e+000 8.098003e+000 7.159342e+000 6.719712e+000 6.812914e+000 6.870299e+000 7.494767e+000 5.078274e+000 4.979370e+000 7.938259e+000 4.060256e+000 8.043344e+000
<GCONST> 1.215244e+002
<STATE> 3
<MEAN> 25
 2.460502e+000 6.112717e-001 1.597633e+001 -6.292539e+000 -1.263737e+001 -2.575563e-001 -7.522694e+000 -7.672372e+000 -1.121881e+001 5.682510e-001 3.483521e+000 2.611751e+000 2.846095e-001 3.956701e-001 2.258603e-001 -4.740761e-001 -1.309078e-001 1.583950e-001 -1.930351e-001 1.350167e-001 -3.027572e-001 1.034536e-001 -6.668460e-002 -1.916707e-001 -2.792294e-001
<VARIANCE> 25
 1.613628e+001 1.981960e+001 5.709029e+001 7.190810e+001 4.204308e+001 6.078065e+001 5.546547e+001 3.355119e+001 4.838114e+001 1.064687e+002 4.727429e+001 8.479716e+001 9.382927e-001 1.711325e+000 4.269975e+000 3.180596e+000 2.882577e+000 3.245472e+000 4.321633e+000 2.865505e+000 2.238004e+000 2.192104e+000 3.332258e+000 2.619723e+000 2.091777e+000
<GCONST> 1.045824e+002
<STATE> 4
<MEAN> 25
 1.554573e+000 4.580408e+000 1.347418e+001 -8.544844e+000 -9.101765e+000 -1.485821e+000 -5.513113e+000 -5.534978e+000 -7.314844e+000 3.777508e+000 -1.614815e+000 -1.243182e+000 -1.027609e-001 7.606199e-002 -7.832007e-001 7.153471e-001 6.121978e-001 -1.675821e-001 3.423448e-001 2.832359e-001 4.464238e-001 -2.304805e-001 -4.893406e-003 1.189809e-001 -8.802307e-001
<VARIANCE> 25
 1.575912e+001 2.022409e+001 5.047857e+001 1.060658e+002 4.575219e+001 3.486823e+001 6.525690e+001 3.108491e+001 5.202372e+001 7.587167e+001 5.951719e+001 2.998716e+001 7.616687e-001 1.428551e+000 1.589049e+000 2.347484e+000 2.851677e+000 1.906500e+000 2.715962e+000 2.351866e+000 2.583757e+000 2.303882e+000 2.335164e+000 2.338332e+000 1.575227e+000
<GCONST> 9.993867e+001
<TRANSP> 5
 0.000000e+000 1.000000e+000 0.000000e+000 0.000000e+000 0.000000e+000
 0.000000e+000 8.834094e-001 1.165905e-001 0.000000e+000 0.000000e+000
 0.000000e+000 0.000000e+000 8.065215e-001 1.934785e-001 0.000000e+000
 0.000000e+000 0.000000e+000 0.000000e+000 9.144938e-001 8.550618e-002
 0.000000e+000 0.000000e+000 0.000000e+000 0.000000e+000 0.000000e+000
<ENDHMM>
~h "jh"
<BEGINHMM>
<NUMSTATES> 5
<STATE> 2
<MEAN> 25
 5.523695e+000 6.737543e-001 5.677934e+000 5.247120e+000 5.263656e+000 2.631047e+000 -7.827301e+000 -8.843634e+000 -2.359857e-001 -3.719497e+000 -6.753027e+000 -4.830911e+000 2.276643e-001 -2.484821e-001 2.853439e-001 3.372006e-002 2.637865e-001 3.040026e-002 -7.255750e-001 -4.255122e-001 -2.184567e-001 -3.035176e-001 -3.671047e-002 -9.478422e-003 2.907513e-001
<VARIANCE> 25
 1.407342e+001 1.863477e+001 2.972858e+001 3.869771e+001 5.181187e+001 1.444112e+001 8.270335e+001 4.178985e+001 2.728724e+001 1.945966e+001 2.100929e+001 1.490973e+001 7.414615e-001 1.788934e+000 2.035142e+000 2.010500e+000 6.083363e+000 2.257470e+000 6.745515e+000 5.809120e+000 1.737886e+000 1.980273e+000 2.888016e+000 3.049726e+000 2.493949e+000
<GCONST> 9.765643e+001
<STATE> 3
<MEAN> 25
 1.155226e+000 -3.138047e+000 5.234633e+000 6.987943e+000 4.184022e+000 1.830639e+000 -4.225170e+000 -4.274933e-002 2.142138e+000 -4.986401e+000 4.886894e-002 1.005290e+000 9.481588e-002 -8.301941e-001 -1.096769e-001 2.529336e-001 -3.615589e-001 -1.817716e-001 -5.471135e-001 -2.254138e-001 2.117761e-001 -4.462706e-001 7.115749e-002 -1.153116e-001 7.893551e-001
<VARIANCE> 25
 1.451702e+001 7.011417e+001 2.585493e+001 2.238388e+001 3.521327e+001 1.914299e+001 5.954623e+001 4.874516e+001 4.041035e+001 3.945559e+001 1.671580e+001 1.771592e+001 2.820555e+000 1.037429e+001 3.924743e+000 4.568421e+000 6.438599e+000 2.887607e+000 1.016891e+001 8.635909e+000 8.036502e+000 4.005270e+000 2.616921e+000 2.832043e+000 7.706852e+000
<GCONST> 1.079625e+002
<STATE> 4
<MEAN> 25
 7.847661e+000 -5.292151e+000 -5.241490e-002 3.558546e+000 3.833273e+000 8.677091e-001 -1.176684e+001 -1.077490e+001 -3.367479e+000 -6.533911e+000 4.748375e+000 -1.974963e+000 -5.506462e-001 7.362852e-001 -6.336577e-001 -1.058954e+000 -2.915417e-001 -3.325191e-001 1.142596e+000 1.485968e-002 -4.548746e-001 5.014136e-001 1.360312e+000 3.960017e-001 -3.546533e-001
<VARIANCE> 25
 2.360862e+001 1.141075e+001 4.915091e+001 1.066110e+001 2.287077e+001 4.550971e+001 3.307250e+001 3.289614e+001 2.151714e+001 9.023831e+000 3.084068e+001 7.593015e+000 7.571099e+000 1.916070e+000 8.416726e+000 7.771605e-001 1.995200e+000 1.354744e+000 3.061476e+000 5.183123e+000 5.008047e+000 1.184898e+000 1.369424e+000 5.119727e-001 1.200480e+000
<GCONST> 9.238894e+001
<TRANSP> 5
 0.000000e+000 1.000000e+000 0.000000e+000 0.000000e+000 0.000000e+000
 0.000000e+000 9.471673e-001 5.283260e-002 0.000000e+000 0.000000e+000
 0.000000e+000 0.000000e+000 9.019525e-001 9.804743e-002 0.000000e+000
 0.000000e+000 0.000000e+000 0.000000e+000 8.668676e-001 1.331324e-001
 0.000000e+000 0.000000e+000 0.000000e+000 0.000000e+000 0.000000e+000
<ENDHMM>
~h "ng"
<BEGINHMM>
<NUMSTATES> 5
<STATE> 2
<MEAN> 25
 3.365704e+000 6.406062e+000 -5.744927e-001 1.984896e+000 3.905894e+000 -1.055651e+000 -6.534671e-002 -1.942479e+000 3.090925e+000 2.748445e+000 -6.505792e-001 -3.704234e+000 -4.146032e-001 -2.182707e-001 2.564402e-002 -7.391789e-002 -4.664676e-002 2.067770e-001 4.133180e-001 5.286967e-001 1.809086e-001 2.815931e-001 9.450579e-002 3.799711e-001 -2.347828e-001
<VARIANCE> 25
 2.072250e+001 1.132428e+001 1.623666e+001 1.321978e+001 5.540299e+000 8.355300e+000 1.834332e+001 2.632631e+001 1.372737e+001 1.151380e+001 8.592429e+000 1.610923e+001 2.373763e-001 7.888776e-001 7.830738e-001 4.559224e-001 6.549764e-001 5.966378e-001 1.294071e+000 8.600736e-001 9.566696e-001 9.828480e-001 5.097398e-001 4.784785e-001 2.008632e-001
<GCONST> 7.016659e+001
<STATE> 3
<MEAN> 25
 -3.537586e+000 -5.902267e-001 -2.392424e-001 9.962372e-001 4.663239e+000 2.422419e-001 5.880656e+000 3.929086e+000 -2.777151e-001 4.154129e+000 -4.871617e-001 1.912925e+000 -5.475675e-002 -9.884483e-002 -9.304426e-003 -4.801149e-003 -5.196871e-002 -7.478287e-002 -2.784764e-003 -1.031660e-002 -1.708558e-001 -4.793178e-002 -1.310472e-001 4.349250e-002 -1.165690e-001
<VARIANCE> 25
 1.433835e+000 2.823930e+000 5.326572e+000 4.490362e+000 5.903096e+000 5.146284e+000 9.713370e+000 1.068440e+001 1.317514e+001 9.463101e+000 1.567426e+001 5.886224e+000 8.928633e-002 2.903646e-001 2.433282e-001 2.771018e-001 3.982024e-001 4.315648e-001 8.559469e-001 9.214126e-001 7.228925e-001 7.452180e-001 7.240016e-001 3.847918e-001 4.004613e-002
<GCONST> 5.446438e+001
<STATE> 4
<MEAN> 25
 -3.415450e+000 -1.496758e+000 4.475387e-001 8.563085e-001 2.239522e+000 -9.311287e-001 5.573833e+000 5.133127e+000 -5.227728e-001 4.038100e+000 -1.833987e+000 1.815963e+000 1.467768e-001 -1.851847e-001 5.323090e-001 9.485589e-002 -8.701077e-001 -6.577341e-001 -1.138958e-001 5.782363e-002 -2.621623e-001 -3.999201e-001 7.072766e-001 2.071350e-001 4.068651e-001
<VARIANCE> 25
 3.711847e+000 1.743970e+000 2.263220e+000 6.300787e+000 8.326370e+000 5.082074e+000 4.976137e+000 5.753318e+000 1.092211e+001 7.742674e+000 1.270205e+001 7.938594e+000 4.551280e-001 4.035206e-001 7.909292e-001 9.600767e-001 1.216457e+000 1.831481e-001 3.937648e-001 2.973728e-001 3.481780e-001 1.604460e+000 9.199812e-001 4.130661e-001 4.600635e-001
<GCONST> 5.868022e+001
<TRANSP> 5
 0.000000e+000 1.000000e+000 0.000000e+000 0.000000e+000 0.000000e+000
 0.000000e+000 9.554765e-001 4.452354e-002 0.000000e+000 0.000000e+000
 0.000000e+000 0.000000e+000 9.653123e-001 3.468771e-002 0.000000e+000
 0.000000e+000 0.000000e+000 0.000000e+000 7.384710e-001 2.615291e-001
 0.000000e+000 0.000000e+000 0.000000e+000 0.000000e+000 0.000000e+000
<ENDHMM>
~h "ow"
<BEGINHMM>
<NUMSTATES> 5
<STATE> 2
<MEAN> 25
 6.193905e+000 1.255965e+000 -7.882977e+000 -1.101481e+001 -1.788341e+000 5.651382e+000 -2.196170e+000 -8.797457e-001 -2.143862e+000 1.051964e+000 3.876521e+000 -2.658743e+000 4.358943e-001 3.159615e-001 -9.063637e-002 -4.349018e-001 -3.684186e-001 -4.858253e-002 2.695434e-001 -1.016380e-002 -2.242665e-001 -2.569202e-001 -6.796401e-002 -5.767589e-002 1.387800e-001
<VARIANCE> 25
 6.005341e+001 2.366235e+001 4.076276e+001 1.021715e+002 2.661566e+001 2.539177e+001 4.872872e+001 4.725423e+001 2.472808e+001 2.372933e+001 1.886043e+001 6.465584e+001 3.449605e+000 1.337228e+000 1.932960e+000 6.608988e+000 3.165509e+000 1.933108e+000 3.533166e+000 2.308532e+000 3.362980e+000 2.355651e+000 1.623431e+000 2.948915e+000 2.450554e+000
<GCONST> 1.017975e+002
<STATE> 3
<MEAN> 25
 1.046085e+001 9.023253e+000 -4.519376e+000 -8.002434e+000 -3.787163e+000 4.636353e+000 5.735825e+000 1.142975e+000 -1.870897e+000 -2.451199e+000 -2.678945e-001 -3.292840e-001 -6.732332e-001 -1.750994e-001 1.634200e-001 1.100379e+000 6.523444e-001 -7.009421e-002 2.673798e-001 -2.125671e-001 -4.273850e-002 1.463626e-001 6.262981e-003 2.080071e-001 -6.606485e-001
<VARIANCE> 25
 2.905923e+001 2.597320e+001 1.662306e+001 4.899289e+001 3.230853e+001 2.740796e+001 4.413118e+001 4.075902e+001 1.920516e+001 2.422614e+001 2.259715e+001 5.253176e+001 9.002596e-001 1.069756e+000 1.568251e+000 2.382542e+000 1.363921e+000 1.889633e+000 2.604256e+000 2.266828e+000 1.644306e+000 1.434828e+000 2.805753e+000 1.752302e+000 2.107668e-001
<GCONST> 9.167538e+001
<STATE> 4
<MEAN> 25
 -1.860263e+000 2.184230e+000 2.114466e+000 4.899558e+000 3.704126e+000 1.927296e+000 3.368965e+000 9.912245e-001 1.038915e+000 -1.643698e-001 -2.051229e+000 1.289065e+000 -2.005732e-001 -2.201777e-001 -3.686928e-002 4.780418e-002 4.200842e-003 -7.283416e-002 -2.235757e-002 2.494828e-001 1.603290e-001 -3.741735e-003 -8.858553e-002 -4.321140e-003 -2.353954e-001
<VARIANCE> 25
 1.193851e+001 2.343466e+001 2.168399e+001 4.542501e+001 1.479126e+001 1.464854e+001 2.759134e+001 2.753338e+001 2.235399e+001 2.219467e+001 3.251286e+001 2.420195e+001 2.785796e-001 7.027116e-001 8.406478e-001 1.307192e+000 1.308985e+000 1.564151e+000 1.837995e+000 2.258570e+000 1.619781e+000 2.214257e+000 2.313908e+000 2.377603e+000 2.077355e-001
<GCONST> 8.537394e+001
<TRANSP> 5
 0.000000e+000 1.000000e+000 0.000000e+000 0.000000e+000 0.000000e+000
 0.000000e+000 9.147620e-001 8.523799e-002 0.000000e+000 0.000000e+000
 0.000000e+000 0.000000e+000 9.074259e-001 9.257410e-002 0.000000e+000
 0.000000e+000 0.000000e+000 0.000000e+000 9.334517e-001 6.654824e-002
 0.000000e+000 0.000000e+000 0.000000e+000 0.000000e+000 0.000000e+000
<ENDHMM>
~h "oy"
<BEGINHMM>
<NUMSTATES> 5
<STATE> 2
<MEAN> 25
 1.277997e+001 6.666632e+000 -2.410686e+000 -4.480479e+000 -7.606408e+000 -7.680665e+000 -4.940946e+000 2.829010e+000 2.127159e+000 -1.231928e+000 -1.215623e+000 -1.263159e+000 1.490148e-001 -2.035535e-001 3.321831e-001 2.810521e-001 5.859830e-001 5.184656e-002 -1.919524e-001 -1.438835e-001 -3.085419e-001 -1.463290e-001 1.982710e-002 -2.344293e-001 1.838888e-001
<VARIANCE> 25
 1.114398e+001 2.279799e+001 2.950912e+001 1.197140e+001 6.652543e+001 7.860550e+001 2.714947e+001 3.530327e+001 4.183859e+001 5.250495e+001 1.403805e+001 1.096021e+001 1.833001e+000 1.904713e+000 2.144973e+000 1.489895e+000 3.696891e+000 4.225176e+000 2.513318e+000 2.224050e+000 2.328686e+000 2.963129e+000 1.497383e+000 1.578805e+000 3.580431e-001
<GCONST> 9.415629e+001
<STATE> 3
<MEAN> 25
 -6.520526e+000 -9.064481e+000 1.267698e+001 5.959320e+000 1.279988e+000 3.487631e+000 -3.296064e+000 -7.136811e-001 1.813307e+000 -7.673660e+000 1.687108e+000 -2.523330e+000 -3.676985e+000 -2.130943e+000 1.402001e+000 2.222166e-001 -2.162504e+000 4.883360e-001 1.265186e+000 5.548424e-001 1.303036e+000 -1.129633e-001 1.042749e+000 8.393672e-001 1.883373e-001
<VARIANCE> 25
 1.148952e+002 3.762403e+001 6.335537e+001 2.245301e+001 8.861683e+001 2.483810e+001 2.545997e+001 3.572914e+001 4.476478e+001 9.820868e+000 1.655908e+001 1.324191e+001 5.507366e+000 1.654726e+000 3.288926e+000 2.431363e+000 4.291275e+000 3.156446e+000 8.913046e-001 1.915339e+000 1.431129e+000 2.046787e+000 2.004419e+000 1.622079e+000 2.264377e-001
<GCONST> 9.576290e+001
<STATE> 4
<MEAN> 25
 -1.371376e+001 -1.224778e+001 1.218781e+001 2.791051e+000 -2.091495e+000 5.273976e+000 1.934834e+000 -6.092857e-001 1.218005e+000 -6.937663e+000 4.122113e+000 2.355845e+000 6.642175e-001 7.847928e-001 -7.378927e-001 -2.688449e-001 9.060956e-001 4.264789e-001 8.901990e-002 -4.252459e-001 -8.796423e-001 3.120941e-001 -1.120323e-001 9.527532e-002 -1.026417e+000
<VARIANCE> 25
 4.853438e+001 4.050003e+001 4.148160e+001 2.518253e+001 2.062151e+001 1.864619e+001 1.571278e+001 7.910635e+000 2.479289e+001 2.023820e+001 8.353762e+000 1.556263e+001 1.892455e+000 1.891629e+000 1.098807e+000 5.331638e-001 6.270877e-001 1.526895e+000 2.234086e+000 8.200902e-001 1.747262e+000 1.632501e+000 1.350325e+000 1.714816e+000 2.771080e+000
<GCONST> 8.655199e+001
<TRANSP> 5
 0.000000e+000 1.000000e+000 0.000000e+000 0.000000e+000 0.000000e+000
 0.000000e+000 9.465914e-001 5.340854e-002 0.000000e+000 0.000000e+000
 0.000000e+000 0.000000e+000 7.926088e-001 2.073912e-001 0.000000e+000
 0.000000e+000 0.000000e+000 0.000000e+000 8.998950e-001 1.001050e-001
 0.000000e+000 0.000000e+000 0.000000e+000 0.000000e+000 0.000000e+000
<ENDHMM>
~h "sh"
<BEGINHMM>
<NUMSTATES> 5
<STATE> 2
<MEAN> 25
 4.818716e+000 8.413026e+000 3.881868e+000 4.839914e+000 2.967615e+000 -8.410226e-001 2.724985e+000 -2.513073e+000 -3.449436e+000 -7.873784e-001 -2.759175e+000 -3.321040e+000 -2.747569e-001 1.454624e-001 -2.581918e-001 6.888317e-001 1.040601e+000 -4.639917e-003 2.790696e-001 7.290464e-001 6.389679e-001 3.504134e-001 -8.393832e-001 -2.545218e-001 -7.778470e-001
<VARIANCE> 25
 2.742958e+000 4.593769e+000 2.349916e+001 3.440397e+001 1.782364e+001 1.288511e+001 8.102886e+000 1.686514e+001 1.589689e+001 1.863041e+001 1.656857e+001 1.681449e+001 1.900979e-001 8.539836e-001 3.165395e-001 1.297798e+000 1.545222e+000 1.459866e+000 9.923398e-001 1.781954e+000 2.464242e+000 9.253011e-001 2.068435e+000 1.381809e+000 4.418786e-001
<GCONST> 7.658408e+001
<STATE> 3
<MEAN> 25
 3.210393e+000 7.760304e+000 3.369361e-001 2.482620e+000 5.790480e+000 1.311584e+000 3.284988e+000 4.534051e-001 2.143895e+000 2.845598e+000 -3.510995e+000 -3.226233e+000 -7.351192e-001 -3.886192e-001 3.057874e-001 -3.006871e-001 -8.410859e-002 3.598980e-001 2.380374e-001 4.653240e-001 3.597393e-001 5.633603e-001 2.280229e-002 4.325849e-001 -6.602097e-001
<VARIANCE> 25
 6.934822e+000 1.111042e+001 2.970052e+001 1.948736e+001 7.639334e+000 1.637045e+001 9.887768e+000 1.232556e+001 6.652302e+000 1.386474e+001 4.546901e+000 2.103659e+001 7.236108e-001 7.892964e-001 1.540965e+000 1.407513e+000 5.115368e-001 7.103458e-001 2.036698e+000 3.398544e-001 9.644597e-001 5.914134e-001 6.133813e-001 1.038754e+000 4.869014e-001
<GCONST> 7.247108e+001
<STATE> 4
<MEAN> 25
