~o
<STREAMINFO> 1 25
<VECSIZE> 25<NULLD><MFCC_D_N_Z_0><DIAGC>
~h "a"
<BEGINHMM>
<NUMSTATES> 5
<STATE> 2
<MEAN> 25
 -1.205808e-008 7.471832e-008 -5.503286e-008 1.714419e-009 -4.314622e-009 -6.243344e-009 -3.245967e-008 5.886173e-009 -4.663221e-008 -2.217316e-008 -2.948801e-008 4.270333e-008 2.560044e-002 3.139617e-004 8.288709e-003 -9.700003e-003 8.491755e-003 -6.657258e-003 3.393384e-003 -9.661411e-003 -5.902453e-003 -8.686491e-003 -3.965416e-003 -3.687867e-003 3.609585e-002
<VARIANCE> 25
 6.743311e+001 4.386040e+001 5.738831e+001 5.798326e+001 6.474918e+001 5.654857e+001 5.389107e+001 4.411510e+001 4.258719e+001 4.208948e+001 3.679993e+001 3.124355e+001 1.965594e+000 1.803727e+000 1.934022e+000 2.333615e+000 2.834451e+000 2.798423e+000 2.861493e+000 2.778302e+000 2.531476e+000 2.589815e+000 2.444618e+000 2.166934e+000 2.889750e+000
<GCONST> 1.040926e+002
<STATE> 3
<MEAN> 25
 -1.205808e-008 7.471832e-008 -5.503286e-008 1.714419e-009 -4.314622e-009 -6.243344e-009 -3.245967e-008 5.886173e-009 -4.663221e-008 -2.217316e-008 -2.948801e-008 4.270333e-008 2.560044e-002 3.139617e-004 8.288709e-003 -9.700003e-003 8.491755e-003 -6.657258e-003 3.393384e-003 -9.661411e-003 -5.902453e-003 -8.686491e-003 -3.965416e-003 -3.687867e-003 3.609585e-002
<VARIANCE> 25
 6.743311e+001 4.386040e+001 5.738831e+001 5.798326e+001 6.474918e+001 5.654857e+001 5.389107e+001 4.411510e+001 4.258719e+001 4.208948e+001 3.679993e+001 3.124355e+001 1.965594e+000 1.803727e+000 1.934022e+000 2.333615e+000 2.834451e+000 2.798423e+000 2.861493e+000 2.778302e+000 2.531476e+000 2.589815e+000 2.444618e+000 2.166934e+000 2.889750e+000
<GCONST> 1.040926e+002
<STATE> 4
<MEAN> 25
 -1.205808e-008 7.471832e-008 -5.503286e-008 1.714419e-009 -4.314622e-009 -6.243344e-009 -3.245967e-008 5.886173e-009 -4.663221e-008 -2.217316e-008 -2.948801e-008 4.270333e-008 2.560044e-002 3.139617e-004 8.288709e-003 -9.700003e-003 8.491755e-003 -6.657258e-003 3.393384e-003 -9.661411e-003 -5.902453e-003 -8.686491e-003 -3.965416e-003 -3.687867e-003 3.609585e-002
<VARIANCE> 25
 6.743311e+001 4.386040e+001 5.738831e+001 5.798326e+001 6.474918e+001 5.654857e+001 5.389107e+001 4.411510e+001 4.258719e+001 4.208948e+001 3.679993e+001 3.124355e+001 1.965594e+000 1.803727e+000 1.934022e+000 2.333615e+000 2.834451e+000 2.798423e+000 2.861493e+000 2.778302e+000 2.531476e+000 2.589815e+000 2.444618e+000 2.166934e+000 2.889750e+000
<GCONST> 1.040926e+002
<TRANSP> 5
 0.000000e+000 1.000000e+000 0.000000e+000 0.000000e+000 0.000000e+000
 0.000000e+000 6.000000e-001 4.000000e-001 0.000000e+000 0.000000e+000
 0.000000e+000 0.000000e+000 6.000000e-001 4.000000e-001 0.000000e+000
 0.000000e+000 0.000000e+000 0.000000e+000 7.000000e-001 3.000000e-001
 0.000000e+000 0.000000e+000 0.000000e+000 0.000000e+000 0.000000e+000
<ENDHMM>
~h "b"
<BEGINHMM>
<NUMSTATES> 5
<STATE> 2
<MEAN> 25
 -3.275677e+000 4.229170e+000 -9.106593e-001 -4.587497e-001 1.272146e+000 9.729929e-001 -5.353107e-001 -1.256625e+000 2.462433e-001 7.162461e-001 -1.226254e+000 -1.422841e+000 1.047034e-002 -2.450567e-001 5.173937e-002 1.319263e-001 2.648117e-001 1.011635e-001 7.217383e-002 -2.554911e-002 -1.533207e-001 4.397703e-002 -2.704197e-002 1.236304e-001 -5.118057e-001
<VARIANCE> 25
 9.118504e+001 2.824093e+001 2.615677e+001 2.804432e+001 1.862713e+001 1.814276e+001 1.939844e+001 2.750345e+001 2.075250e+001 2.393483e+001 3.659439e+001 2.273395e+001 1.219122e+000 7.543894e-001 7.761140e-001 1.565352e+000 1.378988e+000 1.684852e+000 1.589446e+000 1.319789e+000 1.536652e+000 2.190920e+000 1.795559e+000 2.031672e+000 2.621887e+000
<GCONST> 9.059946e+001
<STATE> 3
<MEAN> 25
 -1.175482e+000 1.459117e+000 1.013958e+000 2.486240e-001 2.236150e+000 1.943799e+000 -9.692565e-002 -3.721754e-001 6.595883e-001 9.492636e-001 1.710821e-002 -6.573799e-001 2.028463e-001 -3.337456e-001 3.137762e-001 2.876882e-001 2.788182e-001 1.262851e-001 4.889938e-002 2.487210e-001 8.347128e-002 -1.275963e-001 1.506542e-001 3.333798e-001 -2.751974e-001
<VARIANCE> 25
 4.644493e+001 2.269333e+001 2.678341e+001 1.941099e+001 2.375270e+001 2.735187e+001 2.424432e+001 2.225826e+001 2.159809e+001 2.879977e+001 2.565549e+001 1.700218e+001 1.065835e+000 5.507153e-001 1.027347e+000 1.771943e+000 9.793497e-001 1.535072e+000 1.374573e+000 1.195176e+000 1.446863e+000 1.881024e+000 1.924809e+000 1.410846e+000 1.962754e+000
<GCONST> 8.808434e+001
<STATE> 4
<MEAN> 25
 -2.789808e+000 -1.155678e+000 1.002202e+000 7.377594e-001 2.878544e+000 1.797976e+000 2.340335e+000 1.349573e+000 8.232626e-001 2.052144e+000 -5.481566e-001 6.448769e-001 3.512239e-002 6.817359e-002 -1.266700e-001 1.489668e-001 8.766190e-002 4.363241e-002 4.736787e-002 2.460532e-002 8.512572e-002 3.504742e-002 -1.121207e-001 -4.960820e-002 2.406009e-002
<VARIANCE> 25
 8.128305e+000 1.001304e+001 9.165436e+000 1.272988e+001 2.085551e+001 1.190072e+001 1.446460e+001 1.312592e+001 2.200632e+001 1.408044e+001 1.759019e+001 1.332696e+001 2.431319e-001 7.401811e-001 8.671259e-001 5.674108e-001 1.443487e+000 1.240668e+000 9.954594e-001 1.288664e+000 1.598577e+000 1.800292e+000 1.749582e+000 1.222277e+000 5.450412e-001
<GCONST> 7.667709e+001
<TRANSP> 5
 0.000000e+000 1.000000e+000 0.000000e+000 0.000000e+000 0.000000e+000
 0.000000e+000 6.360412e-001 3.639588e-001 0.000000e+000 0.000000e+000
 0.000000e+000 0.000000e+000 4.351881e-001 5.648119e-001 0.000000e+000
 0.000000e+000 0.000000e+000 0.000000e+000 9.082153e-001 9.178469e-002
 0.000000e+000 0.000000e+000 0.000000e+000 0.000000e+000 0.000000e+000
<ENDHMM>
~h "d"
<BEGINHMM>
<NUMSTATES> 5
<STATE> 2
<MEAN> 25
 8.851997e+000 1.128521e+000 3.553144e+000 2.988554e+000 -5.293911e+000 -7.991358e+000 -2.948473e+000 -5.894630e-001 5.243257e-001 -4.474733e+000 -3.930727e+000 2.036181e+000 -5.531214e-002 1.043882e+000 2.301541e-001 5.532175e-001 1.826238e-001 3.520499e-001 2.175789e-001 -1.618910e-001 9.217651e-002 -3.890931e-001 1.435940e-001 -2.678228e-001 -1.292966e+000
<VARIANCE> 25
 2.650277e+001 3.858886e+001 3.288610e+001 3.685958e+001 5.960198e+001 5.261792e+001 4.227753e+001 6.586949e+001 6.720101e+001 7.283469e+001 4.013324e+001 4.089829e+001 1.042362e+000 1.865103e+000 1.366627e+000 2.159507e+000 2.531174e+000 2.403515e+000 2.595317e+000 2.816463e+000 2.244519e+000 3.160650e+000 2.527994e+000 2.629354e+000 9.586615e-001
<GCONST> 1.012122e+002
<STATE> 3
<MEAN> 25
 6.212650e+000 4.596547e+000 5.242799e+000 6.742755e+000 9.654677e-001 -3.602317e+000 -2.813239e+000 -3.082340e+000 -5.137521e-001 -4.101660e+000 -3.606510e+000 -2.845837e-001 -6.981597e-001 3.363481e-001 -3.637206e-001 1.877374e-001 1.072931e+000 6.607409e-001 6.828282e-001 2.750725e-001 1.235856e-001 4.886091e-001 2.250746e-001 1.413065e-001 -1.138662e+000
<VARIANCE> 25
 2.405133e+001 1.858903e+001 2.941683e+001 4.309782e+001 9.071159e+001 2.173458e+001 4.496259e+001 6.217867e+001 9.083359e+001 7.808955e+001 3.656360e+001 3.265344e+001 1.021083e+000 1.733298e+000 1.422761e+000 2.165700e+000 4.081577e+000 2.602253e+000 2.949455e+000 4.374134e+000 3.093177e+000 3.520940e+000 2.966395e+000 2.533741e+000 8.300912e-001
<GCONST> 1.015042e+002
<STATE> 4
<MEAN> 25
 2.636662e-001 5.912913e+000 3.286465e+000 6.810905e+000 4.341791e+000 1.943858e+000 3.569319e+000 1.780196e-002 2.311549e+000 -2.674765e-001 -3.158016e+000 -4.450758e-002 -5.828388e-001 -1.057915e-001 -2.014671e-001 -1.777647e-003 9.990915e-002 3.713767e-001 3.679280e-001 3.006518e-001 7.289671e-002 1.598449e-001 1.229070e-001 3.003242e-002 -4.486363e-001
<VARIANCE> 25
 2.159354e+001 1.487735e+001 1.817864e+001 2.657466e+001 2.547746e+001 2.528548e+001 2.582853e+001 2.826498e+001 3.087234e+001 2.886923e+001 3.000848e+001 2.740843e+001 4.808868e-001 7.988663e-001 1.288382e+000 1.328808e+000 1.336340e+000 1.690044e+000 1.594760e+000 2.292906e+000 2.174497e+000 1.946145e+000 1.979038e+000 2.161756e+000 3.987949e-001
<GCONST> 8.813455e+001
<TRANSP> 5
 0.000000e+000 1.000000e+000 0.000000e+000 0.000000e+000 0.000000e+000
 0.000000e+000 6.976988e-001 3.023012e-001 0.000000e+000 0.000000e+000
 0.000000e+000 0.000000e+000 6.884198e-001 3.115802e-001 0.000000e+000
 0.000000e+000 0.000000e+000 0.000000e+000 8.477498e-001 1.522502e-001
 0.000000e+000 0.000000e+000 0.000000e+000 0.000000e+000 0.000000e+000
<ENDHMM>
~h "f"
<BEGINHMM>
<NUMSTATES> 5
<STATE> 2
<MEAN> 25
 2.388607e+000 1.066671e+000 1.223193e+000 -1.111216e+000 -3.979111e+000 -3.012154e+000 -2.884535e+000 8.094051e-001 -4.579858e-001 -2.625171e+000 2.332833e+000 9.357674e-001 8.988967e-001 2.719065e-001 -1.151258e-001 1.510764e-001 -3.438765e-001 2.444815e-001 -1.974148e-002 -2.136409e-002 -1.154436e-001 -1.550947e-001 3.141234e-001 -4.205897e-001 2.583566e-001
<VARIANCE> 25
 6.117620e+001 3.294357e+001 7.761010e+001 5.955802e+001 9.889301e+001 4.525694e+001 4.708915e+001 5.026908e+001 7.953274e+001 2.516193e+001 3.807985e+001 2.868842e+001 8.994485e+000 4.160491e+000 4.199695e+000 4.234547e+000 8.988566e+000 4.338891e+000 6.631110e+000 4.001967e+000 7.612467e+000 2.895633e+000 5.461610e+000 3.492584e+000 4.776028e+000
<GCONST> 1.138153e+002
<STATE> 3
<MEAN> 25
 5.280211e+000 -1.440405e+000 -1.372701e+000 2.701879e+000 -4.269097e+000 -9.906181e-001 -4.536067e+000 1.107475e+000 7.337276e-001 -3.873603e+000 1.901330e+000 -2.555754e+000 -2.127703e-001 3.109024e-001 1.354998e-001 -2.145115e-001 5.780260e-001 9.022497e-001 3.296699e-001 8.588769e-003 -1.092905e-001 -1.433287e-001 -3.806757e-001 -9.571271e-002 -1.441603e-001
<VARIANCE> 25
 5.544566e+001 5.372948e+001 3.911222e+001 9.576023e+001 7.877747e+001 6.378829e+001 8.253256e+001 5.238855e+001 4.265974e+001 4.437511e+001 8.839149e+001 3.590535e+001 2.321586e+000 2.846065e+000 3.274626e+000 6.856136e+000 6.646505e+000 5.596584e+000 5.263209e+000 4.697825e+000 3.359133e+000 3.062264e+000 4.672472e+000 2.680754e+000 3.578437e+000
<GCONST> 1.126344e+002
<STATE> 4
<MEAN> 25
 2.803202e+000 2.703598e+000 -3.083716e+000 3.088437e-001 1.098462e+000 2.777759e+000 -4.847401e-001 -2.653154e+000 2.085364e-001 -4.526293e+000 5.463781e-001 7.883904e-001 -4.283292e-001 -1.004443e-001 -1.134140e-001 -1.957949e-001 5.955321e-001 4.243915e-001 -5.543535e-002 3.574006e-001 2.299808e-001 2.053522e-001 1.606890e-002 1.394560e-001 1.568927e-002
<VARIANCE> 25
 7.035783e+001 3.682389e+001 2.683271e+001 1.624974e+002 5.697752e+001 7.805158e+001 7.191901e+001 3.986527e+001 3.240948e+001 4.998049e+001 4.839833e+001 3.984451e+001 1.576999e+000 1.837260e+000 1.737797e+000 3.436662e+000 3.956094e+000 4.397724e+000 4.257021e+000 2.693108e+000 2.653930e+000 2.873071e+000 2.708074e+000 1.899560e+000 3.058619e+000
<GCONST> 1.064363e+002
<TRANSP> 5
 0.000000e+000 1.000000e+000 0.000000e+000 0.000000e+000 0.000000e+000
 0.000000e+000 7.394387e-001 2.605613e-001 0.000000e+000 0.000000e+000
 0.000000e+000 0.000000e+000 6.564071e-001 3.435929e-001 0.000000e+000
 0.000000e+000 0.000000e+000 0.000000e+000 7.638263e-001 2.361737e-001
 0.000000e+000 0.000000e+000 0.000000e+000 0.000000e+000 0.000000e+000
<ENDHMM>
~h "g"
<BEGINHMM>
<NUMSTATES> 5
<STATE> 2
<MEAN> 25
 -1.205808e-008 7.471832e-008 -5.503286e-008 1.714419e-009 -4.314622e-009 -6.243344e-009 -3.245967e-008 5.886173e-009 -4.663221e-008 -2.217316e-008 -2.948801e-008 4.270333e-008 2.560044e-002 3.139617e-004 8.288709e-003 -9.700003e-003 8.491755e-003 -6.657258e-003 3.393384e-003 -9.661411e-003 -5.902453e-003 -8.686491e-003 -3.965416e-003 -3.687867e-003 3.609585e-002
<VARIANCE> 25
 6.743311e+001 4.386040e+001 5.738831e+001 5.798326e+001 6.474918e+001 5.654857e+001 5.389107e+001 4.411510e+001 4.258719e+001 4.208948e+001 3.679993e+001 3.124355e+001 1.965594e+000 1.803727e+000 1.934022e+000 2.333615e+000 2.834451e+000 2.798423e+000 2.861493e+000 2.778302e+000 2.531476e+000 2.589815e+000 2.444618e+000 2.166934e+000 2.889750e+000
<GCONST> 1.040926e+002
<STATE> 3
<MEAN> 25
 -1.205808e-008 7.471832e-008 -5.503286e-008 1.714419e-009 -4.314622e-009 -6.243344e-009 -3.245967e-008 5.886173e-009 -4.663221e-008 -2.217316e-008 -2.948801e-008 4.270333e-008 2.560044e-002 3.139617e-004 8.288709e-003 -9.700003e-003 8.491755e-003 -6.657258e-003 3.393384e-003 -9.661411e-003 -5.902453e-003 -8.686491e-003 -3.965416e-003 -3.687867e-003 3.609585e-002
<VARIANCE> 25
 6.743311e+001 4.386040e+001 5.738831e+001 5.798326e+001 6.474918e+001 5.654857e+001 5.389107e+001 4.411510e+001 4.258719e+001 4.208948e+001 3.679993e+001 3.124355e+001 1.965594e+000 1.803727e+000 1.934022e+000 2.333615e+000 2.834451e+000 2.798423e+000 2.861493e+000 2.778302e+000 2.531476e+000 2.589815e+000 2.444618e+000 2.166934e+000 2.889750e+000
<GCONST> 1.040926e+002
<STATE> 4
<MEAN> 25
 -1.205808e-008 7.471832e-008 -5.503286e-008 1.714419e-009 -4.314622e-009 -6.243344e-009 -3.245967e-008 5.886173e-009 -4.663221e-008 -2.217316e-008 -2.948801e-008 4.270333e-008 2.560044e-002 3.139617e-004 8.288709e-003 -9.700003e-003 8.491755e-003 -6.657258e-003 3.393384e-003 -9.661411e-003 -5.902453e-003 -8.686491e-003 -3.965416e-003 -3.687867e-003 3.609585e-002
<VARIANCE> 25
 6.743311e+001 4.386040e+001 5.738831e+001 5.798326e+001 6.474918e+001 5.654857e+001 5.389107e+001 4.411510e+001 4.258719e+001 4.208948e+001 3.679993e+001 3.124355e+001 1.965594e+000 1.803727e+000 1.934022e+000 2.333615e+000 2.834451e+000 2.798423e+000 2.861493e+000 2.778302e+000 2.531476e+000 2.589815e+000 2.444618e+000 2.166934e+000 2.889750e+000
<GCONST> 1.040926e+002
<TRANSP> 5
 0.000000e+000 1.000000e+000 0.000000e+000 0.000000e+000 0.000000e+000
 0.000000e+000 6.000000e-001 4.000000e-001 0.000000e+000 0.000000e+000
 0.000000e+000 0.000000e+000 6.000000e-001 4.000000e-001 0.000000e+000
 0.000000e+000 0.000000e+000 0.000000e+000 7.000000e-001 3.000000e-001
 0.000000e+000 0.000000e+000 0.000000e+000 0.000000e+000 0.000000e+000
<ENDHMM>
~h "i"
<BEGINHMM>
<NUMSTATES> 5
<STATE> 2
<MEAN> 25
 5.845744e-001 1.244551e+000 1.657436e+001 -7.442153e+000 -1.552035e+001 -2.860222e+000 -7.565619e+000 -8.423110e+000 -1.397048e+000 2.140971e+000 7.376874e+000 2.847133e+000 -4.130767e-002 1.695989e-001 5.068790e-002 -1.814446e-001 3.538100e-001 1.239485e-001 8.061114e-002 2.263149e-001 5.839341e-002 2.772553e-001 9.885819e-002 3.830316e-002 -2.222494e-001
<VARIANCE> 25
 1.686622e+001 3.814557e+001 3.783675e+001 1.066950e+002 4.212354e+001 4.354179e+001 3.402306e+001 6.822847e+001 2.804867e+001 1.102837e+002 3.951955e+001 5.147512e+001 1.175301e+000 2.293912e+000 2.434752e+000 3.502902e+000 5.180346e+000 5.555798e+000 2.476699e+000 5.892971e+000 4.919106e+000 7.058811e+000 3.207559e+000 3.356548e+000 1.486385e+000
<GCONST> 1.071318e+002
<STATE> 3
<MEAN> 25
 -9.646964e-001 8.183547e+000 9.765347e+000 2.821880e+000 1.589308e+000 1.301342e+000 2.795915e+000 -1.340019e+000 1.652342e+000 -1.001306e+000 -8.734196e-001 4.459396e+000 -2.988003e-001 -2.531366e-001 -5.523704e-001 5.960878e-001 6.140620e-001 2.429843e-001 4.111832e-001 1.946087e-001 3.642694e-001 9.500363e-002 -1.052766e-001 -1.864785e-002 -5.849862e-001
<VARIANCE> 25
 1.263414e+001 1.963005e+001 5.329425e+001 7.458204e+001 1.667009e+001 1.818804e+001 2.597179e+001 5.552325e+001 2.907025e+001 2.254148e+001 2.265688e+001 1.622991e+001 3.445247e-001 6.831742e-001 9.742316e-001 2.280203e+000 2.494661e+000 3.133402e+000 2.949222e+000 2.613106e+000 3.440742e+000 3.016637e+000 3.249697e+000 1.364910e+000 8.496338e-001
<GCONST> 9.224515e+001
<STATE> 4
<MEAN> 25
 -4.969386e+000 -9.592986e+000 -6.335475e+000 1.252331e+000 1.270469e+001 7.839327e+000 -7.025105e+000 -1.109454e+000 8.101697e+000 2.514470e+000 5.267034e+000 3.378752e+000 -1.927993e-001 -2.523499e-001 7.643360e-003 3.126614e-001 -1.194023e-001 -6.251816e-001 2.716375e-001 3.039196e-001 -2.634971e-001 -2.171275e-001 2.492360e-001 1.165744e-002 1.361933e-001
<VARIANCE> 25
 1.450380e+001 5.019629e+001 2.470027e+001 2.519282e+001 3.958585e+001 3.140609e+001 9.666673e+001 1.196403e+001 1.797814e+001 1.476210e+001 2.450542e+001 1.373507e+001 1.295298e+000 8.964662e-001 9.837192e-001 2.907955e+000 3.521849e+000 2.898033e+000 6.026063e+000 1.281333e+000 2.445969e+000 2.164182e+000 2.256920e+000 1.722105e+000 4.750614e-001
<GCONST> 9.239658e+001
<TRANSP> 5
 0.000000e+000 1.000000e+000 0.000000e+000 0.000000e+000 0.000000e+000
 0.000000e+000 9.448994e-001 5.510054e-002 0.000000e+000 0.000000e+000
 0.000000e+000 0.000000e+000 9.175537e-001 8.244636e-002 0.000000e+000
 0.000000e+000 0.000000e+000 0.000000e+000 8.432140e-001 1.567861e-001
 0.000000e+000 0.000000e+000 0.000000e+000 0.000000e+000 0.000000e+000
<ENDHMM>
~h "k"
<BEGINHMM>
<NUMSTATES> 5
<STATE> 2
<MEAN> 25
 -3.070899e+000 -1.111386e+000 1.428466e+000 -1.803905e+000 -3.684385e+000 -1.744154e+000 1.883034e+000 7.175440e-001 -1.379771e+000 1.342649e-001 -5.415574e-001 1.272455e+000 1.231188e+000 -3.046162e-001 -1.090801e-001 -1.449050e+000 -2.891560e+000 -8.883862e-001 -6.350104e-001 2.109420e-002 -9.320975e-002 -1.175894e+000 2.031114e-001 -3.775535e-001 2.794854e+000
<VARIANCE> 25
 4.591145e+001 2.639869e+001 4.125311e+001 3.502686e+001 1.135299e+002 4.399089e+001 3.862252e+001 3.832037e+001 4.879270e+001 5.186246e+001 2.555861e+001 2.196334e+001 6.642677e+000 2.504987e+000 5.721955e+000 4.455851e+000 8.555237e+000 6.388356e+000 4.277981e+000 5.693436e+000 5.391739e+000 8.225935e+000 2.855507e+000 1.731315e+000 1.073978e+001
<GCONST> 1.113136e+002
<STATE> 3
<MEAN> 25
 4.264900e+000 2.582422e-001 2.870551e+000 -4.061167e+000 -9.285899e+000 -5.344656e+000 -1.181219e+000 6.074985e-002 -3.875895e+000 -2.348577e+000 1.454848e+000 -1.985847e+000 7.158089e-001 3.077698e-001 -1.575841e-001 -1.293026e-001 1.071864e-001 2.875605e-001 -2.079897e-001 -2.802023e-002 2.004816e-001 3.324954e-001 5.081243e-002 -1.361673e-002 -1.863453e-001
<VARIANCE> 25
 4.347814e+001 3.039284e+001 1.063748e+002 3.436703e+001 8.773797e+001 9.353325e+001 3.095209e+001 7.712722e+001 5.941846e+001 5.562663e+001 3.091608e+001 2.823507e+001 3.815155e+000 1.647475e+000 3.005231e+000 2.745328e+000 4.033272e+000 3.670247e+000 2.414307e+000 3.160552e+000 4.408899e+000 4.240944e+000 1.853730e+000 2.398360e+000 4.841876e+000
<GCONST> 1.076763e+002
<STATE> 4
<MEAN> 25
 -1.092312e+000 3.926750e-001 -6.408697e-001 -1.952565e-001 4.593800e-001 -5.563382e-001 1.990532e+000 9.522401e-001 -1.354605e+000 1.958919e+000 -1.013388e+000 3.271414e-001 -7.537902e-002 4.684215e-002 -1.375795e-001 5.954159e-003 1.787698e-001 1.263901e-001 4.514040e-002 -4.868976e-003 6.112580e-002 -3.038761e-002 -1.042630e-001 -1.026587e-001 3.365573e-002
<VARIANCE> 25
 2.145605e+001 1.737385e+001 2.440486e+001 2.440735e+001 4.748757e+001 3.362663e+001 2.495076e+001 2.587863e+001 2.159336e+001 1.930795e+001 1.922808e+001 1.500036e+001 9.022539e-001 1.078539e+000 9.902256e-001 1.016587e+000 1.888967e+000 1.944102e+000 1.667048e+000 1.615283e+000 1.738642e+000 1.331662e+000 1.617541e+000 1.126046e+000 1.678656e+000
<GCONST> 8.802894e+001
<TRANSP> 5
 0.000000e+000 1.000000e+000 0.000000e+000 0.000000e+000 0.000000e+000
 0.000000e+000 6.693500e-001 3.306500e-001 0.000000e+000 0.000000e+000
 0.000000e+000 0.000000e+000 7.843274e-001 2.156726e-001 0.000000e+000
 0.000000e+000 0.000000e+000 0.000000e+000 8.909525e-001 1.090474e-001
 0.000000e+000 0.000000e+000 0.000000e+000 0.000000e+000 0.000000e+000
<ENDHMM>
~h "l"
<BEGINHMM>
<NUMSTATES> 5
<STATE> 2
<MEAN> 25
 9.403514e+000 3.262617e+000 2.975608e-001 -4.246168e+000 -1.357355e+001 -8.424980e+000 -5.597835e+000 2.063110e-001 3.617752e+000 -2.724149e+000 2.322060e-001 -1.505672e+000 -3.687837e-002 2.832007e-002 2.790872e-001 4.642214e-002 6.062016e-002 -5.841977e-002 4.561403e-002 5.023039e-003 1.960164e-001 2.305203e-001 -1.210571e-001 1.245964e-001 -2.693004e-001
<VARIANCE> 25
 1.017747e+001 1.327779e+001 4.839037e+001 3.478048e+001 1.075473e+002 6.098709e+001 4.434733e+001 6.119792e+001 3.344648e+001 2.524116e+001 1.969706e+001 1.645884e+001 2.717139e-001 6.200881e-001 1.780730e+000 1.454927e+000 2.312171e+000 2.132350e+000 1.504821e+000 2.419529e+000 1.885268e+000 1.777493e+000 1.613431e+000 1.441606e+000 4.547038e-001
<GCONST> 9.082009e+001
<STATE> 3
<MEAN> 25
 6.437521e+000 4.078494e+000 4.404658e-002 -2.000139e+000 -2.908199e+000 -1.492530e+000 -1.992970e+000 -1.501775e+000 -1.546097e-001 6.363756e-001 -3.038014e-001 -2.263201e-002 -6.001648e-001 -1.508588e-001 3.655590e-002 3.325491e-001 9.608185e-001 8.536836e-001 8.954226e-001 1.478493e-001 -7.862951e-002 3.118485e-001 4.594243e-002 -3.933056e-002 -7.596650e-001
<VARIANCE> 25
 1.762959e+001 1.609506e+001 5.861587e+001 3.699998e+001 8.962538e+001 9.814849e+001 6.453391e+001 4.584554e+001 2.649411e+001 3.311462e+001 2.091384e+001 1.560388e+001 5.383580e-001 1.136452e+000 1.683083e+000 2.212017e+000 2.065042e+000 2.776668e+000 2.468513e+000 2.035719e+000 1.643491e+000 1.714214e+000 1.555138e+000 8.840792e-001 8.279440e-001
<GCONST> 9.426576e+001
<STATE> 4
<MEAN> 25
 -2.956215e+000 -1.461805e+000 -1.101530e-001 4.303309e-001 2.870380e+000 1.626961e+000 2.662235e+000 1.055789e+000 4.142327e-001 1.671120e+000 4.253933e-001 1.073065e+000 -1.224571e-001 -7.213134e-002 -4.624481e-002 3.345177e-002 6.518249e-002 -5.592242e-002 -6.397749e-003 -2.878847e-002 -9.275614e-002 -6.605346e-002 -1.750717e-002 2.005112e-003 -8.549184e-002
<VARIANCE> 25
 7.431565e+000 5.374059e+000 9.669950e+000 1.223042e+001 1.927735e+001 1.687564e+001 2.080773e+001 1.608108e+001 1.698882e+001 1.411796e+001 1.232137e+001 1.104766e+001 2.970519e-001 4.497451e-001 8.545253e-001 8.966122e-001 1.006654e+000 1.212557e+000 1.404439e+000 1.294742e+000 1.422584e+000 1.295699e+000 1.111352e+000 9.730048e-001 3.017326e-001
<GCONST> 7.440810e+001
<TRANSP> 5
 0.000000e+000 1.000000e+000 0.000000e+000 0.000000e+000 0.000000e+000
 0.000000e+000 8.724647e-001 1.275354e-001 0.000000e+000 0.000000e+000
 0.000000e+000 0.000000e+000 7.991071e-001 2.008928e-001 0.000000e+000
 0.000000e+000 0.000000e+000 0.000000e+000 9.550683e-001 4.493172e-002
 0.000000e+000 0.000000e+000 0.000000e+000 0.000000e+000 0.000000e+000
<ENDHMM>
~h "m"
<BEGINHMM>
<NUMSTATES> 5
<STATE> 2
<MEAN> 25
 8.830424e+000 3.862888e+000 -8.183521e-001 3.209578e+000 -1.441050e+000 2.802265e-001 -1.132007e+000 -5.620079e+000 -3.784182e-001 3.005926e-002 3.253289e-001 -9.985768e+000 -2.850148e-001 7.666442e-001 8.003989e-001 1.720311e+000 1.506192e+000 -4.865353e-001 4.802165e-001 -7.383394e-001 -9.631825e-001 2.410162e-001 -2.632600e-002 -7.794738e-001 -1.094971e+000
<VARIANCE> 25
 1.586610e+001 1.483634e+001 3.495712e+001 4.873955e+001 2.729276e+001 2.868279e+001 3.099222e+001 3.670501e+001 2.728790e+001 2.571185e+001 2.282832e+001 2.848534e+001 9.288292e-001 1.145703e+000 2.325192e+000 2.534265e+000 2.397999e+000 4.291017e+000 2.397329e+000 2.084579e+000 2.194284e+000 3.119701e+000 1.163267e+000 3.268739e+000 1.029596e+000
<GCONST> 9.464353e+001
<STATE> 3
<MEAN> 25
 5.565568e+000 6.459967e+000 2.862533e+000 7.648113e+000 5.586435e+000 1.628772e-001 -1.120234e+000 -5.969994e+000 -2.614441e+000 -1.084413e+000 -9.268160e-001 -7.276795e+000 -5.725457e-001 -4.294768e-001 2.253854e-001 -1.219346e-001 2.983218e-001 4.421482e-001 2.639911e-002 5.582938e-001 2.869905e-001 9.248102e-002 -1.883214e-001 1.009328e+000 -6.574482e-001
<VARIANCE> 25
 9.876976e+000 1.776255e+001 1.756133e+001 1.793544e+001 2.408541e+001 2.930851e+001 2.661634e+001 3.353608e+001 2.232753e+001 1.959501e+001 2.972378e+001 3.534736e+001 9.430019e-001 2.792747e+000 2.124293e+000 2.259479e+000 2.460742e+000 2.662465e+000 2.971511e+000 3.645802e+000 2.203942e+000 2.436593e+000 2.943784e+000 4.365819e+000 1.561124e+000
<GCONST> 9.473763e+001
<STATE> 4
<MEAN> 25
 1.262933e+000 4.109743e+000 3.446552e+000 4.694370e+000 5.543710e+000 2.489351e+000 5.369531e-001 -5.281196e-001 1.574965e-001 -1.802401e-001 -1.705333e+000 -2.820450e+000 -3.448515e-001 -4.840535e-001 -4.201514e-001 -4.486026e-001 -2.539944e-001 1.205733e-001 -2.047671e-001 3.187306e-001 3.695523e-001 1.680343e-001 1.586542e-001 3.770920e-001 7.325345e-002
<VARIANCE> 25
 1.427350e+001 1.930051e+001 1.953103e+001 2.116648e+001 3.642363e+001 3.236742e+001 3.125662e+001 2.619295e+001 3.585961e+001 1.502327e+001 1.659262e+001 2.346872e+001 6.292252e-001 1.500088e+000 9.676524e-001 1.120900e+000 2.548985e+000 1.960712e+000 2.342967e+000 2.384990e+000 2.449138e+000 2.274798e+000 1.588663e+000 1.393785e+000 8.931304e-001
<GCONST> 8.937646e+001
<TRANSP> 5
 0.000000e+000 1.000000e+000 0.000000e+000 0.000000e+000 0.000000e+000
 0.000000e+000 7.206469e-001 2.793531e-001 0.000000e+000 0.000000e+000
 0.000000e+000 0.000000e+000 7.936450e-001 2.063549e-001 0.000000e+000
 0.000000e+000 0.000000e+000 0.000000e+000 7.271947e-001 2.728053e-001
 0.000000e+000 0.000000e+000 0.000000e+000 0.000000e+000 0.000000e+000
<ENDHMM>
~h "n"
<BEGINHMM>
<NUMSTATES> 5
<STATE> 2
<MEAN> 25
 4.543379e+000 -6.328885e+000 3.429926e-001 -1.027115e+000 -3.641752e+000 -3.332869e+000 -3.129979e+000 3.437246e+000 -7.694198e-001 -3.627830e+000 -1.093254e+000 -1.768704e+000 3.195563e-001 -3.510542e-001 2.431569e-001 -2.417564e-001 -3.473438e-001 -1.226634e-001 9.001214e-003 1.371490e-001 -1.302274e-001 2.058026e-001 -7.376257e-002 -3.381573e-001 3.280169e-001
<VARIANCE> 25
 4.593274e+001 8.026882e+001 5.603581e+001 6.922057e+001 1.008175e+002 6.273309e+001 3.894424e+001 1.211640e+002 5.427618e+001 8.596672e+001 6.256738e+001 7.031757e+001 3.152839e+000 4.699440e+000 2.892264e+000 4.250906e+000 7.473568e+000 3.743449e+000 3.631940e+000 8.094276e+000 5.293379e+000 5.932846e+000 7.266471e+000 5.358145e+000 6.631762e+000
<GCONST> 1.173895e+002
<STATE> 3
<MEAN> 25
 6.473439e+000 -6.386454e+000 -3.865820e-001 -1.530233e+000 -4.941992e+000 -4.195816e+000 -1.114169e+000 1.243924e+000 -3.430024e+000 -3.493541e+000 -3.149594e+000 -1.152602e+000 6.243471e-001 1.257648e+000 5.124991e-001 9.350125e-001 -5.449119e-001 -2.062159e-001 2.566492e-001 -1.416589e+000 1.264455e-001 -2.766307e-001 -3.960292e-001 1.886744e-001 -1.430979e+000
<VARIANCE> 25
 3.377212e+001 5.725707e+001 5.018600e+001 6.248605e+001 6.140796e+001 5.234167e+001 4.688910e+001 7.503983e+001 6.068986e+001 1.136127e+002 4.910453e+001 7.110222e+001 1.446522e+000 1.631518e+000 1.901018e+000 2.112251e+000 3.600049e+000 3.329086e+000 3.454511e+000 5.121737e+000 3.718024e+000 4.765610e+000 3.183893e+000 4.205110e+000 1.357989e+000
<GCONST> 1.081832e+002
<STATE> 4
<MEAN> 25
 6.687716e+000 2.564852e+000 3.136539e+000 4.284469e+000 -2.776372e+000 -2.800097e+000 2.273404e-001 -4.271819e+000 -4.693442e-001 -1.744407e+000 -4.031329e+000 -3.291398e+000 -2.237979e-001 5.414728e-001 1.983394e-001 2.583585e-001 2.867831e-001 2.187154e-001 1.574464e-001 -3.755271e-002 2.614388e-001 3.227358e-002 7.293404e-002 3.355496e-001 -8.168343e-001
<VARIANCE> 25
 4.424623e+001 3.826139e+001 3.968493e+001 3.487193e+001 7.501939e+001 3.760378e+001 2.838189e+001 3.544565e+001 3.909809e+001 5.313096e+001 4.616006e+001 4.899920e+001 1.502975e+000 1.902453e+000 1.470712e+000 1.926082e+000 2.161050e+000 2.412361e+000 2.035127e+000 3.132402e+000 2.148304e+000 2.488714e+000 2.465688e+000 2.412054e+000 1.017915e+000
<GCONST> 9.990768e+001
<TRANSP> 5
 0.000000e+000 1.000000e+000 0.000000e+000 0.000000e+000 0.000000e+000
 0.000000e+000 7.286578e-001 2.713422e-001 0.000000e+000 0.000000e+000
 0.000000e+000 0.000000e+000 6.882961e-001 3.117040e-001 0.000000e+000
 0.000000e+000 0.000000e+000 0.000000e+000 7.965571e-001 2.034429e-001
 0.000000e+000 0.000000e+000 0.000000e+000 0.000000e+000 0.000000e+000
<ENDHMM>
~h "p"
<BEGINHMM>
<NUMSTATES> 5
<STATE> 2
<MEAN> 25
 -3.834217e+000 -1.068860e+000 -2.489538e+000 2.790302e+000 2.259605e+000 1.056409e+000 2.347272e+000 1.381570e+000 1.668441e+000 7.234994e-001 -1.897674e-001 -7.060974e-001 9.054121e-001 -1.538952e+000 -2.866392e-001 -5.094641e-001 -5.312795e-001 -1.119759e+000 -8.686438e-001 -1.509377e-001 7.458333e-002 -3.515682e-001 6.889674e-001 -9.621525e-002 4.986461e+000
<VARIANCE> 25
 2.608365e+001 4.417628e+001 4.598512e+001 6.213762e+001 4.966765e+001 3.118156e+001 4.107127e+001 2.402042e+001 2.067931e+001 2.515739e+001 3.911572e+001 2.010051e+001 4.702931e+000 6.764721e+000 9.507372e+000 7.276911e+000 6.185160e+000 4.389664e+000 5.578276e+000 3.432117e+000 2.087584e+000 3.462810e+000 6.986545e+000 2.324759e+000 1.683503e+001
<GCONST> 1.096543e+002
<STATE> 3
<MEAN> 25
 -1.159750e+000 -5.543781e+000 -4.267094e+000 -6.995518e-001 2.307598e+000 3.270152e+000 -1.400223e+000 -2.804651e+000 2.610226e+000 -1.412535e+000 1.018702e+000 -4.277590e-001 1.480019e+000 2.791573e-001 1.313738e+000 -6.313074e-002 -4.307033e-001 -4.230805e-001 -1.794398e+000 -2.901997e-001 -3.615920e-001 -6.151850e-001 1.909173e-002 -1.381350e-001 1.685212e+000
<VARIANCE> 25
 4.090041e+001 5.273344e+001 6.810686e+001 5.157989e+001 6.679392e+001 1.209566e+002 4.005166e+001 3.709879e+001 3.392898e+001 2.688248e+001 5.498820e+001 1.972714e+001 4.508356e+000 2.894938e+000 4.738376e+000 2.959208e+000 5.466170e+000 6.750562e+000 8.872205e+000 4.534042e+000 4.376491e+000 3.058656e+000 5.438273e+000 2.542211e+000 1.362032e+001
<GCONST> 1.122377e+002
<STATE> 4
<MEAN> 25
 7.947878e+000 -1.452190e+000 -1.626371e+000 -2.478854e+000 -6.389161e+000 -4.950146e+000 -4.927609e+000 8.086490e-001 1.510492e+000 -3.587483e-001 -2.741738e+000 -3.572842e+000 5.304602e-001 4.640587e-001 7.734239e-001 -7.134134e-002 -3.386885e-001 -3.099886e-001 -1.792127e-001 -3.965732e-002 -6.238998e-001 9.098292e-002 2.929069e-001 -1.110897e-001 -2.457060e-002
<VARIANCE> 25
 6.233627e+001 5.607722e+001 7.619976e+001 3.574097e+001 7.904008e+001 5.570060e+001 4.940908e+001 4.532474e+001 3.750939e+001 3.635596e+001 4.082331e+001 2.841055e+001 3.242399e+000 2.057068e+000 3.078387e+000 2.058119e+000 3.257564e+000 3.898527e+000 2.796803e+000 1.958001e+000 3.549207e+000 3.227989e+000 2.838038e+000 2.777545e+000 5.145618e+000
<GCONST> 1.065209e+002
<TRANSP> 5
 0.000000e+000 1.000000e+000 0.000000e+000 0.000000e+000 0.000000e+000
 0.000000e+000 5.590075e-001 4.409925e-001 0.000000e+000 0.000000e+000
 0.000000e+000 0.000000e+000 6.034674e-001 3.965326e-001 0.000000e+000
 0.000000e+000 0.000000e+000 0.000000e+000 6.836526e-001 3.163474e-001
 0.000000e+000 0.000000e+000 0.000000e+000 0.000000e+000 0.000000e+000
<ENDHMM>
~h "r"
<BEGINHMM>
<NUMSTATES> 5
<STATE> 2
<MEAN> 25
 2.647775e+000 7.618611e-001 -1.565070e+000 2.175790e+000 4.508863e-001 2.813061e+000 -1.325981e+000 4.629247e-002 2.005401e+000 -5.255818e-001 -1.691346e+000 -1.161148e-001 3.363983e-001 -3.405329e-001 -2.697297e-001 1.399724e-001 1.670650e-003 -1.404320e-001 -2.871622e-001 4.080434e-002 3.327366e-002 -3.558188e-001 1.589446e-001 1.945692e-002 3.423633e-001
<VARIANCE> 25
 4.560989e+001 7.424385e+001 3.129233e+001 5.551842e+001 4.180561e+001 5.285323e+001 5.095183e+001 4.310576e+001 3.041864e+001 3.501227e+001 4.185984e+001 3.697043e+001 2.400873e+000 3.262728e+000 2.063118e+000 2.356173e+000 2.939682e+000 4.095235e+000 3.113055e+000 2.685118e+000 1.837172e+000 3.567531e+000 3.164589e+000 2.839686e+000 1.926915e+000
<GCONST> 1.042276e+002
<STATE> 3
<MEAN> 25
 5.320862e+000 -3.995990e+000 -4.109651e+000 -4.985088e-001 -1.548743e+000 4.046462e-001 -3.403821e+000 4.735466e-001 3.057939e+000 -1.724657e+000 1.383963e+000 7.205889e-001 5.223804e-001 -6.069480e-001 -5.598934e-001 -2.848303e-001 -1.749368e-001 -2.964275e-001 -7.310486e-001 -3.340102e-001 1.350721e-001 -3.002982e-001 6.018174e-001 4.027642e-001 1.571630e+000
<VARIANCE> 25
 5.416877e+001 9.630170e+001 5.010067e+001 7.322556e+001 5.610854e+001 7.957336e+001 4.886805e+001 5.257214e+001 3.462894e+001 5.758339e+001 5.887273e+001 4.539245e+001 4.940162e+000 6.483930e+000 2.848366e+000 3.902324e+000 4.362185e+000 3.914408e+000 3.930881e+000 5.273868e+000 3.654463e+000 5.349236e+000 4.717156e+000 3.883917e+000 5.048458e+000
<GCONST> 1.137024e+002
<STATE> 4
<MEAN> 25
 7.244257e+000 -5.566117e-001 -4.035430e+000 -8.352941e-001 -9.298050e-001 5.484762e-001 -4.677272e+000 -4.475929e-001 2.776333e+000 -4.480144e+000 2.863705e+000 1.198619e+000 -1.569557e-001 4.053147e-002 1.795458e-001 9.565166e-002 1.485166e-001 -3.271785e-001 3.499739e-001 -5.583295e-002 -2.327396e-001 4.020711e-002 5.370425e-002 -8.759991e-004 -1.552148e-001
<VARIANCE> 25
 4.643909e+001 6.026807e+001 6.282378e+001 1.186056e+002 5.034938e+001 1.059209e+002 7.878404e+001 6.245079e+001 5.356304e+001 5.359252e+001 3.538385e+001 3.598800e+001 1.388396e+000 1.077409e+000 1.833896e+000 3.011948e+000 2.888282e+000 4.326508e+000 3.441957e+000 3.737477e+000 2.898377e+000 3.191079e+000 2.518136e+000 2.494170e+000 1.303495e+000
<GCONST> 1.065131e+002
<TRANSP> 5
 0.000000e+000 1.000000e+000 0.000000e+000 0.000000e+000 0.000000e+000
 0.000000e+000 6.287131e-001 3.712869e-001 0.000000e+000 0.000000e+000
 0.000000e+000 0.000000e+000 6.206515e-001 3.793486e-001 0.000000e+000
 0.000000e+000 0.000000e+000 0.000000e+000 8.540335e-001 1.459664e-001
 0.000000e+000 0.000000e+000 0.000000e+000 0.000000e+000 0.000000e+000
<ENDHMM>
~h "s"
<BEGINHMM>
<NUMSTATES> 5
<STATE> 2
<MEAN> 25
 -7.574461e+000 1.999315e+000 4.840061e+000 2.736312e+000 2.103957e+000 -2.078767e+000 1.455192e+000 1.633411e+000 -1.837405e+000 -1.999228e+000 9.857289e-001 4.734254e-001 -2.491589e+000 -3.273430e-001 2.665840e-001 6.305092e-002 2.564979e-001 3.241621e-002 1.412562e-001 8.803735e-001 4.985888e-001 -4.048420e-001 6.343607e-001 4.120456e-001 5.513806e-001
<VARIANCE> 25
 7.522537e+001 1.151867e+002 7.137614e+001 3.060195e+001 7.442398e+001 7.216984e+001 2.739666e+001 4.445070e+001 3.598569e+001 4.068146e+001 4.296513e+001 2.859804e+001 4.236776e+000 4.555793e+000 5.963522e+000 3.063672e+000 5.881931e+000 3.662581e+000 2.742582e+000 3.789669e+000 3.251709e+000 3.836967e+000 2.324580e+000 2.984652e+000 2.081981e+000
<GCONST> 1.092701e+002
<STATE> 3
<MEAN> 25
 -1.657241e+001 -6.152030e+000 1.066505e+001 3.320428e+000 -1.597699e+000 3.673890e+000 1.754502e+000 4.042148e+000 1.650910e+000 -1.922913e+000 2.984355e+000 -9.459145e-001 3.638802e-001 2.872737e-001 -5.637569e-001 -1.546870e-001 2.041542e-001 2.469415e-002 -3.199738e-001 -1.648010e-001 -2.504169e-002 1.582753e-001 -1.402485e-001 4.620116e-004 -5.348067e-002
<VARIANCE> 25
 6.052221e+001 8.036906e+001 1.169183e+002 3.797017e+001 7.331626e+001 5.994148e+001 3.376118e+001 2.848645e+001 1.761748e+001 4.660966e+001 3.502830e+001 2.110434e+001 5.411312e+000 1.680767e+000 2.551244e+000 1.868889e+000 2.323565e+000 2.191735e+000 1.974522e+000 1.950690e+000 1.786726e+000 2.026959e+000 1.742647e+000 1.550765e+000 1.111292e+000
<GCONST> 1.005406e+002
<STATE> 4
<MEAN> 25
 -1.160071e+001 3.541365e+000 -1.308764e+000 -8.080292e-001 2.868890e+000 -5.997620e-001 2.969861e-001 1.578885e+000 -9.154772e-001 1.268485e-001 -8.111430e-001 1.088897e+000 6.029904e-001 -1.974203e-001 -2.209125e-001 -6.345301e-002 -1.861520e-001 1.685392e-003 -9.403851e-002 -2.809991e-001 2.690428e-002 -9.928767e-003 1.004857e-001 -6.939614e-002 -2.658029e-001
<VARIANCE> 25
 4.605194e+001 3.882654e+001 3.824591e+001 3.379862e+001 2.681022e+001 3.711255e+001 2.499989e+001 2.018381e+001 1.842067e+001 2.305958e+001 2.149194e+001 2.100075e+001 2.717891e+000 1.636609e+000 2.013498e+000 1.405099e+000 1.929362e+000 2.126201e+000 1.524880e+000 1.986679e+000 1.728476e+000 1.990893e+000 1.719099e+000 1.541308e+000 1.353508e+000
<GCONST> 9.345586e+001
<TRANSP> 5
 0.000000e+000 1.000000e+000 0.000000e+000 0.000000e+000 0.000000e+000
 0.000000e+000 7.206636e-001 2.793364e-001 0.000000e+000 0.000000e+000
 0.000000e+000 0.000000e+000 7.770540e-001 2.229460e-001 0.000000e+000
 0.000000e+000 0.000000e+000 0.000000e+000 8.043340e-001 1.956660e-001
 0.000000e+000 0.000000e+000 0.000000e+000 0.000000e+000 0.000000e+000
<ENDHMM>
~h "t"
<BEGINHMM>
<NUMSTATES> 5
<STATE> 2
<MEAN> 25
 -3.719256e+000 1.592870e+000 -6.098588e-001 2.370502e+000 -4.517860e-002 -4.072204e-001 2.784148e+000 7.404512e-001 2.520966e+000 -2.883623e-001 1.717606e+000 9.789643e-002 1.252521e+000 -1.788132e+000 -7.547172e-001 -1.361605e+000 -5.804654e-001 -1.503846e+000 -3.261542e-001 1.785633e-001 1.267980e-001 -9.306879e-002 3.565618e-001 2.385828e-001 4.412692e+000
<VARIANCE> 25
 6.949265e+001 3.896614e+001 4.176520e+001 4.290400e+001 3.224567e+001 6.254730e+001 3.506634e+001 3.713313e+001 3.282736e+001 3.508679e+001 4.519843e+001 2.249472e+001 8.188890e+000 4.594090e+000 5.121540e+000 5.699484e+000 5.153958e+000 6.896244e+000 5.635400e+000 3.746170e+000 3.937738e+000 4.715719e+000 5.265689e+000 2.102076e+000 2.374223e+001
<GCONST> 1.122112e+002
<STATE> 3
<MEAN> 25
 7.534954e-001 -2.277995e+000 -2.008125e+000 -7.871783e-001 -1.583467e+000 -3.062113e+000 1.626045e-001 1.153556e+000 1.873252e+000 -5.855851e-001 1.268927e-001 3.157862e-002 4.380445e-001 -6.638374e-001 -1.791638e-001 -2.481991e-001 2.207586e-001 4.833129e-001 -1.252959e-001 2.513437e-001 -3.693829e-002 4.987376e-001 -2.325634e-002 1.765396e-001 7.530983e-001
<VARIANCE> 25
 4.901213e+001 5.396280e+001 4.001584e+001 5.883599e+001 5.284179e+001 5.805077e+001 4.443245e+001 4.475315e+001 3.225487e+001 3.400525e+001 3.428006e+001 2.786292e+001 4.077209e+000 2.028103e+000 3.362546e+000 2.482445e+000 3.887286e+000 5.149716e+000 5.509867e+000 4.481006e+000 3.343265e+000 3.865164e+000 5.600464e+000 2.240062e+000 7.010561e+000
<GCONST> 1.085503e+002
<STATE> 4
<MEAN> 25
 6.062211e-001 -3.088252e+000 -2.301537e+000 -3.805528e-001 6.874309e-001 1.798799e-001 1.841674e+000 6.448757e-001 2.286452e+000 1.587294e+000 1.654703e+000 1.651776e+000 1.305233e-001 -1.270239e-001 2.578905e-002 1.396991e-001 3.412215e-001 3.433233e-001 -1.049847e-001 -4.160811e-001 -3.002393e-001 1.547640e-001 2.698894e-001 -2.812741e-002 -8.083244e-002
<VARIANCE> 25
 3.747323e+001 6.259489e+001 5.050668e+001 5.348959e+001 6.119445e+001 3.711821e+001 3.836765e+001 3.399938e+001 3.127402e+001 3.770163e+001 4.009763e+001 2.601110e+001 2.286555e+000 1.287516e+000 1.878476e+000 1.928795e+000 3.266750e+000 2.998413e+000 3.030352e+000 3.070977e+000 2.572216e+000 2.951699e+000 3.111970e+000 1.863021e+000 2.441342e+000
<GCONST> 1.020897e+002
<TRANSP> 5
 0.000000e+000 1.000000e+000 0.000000e+000 0.000000e+000 0.000000e+000
 0.000000e+000 5.303319e-001 4.696681e-001 0.000000e+000 0.000000e+000
 0.000000e+000 0.000000e+000 3.052048e-001 6.947952e-001 0.000000e+000
 0.000000e+000 0.000000e+000 0.000000e+000 6.258599e-001 3.741401e-001
 0.000000e+000 0.000000e+000 0.000000e+000 0.000000e+000 0.000000e+000
<ENDHMM>
~h "v"
<BEGINHMM>
<NUMSTATES> 5
<STATE> 2
<MEAN> 25
 3.032579e+000 -7.900129e-002 -3.772749e+000 -4.958135e+000 -5.293300e-001 3.117795e+000 -1.572500e+000 8.758307e-001 -1.292655e+000 -4.246177e-001 1.492847e+000 2.461682e+000 1.685119e+000 5.519959e-001 -7.204804e-001 -2.031814e+000 -8.431273e-001 1.192630e+000 -6.733274e-001 -4.671707e-001 1.080247e-001 -8.173101e-002 3.855031e-001 -3.721222e-001 1.646896e+000
<VARIANCE> 25
 3.808635e+001 2.854356e+001 3.913764e+001 1.278123e+002 5.246094e+001 1.082521e+002 4.188282e+001 2.474649e+001 2.608506e+001 3.740712e+001 3.355865e+001 2.226462e+001 5.541127e+000 4.651928e+000 5.628732e+000 7.974090e+000 5.805435e+000 6.132522e+000 3.637637e+000 4.400616e+000 5.147161e+000 4.993921e+000 3.955390e+000 2.349254e+000 8.752631e+000
<GCONST> 1.115877e+002
<STATE> 3
<MEAN> 25
 6.018058e+000 1.661147e+000 -3.161058e+000 -8.231174e+000 -5.155760e+000 4.809383e+000 -1.416999e+000 4.767473e-001 -2.153905e-001 -1.674766e+000 1.388317e+000 -2.817348e-001 -2.283288e-001 9.930266e-001 -2.758414e-001 3.333115e-001 -9.194252e-002 -9.486192e-001 5.278757e-001 -8.818593e-002 7.430990e-001 3.332815e-001 -6.945344e-001 -1.693053e-001 -9.055757e-002
<VARIANCE> 25
 2.725377e+001 3.117982e+001 4.592437e+001 1.343186e+002 5.676808e+001 1.377293e+002 7.387370e+001 2.161456e+001 2.827999e+001 5.679424e+001 1.740435e+001 3.804914e+001 2.550222e+000 1.935664e+000 1.638252e+000 4.154227e+000 3.150244e+000 5.456969e+000 2.542258e+000 1.634352e+000 2.150993e+000 2.573482e+000 1.714419e+000 2.317892e+000 1.411574e+000
<GCONST> 1.028550e+002
<STATE> 4
<MEAN> 25
 4.113554e+000 2.905452e+000 -4.362599e+000 -2.132935e+000 -2.300224e+000 -1.795412e+000 -1.572710e+000 -2.980895e-002 2.512240e+000 5.695853e-003 -4.904795e-001 2.161592e+000 -3.926977e-001 1.761402e-001 2.384657e-001 7.327478e-001 6.479487e-001 -5.153354e-001 -1.752138e-001 -3.540286e-001 -2.514580e-001 -1.928567e-001 -1.374479e-001 2.370249e-003 -5.839337e-001
<VARIANCE> 25
 5.261221e+001 2.127424e+001 5.865776e+001 1.190517e+002 4.617585e+001 5.069179e+001 5.132136e+001 2.756721e+001 3.277121e+001 4.545818e+001 1.927155e+001 4.361799e+001 1.202492e+000 8.175148e-001 1.632322e+000 3.409020e+000 1.982585e+000 4.586198e+000 2.643722e+000 1.932657e+000 2.316945e+000 2.888355e+000 2.903518e+000 3.302236e+000 7.120390e-001
<GCONST> 1.002318e+002
<TRANSP> 5
 0.000000e+000 1.000000e+000 0.000000e+000 0.000000e+000 0.000000e+000
 0.000000e+000 6.557070e-001 3.442930e-001 0.000000e+000 0.000000e+000
 0.000000e+000 0.000000e+000 5.394145e-001 4.605855e-001 0.000000e+000
 0.000000e+000 0.000000e+000 0.000000e+000 7.094470e-001 2.905530e-001
 0.000000e+000 0.000000e+000 0.000000e+000 0.000000e+000 0.000000e+000
<ENDHMM>
~h "w"
<BEGINHMM>
<NUMSTATES> 5
<STATE> 2
<MEAN> 25
 6.336720e+000 1.141166e+000 -5.111190e+000 -1.161658e+001 -2.714071e+000 3.359491e-001 1.844603e+000 7.274070e-001 -1.779549e+000 -5.293024e-001 -1.553327e+000 -1.975610e+000 2.713766e-001 -1.694190e-002 -3.486509e-001 -4.236930e-001 -1.030819e-001 -8.695716e-002 -1.424397e-001 -1.450187e-001 1.758310e-001 -6.792043e-002 8.166258e-002 -1.575828e-001 7.505350e-001
<VARIANCE> 25
 5.009793e+001 6.848110e+001 4.336598e+001 6.147708e+001 6.908055e+001 1.146582e+002 7.649979e+001 3.138092e+001 6.334302e+001 4.209238e+001 3.067411e+001 5.192149e+001 4.385388e+000 4.409121e+000 3.406058e+000 6.915924e+000 6.869182e+000 9.221828e+000 8.245942e+000 4.431423e+000 4.232821e+000 3.672257e+000 2.917235e+000 3.226784e+000 6.443983e+000
<GCONST> 1.147154e+002
<STATE> 3
<MEAN> 25
 8.936581e+000 1.530558e+000 -2.094492e+000 -9.726457e+000 -3.081888e+000 5.344359e-001 -9.870296e+000 1.015236e+000 -4.214057e+000 4.493287e-001 7.286788e+000 -3.202828e+000 -1.204971e-001 -1.127878e+000 -3.013670e-001 6.426098e-001 3.093777e-001 5.078880e-002 -8.426229e-001 8.372446e-001 2.339341e-001 7.878786e-002 4.626735e-001 -8.623402e-001 1.132397e+000
<VARIANCE> 25
 3.819755e+001 5.159040e+001 5.383585e+001 1.150529e+002 4.142439e+001 1.290961e+002 9.001559e+001 3.031997e+001 5.657139e+001 2.342400e+001 6.345284e+001 5.082702e+001 2.429414e+000 1.717154e+000 2.406245e+000 4.007500e+000 3.697614e+000 9.666080e+000 6.448246e+000 3.073690e+000 4.122927e+000 2.986084e+000 5.014490e+000 3.499740e+000 1.482281e+000
<GCONST> 1.100553e+002
<STATE> 4
<MEAN> 25
 1.049192e+000 -6.798166e+000 -7.621659e+000 -2.212914e+000 3.635565e+000 2.393986e+000 -3.931566e+000 -1.393087e+000 -4.154004e-001 -3.017079e+000 4.925971e+000 -1.155600e+000 -3.808819e-001 -2.041549e-002 2.018301e-001 5.426309e-001 2.156745e-001 -1.607285e-001 4.816581e-001 3.269013e-002 -3.040013e-002 2.542252e-002 -7.724647e-002 6.181517e-001 -2.801835e-001
<VARIANCE> 25
 3.939544e+001 5.304872e+001 1.707547e+001 4.865957e+001 1.050540e+002 1.523206e+002 3.656743e+001 6.276889e+001 5.355408e+001 2.882730e+001 3.163007e+001 4.522879e+001 5.082888e-001 7.976938e-001 8.487279e-001 1.204378e+000 2.168490e+000 2.920248e+000 2.239453e+000 3.625236e+000 3.078639e+000 3.521738e+000 2.686221e+000 2.454891e+000 9.579377e-001
<GCONST> 9.962696e+001
<TRANSP> 5
 0.000000e+000 1.000000e+000 0.000000e+000 0.000000e+000 0.000000e+000
 0.000000e+000 9.301676e-001 6.983232e-002 0.000000e+000 0.000000e+000
 0.000000e+000 0.000000e+000 8.203253e-001 1.796747e-001 0.000000e+000
 0.000000e+000 0.000000e+000 0.000000e+000 8.732231e-001 1.267770e-001
 0.000000e+000 0.000000e+000 0.000000e+000 0.000000e+000 0.000000e+000
<ENDHMM>
~h "y"
<BEGINHMM>
<NUMSTATES> 5
<STATE> 2
<MEAN> 25
 2.555398e+000 1.681800e+000 1.054433e+001 2.233833e+000 -1.034293e+001 -9.777882e+000 -1.600480e+000 -2.248390e+000 -1.109018e+001 -3.073632e+000 2.674886e+000 -4.425582e+000 3.040615e-001 -3.686020e-001 -4.796466e-001 3.011491e-001 -1.987437e-001 -5.096929e-001 7.362722e-002 2.320805e-001 4.084901e-001 5.017352e-003 1.305333e-001 2.954440e-001 -8.054648e-002
<VARIANCE> 25
 2.091226e+001 1.947075e+001 4.630426e+001 2.111790e+001 4.597332e+001 4.584356e+001 2.074121e+001 2.201573e+001 5.848575e+001 2.172553e+001 4.616904e+001 3.741137e+001 3.676074e+000 2.048615e+000 2.466683e+000 1.573241e+000 4.822019e+000 5.080932e+000 1.697711e+000 2.025332e+000 5.478924e+000 1.829934e+000 3.332590e+000 3.104327e+000 2.493695e+000
<GCONST> 1.005845e+002
<STATE> 3
<MEAN> 25
 1.119468e+001 -5.013705e+000 -4.840415e+000 4.845006e+000 -8.972194e+000 -1.308423e+001 -3.245229e+000 8.966604e-001 7.420732e+000 -7.257367e+000 -1.737650e-001 1.946110e+000 4.739059e-001 4.935955e-002 -6.385297e-001 -1.223053e-001 3.498042e-001 1.750579e-001 -3.550065e-001 5.020577e-001 7.076170e-001 -3.476914e-001 4.157424e-002 -3.342409e-001 -2.842031e-001
<VARIANCE> 25
 2.193593e+001 2.030575e+001 5.836927e+001 2.119968e+001 4.099433e+001 3.423985e+001 2.383472e+001 3.530401e+001 6.440883e+001 2.254288e+001 3.087460e+001 2.580402e+001 1.874785e+000 2.057061e+000 2.306572e+000 1.588653e+000 3.172749e+000 2.832795e+000 2.060953e+000 2.145261e+000 2.701458e+000 2.013820e+000 1.810714e+000 1.442975e+000 6.422809e-001
<GCONST> 9.565207e+001
<STATE> 4
<MEAN> 25
 6.062893e+000 -3.174392e+000 -2.108912e+000 2.970957e+000 -3.930254e+000 -6.726046e+000 -4.263580e+000 9.303592e-001 3.341050e+000 -3.825216e+000 1.685793e+000 6.494853e-001 -3.443656e-001 3.230660e-001 9.793042e-002 8.199130e-002 4.667510e-001 8.843435e-001 3.351175e-001 -7.371450e-002 -8.951879e-002 1.707578e-001 -4.497377e-001 -1.363689e-001 -4.126236e-001
<VARIANCE> 25
 4.277871e+001 1.435857e+001 2.014870e+001 1.785066e+001 3.689219e+001 6.696391e+001 2.799402e+001 3.611231e+001 3.196104e+001 5.938782e+001 1.961215e+001 1.548439e+001 8.790550e-001 1.466814e+000 2.000250e+000 1.203020e+000 2.213574e+000 2.327166e+000 1.016532e+000 1.452871e+000 1.861785e+000 1.657629e+000 1.479178e+000 1.088004e+000 3.440673e-001
<GCONST> 8.994519e+001
<TRANSP> 5
 0.000000e+000 1.000000e+000 0.000000e+000 0.000000e+000 0.000000e+000
 0.000000e+000 8.900400e-001 1.099600e-001 0.000000e+000 0.000000e+000
 0.000000e+000 0.000000e+000 7.642275e-001 2.357725e-001 0.000000e+000
 0.000000e+000 0.000000e+000 0.000000e+000 7.163815e-001 2.836185e-001
 0.000000e+000 0.000000e+000 0.000000e+000 0.000000e+000 0.000000e+000
<ENDHMM>
~h "z"
<BEGINHMM>
<NUMSTATES> 5
<STATE> 2
<MEAN> 25
 -4.616301e+000 1.121308e+000 -6.956962e+000 -4.256162e+000 9.526059e+000 4.238107e+000 -6.394896e+000 3.584338e+000 5.496191e+000 -8.271851e-001 4.167315e+000 5.059169e+000 -1.096986e+000 2.355169e-001 1.931053e-001 3.553487e-001 -1.403567e-002 -8.897659e-001 7.320172e-001 7.235141e-001 6.894733e-001 -6.629254e-002 -6.200498e-001 2.197013e-001 2.757618e-001
<VARIANCE> 25
 2.400715e+001 1.568665e+002 2.776709e+001 3.223844e+001 4.622580e+001 8.129998e+001 5.387030e+001 3.569205e+001 4.743480e+001 4.184921e+001 4.048349e+001 2.571187e+001 3.027594e+000 3.266905e+000 1.187689e+000 3.178547e+000 3.734772e+000 4.117632e+000 4.364584e+000 4.427083e+000 4.534435e+000 3.476568e+000 3.622542e+000 1.745600e+000 2.324219e+000
<GCONST> 1.060718e+002
<STATE> 3
<MEAN> 25
 -5.658916e+000 2.447730e+000 -4.780085e+000 2.038879e-001 8.513280e+000 -6.089793e+000 -3.966064e+000 4.518661e+000 5.087907e+000 9.704433e-002 -5.952188e-001 5.709607e+000 1.475375e+000 -7.369838e-001 6.973593e-001 1.034394e+000 -9.707820e-001 -1.281196e+000 -5.980965e-001 -2.970937e-001 -1.222240e-001 4.104864e-002 -5.562395e-001 -5.441014e-001 1.571737e-001
<VARIANCE> 25
 6.068464e+001 7.906583e+001 2.882568e+001 6.027865e+001 6.338352e+001 1.022967e+002 5.026118e+001 5.547178e+001 3.847719e+001 5.555389e+001 3.343911e+001 3.247284e+001 5.523936e+000 4.121478e+000 1.313067e+000 2.539287e+000 4.616641e+000 4.538690e+000 6.325167e+000 4.116948e+000 4.075308e+000 4.554193e+000 3.539930e+000 3.792313e+000 2.980520e+000
<GCONST> 1.104926e+002
<STATE> 4
<MEAN> 25
 2.249887e+000 4.610007e+000 -1.421694e+000 -7.094303e-001 -9.868233e-001 -1.290817e+001 -2.692858e+000 6.107931e-001 2.217255e+000 -1.128721e+000 -2.909317e+000 4.033042e+000 4.348767e-001 -2.453528e-001 5.762259e-001 -2.185426e-001 -4.821080e-001 -2.472976e-001 -1.180854e-001 1.539423e-001 -2.040724e-002 -9.384799e-002 -3.796710e-002 -8.466177e-002 3.753167e-001
<VARIANCE> 25
 2.527415e+001 8.738022e+001 2.826394e+001 5.056479e+001 3.447203e+001 5.029582e+001 6.874999e+001 2.831117e+001 3.320429e+001 6.635497e+001 4.538052e+001 3.907418e+001 2.758609e+000 7.441058e+000 1.740913e+000 2.645966e+000 2.901278e+000 3.554712e+000 4.984447e+000 2.614387e+000 1.877016e+000 4.890588e+000 2.572384e+000 4.749315e+000 1.890501e+000
<GCONST> 1.059285e+002
<TRANSP> 5
 0.000000e+000 1.000000e+000 0.000000e+000 0.000000e+000 0.000000e+000
 0.000000e+000 7.978868e-001 2.021133e-001 0.000000e+000 0.000000e+000
 0.000000e+000 0.000000e+000 7.396474e-001 2.603526e-001 0.000000e+000
 0.000000e+000 0.000000e+000 0.000000e+000 8.270649e-001 1.729351e-001
 0.000000e+000 0.000000e+000 0.000000e+000 0.000000e+000 0.000000e+000
<ENDHMM>
~h "aa"
<BEGINHMM>
<NUMSTATES> 5
<STATE> 2
<MEAN> 25
 7.260425e+000 -1.294480e+000 -8.933095e+000 -8.549385e+000 -2.236493e+000 4.226984e+000 -2.000433e+000 -2.931810e+000 -2.382022e+000 3.017027e+000 5.611223e+000 -4.465636e+000 1.481118e+000 3.848909e-001 -6.704296e-001 -9.082620e-001 -6.861546e-001 6.028034e-001 -4.411506e-002 -8.261001e-001 -2.687513e-001 2.215861e-001 1.928941e-001 -5.211663e-001 5.940357e-001
<VARIANCE> 25
 4.248525e+001 2.799199e+001 4.447221e+001 6.828828e+001 3.582076e+001 2.693150e+001 2.630445e+001 2.696716e+001 1.951856e+001 1.853229e+001 6.283755e+001 4.751479e+001 2.589224e+000 2.080535e+000 2.119006e+000 3.649244e+000 1.969288e+000 2.407402e+000 1.724208e+000 2.794053e+000 1.725250e+000 2.084984e+000 2.758916e+000 4.465209e+000 4.414119e+000
<GCONST> 1.005093e+002
<STATE> 3
<MEAN> 25
 7.489958e+000 3.672853e+000 -5.186953e+000 -9.822721e+000 -2.256936e+000 6.804340e+000 2.028403e+000 -3.703181e+000 -2.008686e+000 1.793777e+000 -2.931210e-001 1.229088e+000 -9.095996e-001 3.033158e-001 8.068551e-001 9.119968e-001 6.198611e-001 -5.662510e-001 -5.823974e-002 3.971751e-001 3.972347e-001 -8.970120e-003 -6.107098e-001 2.357488e-001 -8.767594e-001
<VARIANCE> 25
 3.882621e+001 2.593291e+001 3.664430e+001 1.122436e+002 2.021497e+001 5.191358e+001 5.231410e+001 5.807412e+001 3.964435e+001 1.872212e+001 3.713084e+001 5.161000e+001 1.676065e+000 2.092292e+000 2.476370e+000 5.045243e+000 1.051602e+000 5.773543e+000 5.652649e+000 5.806798e+000 3.873810e+000 2.571163e+000 4.569024e+000 7.031397e+000 2.640579e+000
<GCONST> 1.061403e+002
<STATE> 4
<MEAN> 25
 -2.583393e+000 2.180697e+000 7.049856e-001 8.402609e-001 2.134928e+000 1.038436e+000 1.709816e+000 1.741222e+000 1.454733e+000 1.806414e+000 -1.615793e+000 -4.736250e-001 -1.222758e-001 -4.025881e-002 1.316667e-002 9.721878e-002 -3.066322e-002 -5.379355e-002 -4.039305e-002 1.918983e-001 2.096419e-001 -5.262740e-002 -7.211371e-002 -1.892034e-001 -8.021072e-002
<VARIANCE> 25
 3.388257e+001 2.786564e+001 2.267692e+001 4.258611e+001 2.130855e+001 2.339331e+001 2.718865e+001 3.052623e+001 2.161734e+001 2.182543e+001 2.080392e+001 1.835749e+001 8.015388e-001 8.029584e-001 8.709648e-001 1.093657e+000 1.331060e+000 1.914082e+000 1.408972e+000 1.644873e+000 1.513891e+000 2.056276e+000 1.489940e+000 1.602093e+000 1.278344e+000
<GCONST> 8.824242e+001
<TRANSP> 5
 0.000000e+000 1.000000e+000 0.000000e+000 0.000000e+000 0.000000e+000
 0.000000e+000 7.127253e-001 2.872747e-001 0.000000e+000 0.000000e+000
 0.000000e+000 0.000000e+000 7.620282e-001 2.379718e-001 0.000000e+000
 0.000000e+000 0.000000e+000 0.000000e+000 9.148289e-001 8.517107e-002
 0.000000e+000 0.000000e+000 0.000000e+000 0.000000e+000 0.000000e+000
<ENDHMM>
~h "ae"
<BEGINHMM>
<NUMSTATES> 5
<STATE> 2
<MEAN> 25
 2.759913e+000 -3.911173e+000 -3.956283e+000 -6.158643e-001 -4.867536e-001 -3.145626e+000 5.857000e-001 1.632312e+000 -4.915243e+000 -3.218254e+000 -2.750530e+000 -1.885603e+000 -2.730807e-001 1.345885e+000 2.374115e-001 -2.461238e-003 -3.013157e-001 -4.372607e-001 8.459572e-001 -2.686795e-001 1.134560e-003 -3.660661e-001 -6.445202e-001 -4.138593e-001 -3.641866e-001
<VARIANCE> 25
 6.257986e+001 1.462875e+002 2.241200e+001 2.956232e+001 5.637238e+001 3.690720e+001 8.337469e+001 4.436846e+001 4.489719e+001 7.608769e+001 4.867949e+001 3.396094e+001 5.917747e+000 5.735857e+000 2.745291e+000 3.710003e+000 5.901411e+000 4.766078e+000 6.887665e+000 4.378207e+000 4.118164e+000 6.323388e+000 5.352519e+000 4.500665e+000 4.342340e+000
<GCONST> 1.134666e+002
<STATE> 3
<MEAN> 25
 -7.900021e+000 2.666712e+000 -3.172208e+000 7.056291e-001 2.331617e+000 -1.753999e+000 3.750561e+000 8.352499e-001 1.602723e+000 2.263012e+000 4.118915e+000 -1.889990e+000 1.041524e+000 -8.053361e-001 -5.912752e-001 -1.026874e+000 2.279163e-001 2.397315e-001 -8.182107e-001 -2.972352e-001 3.851176e-002 4.439571e-001 2.014958e-001 -8.636221e-002 5.246038e-001
<VARIANCE> 25
 1.313270e+002 7.968121e+001 4.000461e+001 4.999187e+001 4.800924e+001 2.444389e+001 6.016592e+001 8.259072e+001 4.876582e+001 5.888527e+001 6.584937e+001 2.628502e+001 9.579377e+000 3.836897e+000 4.172618e+000 6.164877e+000 3.649884e+000 2.569252e+000 6.310481e+000 6.573061e+000 5.822891e+000 7.399951e+000 5.078638e+000 3.358627e+000 3.704502e+000
<GCONST> 1.145259e+002
<STATE> 4
<MEAN> 25
 5.930154e+000 -8.483048e+000 -9.343752e+000 -9.435184e+000 1.355757e+000 -1.818170e+000 -2.272590e+000 6.369756e-001 6.725271e+000 2.600637e+000 -2.343308e+000 -4.900813e+000 -2.452819e-001 -1.283716e-001 1.385809e-001 3.586187e-001 -3.397081e-001 -9.485118e-002 9.424760e-002 1.306056e-001 9.258927e-002 -3.810753e-001 -1.595664e-001 9.951907e-002 2.797872e-001
<VARIANCE> 25
 1.788915e+001 1.842895e+001 2.349262e+001 4.596940e+001 5.082264e+001 2.925353e+001 3.760632e+001 3.329909e+001 4.994764e+001 6.637464e+001 2.436480e+001 2.416880e+001 9.004943e-001 9.295089e-001 1.115025e+000 1.855403e+000 1.890090e+000 1.664365e+000 2.333474e+000 2.274825e+000 3.016130e+000 3.037392e+000 1.356347e+000 2.130922e+000 1.118740e+000
<GCONST> 9.440417e+001
<TRANSP> 5
 0.000000e+000 1.000000e+000 0.000000e+000 0.000000e+000 0.000000e+000
 0.000000e+000 8.479547e-001 1.520453e-001 0.000000e+000 0.000000e+000
 0.000000e+000 0.000000e+000 8.668491e-001 1.331510e-001 0.000000e+000
 0.000000e+000 0.000000e+000 0.000000e+000 8.792636e-001 1.207364e-001
 0.000000e+000 0.000000e+000 0.000000e+000 0.000000e+000 0.000000e+000
<ENDHMM>
~h "ah"
<BEGINHMM>
<NUMSTATES> 5
<STATE> 2
<MEAN> 25
 5.073153e+000 -2.855756e-001 -1.489408e+000 9.024768e-001 1.410964e+000 8.229350e-002 -3.509176e+000 -3.793175e+000 -2.285360e+000 -2.488461e+000 6.229529e-001 -7.279457e-001 2.423545e-001 -5.640506e-002 -1.358173e-001 -1.363578e-001 -4.474484e-001 6.464587e-002 -3.762894e-001 -1.305820e-001 -2.865611e-001 -7.297574e-001 1.254594e-001 9.263418e-002 3.353185e-001
<VARIANCE> 25
 3.231445e+001 4.555102e+001 6.339246e+001 5.031859e+001 6.108082e+001 5.170185e+001 6.792243e+001 4.729502e+001 5.322060e+001 4.470714e+001 4.466508e+001 2.767801e+001 2.419728e+000 2.950961e+000 3.545908e+000 3.676424e+000 5.960127e+000 2.921318e+000 5.315847e+000 4.215899e+000 4.192932e+000 4.023017e+000 3.645489e+000 2.708915e+000 4.233757e+000
<GCONST> 1.093946e+002
<STATE> 3
<MEAN> 25
 4.581551e+000 -1.768992e+000 -3.376038e-001 8.433942e-001 1.606236e-001 -2.147832e+000 -4.666680e+000 -5.603432e-001 -1.992687e+000 -4.603950e+000 1.089719e+000 -5.063376e-001 9.087411e-002 5.486374e-001 -9.147450e-002 -3.935906e-001 -5.444632e-001 -4.560993e-001 5.887055e-001 6.460369e-001 -7.242943e-002 1.434722e-001 -1.778311e-001 -2.610288e-001 -5.442307e-001
<VARIANCE> 25
 4.615845e+001 5.956797e+001 5.628328e+001 5.697585e+001 8.528040e+001 6.163379e+001 5.874589e+001 7.276233e+001 6.542039e+001 4.782581e+001 4.220985e+001 3.382837e+001 1.585451e+000 2.483160e+000 2.480575e+000 2.339685e+000 5.045550e+000 2.882801e+000 3.431908e+000 4.739712e+000 3.292171e+000 3.036597e+000 3.443996e+000 2.723973e+000 2.325687e+000
<GCONST> 1.081594e+002
<STATE> 4
<MEAN> 25
 4.094713e+000 8.266770e-001 -6.927288e-001 -6.892465e-001 -1.107994e+000 -2.007121e+000 -2.345604e-001 2.127268e-001 -1.196399e-001 -1.555007e+000 -9.307130e-001 -4.025268e-001 -2.252602e-001 9.780148e-002 1.766185e-001 7.458551e-002 -3.503384e-002 -5.827805e-002 3.789505e-001 -1.145542e-001 -6.557845e-002 1.355882e-001 -1.004695e-001 -1.022476e-001 -4.554640e-001
<VARIANCE> 25
 3.569053e+001 3.848344e+001 5.045474e+001 5.528386e+001 7.477573e+001 4.678221e+001 5.023224e+001 4.284483e+001 3.353934e+001 3.169587e+001 3.517878e+001 3.477021e+001 7.000833e-001 1.234079e+000 1.273613e+000 1.708416e+000 2.483356e+000 2.195822e+000 2.092560e+000 2.402042e+000 1.927822e+000 1.730906e+000 1.848638e+000 1.977073e+000 7.689088e-001
<GCONST> 9.719833e+001
<TRANSP> 5
 0.000000e+000 1.000000e+000 0.000000e+000 0.000000e+000 0.000000e+000
 0.000000e+000 6.678065e-001 3.321935e-001 0.000000e+000 0.000000e+000
 0.000000e+000 0.000000e+000 4.914717e-001 5.085282e-001 0.000000e+000
 0.000000e+000 0.000000e+000 0.000000e+000 7.070844e-001 2.929156e-001
 0.000000e+000 0.000000e+000 0.000000e+000 0.000000e+000 0.000000e+000
<ENDHMM>
~h "ao"
<BEGINHMM>
<NUMSTATES> 5
<STATE> 2
<MEAN> 25
 2.000389e+000 2.222677e+000 -5.087501e+000 4.312705e-001 -3.182997e+000 -2.820801e-001 3.715374e+000 4.892272e-001 -2.231571e+000 -9.229115e-001 2.008258e+000 -1.742124e+000 2.433792e+000 4.979762e-001 -8.769233e-001 -2.366330e+000 -2.008637e+000 3.507293e-001 -3.715196e-001 -4.892309e-001 -1.106088e+000 -8.490182e-001 5.366213e-001 -4.577015e-001 2.821980e+000
<VARIANCE> 25
 5.201552e+001 1.751329e+001 2.521970e+001 8.186890e+001 5.311545e+001 3.838378e+001 4.209491e+001 5.082037e+001 3.361330e+001 4.950165e+001 3.777202e+001 1.904632e+001 6.362494e+000 2.527224e+000 2.612400e+000 5.613070e+000 3.447090e+000 6.343637e+000 4.373317e+000 6.899168e+000 4.798563e+000 3.012534e+000 6.562522e+000 2.056536e+000 3.901613e+000
<GCONST> 1.082676e+002
<STATE> 3
<MEAN> 25
 5.676531e+000 -1.712501e+000 -6.723808e+000 -5.429557e+000 -6.294344e+000 2.339541e+000 9.111065e+000 3.006526e+000 -5.179682e+000 -3.164978e+000 1.080984e+000 -2.222773e+000 6.462493e-001 -3.262776e-001 -3.531484e-001 -4.945668e-001 -2.631855e-001 1.433804e+000 -6.326640e-001 -4.230558e-001 5.238321e-001 1.499496e-002 6.790997e-001 -4.222349e-001 4.242735e-001
<VARIANCE> 25
 5.059703e+001 2.654516e+001 1.291045e+001 5.475126e+001 3.860334e+001 5.516841e+001 1.397964e+002 9.246661e+001 3.386305e+001 1.141523e+001 4.518978e+001 9.477349e+000 2.122689e+000 3.069071e-001 9.963503e-001 3.320572e+000 1.588156e+000 3.695389e+000 1.500791e+000 2.026232e+000 1.362798e+000 1.169325e+000 1.390888e+000 1.084588e+000 1.330743e+000
<GCONST> 9.367094e+001
<STATE> 4
<MEAN> 25
 1.129178e+001 3.340725e+000 -5.197288e+000 -8.589125e+000 -7.670338e+000 9.571321e+000 -2.806314e+000 -4.666260e+000 -1.280145e+000 -2.915820e+000 3.296413e+000 -4.540322e-001 -1.106702e-001 -3.744995e-002 1.978235e-002 3.757593e-001 2.871201e-001 -1.424961e-002 -3.217139e-001 2.432615e-001 2.002760e-001 1.112674e-001 -2.921251e-001 8.640751e-002 -1.452696e-001
<VARIANCE> 25
 4.154391e+001 1.933438e+001 5.011633e+001 1.253705e+002 5.103933e+001 6.496573e+001 4.096431e+001 5.225646e+001 2.486312e+001 1.148628e+001 3.157349e+001 2.785609e+001 2.768619e-001 6.892806e-001 1.043155e+000 2.459043e+000 1.582855e+000 2.502649e+000 1.661512e+000 1.532363e+000 1.479935e+000 1.214762e+000 1.440330e+000 1.712687e+000 3.009089e-001
<GCONST> 9.147575e+001
<TRANSP> 5
 0.000000e+000 1.000000e+000 0.000000e+000 0.000000e+000 0.000000e+000
 0.000000e+000 7.477424e-001 2.522576e-001 0.000000e+000 0.000000e+000
 0.000000e+000 0.000000e+000 6.713620e-001 3.286380e-001 0.000000e+000
 0.000000e+000 0.000000e+000 0.000000e+000 9.432761e-001 5.672387e-002
 0.000000e+000 0.000000e+000 0.000000e+000 0.000000e+000 0.000000e+000
<ENDHMM>
~h "aw"
<BEGINHMM>
<NUMSTATES> 5
<STATE> 2
<MEAN> 25
 4.288928e+000 -9.711490e-001 -2.679649e+000 -4.197357e-001 4.745903e+000 -7.722651e-001 -8.032247e+000 -1.569726e+000 -1.325257e+000 -4.491864e-001 2.499395e+000 1.391872e+000 9.638743e-001 -1.672988e+000 -1.169712e+000 -8.207696e-001 2.820986e-001 1.578009e+000 -1.347095e+000 5.276421e-001 -2.880130e-001 -2.613230e-001 4.568316e-001 -7.451229e-001 3.207186e+000
<VARIANCE> 25
 3.960769e+001 5.379973e+001 3.580748e+001 3.546608e+001 3.147192e+001 6.328199e+001 9.813448e+001 3.421702e+001 6.545821e+001 1.933541e+001 4.676089e+001 4.021302e+001 3.742055e+000 6.951308e+000 5.325716e+000 4.721989e+000 3.318903e+000 7.301995e+000 9.097105e+000 3.727178e+000 4.912112e+000 2.290559e+000 5.353595e+000 6.170024e+000 1.316612e+001
<GCONST> 1.128466e+002
<STATE> 3
<MEAN> 25
 5.994673e+000 -9.191100e+000 -7.379270e+000 -6.973947e+000 7.051227e+000 9.096691e+000 -8.337804e+000 -4.600786e-001 -2.417029e+000 5.698182e-001 2.883086e+000 -5.940836e+000 1.931527e-001 7.589103e-002 -6.826617e-002 -1.040736e+000 -1.474440e-001 9.888737e-001 -1.711749e-001 -2.135839e-001 -3.896981e-001 7.307441e-001 5.076218e-001 -5.173891e-001 3.734429e-001
<VARIANCE> 25
 2.629203e+001 3.685099e+001 2.333563e+001 4.768836e+001 2.616532e+001 3.666283e+001 4.344211e+001 2.756710e+001 3.582763e+001 2.698280e+001 4.430672e+001 4.244340e+001 1.253723e+000 2.508803e+000 1.340202e+000 2.884416e+000 2.408593e+000 2.738923e+000 4.583672e+000 2.438527e+000 1.678266e+000 1.691880e+000 3.182017e+000 3.509969e+000 2.336783e+000
<GCONST> 9.930929e+001
<STATE> 4
<MEAN> 25
 6.818886e+000 -3.302102e+000 -7.465955e+000 -1.080476e+001 3.074188e+000 7.539640e+000 -9.808548e+000 -2.809418e+000 -1.143448e+000 4.574423e+000 4.392494e+000 -1.740936e+000 -3.517929e-001 1.085162e+000 2.374209e-002 3.158692e-001 8.369005e-002 -9.472749e-001 -1.135352e-001 -8.029475e-002 3.646505e-001 -2.566043e-001 -1.988237e-001 9.679080e-001 -3.786903e-001
<VARIANCE> 25
 2.816300e+001 3.998395e+001 2.053177e+001 7.315678e+001 3.967959e+001 7.386550e+001 4.912015e+001 2.974839e+001 4.260072e+001 3.027928e+001 3.272952e+001 4.814122e+001 2.408723e+000 1.803032e+000 1.541848e+000 4.364955e+000 3.522795e+000 6.601920e+000 4.827198e+000 2.890255e+000 2.923444e+000 3.510724e+000 2.245708e+000 3.429785e+000 1.093389e+000
<GCONST> 1.036996e+002
<TRANSP> 5
 0.000000e+000 1.000000e+000 0.000000e+000 0.000000e+000 0.000000e+000
 0.000000e+000 8.229501e-001 1.770499e-001 0.000000e+000 0.000000e+000
 0.000000e+000 0.000000e+000 8.447082e-001 1.552918e-001 0.000000e+000
 0.000000e+000 0.000000e+000 0.000000e+000 8.909588e-001 1.090411e-001
 0.000000e+000 0.000000e+000 0.000000e+000 0.000000e+000 0.000000e+000
<ENDHMM>
~h "ay"
<BEGINHMM>
<NUMSTATES> 5
<STATE> 2
<MEAN> 25
 7.855278e+000 -4.037208e+000 -8.975835e+000 -1.220567e+000 -2.336077e+000 -1.762627e+000 -4.580173e+000 -6.660889e+000 1.513227e+000 -3.136314e+000 7.046109e+000 3.716733e+000 -2.521563e-001 1.651776e-001 8.123910e-001 1.542138e+000 1.294467e+000 -5.731852e-001 -1.731255e+000 -1.164665e+000 -4.328002e-001 -3.223389e-001 1.439772e-001 -3.635298e-001 -3.248630e-001
<VARIANCE> 25
 2.411680e+001 2.352596e+001 3.447443e+001 3.877785e+001 7.632103e+001 2.762547e+001 6.798470e+001 5.301105e+001 1.593080e+001 2.034231e+001 2.877332e+001 3.911939e+001 1.266619e+000 1.174816e+000 3.730311e+000 2.668167e+000 3.789701e+000 2.230689e+000 6.150745e+000 3.483324e+000 2.124039e+000 2.173262e+000 2.040388e+000 3.556059e+000 7.529753e-001
<GCONST> 9.925862e+001
<STATE> 3
<MEAN> 25
 6.119236e+000 -3.823590e+000 -1.186209e+000 4.364912e+000 5.614476e+000 -2.057122e+000 -1.083117e+001 -4.870656e+000 -3.626589e+000 -5.172496e+000 3.041341e+000 -1.282726e+000 -3.988811e-001 5.492868e-001 1.238085e+000 5.440618e-001 -5.509968e-002 -9.246191e-002 9.684165e-001 1.006775e+000 -1.030885e+000 2.424599e-001 -1.070614e+000 -5.448594e-001 -1.012715e+000
<VARIANCE> 25
 3.026512e+001 3.761395e+001 2.991977e+001 4.303302e+001 6.250811e+001 2.607308e+001 6.182400e+001 1.195964e+002 3.815571e+001 4.120993e+001 2.757288e+001 2.512791e+001 7.227298e-001 9.226333e-001 1.817849e+000 3.076095e+000 6.078561e+000 1.613989e+000 5.547920e+000 3.810200e+000 2.195441e+000 4.767853e+000 2.250653e+000 2.584218e+000 1.869310e+000
<GCONST> 1.017357e+002
<STATE> 4
<MEAN> 25
 2.160093e+000 -2.002500e+000 4.553187e-001 4.644828e+000 6.498568e+000 3.637760e-002 -6.942371e+000 -6.933642e+000 -1.807860e+000 -1.631273e+000 2.065481e+000 -1.284752e+000 -7.070054e-002 7.610476e-002 6.540769e-002 -2.904500e-001 -8.631051e-001 -2.218550e-002 8.215428e-001 3.273438e-001 1.297494e-001 2.040500e-001 -8.770896e-002 -1.012927e-001 -1.827255e-001
<VARIANCE> 25
 2.666546e+001 2.828374e+001 4.290830e+001 2.700058e+001 7.142975e+001 2.279078e+001 6.783173e+001 5.238580e+001 2.889315e+001 4.805574e+001 3.140372e+001 1.507375e+001 1.462766e+000 1.835591e+000 2.744695e+000 2.038661e+000 4.450991e+000 1.491586e+000 4.685125e+000 3.730464e+000 1.963780e+000 3.476390e+000 1.923857e+000 1.859585e+000 2.379049e+000
<GCONST> 1.001199e+002
<TRANSP> 5
 0.000000e+000 1.000000e+000 0.000000e+000 0.000000e+000 0.000000e+000
 0.000000e+000 7.166052e-001 2.833948e-001 0.000000e+000 0.000000e+000
 0.000000e+000 0.000000e+000 6.435847e-001 3.564153e-001 0.000000e+000
 0.000000e+000 0.000000e+000 0.000000e+000 8.447015e-001 1.552985e-001
 0.000000e+000 0.000000e+000 0.000000e+000 0.000000e+000 0.000000e+000
<ENDHMM>
~h "ch"
<BEGINHMM>
<NUMSTATES> 5
<STATE> 2
<MEAN> 25
 -1.205808e-008 7.471832e-008 -5.503286e-008 1.714419e-009 -4.314622e-009 -6.243344e-009 -3.245967e-008 5.886173e-009 -4.663221e-008 -2.217316e-008 -2.948801e-008 4.270333e-008 2.560044e-002 3.139617e-004 8.288709e-003 -9.700003e-003 8.491755e-003 -6.657258e-003 3.393384e-003 -9.661411e-003 -5.902453e-003 -8.686491e-003 -3.965416e-003 -3.687867e-003 3.609585e-002
<VARIANCE> 25
 6.743311e+001 4.386040e+001 5.738831e+001 5.798326e+001 6.474918e+001 5.654857e+001 5.389107e+001 4.411510e+001 4.258719e+001 4.208948e+001 3.679993e+001 3.124355e+001 1.965594e+000 1.803727e+000 1.934022e+000 2.333615e+000 2.834451e+000 2.798423e+000 2.861493e+000 2.778302e+000 2.531476e+000 2.589815e+000 2.444618e+000 2.166934e+000 2.889750e+000
<GCONST> 1.040926e+002
<STATE> 3
<MEAN> 25
 -1.205808e-008 7.471832e-008 -5.503286e-008 1.714419e-009 -4.314622e-009 -6.243344e-009 -3.245967e-008 5.886173e-009 -4.663221e-008 -2.217316e-008 -2.948801e-008 4.270333e-008 2.560044e-002 3.139617e-004 8.288709e-003 -9.700003e-003 8.491755e-003 -6.657258e-003 3.393384e-003 -9.661411e-003 -5.902453e-003 -8.686491e-003 -3.965416e-003 -3.687867e-003 3.609585e-002
<VARIANCE> 25
 6.743311e+001 4.386040e+001 5.738831e+001 5.798326e+001 6.474918e+001 5.654857e+001 5.389107e+001 4.411510e+001 4.258719e+001 4.208948e+001 3.679993e+001 3.124355e+001 1.965594e+000 1.803727e+000 1.934022e+000 2.333615e+000 2.834451e+000 2.798423e+000 2.861493e+000 2.778302e+000 2.531476e+000 2.589815e+000 2.444618e+000 2.166934e+000 2.889750e+000
<GCONST> 1.040926e+002
<STATE> 4
<MEAN> 25
 -1.205808e-008 7.471832e-008 -5.503286e-008 1.714419e-009 -4.314622e-009 -6.243344e-009 -3.245967e-008 5.886173e-009 -4.663221e-008 -2.217316e-008 -2.948801e-008 4.270333e-008 2.560044e-002 3.139617e-004 8.288709e-003 -9.700003e-003 8.491755e-003 -6.657258e-003 3.393384e-003 -9.661411e-003 -5.902453e-003 -8.686491e-003 -3.965416e-003 -3.687867e-003 3.609585e-002
<VARIANCE> 25
 6.743311e+001 4.386040e+001 5.738831e+001 5.798326e+001 6.474918e+001 5.654857e+001 5.389107e+001 4.411510e+001 4.258719e+001 4.208948e+001 3.679993e+001 3.124355e+001 1.965594e+000 1.803727e+000 1.934022e+000 2.333615e+000 2.834451e+000 2.798423e+000 2.861493e+000 2.778302e+000 2.531476e+000 2.589815e+000 2.444618e+000 2.166934e+000 2.889750e+000
<GCONST> 1.040926e+002
<TRANSP> 5
 0.000000e+000 1.000000e+000 0.000000e+000 0.000000e+000 0.000000e+000
 0.000000e+000 6.000000e-001 4.000000e-001 0.000000e+000 0.000000e+000
 0.000000e+000 0.000000e+000 6.000000e-001 4.000000e-001 0.000000e+000
 0.000000e+000 0.000000e+000 0.000000e+000 7.000000e-001 3.000000e-001
 0.000000e+000 0.000000e+000 0.000000e+000 0.000000e+000 0.000000e+000
<ENDHMM>
~h "dh"
<BEGINHMM>
<NUMSTATES> 5
<STATE> 2
<MEAN> 25
 -1.205808e-008 7.471832e-008 -5.503286e-008 1.714419e-009 -4.314622e-009 -6.243344e-009 -3.245967e-008 5.886173e-009 -4.663221e-008 -2.217316e-008 -2.948801e-008 4.270333e-008 2.560044e-002 3.139617e-004 8.288709e-003 -9.700003e-003 8.491755e-003 -6.657258e-003 3.393384e-003 -9.661411e-003 -5.902453e-003 -8.686491e-003 -3.965416e-003 -3.687867e-003 3.609585e-002
<VARIANCE> 25
 6.743311e+001 4.386040e+001 5.738831e+001 5.798326e+001 6.474918e+001 5.654857e+001 5.389107e+001 4.411510e+001 4.258719e+001 4.208948e+001 3.679993e+001 3.124355e+001 1.965594e+000 1.803727e+000 1.934022e+000 2.333615e+000 2.834451e+000 2.798423e+000 2.861493e+000 2.778302e+000 2.531476e+000 2.589815e+000 2.444618e+000 2.166934e+000 2.889750e+000
<GCONST> 1.040926e+002
<STATE> 3
<MEAN> 25
 -1.205808e-008 7.471832e-008 -5.503286e-008 1.714419e-009 -4.314622e-009 -6.243344e-009 -3.245967e-008 5.886173e-009 -4.663221e-008 -2.217316e-008 -2.948801e-008 4.270333e-008 2.560044e-002 3.139617e-004 8.288709e-003 -9.700003e-003 8.491755e-003 -6.657258e-003 3.393384e-003 -9.661411e-003 -5.902453e-003 -8.686491e-003 -3.965416e-003 -3.687867e-003 3.609585e-002
<VARIANCE> 25
 6.743311e+001 4.386040e+001 5.738831e+001 5.798326e+001 6.474918e+001 5.654857e+001 5.389107e+001 4.411510e+001 4.258719e+001 4.208948e+001 3.679993e+001 3.124355e+001 1.965594e+000 1.803727e+000 1.934022e+000 2.333615e+000 2.834451e+000 2.798423e+000 2.861493e+000 2.778302e+000 2.531476e+000 2.589815e+000 2.444618e+000 2.166934e+000 2.889750e+000
<GCONST> 1.040926e+002
<STATE> 4
<MEAN> 25
 -1.205808e-008 7.471832e-008 -5.503286e-008 1.714419e-009 -4.314622e-009 -6.243344e-009 -3.245967e-008 5.886173e-009 -4.663221e-008 -2.217316e-008 -2.948801e-008 4.270333e-008 2.560044e-002 3.139617e-004 8.288709e-003 -9.700003e-003 8.491755e-003 -6.657258e-003 3.393384e-003 -9.661411e-003 -5.902453e-003 -8.686491e-003 -3.965416e-003 -3.687867e-003 3.609585e-002
<VARIANCE> 25
 6.743311e+001 4.386040e+001 5.738831e+001 5.798326e+001 6.474918e+001 5.654857e+001 5.389107e+001 4.411510e+001 4.258719e+001 4.208948e+001 3.679993e+001 3.124355e+001 1.965594e+000 1.803727e+000 1.934022e+000 2.333615e+000 2.834451e+000 2.798423e+000 2.861493e+000 2.778302e+000 2.531476e+000 2.589815e+000 2.444618e+000 2.166934e+000 2.889750e+000
<GCONST> 1.040926e+002
<TRANSP> 5
 0.000000e+000 1.000000e+000 0.000000e+000 0.000000e+000 0.000000e+000
 0.000000e+000 6.000000e-001 4.000000e-001 0.000000e+000 0.000000e+000
 0.000000e+000 0.000000e+000 6.000000e-001 4.000000e-001 0.000000e+000
 0.000000e+000 0.000000e+000 0.000000e+000 7.000000e-001 3.000000e-001
 0.000000e+000 0.000000e+000 0.000000e+000 0.000000e+000 0.000000e+000
<ENDHMM>
~h "eh"
<BEGINHMM>
<NUMSTATES> 5
<STATE> 2
<MEAN> 25
 5.549407e+000 -3.773451e+000 1.496087e-001 3.540401e+000 -3.553923e+000 -5.461241e-001 -1.627537e+000 2.888867e-001 -7.239255e-001 -4.455581e+000 5.410084e+000 6.633595e-001 -6.957579e-002 -1.065444e+000 6.078702e-001 -1.657576e-001 -8.950635e-001 3.794031e-001 -2.848914e-001 7.529441e-001 4.536668e-001 4.196263e-002 2.279779e-001 1.066542e-001 9.995273e-001
<VARIANCE> 25
 6.431293e+001 4.510600e+001 2.919872e+001 1.082476e+002 1.010721e+002 1.622810e+002 2.744437e+001 4.912475e+001 4.542652e+001 6.050099e+001 6.541957e+001 4.084410e+001 3.128990e+000 4.448195e+000 4.012050e+000 6.017348e+000 6.388237e+000 1.146855e+001 3.926570e+000 6.331325e+000 5.392083e+000 5.330251e+000 5.150409e+000 4.056458e+000 6.521871e+000
<GCONST> 1.162967e+002
<STATE> 3
<MEAN> 25
 2.284515e+000 -1.070759e+001 8.317485e+000 3.091310e+000 -4.797889e+000 -5.762902e+000 -3.447815e+000 1.061533e+001 1.537741e+000 -3.331761e+000 4.146742e+000 -1.147653e-001 7.316417e-002 3.436293e-001 2.908644e-001 -4.514915e-001 3.483407e-001 1.416501e-001 6.042874e-001 8.922232e-004 -6.607779e-001 7.632825e-002 -1.536763e-001 4.831973e-002 -2.649592e-001
<VARIANCE> 25
 8.127368e+001 5.486044e+001 3.375726e+001 2.294357e+001 6.367868e+001 7.986632e+001 6.182472e+001 7.121152e+001 8.715655e+001 2.797475e+001 2.545382e+001 2.697678e+001 2.470328e+000 3.184742e+000 3.406760e+000 3.082560e+000 2.242588e+000 2.644166e+000 4.299675e+000 4.595855e+000 5.110883e+000 3.458196e+000 1.964812e+000 1.728621e+000 2.160587e+000
<GCONST> 1.062999e+002
<STATE> 4
<MEAN> 25
 -3.250591e-001 3.100351e+000 7.091897e+000 4.349454e+000 -7.467799e-001 -1.670855e+000 8.693390e-001 8.995677e-001 -1.424667e+000 -2.083151e-001 -4.361991e+000 -3.297451e+000 -1.912682e-001 2.569968e-001 -2.321035e-002 9.764028e-002 1.046487e-001 2.954743e-001 2.420845e-002 -4.802692e-001 -5.655428e-002 -2.740177e-002 -3.871333e-001 -6.382204e-002 -4.433043e-001
<VARIANCE> 25
 2.854911e+001 6.115414e+001 4.566901e+001 3.296992e+001 4.663351e+001 5.483783e+001 4.419353e+001 5.041796e+001 7.623990e+001 3.366221e+001 4.349109e+001 2.052751e+001 6.011195e-001 8.623605e-001 6.840054e-001 1.044038e+000 1.245583e+000 1.990112e+000 1.973564e+000 2.919759e+000 1.507049e+000 2.760413e+000 1.856571e+000 1.593830e+000 6.494571e-001
<GCONST> 9.467336e+001
<TRANSP> 5
 0.000000e+000 1.000000e+000 0.000000e+000 0.000000e+000 0.000000e+000
 0.000000e+000 8.066685e-001 1.933315e-001 0.000000e+000 0.000000e+000
 0.000000e+000 0.000000e+000 8.002524e-001 1.997476e-001 0.000000e+000
 0.000000e+000 0.000000e+000 0.000000e+000 8.812680e-001 1.187321e-001
 0.000000e+000 0.000000e+000 0.000000e+000 0.000000e+000 0.000000e+000
<ENDHMM>
~h "er"
<BEGINHMM>
<NUMSTATES> 5
<STATE> 2
<MEAN> 25
 8.554419e+000 -1.827328e+000 -5.405015e+000 2.852378e+000 -2.946251e+000 -5.190367e+000 -7.233315e+000 1.435746e+000 2.867971e+000 -1.206605e+000 -1.215708e-001 -2.680423e+000 -1.171377e-001 -1.071492e-001 -5.642430e-002 3.572187e-001 1.307147e-001 -3.253275e-001 8.631569e-002 2.294137e-001 4.246911e-001 -9.732592e-002 -2.873537e-001 8.988348e-002 -3.542568e-001
<VARIANCE> 25
 3.444355e+001 3.258399e+001 4.554879e+001 4.397145e+001 4.487325e+001 5.776246e+001 5.986259e+001 4.358062e+001 3.161493e+001 3.550280e+001 2.383652e+001 3.417319e+001 2.392487e+000 1.452753e+000 2.250568e+000 1.963271e+000 2.808649e+000 3.631676e+000 3.237328e+000 2.785843e+000 2.089779e+000 1.964055e+000 1.730855e+000 1.812924e+000 2.011469e+000
<GCONST> 1.005329e+002
<STATE> 3
<MEAN> 25
 2.300838e+000 -3.010346e+000 -1.356274e+000 5.696105e+000 3.186391e+000 -2.685589e+000 -5.984699e-001 6.138006e+000 4.766294e+000 -3.969902e+000 -2.585392e+000 7.843021e-001 -4.715197e-001 1.713651e-002 5.301284e-002 -5.224451e-001 6.181672e-001 6.157423e-001 7.629477e-001 -1.139932e-001 -1.572976e-001 5.142822e-001 -1.201164e-001 -1.856941e-002 -8.047839e-001
<VARIANCE> 25
 4.742683e+001 7.205271e+001 3.223198e+001 6.284158e+001 3.186514e+001 4.994416e+001 4.737664e+001 6.123256e+001 2.891773e+001 3.938219e+001 1.513862e+001 2.526270e+001 2.102208e+000 2.170271e+000 1.260643e+000 2.516583e+000 2.684663e+000 2.568070e+000 2.584677e+000 2.636317e+000 2.105789e+000 2.056765e+000 1.580257e+000 1.486539e+000 7.026162e-001
<GCONST> 9.851564e+001
<STATE> 4
<MEAN> 25
 -2.850727e+000 -2.999923e-001 -8.787423e-001 7.544286e-001 3.712485e+000 3.028606e+000 2.788832e+000 1.180138e+000 1.489112e+000 1.175234e+000 -3.527722e-001 5.484196e-001 -6.663014e-002 2.118070e-002 7.820733e-002 3.446798e-002 -3.816652e-002 4.423742e-002 -1.284689e-002 -1.050558e-001 -4.093709e-002 2.524724e-002 4.085496e-002 3.985368e-002 -9.117150e-002
<VARIANCE> 25
 5.276200e+000 2.021117e+001 1.676648e+001 2.283565e+001 1.110279e+001 1.890665e+001 1.450556e+001 1.782750e+001 1.580473e+001 1.787362e+001 1.720284e+001 1.592245e+001 3.089100e-001 4.603197e-001 5.953129e-001 9.116165e-001 1.044485e+000 1.172547e+000 1.198517e+000 1.551829e+000 1.464018e+000 1.508296e+000 1.493869e+000 1.191193e+000 1.959946e-001
<GCONST> 7.672279e+001
<TRANSP> 5
 0.000000e+000 1.000000e+000 0.000000e+000 0.000000e+000 0.000000e+000
 0.000000e+000 8.084550e-001 1.915450e-001 0.000000e+000 0.000000e+000
 0.000000e+000 0.000000e+000 7.589336e-001 2.410664e-001 0.000000e+000
 0.000000e+000 0.000000e+000 0.000000e+000 9.542575e-001 4.574253e-002
 0.000000e+000 0.000000e+000 0.000000e+000 0.000000e+000 0.000000e+000
<ENDHMM>
~h "ey"
<BEGINHMM>
<NUMSTATES> 5
<STATE> 2
<MEAN> 25
 1.595259e+000 -3.261669e+000 4.246304e+000 -1.671610e+000 -5.901771e+000 -3.739860e+000 1.455037e+000 9.203961e-001 -3.903515e-001 5.700840e-001 1.465665e+000 -1.564263e+000 9.317892e-001 -3.849177e-001 1.175299e+000 -1.323034e-001 -1.570124e+000 -9.015396e-001 1.908495e-001 -4.059468e-002 -5.846079e-001 -1.195438e-001 8.012461e-001 8.236355e-002 1.145688e+000
<VARIANCE> 25
 3.560460e+001 2.723402e+001 3.694352e+001 4.402493e+001 3.049566e+001 6.142653e+001 7.329375e+001 4.519617e+001 2.021631e+001 4.998156e+001 4.746219e+001 3.609125e+001 5.042437e+000 2.375792e+000 3.165969e+000 2.409015e+000 5.391426e+000 5.870263e+000 6.621078e+000 3.452155e+000 2.927123e+000 2.826274e+000 2.695464e+000 1.795609e+000 3.683028e+000
<GCONST> 1.063156e+002
<STATE> 3
<MEAN> 25
 4.092375e+000 -5.682629e+000 8.865252e+000 -1.458441e+000 -1.074360e+001 -6.511200e+000 -5.283914e-001 1.201710e+000 -3.957765e+000 -1.473229e+000 7.277437e+000 7.075930e-001 -9.220253e-002 2.547259e-001 9.370496e-001 -1.185955e+000 -1.082861e+000 7.972863e-001 1.433071e-001 -4.252704e-001 -8.381369e-001 2.974450e-001 6.220254e-001 4.595895e-002 -5.831189e-002
<VARIANCE> 25
 1.614430e+001 1.821274e+001 3.186378e+001 5.399272e+001 5.114821e+001 6.444521e+001 4.757257e+001 4.283796e+001 3.070925e+001 4.315728e+001 5.973876e+001 2.169222e+001 5.487864e-001 9.550882e-001 2.039833e+000 1.638935e+000 3.229628e+000 2.576298e+000 4.164427e+000 3.086503e+000 3.085524e+000 2.621241e+000 2.310820e+000 1.853132e+000 7.211467e-001
<GCONST> 9.760870e+001
<STATE> 4
<MEAN> 25
 2.479483e+000 4.549195e-001 1.282218e+001 -4.252150e+000 -1.180275e+001 -2.970740e+000 -6.626701e+000 -2.154983e+000 -9.218296e+000 -5.769061e-001 5.260419e+000 -1.338449e+000 -6.500821e-002 6.190826e-001 -5.496856e-002 2.849874e-001 3.575509e-001 4.000770e-002 -1.110540e-002 -1.940980e-001 -1.481901e-001 1.608090e-001 -4.404580e-001 -1.107645e-001 -5.665851e-001
<VARIANCE> 25
 1.268485e+001 2.989866e+001 3.880780e+001 2.780655e+001 3.886760e+001 6.218309e+001 4.535599e+001 5.312848e+001 4.303199e+001 3.973941e+001 3.760050e+001 5.381854e+001 4.398168e-001 1.084870e+000 1.877952e+000 1.440920e+000 2.280094e+000 2.101166e+000 2.705084e+000 3.110462e+000 2.243132e+000 2.064092e+000 1.900133e+000 2.766596e+000 9.163071e-001
<GCONST> 9.656030e+001
<TRANSP> 5
 0.000000e+000 1.000000e+000 0.000000e+000 0.000000e+000 0.000000e+000
 0.000000e+000 5.976326e-001 4.023674e-001 0.000000e+000 0.000000e+000
 0.000000e+000 0.000000e+000 6.679771e-001 3.320229e-001 0.000000e+000
 0.000000e+000 0.000000e+000 0.000000e+000 9.162943e-001 8.370569e-002
 0.000000e+000 0.000000e+000 0.000000e+000 0.000000e+000 0.000000e+000
<ENDHMM>
~h "hh"
<BEGINHMM>
<NUMSTATES> 5
<STATE> 2
<MEAN> 25
 -1.951984e+000 -1.106379e+001 -1.084005e+001 -6.611341e-001 9.634040e+000 -1.039550e+000 1.970991e+000 -1.379580e+000 3.195337e+000 -2.103330e+000 2.307408e+000 2.839917e+000 1.739462e-001 -3.933194e-001 1.543556e-001 9.463158e-002 6.199129e-001 7.764612e-001 8.243771e-002 -1.015836e-001 -1.217516e-001 1.803900e-001 1.838853e-001 -2.033059e-001 -1.351232e-001
<VARIANCE> 25
 2.616051e+001 3.338918e+001 8.522360e+001 4.494263e+001 4.396304e+001 4.088768e+001 1.103483e+001 3.282480e+001 5.598639e+001 2.896114e+001 5.705992e+001 3.599945e+001 1.199363e+000 2.272153e+000 1.385258e+000 1.868439e+000 3.254367e+000 1.849445e+000 8.618110e-001 2.375515e+000 4.172842e+000 3.583655e+000 4.004721e+000 4.615829e+000 3.022713e+000
<GCONST> 1.005682e+002
<STATE> 3
<MEAN> 25
 -1.456511e-001 -1.197056e+001 -4.474317e+000 6.238397e-001 1.405964e+001 1.579572e+000 -6.374316e-001 -3.083533e+000 -9.572316e-001 9.347449e-001 3.869965e+000 -1.875172e+000 4.982891e-001 1.609485e-001 -2.071360e-001 -3.597592e-001 -4.495056e-001 -3.381343e-001 -1.610194e-001 -2.387389e-001 -6.067611e-002 6.915099e-002 -4.303236e-002 -7.315812e-001 1.486255e+000
<VARIANCE> 25
 2.934536e+001 3.952430e+001 4.092107e+001 3.287817e+001 4.374979e+001 6.261370e+001 1.803977e+001 3.299071e+001 2.237148e+001 2.486700e+001 3.504751e+001 4.145329e+001 3.991461e+000 2.565863e+000 4.096470e+000 3.227344e+000 4.791649e+000 2.664672e+000 2.671837e+000 4.926812e+000 2.473249e+000 2.284189e+000 1.838469e+000 2.424757e+000 3.091271e+000
<GCONST> 1.025017e+002
<STATE> 4
<MEAN> 25
 -2.402319e+000 1.122570e+000 6.433873e-001 6.856875e+000 6.341309e+000 3.367802e+000 2.182681e+000 -1.222892e-001 4.717592e-001 -1.315378e-001 -5.329528e-002 -5.227438e-001 2.915520e-002 -2.906568e-001 -2.824740e-001 -9.053651e-002 -2.839259e-001 -1.519389e-001 7.348581e-002 1.914070e-001 -2.357577e-001 -2.509829e-001 2.074154e-001 -8.349095e-002 5.859877e-001
<VARIANCE> 25
 1.227288e+001 1.346289e+002 7.294249e+001 4.944510e+001 2.127277e+001 1.702567e+001 1.676538e+001 1.863138e+001 2.174278e+001 1.851674e+001 5.574175e+001 2.936274e+001 8.528093e-001 1.752703e+000 1.876187e+000 1.803535e+000 2.376799e+000 1.335606e+000 2.287461e+000 2.188870e+000 1.438725e+000 2.592141e+000 2.264705e+000 2.842541e+000 2.159442e+000
<GCONST> 9.491724e+001
<TRANSP> 5
 0.000000e+000 1.000000e+000 0.000000e+000 0.000000e+000 0.000000e+000
 0.000000e+000 8.872632e-001 1.127368e-001 0.000000e+000 0.000000e+000
 0.000000e+000 0.000000e+000 8.739331e-001 1.260670e-001 0.000000e+000
 0.000000e+000 0.000000e+000 0.000000e+000 9.107564e-001 8.924362e-002
 0.000000e+000 0.000000e+000 0.000000e+000 0.000000e+000 0.000000e+000
<ENDHMM>
~h "ih"
<BEGINHMM>
<NUMSTATES> 5
<STATE> 2
<MEAN> 25
 1.039758e+000 3.734861e+000 2.000004e+000 2.085886e+000 -1.827502e+000 -4.799485e+000 -8.739424e-001 -2.611509e+000 -9.016904e-001 -2.771519e+000 -1.264135e+000 -1.143490e+000 -6.784585e-002 3.408952e-002 1.390896e-001 3.742285e-001 4.699134e-001 8.813094e-002 -4.731290e-001 -3.192426e-001 -1.530707e-001 1.644843e-002 5.916833e-002 2.299218e-001 -1.001053e-001
<VARIANCE> 25
 6.836298e+001 2.506467e+001 2.700423e+001 1.797375e+001 7.381094e+001 5.452230e+001 4.208905e+001 3.644490e+001 3.661275e+001 2.190064e+001 2.008299e+001 2.321923e+001 3.387493e+000 1.250452e+000 1.837842e+000 1.408331e+000 4.013728e+000 2.708083e+000 5.016836e+000 2.153622e+000 3.708660e+000 2.042093e+000 1.532448e+000 2.077823e+000 1.582868e+000
<GCONST> 9.884818e+001
<STATE> 3
<MEAN> 25
 1.899683e+000 1.681292e+000 5.206802e+000 6.533013e+000 6.820487e+000 -1.171901e+000 -8.592875e+000 -4.499269e+000 6.399762e-001 -2.634644e+000 -1.113280e+000 -1.879592e+000 -4.747538e-001 -1.575408e-001 -3.654967e-002 -7.028037e-002 -5.801439e-004 2.273226e-001 4.604222e-001 4.636608e-001 3.749537e-001 2.295592e-001 -9.028569e-002 1.016266e-001 -4.156466e-001
<VARIANCE> 25
 3.164342e+001 3.153549e+001 3.942845e+001 3.200092e+001 4.255565e+001 3.395756e+001 1.092669e+002 5.912341e+001 1.943893e+001 3.304614e+001 1.888846e+001 2.189272e+001 9.073886e-001 1.227363e+000 2.005273e+000 1.835732e+000 1.392156e+000 2.537366e+000 3.614985e+000 2.169438e+000 2.106034e+000 2.086602e+000 1.498697e+000 1.852035e+000 4.350696e-001
<GCONST> 9.493347e+001
<STATE> 4
<MEAN> 25
 -3.035348e+000 -7.451103e-001 -3.288811e-002 -3.331005e-001 2.859081e+000 2.114581e+000 1.831493e+000 8.708699e-001 1.181511e+000 1.291693e+000 6.161688e-001 1.686056e+000 -2.162753e-002 -3.393154e-002 -6.897219e-002 -5.633951e-002 -6.804922e-003 -5.963152e-003 3.695494e-002 -4.152129e-002 -3.265141e-002 5.783376e-002 -5.692458e-003 -3.515151e-003 2.826892e-002
<VARIANCE> 25
 8.469680e+000 8.957118e+000 1.005672e+001 1.364945e+001 1.461226e+001 1.378213e+001 1.869533e+001 1.811835e+001 1.496181e+001 1.703549e+001 1.446525e+001 1.334062e+001 3.857406e-001 5.249897e-001 5.782211e-001 8.492622e-001 1.004415e+000 1.112683e+000 1.405738e+000 1.310272e+000 1.445550e+000 1.576893e+000 1.273976e+000 1.302654e+000 2.432417e-001
<GCONST> 7.546222e+001
<TRANSP> 5
 0.000000e+000 1.000000e+000 0.000000e+000 0.000000e+000 0.000000e+000
 0.000000e+000 7.468268e-001 2.531732e-001 0.000000e+000 0.000000e+000
 0.000000e+000 0.000000e+000 7.200893e-001 2.799107e-001 0.000000e+000
 0.000000e+000 0.000000e+000 0.000000e+000 9.556406e-001 4.435937e-002
 0.000000e+000 0.000000e+000 0.000000e+000 0.000000e+000 0.000000e+000
<ENDHMM>
~h "iy"
<BEGINHMM>
<NUMSTATES> 5
<STATE> 2
<MEAN> 25
 -2.989256e+000 1.950931e+000 6.952284e+000 3.801928e-001 -5.789589e+000 -3.145838e+000 1.405422e+000 -4.711844e+000 -4.674940e+000 1.371614e+000 3.432537e+000 1.493692e+000 1.382545e-001 -1.680502e-001 1.287319e+000 -8.435192e-001 -8.554415e-001 1.593680e-002 -7.738385e-001 -6.178467e-001 -6.590191e-001 2.454509e-001 -5.506644e-003 -9.107530e-002 1.233440e+000
<VARIANCE> 25
 6.265579e+001 5.036979e+001 1.132424e+002 1.092686e+002 7.874001e+001 9.703256e+001 6.490942e+001 9.770090e+001 5.642381e+001 7.938792e+001 8.949982e+001 5.730742e+001 3.786772e+000 3.201918e+000 8.245414e+000 7.151007e+000 6.433095e+000 7.242701e+000 7.103498e+000 7.099667e+000 5.270375e+000 5.206930e+000 8.148686e+000 4.098769e+000 7.823061e+000
<GCONST> 1.212853e+002
<STATE> 3
<MEAN> 25
 2.210164e+000 1.131362e+000 1.649410e+001 -6.109612e+000 -1.241899e+001 4.321219e-001 -7.902061e+000 -7.813410e+000 -1.157512e+001 -1.137965e-001 3.626312e+000 2.119740e+000 2.669329e-001 3.525862e-001 1.949278e-001 -3.671456e-001 -1.067931e-001 6.741063e-002 -1.089756e-001 1.900284e-001 -2.999837e-001 1.300533e-001 -1.273123e-001 -1.143661e-001 -3.522927e-001
<VARIANCE> 25
 1.496765e+001 1.861814e+001 5.477250e+001 7.322678e+001 3.713035e+001 6.515117e+001 5.744127e+001 3.390174e+001 4.716387e+001 1.123343e+002 4.566140e+001 8.373518e+001 7.351546e-001 1.720998e+000 4.038235e+000 3.180823e+000 2.635970e+000 3.281483e+000 4.473352e+000 2.503091e+000 2.412574e+000 2.116937e+000 3.145595e+000 2.526955e+000 1.871012e+000
<GCONST> 1.037546e+002
<STATE> 4
<MEAN> 25
 1.442613e+000 4.623312e+000 1.336415e+001 -8.162752e+000 -8.827959e+000 -1.235812e+000 -5.229077e+000 -5.602677e+000 -7.488445e+000 3.555245e+000 -1.864739e+000 -1.216561e+000 -1.260621e-001 9.458100e-002 -8.097166e-001 7.345800e-001 6.780573e-001 -1.373378e-001 3.756177e-001 3.084394e-001 4.700957e-001 -2.384232e-001 -4.548080e-002 1.040096e-001 -9.018001e-001
<VARIANCE> 25
 1.504653e+001 1.971943e+001 4.890348e+001 1.106431e+002 4.621485e+001 3.460836e+001 6.585147e+001 3.146003e+001 4.757026e+001 7.459010e+001 5.547637e+001 2.896486e+001 7.733991e-001 1.434433e+000 1.639269e+000 2.347525e+000 2.910487e+000 1.999605e+000 2.768684e+000 2.363859e+000 2.667520e+000 2.431079e+000 2.336759e+000 2.244617e+000 1.553248e+000
<GCONST> 9.986410e+001
<TRANSP> 5
 0.000000e+000 1.000000e+000 0.000000e+000 0.000000e+000 0.000000e+000
 0.000000e+000 8.823087e-001 1.176913e-001 0.000000e+000 0.000000e+000
 0.000000e+000 0.000000e+000 8.084748e-001 1.915252e-001 0.000000e+000
 0.000000e+000 0.000000e+000 0.000000e+000 9.158038e-001 8.419621e-002
 0.000000e+000 0.000000e+000 0.000000e+000 0.000000e+000 0.000000e+000
<ENDHMM>
~h "jh"
<BEGINHMM>
<NUMSTATES> 5
<STATE> 2
<MEAN> 25
 5.473358e+000 7.090190e-001 5.646532e+000 5.252946e+000 5.263468e+000 2.650839e+000 -7.697855e+000 -8.688119e+000 -2.164179e-001 -3.683195e+000 -6.668477e+000 -4.754306e+000 2.329646e-001 -2.516328e-001 2.846561e-001 3.599155e-002 2.407023e-001 2.162662e-002 -7.102707e-001 -4.442641e-001 -2.203959e-001 -2.909826e-001 -3.495118e-002 -1.577153e-002 2.924133e-001
<VARIANCE> 25
 1.425870e+001 1.869674e+001 2.961674e+001 3.837321e+001 5.144750e+001 1.443247e+001 8.393937e+001 4.436609e+001 2.730273e+001 1.946541e+001 2.159935e+001 1.548272e+001 7.502941e-001 1.793799e+000 2.024072e+000 2.000324e+000 6.113038e+000 2.255497e+000 6.721870e+000 5.874828e+000 1.739258e+000 1.991287e+000 2.871037e+000 3.049032e+000 2.495550e+000
<GCONST> 9.781052e+001
<STATE> 3
<MEAN> 25
 1.132365e+000 -3.179106e+000 5.231242e+000 6.987346e+000 4.164423e+000 1.826187e+000 -4.230938e+000 -1.582011e-002 2.184733e+000 -5.005043e+000 6.335645e-002 1.016178e+000 9.867299e-002 -8.410397e-001 -1.067398e-001 2.541738e-001 -3.663645e-001 -1.847214e-001 -5.568802e-001 -2.367960e-001 2.097821e-001 -4.509138e-001 6.758123e-002 -1.222680e-001 8.037636e-001
<VARIANCE> 25
 1.450986e+001 7.005744e+001 2.593775e+001 2.241709e+001 3.533319e+001 1.921797e+001 5.951329e+001 4.877317e+001 4.029256e+001 3.954368e+001 1.672003e+001 1.766976e+001 2.825976e+000 1.040252e+001 3.939219e+000 4.582639e+000 6.459755e+000 2.897151e+000 1.019145e+001 8.653666e+000 8.063688e+000 4.009223e+000 2.614656e+000 2.824000e+000 7.720055e+000
<GCONST> 1.079948e+002
<STATE> 4
<MEAN> 25
 7.682860e+000 -5.348063e+000 2.102573e-001 3.650382e+000 3.746072e+000 1.158751e+000 -1.164888e+001 -1.082614e+001 -3.417099e+000 -6.618403e+000 4.516305e+000 -1.961428e+000 -5.746218e-001 7.336489e-001 -6.299216e-001 -1.053522e+000 -2.958458e-001 -3.314577e-001 1.153610e+000 2.075262e-002 -4.576354e-001 5.153258e-001 1.353517e+000 3.718552e-001 -3.691534e-001
<VARIANCE> 25
 2.449717e+001 1.130164e+001 4.724814e+001 1.057740e+001 2.272320e+001 4.219067e+001 3.362391e+001 3.299311e+001 2.188886e+001 8.843297e+000 2.950660e+001 7.727848e+000 7.674439e+000 1.988782e+000 8.513177e+000 8.085731e-001 2.063106e+000 1.354739e+000 3.080509e+000 5.281975e+000 5.081608e+000 1.191014e+000 1.362189e+000 5.294818e-001 1.290752e+000
<GCONST> 9.255743e+001
<TRANSP> 5
 0.000000e+000 1.000000e+000 0.000000e+000 0.000000e+000 0.000000e+000
 0.000000e+000 9.477119e-001 5.228811e-002 0.000000e+000 0.000000e+000
 0.000000e+000 0.000000e+000 9.012511e-001 9.874888e-002 0.000000e+000
 0.000000e+000 0.000000e+000 0.000000e+000 8.658081e-001 1.341918e-001
 0.000000e+000 0.000000e+000 0.000000e+000 0.000000e+000 0.000000e+000
<ENDHMM>
~h "ng"
<BEGINHMM>
<NUMSTATES> 5
<STATE> 2
<MEAN> 25
 3.365081e+000 6.405070e+000 -5.740917e-001 1.985111e+000 3.906116e+000 -1.054914e+000 -6.408023e-002 -1.941242e+000 3.091075e+000 2.749092e+000 -6.506990e-001 -3.703916e+000 -4.145296e-001 -2.183661e-001 2.545688e-002 -7.397462e-002 -4.670545e-002 2.067589e-001 4.132752e-001 5.286259e-001 1.807337e-001 2.815467e-001 9.438592e-002 3.798974e-001 -2.347919e-001
<VARIANCE> 25
 2.072333e+001 1.132727e+001 1.623531e+001 1.321814e+001 5.541046e+000 8.358171e+000 1.835271e+001 2.633264e+001 1.372651e+001 1.151414e+001 8.591616e+000 1.610893e+001 2.374626e-001 7.891038e-001 7.833393e-001 4.561003e-001 6.549445e-001 5.966669e-001 1.294024e+000 8.600309e-001 9.567813e-001 9.828458e-001 5.097498e-001 4.784359e-001 2.008701e-001
<GCONST> 7.016914e+001
<STATE> 3
<MEAN> 25
 -3.537740e+000 -5.903843e-001 -2.394105e-001 9.959878e-001 4.663304e+000 2.417382e-001 5.880032e+000 3.928735e+000 -2.779326e-001 4.153884e+000 -4.864871e-001 1.913263e+000 -5.467643e-002 -9.876161e-002 -9.295709e-003 -4.772887e-003 -5.188084e-002 -7.467735e-002 -2.720236e-003 -1.037413e-002 -1.708572e-001 -4.786995e-002 -1.310831e-001 4.343795e-002 -1.165695e-001
<VARIANCE> 25
 1.433396e+000 2.824089e+000 5.326602e+000 4.490580e+000 5.902853e+000 5.145620e+000 9.713973e+000 1.068590e+001 1.317240e+001 9.464208e+000 1.567474e+001 5.886159e+000 8.927361e-002 2.902114e-001 2.432846e-001 2.769983e-001 3.982061e-001 4.315307e-001 8.560771e-001 9.216093e-001 7.230297e-001 7.452485e-001 7.240277e-001 3.848208e-001 4.003755e-002
<GCONST> 5.446334e+001
<STATE> 4
<MEAN> 25
 -3.415069e+000 -1.492518e+000 4.444526e-001 8.543832e-001 2.243915e+000 -9.271571e-001 5.572546e+000 5.134389e+000 -5.268080e-001 4.031557e+000 -1.844339e+000 1.818486e+000 1.457257e-001 -1.853919e-001 5.320913e-001 9.439626e-002 -8.708397e-001 -6.580454e-001 -1.128165e-001 5.870258e-002 -2.619523e-001 -3.994438e-001 7.081203e-001 2.080767e-001 4.064519e-001
<VARIANCE> 25
 3.708781e+000 1.738691e+000 2.263199e+000 6.292780e+000 8.334146e+000 5.084079e+000 4.966510e+000 5.754307e+000 1.093809e+001 7.711375e+000 1.266163e+001 7.934339e+000 4.550141e-001 4.032788e-001 7.909767e-001 9.596298e-001 1.214291e+000 1.832157e-001 3.927302e-001 2.970695e-001 3.483586e-001 1.605152e+000 9.182810e-001 4.128822e-001 4.602759e-001
<GCONST> 5.866113e+001
<TRANSP> 5
 0.000000e+000 1.000000e+000 0.000000e+000 0.000000e+000 0.000000e+000
 0.000000e+000 9.554853e-001 4.451468e-002 0.000000e+000 0.000000e+000
 0.000000e+000 0.000000e+000 9.652997e-001 3.470030e-002 0.000000e+000
 0.000000e+000 0.000000e+000 0.000000e+000 7.386325e-001 2.613675e-001
 0.000000e+000 0.000000e+000 0.000000e+000 0.000000e+000 0.000000e+000
<ENDHMM>
~h "ow"
<BEGINHMM>
<NUMSTATES> 5
<STATE> 2
<MEAN> 25
 6.468431e+000 1.342768e+000 -7.824125e+000 -1.121996e+001 -1.990583e+000 5.675718e+000 -2.092826e+000 -8.957096e-001 -2.226131e+000 8.816130e-001 3.824548e+000 -2.613426e+000 4.300141e-001 3.188735e-001 -8.160765e-002 -4.052759e-001 -3.716863e-001 -7.917924e-002 2.696448e-001 1.882150e-002 -2.156744e-001 -2.670392e-001 -9.039059e-002 -5.626007e-002 1.166689e-001
<VARIANCE> 25
 6.064442e+001 2.330175e+001 3.978685e+001 1.007183e+002 2.704725e+001 2.514904e+001 4.835258e+001 4.690291e+001 2.422451e+001 2.421151e+001 1.873047e+001 6.382145e+001 3.356421e+000 1.305177e+000 1.898004e+000 6.486229e+000 3.089390e+000 1.915301e+000 3.432542e+000 2.287558e+000 3.278680e+000 2.297037e+000 1.638548e+000 2.881338e+000 2.402037e+000
<GCONST> 1.014796e+002
<STATE> 3
<MEAN> 25
 9.960657e+000 9.127915e+000 -4.350041e+000 -7.393471e+000 -3.377047e+000 4.444259e+000 6.050037e+000 1.353188e+000 -1.608792e+000 -2.158615e+000 -2.541157e-001 -3.837578e-002 -7.207429e-001 -2.498364e-001 1.719448e-001 1.122172e+000 6.983442e-001 -1.113649e-001 2.148485e-001 -2.718483e-001 8.329263e-003 1.874863e-001 2.509073e-002 2.644277e-001 -6.460561e-001
<VARIANCE> 25
 3.127403e+001 2.525642e+001 1.741791e+001 4.807508e+001 3.309472e+001 2.776894e+001 4.312251e+001 4.001441e+001 2.019950e+001 2.559639e+001 2.265176e+001 5.470063e+001 8.600255e-001 1.189547e+000 1.587819e+000 2.341838e+000 1.317159e+000 1.985925e+000 2.736647e+000 2.388756e+000 1.759940e+000 1.467656e+000 2.863360e+000 1.849657e+000 2.303274e-001
<GCONST> 9.231869e+001
<STATE> 4
<MEAN> 25
 -1.946319e+000 1.923541e+000 2.144073e+000 4.978320e+000 3.671234e+000 1.787207e+000 3.155738e+000 1.075768e+000 1.123753e+000 -2.998100e-001 -2.229088e+000 1.147317e+000 -1.743108e-001 -2.027281e-001 -5.324710e-002 3.079557e-002 -1.044664e-002 -3.686634e-002 -1.717017e-002 2.634685e-001 1.238984e-001 -1.409570e-002 -8.439751e-002 -2.617937e-002 -2.331250e-001
<VARIANCE> 25
 1.140501e+001 2.404745e+001 2.081026e+001 4.518588e+001 1.517458e+001 1.537204e+001 2.665456e+001 2.787169e+001 2.296124e+001 2.183390e+001 3.171226e+001 2.303461e+001 2.709540e-001 6.360314e-001 8.279329e-001 1.268662e+000 1.295172e+000 1.460336e+000 1.820958e+000 2.269186e+000 1.577483e+000 2.231555e+000 2.244174e+000 2.312429e+000 2.121195e-001
<GCONST> 8.498244e+001
<TRANSP> 5
 0.000000e+000 1.000000e+000 0.000000e+000 0.000000e+000 0.000000e+000
 0.000000e+000 9.171326e-001 8.286736e-002 0.000000e+000 0.000000e+000
 0.000000e+000 0.000000e+000 9.071190e-001 9.288099e-002 0.000000e+000
 0.000000e+000 0.000000e+000 0.000000e+000 9.330098e-001 6.699018e-002
 0.000000e+000 0.000000e+000 0.000000e+000 0.000000e+000 0.000000e+000
<ENDHMM>
~h "oy"
<BEGINHMM>
<NUMSTATES> 5
<STATE> 2
<MEAN> 25
 1.275612e+001 6.697826e+000 -2.402474e+000 -4.494189e+000 -7.654007e+000 -7.725913e+000 -4.981186e+000 2.845747e+000 2.302147e+000 -1.250293e+000 -1.181861e+000 -1.193160e+000 2.054902e-001 -1.851549e-001 2.753564e-001 2.860708e-001 5.871298e-001 -6.300726e-004 -1.969365e-001 -1.472007e-001 -3.057872e-001 -1.128224e-001 5.516730e-002 -2.656769e-001 2.076953e-001
<VARIANCE> 25
 1.113379e+001 2.244563e+001 2.983388e+001 1.176740e+001 6.535225e+001 7.742110e+001 2.682636e+001 3.479638e+001 4.253487e+001 5.159961e+001 1.389524e+001 1.112725e+001 2.005921e+000 1.926536e+000 2.313509e+000 1.463200e+000 3.629154e+000 4.284310e+000 2.511101e+000 2.211579e+000 2.335564e+000 2.959087e+000 1.537755e+000 1.603042e+000 3.916423e-001
<GCONST> 9.435928e+001
<STATE> 3
<MEAN> 25
 -6.523559e+000 -9.066688e+000 1.268026e+001 5.958228e+000 1.276390e+000 3.488159e+000 -3.291686e+000 -7.116552e-001 1.817796e+000 -7.674756e+000 1.689628e+000 -2.519398e+000 -3.677528e+000 -2.131020e+000 1.401246e+000 2.212096e-001 -2.162610e+000 4.884068e-001 1.264787e+000 5.540894e-001 1.302307e+000 -1.135442e-001 1.043682e+000 8.395703e-001 1.885151e-001
<VARIANCE> 25
 1.148526e+002 3.762221e+001 6.336679e+001 2.245986e+001 8.857799e+001 2.483935e+001 2.545969e+001 3.572844e+001 4.480054e+001 9.816544e+000 1.656792e+001 1.329339e+001 5.505940e+000 1.655005e+000 3.288025e+000 2.429737e+000 4.292542e+000 3.156442e+000 8.918887e-001 1.917792e+000 1.433516e+000 2.045192e+000 2.001976e+000 1.621879e+000 2.263291e-001
<GCONST> 9.576759e+001
<STATE> 4
<MEAN> 25
 -1.363749e+001 -1.213725e+001 1.214430e+001 2.741594e+000 -2.030980e+000 5.291791e+000 1.939293e+000 -6.256084e-001 1.166577e+000 -6.913038e+000 4.057606e+000 2.333031e+000 6.620154e-001 7.795367e-001 -7.408434e-001 -2.615519e-001 9.015502e-001 4.107626e-001 8.175404e-002 -4.248578e-001 -8.673190e-001 3.137001e-001 -1.176834e-001 1.067271e-001 -1.019438e+000
<VARIANCE> 25
 4.852604e+001 4.112082e+001 4.120951e+001 2.515448e+001 2.072603e+001 1.856529e+001 1.557940e+001 7.862851e+000 2.474426e+001 2.022272e+001 8.687675e+000 1.544823e+001 1.870535e+000 1.871970e+000 1.087151e+000 5.320268e-001 6.250362e-001 1.532664e+000 2.213650e+000 8.117292e-001 1.758672e+000 1.616701e+000 1.340883e+000 1.718229e+000 2.741717e+000
<GCONST> 8.650182e+001
<TRANSP> 5
 0.000000e+000 1.000000e+000 0.000000e+000 0.000000e+000 0.000000e+000
 0.000000e+000 9.476936e-001 5.230639e-002 0.000000e+000 0.000000e+000
 0.000000e+000 0.000000e+000 7.925638e-001 2.074362e-001 0.000000e+000
 0.000000e+000 0.000000e+000 0.000000e+000 9.010165e-001 9.898355e-002
 0.000000e+000 0.000000e+000 0.000000e+000 0.000000e+000 0.000000e+000
<ENDHMM>
~h "sh"
<BEGINHMM>
<NUMSTATES> 5
<STATE> 2
<MEAN> 25
 5.000237e+000 8.189677e+000 2.221620e+000 3.306890e+000 2.585553e+000 -5.813316e-001 3.397053e+000 -2.883244e+000 -3.285743e+000 9.798756e-001 -2.175077e+000 -3.868602e+000 -3.028495e-001 2.923687e-001 -1.890432e-001 7.108626e-001 1.099101e+000 -2.967125e-001 2.077814e-001 7.195954e-001 7.723143e-001 3.006249e-001 -9.084049e-001 -3.329772e-001 -8.461196e-001
<VARIANCE> 25
 2.764009e+000 7.447464e+000 1.901927e+001 2.688600e+001 2.073749e+001 3.029416e+001 7.450067e+000 1.690997e+001 1.627647e+001 1.304537e+001 1.614614e+001 1.706145e+001 1.488531e-001 7.241268e-001 2.013128e-001 1.359254e+000 1.363024e+000 1.524082e+000 1.130384e+000 2.248162e+000 1.553505e+000 9.606190e-001 2.411530e+000 1.492316e+000 4.134479e-001
<GCONST> 7.640215e+001
<STATE> 3
<MEAN> 25
 3.571347e+000 7.877063e+000 -5.865644e-001 1.679309e+000 6.131797e+000 1.205229e+000 3.188175e+000 4.249109e-001 2.195830e+000 3.552345e+000 -2.569294e+000 -3.239826e+000 -7.725251e-001 -2.899671e-001 4.691157e-001 -1.507136e-001 -2.476133e-001 5.792979e-002 2.094996e-001 4.818930e-001 2.767513e-001 5.604456e-001 7.509140e-002 5.937971e-001 -7.152593e-001
<VARIANCE> 25
 6.401552e+000 1.234313e+001 2.879326e+001 1.376790e+001 1.225906e+001 1.611645e+001 1.053012e+001 1.287864e+001 5.380503e+000 1.451955e+001 6.493838e+000 2.396895e+001 8.317227e-001 7.078198e-001 1.450170e+000 1.303122e+000 9.340850e-001 8.759420e-001 2.105654e+000 3.181567e-001 8.885817e-001 6.210585e-001 7.972533e-001 1.148053e+000 5.254332e-001
<GCONST> 7.407974e+001
<STATE> 4
<MEAN> 25
