~o
<STREAMINFO> 1 25
<VECSIZE> 25<NULLD><MFCC_D_N_Z_0><DIAGC>
~h "a"
<BEGINHMM>
<NUMSTATES> 5
<STATE> 2
<MEAN> 25
 -1.118406e-008 6.902663e-008 -6.127934e-008 -1.132241e-009 1.805760e-009 2.941641e-009 -3.920247e-008 -3.669770e-009 -5.191560e-008 -1.454802e-008 -2.627090e-008 3.876559e-008 2.510028e-002 3.968836e-004 8.013876e-003 -9.237975e-003 8.363929e-003 -6.403908e-003 3.811424e-003 -9.137135e-003 -5.245406e-003 -8.095243e-003 -3.207545e-003 -3.381838e-003 3.557804e-002
<VARIANCE> 25
 6.664439e+001 4.403650e+001 5.783500e+001 5.743623e+001 6.515208e+001 5.500425e+001 5.372772e+001 4.345287e+001 4.255812e+001 4.180091e+001 3.585940e+001 3.108589e+001 1.968051e+000 1.809448e+000 1.938954e+000 2.304791e+000 2.836484e+000 2.744093e+000 2.863587e+000 2.754002e+000 2.523799e+000 2.575277e+000 2.427561e+000 2.158062e+000 2.903915e+000
<GCONST> 1.039577e+002
<STATE> 3
<MEAN> 25
 -1.118406e-008 6.902663e-008 -6.127934e-008 -1.132241e-009 1.805760e-009 2.941641e-009 -3.920247e-008 -3.669770e-009 -5.191560e-008 -1.454802e-008 -2.627090e-008 3.876559e-008 2.510028e-002 3.968836e-004 8.013876e-003 -9.237975e-003 8.363929e-003 -6.403908e-003 3.811424e-003 -9.137135e-003 -5.245406e-003 -8.095243e-003 -3.207545e-003 -3.381838e-003 3.557804e-002
<VARIANCE> 25
 6.664439e+001 4.403650e+001 5.783500e+001 5.743623e+001 6.515208e+001 5.500425e+001 5.372772e+001 4.345287e+001 4.255812e+001 4.180091e+001 3.585940e+001 3.108589e+001 1.968051e+000 1.809448e+000 1.938954e+000 2.304791e+000 2.836484e+000 2.744093e+000 2.863587e+000 2.754002e+000 2.523799e+000 2.575277e+000 2.427561e+000 2.158062e+000 2.903915e+000
<GCONST> 1.039577e+002
<STATE> 4
<MEAN> 25
 -1.118406e-008 6.902663e-008 -6.127934e-008 -1.132241e-009 1.805760e-009 2.941641e-009 -3.920247e-008 -3.669770e-009 -5.191560e-008 -1.454802e-008 -2.627090e-008 3.876559e-008 2.510028e-002 3.968836e-004 8.013876e-003 -9.237975e-003 8.363929e-003 -6.403908e-003 3.811424e-003 -9.137135e-003 -5.245406e-003 -8.095243e-003 -3.207545e-003 -3.381838e-003 3.557804e-002
<VARIANCE> 25
 6.664439e+001 4.403650e+001 5.783500e+001 5.743623e+001 6.515208e+001 5.500425e+001 5.372772e+001 4.345287e+001 4.255812e+001 4.180091e+001 3.585940e+001 3.108589e+001 1.968051e+000 1.809448e+000 1.938954e+000 2.304791e+000 2.836484e+000 2.744093e+000 2.863587e+000 2.754002e+000 2.523799e+000 2.575277e+000 2.427561e+000 2.158062e+000 2.903915e+000
<GCONST> 1.039577e+002
<TRANSP> 5
 0.000000e+000 1.000000e+000 0.000000e+000 0.000000e+000 0.000000e+000
 0.000000e+000 6.000000e-001 4.000000e-001 0.000000e+000 0.000000e+000
 0.000000e+000 0.000000e+000 6.000000e-001 4.000000e-001 0.000000e+000
 0.000000e+000 0.000000e+000 0.000000e+000 7.000000e-001 3.000000e-001
 0.000000e+000 0.000000e+000 0.000000e+000 0.000000e+000 0.000000e+000
<ENDHMM>
~h "b"
<BEGINHMM>
<NUMSTATES> 5
<STATE> 2
<MEAN> 25
 -8.937881e-001 2.057739e+000 4.948745e-001 -6.286812e-002 1.162374e+000 1.323201e+000 5.209003e-001 -1.102382e+000 -4.965547e-001 3.932874e-001 -1.128849e-001 -1.447742e-001 2.870981e-001 -8.766955e-002 -2.344509e-001 -5.671198e-002 7.606601e-002 1.112035e-001 -1.021555e-001 -6.856343e-002 -7.955564e-002 8.194377e-002 3.655469e-002 1.044755e-001 -6.309728e-002
<VARIANCE> 25
 4.983015e+001 2.762224e+001 2.581911e+001 2.778547e+001 2.598465e+001 3.075302e+001 2.567907e+001 2.300142e+001 1.982384e+001 2.354247e+001 2.503401e+001 1.447309e+001 1.513283e+000 9.965688e-001 1.537679e+000 1.564565e+000 2.837870e+000 1.176132e+000 2.047771e+000 1.269238e+000 1.619230e+000 2.554803e+000 1.780208e+000 1.652467e+000 3.554278e+000
<GCONST> 9.206900e+001
<STATE> 3
<MEAN> 25
 2.047298e-001 1.299264e+000 -2.536837e-001 -2.708984e-001 1.238409e+000 1.477624e+000 3.233081e-001 -8.955839e-001 -4.225774e-001 6.951644e-001 7.164007e-002 2.532270e-002 1.726030e-001 -2.708552e-001 -2.338227e-001 -3.281750e-002 7.399803e-002 9.738417e-002 -8.066391e-003 6.607535e-002 -5.410807e-002 2.149799e-001 1.985079e-001 -3.740451e-002 6.004630e-002
<VARIANCE> 25
 4.647485e+001 2.548196e+001 3.194998e+001 2.687093e+001 3.572057e+001 3.486260e+001 2.778086e+001 2.390188e+001 2.129708e+001 2.738564e+001 2.239315e+001 1.913271e+001 1.085557e+000 7.686399e-001 1.697500e+000 1.784092e+000 2.306218e+000 1.185308e+000 1.614608e+000 1.201489e+000 1.764872e+000 2.071699e+000 2.283613e+000 1.804030e+000 2.166869e+000
<GCONST> 9.191402e+001
<STATE> 4
<MEAN> 25
 -1.164067e+000 -7.386190e-001 2.472744e-001 -4.197236e-001 1.566975e+000 1.500927e+000 1.323489e+000 2.523200e-001 -1.661899e-001 1.207806e+000 4.203012e-001 4.325931e-004 -2.274479e-002 1.256180e-002 2.978341e-002 4.735960e-002 4.825713e-002 1.649301e-003 1.644465e-002 2.183855e-002 2.644167e-002 -9.734695e-003 -2.575048e-002 8.311985e-003 1.046517e-002
<VARIANCE> 25
 3.201788e+001 1.722803e+001 2.971068e+001 1.717871e+001 4.206182e+001 2.959658e+001 1.814972e+001 2.408982e+001 2.573689e+001 1.771911e+001 2.421393e+001 2.410207e+001 6.836354e-001 7.164227e-001 9.416261e-001 9.505401e-001 1.656452e+000 1.405354e+000 1.222425e+000 1.663090e+000 1.663396e+000 1.636112e+000 1.725847e+000 1.748067e+000 1.117446e+000
<GCONST> 8.714023e+001
<TRANSP> 5
 0.000000e+000 1.000000e+000 0.000000e+000 0.000000e+000 0.000000e+000
 0.000000e+000 6.958988e-001 3.041011e-001 0.000000e+000 0.000000e+000
 0.000000e+000 0.000000e+000 6.805221e-001 3.194780e-001 0.000000e+000
 0.000000e+000 0.000000e+000 0.000000e+000 9.682375e-001 3.176247e-002
 0.000000e+000 0.000000e+000 0.000000e+000 0.000000e+000 0.000000e+000
<ENDHMM>
~h "d"
<BEGINHMM>
<NUMSTATES> 5
<STATE> 2
<MEAN> 25
 6.690139e+000 1.705951e+000 2.955528e+000 3.611520e+000 -3.526094e+000 -5.772436e+000 -2.417695e+000 -7.837602e-002 8.943925e-001 -3.947392e+000 -2.598878e+000 1.925002e+000 -1.503358e-001 4.795504e-001 1.242112e-001 4.012448e-001 7.409883e-002 3.007398e-001 2.685125e-001 3.308295e-002 -1.122995e-001 -1.231636e-001 1.471976e-001 -1.823310e-001 -9.233922e-001
<VARIANCE> 25
 3.224741e+001 4.337807e+001 3.885038e+001 4.726753e+001 6.737840e+001 5.909325e+001 4.878401e+001 6.195168e+001 5.930522e+001 6.612816e+001 4.479146e+001 3.351129e+001 1.376362e+000 2.251203e+000 1.534530e+000 2.329925e+000 3.093714e+000 2.647928e+000 2.544691e+000 3.397184e+000 2.563668e+000 3.254709e+000 2.444849e+000 2.563678e+000 1.546580e+000
<GCONST> 1.036553e+002
<STATE> 3
<MEAN> 25
 5.120080e+000 3.721200e+000 3.621694e+000 5.104494e+000 -1.179069e+000 -2.847934e+000 -1.030440e+000 -1.171404e+000 3.321882e-001 -3.402073e+000 -2.118654e+000 1.214450e+000 -4.328417e-001 2.096325e-001 -1.396332e-001 2.256572e-001 4.687749e-001 4.728777e-001 4.999764e-001 9.158124e-002 -8.214124e-002 1.853050e-001 1.356440e-001 -1.181426e-001 -8.293362e-001
<VARIANCE> 25
 2.851927e+001 2.763025e+001 3.987361e+001 4.645261e+001 7.816637e+001 3.983678e+001 4.447440e+001 5.868502e+001 6.347320e+001 6.541959e+001 4.063253e+001 3.236305e+001 9.924263e-001 1.626110e+000 1.418031e+000 2.324483e+000 3.545376e+000 2.660400e+000 2.822232e+000 3.400198e+000 2.491605e+000 3.454389e+000 2.451909e+000 2.616986e+000 1.467602e+000
<GCONST> 1.021362e+002
<STATE> 4
<MEAN> 25
 1.344243e+000 5.154986e+000 3.112500e+000 6.344990e+000 1.789022e+000 7.201853e-001 1.537978e+000 -2.340542e-001 9.789016e-001 -1.594188e+000 -2.032552e+000 2.210294e-001 -4.686665e-001 -3.630162e-002 -2.354327e-001 1.237514e-001 2.586049e-001 3.052373e-001 3.515984e-001 1.572675e-001 8.473379e-002 1.300442e-001 2.823464e-002 -1.406815e-001 -4.540511e-001
<VARIANCE> 25
 2.961019e+001 2.500512e+001 3.052265e+001 3.402649e+001 5.081919e+001 3.443227e+001 3.422722e+001 4.113444e+001 4.425444e+001 3.856355e+001 2.802961e+001 2.470397e+001 8.181738e-001 1.171725e+000 1.438721e+000 1.766778e+000 2.287211e+000 2.154032e+000 2.326880e+000 2.359127e+000 2.220701e+000 2.386107e+000 2.137655e+000 2.079450e+000 1.014098e+000
<GCONST> 9.556086e+001
<TRANSP> 5
 0.000000e+000 1.000000e+000 0.000000e+000 0.000000e+000 0.000000e+000
 0.000000e+000 6.679256e-001 3.320744e-001 0.000000e+000 0.000000e+000
 0.000000e+000 0.000000e+000 6.143672e-001 3.856328e-001 0.000000e+000
 0.000000e+000 0.000000e+000 0.000000e+000 7.713002e-001 2.286998e-001
 0.000000e+000 0.000000e+000 0.000000e+000 0.000000e+000 0.000000e+000
<ENDHMM>
~h "f"
<BEGINHMM>
<NUMSTATES> 5
<STATE> 2
<MEAN> 25
 3.203435e+000 4.795037e-001 -1.178335e+000 -2.340891e+000 -2.937894e+000 -1.254740e+000 -2.807006e+000 3.215879e-001 1.323260e+000 -1.558034e+000 8.805208e-001 -1.237795e+000 5.236889e-001 2.721134e-001 -5.712894e-002 3.996899e-001 8.391669e-002 2.597752e-001 5.399992e-002 -1.848277e-001 -2.504879e-002 -2.340666e-001 -6.312333e-002 -1.945376e-001 -2.636219e-001
<VARIANCE> 25
 4.592495e+001 3.949015e+001 4.181469e+001 6.172036e+001 7.288984e+001 3.555820e+001 6.540928e+001 5.096376e+001 6.479478e+001 3.399586e+001 3.928693e+001 3.093906e+001 6.215251e+000 2.433382e+000 2.190377e+000 3.858542e+000 6.116807e+000 3.827274e+000 6.592337e+000 4.283479e+000 6.007349e+000 3.226483e+000 4.120218e+000 3.191554e+000 2.642946e+000
<GCONST> 1.099353e+002
<STATE> 3
<MEAN> 25
 4.506287e+000 2.935666e-001 -1.613811e+000 8.130356e-002 -3.156562e+000 -8.627897e-001 -2.394212e+000 -5.442896e-001 5.148471e-001 -2.632346e+000 6.100828e-001 -1.931408e+000 3.435731e-002 2.283328e-001 -8.667525e-002 3.311751e-001 3.286245e-001 4.740109e-001 2.861089e-001 6.330466e-002 2.656268e-002 -2.622343e-001 -2.530980e-001 -1.548383e-002 -2.871774e-001
<VARIANCE> 25
 4.922342e+001 4.770629e+001 3.976955e+001 9.085047e+001 6.938129e+001 4.335868e+001 8.092154e+001 5.068245e+001 4.799511e+001 4.949712e+001 4.442051e+001 3.068604e+001 3.234398e+000 2.169896e+000 2.281191e+000 4.195015e+000 5.780025e+000 4.211004e+000 5.199713e+000 4.388991e+000 3.546299e+000 3.454150e+000 4.143291e+000 2.803338e+000 2.112358e+000
<GCONST> 1.094519e+002
<STATE> 4
<MEAN> 25
 3.410707e+000 1.645696e+000 -3.124932e+000 2.709722e-001 -1.364743e+000 1.080616e+000 2.648686e-001 -1.118734e+000 -1.427883e-001 -3.479530e+000 4.803143e-001 -9.918322e-001 -2.748423e-001 -2.693958e-002 -7.131109e-002 7.348569e-002 2.664038e-001 2.385039e-001 2.651884e-001 3.300623e-001 3.061438e-002 5.096892e-002 -1.978469e-001 -1.639497e-002 -3.044928e-002
<VARIANCE> 25
 5.880991e+001 3.891711e+001 3.645737e+001 1.152060e+002 5.525816e+001 4.118567e+001 8.353097e+001 4.722526e+001 3.955380e+001 5.461466e+001 4.325267e+001 3.648402e+001 2.198442e+000 1.611026e+000 1.952036e+000 3.436283e+000 4.398755e+000 3.657236e+000 3.834339e+000 2.849951e+000 2.506949e+000 3.583132e+000 3.071661e+000 1.908697e+000 2.549026e+000
<GCONST> 1.063146e+002
<TRANSP> 5
 0.000000e+000 1.000000e+000 0.000000e+000 0.000000e+000 0.000000e+000
 0.000000e+000 6.343285e-001 3.656715e-001 0.000000e+000 0.000000e+000
 0.000000e+000 0.000000e+000 5.965844e-001 4.034156e-001 0.000000e+000
 0.000000e+000 0.000000e+000 0.000000e+000 6.880991e-001 3.119009e-001
 0.000000e+000 0.000000e+000 0.000000e+000 0.000000e+000 0.000000e+000
<ENDHMM>
~h "g"
<BEGINHMM>
<NUMSTATES> 5
<STATE> 2
<MEAN> 25
 -1.118406e-008 6.902663e-008 -6.127934e-008 -1.132241e-009 1.805760e-009 2.941641e-009 -3.920247e-008 -3.669770e-009 -5.191560e-008 -1.454802e-008 -2.627090e-008 3.876559e-008 2.510028e-002 3.968836e-004 8.013876e-003 -9.237975e-003 8.363929e-003 -6.403908e-003 3.811424e-003 -9.137135e-003 -5.245406e-003 -8.095243e-003 -3.207545e-003 -3.381838e-003 3.557804e-002
<VARIANCE> 25
 6.664439e+001 4.403650e+001 5.783500e+001 5.743623e+001 6.515208e+001 5.500425e+001 5.372772e+001 4.345287e+001 4.255812e+001 4.180091e+001 3.585940e+001 3.108589e+001 1.968051e+000 1.809448e+000 1.938954e+000 2.304791e+000 2.836484e+000 2.744093e+000 2.863587e+000 2.754002e+000 2.523799e+000 2.575277e+000 2.427561e+000 2.158062e+000 2.903915e+000
<GCONST> 1.039577e+002
<STATE> 3
<MEAN> 25
 -1.118406e-008 6.902663e-008 -6.127934e-008 -1.132241e-009 1.805760e-009 2.941641e-009 -3.920247e-008 -3.669770e-009 -5.191560e-008 -1.454802e-008 -2.627090e-008 3.876559e-008 2.510028e-002 3.968836e-004 8.013876e-003 -9.237975e-003 8.363929e-003 -6.403908e-003 3.811424e-003 -9.137135e-003 -5.245406e-003 -8.095243e-003 -3.207545e-003 -3.381838e-003 3.557804e-002
<VARIANCE> 25
 6.664439e+001 4.403650e+001 5.783500e+001 5.743623e+001 6.515208e+001 5.500425e+001 5.372772e+001 4.345287e+001 4.255812e+001 4.180091e+001 3.585940e+001 3.108589e+001 1.968051e+000 1.809448e+000 1.938954e+000 2.304791e+000 2.836484e+000 2.744093e+000 2.863587e+000 2.754002e+000 2.523799e+000 2.575277e+000 2.427561e+000 2.158062e+000 2.903915e+000
<GCONST> 1.039577e+002
<STATE> 4
<MEAN> 25
 -1.118406e-008 6.902663e-008 -6.127934e-008 -1.132241e-009 1.805760e-009 2.941641e-009 -3.920247e-008 -3.669770e-009 -5.191560e-008 -1.454802e-008 -2.627090e-008 3.876559e-008 2.510028e-002 3.968836e-004 8.013876e-003 -9.237975e-003 8.363929e-003 -6.403908e-003 3.811424e-003 -9.137135e-003 -5.245406e-003 -8.095243e-003 -3.207545e-003 -3.381838e-003 3.557804e-002
<VARIANCE> 25
 6.664439e+001 4.403650e+001 5.783500e+001 5.743623e+001 6.515208e+001 5.500425e+001 5.372772e+001 4.345287e+001 4.255812e+001 4.180091e+001 3.585940e+001 3.108589e+001 1.968051e+000 1.809448e+000 1.938954e+000 2.304791e+000 2.836484e+000 2.744093e+000 2.863587e+000 2.754002e+000 2.523799e+000 2.575277e+000 2.427561e+000 2.158062e+000 2.903915e+000
<GCONST> 1.039577e+002
<TRANSP> 5
 0.000000e+000 1.000000e+000 0.000000e+000 0.000000e+000 0.000000e+000
 0.000000e+000 6.000000e-001 4.000000e-001 0.000000e+000 0.000000e+000
 0.000000e+000 0.000000e+000 6.000000e-001 4.000000e-001 0.000000e+000
 0.000000e+000 0.000000e+000 0.000000e+000 7.000000e-001 3.000000e-001
 0.000000e+000 0.000000e+000 0.000000e+000 0.000000e+000 0.000000e+000
<ENDHMM>
~h "i"
<BEGINHMM>
<NUMSTATES> 5
<STATE> 2
<MEAN> 25
 6.767584e-001 2.988934e+000 1.635968e+001 -6.541921e+000 -1.295953e+001 -2.247251e+000 -5.964526e+000 -7.749672e+000 -1.163725e+000 1.821896e+000 6.321772e+000 3.343480e+000 -8.240886e-002 8.386826e-002 -1.305492e-001 -3.233383e-003 4.391738e-001 1.335303e-001 2.256181e-001 2.409327e-001 1.557193e-001 2.047743e-001 2.834326e-002 2.785979e-002 -3.980034e-001
<VARIANCE> 25
 1.485110e+001 5.010398e+001 3.838093e+001 9.590240e+001 6.992654e+001 4.148079e+001 4.323133e+001 7.040933e+001 2.971067e+001 9.439433e+001 4.129848e+001 4.603368e+001 9.488879e-001 2.058962e+000 2.197508e+000 3.627761e+000 4.426892e+000 4.968233e+000 2.621820e+000 5.207767e+000 4.422740e+000 6.222937e+000 2.973300e+000 3.018233e+000 1.366031e+000
<GCONST> 1.065245e+002
<STATE> 3
<MEAN> 25
 -2.056150e-001 6.682404e+000 7.726386e+000 9.884520e-001 1.312763e+000 2.031521e+000 3.178523e+000 -1.520799e+000 2.782387e+000 -4.311281e-001 -7.218069e-001 4.738055e+000 -4.013652e-001 -4.236870e-001 -7.029827e-001 6.163306e-001 9.017761e-001 4.799003e-001 4.245605e-001 2.850841e-001 3.403379e-001 -5.786967e-002 -2.045889e-001 -1.794496e-002 -5.463513e-001
<VARIANCE> 25
 2.095519e+001 2.135539e+001 5.903140e+001 8.100886e+001 2.577323e+001 2.611159e+001 3.368576e+001 5.308308e+001 2.506400e+001 2.561367e+001 3.036794e+001 1.927997e+001 4.955664e-001 7.360055e-001 1.154870e+000 2.801005e+000 3.537591e+000 5.934568e+000 2.842179e+000 3.664255e+000 3.764312e+000 3.685097e+000 4.541774e+000 1.402114e+000 1.033434e+000
<GCONST> 9.742779e+001
<STATE> 4
<MEAN> 25
 -4.158467e+000 -2.405835e+000 -6.534376e-001 4.754728e+000 8.765367e+000 4.701872e+000 -2.710138e+000 1.807207e-001 5.545810e+000 7.670559e-001 1.545456e+000 3.151782e+000 -1.433056e-001 -1.827499e-001 -1.484885e-001 2.286578e-001 1.036582e-001 -2.845497e-001 7.439847e-002 1.557561e-001 -1.391747e-002 -3.221362e-002 1.202686e-001 -3.569521e-003 6.898446e-002
<VARIANCE> 25
 1.222461e+001 9.340579e+001 5.952627e+001 5.276446e+001 4.900967e+001 3.959004e+001 9.112161e+001 1.941721e+001 2.927752e+001 2.106669e+001 3.784363e+001 1.336497e+001 1.156505e+000 8.702863e-001 9.399845e-001 2.616162e+000 3.430246e+000 3.286016e+000 4.326409e+000 1.472083e+000 2.958934e+000 2.758113e+000 2.526412e+000 1.615606e+000 5.776498e-001
<GCONST> 9.687626e+001
<TRANSP> 5
 0.000000e+000 1.000000e+000 0.000000e+000 0.000000e+000 0.000000e+000
 0.000000e+000 9.540712e-001 4.592881e-002 0.000000e+000 0.000000e+000
 0.000000e+000 0.000000e+000 7.564890e-001 2.435110e-001 0.000000e+000
 0.000000e+000 0.000000e+000 0.000000e+000 8.998650e-001 1.001350e-001
 0.000000e+000 0.000000e+000 0.000000e+000 0.000000e+000 0.000000e+000
<ENDHMM>
~h "k"
<BEGINHMM>
<NUMSTATES> 5
<STATE> 2
<MEAN> 25
 -1.689190e+000 -6.032861e-001 -4.703979e-001 -1.668097e+000 -2.349293e+000 -2.671492e+000 1.256865e-001 1.106220e+000 -5.247620e-001 -6.314455e-001 -3.815728e-001 5.398247e-001 7.117004e-001 1.806144e-001 -5.227638e-001 -7.328442e-001 -8.813651e-001 -3.827541e-001 -2.706072e-001 4.608891e-002 2.099921e-001 -6.233552e-001 -1.498969e-001 -2.501136e-001 1.495307e+000
<VARIANCE> 25
 7.127314e+001 2.829922e+001 4.000336e+001 3.034633e+001 9.822430e+001 5.036553e+001 3.283617e+001 3.571778e+001 3.601682e+001 4.696165e+001 2.627216e+001 2.120685e+001 6.275238e+000 1.809669e+000 3.401067e+000 3.523348e+000 6.324582e+000 4.308647e+000 2.577671e+000 3.156011e+000 3.856501e+000 5.927799e+000 2.354683e+000 1.839802e+000 1.187224e+001
<GCONST> 1.073720e+002
<STATE> 3
<MEAN> 25
 8.416308e-001 3.616535e-001 -2.117975e+000 -3.076578e+000 -3.574125e+000 -2.724486e+000 -8.033822e-001 1.252550e+000 -6.174423e-001 -1.720676e+000 8.264146e-002 -1.565265e-001 6.747107e-001 2.794514e-001 -5.972346e-001 -3.573265e-001 -1.740214e-001 3.840237e-001 -2.788484e-001 2.038560e-003 1.629250e-001 -3.170321e-002 6.321833e-002 -2.175178e-001 3.443896e-001
<VARIANCE> 25
 6.951517e+001 2.491623e+001 5.849574e+001 3.508906e+001 9.682985e+001 6.266828e+001 3.482773e+001 4.716866e+001 4.088355e+001 5.629918e+001 2.622997e+001 2.250672e+001 4.805717e+000 1.783230e+000 3.141752e+000 3.097481e+000 4.512386e+000 3.863524e+000 2.826219e+000 2.957677e+000 4.181831e+000 4.765459e+000 1.846411e+000 2.461361e+000 5.981866e+000
<GCONST> 1.069681e+002
<STATE> 4
<MEAN> 25
 -1.234158e-001 1.134529e+000 -1.608631e+000 -8.826900e-001 1.280296e-001 -1.155594e+000 1.577359e+000 1.746104e+000 -1.306478e+000 1.449956e+000 -1.162690e+000 -6.469963e-001 1.865317e-001 1.940795e-002 -1.572085e-001 -1.703127e-002 7.047715e-002 1.660262e-001 2.726131e-002 -3.113846e-002 6.979723e-002 -5.236908e-002 -5.296479e-002 -7.394480e-002 -1.592941e-002
<VARIANCE> 25
 4.824437e+001 1.520494e+001 3.648003e+001 3.049028e+001 6.874375e+001 3.969551e+001 3.276150e+001 3.624874e+001 3.007116e+001 2.992745e+001 2.096037e+001 1.906361e+001 1.371387e+000 1.381327e+000 1.458873e+000 1.450521e+000 2.358365e+000 2.250465e+000 2.046022e+000 1.953378e+000 2.017376e+000 1.738452e+000 1.492370e+000 1.379639e+000 2.062187e+000
<GCONST> 9.448680e+001
<TRANSP> 5
 0.000000e+000 1.000000e+000 0.000000e+000 0.000000e+000 0.000000e+000
 0.000000e+000 6.437760e-001 3.562240e-001 0.000000e+000 0.000000e+000
 0.000000e+000 0.000000e+000 5.830377e-001 4.169623e-001 0.000000e+000
 0.000000e+000 0.000000e+000 0.000000e+000 8.590035e-001 1.409965e-001
 0.000000e+000 0.000000e+000 0.000000e+000 0.000000e+000 0.000000e+000
<ENDHMM>
~h "l"
<BEGINHMM>
<NUMSTATES> 5
<STATE> 2
<MEAN> 25
 7.823168e+000 2.805698e+000 4.257827e-001 -3.342932e+000 -1.086136e+001 -6.447385e+000 -4.683045e+000 1.845612e-001 2.793174e+000 -2.379724e+000 3.284491e-001 -1.099438e+000 -1.003269e-001 -3.949222e-002 2.256449e-001 1.091782e-001 2.273772e-001 2.674269e-002 9.012601e-002 2.380024e-002 1.368313e-001 2.321946e-001 -7.372100e-002 2.198860e-002 -2.857902e-001
<VARIANCE> 25
 2.271399e+001 1.413518e+001 5.067931e+001 3.285083e+001 1.390633e+002 6.983436e+001 5.392845e+001 5.680490e+001 3.679521e+001 2.607228e+001 1.644744e+001 1.613935e+001 4.479202e-001 6.386951e-001 1.354229e+000 1.468423e+000 2.079498e+000 2.047807e+000 1.825168e+000 2.171696e+000 1.783879e+000 1.581995e+000 1.430325e+000 1.302206e+000 5.601212e-001
<GCONST> 9.213394e+001
<STATE> 3
<MEAN> 25
 5.648123e+000 2.339940e+000 8.503346e-001 -1.973198e+000 -4.851488e+000 -2.885746e+000 -2.085741e+000 -2.725352e-001 1.270401e+000 -6.262152e-001 4.317775e-002 -3.886672e-001 -3.270256e-001 -1.192035e-001 4.421348e-002 1.097143e-001 5.095251e-001 3.500308e-001 4.424702e-001 5.730934e-002 -8.703054e-002 2.454382e-001 -9.543628e-002 2.121435e-002 -4.393938e-001
<VARIANCE> 25
 3.340554e+001 1.607689e+001 5.517797e+001 3.300362e+001 1.181639e+002 7.684004e+001 7.016090e+001 5.034412e+001 3.242147e+001 2.998904e+001 1.727794e+001 1.520317e+001 4.819752e-001 8.721928e-001 1.424549e+000 1.585977e+000 2.224647e+000 2.261434e+000 2.219895e+000 1.793587e+000 1.698956e+000 1.509868e+000 1.438439e+000 1.086180e+000 6.649258e-001
<GCONST> 9.340018e+001
<STATE> 4
<MEAN> 25
 -1.990192e+000 -3.208638e-001 3.432371e-001 3.161911e-001 1.776604e+000 8.325422e-001 1.737100e+000 6.922204e-001 4.832622e-001 1.062096e+000 2.919609e-002 7.830946e-001 -1.185730e-001 -4.034952e-002 -1.256639e-002 5.030094e-002 1.093451e-001 1.158011e-002 2.018519e-002 -3.160328e-002 -5.138450e-002 -3.280561e-003 -5.717863e-003 4.120270e-003 -7.883624e-002
<VARIANCE> 25
 2.304957e+001 1.283939e+001 1.521294e+001 1.640515e+001 3.048962e+001 2.456332e+001 2.457064e+001 1.882714e+001 1.796728e+001 1.556183e+001 1.268389e+001 1.241017e+001 5.869482e-001 5.240434e-001 8.861943e-001 8.841777e-001 1.293869e+000 1.382581e+000 1.588409e+000 1.414201e+000 1.532180e+000 1.384598e+000 1.167779e+000 1.028927e+000 4.067639e-001
<GCONST> 8.060872e+001
<TRANSP> 5
 0.000000e+000 1.000000e+000 0.000000e+000 0.000000e+000 0.000000e+000
 0.000000e+000 8.486569e-001 1.513431e-001 0.000000e+000 0.000000e+000
 0.000000e+000 0.000000e+000 7.637628e-001 2.362371e-001 0.000000e+000
 0.000000e+000 0.000000e+000 0.000000e+000 9.611874e-001 3.881256e-002
 0.000000e+000 0.000000e+000 0.000000e+000 0.000000e+000 0.000000e+000
<ENDHMM>
~h "m"
<BEGINHMM>
<NUMSTATES> 5
<STATE> 2
<MEAN> 25
 7.040651e+000 3.925322e+000 -3.443123e-001 3.890136e+000 7.774434e-001 8.108405e-001 -1.439839e+000 -5.381748e+000 -1.268660e+000 6.415647e-002 2.861014e-001 -7.914079e+000 -1.989619e-001 4.215886e-001 6.733514e-001 8.865657e-001 7.903302e-001 -5.845978e-001 1.537656e-001 -2.592525e-001 -4.998390e-001 -5.988698e-002 -6.862275e-002 -2.505071e-001 -6.565093e-001
<VARIANCE> 25
 2.272124e+001 1.682097e+001 3.585072e+001 4.069634e+001 3.286734e+001 3.847052e+001 3.276718e+001 3.811539e+001 2.642048e+001 2.200966e+001 2.157572e+001 3.358274e+001 1.305460e+000 2.068591e+000 2.479365e+000 2.842645e+000 2.150797e+000 3.607598e+000 2.359121e+000 2.494006e+000 2.398160e+000 2.781799e+000 1.640225e+000 2.868069e+000 1.460296e+000
<GCONST> 9.699411e+001
<STATE> 3
<MEAN> 25
 5.589808e+000 5.117099e+000 2.836401e+000 6.206840e+000 3.130928e+000 -9.342995e-001 -1.265801e+000 -4.879982e+000 -1.869352e+000 -7.305811e-001 -2.801760e-001 -6.964222e+000 -4.357390e-001 -1.582019e-001 4.036205e-001 8.649617e-002 2.590080e-001 3.568058e-002 -1.170024e-001 3.592193e-001 4.377477e-002 -9.589067e-002 -7.899093e-002 6.836008e-001 -6.593378e-001
<VARIANCE> 25
 1.700184e+001 2.002152e+001 2.054303e+001 2.750498e+001 2.902894e+001 3.212098e+001 2.801393e+001 4.072963e+001 3.229251e+001 1.907027e+001 2.238059e+001 4.099563e+001 9.928845e-001 2.211062e+000 1.765019e+000 2.389387e+000 2.880534e+000 3.077007e+000 2.128194e+000 2.767718e+000 2.117946e+000 2.406274e+000 2.440167e+000 3.933707e+000 1.238767e+000
<GCONST> 9.552108e+001
<STATE> 4
<MEAN> 25
 1.814963e+000 2.813413e+000 3.162453e+000 3.705737e+000 2.230867e+000 -1.232208e+000 -1.007488e+000 -6.791795e-001 -5.444802e-002 -1.094422e-001 -3.260509e-001 -1.677448e+000 -2.717464e-001 -2.598343e-001 -1.292753e-001 -1.354609e-001 -2.126395e-001 -3.245251e-002 -5.368855e-002 2.032005e-001 1.761088e-001 8.967070e-002 5.432198e-002 3.563815e-001 -3.358406e-002
<VARIANCE> 25
 2.185518e+001 1.958891e+001 3.411275e+001 2.585857e+001 5.366608e+001 6.566105e+001 2.784993e+001 2.585019e+001 4.046346e+001 1.699859e+001 1.876270e+001 2.886163e+001 6.964187e-001 1.245971e+000 1.378407e+000 1.277675e+000 2.733092e+000 2.183863e+000 2.202461e+000 2.083317e+000 2.415054e+000 2.172258e+000 1.696648e+000 2.054365e+000 7.559648e-001
<GCONST> 9.272349e+001
<TRANSP> 5
 0.000000e+000 1.000000e+000 0.000000e+000 0.000000e+000 0.000000e+000
 0.000000e+000 6.752980e-001 3.247020e-001 0.000000e+000 0.000000e+000
 0.000000e+000 0.000000e+000 6.870558e-001 3.129442e-001 0.000000e+000
 0.000000e+000 0.000000e+000 0.000000e+000 8.680375e-001 1.319626e-001
 0.000000e+000 0.000000e+000 0.000000e+000 0.000000e+000 0.000000e+000
<ENDHMM>
~h "n"
<BEGINHMM>
<NUMSTATES> 5
<STATE> 2
<MEAN> 25
 4.656977e+000 -3.253533e+000 6.794455e-001 -6.513919e-001 -2.823439e+000 -3.465216e+000 -2.066448e+000 1.516871e+000 2.667816e-001 -3.150369e+000 -2.348115e+000 -2.108831e+000 1.781947e-001 -2.594594e-002 3.271566e-001 1.576257e-002 -1.842052e-001 -1.104769e-001 -4.003717e-002 -1.358939e-001 -7.464367e-002 -1.049321e-001 3.043003e-002 6.372007e-002 -8.851697e-002
<VARIANCE> 25
 5.645992e+001 9.373095e+001 5.992701e+001 7.143382e+001 9.091377e+001 5.960529e+001 4.569498e+001 1.038907e+002 5.535196e+001 8.330579e+001 5.916172e+001 6.712859e+001 3.151231e+000 4.459088e+000 2.588188e+000 3.938803e+000 5.966616e+000 3.336495e+000 3.572912e+000 7.030767e+000 4.217793e+000 5.741365e+000 5.564401e+000 4.521725e+000 4.047148e+000
<GCONST> 1.156585e+002
<STATE> 3
<MEAN> 25
 5.613334e+000 -2.404040e+000 1.467015e+000 2.745193e-001 -2.856682e+000 -4.281947e+000 -1.389510e+000 5.000789e-001 -5.140646e-001 -2.848553e+000 -2.504175e+000 -1.560578e+000 2.818490e-001 4.654699e-001 2.416857e-001 4.823481e-001 -9.222026e-002 -7.045228e-002 -3.984224e-002 -6.092063e-001 -1.173499e-002 -6.100551e-002 -1.799858e-002 3.030183e-001 -6.977665e-001
<VARIANCE> 25
 4.888678e+001 8.627015e+001 5.888238e+001 6.990401e+001 7.414934e+001 4.962288e+001 4.593856e+001 8.204500e+001 6.079917e+001 8.401855e+001 5.000626e+001 6.699046e+001 2.329157e+000 3.199012e+000 2.203953e+000 2.753386e+000 4.219046e+000 3.424386e+000 3.353719e+000 5.189216e+000 3.549234e+000 4.720968e+000 3.599160e+000 4.028662e+000 2.097557e+000
<GCONST> 1.112893e+002
<STATE> 4
<MEAN> 25
 5.474788e+000 1.771744e+000 2.136180e+000 2.658384e+000 -2.121850e+000 -3.755480e+000 -4.080440e-001 -1.918536e+000 -2.490061e-001 -2.603032e+000 -2.847192e+000 -1.138454e+000 -1.171407e-001 3.189150e-001 1.125136e-002 2.212842e-001 1.685423e-001 1.355810e-001 1.214465e-001 -8.919097e-003 1.342225e-001 1.025292e-002 8.452564e-002 2.645255e-001 -6.760632e-001
<VARIANCE> 25
 4.964863e+001 5.189075e+001 4.863532e+001 4.875068e+001 7.505000e+001 4.177797e+001 3.410595e+001 4.814994e+001 4.868715e+001 6.856397e+001 4.312960e+001 5.792193e+001 1.711602e+000 2.303542e+000 1.686969e+000 2.227845e+000 2.872504e+000 2.839156e+000 2.284673e+000 3.504510e+000 2.440964e+000 3.186757e+000 2.732609e+000 2.858413e+000 1.458728e+000
<GCONST> 1.043222e+002
<TRANSP> 5
 0.000000e+000 1.000000e+000 0.000000e+000 0.000000e+000 0.000000e+000
 0.000000e+000 7.800880e-001 2.199120e-001 0.000000e+000 0.000000e+000
 0.000000e+000 0.000000e+000 6.986284e-001 3.013716e-001 0.000000e+000
 0.000000e+000 0.000000e+000 0.000000e+000 7.847806e-001 2.152194e-001
 0.000000e+000 0.000000e+000 0.000000e+000 0.000000e+000 0.000000e+000
<ENDHMM>
~h "p"
<BEGINHMM>
<NUMSTATES> 5
<STATE> 2
<MEAN> 25
 -2.273772e+000 -1.309333e+000 -3.070798e+000 1.448117e+000 1.431352e+000 1.914777e+000 2.166145e+000 -1.261741e-001 1.770444e+000 4.306682e-001 -8.778872e-001 -7.318044e-001 7.784622e-001 -9.493471e-001 -1.535540e-001 -4.038063e-001 -6.100907e-001 -7.300891e-001 -6.561638e-001 -1.525906e-001 1.931103e-001 -4.762442e-001 2.753674e-001 -1.520210e-001 3.819260e+000
<VARIANCE> 25
 4.358887e+001 4.376072e+001 5.597810e+001 6.847434e+001 5.123520e+001 5.626318e+001 4.272709e+001 3.265142e+001 2.543810e+001 2.611356e+001 3.816933e+001 2.236208e+001 4.747459e+000 5.330125e+000 7.104677e+000 6.044552e+000 5.387888e+000 4.858797e+000 5.693075e+000 3.265895e+000 2.507609e+000 3.202345e+000 5.968818e+000 2.404700e+000 1.927124e+001
<GCONST> 1.110916e+002
<STATE> 3
<MEAN> 25
 8.380464e-001 -4.010998e+000 -3.552519e+000 -8.812141e-001 -2.413923e-001 9.371873e-001 -1.057380e+000 -2.134312e+000 2.188196e+000 -7.763529e-001 -5.189133e-001 -8.919659e-001 1.160432e+000 -1.345059e-001 7.802566e-001 -1.684268e-001 -4.365917e-001 -5.687249e-001 -1.344157e+000 -6.469522e-002 -3.303172e-001 -3.893256e-001 3.229547e-001 -7.345581e-002 1.768583e+000
<VARIANCE> 25
 6.398061e+001 4.757653e+001 7.690561e+001 5.709218e+001 6.372633e+001 9.753612e+001 5.361573e+001 3.615976e+001 3.472340e+001 3.270704e+001 4.865971e+001 2.304571e+001 4.792713e+000 4.125321e+000 6.692041e+000 3.771389e+000 5.884129e+000 5.496888e+000 7.751802e+000 3.586915e+000 4.486067e+000 3.473722e+000 5.418810e+000 2.514951e+000 1.531240e+001
<GCONST> 1.138183e+002
<STATE> 4
<MEAN> 25
 6.084252e+000 -1.138104e+000 -1.890888e+000 -2.501376e+000 -5.020751e+000 -3.536804e+000 -4.211598e+000 -9.242305e-001 1.455996e+000 2.972632e-002 -8.408434e-001 -2.076042e+000 3.748039e-001 2.716205e-001 5.544879e-001 -1.535919e-001 -7.628753e-002 -1.416565e-001 -2.752438e-001 -1.675361e-001 -5.699912e-001 9.788585e-002 3.665921e-001 -1.124630e-001 1.770294e-001
<VARIANCE> 25
 7.293089e+001 5.291560e+001 9.371120e+001 4.176436e+001 9.767609e+001 6.304249e+001 5.380870e+001 4.122625e+001 4.526374e+001 3.846920e+001 4.823521e+001 3.661375e+001 2.949419e+000 1.750323e+000 3.531577e+000 2.139186e+000 3.928416e+000 3.839309e+000 3.644499e+000 2.442697e+000 3.835957e+000 3.664811e+000 2.767431e+000 2.824518e+000 5.232511e+000
<GCONST> 1.087640e+002
<TRANSP> 5
 0.000000e+000 1.000000e+000 0.000000e+000 0.000000e+000 0.000000e+000
 0.000000e+000 6.461984e-001 3.538016e-001 0.000000e+000 0.000000e+000
 0.000000e+000 0.000000e+000 5.899091e-001 4.100910e-001 0.000000e+000
 0.000000e+000 0.000000e+000 0.000000e+000 6.718162e-001 3.281837e-001
 0.000000e+000 0.000000e+000 0.000000e+000 0.000000e+000 0.000000e+000
<ENDHMM>
~h "r"
<BEGINHMM>
<NUMSTATES> 5
<STATE> 2
<MEAN> 25
 4.098968e+000 -2.521686e+000 -4.198822e+000 4.267690e-001 -1.474670e+000 -6.382885e-001 -2.926159e+000 1.295122e+000 1.975346e+000 -2.182647e+000 -1.366087e-001 5.252803e-001 3.113545e-001 -3.800592e-001 -2.293053e-001 -1.135010e-001 -6.120042e-002 1.294988e-001 -1.976190e-001 8.901521e-002 4.704240e-002 -2.330760e-001 3.291247e-002 -1.674554e-001 4.981412e-001
<VARIANCE> 25
 5.162761e+001 8.161436e+001 4.021006e+001 6.460081e+001 4.502138e+001 5.588719e+001 5.653975e+001 4.641590e+001 3.902079e+001 4.592458e+001 5.047883e+001 3.554813e+001 2.686995e+000 3.184431e+000 2.302712e+000 2.861987e+000 3.434090e+000 3.917035e+000 4.058699e+000 3.531348e+000 2.464410e+000 3.476393e+000 3.301879e+000 2.884886e+000 2.945927e+000
<GCONST> 1.076182e+002
<STATE> 3
<MEAN> 25
 4.747453e+000 -3.325310e+000 -5.042900e+000 -2.799308e-001 -9.887064e-001 -1.350789e-001 -3.335202e+000 1.358891e+000 2.723478e+000 -2.388633e+000 5.635851e-002 1.936043e-001 8.630899e-002 -1.679960e-001 -2.902694e-002 -1.505041e-001 9.914280e-002 1.262230e-001 -1.973997e-001 -6.969428e-003 5.759478e-002 -1.302966e-001 1.391466e-001 -1.045119e-001 5.809834e-001
<VARIANCE> 25
 5.854837e+001 8.978513e+001 4.005163e+001 7.899055e+001 5.305402e+001 7.023051e+001 5.437746e+001 4.984216e+001 4.196895e+001 5.437974e+001 4.892236e+001 3.597767e+001 3.037296e+000 3.617985e+000 2.543384e+000 3.054950e+000 3.577513e+000 3.276362e+000 3.908657e+000 4.256255e+000 3.189569e+000 4.152255e+000 3.118692e+000 2.938247e+000 3.826388e+000
<GCONST> 1.097685e+002
<STATE> 4
<MEAN> 25
 5.013969e+000 -1.782726e+000 -4.146821e+000 2.963627e-001 4.843426e-002 8.623237e-001 -2.203506e+000 6.690086e-001 3.484015e+000 -4.000152e+000 6.405634e-001 1.003885e-001 -6.539744e-002 -7.543017e-003 2.441058e-001 9.468309e-002 6.120107e-002 -3.831736e-002 2.212116e-001 -1.256471e-001 -1.864282e-001 8.545165e-002 1.822137e-001 1.665145e-002 -3.285015e-002
<VARIANCE> 25
 5.828923e+001 6.643042e+001 6.083214e+001 1.007215e+002 5.470961e+001 5.993333e+001 5.975446e+001 4.993707e+001 4.119576e+001 5.224543e+001 3.397527e+001 3.393763e+001 1.504416e+000 1.672794e+000 1.876411e+000 2.262643e+000 3.012036e+000 2.940637e+000 3.197594e+000 3.508457e+000 2.630535e+000 3.125425e+000 2.426158e+000 2.476471e+000 1.720626e+000
<GCONST> 1.051599e+002
<TRANSP> 5
 0.000000e+000 1.000000e+000 0.000000e+000 0.000000e+000 0.000000e+000
 0.000000e+000 6.447656e-001 3.552344e-001 0.000000e+000 0.000000e+000
 0.000000e+000 0.000000e+000 6.532360e-001 3.467640e-001 0.000000e+000
 0.000000e+000 0.000000e+000 0.000000e+000 8.052640e-001 1.947360e-001
 0.000000e+000 0.000000e+000 0.000000e+000 0.000000e+000 0.000000e+000
<ENDHMM>
~h "s"
<BEGINHMM>
<NUMSTATES> 5
<STATE> 2
<MEAN> 25
 -1.065412e+001 -2.499379e+000 6.637869e+000 2.399822e+000 6.481163e-002 6.142222e-001 1.679151e+000 2.335698e+000 -2.088072e-001 -2.125487e+000 1.693096e+000 2.257886e-001 -1.305922e+000 -2.152857e-001 1.766022e-001 3.938964e-002 -9.028129e-002 1.088712e-001 8.195470e-002 2.483204e-001 2.581050e-001 -3.206192e-002 3.459626e-001 1.311068e-001 4.470160e-001
<VARIANCE> 25
 8.520825e+001 1.072905e+002 1.150131e+002 3.653527e+001 5.828700e+001 5.380673e+001 2.909354e+001 3.918787e+001 3.611097e+001 4.138574e+001 3.934609e+001 2.624545e+001 6.043941e+000 3.202578e+000 4.802951e+000 2.415201e+000 4.087493e+000 3.265720e+000 2.571019e+000 3.152750e+000 3.065313e+000 2.957947e+000 2.161302e+000 2.461705e+000 2.182056e+000
<GCONST> 1.075045e+002
<STATE> 3
<MEAN> 25
 -1.235650e+001 -2.778381e+000 6.382698e+000 2.247482e+000 -4.863066e-001 1.302164e+000 1.157607e+000 2.406783e+000 3.250810e-001 -1.599826e+000 2.051532e+000 -1.385310e-001 4.277458e-001 2.019752e-001 -4.517425e-001 -1.117722e-001 -6.265961e-002 -1.623913e-002 -2.130894e-001 -1.898897e-001 2.191246e-002 9.363513e-002 4.489680e-002 -5.673930e-002 1.130895e-001
<VARIANCE> 25
 9.993549e+001 9.855766e+001 1.166372e+002 4.340839e+001 6.146794e+001 6.334289e+001 3.078036e+001 3.487895e+001 2.938724e+001 4.075191e+001 3.879633e+001 2.942040e+001 7.458950e+000 2.243575e+000 3.533385e+000 2.346936e+000 3.015957e+000 3.253972e+000 2.290439e+000 2.597788e+000 2.327255e+000 2.575088e+000 2.181762e+000 2.135183e+000 2.207577e+000
<GCONST> 1.061669e+002
<STATE> 4
<MEAN> 25
 -9.548602e+000 2.376987e-001 2.522791e+000 7.639345e-001 5.928861e-001 7.572008e-001 4.345655e-001 8.634350e-001 -1.980362e-001 -2.073255e-001 4.495678e-001 -2.697948e-001 7.232241e-001 8.191925e-003 -2.926749e-001 -2.089234e-003 -4.843676e-002 -3.722741e-002 -2.017263e-001 -1.359359e-001 -4.142937e-002 -4.921554e-002 9.157382e-002 -1.093553e-001 -1.614254e-001
<VARIANCE> 25
 9.707970e+001 5.971317e+001 8.774347e+001 3.639749e+001 4.261605e+001 6.218344e+001 2.384354e+001 2.583601e+001 2.647910e+001 2.576164e+001 3.094863e+001 2.228865e+001 3.683433e+000 1.801237e+000 2.273086e+000 1.682271e+000 2.297073e+000 2.385131e+000 1.871889e+000 2.418871e+000 1.979818e+000 2.162191e+000 1.935209e+000 1.744451e+000 1.719700e+000
<GCONST> 9.970585e+001
<TRANSP> 5
 0.000000e+000 1.000000e+000 0.000000e+000 0.000000e+000 0.000000e+000
 0.000000e+000 7.517152e-001 2.482848e-001 0.000000e+000 0.000000e+000
 0.000000e+000 0.000000e+000 7.303651e-001 2.696349e-001 0.000000e+000
 0.000000e+000 0.000000e+000 0.000000e+000 7.518747e-001 2.481254e-001
 0.000000e+000 0.000000e+000 0.000000e+000 0.000000e+000 0.000000e+000
<ENDHMM>
~h "t"
<BEGINHMM>
<NUMSTATES> 5
<STATE> 2
<MEAN> 25
 -2.468394e+000 8.236243e-001 -1.113086e+000 2.091022e+000 -1.076728e+000 -4.510747e-001 2.055872e+000 6.543110e-001 1.758998e+000 -6.662819e-002 2.038738e+000 -3.662330e-001 9.905018e-001 -1.177384e+000 -3.407007e-001 -9.115841e-001 -8.416557e-002 -8.555496e-001 -9.441367e-002 2.482536e-001 -1.921359e-002 2.933507e-003 3.073743e-001 1.378798e-001 3.106675e+000
<VARIANCE> 25
 7.859160e+001 3.701832e+001 4.601532e+001 5.519691e+001 4.585614e+001 5.931938e+001 3.800888e+001 3.966990e+001 4.216916e+001 4.028923e+001 3.876325e+001 2.697374e+001 6.251345e+000 3.962850e+000 3.823447e+000 4.396618e+000 3.802864e+000 6.451833e+000 4.263136e+000 3.788829e+000 3.685848e+000 3.716911e+000 4.183524e+000 2.134448e+000 2.484220e+001
<GCONST> 1.114127e+002
<STATE> 3
<MEAN> 25
 6.421421e-001 -1.536390e+000 -1.755990e+000 -1.601482e-001 -1.208947e+000 -1.472189e+000 7.987410e-001 6.887282e-001 8.706430e-001 -2.730132e-002 1.782029e+000 -9.419870e-002 4.451730e-001 -5.381705e-001 -8.300390e-002 -3.712397e-001 1.864820e-001 8.905655e-002 -2.406149e-001 1.157596e-001 -1.132746e-001 1.342716e-001 -9.988439e-002 1.397585e-001 1.005310e+000
<VARIANCE> 25
 5.691694e+001 4.689719e+001 5.315067e+001 6.877408e+001 5.384994e+001 6.626802e+001 4.528609e+001 4.454115e+001 4.309359e+001 3.559005e+001 4.029968e+001 3.196367e+001 3.215647e+000 2.385358e+000 3.267944e+000 2.847385e+000 3.729413e+000 5.141948e+000 4.391444e+000 3.860115e+000 3.079540e+000 3.057657e+000 3.854701e+000 1.973783e+000 9.725456e+000
<GCONST> 1.089245e+002
<STATE> 4
<MEAN> 25
 1.088770e+000 -2.240209e+000 -1.964855e+000 -9.003922e-001 1.754318e-001 1.552690e-001 9.501972e-001 6.382179e-001 7.136365e-001 5.801167e-001 1.678355e+000 4.746707e-001 1.954527e-001 -1.613709e-001 1.036913e-001 -3.329369e-002 1.590703e-001 1.674270e-001 -6.270774e-002 -2.189050e-001 -1.960607e-001 5.367491e-002 -2.342603e-002 5.187292e-002 1.110499e-001
<VARIANCE> 25
 4.734848e+001 4.773288e+001 5.185078e+001 6.645685e+001 4.896593e+001 5.927047e+001 4.305574e+001 4.011647e+001 3.411090e+001 3.568724e+001 4.492402e+001 3.274776e+001 2.652740e+000 1.689479e+000 2.551658e+000 2.106475e+000 3.354253e+000 3.245099e+000 3.466134e+000 3.460024e+000 2.646089e+000 2.564663e+000 2.941224e+000 2.084758e+000 3.748226e+000
<GCONST> 1.047439e+002
<TRANSP> 5
 0.000000e+000 1.000000e+000 0.000000e+000 0.000000e+000 0.000000e+000
 0.000000e+000 5.772346e-001 4.227655e-001 0.000000e+000 0.000000e+000
 0.000000e+000 0.000000e+000 4.760999e-001 5.239001e-001 0.000000e+000
 0.000000e+000 0.000000e+000 0.000000e+000 5.567532e-001 4.432468e-001
 0.000000e+000 0.000000e+000 0.000000e+000 0.000000e+000 0.000000e+000
<ENDHMM>
~h "v"
<BEGINHMM>
<NUMSTATES> 5
<STATE> 2
<MEAN> 25
 4.196892e+000 5.707608e-001 -3.163556e+000 -2.165778e+000 5.448558e-001 -7.525263e-001 -3.244042e-001 -3.162337e-001 -9.505817e-001 1.134163e+000 4.146991e-001 1.689832e+000 5.090339e-001 2.183736e-001 -8.037081e-001 -1.515967e+000 2.167103e-001 2.678466e-001 -1.150209e-001 -5.682107e-001 3.654169e-002 5.041229e-001 9.114584e-001 -3.565122e-003 3.173457e-001
<VARIANCE> 25
 3.475694e+001 3.445104e+001 6.661846e+001 1.399163e+002 6.761726e+001 5.839610e+001 4.872639e+001 3.670121e+001 3.430943e+001 3.517532e+001 2.971794e+001 2.943896e+001 4.016709e+000 4.212349e+000 5.552184e+000 8.461829e+000 3.506090e+000 4.091854e+000 3.870916e+000 3.998571e+000 3.491667e+000 3.759554e+000 4.203427e+000 2.158380e+000 6.279623e+000
<GCONST> 1.105133e+002
<STATE> 3
<MEAN> 25
 5.232340e+000 1.573062e+000 -2.564609e+000 -3.077843e+000 -9.722618e-001 -2.065242e+000 -4.841426e-001 -9.394547e-001 -8.292683e-001 1.275725e+000 1.517540e+000 4.178625e-001 -2.284001e-001 5.496050e-001 -2.088040e-001 -3.826049e-002 1.639532e-001 -5.293886e-002 -3.073190e-002 1.098523e-001 5.308202e-001 -2.508989e-001 -4.898884e-002 -3.769159e-001 -1.046553e-001
<VARIANCE> 25
 3.298247e+001 3.373001e+001 6.322646e+001 1.336707e+002 6.115045e+001 5.292172e+001 4.439674e+001 3.094923e+001 3.481128e+001 3.933466e+001 2.309439e+001 2.965067e+001 2.915301e+000 2.830044e+000 3.104276e+000 4.143060e+000 3.365563e+000 3.469106e+000 3.073457e+000 2.766707e+000 3.393804e+000 3.707457e+000 2.753760e+000 2.088886e+000 1.701297e+000
<GCONST> 1.051379e+002
<STATE> 4
<MEAN> 25
 3.921139e+000 2.520985e+000 -2.510158e+000 -1.373560e+000 -2.047994e-003 -2.149373e+000 5.723269e-002 -3.377121e-001 8.388805e-001 9.859544e-002 2.596863e-001 -7.630373e-001 -2.977245e-001 1.642018e-001 -2.226210e-001 3.238904e-001 4.608820e-001 -4.942228e-003 1.597539e-002 -5.386540e-002 1.795840e-001 -4.284744e-001 -3.635094e-001 -4.562993e-001 -2.494593e-001
<VARIANCE> 25
 4.014058e+001 2.743693e+001 4.968274e+001 1.166260e+002 5.174974e+001 5.494369e+001 5.335022e+001 3.011773e+001 3.050644e+001 4.025179e+001 2.436419e+001 2.946558e+001 1.378034e+000 1.274405e+000 2.805649e+000 4.021859e+000 3.222925e+000 4.024355e+000 2.495246e+000 2.605847e+000 3.317656e+000 2.837273e+000 2.422843e+000 2.426994e+000 1.009093e+000
<GCONST> 1.020840e+002
<TRANSP> 5
 0.000000e+000 1.000000e+000 0.000000e+000 0.000000e+000 0.000000e+000
 0.000000e+000 5.415978e-001 4.584022e-001 0.000000e+000 0.000000e+000
 0.000000e+000 0.000000e+000 4.179232e-001 5.820768e-001 0.000000e+000
 0.000000e+000 0.000000e+000 0.000000e+000 4.937627e-001 5.062373e-001
 0.000000e+000 0.000000e+000 0.000000e+000 0.000000e+000 0.000000e+000
<ENDHMM>
~h "w"
<BEGINHMM>
<NUMSTATES> 5
<STATE> 2
<MEAN> 25
 6.476823e+000 1.046077e+000 -5.182076e+000 -1.132314e+001 -2.644505e+000 3.685803e-001 1.324932e+000 -1.679281e-001 -2.134958e+000 -1.185101e-001 -4.136818e-001 -2.167718e+000 6.559323e-002 -1.434484e-001 -2.973412e-001 -2.656159e-001 -1.003652e-001 -1.034477e-001 -1.315916e-001 -5.573996e-002 1.569875e-001 -4.241318e-002 1.978332e-001 -1.483457e-001 6.503302e-001
<VARIANCE> 25
 4.948465e+001 6.277973e+001 4.064676e+001 6.321633e+001 6.782127e+001 1.087961e+002 8.027227e+001 3.541600e+001 5.997131e+001 3.749682e+001 3.821611e+001 5.121686e+001 3.785299e+000 3.862171e+000 3.016952e+000 6.323209e+000 6.249211e+000 8.217867e+000 7.458361e+000 4.145613e+000 4.045257e+000 3.567920e+000 3.397010e+000 3.281321e+000 5.584043e+000
<GCONST> 1.137977e+002
<STATE> 3
<MEAN> 25
 5.828800e+000 -3.748687e-001 -3.872699e+000 -8.349668e+000 -2.069998e+000 3.272961e-001 -5.101080e+000 8.579883e-002 -2.648084e+000 -5.794954e-001 4.525784e+000 -3.222857e+000 -1.962940e-001 -5.158376e-001 1.188032e-001 4.506369e-001 2.495835e-001 -5.733861e-002 -4.367974e-001 3.493755e-001 1.051683e-001 -2.038579e-001 2.171062e-001 -1.511371e-001 6.327495e-001
<VARIANCE> 25
 4.408318e+001 5.949303e+001 5.149649e+001 8.999876e+001 5.559621e+001 1.225835e+002 1.174370e+002 4.672704e+001 5.876104e+001 2.956758e+001 7.054808e+001 4.590239e+001 2.254498e+000 2.640277e+000 2.555305e+000 3.394895e+000 3.563488e+000 8.775496e+000 6.984480e+000 4.013139e+000 3.605083e+000 3.269660e+000 4.686889e+000 3.645859e+000 2.488625e+000
<GCONST> 1.121776e+002
<STATE> 4
<MEAN> 25
 3.387365e+000 -2.818964e+000 -5.253300e+000 -1.200548e+000 -8.584353e-001 -2.938475e+000 -3.216723e+000 -4.882136e-001 -1.041864e+000 -2.228361e+000 2.764659e+000 -1.853720e+000 -4.153942e-001 9.721161e-002 2.664364e-001 6.139464e-001 3.784665e-001 2.439024e-001 4.625512e-001 -8.166403e-002 1.463308e-001 4.005581e-002 -1.917933e-001 4.595268e-001 -6.045836e-001
<VARIANCE> 25
 3.901922e+001 5.151355e+001 3.428453e+001 7.631159e+001 9.016846e+001 1.422809e+002 4.465343e+001 7.180401e+001 6.156452e+001 3.825688e+001 3.713846e+001 3.816267e+001 9.357622e-001 1.303775e+000 1.457555e+000 2.104706e+000 3.181863e+000 3.771206e+000 3.415063e+000 4.525516e+000 3.675709e+000 4.788654e+000 3.618519e+000 3.160110e+000 1.826094e+000
<GCONST> 1.064251e+002
<TRANSP> 5
 0.000000e+000 1.000000e+000 0.000000e+000 0.000000e+000 0.000000e+000
 0.000000e+000 9.387267e-001 6.127324e-002 0.000000e+000 0.000000e+000
 0.000000e+000 0.000000e+000 8.616635e-001 1.383365e-001 0.000000e+000
 0.000000e+000 0.000000e+000 0.000000e+000 7.767671e-001 2.232330e-001
 0.000000e+000 0.000000e+000 0.000000e+000 0.000000e+000 0.000000e+000
<ENDHMM>
~h "y"
<BEGINHMM>
<NUMSTATES> 5
<STATE> 2
<MEAN> 25
 3.913614e+000 -2.574572e-001 7.265216e+000 1.743542e+000 -9.753042e+000 -8.782716e+000 -1.742485e+000 -2.266278e+000 -7.394679e+000 -4.067728e+000 2.366920e+000 -3.226332e+000 4.352780e-001 -3.312401e-001 -4.923991e-001 1.582716e-001 -3.400569e-001 -5.498121e-001 -1.593704e-002 2.827570e-001 3.366110e-001 -9.104966e-002 1.279839e-001 1.931507e-001 1.489036e-001
<VARIANCE> 25
 3.302187e+001 2.068764e+001 8.644002e+001 2.649387e+001 4.603717e+001 6.011065e+001 2.128903e+001 2.525799e+001 1.137599e+002 2.323652e+001 3.723634e+001 4.831351e+001 3.676674e+000 1.962832e+000 2.085945e+000 1.623792e+000 3.332891e+000 4.838244e+000 1.736766e+000 1.850424e+000 4.326893e+000 1.666482e+000 3.046620e+000 2.416291e+000 1.704916e+000
<GCONST> 1.014473e+002
<STATE> 3
<MEAN> 25
 7.173356e+000 -1.120147e+000 7.648919e-001 2.585232e+000 -8.499989e+000 -9.951283e+000 -2.540518e+000 -7.514354e-001 -1.912384e-001 -5.267962e+000 5.479902e-001 -4.302953e-001 3.800600e-001 -2.408045e-002 -4.557636e-001 -3.585024e-002 9.531601e-002 -7.683641e-002 -1.565864e-001 2.401665e-001 4.421530e-001 -4.982068e-002 -6.840948e-002 7.262462e-002 -1.912716e-001
<VARIANCE> 25
 4.265068e+001 3.273648e+001 9.160880e+001 3.133638e+001 5.407440e+001 6.608025e+001 2.737275e+001 3.313676e+001 1.280298e+002 3.038016e+001 4.607946e+001 3.645312e+001 3.200147e+000 2.398231e+000 1.845953e+000 1.618234e+000 3.493092e+000 3.780768e+000 1.872234e+000 2.159566e+000 3.339663e+000 1.915683e+000 2.483734e+000 1.877306e+000 1.356863e+000
<GCONST> 1.026454e+002
<STATE> 4
<MEAN> 25
 5.798423e+000 -6.458024e-001 -1.393462e+000 2.030921e+000 -4.625422e+000 -6.774070e+000 -3.004814e+000 5.568686e-001 1.596629e+000 -4.427120e+000 3.315293e-001 2.358781e-001 -2.923768e-001 1.690619e-001 -2.809760e-002 -1.125014e-001 3.409842e-001 5.205995e-001 5.060628e-002 1.187043e-001 6.117041e-002 2.512322e-001 -1.096208e-001 -7.892118e-002 -4.143640e-001
<VARIANCE> 25
 5.445791e+001 2.917761e+001 3.636481e+001 3.897767e+001 5.915408e+001 7.647169e+001 2.569516e+001 3.519684e+001 6.751790e+001 4.556674e+001 3.268143e+001 2.008911e+001 2.063821e+000 1.482232e+000 1.655033e+000 1.479853e+000 3.021564e+000 2.665219e+000 1.458077e+000 1.733969e+000 2.790694e+000 1.975741e+000 2.025047e+000 1.487782e+000 8.310359e-001
<GCONST> 9.796972e+001
<TRANSP> 5
 0.000000e+000 1.000000e+000 0.000000e+000 0.000000e+000 0.000000e+000
 0.000000e+000 8.381572e-001 1.618429e-001 0.000000e+000 0.000000e+000
 0.000000e+000 0.000000e+000 7.816846e-001 2.183154e-001 0.000000e+000
 0.000000e+000 0.000000e+000 0.000000e+000 8.384682e-001 1.615319e-001
 0.000000e+000 0.000000e+000 0.000000e+000 0.000000e+000 0.000000e+000
<ENDHMM>
~h "z"
<BEGINHMM>
<NUMSTATES> 5
<STATE> 2
<MEAN> 25
 -1.646935e+000 -1.284932e+000 -4.052307e+000 -3.065474e+000 5.305672e+000 2.027262e+000 -5.099728e+000 1.411009e+000 2.006576e+000 7.815299e-002 8.928497e-001 1.954464e+000 -8.417694e-002 2.191736e-002 1.950843e-001 2.881161e-001 -4.037753e-001 -1.074709e+000 5.167948e-003 3.364378e-001 8.511848e-002 -2.357628e-002 -3.687322e-001 3.029722e-002 4.014110e-001
<VARIANCE> 25
 4.551141e+001 1.029669e+002 5.490453e+001 4.164070e+001 6.968192e+001 1.108009e+002 4.952934e+001 4.054809e+001 7.988863e+001 4.955722e+001 3.555218e+001 3.953348e+001 3.642924e+000 3.728021e+000 1.891410e+000 3.314869e+000 3.510468e+000 4.533212e+000 4.976213e+000 4.278743e+000 4.957560e+000 3.544858e+000 3.307012e+000 2.590098e+000 3.753331e+000
<GCONST> 1.108293e+002
<STATE> 3
<MEAN> 25
 -7.893878e-001 2.911291e-001 -4.748111e+000 -1.932811e+000 4.576115e+000 -2.535229e+000 -5.250990e+000 1.967741e+000 3.220500e+000 -8.695475e-001 -2.145385e-002 2.801841e+000 4.588653e-001 1.707196e-002 3.374279e-001 4.643196e-001 -6.711860e-001 -1.115133e+000 -6.581418e-002 -4.013464e-002 1.963396e-002 5.708950e-002 -2.320003e-001 -4.160178e-002 -2.142344e-002
<VARIANCE> 25
 5.679001e+001 8.978964e+001 3.621694e+001 5.492599e+001 6.639633e+001 1.425615e+002 5.797607e+001 4.832764e+001 4.661061e+001 6.103773e+001 3.693821e+001 4.387819e+001 4.247527e+000 5.043405e+000 1.645469e+000 3.072007e+000 3.921372e+000 5.217739e+000 5.361937e+000 3.670697e+000 3.639906e+000 4.573462e+000 3.275867e+000 3.767619e+000 2.889460e+000
<GCONST> 1.115860e+002
<STATE> 4
<MEAN> 25
 2.280931e+000 2.011120e+000 -2.345742e+000 -1.535044e+000 1.210020e+000 -9.200304e+000 -4.229514e+000 1.110983e+000 2.890410e+000 -3.928949e-002 -2.024101e+000 3.244699e+000 4.699282e-001 -1.513025e-001 3.850972e-001 1.815055e-002 -4.271695e-001 -5.400748e-001 4.800339e-002 -3.151486e-002 -2.091316e-003 6.814440e-002 -2.411519e-001 -1.420521e-001 3.818500e-002
<VARIANCE> 25
 3.933417e+001 7.854355e+001 2.930316e+001 5.613444e+001 4.721075e+001 1.012930e+002 5.889441e+001 3.649667e+001 3.602814e+001 6.060925e+001 4.118634e+001 4.698948e+001 2.751075e+000 5.397096e+000 1.753974e+000 2.888609e+000 3.091855e+000 4.331108e+000 4.586105e+000 3.181857e+000 2.555907e+000 4.394956e+000 2.793324e+000 4.394169e+000 1.862467e+000
<GCONST> 1.079344e+002
<TRANSP> 5
 0.000000e+000 1.000000e+000 0.000000e+000 0.000000e+000 0.000000e+000
 0.000000e+000 7.148807e-001 2.851194e-001 0.000000e+000 0.000000e+000
 0.000000e+000 0.000000e+000 7.473552e-001 2.526449e-001 0.000000e+000
 0.000000e+000 0.000000e+000 0.000000e+000 8.482438e-001 1.517562e-001
 0.000000e+000 0.000000e+000 0.000000e+000 0.000000e+000 0.000000e+000
<ENDHMM>
~h "aa"
<BEGINHMM>
<NUMSTATES> 5
<STATE> 2
<MEAN> 25
 2.975725e+000 9.746640e-001 -5.977287e+000 -5.914778e+000 -4.037308e-001 2.428856e+000 -9.220462e-002 -1.335690e+000 -3.790599e-001 2.245140e+000 7.988957e-001 -1.408800e+000 7.949644e-001 3.297513e-001 -3.377818e-001 -7.038541e-001 -1.631297e-001 6.067256e-001 1.817015e-001 -5.031468e-001 7.066245e-002 -2.614837e-002 -2.565613e-001 9.768773e-002 -2.456627e-002
<VARIANCE> 25
 8.082796e+001 3.031328e+001 4.212306e+001 7.215829e+001 2.788880e+001 4.241279e+001 2.973886e+001 4.136189e+001 2.210792e+001 1.701788e+001 4.732530e+001 2.873331e+001 2.574917e+000 2.092005e+000 2.287392e+000 3.518951e+000 1.854918e+000 3.349535e+000 1.727104e+000 3.409820e+000 1.904801e+000 1.907121e+000 2.246015e+000 3.306010e+000 3.347561e+000
<GCONST> 1.009785e+002
<STATE> 3
<MEAN> 25
 5.087578e+000 3.550805e+000 -4.905991e+000 -6.635990e+000 -8.087134e-001 4.920818e+000 2.349845e+000 -2.414109e+000 3.072294e-001 1.745131e+000 -1.132225e+000 -8.986540e-002 -2.461684e-001 3.592616e-001 4.453809e-001 2.795233e-001 1.192136e-001 2.155824e-002 1.867755e-001 1.542720e-001 1.379878e-001 -1.372250e-001 -3.802603e-001 1.000855e-001 -5.359531e-001
<VARIANCE> 25
 4.872789e+001 3.225893e+001 4.370197e+001 1.039558e+002 2.607729e+001 6.081281e+001 5.218010e+001 5.720120e+001 3.323029e+001 1.855370e+001 3.816109e+001 4.555443e+001 2.438936e+000 2.264403e+000 2.768829e+000 5.490969e+000 1.457849e+000 5.827455e+000 5.653677e+000 5.499101e+000 2.904602e+000 2.214892e+000 3.895665e+000 5.642746e+000 2.723838e+000
<GCONST> 1.069439e+002
<STATE> 4
<MEAN> 25
 8.154903e-003 3.038040e+000 -1.307905e+000 -2.417542e+000 1.280337e+000 2.872282e+000 2.194481e+000 2.194500e-001 1.124874e+000 1.808086e+000 -1.849610e+000 -9.738683e-001 -2.977694e-001 -6.888196e-002 1.239186e-001 2.629010e-001 2.376248e-002 -1.233306e-001 -3.438485e-002 2.201968e-001 2.182931e-001 -4.786762e-002 3.667764e-002 -2.734548e-001 -5.922811e-002
<VARIANCE> 25
 4.013660e+001 2.533975e+001 3.225946e+001 8.642976e+001 2.901557e+001 5.097739e+001 3.395649e+001 3.837718e+001 3.205401e+001 2.117935e+001 2.156104e+001 2.284242e+001 1.216710e+000 1.174772e+000 1.134690e+000 2.490510e+000 1.738123e+000 2.998086e+000 2.019029e+000 1.839105e+000 2.099452e+000 1.921511e+000 1.767352e+000 1.636083e+000 2.295094e+000
<GCONST> 9.564254e+001
<TRANSP> 5
 0.000000e+000 1.000000e+000 0.000000e+000 0.000000e+000 0.000000e+000
 0.000000e+000 6.474471e-001 3.525529e-001 0.000000e+000 0.000000e+000
 0.000000e+000 0.000000e+000 7.226625e-001 2.773376e-001 0.000000e+000
 0.000000e+000 0.000000e+000 0.000000e+000 8.506417e-001 1.493584e-001
 0.000000e+000 0.000000e+000 0.000000e+000 0.000000e+000 0.000000e+000
<ENDHMM>
~h "ae"
<BEGINHMM>
<NUMSTATES> 5
<STATE> 2
<MEAN> 25
 -6.427246e-001 -3.070603e+000 -3.871878e+000 4.416233e-001 1.164144e+000 -2.319996e+000 1.868845e+000 1.615026e+000 -2.874699e+000 -1.579120e+000 -5.743359e-001 -1.784707e+000 -7.973348e-002 5.672395e-001 5.210905e-002 -1.982284e-001 -2.332209e-001 -3.289359e-001 3.047925e-001 -1.274194e-001 -1.472399e-002 -8.742537e-002 -2.062891e-001 -2.112497e-001 -2.222128e-001
<VARIANCE> 25
 1.065151e+002 1.515311e+002 2.501544e+001 3.539427e+001 5.914151e+001 3.709078e+001 7.565807e+001 5.384865e+001 4.414320e+001 6.985925e+001 6.442322e+001 3.546206e+001 5.682107e+000 6.051711e+000 2.680750e+000 3.909838e+000 5.559788e+000 4.503382e+000 6.753755e+000 4.748893e+000 3.867317e+000 6.052672e+000 4.695205e+000 3.853854e+000 3.516391e+000
<GCONST> 1.140774e+002
<STATE> 3
<MEAN> 25
 -3.381532e+000 2.761439e-001 -3.722770e+000 -2.481394e-001 1.741540e+000 -1.995695e+000 2.190808e+000 9.338295e-001 1.175902e-001 6.199478e-001 1.476146e+000 -2.492500e+000 6.972910e-001 -2.036531e-001 -3.497036e-001 -5.943372e-001 -3.784623e-002 7.510889e-002 -4.763580e-001 -3.254730e-001 2.726542e-001 2.970777e-001 5.415314e-003 -1.631595e-001 2.117457e-001
<VARIANCE> 25
 1.401420e+002 9.607692e+001 3.968414e+001 5.662718e+001 5.558934e+001 2.827533e+001 5.846599e+001 7.858899e+001 4.986515e+001 7.217862e+001 7.925124e+001 3.292805e+001 8.697552e+000 4.289180e+000 3.593822e+000 5.617153e+000 4.601970e+000 2.787407e+000 5.833903e+000 6.632368e+000 5.295782e+000 6.928078e+000 4.773709e+000 3.622916e+000 3.548722e+000
<GCONST> 1.155712e+002
<STATE> 4
<MEAN> 25
 4.947732e+000 -6.096724e+000 -7.546083e+000 -6.658484e+000 7.507176e-001 -1.870105e+000 -2.177437e+000 4.332502e-001 5.491953e+000 1.920659e+000 -1.725605e+000 -5.041987e+000 -2.394673e-001 -2.188385e-002 3.073017e-001 1.996371e-001 -3.757366e-001 -6.455915e-002 -6.577849e-002 2.116335e-002 9.301586e-002 -1.704829e-001 -1.843608e-001 1.817626e-001 8.863231e-002
<VARIANCE> 25
 4.146808e+001 4.455817e+001 4.051714e+001 5.144759e+001 5.313094e+001 3.211124e+001 3.313314e+001 3.580561e+001 5.076961e+001 6.330395e+001 2.626958e+001 2.890505e+001 2.954834e+000 1.984427e+000 1.955392e+000 2.117764e+000 3.121196e+000 1.714873e+000 2.500250e+000 2.860801e+000 2.905033e+000 3.307531e+000 1.723143e+000 2.338907e+000 1.783646e+000
<GCONST> 1.014091e+002
<TRANSP> 5
 0.000000e+000 1.000000e+000 0.000000e+000 0.000000e+000 0.000000e+000
 0.000000e+000 8.786889e-001 1.213111e-001 0.000000e+000 0.000000e+000
 0.000000e+000 0.000000e+000 8.700476e-001 1.299524e-001 0.000000e+000
 0.000000e+000 0.000000e+000 0.000000e+000 8.643985e-001 1.356015e-001
 0.000000e+000 0.000000e+000 0.000000e+000 0.000000e+000 0.000000e+000
<ENDHMM>
~h "ah"
<BEGINHMM>
<NUMSTATES> 5
<STATE> 2
<MEAN> 25
 4.574142e+000 -1.062961e+000 -1.672382e+000 5.828741e-004 4.698147e-001 -3.511644e-001 -2.968999e+000 -1.871586e+000 -8.169879e-001 -1.986573e+000 4.942050e-001 -4.870506e-001 5.559849e-002 1.716019e-001 1.262928e-001 1.273570e-001 -1.802295e-001 9.350010e-002 1.059226e-001 1.502397e-002 -1.486578e-001 -4.407710e-001 -5.177458e-002 9.823629e-003 -1.439070e-001
<VARIANCE> 25
 4.372563e+001 5.482568e+001 5.438955e+001 6.224253e+001 8.377084e+001 7.214220e+001 5.344476e+001 5.007075e+001 5.435737e+001 4.919096e+001 4.436314e+001 2.765497e+001 2.078237e+000 2.753285e+000 2.922332e+000 3.196770e+000 5.196843e+000 3.185433e+000 4.927675e+000 4.089873e+000 3.960495e+000 3.669582e+000 3.162498e+000 2.783267e+000 3.362761e+000
<GCONST> 1.093116e+002
<STATE> 3
<MEAN> 25
 4.177969e+000 -6.790143e-001 -5.795884e-001 2.950031e-001 -1.336487e-001 -1.249755e+000 -2.527676e+000 -6.556626e-001 -8.992571e-001 -2.913786e+000 4.543098e-001 -5.218856e-001 -1.377279e-002 3.776110e-001 1.613106e-001 8.388661e-002 -2.737677e-001 -2.302667e-001 3.705465e-001 9.881807e-002 1.365798e-002 -1.651751e-002 -1.131526e-001 -1.331814e-001 -4.220344e-001
<VARIANCE> 25
 4.898805e+001 6.276534e+001 5.179379e+001 5.594638e+001 9.132255e+001 7.201676e+001 5.088895e+001 6.035464e+001 5.570778e+001 4.699262e+001 4.545074e+001 3.036473e+001 1.907352e+000 2.316193e+000 2.280911e+000 3.120623e+000 4.485044e+000 2.713483e+000 3.833461e+000 4.074708e+000 3.268225e+000 3.092102e+000 2.883992e+000 2.444206e+000 2.634223e+000
<GCONST> 1.078011e+002
<STATE> 4
<MEAN> 25
 3.035971e+000 1.493327e+000 5.606694e-001 9.200662e-001 5.490830e-002 -1.652452e+000 -1.218403e-001 2.002952e-001 1.055336e-001 -1.349751e+000 -8.685545e-001 -6.631680e-001 -1.370924e-001 2.091292e-001 1.433566e-001 1.092097e-001 -4.708004e-002 -2.992876e-002 2.942024e-001 -7.446252e-002 3.409542e-002 1.153781e-001 -1.247172e-001 -5.476549e-002 -4.571554e-001
<VARIANCE> 25
 4.625539e+001 5.223972e+001 4.277519e+001 5.166217e+001 7.599213e+001 5.708723e+001 4.348529e+001 4.210369e+001 3.592479e+001 3.634533e+001 3.816859e+001 3.305414e+001 1.225791e+000 1.670337e+000 1.540311e+000 2.036518e+000 2.800530e+000 2.442733e+000 2.361772e+000 2.764335e+000 2.405382e+000 2.167538e+000 2.089120e+000 2.039552e+000 1.182562e+000
<GCONST> 1.005675e+002
<TRANSP> 5
 0.000000e+000 1.000000e+000 0.000000e+000 0.000000e+000 0.000000e+000
 0.000000e+000 5.860137e-001 4.139863e-001 0.000000e+000 0.000000e+000
 0.000000e+000 0.000000e+000 5.468246e-001 4.531755e-001 0.000000e+000
 0.000000e+000 0.000000e+000 0.000000e+000 6.871944e-001 3.128056e-001
 0.000000e+000 0.000000e+000 0.000000e+000 0.000000e+000 0.000000e+000
<ENDHMM>
~h "ao"
<BEGINHMM>
<NUMSTATES> 5
<STATE> 2
<MEAN> 25
 2.264317e+000 1.514500e+000 -3.051111e+000 -1.024058e+000 -4.812371e+000 -2.519548e-001 5.305138e+000 1.715151e+000 -2.000229e+000 -3.309902e-001 5.013732e-001 -1.646503e+000 1.418628e+000 4.966463e-001 -8.929479e-001 -8.874855e-001 -1.266282e+000 1.794243e-001 -7.364695e-001 -8.860396e-001 -3.829715e-001 -5.160194e-001 6.866356e-001 -6.261956e-001 1.736402e+000
<VARIANCE> 25
 5.590580e+001 2.506846e+001 3.537415e+001 7.680697e+001 6.266287e+001 4.126852e+001 7.741702e+001 7.398803e+001 3.260828e+001 3.703904e+001 3.700697e+001 1.342431e+001 5.865819e+000 1.359468e+000 2.604248e+000 4.812070e+000 3.359689e+000 2.776285e+000 2.185985e+000 4.642587e+000 2.694853e+000 1.962683e+000 4.058837e+000 9.542169e-001 4.481488e+000
<GCONST> 1.045896e+002
<STATE> 3
<MEAN> 25
 6.525938e+000 1.566808e+000 -5.518267e+000 -3.732126e+000 -8.764647e+000 1.234433e+000 2.946519e+000 2.893708e-001 -9.801379e-001 -1.875507e+000 2.838036e+000 -3.107310e+000 7.593372e-001 -2.156644e-001 -3.940805e-001 -2.167388e-001 -6.465997e-001 3.992579e-001 -6.926578e-001 -5.799034e-001 3.915051e-001 -3.677812e-001 5.237474e-001 -3.010447e-001 6.796681e-001
<VARIANCE> 25
 6.847060e+001 2.671227e+001 4.408239e+001 8.343756e+001 8.748082e+001 6.407005e+001 1.099015e+002 1.200983e+002 6.481338e+001 1.750368e+001 4.296644e+001 1.569485e+001 3.521416e+000 6.357119e-001 1.937666e+000 4.557050e+000 2.091858e+000 2.559084e+000 2.019589e+000 2.875623e+000 2.559216e+000 1.392482e+000 2.629230e+000 1.416654e+000 1.783331e+000
<GCONST> 1.029207e+002
<STATE> 4
<MEAN> 25
 1.072652e+001 3.420537e+000 -5.662443e+000 -5.931925e+000 -7.854787e+000 6.296923e+000 -1.666912e+000 -4.566502e+000 -1.573574e-001 -3.188536e+000 2.474979e+000 -7.008882e-001 -1.148847e-001 -9.729512e-003 4.602501e-002 2.974227e-001 3.706719e-001 -5.849304e-002 -3.081897e-001 2.821661e-001 1.492823e-001 -1.763458e-002 -3.171293e-001 1.680571e-001 -1.912342e-001
<VARIANCE> 25
 5.559532e+001 2.388117e+001 5.179495e+001 1.298525e+002 6.423261e+001 4.384320e+001 4.982904e+001 6.051304e+001 2.918422e+001 1.098709e+001 3.173183e+001 2.396432e+001 3.805852e-001 7.455893e-001 1.157506e+000 2.456014e+000 1.530807e+000 2.526123e+000 1.868534e+000 1.927075e+000 1.579174e+000 1.278947e+000 1.507352e+000 1.536675e+000 3.854668e-001
<GCONST> 9.331906e+001
<TRANSP> 5
 0.000000e+000 1.000000e+000 0.000000e+000 0.000000e+000 0.000000e+000
 0.000000e+000 6.732438e-001 3.267562e-001 0.000000e+000 0.000000e+000
 0.000000e+000 0.000000e+000 6.472040e-001 3.527960e-001 0.000000e+000
 0.000000e+000 0.000000e+000 0.000000e+000 9.359218e-001 6.407823e-002
 0.000000e+000 0.000000e+000 0.000000e+000 0.000000e+000 0.000000e+000
<ENDHMM>
~h "aw"
<BEGINHMM>
<NUMSTATES> 5
<STATE> 2
<MEAN> 25
 5.799793e+000 -2.044864e+000 -2.660869e+000 -3.413700e+000 3.208377e+000 1.665689e+000 -8.253230e+000 -1.524142e+000 -2.788069e+000 -3.168759e-001 3.141518e+000 1.077806e-001 5.072593e-001 -7.736877e-001 -6.718398e-001 -7.478189e-001 2.372558e-001 9.264898e-001 -1.062471e+000 9.132608e-002 -1.100391e-001 5.261214e-002 3.817710e-001 -3.436502e-001 1.849906e+000
<VARIANCE> 25
 3.639433e+001 6.235201e+001 4.712188e+001 7.635217e+001 5.044878e+001 1.097029e+002 9.779555e+001 4.145055e+001 6.030822e+001 2.332390e+001 4.682906e+001 4.249435e+001 2.939828e+000 5.971823e+000 4.358839e+000 4.798094e+000 3.720312e+000 5.443763e+000 7.045684e+000 4.044900e+000 4.526846e+000 2.427026e+000 4.832788e+000 4.301315e+000 1.069864e+001
<GCONST> 1.136983e+002
<STATE> 3
<MEAN> 25
 6.121743e+000 -4.716804e+000 -5.090555e+000 -6.292037e+000 3.915666e+000 5.690376e+000 -9.060565e+000 -1.701344e+000 -1.817262e+000 8.209169e-001 4.026105e+000 -1.789680e+000 -5.165086e-002 -3.274320e-001 -2.513722e-001 -4.456325e-001 8.534350e-002 6.550158e-001 -3.647493e-001 -3.456241e-002 1.214964e-001 2.357315e-001 2.241577e-001 -2.941155e-001 8.194546e-001
<VARIANCE> 25
 3.424176e+001 6.252593e+001 4.649215e+001 6.897050e+001 4.873901e+001 9.810079e+001 7.999901e+001 3.892377e+001 4.892691e+001 2.662561e+001 4.454462e+001 5.203328e+001 2.133889e+000 3.980451e+000 2.217701e+000 3.798661e+000 3.298139e+000 4.606885e+000 6.716191e+000 3.176040e+000 3.030491e+000 2.399284e+000 4.188482e+000 4.513870e+000 7.285810e+000
<GCONST> 1.100864e+002
<STATE> 4
<MEAN> 25
 4.011913e+000 -2.217080e+000 -4.575044e+000 -6.189758e+000 3.631531e+000 4.435197e+000 -8.247161e+000 -8.972931e-001 5.263220e-001 1.487852e+000 3.089030e+000 -5.967532e-001 -2.199951e-001 4.144539e-001 -8.582802e-003 3.133956e-002 5.621466e-002 -1.787706e-001 5.153162e-002 1.482593e-001 1.460836e-001 -1.162494e-001 -1.025515e-001 2.465511e-001 1.141730e-002
<VARIANCE> 25
 4.812781e+001 6.467696e+001 3.814660e+001 9.392632e+001 6.003703e+001 1.246107e+002 6.148638e+001 4.142416e+001 5.011592e+001 4.130337e+001 4.368815e+001 6.180996e+001 3.044893e+000 2.756061e+000 1.750607e+000 4.211054e+000 3.328295e+000 6.806521e+000 5.543818e+000 3.355255e+000 3.395463e+000 3.883833e+000 3.243827e+000 4.234679e+000 2.988280e+000
<GCONST> 1.109359e+002
<TRANSP> 5
 0.000000e+000 1.000000e+000 0.000000e+000 0.000000e+000 0.000000e+000
 0.000000e+000 8.053533e-001 1.946467e-001 0.000000e+000 0.000000e+000
 0.000000e+000 0.000000e+000 7.934363e-001 2.065637e-001 0.000000e+000
 0.000000e+000 0.000000e+000 0.000000e+000 9.492635e-001 5.073657e-002
 0.000000e+000 0.000000e+000 0.000000e+000 0.000000e+000 0.000000e+000
<ENDHMM>
~h "ay"
<BEGINHMM>
<NUMSTATES> 5
<STATE> 2
<MEAN> 25
 5.332096e+000 -3.085283e+000 -3.980814e+000 1.714336e+000 -8.857444e-001 -1.158445e+000 -4.281513e+000 -6.687519e+000 6.605695e-001 -3.493209e+000 4.074165e+000 1.344711e+000 -1.190585e-001 2.991230e-001 6.012774e-001 8.849992e-001 7.645541e-001 -2.274777e-001 -5.892268e-001 -9.008673e-001 -3.127951e-001 2.767510e-002 -5.599761e-002 -2.664837e-001 -4.135028e-001
<VARIANCE> 25
 4.367521e+001 2.962067e+001 6.395800e+001 5.431616e+001 7.719403e+001 2.285366e+001 6.684866e+001 6.389507e+001 2.433370e+001 3.715371e+001 4.169267e+001 3.798209e+001 1.874206e+000 1.391986e+000 3.952128e+000 2.668456e+000 4.307675e+000 2.219601e+000 6.974409e+000 4.044761e+000 2.668918e+000 2.668902e+000 1.890205e+000 2.997331e+000 1.398689e+000
<GCONST> 1.042201e+002
<STATE> 3
<MEAN> 25
 3.886134e+000 -2.260853e+000 -1.241141e+000 3.795345e+000 2.127810e+000 -1.285465e+000 -5.786936e+000 -7.307471e+000 -1.137260e+000 -3.072194e+000 2.854056e+000 -6.578507e-002 -3.839037e-001 3.517107e-001 6.628546e-001 4.110701e-001 5.153639e-001 -4.983180e-002 1.314206e-001 1.445756e-001 -3.346940e-001 3.006864e-001 -3.624272e-001 -4.864884e-001 -8.926502e-001
<VARIANCE> 25
 3.625245e+001 3.046093e+001 4.982734e+001 3.672488e+001 6.149751e+001 1.952222e+001 6.834649e+001 6.265041e+001 3.448561e+001 5.029445e+001 3.305959e+001 3.423212e+001 1.403937e+000 1.199285e+000 3.299595e+000 2.939095e+000 5.264468e+000 1.865267e+000 7.142325e+000 3.827784e+000 3.065933e+000 4.073925e+000 2.074473e+000 2.457002e+000 1.970561e+000
<GCONST> 1.036261e+002
<STATE> 4
<MEAN> 25
 3.054302e+000 -1.886243e+000 -4.974837e-003 3.445377e+000 3.499900e+000 -5.586384e-001 -6.315736e+000 -7.661160e+000 -1.156967e+000 -2.217191e+000 2.777412e+000 -9.236500e-001 -1.518359e-001 2.039885e-001 1.905016e-001 -1.747709e-001 -6.348233e-001 -3.711146e-002 5.732471e-001 3.527217e-001 1.243031e-001 2.518247e-001 -8.655398e-002 -1.710310e-001 -3.199553e-001
<VARIANCE> 25
 3.058521e+001 2.218409e+001 3.918902e+001 3.450794e+001 9.620207e+001 2.001025e+001 7.546924e+001 5.506885e+001 2.987035e+001 4.759293e+001 2.934143e+001 2.265451e+001 1.429252e+000 1.426859e+000 2.966674e+000 2.354541e+000 6.407391e+000 1.658628e+000 4.280346e+000 3.438952e+000 2.215357e+000 3.722193e+000 2.203331e+000 1.878305e+000 2.341077e+000
<GCONST> 1.014201e+002
<TRANSP> 5
 0.000000e+000 1.000000e+000 0.000000e+000 0.000000e+000 0.000000e+000
 0.000000e+000 6.135012e-001 3.864988e-001 0.000000e+000 0.000000e+000
 0.000000e+000 0.000000e+000 6.253479e-001 3.746521e-001 0.000000e+000
 0.000000e+000 0.000000e+000 0.000000e+000 8.308873e-001 1.691127e-001
 0.000000e+000 0.000000e+000 0.000000e+000 0.000000e+000 0.000000e+000
<ENDHMM>
~h "ch"
<BEGINHMM>
<NUMSTATES> 5
<STATE> 2
<MEAN> 25
 -1.118406e-008 6.902663e-008 -6.127934e-008 -1.132241e-009 1.805760e-009 2.941641e-009 -3.920247e-008 -3.669770e-009 -5.191560e-008 -1.454802e-008 -2.627090e-008 3.876559e-008 2.510028e-002 3.968836e-004 8.013876e-003 -9.237975e-003 8.363929e-003 -6.403908e-003 3.811424e-003 -9.137135e-003 -5.245406e-003 -8.095243e-003 -3.207545e-003 -3.381838e-003 3.557804e-002
<VARIANCE> 25
 6.664439e+001 4.403650e+001 5.783500e+001 5.743623e+001 6.515208e+001 5.500425e+001 5.372772e+001 4.345287e+001 4.255812e+001 4.180091e+001 3.585940e+001 3.108589e+001 1.968051e+000 1.809448e+000 1.938954e+000 2.304791e+000 2.836484e+000 2.744093e+000 2.863587e+000 2.754002e+000 2.523799e+000 2.575277e+000 2.427561e+000 2.158062e+000 2.903915e+000
<GCONST> 1.039577e+002
<STATE> 3
<MEAN> 25
 -1.118406e-008 6.902663e-008 -6.127934e-008 -1.132241e-009 1.805760e-009 2.941641e-009 -3.920247e-008 -3.669770e-009 -5.191560e-008 -1.454802e-008 -2.627090e-008 3.876559e-008 2.510028e-002 3.968836e-004 8.013876e-003 -9.237975e-003 8.363929e-003 -6.403908e-003 3.811424e-003 -9.137135e-003 -5.245406e-003 -8.095243e-003 -3.207545e-003 -3.381838e-003 3.557804e-002
<VARIANCE> 25
 6.664439e+001 4.403650e+001 5.783500e+001 5.743623e+001 6.515208e+001 5.500425e+001 5.372772e+001 4.345287e+001 4.255812e+001 4.180091e+001 3.585940e+001 3.108589e+001 1.968051e+000 1.809448e+000 1.938954e+000 2.304791e+000 2.836484e+000 2.744093e+000 2.863587e+000 2.754002e+000 2.523799e+000 2.575277e+000 2.427561e+000 2.158062e+000 2.903915e+000
<GCONST> 1.039577e+002
<STATE> 4
<MEAN> 25
 -1.118406e-008 6.902663e-008 -6.127934e-008 -1.132241e-009 1.805760e-009 2.941641e-009 -3.920247e-008 -3.669770e-009 -5.191560e-008 -1.454802e-008 -2.627090e-008 3.876559e-008 2.510028e-002 3.968836e-004 8.013876e-003 -9.237975e-003 8.363929e-003 -6.403908e-003 3.811424e-003 -9.137135e-003 -5.245406e-003 -8.095243e-003 -3.207545e-003 -3.381838e-003 3.557804e-002
<VARIANCE> 25
 6.664439e+001 4.403650e+001 5.783500e+001 5.743623e+001 6.515208e+001 5.500425e+001 5.372772e+001 4.345287e+001 4.255812e+001 4.180091e+001 3.585940e+001 3.108589e+001 1.968051e+000 1.809448e+000 1.938954e+000 2.304791e+000 2.836484e+000 2.744093e+000 2.863587e+000 2.754002e+000 2.523799e+000 2.575277e+000 2.427561e+000 2.158062e+000 2.903915e+000
<GCONST> 1.039577e+002
<TRANSP> 5
 0.000000e+000 1.000000e+000 0.000000e+000 0.000000e+000 0.000000e+000
 0.000000e+000 6.000000e-001 4.000000e-001 0.000000e+000 0.000000e+000
 0.000000e+000 0.000000e+000 6.000000e-001 4.000000e-001 0.000000e+000
 0.000000e+000 0.000000e+000 0.000000e+000 7.000000e-001 3.000000e-001
 0.000000e+000 0.000000e+000 0.000000e+000 0.000000e+000 0.000000e+000
<ENDHMM>
~h "dh"
<BEGINHMM>
<NUMSTATES> 5
<STATE> 2
<MEAN> 25
 -1.118406e-008 6.902663e-008 -6.127934e-008 -1.132241e-009 1.805760e-009 2.941641e-009 -3.920247e-008 -3.669770e-009 -5.191560e-008 -1.454802e-008 -2.627090e-008 3.876559e-008 2.510028e-002 3.968836e-004 8.013876e-003 -9.237975e-003 8.363929e-003 -6.403908e-003 3.811424e-003 -9.137135e-003 -5.245406e-003 -8.095243e-003 -3.207545e-003 -3.381838e-003 3.557804e-002
<VARIANCE> 25
 6.664439e+001 4.403650e+001 5.783500e+001 5.743623e+001 6.515208e+001 5.500425e+001 5.372772e+001 4.345287e+001 4.255812e+001 4.180091e+001 3.585940e+001 3.108589e+001 1.968051e+000 1.809448e+000 1.938954e+000 2.304791e+000 2.836484e+000 2.744093e+000 2.863587e+000 2.754002e+000 2.523799e+000 2.575277e+000 2.427561e+000 2.158062e+000 2.903915e+000
<GCONST> 1.039577e+002
<STATE> 3
<MEAN> 25
 -1.118406e-008 6.902663e-008 -6.127934e-008 -1.132241e-009 1.805760e-009 2.941641e-009 -3.920247e-008 -3.669770e-009 -5.191560e-008 -1.454802e-008 -2.627090e-008 3.876559e-008 2.510028e-002 3.968836e-004 8.013876e-003 -9.237975e-003 8.363929e-003 -6.403908e-003 3.811424e-003 -9.137135e-003 -5.245406e-003 -8.095243e-003 -3.207545e-003 -3.381838e-003 3.557804e-002
<VARIANCE> 25
 6.664439e+001 4.403650e+001 5.783500e+001 5.743623e+001 6.515208e+001 5.500425e+001 5.372772e+001 4.345287e+001 4.255812e+001 4.180091e+001 3.585940e+001 3.108589e+001 1.968051e+000 1.809448e+000 1.938954e+000 2.304791e+000 2.836484e+000 2.744093e+000 2.863587e+000 2.754002e+000 2.523799e+000 2.575277e+000 2.427561e+000 2.158062e+000 2.903915e+000
<GCONST> 1.039577e+002
<STATE> 4
<MEAN> 25
 -1.118406e-008 6.902663e-008 -6.127934e-008 -1.132241e-009 1.805760e-009 2.941641e-009 -3.920247e-008 -3.669770e-009 -5.191560e-008 -1.454802e-008 -2.627090e-008 3.876559e-008 2.510028e-002 3.968836e-004 8.013876e-003 -9.237975e-003 8.363929e-003 -6.403908e-003 3.811424e-003 -9.137135e-003 -5.245406e-003 -8.095243e-003 -3.207545e-003 -3.381838e-003 3.557804e-002
<VARIANCE> 25
 6.664439e+001 4.403650e+001 5.783500e+001 5.743623e+001 6.515208e+001 5.500425e+001 5.372772e+001 4.345287e+001 4.255812e+001 4.180091e+001 3.585940e+001 3.108589e+001 1.968051e+000 1.809448e+000 1.938954e+000 2.304791e+000 2.836484e+000 2.744093e+000 2.863587e+000 2.754002e+000 2.523799e+000 2.575277e+000 2.427561e+000 2.158062e+000 2.903915e+000
<GCONST> 1.039577e+002
<TRANSP> 5
 0.000000e+000 1.000000e+000 0.000000e+000 0.000000e+000 0.000000e+000
 0.000000e+000 6.000000e-001 4.000000e-001 0.000000e+000 0.000000e+000
 0.000000e+000 0.000000e+000 6.000000e-001 4.000000e-001 0.000000e+000
 0.000000e+000 0.000000e+000 0.000000e+000 7.000000e-001 3.000000e-001
 0.000000e+000 0.000000e+000 0.000000e+000 0.000000e+000 0.000000e+000
<ENDHMM>
~h "eh"
<BEGINHMM>
<NUMSTATES> 5
<STATE> 2
<MEAN> 25
 7.729748e-001 -3.544221e+000 2.228911e+000 4.077849e+000 -1.423408e+000 -3.618141e+000 -3.308820e+000 5.137072e-001 5.301872e-001 -1.964848e+000 3.456100e+000 4.063179e-001 -5.558904e-001 -8.015581e-001 5.796614e-001 -2.738323e-001 -4.470287e-001 6.547431e-001 6.629084e-001 6.378136e-001 -1.819550e-002 3.608626e-002 2.870147e-002 2.976586e-001 4.528312e-002
<VARIANCE> 25
 6.337225e+001 7.636822e+001 4.038228e+001 2.123516e+001 6.706223e+001 7.201521e+001 3.429974e+001 7.976818e+001 7.984027e+001 4.136540e+001 4.072982e+001 2.270830e+001 2.171062e+000 3.108271e+000 3.676336e+000 2.114634e+000 2.869466e+000 2.934465e+000 4.420630e+000 4.831458e+000 5.929477e+000 4.110248e+000 3.003798e+000 1.837363e+000 5.851184e+000
<GCONST> 1.083349e+002
<STATE> 3
<MEAN> 25
 -2.656935e-001 -7.848284e+000 5.085844e+000 4.001273e+000 -2.848136e+000 -2.493234e+000 -4.107562e+000 3.670580e+000 1.058374e+000 -2.954863e+000 3.507441e+000 1.024733e+000 2.437309e-001 9.561899e-002 1.915229e-001 -4.713982e-001 -7.618830e-002 5.861792e-002 1.241574e-001 9.356234e-002 -8.036054e-001 1.651890e-002 5.509457e-002 -1.104107e-001 1.042667e-001
<VARIANCE> 25
 8.764130e+001 9.203093e+001 5.125566e+001 2.452679e+001 7.432407e+001 7.081554e+001 4.483568e+001 6.236718e+001 9.330165e+001 2.882503e+001 3.588306e+001 2.197905e+001 2.976449e+000 4.193839e+000 3.590174e+000 2.595839e+000 2.283058e+000 2.933388e+000 3.620498e+000 3.712913e+000 5.115989e+000 2.234484e+000 2.160579e+000 1.562181e+000 2.494816e+000
<GCONST> 1.069745e+002
<STATE> 4
<MEAN> 25
 -6.407967e-001 3.666809e+000 7.016748e+000 4.368757e+000 -1.099854e+000 1.218786e-002 -1.819463e+000 -5.194415e-001 -3.487329e+000 -7.347588e-001 -1.624438e+000 -2.167937e+000 -7.773158e-002 1.244155e-001 -8.566225e-002 -2.930769e-002 1.151700e-001 2.667261e-001 1.887597e-001 -1.186090e-001 7.879367e-002 9.414056e-002 -2.730436e-001 6.135804e-002 -3.262765e-001
<VARIANCE> 25
 3.147701e+001 5.427385e+001 6.159661e+001 3.218476e+001 4.837377e+001 3.841110e+001 2.972359e+001 4.192365e+001 6.489000e+001 2.323470e+001 4.245311e+001 2.137642e+001 5.635271e-001 8.591554e-001 1.366785e+000 1.107968e+000 1.331089e+000 1.563966e+000 1.531544e+000 2.102718e+000 2.399544e+000 1.495323e+000 1.718700e+000 1.250651e+000 6.106469e-001
<GCONST> 9.290844e+001
<TRANSP> 5
 0.000000e+000 1.000000e+000 0.000000e+000 0.000000e+000 0.000000e+000
 0.000000e+000 6.466208e-001 3.533792e-001 0.000000e+000 0.000000e+000
 0.000000e+000 0.000000e+000 7.081517e-001 2.918483e-001 0.000000e+000
 0.000000e+000 0.000000e+000 0.000000e+000 8.871436e-001 1.128565e-001
 0.000000e+000 0.000000e+000 0.000000e+000 0.000000e+000 0.000000e+000
<ENDHMM>
~h "er"
<BEGINHMM>
<NUMSTATES> 5
<STATE> 2
<MEAN> 25
 5.327182e+000 -2.177957e+000 -4.505148e+000 2.880464e+000 -4.693325e-001 -2.132969e+000 -3.599778e+000 1.970981e+000 3.193418e+000 -2.229081e+000 -8.771421e-001 -1.089618e+000 -1.446465e-001 -8.635107e-002 -5.374173e-002 2.927012e-001 1.534046e-001 -1.939051e-001 -5.719265e-002 2.432408e-001 3.050745e-001 2.314699e-003 -1.403354e-001 -6.301684e-002 -2.601867e-001
<VARIANCE> 25
 5.832829e+001 5.118093e+001 4.938041e+001 5.382837e+001 5.077546e+001 6.258750e+001 7.194678e+001 4.833199e+001 3.021984e+001 3.278127e+001 2.239282e+001 2.725741e+001 2.063761e+000 1.623145e+000 1.904209e+000 2.220925e+000 2.802904e+000 3.362645e+000 3.055944e+000 2.518623e+000 2.034452e+000 1.737089e+000 1.695504e+000 1.695698e+000 2.332070e+000
<GCONST> 1.014645e+002
<STATE> 3
<MEAN> 25
 2.848435e+000 -1.636617e+000 -2.733321e+000 3.600312e+000 6.630253e-001 -1.538568e+000 -1.454262e+000 3.885845e+000 3.892364e+000 -2.577955e+000 -1.387268e+000 -2.841159e-001 -1.634709e-001 2.023619e-001 9.424752e-002 -3.727364e-002 3.439459e-001 8.461451e-002 2.238752e-001 2.500856e-002 1.634722e-002 2.007227e-001 -5.050791e-002 4.851955e-002 -5.170521e-001
<VARIANCE> 25
 5.745435e+001 6.489653e+001 4.292802e+001 5.961829e+001 4.747980e+001 5.433965e+001 6.676147e+001 4.882449e+001 2.926350e+001 3.820690e+001 1.819682e+001 2.633368e+001 1.921228e+000 1.740730e+000 1.520702e+000 2.268826e+000 2.781744e+000 2.530797e+000 2.825914e+000 2.472580e+000 2.032309e+000 2.031499e+000 1.496441e+000 1.393344e+000 1.339617e+000
<GCONST> 9.994110e+001
<STATE> 4
<MEAN> 25
 -1.769178e+000 2.331847e-001 -1.344199e+000 2.116970e+000 2.825007e+000 1.591024e+000 2.028491e+000 1.617982e+000 1.664402e+000 5.052903e-001 -5.281861e-001 3.546590e-001 -5.617016e-002 3.806194e-002 1.004632e-001 -2.528716e-002 -9.729734e-003 3.859669e-002 3.385756e-002 -1.033950e-001 -9.421914e-002 3.964372e-002 -7.621045e-003 1.326475e-002 -1.196795e-001
<VARIANCE> 25
 1.825332e+001 2.474653e+001 2.035327e+001 3.004900e+001 1.936557e+001 2.641220e+001 2.402881e+001 2.589608e+001 1.694658e+001 2.639100e+001 1.764876e+001 1.706895e+001 6.897236e-001 7.838179e-001 8.021252e-001 1.182472e+000 1.430014e+000 1.284785e+000 1.570370e+000 1.728429e+000 1.407726e+000 1.809032e+000 1.361130e+000 1.283118e+000 4.846109e-001
<GCONST> 8.466455e+001
<TRANSP> 5
 0.000000e+000 1.000000e+000 0.000000e+000 0.000000e+000 0.000000e+000
 0.000000e+000 8.015016e-001 1.984983e-001 0.000000e+000 0.000000e+000
 0.000000e+000 0.000000e+000 7.299569e-001 2.700431e-001 0.000000e+000
 0.000000e+000 0.000000e+000 0.000000e+000 9.179661e-001 8.203393e-002
 0.000000e+000 0.000000e+000 0.000000e+000 0.000000e+000 0.000000e+000
<ENDHMM>
~h "ey"
<BEGINHMM>
<NUMSTATES> 5
<STATE> 2
<MEAN> 25
 1.784637e+000 -3.054113e+000 4.084822e+000 -1.120253e+000 -5.626457e+000 -2.383466e+000 1.332335e-001 -2.613007e-001 -1.551097e+000 -1.677915e+000 2.677542e+000 -4.798322e-001 4.148310e-001 -2.342572e-002 5.632076e-001 -3.732036e-001 -1.193204e+000 -2.017227e-001 3.920105e-001 -2.326727e-001 -7.652711e-001 -7.698235e-003 6.089287e-001 -7.407490e-002 7.306147e-001
<VARIANCE> 25
 5.522891e+001 3.073437e+001 4.812748e+001 4.455078e+001 5.271022e+001 7.249324e+001 5.555754e+001 4.733672e+001 3.232673e+001 4.114030e+001 5.917136e+001 2.825056e+001 2.937492e+000 1.265587e+000 2.449030e+000 2.746256e+000 5.772991e+000 4.400990e+000 5.086811e+000 3.374370e+000 3.397701e+000 2.597327e+000 2.732443e+000 1.612787e+000 3.229924e+000
<GCONST> 1.059218e+002
<STATE> 3
<MEAN> 25
 3.966653e+000 -3.240340e+000 6.639528e+000 -2.323720e+000 -8.849646e+000 -3.677462e+000 -8.105630e-001 -7.057220e-002 -3.941999e+000 -2.155114e+000 5.621829e+000 -1.745318e-001 2.912599e-002 2.167310e-001 7.165647e-001 -6.151959e-001 -9.045680e-001 2.175735e-001 1.484447e-001 -2.698623e-001 -7.851539e-001 1.996494e-001 4.858827e-001 -6.235545e-003 -1.292580e-002
<VARIANCE> 25
 2.503860e+001 3.103001e+001 6.363032e+001 5.402893e+001 7.680286e+001 7.790398e+001 5.229621e+001 5.264156e+001 4.034502e+001 4.202606e+001 6.973730e+001 2.993470e+001 1.483704e+000 1.089851e+000 2.012134e+000 2.299504e+000 4.281054e+000 3.249439e+000 3.160276e+000 3.282324e+000 2.582582e+000 2.042016e+000 2.933347e+000 1.752787e+000 8.501410e-001
<GCONST> 1.025637e+002
<STATE> 4
<MEAN> 25
 1.346692e+000 -1.723455e-001 1.072744e+001 -3.031107e+000 -1.085707e+001 -3.541920e+000 -5.180640e+000 -2.077984e+000 -8.392221e+000 -1.922996e+000 4.873604e+000 -2.409147e-001 -8.252044e-002 4.713235e-001 6.874453e-002 1.896939e-001 1.825511e-001 2.567147e-001 -5.793011e-002 -2.034568e-001 -2.676911e-001 1.943562e-001 -3.052022e-001 -1.432020e-001 -3.808195e-001
<VARIANCE> 25
 3.399406e+001 2.778301e+001 5.968025e+001 3.355492e+001 4.899760e+001 5.867038e+001 4.991581e+001 5.693255e+001 5.268340e+001 3.497478e+001 4.900164e+001 4.284965e+001 1.212879e+000 1.161683e+000 1.844309e+000 1.594790e+000 2.056754e+000 2.031449e+000 2.536876e+000 2.777455e+000 2.277307e+000 1.889139e+000 2.214037e+000 1.713386e+000 5.811592e-001
<GCONST> 9.853784e+001
<TRANSP> 5
 0.000000e+000 1.000000e+000 0.000000e+000 0.000000e+000 0.000000e+000
 0.000000e+000 5.514770e-001 4.485230e-001 0.000000e+000 0.000000e+000
 0.000000e+000 0.000000e+000 5.562404e-001 4.437596e-001 0.000000e+000
 0.000000e+000 0.000000e+000 0.000000e+000 9.022015e-001 9.779850e-002
 0.000000e+000 0.000000e+000 0.000000e+000 0.000000e+000 0.000000e+000
<ENDHMM>
~h "hh"
<BEGINHMM>
<NUMSTATES> 5
<STATE> 2
<MEAN> 25
 -1.529982e+000 -1.006908e+001 -9.130933e+000 7.592093e-001 1.008489e+001 6.720304e-001 1.299144e+000 -1.503621e+000 2.598022e+000 -1.266549e+000 2.155653e+000 1.599552e+000 2.086250e-001 -2.613277e-001 1.064890e-001 2.601284e-002 3.419853e-001 4.689109e-001 -2.746787e-002 -1.428870e-001 -6.709865e-002 3.233524e-002 1.124497e-001 -2.000198e-001 1.772646e-001
<VARIANCE> 25
 2.405379e+001 5.642255e+001 8.629281e+001 4.784172e+001 5.184596e+001 4.554993e+001 1.398851e+001 3.193740e+001 4.640830e+001 2.743625e+001 6.257528e+001 3.150252e+001 1.751559e+000 2.215888e+000 2.252667e+000 2.221896e+000 3.916959e+000 2.351215e+000 1.194728e+000 2.892941e+000 3.615083e+000 3.249750e+000 3.569981e+000 4.047581e+000 3.522989e+000
<GCONST> 1.029114e+002
<STATE> 3
<MEAN> 25
 4.739904e-001 -9.749111e+000 -4.818682e+000 8.100621e-001 1.171903e+001 2.415155e+000 -3.474616e-001 -1.307989e+000 9.879376e-002 6.224409e-001 1.479339e+000 -4.379992e-001 3.259028e-001 9.237985e-002 4.778787e-002 -3.688651e-001 -3.078184e-001 -3.247077e-001 3.225987e-002 -1.727416e-001 -1.823545e-001 8.952676e-002 8.892965e-003 -5.647657e-001 8.980309e-001
<VARIANCE> 25
 2.903449e+001 6.998356e+001 5.331875e+001 4.188898e+001 5.612357e+001 5.344574e+001 1.726923e+001 3.833488e+001 3.535170e+001 2.964558e+001 4.701637e+001 3.908271e+001 3.083497e+000 2.636673e+000 4.238801e+000 3.083901e+000 4.829632e+000 2.797461e+000 2.155327e+000 4.770620e+000 2.603923e+000 3.657831e+000 2.857072e+000 3.314931e+000 3.996871e+000
<GCONST> 1.057349e+002
<STATE> 4
<MEAN> 25
 -9.717028e-001 -1.260985e+000 -7.064272e-001 5.249840e+000 6.317458e+000 2.434878e+000 2.070346e+000 -7.472298e-001 -3.946027e-001 -6.230270e-001 9.787881e-002 -2.014485e+000 1.738875e-001 -2.028667e-002 -4.871060e-002 -2.733062e-003 -4.875886e-001 -1.525500e-001 8.147821e-002 7.280256e-002 -1.536374e-001 -2.785508e-001 -4.697703e-002 -2.009770e-002 4.267828e-001
<VARIANCE> 25
 2.842083e+001 1.404093e+002 7.288928e+001 5.880760e+001 3.268125e+001 2.711152e+001 1.745614e+001 2.335038e+001 2.056031e+001 2.323951e+001 5.521153e+001 3.672359e+001 9.930652e-001 2.050880e+000 1.861978e+000 1.780078e+000 2.445321e+000 1.490925e+000 2.326923e+000 2.617799e+000 1.417980e+000 2.537682e+000 2.210068e+000 2.794268e+000 2.308587e+000
<GCONST> 9.813047e+001
<TRANSP> 5
 0.000000e+000 1.000000e+000 0.000000e+000 0.000000e+000 0.000000e+000
 0.000000e+000 8.954971e-001 1.045028e-001 0.000000e+000 0.000000e+000
 0.000000e+000 0.000000e+000 8.399388e-001 1.600612e-001 0.000000e+000
 0.000000e+000 0.000000e+000 0.000000e+000 9.218249e-001 7.817516e-002
 0.000000e+000 0.000000e+000 0.000000e+000 0.000000e+000 0.000000e+000
<ENDHMM>
~h "ih"
<BEGINHMM>
<NUMSTATES> 5
<STATE> 2
<MEAN> 25
 -1.365031e-001 5.189593e-001 1.777510e+000 2.516693e+000 3.737147e+000 -7.759585e-001 -2.097213e+000 -9.858598e-001 4.078029e-001 -1.981490e+000 4.897175e-001 3.952781e-001 -2.192384e-001 3.421428e-002 1.150922e-001 7.455151e-002 6.269608e-001 4.868604e-002 -5.832832e-001 -3.438075e-001 -6.847829e-002 1.642290e-001 1.190234e-003 1.320911e-001 -1.320713e-001
<VARIANCE> 25
 4.921982e+001 2.656849e+001 3.482440e+001 3.213375e+001 6.583983e+001 5.033863e+001 7.619154e+001 5.879836e+001 2.646579e+001 3.556240e+001 1.774368e+001 1.947181e+001 1.825034e+000 1.248876e+000 1.572403e+000 1.600353e+000 3.357565e+000 2.290378e+000 5.062745e+000 2.290178e+000 2.390690e+000 2.045209e+000 1.712103e+000 1.581113e+000 8.965594e-001
<GCONST> 9.805956e+001
<STATE> 3
<MEAN> 25
 -3.626383e-001 6.836458e-001 2.623967e+000 3.177438e+000 5.419856e+000 -9.903846e-001 -4.570929e+000 -2.103562e+000 6.595708e-001 -1.217814e+000 5.647974e-003 1.260325e-003 -2.130518e-001 1.214412e-001 6.949664e-002 -5.710921e-002 2.494393e-001 1.959071e-002 -1.549326e-001 -2.841903e-002 1.367463e-001 2.555315e-001 -1.875485e-001 1.524272e-004 -1.993061e-001
<VARIANCE> 25
 4.135376e+001 2.399374e+001 3.734841e+001 3.773396e+001 5.676298e+001 4.829247e+001 1.094878e+002 6.617084e+001 1.856650e+001 3.592500e+001 1.775819e+001 2.153349e+001 1.188701e+000 1.005203e+000 1.523912e+000 1.749688e+000 2.523429e+000 2.547621e+000 4.855616e+000 2.245848e+000 2.171976e+000 1.880128e+000 1.561250e+000 1.755303e+000 6.323894e-001
<GCONST> 9.671682e+001
<STATE> 4
<MEAN> 25
 -1.959498e+000 -2.661081e-001 1.158138e+000 7.993577e-002 2.800702e+000 1.112883e+000 7.305748e-001 2.694848e-001 6.565195e-001 9.779573e-001 3.585516e-001 1.124138e+000 3.817573e-003 4.619371e-002 -1.062503e-001 -1.681252e-002 -4.919513e-002 5.416064e-002 1.366107e-001 -6.807267e-002 -4.995713e-002 3.362285e-002 -2.030502e-002 -4.186457e-002 5.446392e-002
<VARIANCE> 25
 1.397338e+001 1.252005e+001 1.671891e+001 2.149302e+001 2.772938e+001 2.900762e+001 3.875405e+001 2.350720e+001 1.945320e+001 2.128957e+001 1.710793e+001 1.973726e+001 6.324886e-001 8.969498e-001 8.340962e-001 1.006063e+000 1.389259e+000 1.384804e+000 1.605485e+000 1.458144e+000 1.579330e+000 1.583109e+000 1.386823e+000 1.740293e+000 4.298536e-001
<GCONST> 8.406441e+001
<TRANSP> 5
 0.000000e+000 1.000000e+000 0.000000e+000 0.000000e+000 0.000000e+000
 0.000000e+000 5.777900e-001 4.222100e-001 0.000000e+000 0.000000e+000
 0.000000e+000 0.000000e+000 5.757205e-001 4.242795e-001 0.000000e+000
 0.000000e+000 0.000000e+000 0.000000e+000 9.152445e-001 8.475554e-002
 0.000000e+000 0.000000e+000 0.000000e+000 0.000000e+000 0.000000e+000
<ENDHMM>
~h "iy"
<BEGINHMM>
<NUMSTATES> 5
<STATE> 2
<MEAN> 25
 -5.908320e-001 7.554632e-001 9.059289e+000 -1.466119e+000 -7.849196e+000 -2.329426e+000 -1.125580e+000 -4.135051e+000 -6.606332e+000 2.095400e+000 2.948673e+000 1.536929e+000 2.026680e-001 -5.853508e-002 5.845437e-001 -5.764581e-001 -6.070020e-001 -7.589412e-002 -3.517765e-001 -2.814122e-001 -4.248548e-001 1.788420e-001 -2.196062e-002 -4.211158e-002 6.456528e-001
<VARIANCE> 25
 5.230353e+001 6.255375e+001 9.714555e+001 1.147103e+002 9.417548e+001 8.414487e+001 8.523642e+001 9.340177e+001 6.533186e+001 8.372599e+001 7.629255e+001 6.752736e+001 2.967859e+000 3.414177e+000 5.807587e+000 5.603616e+000 5.944795e+000 5.305495e+000 5.465870e+000 6.073088e+000 4.382644e+000 3.996757e+000 6.650347e+000 3.567475e+000 6.278900e+000
<GCONST> 1.190917e+002
<STATE> 3
<MEAN> 25
 2.111731e+000 2.273853e+000 1.239023e+001 -5.367880e+000 -9.812592e+000 -2.522018e+000 -5.252303e+000 -5.510085e+000 -8.080230e+000 2.040692e+000 8.842739e-001 1.838731e-001 1.135368e-001 1.329236e-001 3.257057e-003 -9.419238e-002 4.745897e-002 -2.983849e-002 -9.872165e-002 9.460235e-002 -4.579579e-002 -1.252071e-001 -2.108088e-001 -7.934674e-002 -1.103257e-001
<VARIANCE> 25
 2.586636e+001 3.880070e+001 8.244164e+001 9.497523e+001 8.546432e+001 5.183574e+001 7.806322e+001 4.979309e+001 5.350098e+001 9.218063e+001 7.035669e+001 5.129315e+001 1.366282e+000 2.238436e+000 4.554828e+000 3.728807e+000 4.860796e+000 3.557912e+000 4.835808e+000 4.134195e+000 3.489977e+000 3.174382e+000 4.599860e+000 3.016494e+000 3.952338e+000
<GCONST> 1.113855e+002
<STATE> 4
<MEAN> 25
 1.918673e+000 3.473654e+000 1.096851e+001 -6.570570e+000 -7.762636e+000 -1.727223e+000 -4.751792e+000 -4.712219e+000 -5.385875e+000 2.256159e+000 -9.159735e-001 -8.520812e-001 -9.866438e-002 -3.854964e-002 -8.177788e-001 7.078137e-001 5.824788e-001 -8.122338e-002 2.948790e-001 3.095450e-001 4.782664e-001 -2.481500e-001 3.598010e-002 1.548305e-001 -6.905873e-001
<VARIANCE> 25
 1.740781e+001 2.418978e+001 6.780812e+001 1.074204e+002 6.234774e+001 3.647667e+001 6.527733e+001 3.564201e+001 5.629954e+001 6.419759e+001 5.003111e+001 3.312454e+001 1.043134e+000 1.820218e+000 2.726797e+000 2.837210e+000 4.390635e+000 2.496038e+000 3.382798e+000 2.954558e+000 2.700588e+000 2.433647e+000 2.728521e+000 2.782054e+000 2.661755e+000
<GCONST> 1.042425e+002
<TRANSP> 5
 0.000000e+000 1.000000e+000 0.000000e+000 0.000000e+000 0.000000e+000
 0.000000e+000 9.217808e-001 7.821921e-002 0.000000e+000 0.000000e+000
 0.000000e+000 0.000000e+000 8.655990e-001 1.344009e-001 0.000000e+000
 0.000000e+000 0.000000e+000 0.000000e+000 8.989366e-001 1.010634e-001
 0.000000e+000 0.000000e+000 0.000000e+000 0.000000e+000 0.000000e+000
<ENDHMM>
~h "jh"
<BEGINHMM>
<NUMSTATES> 5
<STATE> 2
<MEAN> 25
 4.703570e+000 5.250388e-001 5.668313e+000 5.652245e+000 5.398396e+000 2.615929e+000 -6.989876e+000 -7.133090e+000 2.534833e-001 -3.556774e+000 -5.468141e+000 -3.708244e+000 1.580376e-001 -2.907492e-001 2.037049e-002 -2.159870e-002 2.866050e-002 -1.341931e-001 -5.705005e-001 -3.394898e-001 -6.822225e-002 -3.440101e-001 -5.154007e-002 -1.878176e-002 4.010242e-001
<VARIANCE> 25
 1.558912e+001 2.422219e+001 2.872318e+001 3.406762e+001 4.602320e+001 1.567638e+001 8.250874e+001 6.072838e+001 2.680827e+001 2.156477e+001 2.896690e+001 2.197591e+001 9.519083e-001 3.334253e+000 2.088532e+000 2.236202e+000 5.837527e+000 2.489848e+000 7.527875e+000 6.747539e+000 2.450330e+000 2.336800e+000 2.902530e+000 3.249373e+000 3.778600e+000
<GCONST> 1.013022e+002
<STATE> 3
<MEAN> 25
 3.993843e+000 -2.841725e+000 4.209483e+000 5.592789e+000 4.511278e+000 2.037346e+000 -7.072720e+000 -4.579136e+000 2.470026e-001 -5.746611e+000 -1.790508e+000 -1.068122e+000 1.340251e-001 -4.976460e-001 -2.281963e-001 -3.790624e-002 -2.641071e-001 -1.316409e-001 -2.923248e-001 -2.253121e-001 -3.146321e-002 -2.595571e-001 3.819310e-001 6.579660e-002 3.808314e-001
<VARIANCE> 25
 2.330670e+001 5.344223e+001 2.855965e+001 2.931819e+001 4.092316e+001 1.666764e+001 7.422652e+001 6.500638e+001 4.171614e+001 2.751329e+001 3.017702e+001 1.970462e+001 2.500277e+000 7.248641e+000 3.832186e+000 3.718284e+000 5.959453e+000 2.210824e+000 7.977033e+000 6.762941e+000 6.034141e+000 3.197362e+000 2.766332e+000 2.251127e+000 5.306722e+000
<GCONST> 1.068227e+002
<STATE> 4
<MEAN> 25
 4.396713e+000 -5.178256e+000 6.494504e-001 3.049937e+000 1.067962e+000 4.631506e-001 -8.791538e+000 -6.731790e+000 -2.562072e+000 -6.818483e+000 2.772611e+000 -1.233653e+000 -6.344354e-002 2.153907e-001 -5.483620e-001 -7.313033e-001 -5.034111e-001 -3.299755e-001 5.296242e-001 1.861653e-001 -1.269278e-001 3.784479e-001 5.735354e-001 9.436084e-002 1.741188e-001
<VARIANCE> 25
 4.919058e+001 2.470862e+001 5.264127e+001 2.252715e+001 5.019431e+001 3.737206e+001 3.954358e+001 5.664475e+001 3.221152e+001 1.312540e+001 3.775671e+001 1.149876e+001 8.945915e+000 4.498374e+000 7.347793e+000 2.168857e+000 4.598237e+000 1.777753e+000 4.396333e+000 6.163320e+000 5.555285e+000 1.663551e+000 2.165755e+000 1.061051e+000 3.950153e+000
<GCONST> 1.037927e+002
<TRANSP> 5
 0.000000e+000 1.000000e+000 0.000000e+000 0.000000e+000 0.000000e+000
 0.000000e+000 9.471067e-001 5.289334e-002 0.000000e+000 0.000000e+000
 0.000000e+000 0.000000e+000 8.921485e-001 1.078515e-001 0.000000e+000
 0.000000e+000 0.000000e+000 0.000000e+000 9.069710e-001 9.302898e-002
 0.000000e+000 0.000000e+000 0.000000e+000 0.000000e+000 0.000000e+000
<ENDHMM>
~h "ng"
<BEGINHMM>
<NUMSTATES> 5
<STATE> 2
<MEAN> 25
 1.433651e+000 4.465297e+000 -4.266706e-001 1.741434e+000 4.134886e+000 -5.327893e-001 1.615425e+000 9.964950e-002 2.407811e+000 3.162557e+000 -3.226006e-001 -2.293200e+000 -2.865299e-001 -1.810524e-001 -2.782383e-003 -2.653311e-002 -6.254531e-002 9.421457e-002 2.647204e-001 3.417666e-001 3.240599e-002 1.562617e-001 1.360448e-002 2.741386e-001 -2.127412e-001
<VARIANCE> 25
 2.504366e+001 1.754298e+001 1.306332e+001 1.019104e+001 5.837440e+000 8.003539e+000 2.316897e+001 3.175722e+001 1.375892e+001 1.137389e+001 1.259042e+001 1.859159e+001 2.404446e-001 6.601540e-001 7.224833e-001 4.373238e-001 5.761613e-001 5.608999e-001 1.236032e+000 9.671149e-001 9.509740e-001 9.604112e-001 6.001053e-001 4.683118e-001 1.573400e-001
<GCONST> 7.072420e+001
<STATE> 3
<MEAN> 25
 -3.522492e+000 -6.812903e-001 -2.778037e-001 8.344798e-001 4.465113e+000 -3.662692e-002 5.656007e+000 3.544222e+000 -3.460682e-001 3.997174e+000 -7.636311e-001 2.022312e+000 -4.467244e-002 -9.235621e-002 -9.922474e-003 -2.128384e-002 -3.624867e-002 -3.808005e-002 3.331308e-002 -5.210098e-002 -1.609163e-001 -8.258114e-004 -8.740424e-002 7.242440e-002 -9.259144e-002
<VARIANCE> 25
 1.853565e+000 3.440889e+000 5.774628e+000 5.725696e+000 5.942218e+000 5.395518e+000 1.073625e+001 1.079471e+001 1.365214e+001 9.800544e+000 1.314867e+001 6.438107e+000 1.182367e-001 3.130964e-001 2.616025e-001 3.076493e-001 4.290965e-001 4.810774e-001 8.536416e-001 8.761914e-001 7.527248e-001 8.234217e-001 7.187622e-001 3.799978e-001 6.095351e-002
<GCONST> 5.659538e+001
<STATE> 4
<MEAN> 25
 -3.213080e+000 -1.238426e+000 1.758084e-001 8.311278e-001 3.456434e+000 -3.850412e-001 6.102378e+000 3.957014e+000 -1.440693e+000 3.995052e+000 -2.157957e+000 2.325348e+000 2.252092e-002 -1.165416e-001 1.728186e-001 -2.582170e-002 -4.568258e-001 -2.889335e-001 -7.844686e-003 2.985281e-001 -2.114959e-001 -3.744011e-001 1.398688e-001 1.931513e-001 9.672491e-002
<VARIANCE> 25
 2.440541e+000 1.701707e+000 2.631538e+000 5.769076e+000 1.095713e+001 4.857060e+000 5.750499e+000 8.965089e+000 1.036089e+001 6.873156e+000 8.184356e+000 5.569531e+000 3.232050e-001 4.047919e-001 6.822477e-001 6.538147e-001 9.145482e-001 4.056597e-001 5.633679e-001 5.588704e-001 4.775664e-001 9.548143e-001 5.893192e-001 4.023888e-001 3.225539e-001
<GCONST> 5.774883e+001
<TRANSP> 5
 0.000000e+000 1.000000e+000 0.000000e+000 0.000000e+000 0.000000e+000
 0.000000e+000 9.688529e-001 3.114706e-002 0.000000e+000 0.000000e+000
 0.000000e+000 0.000000e+000 9.411874e-001 5.881260e-002 0.000000e+000
 0.000000e+000 0.000000e+000 0.000000e+000 7.946984e-001 2.053016e-001
 0.000000e+000 0.000000e+000 0.000000e+000 0.000000e+000 0.000000e+000
<ENDHMM>
~h "ow"
<BEGINHMM>
<NUMSTATES> 5
<STATE> 2
<MEAN> 25
 6.856321e+000 3.129344e+000 -6.601120e+000 -1.068176e+001 -2.530635e+000 5.128884e+000 -2.261912e-001 1.097021e+000 -1.461667e+000 4.308783e-001 2.907720e+000 -2.480693e+000 8.856585e-002 2.328300e-001 -2.602901e-002 -3.890108e-002 -5.824103e-002 -7.876575e-002 2.894934e-001 1.026749e-001 -1.192088e-001 -1.414792e-001 -3.474788e-002 9.685743e-003 -6.036509e-002
<VARIANCE> 25
 6.413556e+001 4.002037e+001 4.059629e+001 1.025703e+002 2.888022e+001 2.486735e+001 5.778389e+001 3.894053e+001 2.399512e+001 2.637129e+001 2.365071e+001 6.413288e+001 3.023743e+000 1.083252e+000 1.881890e+000 6.503698e+000 2.928858e+000 2.114643e+000 3.587691e+000 2.223478e+000 2.720016e+000 2.164578e+000 1.984705e+000 2.649630e+000 1.838761e+000
<GCONST> 1.018345e+002
<STATE> 3
<MEAN> 25
 8.719305e+000 7.810446e+000 -4.322875e+000 -6.849546e+000 -2.480326e+000 4.342882e+000 6.093967e+000 1.334666e+000 -7.347127e-001 -1.493171e+000 1.263131e-001 1.172901e-001 -5.250669e-001 -1.178639e-001 1.761272e-001 9.753035e-001 5.395446e-001 2.712656e-002 2.864512e-001 -1.240220e-002 9.094813e-004 7.491195e-002 -1.412971e-003 4.152280e-002 -6.343653e-001
<VARIANCE> 25
 4.432569e+001 3.349465e+001 2.380594e+001 7.608567e+001 3.596605e+001 2.453879e+001 5.618724e+001 3.874062e+001 2.344496e+001 2.703957e+001 2.325350e+001 5.127904e+001 1.121368e+000 1.065255e+000 1.396201e+000 2.908412e+000 1.838796e+000 1.860298e+000 3.153534e+000 2.679175e+000 1.836558e+000 1.906371e+000 2.808282e+000 2.221390e+000 5.711416e-001
<GCONST> 9.622247e+001
<STATE> 4
<MEAN> 25
 -1.644813e-001 2.384639e+000 3.858181e-001 1.996779e+000 2.887603e+000 3.052302e+000 2.550872e+000 3.906525e-001 2.501514e-001 -3.011518e-001 -1.387080e+000 8.779557e-001 -1.918424e-001 -1.806606e-001 1.968074e-002 1.017292e-001 5.319490e-002 -4.235414e-002 -2.264441e-002 3.416766e-002 6.243062e-003 -5.998687e-003 -2.816558e-002 1.021125e-001 -1.906264e-001
<VARIANCE> 25
 3.410130e+001 2.418519e+001 2.848833e+001 5.941094e+001 2.105124e+001 1.857254e+001 3.163706e+001 3.253134e+001 2.190450e+001 2.178957e+001 2.810869e+001 2.758985e+001 5.821283e-001 7.433461e-001 1.034417e+000 1.340517e+000 1.343794e+000 1.326760e+000 1.754637e+000 2.177131e+000 1.596154e+000 1.905374e+000 1.966285e+000 1.972793e+000 4.583037e-001
<GCONST> 8.891820e+001
<TRANSP> 5
 0.000000e+000 1.000000e+000 0.000000e+000 0.000000e+000 0.000000e+000
 0.000000e+000 9.222871e-001 7.771291e-002 0.000000e+000 0.000000e+000
 0.000000e+000 0.000000e+000 8.336768e-001 1.663233e-001 0.000000e+000
 0.000000e+000 0.000000e+000 0.000000e+000 9.514072e-001 4.859274e-002
 0.000000e+000 0.000000e+000 0.000000e+000 0.000000e+000 0.000000e+000
<ENDHMM>
~h "oy"
<BEGINHMM>
<NUMSTATES> 5
<STATE> 2
<MEAN> 25
 9.825458e+000 4.942452e+000 5.775547e-001 -2.675266e+000 -6.181488e+000 -6.005378e+000 -5.319457e+000 2.060804e+000 2.024426e+000 -2.851990e+000 -1.004847e+000 -1.023037e+000 -3.283975e-001 -4.565648e-001 5.695757e-001 2.627894e-001 2.879395e-001 1.556489e-001 -1.291185e-001 -2.147714e-001 -2.891064e-002 -2.470406e-001 1.224803e-001 -9.677116e-002 2.234965e-001
<VARIANCE> 25
 6.195174e+001 5.561587e+001 5.097812e+001 2.676316e+001 8.673810e+001 9.356680e+001 2.801226e+001 3.949716e+001 4.543838e+001 5.073143e+001 1.619035e+001 1.193367e+001 4.480648e+000 2.580868e+000 2.758540e+000 1.694517e+000 4.992143e+000 3.881646e+000 2.752799e+000 2.153645e+000 2.697759e+000 2.669171e+000 1.732525e+000 1.726426e+000 4.882855e-001
<GCONST> 1.014142e+002
<STATE> 3
<MEAN> 25
 -5.277730e+000 -8.037682e+000 9.266749e+000 2.380354e+000 -2.787519e+000 8.424577e-002 -1.965034e+000 4.851699e-001 2.925642e+000 -6.041579e+000 2.399022e+000 -8.476541e-001 -1.589732e+000 -9.874280e-001 5.351961e-001 1.090748e-001 -3.980358e-001 4.554766e-001 6.104395e-001 8.096404e-002 1.543326e-001 -9.773150e-002 2.879729e-001 2.235125e-001 2.542465e-002
<VARIANCE> 25
 2.001719e+002 8.568231e+001 1.133406e+002 3.511977e+001 6.418268e+001 6.243497e+001 2.437239e+001 2.595088e+001 3.923986e+001 3.356963e+001 1.583245e+001 1.767577e+001 5.474118e+000 1.990884e+000 2.401371e+000 1.750472e+000 5.027671e+000 2.145078e+000 1.559559e+000 1.614930e+000 2.314515e+000 1.452119e+000 1.684114e+000 1.905262e+000 4.259144e-001
<GCONST> 1.001999e+002
<STATE> 4
<MEAN> 25
 -1.064789e+001 -9.946291e+000 9.851504e+000 1.955115e+000 -1.904985e+000 3.830189e+000 2.010288e+000 -8.116065e-002 1.060807e+000 -5.472747e+000 3.256778e+000 1.503133e+000 5.948722e-001 6.796281e-001 -7.926983e-001 -2.564605e-001 6.877118e-001 5.068328e-001 1.548392e-001 -2.401804e-001 -7.452140e-001 2.685631e-001 -1.069213e-001 1.737577e-001 -9.392668e-001
<VARIANCE> 25
 1.109367e+002 6.453260e+001 8.112872e+001 2.975217e+001 2.052279e+001 3.763391e+001 1.713371e+001 1.230045e+001 2.172163e+001 3.404491e+001 9.918113e+000 1.663348e+001 2.347775e+000 2.186006e+000 1.124938e+000 5.202217e-001 1.179096e+000 1.732630e+000 2.142711e+000 9.780303e-001 2.106556e+000 1.941895e+000 1.328638e+000 1.597970e+000 2.701686e+000
<GCONST> 9.203339e+001
<TRANSP> 5
 0.000000e+000 1.000000e+000 0.000000e+000 0.000000e+000 0.000000e+000
 0.000000e+000 9.421173e-001 5.788268e-002 0.000000e+000 0.000000e+000
 0.000000e+000 0.000000e+000 8.188893e-001 1.811107e-001 0.000000e+000
 0.000000e+000 0.000000e+000 0.000000e+000 8.818558e-001 1.181441e-001
 0.000000e+000 0.000000e+000 0.000000e+000 0.000000e+000 0.000000e+000
<ENDHMM>
~h "sh"
<BEGINHMM>
<NUMSTATES> 5
<STATE> 2
<MEAN> 25
 4.045097e+000 7.669289e+000 1.981292e+000 2.985008e+000 2.523643e+000 -8.195394e-001 2.853723e+000 -2.236139e+000 -1.965515e+000 1.334049e+000 -1.701184e+000 -2.236289e+000 -4.256161e-001 3.950470e-002 -1.320146e-001 3.379676e-001 4.052325e-001 -3.457209e-001 2.491327e-001 9.297202e-001 7.590570e-001 2.478005e-001 -5.730035e-001 -4.622394e-002 -7.336977e-001
<VARIANCE> 25
 5.566947e+000 1.502033e+001 2.167978e+001 2.364893e+001 3.596328e+001 2.414946e+001 9.860117e+000 1.728908e+001 1.677580e+001 1.758869e+001 1.400763e+001 1.970350e+001 2.731202e-001 7.805439e-001 4.158104e-001 1.647446e+000 2.733392e+000 1.636117e+000 1.169914e+000 1.678881e+000 1.610320e+000 1.387663e+000 1.778742e+000 1.751249e+000 4.806144e-001
<GCONST> 8.128242e+001
<STATE> 3
<MEAN> 25
 2.688129e+000 6.852654e+000 6.743165e-001 1.699552e+000 3.292332e+000 3.050004e-002 3.474124e+000 2.539596e-001 5.492513e-001 2.159911e+000 -1.654155e+000 -1.514218e+000 -5.724778e-001 -1.732588e-001 1.993711e-001 -1.246496e-001 -1.954603e-001 -7.330679e-002 2.262920e-001 7.325179e-001 4.997811e-001 3.771566e-001 -2.255567e-001 2.393428e-001 -6.064479e-001
<VARIANCE> 25
 1.037744e+001 1.986624e+001 2.194971e+001 1.523591e+001 2.644461e+001 1.873032e+001 1.323580e+001 1.506286e+001 1.323260e+001 1.583944e+001 1.031207e+001 2.144541e+001 4.988274e-001 6.880468e-001 1.079798e+000 1.016838e+000 1.550349e+000 1.121732e+000 1.935352e+000 1.174896e+000 1.217824e+000 1.443690e+000 8.718062e-001 1.507051e+000 4.679483e-001
<GCONST> 7.980910e+001
<STATE> 4
<MEAN> 25
