~o
<STREAMINFO> 1 25
<VECSIZE> 25<NULLD><MFCC_D_N_Z_0><DIAGC>
~h "a"
<BEGINHMM>
<NUMSTATES> 5
<STATE> 2
<MEAN> 25
 -1.205808e-008 7.471832e-008 -5.503286e-008 1.714419e-009 -4.314622e-009 -6.243344e-009 -3.245967e-008 5.886173e-009 -4.663221e-008 -2.217316e-008 -2.948801e-008 4.270333e-008 2.560044e-002 3.139617e-004 8.288709e-003 -9.700003e-003 8.491755e-003 -6.657258e-003 3.393384e-003 -9.661411e-003 -5.902453e-003 -8.686491e-003 -3.965416e-003 -3.687867e-003 3.609585e-002
<VARIANCE> 25
 6.743311e+001 4.386040e+001 5.738831e+001 5.798326e+001 6.474918e+001 5.654857e+001 5.389107e+001 4.411510e+001 4.258719e+001 4.208948e+001 3.679993e+001 3.124355e+001 1.965594e+000 1.803727e+000 1.934022e+000 2.333615e+000 2.834451e+000 2.798423e+000 2.861493e+000 2.778302e+000 2.531476e+000 2.589815e+000 2.444618e+000 2.166934e+000 2.889750e+000
<GCONST> 1.040926e+002
<STATE> 3
<MEAN> 25
 -1.205808e-008 7.471832e-008 -5.503286e-008 1.714419e-009 -4.314622e-009 -6.243344e-009 -3.245967e-008 5.886173e-009 -4.663221e-008 -2.217316e-008 -2.948801e-008 4.270333e-008 2.560044e-002 3.139617e-004 8.288709e-003 -9.700003e-003 8.491755e-003 -6.657258e-003 3.393384e-003 -9.661411e-003 -5.902453e-003 -8.686491e-003 -3.965416e-003 -3.687867e-003 3.609585e-002
<VARIANCE> 25
 6.743311e+001 4.386040e+001 5.738831e+001 5.798326e+001 6.474918e+001 5.654857e+001 5.389107e+001 4.411510e+001 4.258719e+001 4.208948e+001 3.679993e+001 3.124355e+001 1.965594e+000 1.803727e+000 1.934022e+000 2.333615e+000 2.834451e+000 2.798423e+000 2.861493e+000 2.778302e+000 2.531476e+000 2.589815e+000 2.444618e+000 2.166934e+000 2.889750e+000
<GCONST> 1.040926e+002
<STATE> 4
<MEAN> 25
 -1.205808e-008 7.471832e-008 -5.503286e-008 1.714419e-009 -4.314622e-009 -6.243344e-009 -3.245967e-008 5.886173e-009 -4.663221e-008 -2.217316e-008 -2.948801e-008 4.270333e-008 2.560044e-002 3.139617e-004 8.288709e-003 -9.700003e-003 8.491755e-003 -6.657258e-003 3.393384e-003 -9.661411e-003 -5.902453e-003 -8.686491e-003 -3.965416e-003 -3.687867e-003 3.609585e-002
<VARIANCE> 25
 6.743311e+001 4.386040e+001 5.738831e+001 5.798326e+001 6.474918e+001 5.654857e+001 5.389107e+001 4.411510e+001 4.258719e+001 4.208948e+001 3.679993e+001 3.124355e+001 1.965594e+000 1.803727e+000 1.934022e+000 2.333615e+000 2.834451e+000 2.798423e+000 2.861493e+000 2.778302e+000 2.531476e+000 2.589815e+000 2.444618e+000 2.166934e+000 2.889750e+000
<GCONST> 1.040926e+002
<TRANSP> 5
 0.000000e+000 1.000000e+000 0.000000e+000 0.000000e+000 0.000000e+000
 0.000000e+000 6.000000e-001 4.000000e-001 0.000000e+000 0.000000e+000
 0.000000e+000 0.000000e+000 6.000000e-001 4.000000e-001 0.000000e+000
 0.000000e+000 0.000000e+000 0.000000e+000 7.000000e-001 3.000000e-001
 0.000000e+000 0.000000e+000 0.000000e+000 0.000000e+000 0.000000e+000
<ENDHMM>
~h "b"
<BEGINHMM>
<NUMSTATES> 5
<STATE> 2
<MEAN> 25
 -1.052682e-001 2.046279e+000 -1.275461e-001 -6.232620e-001 1.461992e+000 2.022034e+000 7.742686e-001 -1.142284e+000 -3.724783e-001 6.248869e-001 -1.224369e-001 -2.514572e-001 1.457924e-001 -1.562670e-001 -2.513305e-001 9.967709e-003 4.334623e-002 -2.445728e-002 -3.951198e-002 -5.111859e-002 -1.073144e-001 9.199992e-002 -3.965518e-002 1.327469e-001 -2.303210e-001
<VARIANCE> 25
 5.121022e+001 2.956201e+001 2.462691e+001 3.002151e+001 3.013068e+001 3.282417e+001 2.638811e+001 2.249805e+001 1.896808e+001 2.438062e+001 2.436856e+001 1.518118e+001 1.484990e+000 1.016372e+000 1.470903e+000 1.765671e+000 2.740389e+000 1.453391e+000 2.127839e+000 1.262746e+000 1.543218e+000 2.542513e+000 1.759846e+000 1.547482e+000 3.306923e+000
<GCONST> 9.250940e+001
<STATE> 3
<MEAN> 25
 3.542030e-001 1.090360e+000 -7.054277e-001 -2.440089e-001 1.615852e+000 1.998685e+000 7.960678e-001 -7.273597e-001 -3.400942e-001 7.609359e-001 -2.845100e-001 3.367473e-002 3.739993e-002 -2.774515e-001 -1.720512e-001 8.205868e-002 8.601827e-002 -1.574630e-002 -5.132473e-003 6.711496e-002 -7.672454e-002 1.751368e-001 1.445417e-001 -3.936958e-002 -9.429219e-002
<VARIANCE> 25
 4.432470e+001 2.646101e+001 2.791670e+001 2.505736e+001 3.687034e+001 3.524775e+001 2.798185e+001 2.203599e+001 2.059983e+001 2.612400e+001 2.018016e+001 1.839866e+001 1.091501e+000 7.782182e-001 1.704351e+000 1.959499e+000 2.292028e+000 1.438395e+000 1.749887e+000 1.197805e+000 1.727160e+000 2.099758e+000 2.155693e+000 1.716551e+000 2.002264e+000
<GCONST> 9.163039e+001
<STATE> 4
<MEAN> 25
 -1.531799e+000 -8.835943e-001 2.765938e-001 -2.029846e-002 1.826776e+000 1.290805e+000 1.250726e+000 4.962815e-001 -1.527931e-002 1.100989e+000 3.457378e-001 1.492638e-001 -3.321991e-002 1.868067e-002 2.834075e-002 3.048772e-002 3.973135e-002 -1.426051e-002 8.694428e-004 2.299374e-002 2.352404e-002 -9.927053e-003 -1.555706e-002 6.082935e-003 2.112317e-002
<VARIANCE> 25
 2.844889e+001 1.545760e+001 2.639507e+001 1.646810e+001 3.748429e+001 2.792699e+001 1.738040e+001 2.225698e+001 2.383426e+001 1.662742e+001 2.224035e+001 2.233254e+001 6.282236e-001 6.823949e-001 9.190964e-001 9.097680e-001 1.553023e+000 1.390940e+000 1.232903e+000 1.582370e+000 1.580572e+000 1.534301e+000 1.623478e+000 1.631515e+000 9.689237e-001
<GCONST> 8.545029e+001
<TRANSP> 5
 0.000000e+000 1.000000e+000 0.000000e+000 0.000000e+000 0.000000e+000
 0.000000e+000 7.216718e-001 2.783283e-001 0.000000e+000 0.000000e+000
 0.000000e+000 0.000000e+000 7.056385e-001 2.943615e-001 0.000000e+000
 0.000000e+000 0.000000e+000 0.000000e+000 9.726819e-001 2.731811e-002
 0.000000e+000 0.000000e+000 0.000000e+000 0.000000e+000 0.000000e+000
<ENDHMM>
~h "d"
<BEGINHMM>
<NUMSTATES> 5
<STATE> 2
<MEAN> 25
 6.578166e+000 1.807476e+000 3.029420e+000 3.784051e+000 -3.367832e+000 -5.777444e+000 -2.418106e+000 -1.564085e-001 6.478489e-001 -3.940359e+000 -2.853433e+000 1.563159e+000 -1.602598e-001 4.754718e-001 1.013123e-001 4.018547e-001 8.537683e-002 3.154303e-001 2.730072e-001 9.899630e-003 -7.839894e-002 -1.178350e-001 1.010899e-001 -1.629588e-001 -9.541748e-001
<VARIANCE> 25
 3.269957e+001 4.258571e+001 3.961132e+001 4.362024e+001 6.870094e+001 5.781413e+001 4.916507e+001 6.229347e+001 6.034753e+001 6.436156e+001 4.433997e+001 3.424320e+001 1.356665e+000 2.179141e+000 1.510160e+000 2.065797e+000 3.098894e+000 2.608682e+000 2.538927e+000 3.525025e+000 2.587845e+000 3.247159e+000 2.577292e+000 2.546457e+000 1.328795e+000
<GCONST> 1.033420e+002
<STATE> 3
<MEAN> 25
 4.920876e+000 3.738831e+000 3.601567e+000 5.176836e+000 -1.038007e+000 -2.905340e+000 -1.010370e+000 -1.217913e+000 2.169283e-001 -3.348469e+000 -2.487175e+000 8.680040e-001 -4.493413e-001 1.924194e-001 -1.409101e-001 1.796524e-001 4.635591e-001 4.786037e-001 4.576554e-001 5.108488e-002 -2.373594e-002 2.051552e-001 1.235126e-001 -9.039222e-002 -8.026074e-001
<VARIANCE> 25
 2.952950e+001 2.668072e+001 3.969023e+001 4.221048e+001 7.702631e+001 4.005857e+001 4.386732e+001 5.802881e+001 6.317300e+001 6.252486e+001 4.017186e+001 3.305877e+001 9.801889e-001 1.582673e+000 1.451503e+000 2.057112e+000 3.514066e+000 2.614577e+000 2.841078e+000 3.569898e+000 2.613659e+000 3.439143e+000 2.585363e+000 2.649256e+000 1.364876e+000
<GCONST> 1.018883e+002
<STATE> 4
<MEAN> 25
 1.040333e+000 5.030599e+000 3.097285e+000 6.240183e+000 2.032705e+000 7.140329e-001 1.533651e+000 -4.368965e-001 9.894136e-001 -1.632019e+000 -2.640422e+000 -7.550135e-002 -4.659735e-001 -4.356274e-002 -2.045173e-001 9.465829e-002 2.482173e-001 3.317963e-001 3.441448e-001 1.369515e-001 1.277004e-001 1.414870e-001 4.742656e-002 -9.182218e-002 -4.210755e-001
<VARIANCE> 25
 2.972665e+001 2.459115e+001 3.018735e+001 3.243795e+001 4.897523e+001 3.456602e+001 3.307795e+001 4.092023e+001 4.184767e+001 3.696688e+001 3.032520e+001 2.537090e+001 8.114619e-001 1.142787e+000 1.474914e+000 1.722279e+000 2.267983e+000 2.163210e+000 2.256006e+000 2.437380e+000 2.260934e+000 2.312608e+000 2.161717e+000 2.114208e+000 9.692676e-001
<GCONST> 9.535675e+001
<TRANSP> 5
 0.000000e+000 1.000000e+000 0.000000e+000 0.000000e+000 0.000000e+000
 0.000000e+000 6.638128e-001 3.361873e-001 0.000000e+000 0.000000e+000
 0.000000e+000 0.000000e+000 6.162106e-001 3.837894e-001 0.000000e+000
 0.000000e+000 0.000000e+000 0.000000e+000 7.762948e-001 2.237052e-001
 0.000000e+000 0.000000e+000 0.000000e+000 0.000000e+000 0.000000e+000
<ENDHMM>
~h "f"
<BEGINHMM>
<NUMSTATES> 5
<STATE> 2
<MEAN> 25
 3.883538e+000 3.709195e-001 -1.789214e+000 -1.403961e+000 -2.930259e+000 -1.413939e+000 -2.876312e+000 5.932370e-002 1.471296e+000 -1.915199e+000 1.458669e+000 -8.780702e-001 4.696429e-001 1.831781e-001 -2.772960e-002 3.373725e-001 -1.558283e-001 3.676628e-001 2.676943e-002 -4.292217e-002 1.518083e-002 -3.276911e-001 1.315626e-001 -2.205756e-001 -1.300320e-001
<VARIANCE> 25
 5.007475e+001 3.896070e+001 4.743193e+001 7.459486e+001 7.632219e+001 4.415833e+001 6.539674e+001 4.984002e+001 6.164176e+001 3.504005e+001 4.767821e+001 3.468298e+001 5.670576e+000 2.461279e+000 2.294203e+000 4.372375e+000 7.047741e+000 4.301059e+000 6.395903e+000 4.575271e+000 5.686602e+000 3.214581e+000 4.981520e+000 3.088197e+000 2.848467e+000
<GCONST> 1.114104e+002
<STATE> 3
<MEAN> 25
 4.873328e+000 2.259031e-001 -1.999133e+000 2.436389e-001 -3.359971e+000 -6.054248e-002 -2.502064e+000 -6.075589e-001 5.825026e-001 -3.176376e+000 1.708552e+000 -1.379710e+000 -4.121358e-002 1.848064e-001 4.731581e-002 2.298272e-002 2.736242e-001 6.905863e-001 1.103944e-001 1.479989e-001 -7.994318e-002 -2.464621e-001 -1.736102e-001 -2.642099e-002 -1.578811e-001
<VARIANCE> 25
 5.150915e+001 4.487777e+001 4.092817e+001 1.004277e+002 7.190696e+001 5.957011e+001 7.869753e+001 4.602338e+001 4.670858e+001 4.782052e+001 6.345780e+001 3.097748e+001 2.871619e+000 2.088806e+000 2.528496e+000 5.683083e+000 6.098978e+000 5.084342e+000 5.302485e+000 4.249111e+000 3.530552e+000 3.287693e+000 4.522669e+000 2.752798e+000 2.349512e+000
<GCONST> 1.106995e+002
<STATE> 4
<MEAN> 25
 3.718793e+000 1.622968e+000 -2.981729e+000 -4.592266e-001 -1.426636e+000 2.186433e+000 -6.496138e-001 -8.293402e-001 -1.962108e-001 -3.697670e+000 1.165707e+000 -6.456175e-001 -2.799917e-001 -2.087777e-003 -3.584105e-002 -5.779870e-002 3.357768e-001 2.806585e-001 1.574342e-001 3.592103e-001 -1.131938e-002 1.090190e-001 -2.135677e-001 -3.684466e-002 -3.434863e-002
<VARIANCE> 25
 5.903177e+001 3.943822e+001 3.594367e+001 1.228935e+002 5.893327e+001 6.922674e+001 8.988461e+001 4.509072e+001 3.991724e+001 5.011138e+001 5.257313e+001 3.570502e+001 1.983499e+000 1.561213e+000 2.000800e+000 3.909121e+000 4.259529e+000 4.161581e+000 3.890193e+000 2.682874e+000 2.589069e+000 3.406253e+000 3.012085e+000 1.948233e+000 2.440139e+000
<GCONST> 1.070987e+002
<TRANSP> 5
 0.000000e+000 1.000000e+000 0.000000e+000 0.000000e+000 0.000000e+000
 0.000000e+000 6.483322e-001 3.516679e-001 0.000000e+000 0.000000e+000
 0.000000e+000 0.000000e+000 6.120836e-001 3.879165e-001 0.000000e+000
 0.000000e+000 0.000000e+000 0.000000e+000 6.958553e-001 3.041447e-001
 0.000000e+000 0.000000e+000 0.000000e+000 0.000000e+000 0.000000e+000
<ENDHMM>
~h "g"
<BEGINHMM>
<NUMSTATES> 5
<STATE> 2
<MEAN> 25
 -1.205808e-008 7.471832e-008 -5.503286e-008 1.714419e-009 -4.314622e-009 -6.243344e-009 -3.245967e-008 5.886173e-009 -4.663221e-008 -2.217316e-008 -2.948801e-008 4.270333e-008 2.560044e-002 3.139617e-004 8.288709e-003 -9.700003e-003 8.491755e-003 -6.657258e-003 3.393384e-003 -9.661411e-003 -5.902453e-003 -8.686491e-003 -3.965416e-003 -3.687867e-003 3.609585e-002
<VARIANCE> 25
 6.743311e+001 4.386040e+001 5.738831e+001 5.798326e+001 6.474918e+001 5.654857e+001 5.389107e+001 4.411510e+001 4.258719e+001 4.208948e+001 3.679993e+001 3.124355e+001 1.965594e+000 1.803727e+000 1.934022e+000 2.333615e+000 2.834451e+000 2.798423e+000 2.861493e+000 2.778302e+000 2.531476e+000 2.589815e+000 2.444618e+000 2.166934e+000 2.889750e+000
<GCONST> 1.040926e+002
<STATE> 3
<MEAN> 25
 -1.205808e-008 7.471832e-008 -5.503286e-008 1.714419e-009 -4.314622e-009 -6.243344e-009 -3.245967e-008 5.886173e-009 -4.663221e-008 -2.217316e-008 -2.948801e-008 4.270333e-008 2.560044e-002 3.139617e-004 8.288709e-003 -9.700003e-003 8.491755e-003 -6.657258e-003 3.393384e-003 -9.661411e-003 -5.902453e-003 -8.686491e-003 -3.965416e-003 -3.687867e-003 3.609585e-002
<VARIANCE> 25
 6.743311e+001 4.386040e+001 5.738831e+001 5.798326e+001 6.474918e+001 5.654857e+001 5.389107e+001 4.411510e+001 4.258719e+001 4.208948e+001 3.679993e+001 3.124355e+001 1.965594e+000 1.803727e+000 1.934022e+000 2.333615e+000 2.834451e+000 2.798423e+000 2.861493e+000 2.778302e+000 2.531476e+000 2.589815e+000 2.444618e+000 2.166934e+000 2.889750e+000
<GCONST> 1.040926e+002
<STATE> 4
<MEAN> 25
 -1.205808e-008 7.471832e-008 -5.503286e-008 1.714419e-009 -4.314622e-009 -6.243344e-009 -3.245967e-008 5.886173e-009 -4.663221e-008 -2.217316e-008 -2.948801e-008 4.270333e-008 2.560044e-002 3.139617e-004 8.288709e-003 -9.700003e-003 8.491755e-003 -6.657258e-003 3.393384e-003 -9.661411e-003 -5.902453e-003 -8.686491e-003 -3.965416e-003 -3.687867e-003 3.609585e-002
<VARIANCE> 25
 6.743311e+001 4.386040e+001 5.738831e+001 5.798326e+001 6.474918e+001 5.654857e+001 5.389107e+001 4.411510e+001 4.258719e+001 4.208948e+001 3.679993e+001 3.124355e+001 1.965594e+000 1.803727e+000 1.934022e+000 2.333615e+000 2.834451e+000 2.798423e+000 2.861493e+000 2.778302e+000 2.531476e+000 2.589815e+000 2.444618e+000 2.166934e+000 2.889750e+000
<GCONST> 1.040926e+002
<TRANSP> 5
 0.000000e+000 1.000000e+000 0.000000e+000 0.000000e+000 0.000000e+000
 0.000000e+000 6.000000e-001 4.000000e-001 0.000000e+000 0.000000e+000
 0.000000e+000 0.000000e+000 6.000000e-001 4.000000e-001 0.000000e+000
 0.000000e+000 0.000000e+000 0.000000e+000 7.000000e-001 3.000000e-001
 0.000000e+000 0.000000e+000 0.000000e+000 0.000000e+000 0.000000e+000
<ENDHMM>
~h "i"
<BEGINHMM>
<NUMSTATES> 5
<STATE> 2
<MEAN> 25
 6.352879e-001 3.022985e+000 1.643516e+001 -6.743165e+000 -1.301255e+001 -2.143513e+000 -5.998709e+000 -7.890608e+000 -1.184656e+000 1.860459e+000 6.343051e+000 3.314281e+000 -9.038910e-002 8.413257e-002 -1.425445e-001 4.289877e-003 4.306768e-001 1.493034e-001 2.212289e-001 2.448672e-001 1.546072e-001 1.907448e-001 3.396379e-002 2.870503e-002 -3.898100e-001
<VARIANCE> 25
 1.468277e+001 5.044888e+001 3.814112e+001 9.374237e+001 7.001640e+001 4.038845e+001 4.354473e+001 6.855764e+001 2.926382e+001 9.516082e+001 4.093205e+001 4.633750e+001 9.423550e-001 2.058501e+000 2.176192e+000 3.649228e+000 4.512842e+000 4.945231e+000 2.664324e+000 5.137515e+000 4.322735e+000 6.259670e+000 2.980661e+000 3.028680e+000 1.392043e+000
<GCONST> 1.064506e+002
<STATE> 3
<MEAN> 25
 -2.115036e-001 6.581278e+000 7.822201e+000 9.950595e-001 1.131648e+000 2.026705e+000 3.035161e+000 -1.403917e+000 2.772514e+000 -5.214605e-001 -4.546364e-001 4.790869e+000 -4.089842e-001 -4.464881e-001 -6.998708e-001 6.404292e-001 9.384785e-001 4.988579e-001 4.003559e-001 2.788778e-001 3.594661e-001 -8.571745e-002 -2.667887e-001 -5.482313e-003 -5.355635e-001
<VARIANCE> 25
 2.013588e+001 2.236888e+001 5.898659e+001 8.213746e+001 2.876013e+001 2.693911e+001 3.520101e+001 5.409096e+001 2.520565e+001 2.506828e+001 3.302842e+001 1.918649e+001 5.412176e-001 7.544686e-001 1.149677e+000 2.769315e+000 3.664557e+000 6.064109e+000 2.880538e+000 3.691660e+000 3.899180e+000 3.648174e+000 4.428334e+000 1.383241e+000 1.058444e+000
<GCONST> 9.789916e+001
<STATE> 4
<MEAN> 25
 -4.236633e+000 -2.590199e+000 -6.916679e-001 4.760806e+000 8.805103e+000 4.754979e+000 -2.902839e+000 2.140761e-001 5.607167e+000 6.917846e-001 1.647714e+000 3.159003e+000 -1.538951e-001 -1.933565e-001 -1.493647e-001 2.438010e-001 1.072506e-001 -2.997673e-001 8.219553e-002 1.564911e-001 -1.160278e-002 -2.865583e-002 1.170139e-001 1.902116e-002 6.571268e-002
<VARIANCE> 25
 1.130002e+001 9.353506e+001 6.026846e+001 5.253938e+001 5.059656e+001 4.001212e+001 9.146231e+001 2.021045e+001 2.949025e+001 2.113842e+001 3.819386e+001 1.321521e+001 1.112457e+000 8.598045e-001 9.111863e-001 2.553099e+000 3.312502e+000 3.233004e+000 4.336541e+000 1.438762e+000 2.984443e+000 2.700338e+000 2.453170e+000 1.565935e+000 5.607055e-001
<GCONST> 9.662072e+001
<TRANSP> 5
 0.000000e+000 1.000000e+000 0.000000e+000 0.000000e+000 0.000000e+000
 0.000000e+000 9.535642e-001 4.643587e-002 0.000000e+000 0.000000e+000
 0.000000e+000 0.000000e+000 7.574121e-001 2.425879e-001 0.000000e+000
 0.000000e+000 0.000000e+000 0.000000e+000 9.024339e-001 9.756606e-002
 0.000000e+000 0.000000e+000 0.000000e+000 0.000000e+000 0.000000e+000
<ENDHMM>
~h "k"
<BEGINHMM>
<NUMSTATES> 5
<STATE> 2
<MEAN> 25
 -1.572645e+000 -8.204576e-001 -1.747220e-001 -1.372099e+000 -2.654090e+000 -2.756196e+000 2.495006e-001 1.198911e+000 -6.248031e-001 -2.303286e-001 -2.921508e-001 3.433841e-001 7.419630e-001 7.644778e-002 -5.223551e-001 -7.306476e-001 -9.667532e-001 -3.464635e-001 -2.011591e-001 5.850456e-003 6.545242e-002 -4.686600e-001 -2.975205e-002 -2.002504e-001 1.384965e+000
<VARIANCE> 25
 7.078190e+001 2.908574e+001 3.964035e+001 3.007783e+001 1.019245e+002 5.131966e+001 3.366743e+001 3.575795e+001 4.010777e+001 4.743826e+001 2.494118e+001 2.096911e+001 5.842564e+000 1.956534e+000 3.550858e+000 3.512821e+000 6.315965e+000 4.276101e+000 2.539905e+000 3.150662e+000 4.532880e+000 6.200221e+000 2.104158e+000 1.742288e+000 1.219611e+001
<GCONST> 1.075986e+002
<STATE> 3
<MEAN> 25
 8.245047e-001 8.518030e-002 -1.908210e+000 -2.907798e+000 -3.816629e+000 -2.746181e+000 -5.026694e-001 1.235709e+000 -1.021811e+000 -1.127895e+000 4.891640e-001 2.326456e-002 5.906805e-001 2.681610e-001 -5.757961e-001 -3.844095e-001 -2.019271e-001 3.586745e-001 -2.097072e-001 1.854045e-002 6.250460e-002 -5.309809e-002 1.078820e-001 -9.228417e-002 2.904237e-001
<VARIANCE> 25
 6.622365e+001 2.565276e+001 5.907352e+001 3.509056e+001 9.734858e+001 6.216248e+001 3.467212e+001 4.672397e+001 4.185289e+001 5.662196e+001 2.587125e+001 2.013466e+001 4.373337e+000 1.702683e+000 3.212060e+000 3.131362e+000 4.575952e+000 3.703581e+000 2.657230e+000 2.869484e+000 4.606207e+000 5.060162e+000 1.811978e+000 2.110355e+000 6.420830e+000
<GCONST> 1.066730e+002
<STATE> 4
<MEAN> 25
 -6.766695e-001 1.228308e+000 -1.212118e+000 -8.180405e-001 3.410104e-003 -1.277076e+000 1.989267e+000 1.802933e+000 -1.743889e+000 1.781412e+000 -8.199753e-001 -1.985617e-001 1.508222e-001 3.619788e-002 -1.558195e-001 -3.889756e-002 1.065982e-001 1.856300e-001 1.107373e-002 -5.744189e-002 5.625385e-002 -6.095137e-002 -7.816829e-002 -8.362710e-002 -1.020691e-002
<VARIANCE> 25
 4.045260e+001 1.460885e+001 3.298369e+001 2.854740e+001 6.893470e+001 4.052328e+001 3.113000e+001 3.687505e+001 2.854615e+001 2.910028e+001 2.191066e+001 1.585970e+001 1.371119e+000 1.365119e+000 1.478440e+000 1.435416e+000 2.368869e+000 2.229087e+000 1.994222e+000 1.980047e+000 2.205577e+000 1.857536e+000 1.617876e+000 1.336655e+000 2.225506e+000
<GCONST> 9.412823e+001
<TRANSP> 5
 0.000000e+000 1.000000e+000 0.000000e+000 0.000000e+000 0.000000e+000
 0.000000e+000 6.309274e-001 3.690726e-001 0.000000e+000 0.000000e+000
 0.000000e+000 0.000000e+000 5.761646e-001 4.238354e-001 0.000000e+000
 0.000000e+000 0.000000e+000 0.000000e+000 8.517999e-001 1.482001e-001
 0.000000e+000 0.000000e+000 0.000000e+000 0.000000e+000 0.000000e+000
<ENDHMM>
~h "l"
<BEGINHMM>
<NUMSTATES> 5
<STATE> 2
<MEAN> 25
 7.657143e+000 2.868973e+000 -4.564623e-002 -3.518418e+000 -1.065069e+001 -6.336307e+000 -4.819737e+000 -2.808869e-001 2.457571e+000 -2.348753e+000 5.219198e-001 -1.141538e+000 -7.470546e-002 -6.658927e-002 1.854546e-001 1.085163e-001 1.794646e-001 1.502832e-002 8.893697e-002 1.044996e-003 1.400717e-001 2.041977e-001 -5.667624e-002 1.764351e-002 -2.288189e-001
<VARIANCE> 25
 3.019971e+001 1.566795e+001 5.249255e+001 3.518016e+001 1.354305e+002 6.987854e+001 5.116533e+001 5.774783e+001 3.841357e+001 2.625320e+001 1.731305e+001 1.730681e+001 4.487190e-001 6.388356e-001 1.454533e+000 1.488413e+000 2.197542e+000 2.031642e+000 1.724846e+000 2.293332e+000 1.931313e+000 1.694362e+000 1.536558e+000 1.417263e+000 6.064363e-001
<GCONST> 9.325053e+001
<STATE> 3
<MEAN> 25
 5.592728e+000 2.328399e+000 6.959934e-001 -1.869304e+000 -5.337442e+000 -3.861520e+000 -2.739283e+000 -3.615598e-001 1.286169e+000 -9.352785e-001 1.058259e-001 -4.051477e-001 -2.671554e-001 -8.092868e-002 9.634525e-002 1.245595e-001 4.702953e-001 3.318260e-001 4.030773e-001 9.080777e-002 -1.011615e-001 2.289766e-001 -1.208348e-001 6.272625e-003 -4.184537e-001
<VARIANCE> 25
 3.879528e+001 1.598230e+001 5.654642e+001 3.386053e+001 1.220461e+002 7.817349e+001 6.769781e+001 5.193228e+001 3.323598e+001 2.953915e+001 1.842673e+001 1.546848e+001 4.819732e-001 8.037981e-001 1.459913e+000 1.549454e+000 2.182718e+000 2.142914e+000 2.129773e+000 1.839245e+000 1.769948e+000 1.566446e+000 1.494018e+000 1.139246e+000 6.565542e-001
<GCONST> 9.371126e+001
<STATE> 4
<MEAN> 25
 -1.539793e+000 -8.534147e-002 5.298628e-001 3.021771e-001 1.297369e+000 6.119620e-001 1.888681e+000 4.082277e-001 3.315864e-001 1.013265e+000 -2.150788e-001 6.038453e-001 -1.352007e-001 -5.468308e-002 -6.605657e-003 6.885884e-002 1.478516e-001 6.725273e-002 5.832785e-002 -3.831156e-002 -5.041377e-002 4.575479e-003 -1.031025e-002 -6.097605e-003 -1.387950e-001
<VARIANCE> 25
 2.513573e+001 1.357069e+001 1.613864e+001 1.587202e+001 3.530607e+001 2.798262e+001 2.682282e+001 2.189233e+001 1.995790e+001 1.645274e+001 1.436715e+001 1.314939e+001 5.944297e-001 5.385888e-001 8.730024e-001 9.420424e-001 1.394176e+000 1.457799e+000 1.611934e+000 1.470756e+000 1.648279e+000 1.427437e+000 1.161686e+000 1.052041e+000 4.547402e-001
<GCONST> 8.213752e+001
<TRANSP> 5
 0.000000e+000 1.000000e+000 0.000000e+000 0.000000e+000 0.000000e+000
 0.000000e+000 8.436080e-001 1.563921e-001 0.000000e+000 0.000000e+000
 0.000000e+000 0.000000e+000 7.677665e-001 2.322334e-001 0.000000e+000
 0.000000e+000 0.000000e+000 0.000000e+000 9.539686e-001 4.603142e-002
 0.000000e+000 0.000000e+000 0.000000e+000 0.000000e+000 0.000000e+000
<ENDHMM>
~h "m"
<BEGINHMM>
<NUMSTATES> 5
<STATE> 2
<MEAN> 25
 6.994759e+000 3.790722e+000 -3.093919e-001 4.398712e+000 5.732676e-001 1.592981e-001 -1.628913e+000 -5.392283e+000 -1.024289e+000 -3.138801e-001 4.931741e-001 -8.346587e+000 -1.317080e-001 5.172626e-001 6.993287e-001 9.189226e-001 7.857453e-001 -5.331424e-001 1.382666e-001 -3.019852e-001 -5.581036e-001 -7.407350e-002 -9.092614e-004 -2.120067e-001 -6.915960e-001
<VARIANCE> 25
 2.223454e+001 1.787001e+001 3.372422e+001 4.123607e+001 3.247269e+001 3.767912e+001 3.189039e+001 3.957623e+001 2.747867e+001 2.459534e+001 2.222302e+001 4.083556e+001 1.275625e+000 1.966067e+000 2.413732e+000 2.653238e+000 2.191139e+000 3.475781e+000 2.377495e+000 2.614231e+000 2.361351e+000 3.069141e+000 1.708526e+000 2.996786e+000 1.439041e+000
<GCONST> 9.735738e+001
<STATE> 3
<MEAN> 25
 5.687539e+000 5.129313e+000 2.789448e+000 6.353423e+000 2.932272e+000 -1.131780e+000 -1.520574e+000 -4.880268e+000 -1.828740e+000 -9.601954e-001 -3.529469e-002 -6.975670e+000 -4.202121e-001 -1.038328e-001 4.185051e-001 2.049614e-002 2.924814e-001 9.920563e-002 -7.973175e-002 3.973381e-001 -2.720625e-002 -3.474269e-002 -1.118932e-001 7.625250e-001 -6.975150e-001
<VARIANCE> 25
 1.671585e+001 2.026848e+001 2.352597e+001 2.734592e+001 2.869338e+001 3.114870e+001 2.801850e+001 4.089356e+001 3.216006e+001 1.995330e+001 2.222367e+001 4.326894e+001 1.171360e+000 2.224095e+000 1.795331e+000 2.401098e+000 2.739871e+000 2.937007e+000 2.233779e+000 2.932561e+000 2.089855e+000 2.672246e+000 2.489690e+000 3.910510e+000 1.305420e+000
<GCONST> 9.605688e+001
<STATE> 4
<MEAN> 25
 2.077520e+000 2.599516e+000 3.834110e+000 3.369510e+000 1.407057e+000 -1.264784e+000 -1.674683e+000 -9.449392e-001 -1.312101e+000 -6.038012e-001 -2.101079e-001 -1.761250e+000 -2.481688e-001 -2.233043e-001 -9.988075e-002 -1.321070e-001 -1.711199e-001 5.251259e-002 1.858464e-002 1.582639e-001 1.479810e-001 8.919755e-002 4.508341e-002 2.814622e-001 -8.352356e-002
<VARIANCE> 25
 2.418388e+001 2.014948e+001 5.409809e+001 2.634036e+001 5.380146e+001 5.385543e+001 3.475087e+001 2.328605e+001 5.525148e+001 1.948550e+001 1.613786e+001 2.871297e+001 6.701056e-001 1.218687e+000 1.712940e+000 1.210627e+000 2.560821e+000 2.008212e+000 2.141346e+000 1.992440e+000 2.838569e+000 1.973822e+000 1.610121e+000 2.029135e+000 6.985499e-001
<GCONST> 9.334905e+001
<TRANSP> 5
 0.000000e+000 1.000000e+000 0.000000e+000 0.000000e+000 0.000000e+000
 0.000000e+000 6.861368e-001 3.138631e-001 0.000000e+000 0.000000e+000
 0.000000e+000 0.000000e+000 7.002757e-001 2.997243e-001 0.000000e+000
 0.000000e+000 0.000000e+000 0.000000e+000 8.963249e-001 1.036751e-001
 0.000000e+000 0.000000e+000 0.000000e+000 0.000000e+000 0.000000e+000
<ENDHMM>
~h "n"
<BEGINHMM>
<NUMSTATES> 5
<STATE> 2
<MEAN> 25
 4.732190e+000 -3.330473e+000 6.507338e-001 -7.558573e-001 -2.844172e+000 -3.315391e+000 -2.106061e+000 1.376562e+000 2.426949e-001 -3.096432e+000 -2.380339e+000 -2.205724e+000 1.916757e-001 -1.823535e-002 3.116641e-001 2.905002e-002 -2.057605e-001 -1.306207e-001 -1.736554e-002 -1.159136e-001 -8.599727e-002 -1.167139e-001 4.311214e-002 2.307732e-002 -7.624913e-002
<VARIANCE> 25
 5.567940e+001 9.413832e+001 6.001711e+001 7.036902e+001 9.108941e+001 5.735271e+001 4.554592e+001 1.035338e+002 5.613991e+001 8.403815e+001 5.939089e+001 6.690704e+001 3.147001e+000 4.476480e+000 2.580017e+000 3.902414e+000 5.922568e+000 3.281467e+000 3.560276e+000 6.947124e+000 4.190813e+000 5.682492e+000 5.589897e+000 4.540726e+000 3.955444e+000
<GCONST> 1.155353e+002
<STATE> 3
<MEAN> 25
 5.661004e+000 -2.436903e+000 1.352675e+000 1.974020e-001 -2.954597e+000 -4.148971e+000 -1.379204e+000 4.455146e-001 -6.332734e-001 -2.890699e+000 -2.516147e+000 -1.730816e+000 2.869931e-001 4.779305e-001 2.253805e-001 5.081612e-001 -1.090223e-001 -1.107066e-001 -2.075063e-002 -5.476782e-001 -4.115428e-002 -8.901975e-002 -1.058654e-002 2.747583e-001 -6.717612e-001
<VARIANCE> 25
 4.804287e+001 8.749179e+001 5.911931e+001 6.843063e+001 7.476983e+001 4.904308e+001 4.638958e+001 8.129528e+001 6.169816e+001 8.492244e+001 4.977457e+001 6.685223e+001 2.300591e+000 3.168095e+000 2.178877e+000 2.637218e+000 4.173915e+000 3.291806e+000 3.329699e+000 5.069366e+000 3.518867e+000 4.584083e+000 3.617629e+000 3.967268e+000 2.010591e+000
<GCONST> 1.110365e+002
<STATE> 4
<MEAN> 25
 5.267383e+000 1.948535e+000 2.121305e+000 2.833450e+000 -2.075374e+000 -3.495366e+000 -3.725280e-001 -1.858365e+000 -3.620716e-001 -2.604551e+000 -2.920528e+000 -1.331699e+000 -1.264145e-001 3.236526e-001 2.827000e-002 2.315561e-001 1.822084e-001 1.016080e-001 1.230627e-001 2.215762e-002 1.148764e-001 -7.391674e-004 8.412203e-002 2.595881e-001 -6.635751e-001
<VARIANCE> 25
 5.064757e+001 5.289913e+001 4.804631e+001 4.825188e+001 7.511829e+001 4.378735e+001 3.365901e+001 4.766965e+001 4.820103e+001 6.840710e+001 4.281999e+001 5.654129e+001 1.677494e+000 2.206014e+000 1.642185e+000 2.083576e+000 2.813097e+000 2.817674e+000 2.240509e+000 3.405663e+000 2.404082e+000 3.068478e+000 2.756418e+000 2.804857e+000 1.406242e+000
<GCONST> 1.039861e+002
<TRANSP> 5
 0.000000e+000 1.000000e+000 0.000000e+000 0.000000e+000 0.000000e+000
 0.000000e+000 7.772310e-001 2.227690e-001 0.000000e+000 0.000000e+000
 0.000000e+000 0.000000e+000 6.950029e-001 3.049971e-001 0.000000e+000
 0.000000e+000 0.000000e+000 0.000000e+000 7.878386e-001 2.121614e-001
 0.000000e+000 0.000000e+000 0.000000e+000 0.000000e+000 0.000000e+000
<ENDHMM>
~h "p"
<BEGINHMM>
<NUMSTATES> 5
<STATE> 2
<MEAN> 25
 -2.241192e+000 -1.294150e+000 -3.134630e+000 1.522210e+000 1.435243e+000 1.918978e+000 2.174592e+000 -1.208677e-001 1.795678e+000 4.239652e-001 -8.355520e-001 -7.521596e-001 8.019435e-001 -9.682218e-001 -1.792904e-001 -3.845496e-001 -6.301318e-001 -7.453505e-001 -6.522036e-001 -1.357027e-001 2.033986e-001 -4.799742e-001 2.738422e-001 -1.623064e-001 3.823960e+000
<VARIANCE> 25
 4.400684e+001 4.371119e+001 5.597279e+001 6.858990e+001 5.110166e+001 5.541045e+001 4.268775e+001 3.265181e+001 2.546572e+001 2.595956e+001 3.782162e+001 2.220303e+001 4.766326e+000 5.290281e+000 7.079914e+000 6.066067e+000 5.397485e+000 4.803166e+000 5.636372e+000 3.253944e+000 2.545643e+000 3.175247e+000 5.957167e+000 2.400365e+000 1.928765e+001
<GCONST> 1.110385e+002
<STATE> 3
<MEAN> 25
 8.938605e-001 -4.138426e+000 -3.719332e+000 -7.544923e-001 -2.717104e-001 9.285570e-001 -1.001405e+000 -2.084406e+000 2.266860e+000 -8.165377e-001 -4.815470e-001 -9.233873e-001 1.150132e+000 -1.564013e-001 7.696372e-001 -1.740493e-001 -4.164015e-001 -5.790453e-001 -1.324325e+000 -3.731190e-002 -3.209656e-001 -4.096576e-001 3.043523e-001 -6.374702e-002 1.776221e+000
<VARIANCE> 25
 6.374689e+001 4.614624e+001 7.654800e+001 5.854272e+001 6.432048e+001 9.692999e+001 5.315270e+001 3.654123e+001 3.469069e+001 3.309052e+001 4.815216e+001 2.279813e+001 4.737428e+000 4.106562e+000 6.633256e+000 3.695264e+000 5.853318e+000 5.436388e+000 7.716052e+000 3.567133e+000 4.445460e+000 3.436965e+000 5.377000e+000 2.472459e+000 1.544088e+001
<GCONST> 1.136908e+002
<STATE> 4
<MEAN> 25
 5.727893e+000 -1.729291e+000 -1.935773e+000 -2.012900e+000 -4.625242e+000 -3.606109e+000 -3.772715e+000 -3.379145e-001 1.595306e+000 -5.140092e-002 -1.213420e+000 -1.853215e+000 3.989787e-001 3.550775e-001 7.016191e-001 -1.939047e-001 -1.015975e-001 -2.043240e-001 -2.985772e-001 -8.744705e-002 -6.539959e-001 1.063012e-001 3.295110e-001 -1.235214e-001 1.202495e-001
<VARIANCE> 25
 7.536272e+001 4.979848e+001 9.579576e+001 4.298183e+001 9.908147e+001 6.393830e+001 5.367999e+001 3.567191e+001 4.595854e+001 3.963113e+001 4.780219e+001 3.634435e+001 3.034566e+000 1.766383e+000 3.308812e+000 2.156046e+000 3.827055e+000 3.720491e+000 3.900678e+000 2.239194e+000 3.679440e+000 3.600164e+000 2.709810e+000 2.618794e+000 5.534713e+000
<GCONST> 1.085004e+002
<TRANSP> 5
 0.000000e+000 1.000000e+000 0.000000e+000 0.000000e+000 0.000000e+000
 0.000000e+000 6.463683e-001 3.536317e-001 0.000000e+000 0.000000e+000
 0.000000e+000 0.000000e+000 5.884719e-001 4.115281e-001 0.000000e+000
 0.000000e+000 0.000000e+000 0.000000e+000 6.524437e-001 3.475563e-001
 0.000000e+000 0.000000e+000 0.000000e+000 0.000000e+000 0.000000e+000
<ENDHMM>
~h "r"
<BEGINHMM>
<NUMSTATES> 5
<STATE> 2
<MEAN> 25
 3.522975e+000 -1.393476e+000 -3.372787e+000 7.656083e-001 -9.685727e-001 5.673977e-001 -2.537346e+000 7.055470e-001 1.837852e+000 -1.914054e+000 -2.872543e-001 4.931716e-001 3.500624e-001 -2.544151e-001 -1.653414e-001 -7.777401e-002 -7.146272e-003 7.523428e-002 -2.271680e-001 1.188209e-001 1.070161e-001 -1.770340e-001 6.156385e-002 -1.081287e-001 4.810947e-001
<VARIANCE> 25
 5.229115e+001 7.606040e+001 4.113117e+001 7.113578e+001 4.830186e+001 6.539895e+001 5.964032e+001 4.866209e+001 3.776172e+001 4.531010e+001 5.039906e+001 3.570799e+001 2.597915e+000 3.134859e+000 2.235583e+000 3.009912e+000 3.335420e+000 3.863529e+000 3.914470e+000 3.525122e+000 2.345580e+000 3.309242e+000 3.264347e+000 2.818026e+000 2.913824e+000
<GCONST> 1.077103e+002
<STATE> 3
<MEAN> 25
 4.430871e+000 -2.483931e+000 -4.433345e+000 -1.859425e-001 -5.771046e-001 7.975650e-001 -3.067530e+000 9.201564e-001 2.543698e+000 -1.811262e+000 3.757197e-001 4.262852e-001 2.205106e-001 -1.609956e-001 -1.223187e-001 -2.070671e-001 5.078636e-002 5.466269e-002 -2.486487e-001 -2.160266e-002 4.416832e-002 -1.037420e-001 2.005451e-001 -4.161750e-002 7.367702e-001
<VARIANCE> 25
 5.899405e+001 9.032376e+001 4.167907e+001 8.480556e+001 5.431114e+001 7.669177e+001 5.295558e+001 4.948790e+001 4.032113e+001 5.529964e+001 5.118358e+001 3.849187e+001 3.313175e+000 3.845371e+000 2.512325e+000 3.341594e+000 3.627580e+000 3.427116e+000 3.733180e+000 4.136190e+000 3.138288e+000 4.105447e+000 3.320910e+000 3.075266e+000 4.233438e+000
<GCONST> 1.104517e+002
<STATE> 4
<MEAN> 25
 5.469689e+000 -3.354474e-001 -3.085075e+000 -1.464801e+000 -2.150130e-001 1.667507e+000 -3.293941e+000 7.567542e-002 1.897696e+000 -3.275919e+000 2.041878e+000 7.168212e-001 -1.422020e-001 -9.965834e-003 1.613266e-001 9.124736e-002 5.537193e-002 -2.013941e-001 1.833942e-001 -3.620984e-002 -1.325324e-001 3.722396e-002 1.183335e-001 1.021077e-002 1.424799e-003
<VARIANCE> 25
 6.185665e+001 6.729237e+001 6.076764e+001 1.155983e+002 5.188725e+001 8.746845e+001 6.289189e+001 6.169547e+001 5.033489e+001 5.515837e+001 4.431012e+001 3.738298e+001 1.961294e+000 1.668103e+000 1.906246e+000 3.284435e+000 3.015792e+000 4.254490e+000 3.520101e+000 4.279731e+000 2.743737e+000 3.512393e+000 2.652703e+000 2.580693e+000 1.905228e+000
<GCONST> 1.082810e+002
<TRANSP> 5
 0.000000e+000 1.000000e+000 0.000000e+000 0.000000e+000 0.000000e+000
 0.000000e+000 6.357580e-001 3.642420e-001 0.000000e+000 0.000000e+000
 0.000000e+000 0.000000e+000 6.526693e-001 3.473307e-001 0.000000e+000
 0.000000e+000 0.000000e+000 0.000000e+000 8.323320e-001 1.676679e-001
 0.000000e+000 0.000000e+000 0.000000e+000 0.000000e+000 0.000000e+000
<ENDHMM>
~h "s"
<BEGINHMM>
<NUMSTATES> 5
<STATE> 2
<MEAN> 25
 -1.058503e+001 -2.441149e+000 6.490556e+000 2.330239e+000 4.146570e-002 5.116745e-001 1.628718e+000 2.278106e+000 -3.145080e-001 -2.141295e+000 1.668448e+000 2.372640e-001 -1.338649e+000 -2.153553e-001 1.741245e-001 2.797809e-002 -6.720516e-002 1.028462e-001 9.776433e-002 2.525904e-001 2.660425e-001 -4.058021e-002 3.415367e-001 1.357228e-001 4.437915e-001
<VARIANCE> 25
 8.521017e+001 1.077122e+002 1.161894e+002 3.695837e+001 5.812888e+001 5.405990e+001 2.944058e+001 3.932679e+001 3.596423e+001 4.135346e+001 3.970371e+001 2.606575e+001 5.988578e+000 3.184853e+000 4.777656e+000 2.409553e+000 4.099011e+000 3.287018e+000 2.581152e+000 3.126548e+000 3.068209e+000 2.981018e+000 2.181872e+000 2.430358e+000 2.184601e+000
<GCONST> 1.075339e+002
<STATE> 3
<MEAN> 25
 -1.235805e+001 -2.754672e+000 6.278449e+000 2.176471e+000 -4.677129e-001 1.216592e+000 1.168911e+000 2.379343e+000 2.765415e-001 -1.613993e+000 2.053357e+000 -1.004090e-001 3.973481e-001 1.839793e-001 -4.250917e-001 -1.158789e-001 -4.902447e-002 -1.911100e-003 -1.874482e-001 -1.659363e-001 4.870350e-002 1.097399e-001 6.273701e-002 -3.774627e-002 1.040848e-001
<VARIANCE> 25
 9.868545e+001 9.799711e+001 1.169940e+002 4.347280e+001 6.151693e+001 6.369395e+001 3.102723e+001 3.481182e+001 2.936874e+001 4.069623e+001 3.882707e+001 2.915954e+001 7.467049e+000 2.244570e+000 3.547831e+000 2.349755e+000 3.039789e+000 3.283954e+000 2.365229e+000 2.580365e+000 2.342903e+000 2.565260e+000 2.155886e+000 2.096813e+000 2.208312e+000
<GCONST> 1.061779e+002
<STATE> 4
<MEAN> 25
 -9.637607e+000 2.420507e-001 2.490341e+000 6.659997e-001 6.831689e-001 7.568336e-001 5.277851e-001 9.194489e-001 -1.728838e-001 -1.507082e-001 4.551644e-001 -1.560000e-001 7.029975e-001 -1.698843e-002 -2.752497e-001 1.995593e-003 -4.531211e-002 -1.698065e-002 -2.001337e-001 -1.110170e-001 -3.412592e-002 -3.802912e-002 1.153157e-001 -8.959603e-002 -1.598337e-001
<VARIANCE> 25
 9.420813e+001 5.834453e+001 8.628658e+001 3.614360e+001 4.256139e+001 6.112270e+001 2.382091e+001 2.532162e+001 2.618190e+001 2.541212e+001 3.045256e+001 2.200798e+001 3.660627e+000 1.799177e+000 2.257930e+000 1.675439e+000 2.288178e+000 2.373852e+000 1.903598e+000 2.393719e+000 1.983268e+000 2.158216e+000 1.890094e+000 1.699886e+000 1.670917e+000
<GCONST> 9.943684e+001
<TRANSP> 5
 0.000000e+000 1.000000e+000 0.000000e+000 0.000000e+000 0.000000e+000
 0.000000e+000 7.539706e-001 2.460294e-001 0.000000e+000 0.000000e+000
 0.000000e+000 0.000000e+000 7.326615e-001 2.673385e-001 0.000000e+000
 0.000000e+000 0.000000e+000 0.000000e+000 7.574527e-001 2.425473e-001
 0.000000e+000 0.000000e+000 0.000000e+000 0.000000e+000 0.000000e+000
<ENDHMM>
~h "t"
<BEGINHMM>
<NUMSTATES> 5
<STATE> 2
<MEAN> 25
 -2.673189e+000 5.022306e-001 -4.237539e-001 1.843528e+000 -1.164316e+000 -9.055158e-001 1.817853e+000 5.694028e-001 8.573137e-001 3.691782e-001 1.536411e+000 -3.070891e-001 8.466628e-001 -1.064181e+000 -2.953449e-001 -8.783309e-001 -5.337164e-002 -7.406626e-001 -1.321839e-001 1.840279e-001 -1.236819e-001 6.943614e-002 2.047273e-001 8.882980e-002 2.869107e+000
<VARIANCE> 25
 7.561440e+001 3.760565e+001 5.086334e+001 5.238171e+001 4.531640e+001 5.933048e+001 3.679902e+001 3.761265e+001 5.452534e+001 3.863862e+001 4.145823e+001 2.587452e+001 6.501534e+000 3.965918e+000 3.992716e+000 4.190670e+000 3.740909e+000 6.238829e+000 4.147624e+000 3.795504e+000 4.024649e+000 3.587890e+000 4.211141e+000 2.073891e+000 2.394794e+001
<GCONST> 1.115345e+002
<STATE> 3
<MEAN> 25
 8.973589e-002 -1.412651e+000 -1.269029e+000 -2.044021e-001 -1.029996e+000 -1.667826e+000 5.650590e-001 7.016146e-001 4.007841e-001 4.329784e-001 1.209077e+000 -6.390455e-002 3.139844e-001 -4.182652e-001 -1.388193e-001 -3.279553e-001 2.641599e-001 2.162923e-001 -1.951508e-001 1.696290e-002 4.939302e-003 1.866560e-001 -9.791653e-002 1.560820e-001 6.848610e-001
<VARIANCE> 25
 6.008463e+001 4.818185e+001 5.598657e+001 6.417821e+001 5.346789e+001 6.568032e+001 4.413267e+001 4.136534e+001 4.819281e+001 3.318916e+001 4.412350e+001 3.045438e+001 3.139223e+000 2.297014e+000 3.163944e+000 2.657418e+000 3.657058e+000 4.814283e+000 4.236969e+000 3.701370e+000 3.163460e+000 2.905439e+000 3.719793e+000 1.914249e+000 9.097295e+000
<GCONST> 1.084734e+002
<STATE> 4
<MEAN> 25
 -1.515173e-001 -1.582316e+000 -1.821694e+000 -7.818024e-001 9.611697e-001 2.651107e-001 8.988125e-001 7.001377e-001 8.970778e-001 1.131254e+000 9.556646e-001 6.589515e-001 1.472013e-001 -1.105452e-001 7.780450e-002 -3.642749e-002 1.868152e-001 2.449122e-001 1.974915e-003 -2.128017e-001 -1.072587e-001 6.526467e-002 1.366740e-002 9.387627e-002 -5.810400e-002
<VARIANCE> 25
 5.664496e+001 5.270453e+001 4.888865e+001 5.848450e+001 4.855039e+001 5.226011e+001 4.146128e+001 3.672087e+001 3.159055e+001 3.282575e+001 4.863406e+001 3.126816e+001 2.398106e+000 1.595528e+000 2.259526e+000 1.918226e+000 3.166677e+000 2.983412e+000 3.446299e+000 3.200392e+000 2.648382e+000 2.522030e+000 2.802379e+000 1.965736e+000 3.178261e+000
<GCONST> 1.035611e+002
<TRANSP> 5
 0.000000e+000 1.000000e+000 0.000000e+000 0.000000e+000 0.000000e+000
 0.000000e+000 6.045390e-001 3.954610e-001 0.000000e+000 0.000000e+000
 0.000000e+000 0.000000e+000 4.980077e-001 5.019923e-001 0.000000e+000
 0.000000e+000 0.000000e+000 0.000000e+000 5.959218e-001 4.040782e-001
 0.000000e+000 0.000000e+000 0.000000e+000 0.000000e+000 0.000000e+000
<ENDHMM>
~h "v"
<BEGINHMM>
<NUMSTATES> 5
<STATE> 2
<MEAN> 25
 3.956412e+000 4.234703e-001 -2.967442e+000 -2.338540e+000 5.998144e-001 -4.620522e-001 1.864313e-001 -5.489832e-001 -1.095672e+000 1.268230e+000 5.385444e-001 1.533640e+000 3.777831e-001 1.982881e-001 -6.375445e-001 -1.565955e+000 1.103942e-001 6.465704e-002 -5.294820e-002 -4.619995e-001 3.775973e-002 6.064165e-001 8.372108e-001 -9.068251e-002 3.762598e-001
<VARIANCE> 25
 3.231016e+001 3.748616e+001 6.606133e+001 1.302216e+002 6.909082e+001 6.182593e+001 4.883497e+001 3.443420e+001 3.130358e+001 3.384116e+001 2.797430e+001 3.174955e+001 4.161791e+000 4.254478e+000 6.218029e+000 8.297264e+000 4.070790e+000 3.910369e+000 3.883303e+000 3.989140e+000 3.536353e+000 3.817933e+000 4.382818e+000 2.187951e+000 6.207414e+000
<GCONST> 1.106622e+002
<STATE> 3
<MEAN> 25
 4.645265e+000 1.425869e+000 -1.994525e+000 -3.533255e+000 -1.106434e+000 -2.005545e+000 9.186342e-002 -1.023800e+000 -7.220985e-001 1.712494e+000 1.201119e+000 1.140325e-001 -2.718117e-001 5.173766e-001 -1.293550e-001 -2.538065e-002 1.008627e-001 -2.611239e-001 -1.546031e-001 1.112492e-001 6.456426e-001 -1.995124e-001 -1.653830e-001 -3.399447e-001 -4.987584e-002
<VARIANCE> 25
 3.072439e+001 3.509433e+001 5.915968e+001 1.156996e+002 6.408906e+001 5.458122e+001 4.688205e+001 3.229123e+001 3.522283e+001 3.522960e+001 2.289474e+001 3.323287e+001 2.925742e+000 2.851868e+000 3.469003e+000 3.915490e+000 3.494435e+000 3.760048e+000 3.260489e+000 2.673897e+000 3.267898e+000 3.648874e+000 2.819543e+000 2.400831e+000 1.699320e+000
<GCONST> 1.053942e+002
<STATE> 4
<MEAN> 25
 3.403897e+000 2.200275e+000 -1.840283e+000 -1.990646e+000 -1.891477e-001 -2.349926e+000 -4.216558e-003 -9.677750e-001 7.808685e-001 3.436374e-001 -1.525426e-001 -5.461837e-001 -1.687818e-001 1.102374e-001 -2.536309e-001 3.736657e-001 3.848050e-001 -5.611867e-002 -1.094750e-001 -1.336650e-001 1.176522e-001 -5.504094e-001 -3.770727e-001 -3.871046e-001 -2.439997e-001
<VARIANCE> 25
 3.707621e+001 2.845800e+001 4.656057e+001 1.006670e+002 5.265422e+001 5.186838e+001 4.438858e+001 3.174707e+001 3.041823e+001 3.713041e+001 2.399447e+001 2.849324e+001 1.528125e+000 1.155962e+000 2.853599e+000 3.634698e+000 3.124673e+000 4.297667e+000 2.515819e+000 2.863189e+000 3.557970e+000 2.411496e+000 2.495873e+000 2.763128e+000 9.785310e-001
<GCONST> 1.016199e+002
<TRANSP> 5
 0.000000e+000 1.000000e+000 0.000000e+000 0.000000e+000 0.000000e+000
 0.000000e+000 5.384705e-001 4.615295e-001 0.000000e+000 0.000000e+000
 0.000000e+000 0.000000e+000 4.189951e-001 5.810049e-001 0.000000e+000
 0.000000e+000 0.000000e+000 0.000000e+000 4.919348e-001 5.080652e-001
 0.000000e+000 0.000000e+000 0.000000e+000 0.000000e+000 0.000000e+000
<ENDHMM>
~h "w"
<BEGINHMM>
<NUMSTATES> 5
<STATE> 2
<MEAN> 25
 6.486284e+000 1.056780e+000 -5.177148e+000 -1.141125e+001 -2.662300e+000 3.827165e-001 1.414603e+000 -1.713143e-001 -2.170211e+000 -1.449165e-001 -4.542959e-001 -2.140640e+000 7.331812e-002 -1.305993e-001 -3.002437e-001 -2.776524e-001 -1.077850e-001 -1.081537e-001 -1.147919e-001 -6.401670e-002 1.487322e-001 -4.680469e-002 1.886792e-001 -1.443249e-001 6.345132e-001
<VARIANCE> 25
 4.925042e+001 6.279045e+001 4.060844e+001 6.292886e+001 6.729768e+001 1.088294e+002 7.902413e+001 3.543871e+001 5.961429e+001 3.772573e+001 3.754840e+001 5.125295e+001 3.780917e+000 3.869846e+000 3.019148e+000 6.320813e+000 6.228077e+000 8.175582e+000 7.450016e+000 4.140826e+000 4.049001e+000 3.550282e+000 3.378337e+000 3.268632e+000 5.619622e+000
<GCONST> 1.137316e+002
<STATE> 3
<MEAN> 25
 5.927136e+000 -1.799318e-001 -3.943393e+000 -8.631118e+000 -2.027551e+000 5.058928e-001 -4.762206e+000 -1.405087e-001 -2.770158e+000 -6.146603e-001 4.321146e+000 -3.130194e+000 -1.749255e-001 -5.047768e-001 9.447812e-002 4.568576e-001 2.822182e-001 1.711635e-002 -5.206169e-001 3.164807e-001 6.228567e-002 -1.542450e-001 2.822400e-001 -1.998493e-001 6.326955e-001
<VARIANCE> 25
 4.430970e+001 5.892297e+001 5.253095e+001 8.835816e+001 5.414651e+001 1.202764e+002 1.171138e+002 4.496445e+001 5.940675e+001 3.015716e+001 7.109987e+001 4.548046e+001 2.299262e+000 2.670974e+000 2.604382e+000 3.452220e+000 3.584322e+000 8.577442e+000 6.972997e+000 4.028329e+000 3.559803e+000 3.233024e+000 4.594170e+000 3.572657e+000 2.568104e+000
<GCONST> 1.121366e+002
<STATE> 4
<MEAN> 25
 3.556178e+000 -2.513287e+000 -5.487928e+000 -1.426886e+000 -6.860268e-001 -2.402643e+000 -3.313320e+000 -8.193671e-001 -1.447966e+000 -2.073205e+000 2.788109e+000 -1.929331e+000 -4.410342e-001 3.569421e-002 2.256931e-001 6.107482e-001 3.446931e-001 2.243574e-001 4.181204e-001 1.443032e-002 2.396583e-001 7.732825e-002 -1.502862e-001 3.715378e-001 -5.470748e-001
<VARIANCE> 25
 3.984779e+001 5.249062e+001 3.401804e+001 7.866864e+001 8.745174e+001 1.340521e+002 4.883129e+001 6.843824e+001 6.369206e+001 4.173109e+001 4.017038e+001 4.071922e+001 9.942519e-001 1.343238e+000 1.503918e+000 2.195740e+000 3.237665e+000 4.178608e+000 3.357898e+000 4.811768e+000 3.854285e+000 4.948455e+000 3.877554e+000 3.265051e+000 1.744674e+000
<GCONST> 1.071679e+002
<TRANSP> 5
 0.000000e+000 1.000000e+000 0.000000e+000 0.000000e+000 0.000000e+000
 0.000000e+000 9.379338e-001 6.206616e-002 0.000000e+000 0.000000e+000
 0.000000e+000 0.000000e+000 8.589129e-001 1.410871e-001 0.000000e+000
 0.000000e+000 0.000000e+000 0.000000e+000 7.689660e-001 2.310341e-001
 0.000000e+000 0.000000e+000 0.000000e+000 0.000000e+000 0.000000e+000
<ENDHMM>
~h "y"
<BEGINHMM>
<NUMSTATES> 5
<STATE> 2
<MEAN> 25
 3.486114e+000 -7.496947e-001 7.505416e+000 1.869936e+000 -1.016894e+001 -8.402748e+000 -1.347708e+000 -2.184036e+000 -7.323265e+000 -4.180156e+000 2.794866e+000 -3.233952e+000 3.396694e-001 -3.900870e-001 -5.669510e-001 1.970568e-001 -2.493642e-001 -5.041269e-001 -5.058128e-002 2.881240e-001 3.848009e-001 -4.146130e-002 1.311311e-001 2.537072e-001 1.755007e-001
<VARIANCE> 25
 3.194733e+001 1.741588e+001 8.072858e+001 2.750980e+001 4.276014e+001 5.980952e+001 2.048185e+001 2.568509e+001 1.150747e+002 2.316252e+001 3.322828e+001 4.993571e+001 3.607211e+000 1.787440e+000 1.909340e+000 1.503154e+000 3.011263e+000 5.165515e+000 1.661713e+000 1.740690e+000 4.245771e+000 1.479896e+000 2.876892e+000 2.287543e+000 1.717255e+000
<GCONST> 1.003759e+002
<STATE> 3
<MEAN> 25
 6.726966e+000 -2.396852e+000 3.964173e-001 3.081426e+000 -8.607526e+000 -9.100091e+000 -2.502515e+000 -5.117294e-001 6.630065e-001 -5.393911e+000 1.061481e+000 2.537918e-002 4.181565e-001 -4.520973e-002 -5.547658e-001 3.146477e-002 2.957588e-001 -1.213407e-001 -2.356450e-001 2.474034e-001 4.863621e-001 -5.379824e-002 -1.800137e-001 7.783947e-002 -9.604816e-002
<VARIANCE> 25
 4.535715e+001 2.205856e+001 9.148486e+001 2.740584e+001 5.566558e+001 6.964582e+001 2.956639e+001 3.257973e+001 1.271404e+002 3.148684e+001 3.909375e+001 3.623808e+001 2.884292e+000 2.239089e+000 1.560953e+000 1.452728e+000 2.606492e+000 3.802759e+000 1.848604e+000 1.799167e+000 2.653652e+000 1.653070e+000 2.117784e+000 1.411167e+000 1.226689e+000
<GCONST> 1.003234e+002
<STATE> 4
<MEAN> 25
 2.612736e+000 -1.757311e+000 -1.582212e+000 1.904960e+000 -1.777815e+000 -3.666721e+000 -1.698040e+000 1.075429e+000 1.996277e+000 -2.898841e+000 3.458929e-001 9.019604e-001 -1.711579e-001 1.516094e-001 3.679993e-002 -5.207029e-002 3.176806e-001 3.144884e-001 2.361848e-002 -3.654810e-002 -2.860789e-002 1.769611e-001 -1.255137e-001 -3.089878e-002 -2.535058e-001
<VARIANCE> 25
 5.676290e+001 1.372404e+001 2.657435e+001 2.385766e+001 4.985406e+001 6.717770e+001 2.634430e+001 2.915818e+001 5.014666e+001 4.248496e+001 2.123552e+001 1.493338e+001 1.051972e+000 1.228310e+000 1.176584e+000 1.144543e+000 1.914275e+000 2.005407e+000 1.379604e+000 1.409826e+000 2.206165e+000 1.798120e+000 1.570482e+000 1.136139e+000 6.492298e-001
<GCONST> 9.133024e+001
<TRANSP> 5
 0.000000e+000 1.000000e+000 0.000000e+000 0.000000e+000 0.000000e+000
 0.000000e+000 8.197056e-001 1.802944e-001 0.000000e+000 0.000000e+000
 0.000000e+000 0.000000e+000 7.483584e-001 2.516416e-001 0.000000e+000
 0.000000e+000 0.000000e+000 0.000000e+000 8.813540e-001 1.186459e-001
 0.000000e+000 0.000000e+000 0.000000e+000 0.000000e+000 0.000000e+000
<ENDHMM>
~h "z"
<BEGINHMM>
<NUMSTATES> 5
<STATE> 2
<MEAN> 25
 -1.591200e+000 -7.551868e-001 -5.184323e+000 -3.342028e+000 6.345037e+000 2.912323e+000 -5.395646e+000 1.975514e+000 3.090155e+000 -5.372471e-001 1.523873e+000 1.929900e+000 -2.574120e-001 -5.772710e-002 4.524308e-002 3.640126e-001 -2.487089e-001 -9.457877e-001 3.531265e-002 4.064596e-001 3.937831e-001 2.479448e-002 -4.417447e-001 2.095365e-001 1.310418e-001
<VARIANCE> 25
 4.494255e+001 1.123662e+002 4.026042e+001 4.297021e+001 6.730552e+001 1.142249e+002 5.287050e+001 3.855396e+001 6.209152e+001 4.844089e+001 3.799678e+001 4.526967e+001 3.151674e+000 3.507770e+000 1.477830e+000 3.146948e+000 3.990728e+000 4.887683e+000 5.130885e+000 3.832325e+000 4.219301e+000 4.029040e+000 2.934007e+000 2.674374e+000 3.189427e+000
<GCONST> 1.098988e+002
<STATE> 3
<MEAN> 25
 -1.008685e+000 3.039110e-001 -5.006313e+000 -2.101076e+000 4.958718e+000 -2.036066e+000 -5.172335e+000 2.033237e+000 3.378666e+000 -8.189344e-001 1.472347e-002 3.003778e+000 4.467654e-001 -6.701005e-002 3.231243e-001 4.359563e-001 -6.870817e-001 -1.098266e+000 -6.132429e-002 7.362598e-003 8.005701e-002 4.632636e-002 -2.671685e-001 6.174318e-002 2.822186e-002
<VARIANCE> 25
 5.634491e+001 9.117934e+001 3.229114e+001 5.359004e+001 6.340652e+001 1.419791e+002 5.997914e+001 4.799636e+001 4.296663e+001 6.192291e+001 3.799109e+001 3.775760e+001 4.232687e+000 4.953347e+000 1.640628e+000 2.975329e+000 4.071081e+000 5.345783e+000 5.485675e+000 3.468652e+000 3.749288e+000 4.674520e+000 3.263135e+000 4.025650e+000 2.629850e+000
<GCONST> 1.112331e+002
<STATE> 4
<MEAN> 25
 2.020255e+000 1.971494e+000 -2.425070e+000 -1.729847e+000 1.409446e+000 -8.966373e+000 -4.110771e+000 1.061869e+000 2.974943e+000 3.355859e-002 -1.990370e+000 3.498434e+000 4.665468e-001 -1.626303e-001 3.680654e-001 3.102794e-002 -4.451563e-001 -5.529214e-001 5.716856e-002 2.014465e-002 2.466172e-002 3.371127e-002 -2.455791e-001 -1.251120e-001 9.437655e-002
<VARIANCE> 25
 3.937442e+001 7.961664e+001 2.901992e+001 5.548558e+001 4.665254e+001 1.034568e+002 6.047870e+001 3.595537e+001 3.601821e+001 6.159513e+001 4.160712e+001 4.311684e+001 2.802644e+000 5.442710e+000 1.811023e+000 2.895124e+000 3.138524e+000 4.402428e+000 4.652966e+000 3.113357e+000 2.768194e+000 4.509633e+000 2.790638e+000 4.504845e+000 1.701541e+000
<GCONST> 1.080129e+002
<TRANSP> 5
 0.000000e+000 1.000000e+000 0.000000e+000 0.000000e+000 0.000000e+000
 0.000000e+000 6.869015e-001 3.130985e-001 0.000000e+000 0.000000e+000
 0.000000e+000 0.000000e+000 7.421596e-001 2.578404e-001 0.000000e+000
 0.000000e+000 0.000000e+000 0.000000e+000 8.464747e-001 1.535253e-001
 0.000000e+000 0.000000e+000 0.000000e+000 0.000000e+000 0.000000e+000
<ENDHMM>
~h "aa"
<BEGINHMM>
<NUMSTATES> 5
<STATE> 2
<MEAN> 25
 1.917302e+000 6.024607e-001 -5.152022e+000 -5.263681e+000 -1.439212e-001 2.048454e+000 4.633147e-002 -6.889634e-001 2.836027e-001 2.182864e+000 8.617206e-001 -7.999042e-001 7.218606e-001 4.614249e-001 -2.834554e-001 -6.269917e-001 -1.263418e-001 5.351523e-001 1.692935e-001 -4.992548e-001 8.626653e-002 -1.145723e-001 -3.783398e-001 2.906494e-002 1.857721e-001
<VARIANCE> 25
 7.758268e+001 2.982903e+001 4.323694e+001 6.893255e+001 2.542610e+001 4.049418e+001 2.813341e+001 3.760439e+001 1.983804e+001 1.684563e+001 4.217690e+001 2.917911e+001 2.731707e+000 1.825639e+000 2.127131e+000 3.271697e+000 1.829358e+000 3.526189e+000 1.816154e+000 3.316047e+000 1.733891e+000 1.771214e+000 2.194986e+000 3.242428e+000 4.381729e+000
<GCONST> 1.002902e+002
<STATE> 3
<MEAN> 25
 4.560873e+000 3.675896e+000 -4.442267e+000 -6.151039e+000 -5.587937e-001 4.536375e+000 2.312898e+000 -2.230904e+000 8.447101e-001 1.643105e+000 -1.447364e+000 8.998030e-002 -1.305053e-001 4.590603e-001 3.948430e-001 2.854281e-001 1.023499e-001 5.497778e-002 1.472420e-001 -1.878641e-004 1.196055e-001 -1.653939e-001 -3.879361e-001 3.222657e-002 -4.723546e-001
<VARIANCE> 25
 4.909908e+001 3.115242e+001 4.467178e+001 1.028104e+002 2.530937e+001 6.222606e+001 5.210559e+001 5.505614e+001 3.270338e+001 1.877666e+001 3.396465e+001 4.491196e+001 2.852192e+000 2.112832e+000 2.948289e+000 5.438747e+000 1.535111e+000 5.825154e+000 5.619533e+000 5.362410e+000 2.921639e+000 2.175370e+000 3.934698e+000 5.869630e+000 3.024506e+000
<GCONST> 1.070486e+002
<STATE> 4
<MEAN> 25
 7.030467e-001 1.132475e+000 -2.505516e+000 -8.114289e-001 1.228654e+000 2.023100e+000 9.937313e-001 8.132032e-001 2.070241e+000 3.037721e-001 -1.129001e+000 -6.839328e-001 -1.367419e-001 -3.166801e-002 4.432529e-002 1.226200e-001 -1.451363e-003 -2.938521e-002 -1.784916e-002 9.642120e-002 6.977022e-002 -1.224732e-002 6.172155e-002 -1.450605e-001 -3.387273e-002
<VARIANCE> 25
 4.667182e+001 2.114080e+001 3.417348e+001 6.744159e+001 2.653578e+001 3.951486e+001 2.782348e+001 3.963404e+001 2.849637e+001 3.072904e+001 2.046989e+001 2.549900e+001 1.210407e+000 8.233924e-001 1.035733e+000 1.938308e+000 1.780377e+000 2.377556e+000 1.770197e+000 1.617020e+000 1.753364e+000 1.626981e+000 1.562461e+000 1.929923e+000 1.563102e+000
<GCONST> 9.336411e+001
<TRANSP> 5
 0.000000e+000 1.000000e+000 0.000000e+000 0.000000e+000 0.000000e+000
 0.000000e+000 6.735906e-001 3.264094e-001 0.000000e+000 0.000000e+000
 0.000000e+000 0.000000e+000 7.307211e-001 2.692789e-001 0.000000e+000
 0.000000e+000 0.000000e+000 0.000000e+000 9.199321e-001 8.006790e-002
 0.000000e+000 0.000000e+000 0.000000e+000 0.000000e+000 0.000000e+000
<ENDHMM>
~h "ae"
<BEGINHMM>
<NUMSTATES> 5
<STATE> 2
<MEAN> 25
 -5.797557e-001 -3.498380e+000 -3.914352e+000 2.577218e-001 1.115738e+000 -2.292518e+000 1.889067e+000 1.889192e+000 -2.766096e+000 -1.529141e+000 -6.175824e-001 -1.675956e+000 -1.696366e-002 4.690825e-001 3.275546e-002 -1.983454e-001 -2.532497e-001 -3.548191e-001 2.985680e-001 -8.515511e-002 -1.785073e-002 -7.866621e-002 -2.309425e-001 -2.506461e-001 -7.241065e-002
<VARIANCE> 25
 1.034096e+002 1.504174e+002 2.419127e+001 3.330172e+001 5.870949e+001 3.699797e+001 7.474589e+001 5.209752e+001 4.497379e+001 6.825867e+001 6.199268e+001 3.311747e+001 5.589478e+000 6.134395e+000 2.587867e+000 3.865082e+000 5.484373e+000 4.561259e+000 6.593480e+000 4.685238e+000 3.869091e+000 5.896453e+000 4.678567e+000 3.753944e+000 4.233571e+000
<GCONST> 1.138216e+002
<STATE> 3
<MEAN> 25
 -3.333874e+000 2.743360e-002 -3.710031e+000 -3.865403e-001 1.679562e+000 -2.011234e+000 2.244912e+000 1.142232e+000 2.032666e-001 5.435627e-001 1.270849e+000 -2.415885e+000 7.258730e-001 -2.102051e-001 -3.660722e-001 -5.509483e-001 -7.593419e-002 5.088513e-002 -4.751681e-001 -3.233387e-001 2.824262e-001 2.421612e-001 2.155484e-002 -1.987975e-001 2.480529e-001
<VARIANCE> 25
 1.394282e+002 9.629043e+001 3.928112e+001 5.460130e+001 5.721383e+001 2.827873e+001 5.823773e+001 7.712843e+001 5.154824e+001 7.310387e+001 7.885805e+001 3.176777e+001 8.580374e+000 4.325179e+000 3.454495e+000 5.574057e+000 4.553482e+000 2.796655e+000 5.841732e+000 6.586797e+000 5.341641e+000 6.909865e+000 4.743178e+000 3.593344e+000 3.617512e+000
<GCONST> 1.154783e+002
<STATE> 4
<MEAN> 25
 4.989741e+000 -6.266258e+000 -7.523882e+000 -6.620073e+000 4.751968e-001 -1.936183e+000 -2.046857e+000 6.121981e-001 5.652542e+000 1.557506e+000 -1.746809e+000 -5.117395e+000 -1.935053e-001 1.930331e-002 2.806955e-001 2.760911e-001 -3.708510e-001 -9.940193e-002 -1.195670e-001 -2.498559e-002 8.815876e-002 -1.880215e-001 -1.389103e-001 8.630452e-002 7.726484e-002
<VARIANCE> 25
 4.065018e+001 4.164736e+001 3.941204e+001 5.053599e+001 5.484111e+001 3.226689e+001 3.388974e+001 3.482795e+001 4.978606e+001 6.798795e+001 2.552768e+001 2.897390e+001 2.848681e+000 2.033648e+000 1.886493e+000 2.127917e+000 3.120585e+000 1.668122e+000 2.523677e+000 2.835358e+000 2.919588e+000 3.344495e+000 1.706506e+000 2.438391e+000 1.828256e+000
<GCONST> 1.013352e+002
<TRANSP> 5
 0.000000e+000 1.000000e+000 0.000000e+000 0.000000e+000 0.000000e+000
 0.000000e+000 8.828722e-001 1.171278e-001 0.000000e+000 0.000000e+000
 0.000000e+000 0.000000e+000 8.739125e-001 1.260876e-001 0.000000e+000
 0.000000e+000 0.000000e+000 0.000000e+000 8.678929e-001 1.321071e-001
 0.000000e+000 0.000000e+000 0.000000e+000 0.000000e+000 0.000000e+000
<ENDHMM>
~h "ah"
<BEGINHMM>
<NUMSTATES> 5
<STATE> 2
<MEAN> 25
 4.666457e+000 -8.722944e-001 -1.844431e+000 -8.986329e-002 4.326206e-001 -3.957993e-001 -2.920695e+000 -1.901272e+000 -7.412933e-001 -2.029984e+000 4.179836e-001 -3.612373e-001 7.805018e-002 1.795070e-001 1.017128e-001 1.184025e-001 -1.712356e-001 6.869014e-002 5.717430e-002 -1.432855e-002 -1.401325e-001 -4.406855e-001 -3.367306e-002 6.322152e-003 -1.055913e-001
<VARIANCE> 25
 4.503572e+001 5.534782e+001 5.464037e+001 6.373082e+001 8.342083e+001 7.165176e+001 5.276295e+001 5.055408e+001 5.352426e+001 4.854649e+001 4.431451e+001 3.074686e+001 2.050527e+000 2.738698e+000 2.934336e+000 3.193416e+000 5.217810e+000 3.177536e+000 4.871341e+000 4.026879e+000 3.918832e+000 3.655117e+000 3.125624e+000 2.814836e+000 3.371082e+000
<GCONST> 1.093872e+002
<STATE> 3
<MEAN> 25
 4.339193e+000 -4.650564e-001 -8.593219e-001 2.342971e-001 -8.063568e-002 -1.345373e+000 -2.604309e+000 -8.341950e-001 -8.417488e-001 -2.987609e+000 4.839032e-001 -3.740971e-001 9.772495e-003 3.597861e-001 1.494209e-001 1.104629e-001 -2.374317e-001 -2.664915e-001 3.076895e-001 7.977106e-002 1.462594e-002 -2.938424e-002 -8.183887e-002 -1.297610e-001 -3.731344e-001
<VARIANCE> 25
 5.003370e+001 6.237984e+001 5.236047e+001 5.927130e+001 9.227975e+001 7.197296e+001 4.998222e+001 6.222313e+001 5.503397e+001 4.643797e+001 4.527091e+001 3.363269e+001 1.872268e+000 2.336291e+000 2.313087e+000 3.101990e+000 4.487233e+000 2.712533e+000 3.797855e+000 4.024474e+000 3.219396e+000 3.042636e+000 2.905785e+000 2.472942e+000 2.681669e+000
<GCONST> 1.079636e+002
<STATE> 4
<MEAN> 25
 3.278440e+000 1.407589e+000 2.895658e-001 7.511420e-001 8.309577e-002 -1.884812e+000 -3.802523e-001 8.362369e-002 1.338837e-001 -1.476221e+000 -7.379057e-001 -4.811795e-001 -1.230858e-001 1.852409e-001 1.358070e-001 1.222231e-001 -3.413480e-002 -5.261229e-002 2.875981e-001 -7.450720e-002 1.824789e-002 1.182426e-001 -1.073996e-001 -6.479997e-002 -4.327132e-001
<VARIANCE> 25
 4.751390e+001 5.254294e+001 4.444580e+001 5.418752e+001 7.773042e+001 5.984163e+001 4.321246e+001 4.414170e+001 3.624616e+001 3.610549e+001 3.863785e+001 3.474417e+001 1.230972e+000 1.716993e+000 1.562357e+000 2.088578e+000 2.878677e+000 2.522138e+000 2.371109e+000 2.785247e+000 2.379208e+000 2.164388e+000 2.124648e+000 2.035514e+000 1.229280e+000
<GCONST> 1.010447e+002
<TRANSP> 5
 0.000000e+000 1.000000e+000 0.000000e+000 0.000000e+000 0.000000e+000
 0.000000e+000 5.854939e-001 4.145061e-001 0.000000e+000 0.000000e+000
 0.000000e+000 0.000000e+000 5.485873e-001 4.514127e-001 0.000000e+000
 0.000000e+000 0.000000e+000 0.000000e+000 6.877682e-001 3.122318e-001
 0.000000e+000 0.000000e+000 0.000000e+000 0.000000e+000 0.000000e+000
<ENDHMM>
~h "ao"
<BEGINHMM>
<NUMSTATES> 5
<STATE> 2
<MEAN> 25
 2.217643e+000 1.486057e+000 -3.089024e+000 -9.894521e-001 -4.811151e+000 -2.278713e-001 5.375678e+000 1.726445e+000 -1.969592e+000 -2.783633e-001 4.955560e-001 -1.654407e+000 1.390456e+000 4.805331e-001 -8.651615e-001 -8.563231e-001 -1.249564e+000 1.666957e-001 -7.083628e-001 -8.626371e-001 -3.896712e-001 -5.089054e-001 6.559759e-001 -6.184339e-001 1.721549e+000
<VARIANCE> 25
 5.550600e+001 2.492958e+001 3.522067e+001 7.621294e+001 6.265308e+001 4.116901e+001 7.784029e+001 7.316113e+001 3.281265e+001 3.691809e+001 3.726984e+001 1.357364e+001 5.921271e+000 1.382858e+000 2.631133e+000 4.833101e+000 3.333073e+000 2.703180e+000 2.269800e+000 4.647592e+000 2.688084e+000 2.010293e+000 4.074159e+000 9.629021e-001 4.470525e+000
<GCONST> 1.046545e+002
<STATE> 3
<MEAN> 25
 6.466540e+000 1.507187e+000 -5.519423e+000 -3.683633e+000 -8.767375e+000 1.253158e+000 3.008595e+000 3.333582e-001 -9.820089e-001 -1.825770e+000 2.830504e+000 -3.117368e+000 7.575294e-001 -2.195121e-001 -3.783674e-001 -2.037236e-001 -6.371650e-001 3.732180e-001 -6.965237e-001 -5.593265e-001 3.823386e-001 -3.710664e-001 5.208379e-001 -2.914645e-001 6.709815e-001
<VARIANCE> 25
 6.848405e+001 2.681559e+001 4.453539e+001 8.218700e+001 8.755090e+001 6.403179e+001 1.107477e+002 1.193868e+002 6.461259e+001 1.741570e+001 4.310698e+001 1.593293e+001 3.525342e+000 6.462817e-001 1.924561e+000 4.588625e+000 2.105656e+000 2.585135e+000 2.034965e+000 2.905905e+000 2.561317e+000 1.422925e+000 2.659506e+000 1.416778e+000 1.775786e+000
<GCONST> 1.030142e+002
<STATE> 4
<MEAN> 25
 1.075458e+001 3.345416e+000 -5.722281e+000 -5.839946e+000 -7.910683e+000 6.151387e+000 -1.726588e+000 -4.533829e+000 -9.947428e-002 -3.190332e+000 2.473128e+000 -6.857218e-001 -1.063253e-001 3.616089e-003 4.408443e-002 2.737682e-001 3.675208e-001 -7.006950e-002 -3.256931e-001 2.721634e-001 1.458470e-001 -2.375217e-002 -3.246106e-001 1.838024e-001 -1.879375e-001
<VARIANCE> 25
 5.608394e+001 2.427087e+001 5.277492e+001 1.309743e+002 6.327418e+001 4.359188e+001 5.160682e+001 6.086143e+001 2.943153e+001 1.091635e+001 3.169494e+001 2.390239e+001 3.777993e-001 7.423068e-001 1.151418e+000 2.387548e+000 1.522459e+000 2.516099e+000 1.875758e+000 1.927807e+000 1.569232e+000 1.272452e+000 1.521151e+000 1.544773e+000 3.715149e-001
<GCONST> 9.330518e+001
<TRANSP> 5
 0.000000e+000 1.000000e+000 0.000000e+000 0.000000e+000 0.000000e+000
 0.000000e+000 6.765375e-001 3.234626e-001 0.000000e+000 0.000000e+000
 0.000000e+000 0.000000e+000 6.498588e-001 3.501413e-001 0.000000e+000
 0.000000e+000 0.000000e+000 0.000000e+000 9.357018e-001 6.429818e-002
 0.000000e+000 0.000000e+000 0.000000e+000 0.000000e+000 0.000000e+000
<ENDHMM>
~h "aw"
<BEGINHMM>
<NUMSTATES> 5
<STATE> 2
<MEAN> 25
 5.816313e+000 -2.043245e+000 -2.667979e+000 -3.413521e+000 3.218656e+000 1.660738e+000 -8.262485e+000 -1.518623e+000 -2.808273e+000 -3.234625e-001 3.159863e+000 1.049758e-001 5.101754e-001 -7.802395e-001 -6.755846e-001 -7.519183e-001 2.378446e-001 9.270221e-001 -1.065135e+000 9.016275e-002 -1.134081e-001 5.306345e-002 3.817313e-001 -3.458967e-001 1.859487e+000
<VARIANCE> 25
 3.639826e+001 6.241916e+001 4.713584e+001 7.624261e+001 5.029545e+001 1.095289e+002 9.769602e+001 4.162127e+001 6.027632e+001 2.331907e+001 4.698993e+001 4.254552e+001 2.951801e+000 5.992189e+000 4.370417e+000 4.816881e+000 3.712516e+000 5.439804e+000 7.042442e+000 4.044129e+000 4.522836e+000 2.428664e+000 4.832346e+000 4.312582e+000 1.073108e+001
<GCONST> 1.137166e+002
<STATE> 3
<MEAN> 25
 6.133499e+000 -4.726260e+000 -5.094481e+000 -6.286578e+000 3.916830e+000 5.677478e+000 -9.071276e+000 -1.690700e+000 -1.839500e+000 8.119621e-001 4.039511e+000 -1.791502e+000 -5.309323e-002 -3.285189e-001 -2.510023e-001 -4.437970e-001 8.470904e-002 6.546336e-001 -3.646575e-001 -3.529467e-002 1.214466e-001 2.356176e-001 2.245314e-001 -2.945832e-001 8.206419e-001
<VARIANCE> 25
 3.424404e+001 6.255346e+001 4.648360e+001 6.866167e+001 4.870378e+001 9.805704e+001 7.996112e+001 3.916822e+001 4.895321e+001 2.660750e+001 4.458183e+001 5.206771e+001 2.135341e+000 3.987126e+000 2.218059e+000 3.795867e+000 3.296566e+000 4.599864e+000 6.715460e+000 3.182173e+000 3.023482e+000 2.400620e+000 4.189861e+000 4.511867e+000 7.289314e+000
<GCONST> 1.100884e+002
<STATE> 4
<MEAN> 25
 4.022286e+000 -2.226138e+000 -4.580337e+000 -6.201852e+000 3.623242e+000 4.445242e+000 -8.257867e+000 -9.042973e-001 5.150975e-001 1.490655e+000 3.105440e+000 -5.992875e-001 -2.196658e-001 4.137884e-001 -7.983581e-003 2.882203e-002 5.624976e-002 -1.751109e-001 5.092406e-002 1.467973e-001 1.469010e-001 -1.161121e-001 -1.027020e-001 2.457767e-001 1.234969e-002
<VARIANCE> 25
 4.815678e+001 6.467481e+001 3.816412e+001 9.398203e+001 5.987414e+001 1.245366e+002 6.152627e+001 4.152062e+001 5.013782e+001 4.130437e+001 4.368493e+001 6.188581e+001 3.042867e+000 2.757530e+000 1.747124e+000 4.212968e+000 3.323687e+000 6.807174e+000 5.541136e+000 3.356648e+000 3.388224e+000 3.885522e+000 3.243919e+000 4.238208e+000 2.982505e+000
<GCONST> 1.109330e+002
<TRANSP> 5
 0.000000e+000 1.000000e+000 0.000000e+000 0.000000e+000 0.000000e+000
 0.000000e+000 8.051879e-001 1.948121e-001 0.000000e+000 0.000000e+000
 0.000000e+000 0.000000e+000 7.932445e-001 2.067554e-001 0.000000e+000
 0.000000e+000 0.000000e+000 0.000000e+000 9.490089e-001 5.099105e-002
 0.000000e+000 0.000000e+000 0.000000e+000 0.000000e+000 0.000000e+000
<ENDHMM>
~h "ay"
<BEGINHMM>
<NUMSTATES> 5
<STATE> 2
<MEAN> 25
 5.033530e+000 -2.788371e+000 -3.965560e+000 1.834656e+000 2.711239e-001 -7.814693e-001 -4.847667e+000 -6.416388e+000 3.937384e-001 -2.878625e+000 3.893756e+000 1.378642e+000 -1.752063e-001 2.477262e-001 6.727344e-001 8.204799e-001 7.248268e-001 -2.472238e-001 -5.316816e-001 -8.283359e-001 -3.602381e-001 1.011808e-001 -1.002087e-001 -3.069854e-001 -4.072723e-001
<VARIANCE> 25
 4.292168e+001 3.109909e+001 6.358297e+001 5.499701e+001 8.772685e+001 2.416372e+001 6.731942e+001 6.161671e+001 2.340518e+001 3.697438e+001 4.294966e+001 3.559199e+001 1.640005e+000 1.389358e+000 3.748954e+000 2.694930e+000 4.239288e+000 2.223566e+000 7.116933e+000 3.883192e+000 2.615414e+000 2.832501e+000 1.889169e+000 2.934305e+000 1.393227e+000
<GCONST> 1.041337e+002
<STATE> 3
<MEAN> 25
 3.446018e+000 -2.146799e+000 -1.303716e+000 3.682850e+000 2.999766e+000 -8.641511e-001 -5.925004e+000 -6.912663e+000 -1.368673e+000 -2.295987e+000 2.659127e+000 5.763755e-002 -4.113211e-001 2.749405e-001 6.779689e-001 3.492584e-001 4.086491e-001 -5.087962e-002 2.510966e-001 1.198284e-001 -3.631120e-001 2.740576e-001 -3.931648e-001 -4.396779e-001 -8.206233e-001
<VARIANCE> 25
 3.783854e+001 3.248917e+001 5.158352e+001 3.690019e+001 6.646743e+001 2.082193e+001 6.622898e+001 6.023885e+001 3.256514e+001 4.874781e+001 3.343096e+001 3.236162e+001 1.339186e+000 1.268662e+000 3.181710e+000 2.848082e+000 5.385079e+000 1.875509e+000 7.083394e+000 3.731479e+000 2.951195e+000 4.093846e+000 2.021183e+000 2.372509e+000 2.010409e+000
<GCONST> 1.035719e+002
<STATE> 4
<MEAN> 25
 2.816434e+000 -1.978097e+000 -1.429868e-001 3.293341e+000 3.726115e+000 -3.421090e-001 -6.227818e+000 -7.520140e+000 -1.154634e+000 -1.947803e+000 2.749463e+000 -7.947974e-001 -1.402113e-001 1.397057e-001 1.999469e-001 -2.000358e-001 -6.737125e-001 -1.929467e-002 5.849568e-001 3.349691e-001 1.073520e-001 1.688721e-001 -9.523246e-002 -1.512110e-001 -2.412510e-001
<VARIANCE> 25
 3.150216e+001 2.436656e+001 3.979926e+001 3.361258e+001 9.408395e+001 2.057061e+001 7.383151e+001 5.399519e+001 2.892736e+001 4.588071e+001 2.966786e+001 2.160778e+001 1.467186e+000 1.464558e+000 2.956923e+000 2.222317e+000 6.398460e+000 1.643360e+000 4.168843e+000 3.383902e+000 2.253327e+000 3.625267e+000 2.159524e+000 1.750471e+000 2.279364e+000
<GCONST> 1.012027e+002
<TRANSP> 5
 0.000000e+000 1.000000e+000 0.000000e+000 0.000000e+000 0.000000e+000
 0.000000e+000 6.191361e-001 3.808639e-001 0.000000e+000 0.000000e+000
 0.000000e+000 0.000000e+000 6.341121e-001 3.658879e-001 0.000000e+000
 0.000000e+000 0.000000e+000 0.000000e+000 8.400909e-001 1.599091e-001
 0.000000e+000 0.000000e+000 0.000000e+000 0.000000e+000 0.000000e+000
<ENDHMM>
~h "ch"
<BEGINHMM>
<NUMSTATES> 5
<STATE> 2
<MEAN> 25
 -1.205808e-008 7.471832e-008 -5.503286e-008 1.714419e-009 -4.314622e-009 -6.243344e-009 -3.245967e-008 5.886173e-009 -4.663221e-008 -2.217316e-008 -2.948801e-008 4.270333e-008 2.560044e-002 3.139617e-004 8.288709e-003 -9.700003e-003 8.491755e-003 -6.657258e-003 3.393384e-003 -9.661411e-003 -5.902453e-003 -8.686491e-003 -3.965416e-003 -3.687867e-003 3.609585e-002
<VARIANCE> 25
 6.743311e+001 4.386040e+001 5.738831e+001 5.798326e+001 6.474918e+001 5.654857e+001 5.389107e+001 4.411510e+001 4.258719e+001 4.208948e+001 3.679993e+001 3.124355e+001 1.965594e+000 1.803727e+000 1.934022e+000 2.333615e+000 2.834451e+000 2.798423e+000 2.861493e+000 2.778302e+000 2.531476e+000 2.589815e+000 2.444618e+000 2.166934e+000 2.889750e+000
<GCONST> 1.040926e+002
<STATE> 3
<MEAN> 25
 -1.205808e-008 7.471832e-008 -5.503286e-008 1.714419e-009 -4.314622e-009 -6.243344e-009 -3.245967e-008 5.886173e-009 -4.663221e-008 -2.217316e-008 -2.948801e-008 4.270333e-008 2.560044e-002 3.139617e-004 8.288709e-003 -9.700003e-003 8.491755e-003 -6.657258e-003 3.393384e-003 -9.661411e-003 -5.902453e-003 -8.686491e-003 -3.965416e-003 -3.687867e-003 3.609585e-002
<VARIANCE> 25
 6.743311e+001 4.386040e+001 5.738831e+001 5.798326e+001 6.474918e+001 5.654857e+001 5.389107e+001 4.411510e+001 4.258719e+001 4.208948e+001 3.679993e+001 3.124355e+001 1.965594e+000 1.803727e+000 1.934022e+000 2.333615e+000 2.834451e+000 2.798423e+000 2.861493e+000 2.778302e+000 2.531476e+000 2.589815e+000 2.444618e+000 2.166934e+000 2.889750e+000
<GCONST> 1.040926e+002
<STATE> 4
<MEAN> 25
 -1.205808e-008 7.471832e-008 -5.503286e-008 1.714419e-009 -4.314622e-009 -6.243344e-009 -3.245967e-008 5.886173e-009 -4.663221e-008 -2.217316e-008 -2.948801e-008 4.270333e-008 2.560044e-002 3.139617e-004 8.288709e-003 -9.700003e-003 8.491755e-003 -6.657258e-003 3.393384e-003 -9.661411e-003 -5.902453e-003 -8.686491e-003 -3.965416e-003 -3.687867e-003 3.609585e-002
<VARIANCE> 25
 6.743311e+001 4.386040e+001 5.738831e+001 5.798326e+001 6.474918e+001 5.654857e+001 5.389107e+001 4.411510e+001 4.258719e+001 4.208948e+001 3.679993e+001 3.124355e+001 1.965594e+000 1.803727e+000 1.934022e+000 2.333615e+000 2.834451e+000 2.798423e+000 2.861493e+000 2.778302e+000 2.531476e+000 2.589815e+000 2.444618e+000 2.166934e+000 2.889750e+000
<GCONST> 1.040926e+002
<TRANSP> 5
 0.000000e+000 1.000000e+000 0.000000e+000 0.000000e+000 0.000000e+000
 0.000000e+000 6.000000e-001 4.000000e-001 0.000000e+000 0.000000e+000
 0.000000e+000 0.000000e+000 6.000000e-001 4.000000e-001 0.000000e+000
 0.000000e+000 0.000000e+000 0.000000e+000 7.000000e-001 3.000000e-001
 0.000000e+000 0.000000e+000 0.000000e+000 0.000000e+000 0.000000e+000
<ENDHMM>
~h "dh"
<BEGINHMM>
<NUMSTATES> 5
<STATE> 2
<MEAN> 25
 -1.205808e-008 7.471832e-008 -5.503286e-008 1.714419e-009 -4.314622e-009 -6.243344e-009 -3.245967e-008 5.886173e-009 -4.663221e-008 -2.217316e-008 -2.948801e-008 4.270333e-008 2.560044e-002 3.139617e-004 8.288709e-003 -9.700003e-003 8.491755e-003 -6.657258e-003 3.393384e-003 -9.661411e-003 -5.902453e-003 -8.686491e-003 -3.965416e-003 -3.687867e-003 3.609585e-002
<VARIANCE> 25
 6.743311e+001 4.386040e+001 5.738831e+001 5.798326e+001 6.474918e+001 5.654857e+001 5.389107e+001 4.411510e+001 4.258719e+001 4.208948e+001 3.679993e+001 3.124355e+001 1.965594e+000 1.803727e+000 1.934022e+000 2.333615e+000 2.834451e+000 2.798423e+000 2.861493e+000 2.778302e+000 2.531476e+000 2.589815e+000 2.444618e+000 2.166934e+000 2.889750e+000
<GCONST> 1.040926e+002
<STATE> 3
<MEAN> 25
 -1.205808e-008 7.471832e-008 -5.503286e-008 1.714419e-009 -4.314622e-009 -6.243344e-009 -3.245967e-008 5.886173e-009 -4.663221e-008 -2.217316e-008 -2.948801e-008 4.270333e-008 2.560044e-002 3.139617e-004 8.288709e-003 -9.700003e-003 8.491755e-003 -6.657258e-003 3.393384e-003 -9.661411e-003 -5.902453e-003 -8.686491e-003 -3.965416e-003 -3.687867e-003 3.609585e-002
<VARIANCE> 25
 6.743311e+001 4.386040e+001 5.738831e+001 5.798326e+001 6.474918e+001 5.654857e+001 5.389107e+001 4.411510e+001 4.258719e+001 4.208948e+001 3.679993e+001 3.124355e+001 1.965594e+000 1.803727e+000 1.934022e+000 2.333615e+000 2.834451e+000 2.798423e+000 2.861493e+000 2.778302e+000 2.531476e+000 2.589815e+000 2.444618e+000 2.166934e+000 2.889750e+000
<GCONST> 1.040926e+002
<STATE> 4
<MEAN> 25
 -1.205808e-008 7.471832e-008 -5.503286e-008 1.714419e-009 -4.314622e-009 -6.243344e-009 -3.245967e-008 5.886173e-009 -4.663221e-008 -2.217316e-008 -2.948801e-008 4.270333e-008 2.560044e-002 3.139617e-004 8.288709e-003 -9.700003e-003 8.491755e-003 -6.657258e-003 3.393384e-003 -9.661411e-003 -5.902453e-003 -8.686491e-003 -3.965416e-003 -3.687867e-003 3.609585e-002
<VARIANCE> 25
 6.743311e+001 4.386040e+001 5.738831e+001 5.798326e+001 6.474918e+001 5.654857e+001 5.389107e+001 4.411510e+001 4.258719e+001 4.208948e+001 3.679993e+001 3.124355e+001 1.965594e+000 1.803727e+000 1.934022e+000 2.333615e+000 2.834451e+000 2.798423e+000 2.861493e+000 2.778302e+000 2.531476e+000 2.589815e+000 2.444618e+000 2.166934e+000 2.889750e+000
<GCONST> 1.040926e+002
<TRANSP> 5
 0.000000e+000 1.000000e+000 0.000000e+000 0.000000e+000 0.000000e+000
 0.000000e+000 6.000000e-001 4.000000e-001 0.000000e+000 0.000000e+000
 0.000000e+000 0.000000e+000 6.000000e-001 4.000000e-001 0.000000e+000
 0.000000e+000 0.000000e+000 0.000000e+000 7.000000e-001 3.000000e-001
 0.000000e+000 0.000000e+000 0.000000e+000 0.000000e+000 0.000000e+000
<ENDHMM>
~h "eh"
<BEGINHMM>
<NUMSTATES> 5
<STATE> 2
<MEAN> 25
 4.239429e+000 -4.194548e+000 8.835246e-001 3.135208e+000 -2.156228e+000 -7.009780e-002 -2.870619e+000 1.590863e+000 2.628187e-001 -4.562256e+000 4.645635e+000 9.036472e-002 -1.566518e-001 -5.930611e-001 4.669762e-001 -1.256026e-001 -3.274135e-001 1.723852e-001 1.157077e-001 6.319420e-001 2.564807e-001 -7.084969e-002 1.157956e-001 2.767240e-001 4.674228e-001
<VARIANCE> 25
 7.471078e+001 6.561594e+001 4.394281e+001 9.416594e+001 8.665843e+001 1.429966e+002 3.190052e+001 7.258907e+001 5.713015e+001 5.118196e+001 6.598965e+001 4.458523e+001 2.467757e+000 3.836947e+000 3.738556e+000 5.482091e+000 4.398006e+000 8.997849e+000 3.862894e+000 5.503963e+000 4.926043e+000 4.710243e+000 4.038379e+000 3.527917e+000 4.785434e+000
<GCONST> 1.152818e+002
<STATE> 3
<MEAN> 25
 2.491279e+000 -8.313002e+000 6.234891e+000 2.915138e+000 -3.467366e+000 -4.494045e+000 -2.673610e+000 7.520288e+000 2.160427e+000 -2.583417e+000 3.327629e+000 -2.553919e-001 7.855075e-002 1.143116e-001 2.154628e-001 -3.159083e-001 1.533919e-001 3.281436e-002 3.589832e-001 1.608286e-001 -3.546418e-001 5.936654e-002 -1.775704e-001 7.830311e-002 -1.849049e-001
<VARIANCE> 25
 8.399785e+001 7.721761e+001 5.453917e+001 2.897934e+001 6.054892e+001 8.598410e+001 5.933589e+001 9.395526e+001 7.199233e+001 3.145987e+001 3.619639e+001 2.675760e+001 2.621909e+000 3.772356e+000 3.375128e+000 3.208638e+000 2.697251e+000 4.825796e+000 4.691742e+000 5.409091e+000 5.237940e+000 3.613077e+000 2.294475e+000 2.144898e+000 3.475736e+000
<GCONST> 1.101284e+002
<STATE> 4
<MEAN> 25
 3.049055e-001 1.212037e+000 5.757379e+000 3.967737e+000 -6.578386e-001 -3.203825e+000 1.046620e+000 2.507739e+000 -2.683630e-001 -9.167652e-001 -2.920419e+000 -2.276280e+000 -1.110913e-001 2.269552e-001 -7.458728e-002 6.068007e-002 9.686222e-002 2.839810e-001 1.696739e-001 -5.135558e-001 -8.899142e-002 7.623824e-002 -4.028871e-001 -3.220186e-002 -4.962830e-001
<VARIANCE> 25
 3.968460e+001 6.555404e+001 4.414754e+001 3.209628e+001 5.043951e+001 6.017804e+001 4.421519e+001 6.760410e+001 5.436942e+001 3.493612e+001 5.108268e+001 2.359779e+001 8.649877e-001 1.145350e+000 1.078974e+000 1.396371e+000 1.563175e+000 2.062910e+000 2.389503e+000 3.489223e+000 2.291602e+000 2.855340e+000 2.005310e+000 1.732964e+000 9.890109e-001
<GCONST> 9.853696e+001
<TRANSP> 5
 0.000000e+000 1.000000e+000 0.000000e+000 0.000000e+000 0.000000e+000
 0.000000e+000 8.187175e-001 1.812826e-001 0.000000e+000 0.000000e+000
 0.000000e+000 0.000000e+000 7.650216e-001 2.349784e-001 0.000000e+000
 0.000000e+000 0.000000e+000 0.000000e+000 8.715137e-001 1.284863e-001
 0.000000e+000 0.000000e+000 0.000000e+000 0.000000e+000 0.000000e+000
<ENDHMM>
~h "er"
<BEGINHMM>
<NUMSTATES> 5
<STATE> 2
<MEAN> 25
 4.773399e+000 -2.037499e+000 -4.485753e+000 2.659162e+000 -8.966629e-002 -1.886585e+000 -3.445219e+000 2.051016e+000 3.025427e+000 -1.991866e+000 -9.246168e-001 -9.119070e-001 -1.131929e-001 -9.850047e-002 -4.243245e-002 2.933691e-001 1.325070e-001 -1.685100e-001 -6.668593e-002 2.115299e-001 2.686226e-001 2.250158e-004 -1.155114e-001 -6.873439e-002 -2.725976e-001
<VARIANCE> 25
 6.385548e+001 5.180964e+001 4.926068e+001 5.540605e+001 5.130711e+001 6.015578e+001 7.113406e+001 4.775211e+001 3.039585e+001 3.245314e+001 2.236458e+001 2.692549e+001 2.124925e+000 1.605973e+000 1.902016e+000 2.247991e+000 2.724167e+000 3.222046e+000 3.027504e+000 2.544470e+000 2.173083e+000 1.725742e+000 1.703411e+000 1.656066e+000 2.223103e+000
<GCONST> 1.014750e+002
<STATE> 3
<MEAN> 25
 2.411549e+000 -1.557592e+000 -2.760351e+000 3.377285e+000 9.156179e-001 -1.338356e+000 -1.510545e+000 3.842646e+000 3.634046e+000 -2.345999e+000 -1.340668e+000 -7.067049e-002 -1.240243e-001 1.951296e-001 1.097859e-001 -4.653164e-002 3.110425e-001 8.005080e-002 1.996681e-001 -2.104203e-002 9.058774e-003 2.078958e-001 -2.725294e-002 4.985440e-002 -5.053908e-001
<VARIANCE> 25
 5.846820e+001 6.465739e+001 4.301221e+001 5.940013e+001 4.660754e+001 5.240158e+001 6.523943e+001 4.753416e+001 2.952208e+001 3.677431e+001 1.821233e+001 2.552666e+001 2.016757e+000 1.748741e+000 1.570684e+000 2.404298e+000 2.813163e+000 2.417233e+000 2.882048e+000 2.502716e+000 2.136066e+000 2.037245e+000 1.500576e+000 1.373633e+000 1.331465e+000
<GCONST> 9.996439e+001
<STATE> 4
<MEAN> 25
 -1.907651e+000 8.072948e-002 -1.428468e+000 1.782851e+000 2.942111e+000 1.686807e+000 1.890968e+000 1.466823e+000 1.566011e+000 5.349679e-001 -4.985286e-001 5.807486e-001 -4.395877e-002 3.522348e-002 9.937178e-002 -2.403161e-002 -2.169332e-003 4.535893e-002 3.858086e-002 -1.097354e-001 -8.562259e-002 3.647093e-002 -1.221648e-002 -3.966935e-003 -1.097722e-001
<VARIANCE> 25
 1.658590e+001 2.308458e+001 1.910970e+001 2.873155e+001 1.832850e+001 2.471590e+001 2.247800e+001 2.479119e+001 1.671868e+001 2.445398e+001 1.748924e+001 1.649540e+001 6.704645e-001 7.412314e-001 7.926950e-001 1.192484e+000 1.422195e+000 1.245225e+000 1.506278e+000 1.709286e+000 1.420776e+000 1.735750e+000 1.439740e+000 1.261510e+000 4.613895e-001
<GCONST> 8.380738e+001
<TRANSP> 5
 0.000000e+000 1.000000e+000 0.000000e+000 0.000000e+000 0.000000e+000
 0.000000e+000 8.009658e-001 1.990341e-001 0.000000e+000 0.000000e+000
 0.000000e+000 0.000000e+000 7.316087e-001 2.683912e-001 0.000000e+000
 0.000000e+000 0.000000e+000 0.000000e+000 9.236471e-001 7.635287e-002
 0.000000e+000 0.000000e+000 0.000000e+000 0.000000e+000 0.000000e+000
<ENDHMM>
~h "ey"
<BEGINHMM>
<NUMSTATES> 5
<STATE> 2
<MEAN> 25
 1.619934e+000 -2.997157e+000 4.231100e+000 -1.016710e+000 -5.630451e+000 -2.269341e+000 6.103118e-002 -4.090854e-001 -1.607267e+000 -1.645177e+000 2.543547e+000 -5.600925e-001 4.233390e-001 -3.710614e-002 5.617679e-001 -3.671180e-001 -1.201148e+000 -2.091018e-001 4.014990e-001 -2.008370e-001 -8.256860e-001 -3.979293e-002 6.283226e-001 -1.146253e-001 7.471400e-001
<VARIANCE> 25
 5.637499e+001 3.066318e+001 4.842810e+001 4.399542e+001 5.269304e+001 7.241888e+001 5.515136e+001 4.738947e+001 3.278289e+001 4.045081e+001 5.958559e+001 2.837626e+001 2.992583e+000 1.260806e+000 2.448276e+000 2.700033e+000 5.785126e+000 4.359252e+000 4.927999e+000 3.219542e+000 3.382606e+000 2.496323e+000 2.774150e+000 1.686629e+000 3.215565e+000
<GCONST> 1.058574e+002
<STATE> 3
<MEAN> 25
 3.880277e+000 -3.258475e+000 6.727865e+000 -2.188737e+000 -8.877966e+000 -3.622056e+000 -8.713014e-001 -1.286283e-001 -4.122662e+000 -2.166260e+000 5.565137e+000 -3.760002e-001 3.485431e-002 1.692460e-001 6.754671e-001 -6.374725e-001 -9.177120e-001 1.736222e-001 1.662377e-001 -2.206436e-001 -8.214992e-001 1.681921e-001 5.090722e-001 -3.001889e-002 -7.289437e-003
<VARIANCE> 25
 2.541548e+001 3.027769e+001 6.330177e+001 5.341175e+001 7.652618e+001 7.711905e+001 5.175993e+001 5.227456e+001 4.040368e+001 4.184735e+001 6.950345e+001 3.066651e+001 1.536343e+000 1.104734e+000 2.070813e+000 2.246261e+000 4.293458e+000 3.239533e+000 3.070880e+000 3.222149e+000 2.670691e+000 2.052823e+000 2.866903e+000 1.852414e+000 9.355971e-001
<GCONST> 1.026977e+002
<STATE> 4
<MEAN> 25
 1.276157e+000 -1.582178e-001 1.062680e+001 -3.011827e+000 -1.080266e+001 -3.488691e+000 -5.084575e+000 -2.092280e+000 -8.336843e+000 -1.941040e+000 4.796627e+000 -3.218676e-001 -7.911593e-002 4.591816e-001 5.695188e-002 1.648725e-001 1.657850e-001 2.438242e-001 -4.503208e-002 -1.952022e-001 -2.607085e-001 1.903179e-001 -2.941490e-001 -1.320032e-001 -3.794529e-001
<VARIANCE> 25
 3.479442e+001 2.752683e+001 5.966121e+001 3.326545e+001 4.951373e+001 5.749497e+001 4.941314e+001 5.640634e+001 5.246683e+001 3.446048e+001 4.858149e+001 4.242771e+001 1.274161e+000 1.197059e+000 1.886082e+000 1.615194e+000 2.149456e+000 2.013289e+000 2.522686e+000 2.823563e+000 2.305177e+000 1.897345e+000 2.215672e+000 1.728767e+000 6.876867e-001
<GCONST> 9.883111e+001
<TRANSP> 5
 0.000000e+000 1.000000e+000 0.000000e+000 0.000000e+000 0.000000e+000
 0.000000e+000 5.556316e-001 4.443684e-001 0.000000e+000 0.000000e+000
 0.000000e+000 0.000000e+000 5.596387e-001 4.403613e-001 0.000000e+000
 0.000000e+000 0.000000e+000 0.000000e+000 9.045643e-001 9.543575e-002
 0.000000e+000 0.000000e+000 0.000000e+000 0.000000e+000 0.000000e+000
<ENDHMM>
~h "hh"
<BEGINHMM>
<NUMSTATES> 5
<STATE> 2
<MEAN> 25
 -1.539850e+000 -1.009145e+001 -9.126782e+000 7.520182e-001 1.011092e+001 6.991593e-001 1.292736e+000 -1.525225e+000 2.605350e+000 -1.251126e+000 2.160384e+000 1.608213e+000 2.115680e-001 -2.636060e-001 1.024675e-001 1.969186e-002 3.334289e-001 4.647288e-001 -3.320315e-002 -1.429746e-001 -5.820889e-002 4.005308e-002 1.106190e-001 -2.028092e-001 1.858049e-001
<VARIANCE> 25
 2.426935e+001 5.628557e+001 8.598884e+001 4.788264e+001 5.198939e+001 4.535751e+001 1.408342e+001 3.213622e+001 4.601544e+001 2.739421e+001 6.236563e+001 3.159734e+001 1.764653e+000 2.222144e+000 2.276324e+000 2.230196e+000 3.932768e+000 2.372369e+000 1.196748e+000 2.916177e+000 3.592815e+000 3.236616e+000 3.555332e+000 4.051183e+000 3.525170e+000
<GCONST> 1.029506e+002
<STATE> 3
<MEAN> 25
 4.862657e-001 -9.755608e+000 -4.817578e+000 7.662809e-001 1.167267e+001 2.369408e+000 -3.521260e-001 -1.325754e+000 1.003116e-001 6.184203e-001 1.456554e+000 -4.659245e-001 3.307948e-001 9.861202e-002 5.887601e-002 -3.615416e-001 -3.228204e-001 -3.275484e-001 3.863729e-002 -1.494570e-001 -1.682604e-001 8.531322e-002 -3.143729e-003 -5.641871e-001 8.859608e-001
<VARIANCE> 25
 2.930071e+001 6.973884e+001 5.262710e+001 4.188229e+001 5.604617e+001 5.362229e+001 1.737885e+001 3.846320e+001 3.526718e+001 2.974286e+001 4.695945e+001 3.904511e+001 3.057217e+000 2.629050e+000 4.221157e+000 3.078065e+000 4.788643e+000 2.794776e+000 2.166559e+000 4.792056e+000 2.595399e+000 3.675559e+000 2.847413e+000 3.307455e+000 3.987388e+000
<GCONST> 1.057138e+002
<STATE> 4
<MEAN> 25
 -9.307347e-001 -1.311782e+000 -7.001968e-001 5.208929e+000 6.257577e+000 2.381394e+000 2.061780e+000 -7.096711e-001 -3.967097e-001 -6.472771e-001 8.775569e-002 -2.025292e+000 1.790879e-001 -1.036987e-002 -4.038975e-002 -1.217704e-003 -4.922815e-001 -1.506670e-001 7.530602e-002 7.082169e-002 -1.475296e-001 -2.803700e-001 -5.195303e-002 -1.470352e-002 4.143470e-001
<VARIANCE> 25
 2.890092e+001 1.399784e+002 7.250794e+001 5.888557e+001 3.304340e+001 2.701963e+001 1.743971e+001 2.339494e+001 2.072872e+001 2.340175e+001 5.522827e+001 3.672118e+001 9.868370e-001 2.064272e+000 1.856962e+000 1.774953e+000 2.442894e+000 1.490965e+000 2.332772e+000 2.658694e+000 1.434442e+000 2.539962e+000 2.219057e+000 2.819609e+000 2.314292e+000
<GCONST> 9.820385e+001
<TRANSP> 5
 0.000000e+000 1.000000e+000 0.000000e+000 0.000000e+000 0.000000e+000
 0.000000e+000 8.958359e-001 1.041641e-001 0.000000e+000 0.000000e+000
 0.000000e+000 0.000000e+000 8.404809e-001 1.595191e-001 0.000000e+000
 0.000000e+000 0.000000e+000 0.000000e+000 9.223094e-001 7.769065e-002
 0.000000e+000 0.000000e+000 0.000000e+000 0.000000e+000 0.000000e+000
<ENDHMM>
~h "ih"
<BEGINHMM>
<NUMSTATES> 5
<STATE> 2
<MEAN> 25
 -4.024412e-001 6.130721e-001 1.978452e+000 2.052351e+000 3.504902e+000 -3.856732e-001 -1.859256e+000 -1.446638e+000 1.156802e-001 -1.680968e+000 8.046898e-001 1.580867e-001 -1.379384e-001 6.442998e-002 7.790472e-002 1.526583e-001 6.256742e-001 7.936145e-002 -5.664552e-001 -2.555416e-001 -8.683709e-004 1.130959e-001 -4.428695e-002 1.233433e-001 -7.586815e-002
<VARIANCE> 25
 4.807613e+001 2.716543e+001 3.339155e+001 2.691077e+001 6.166439e+001 4.631226e+001 7.554321e+001 4.906850e+001 2.455764e+001 3.415052e+001 1.683610e+001 1.905276e+001 1.722355e+000 1.205550e+000 1.530090e+000 1.427195e+000 3.036832e+000 2.237100e+000 5.090603e+000 2.214830e+000 2.422539e+000 2.153122e+000 1.703081e+000 1.568652e+000 6.721839e-001
<GCONST> 9.668746e+001
<STATE> 3
<MEAN> 25
 -4.631293e-001 8.365294e-001 2.775539e+000 2.935062e+000 5.166590e+000 -6.454720e-001 -4.382019e+000 -2.408034e+000 4.947776e-001 -1.027995e+000 2.487149e-001 -2.039290e-001 -1.561256e-001 1.603220e-001 5.428791e-002 7.018933e-003 2.123887e-001 -3.993583e-002 -1.805933e-001 1.840666e-002 1.618499e-001 2.169500e-001 -2.280802e-001 -2.869628e-004 -1.799644e-001
<VARIANCE> 25
 4.086540e+001 2.398690e+001 3.689660e+001 3.572127e+001 5.525784e+001 4.602464e+001 1.108186e+002 5.830620e+001 1.768394e+001 3.499326e+001 1.761749e+001 1.967920e+001 1.123754e+000 9.589053e-001 1.457019e+000 1.610181e+000 2.258251e+000 2.312847e+000 4.730970e+000 2.117238e+000 2.205690e+000 1.987451e+000 1.588970e+000 1.677907e+000 5.315359e-001
<GCONST> 9.562095e+001
<STATE> 4
<MEAN> 25
 -1.841991e+000 -6.322760e-002 1.320208e+000 6.461343e-002 2.589021e+000 9.276952e-001 6.802726e-001 4.037983e-001 6.448089e-001 7.834650e-001 1.964426e-001 1.147046e+000 6.019016e-003 2.630541e-002 -1.114633e-001 1.186790e-002 -3.318056e-002 2.348429e-002 1.374075e-001 -1.346498e-002 -3.561065e-002 3.143325e-002 -3.849207e-002 -2.745835e-002 3.569892e-002
<VARIANCE> 25
 1.400645e+001 1.293863e+001 1.732945e+001 2.241239e+001 2.850448e+001 2.913910e+001 4.016200e+001 2.176355e+001 1.983728e+001 2.079884e+001 1.711147e+001 1.854820e+001 6.024057e-001 9.364186e-001 8.341570e-001 1.043859e+000 1.233578e+000 1.266405e+000 1.617965e+000 1.335251e+000 1.569819e+000 1.645502e+000 1.500428e+000 1.530994e+000 3.842886e-001
<GCONST> 8.371634e+001
<TRANSP> 5
 0.000000e+000 1.000000e+000 0.000000e+000 0.000000e+000 0.000000e+000
 0.000000e+000 5.811756e-001 4.188244e-001 0.000000e+000 0.000000e+000
 0.000000e+000 0.000000e+000 5.769578e-001 4.230422e-001 0.000000e+000
 0.000000e+000 0.000000e+000 0.000000e+000 9.106207e-001 8.937927e-002
 0.000000e+000 0.000000e+000 0.000000e+000 0.000000e+000 0.000000e+000
<ENDHMM>
~h "iy"
<BEGINHMM>
<NUMSTATES> 5
<STATE> 2
<MEAN> 25
 -6.534995e-001 9.385669e-001 9.129910e+000 -1.482411e+000 -7.759946e+000 -2.348995e+000 -1.227137e+000 -4.208680e+000 -6.653500e+000 2.023899e+000 2.895732e+000 1.546337e+000 2.001566e-001 -4.111444e-002 5.968347e-001 -5.701165e-001 -5.900909e-001 -8.628258e-002 -3.604910e-001 -2.832441e-001 -4.117534e-001 1.702735e-001 -2.393923e-002 -3.046486e-002 6.211110e-001
<VARIANCE> 25
 5.232683e+001 6.097378e+001 9.730576e+001 1.160967e+002 9.326586e+001 8.420986e+001 8.535152e+001 9.338036e+001 6.606079e+001 8.390117e+001 7.644969e+001 6.797725e+001 2.960180e+000 3.394601e+000 5.843525e+000 5.619453e+000 5.867444e+000 5.283050e+000 5.480729e+000 6.088180e+000 4.447812e+000 4.014889e+000 6.589739e+000 3.611610e+000 6.265916e+000
<GCONST> 1.191031e+002
<STATE> 3
<MEAN> 25
 2.090824e+000 2.323765e+000 1.243009e+001 -5.391667e+000 -9.755379e+000 -2.542816e+000 -5.309855e+000 -5.516302e+000 -8.032309e+000 2.046431e+000 8.594244e-001 1.761208e-001 1.212768e-001 1.221151e-001 -6.660245e-003 -9.682039e-002 4.065083e-002 -2.963100e-002 -9.088412e-002 9.401921e-002 -4.358764e-002 -1.162591e-001 -2.112729e-001 -7.628379e-002 -1.068020e-001
<VARIANCE> 25
 2.592843e+001 3.839632e+001 8.229259e+001 9.608819e+001 8.563260e+001 5.114891e+001 7.832112e+001 4.999463e+001 5.345863e+001 9.246095e+001 7.062228e+001 5.140685e+001 1.356945e+000 2.238400e+000 4.550740e+000 3.689289e+000 4.843102e+000 3.523255e+000 4.834531e+000 4.135691e+000 3.494286e+000 3.169784e+000 4.608350e+000 2.985435e+000 3.962863e+000
<GCONST> 1.113536e+002
<STATE> 4
<MEAN> 25
 1.871177e+000 3.425569e+000 1.078118e+001 -6.340928e+000 -7.658319e+000 -1.676946e+000 -4.593195e+000 -4.786312e+000 -5.378352e+000 2.320676e+000 -8.617909e-001 -9.019816e-001 -1.063440e-001 -4.052141e-002 -8.205585e-001 7.061236e-001 5.849615e-001 -6.334050e-002 2.976072e-001 3.111646e-001 4.853736e-001 -2.447893e-001 2.586381e-002 1.489162e-001 -6.759428e-001
<VARIANCE> 25
 1.760647e+001 2.426121e+001 6.982540e+001 1.105460e+002 6.269126e+001 3.641646e+001 6.618533e+001 3.611692e+001 5.579398e+001 6.341142e+001 4.967131e+001 3.330610e+001 1.056037e+000 1.839427e+000 2.692510e+000 2.899790e+000 4.334910e+000 2.529346e+000 3.440399e+000 2.974587e+000 2.690918e+000 2.418968e+000 2.728430e+000 2.802192e+000 2.757564e+000
<GCONST> 1.044116e+002
<TRANSP> 5
 0.000000e+000 1.000000e+000 0.000000e+000 0.000000e+000 0.000000e+000
 0.000000e+000 9.210847e-001 7.891534e-002 0.000000e+000 0.000000e+000
 0.000000e+000 0.000000e+000 8.649544e-001 1.350456e-001 0.000000e+000
 0.000000e+000 0.000000e+000 0.000000e+000 8.999475e-001 1.000525e-001
 0.000000e+000 0.000000e+000 0.000000e+000 0.000000e+000 0.000000e+000
<ENDHMM>
~h "jh"
<BEGINHMM>
<NUMSTATES> 5
<STATE> 2
<MEAN> 25
 4.699849e+000 5.559316e-001 5.694240e+000 5.655408e+000 5.440437e+000 2.619804e+000 -6.962507e+000 -7.113070e+000 2.334777e-001 -3.561004e+000 -5.469963e+000 -3.681161e+000 1.555190e-001 -2.978722e-001 1.394808e-002 -2.527870e-002 1.919164e-002 -1.365463e-001 -5.701308e-001 -3.370032e-001 -6.014201e-002 -3.414980e-001 -4.497102e-002 -1.534660e-002 4.067068e-001
<VARIANCE> 25
 1.553269e+001 2.442908e+001 2.851728e+001 3.394655e+001 4.560648e+001 1.552078e+001 8.281341e+001 6.074137e+001 2.660666e+001 2.134643e+001 2.886973e+001 2.200246e+001 9.479409e-001 3.343575e+000 2.050349e+000 2.222205e+000 5.779374e+000 2.459802e+000 7.512415e+000 6.724860e+000 2.442924e+000 2.338447e+000 2.888909e+000 3.229565e+000 3.787118e+000
<GCONST> 1.011967e+002
<STATE> 3
<MEAN> 25
 3.994368e+000 -2.835969e+000 4.207617e+000 5.585218e+000 4.507100e+000 2.041470e+000 -7.066327e+000 -4.583619e+000 2.432047e-001 -5.749827e+000 -1.797456e+000 -1.067364e+000 1.329571e-001 -4.987170e-001 -2.267829e-001 -3.736436e-002 -2.652668e-001 -1.309514e-001 -2.922987e-001 -2.248021e-001 -3.075729e-002 -2.602102e-001 3.805261e-001 6.571376e-002 3.808040e-001
<VARIANCE> 25
 2.329988e+001 5.346862e+001 2.848561e+001 2.933900e+001 4.096972e+001 1.661859e+001 7.425659e+001 6.504809e+001 4.173126e+001 2.750602e+001 3.016732e+001 1.970152e+001 2.498253e+000 7.246807e+000 3.825775e+000 3.718410e+000 5.964288e+000 2.209463e+000 7.983041e+000 6.762958e+000 6.032736e+000 3.197704e+000 2.763765e+000 2.251788e+000 5.307594e+000
<GCONST> 1.068175e+002
<STATE> 4
<MEAN> 25
 4.347361e+000 -5.208236e+000 7.153677e-001 3.064828e+000 1.033444e+000 5.167983e-001 -8.757996e+000 -6.726520e+000 -2.553433e+000 -6.830688e+000 2.729454e+000 -1.228261e+000 -6.560807e-002 2.119431e-001 -5.436624e-001 -7.294890e-001 -5.040941e-001 -3.292033e-001 5.285227e-001 1.852488e-001 -1.301837e-001 3.773375e-001 5.750635e-001 9.089676e-002 1.772725e-001
<VARIANCE> 25
 4.939595e+001 2.468832e+001 5.209152e+001 2.256083e+001 5.023465e+001 3.671119e+001 3.966848e+001 5.688547e+001 3.240156e+001 1.314517e+001 3.739694e+001 1.156993e+001 8.991336e+000 4.518614e+000 7.368901e+000 2.178339e+000 4.619920e+000 1.779305e+000 4.406613e+000 6.186742e+000 5.571917e+000 1.666171e+000 2.159606e+000 1.062096e+000 3.965415e+000
<GCONST> 1.038164e+002
<TRANSP> 5
 0.000000e+000 1.000000e+000 0.000000e+000 0.000000e+000 0.000000e+000
 0.000000e+000 9.471497e-001 5.285032e-002 0.000000e+000 0.000000e+000
 0.000000e+000 0.000000e+000 8.921236e-001 1.078765e-001 0.000000e+000
 0.000000e+000 0.000000e+000 0.000000e+000 9.067450e-001 9.325504e-002
 0.000000e+000 0.000000e+000 0.000000e+000 0.000000e+000 0.000000e+000
<ENDHMM>
~h "ng"
<BEGINHMM>
<NUMSTATES> 5
<STATE> 2
<MEAN> 25
 1.431276e+000 4.462884e+000 -4.274217e-001 1.740505e+000 4.134835e+000 -5.330456e-001 1.616367e+000 1.003960e-001 2.406548e+000 3.162094e+000 -3.220647e-001 -2.291028e+000 -2.863500e-001 -1.808826e-001 -2.818412e-003 -2.652338e-002 -6.246224e-002 9.420238e-002 2.647748e-001 3.414654e-001 3.229411e-002 1.562811e-001 1.345566e-002 2.739269e-001 -2.127688e-001
<VARIANCE> 25
 2.504700e+001 1.755044e+001 1.305958e+001 1.019044e+001 5.837195e+000 8.002446e+000 2.316210e+001 3.175043e+001 1.375942e+001 1.137397e+001 1.259204e+001 1.859903e+001 2.404436e-001 6.601912e-001 7.223683e-001 4.372036e-001 5.760523e-001 5.609030e-001 1.236081e+000 9.670486e-001 9.508482e-001 9.604111e-001 6.002793e-001 4.685345e-001 1.573377e-001
<GCONST> 7.072432e+001
<STATE> 3
<MEAN> 25
 -3.521952e+000 -6.824280e-001 -2.786240e-001 8.348078e-001 4.472745e+000 -3.662258e-002 5.659007e+000 3.533502e+000 -3.548271e-001 4.000346e+000 -7.730221e-001 2.027193e+000 -4.470813e-002 -9.212489e-002 -9.739153e-003 -2.053841e-002 -3.611203e-002 -3.733857e-002 3.344355e-002 -5.116940e-002 -1.611306e-001 -5.939516e-004 -8.726766e-002 7.153575e-002 -9.282257e-002
<VARIANCE> 25
 1.848875e+000 3.432658e+000 5.761174e+000 5.718593e+000 5.949865e+000 5.387894e+000 1.071870e+001 1.081591e+001 1.364734e+001 9.782731e+000 1.313383e+001 6.437712e+000 1.180260e-001 3.124516e-001 2.612180e-001 3.076122e-001 4.292024e-001 4.804398e-001 8.535618e-001 8.760957e-001 7.521128e-001 8.225042e-001 7.184889e-001 3.799604e-001 6.081440e-002
<GCONST> 5.657230e+001
<STATE> 4
<MEAN> 25
 -3.216117e+000 -1.239763e+000 1.775924e-001 8.419029e-001 3.458020e+000 -3.758663e-001 6.107021e+000 3.970060e+000 -1.451667e+000 3.995227e+000 -2.164400e+000 2.315489e+000 2.079802e-002 -1.183233e-001 1.716406e-001 -2.728536e-002 -4.595686e-001 -2.913572e-001 -7.979649e-003 3.017015e-001 -2.087498e-001 -3.753892e-001 1.418900e-001 1.936790e-001 9.751491e-002
<VARIANCE> 25
 2.443532e+000 1.700138e+000 2.626507e+000 5.746223e+000 1.095783e+001 4.845190e+000 5.743062e+000 8.906054e+000 1.037178e+001 6.868690e+000 8.208902e+000 5.538396e+000 3.235787e-001 4.043788e-001 6.827648e-001 6.522294e-001 9.114028e-001 4.033885e-001 5.624948e-001 5.598741e-001 4.766356e-001 9.553818e-001 5.909563e-001 4.024670e-001 3.223152e-001
<GCONST> 5.772128e+001
<TRANSP> 5
 0.000000e+000 1.000000e+000 0.000000e+000 0.000000e+000 0.000000e+000
 0.000000e+000 9.688699e-001 3.113015e-002 0.000000e+000 0.000000e+000
 0.000000e+000 0.000000e+000 9.413291e-001 5.867090e-002 0.000000e+000
 0.000000e+000 0.000000e+000 0.000000e+000 7.947035e-001 2.052964e-001
 0.000000e+000 0.000000e+000 0.000000e+000 0.000000e+000 0.000000e+000
<ENDHMM>
~h "ow"
<BEGINHMM>
<NUMSTATES> 5
<STATE> 2
<MEAN> 25
 6.559051e+000 2.970034e+000 -6.511067e+000 -1.057232e+001 -2.618053e+000 5.026260e+000 3.810526e-001 1.984212e+000 -1.387661e+000 3.949187e-001 3.135674e+000 -2.771665e+000 1.636235e-002 2.391316e-001 -9.977436e-003 1.702663e-002 5.980221e-003 -9.962826e-002 3.648189e-001 1.538258e-001 -1.211869e-001 -1.401841e-001 -4.217999e-002 1.778591e-002 -1.620345e-001
<VARIANCE> 25
 6.623717e+001 4.111005e+001 4.278932e+001 1.084746e+002 2.828758e+001 2.623699e+001 5.555521e+001 3.063757e+001 2.314846e+001 2.772149e+001 2.413715e+001 6.610580e+001 3.049232e+000 9.927807e-001 1.946074e+000 6.647551e+000 2.975293e+000 2.243192e+000 3.740611e+000 2.150673e+000 2.506610e+000 2.258820e+000 2.039339e+000 2.668775e+000 1.713725e+000
<GCONST> 1.018052e+002
<STATE> 3
<MEAN> 25
 8.182620e+000 7.955113e+000 -4.038948e+000 -6.293807e+000 -2.039683e+000 4.015435e+000 6.726266e+000 1.979744e+000 -5.596427e-001 -1.319428e+000 7.565405e-002 1.295182e-001 -5.787641e-001 -1.375353e-001 1.771205e-001 1.002613e+000 6.066277e-001 3.971019e-002 2.781723e-001 1.086655e-002 3.843198e-002 8.836760e-002 -4.424678e-003 1.740075e-002 -6.386119e-001
<VARIANCE> 25
 4.626669e+001 3.410122e+001 2.373890e+001 7.605655e+001 3.431414e+001 2.442374e+001 4.826057e+001 3.256038e+001 2.391577e+001 2.720442e+001 2.337396e+001 5.235148e+001 1.099036e+000 1.076429e+000 1.429907e+000 2.921393e+000 1.753519e+000 1.943289e+000 3.258785e+000 2.718220e+000 1.783266e+000 1.865612e+000 2.765878e+000 2.219442e+000 5.578202e-001
<GCONST> 9.592564e+001
<STATE> 4
<MEAN> 25
 -1.898731e-001 1.968371e+000 -1.038714e-001 1.121444e+000 2.876332e+000 3.101841e+000 2.036059e+000 2.184998e-001 4.537194e-001 9.136396e-002 -9.326503e-001 9.207274e-001 -1.166892e-001 -1.415226e-001 2.206386e-003 5.475903e-002 1.461774e-002 -1.759777e-002 -2.216954e-002 9.229598e-003 -1.493896e-002 -2.432727e-002 -3.027903e-002 8.438118e-002 -1.159195e-001
<VARIANCE> 25
 3.728095e+001 2.325042e+001 2.836963e+001 6.002542e+001 2.221230e+001 1.814412e+001 3.344568e+001 3.362785e+001 2.154377e+001 2.109941e+001 2.630969e+001 2.550159e+001 6.921896e-001 7.702957e-001 1.090847e+000 1.382470e+000 1.368584e+000 1.235660e+000 1.810168e+000 2.171222e+000 1.617561e+000 1.804750e+000 1.855272e+000 1.881903e+000 5.829499e-001
<GCONST> 8.926215e+001
<TRANSP> 5
 0.000000e+000 1.000000e+000 0.000000e+000 0.000000e+000 0.000000e+000
 0.000000e+000 9.154434e-001 8.455662e-002 0.000000e+000 0.000000e+000
 0.000000e+000 0.000000e+000 8.269989e-001 1.730011e-001 0.000000e+000
 0.000000e+000 0.000000e+000 0.000000e+000 9.604033e-001 3.959673e-002
 0.000000e+000 0.000000e+000 0.000000e+000 0.000000e+000 0.000000e+000
<ENDHMM>
~h "oy"
<BEGINHMM>
<NUMSTATES> 5
<STATE> 2
<MEAN> 25
 9.824948e+000 4.943312e+000 5.782838e-001 -2.675637e+000 -6.185946e+000 -6.008590e+000 -5.319458e+000 2.062587e+000 2.028558e+000 -2.846623e+000 -1.005739e+000 -1.024452e+000 -3.283423e-001 -4.561487e-001 5.695123e-001 2.632136e-001 2.865573e-001 1.539371e-001 -1.282851e-001 -2.133339e-001 -2.811436e-002 -2.454116e-001 1.219436e-001 -9.726977e-002 2.233919e-001
<VARIANCE> 25
 6.197697e+001 5.561637e+001 5.098397e+001 2.676566e+001 8.673376e+001 9.354025e+001 2.800007e+001 3.949409e+001 4.539856e+001 5.074920e+001 1.618516e+001 1.193245e+001 4.481110e+000 2.580928e+000 2.758328e+000 1.694291e+000 4.988457e+000 3.880374e+000 2.751759e+000 2.154274e+000 2.695971e+000 2.666592e+000 1.732039e+000 1.725029e+000 4.882489e-001
<GCONST> 1.014090e+002
<STATE> 3
<MEAN> 25
 -5.281161e+000 -8.038561e+000 9.267750e+000 2.377502e+000 -2.789845e+000 8.585399e-002 -1.961733e+000 4.862711e-001 2.925818e+000 -6.042061e+000 2.399480e+000 -8.470886e-001 -1.588171e+000 -9.863800e-001 5.341778e-001 1.087111e-001 -3.974316e-001 4.555157e-001 6.101959e-001 8.088210e-002 1.535978e-001 -9.758947e-002 2.876623e-001 2.234902e-001 2.485436e-002
<VARIANCE> 25
 2.001649e+002 8.567874e+001 1.133342e+002 3.512158e+001 6.413774e+001 6.244801e+001 2.437912e+001 2.594132e+001 3.921136e+001 3.357854e+001 1.583036e+001 1.767612e+001 5.475349e+000 1.992597e+000 2.401424e+000 1.749457e+000 5.025503e+000 2.144985e+000 1.560647e+000 1.614741e+000 2.313822e+000 1.453469e+000 1.683778e+000 1.905583e+000 4.281961e-001
<GCONST> 1.002053e+002
<STATE> 4
<MEAN> 25
 -1.062757e+001 -9.902450e+000 9.847043e+000 1.923743e+000 -1.877136e+000 3.852027e+000 1.999594e+000 -9.141367e-002 1.040645e+000 -5.465693e+000 3.241067e+000 1.495424e+000 5.936245e-001 6.811780e-001 -7.922508e-001 -2.519144e-001 6.855089e-001 4.965538e-001 1.477343e-001 -2.436031e-001 -7.416735e-001 2.726656e-001 -1.109261e-001 1.759918e-001 -9.407278e-001
<VARIANCE> 25
 1.103078e+002 6.440913e+001 8.063161e+001 2.972648e+001 2.051523e+001 3.750597e+001 1.708951e+001 1.224159e+001 2.164625e+001 3.386751e+001 9.942794e+000 1.656507e+001 2.332304e+000 2.174804e+000 1.118682e+000 5.203249e-001 1.172629e+000 1.737775e+000 2.142159e+000 9.748206e-001 2.095704e+000 1.937293e+000 1.324705e+000 1.599718e+000 2.688676e+000
<GCONST> 9.195985e+001
<TRANSP> 5
 0.000000e+000 1.000000e+000 0.000000e+000 0.000000e+000 0.000000e+000
 0.000000e+000 9.421296e-001 5.787046e-002 0.000000e+000 0.000000e+000
 0.000000e+000 0.000000e+000 8.189435e-001 1.810564e-001 0.000000e+000
 0.000000e+000 0.000000e+000 0.000000e+000 8.825899e-001 1.174102e-001
 0.000000e+000 0.000000e+000 0.000000e+000 0.000000e+000 0.000000e+000
<ENDHMM>
~h "sh"
<BEGINHMM>
<NUMSTATES> 5
<STATE> 2
<MEAN> 25
 3.933141e+000 7.714112e+000 2.146872e+000 3.024059e+000 2.544714e+000 -9.032157e-001 2.698436e+000 -2.271745e+000 -1.879976e+000 1.361761e+000 -1.755975e+000 -2.133322e+000 -4.277065e-001 1.722460e-002 -1.286905e-001 3.246257e-001 4.187887e-001 -2.970680e-001 2.438523e-001 9.004787e-001 7.249448e-001 2.175104e-001 -5.508206e-001 -2.229389e-002 -7.079936e-001
<VARIANCE> 25
 5.757627e+000 1.521006e+001 2.114695e+001 2.289195e+001 3.592027e+001 2.394912e+001 1.100699e+001 1.666193e+001 1.675012e+001 1.829928e+001 1.365355e+001 2.018692e+001 2.750566e-001 8.504274e-001 4.109312e-001 1.606442e+000 2.717053e+000 1.683227e+000 1.341957e+000 1.670690e+000 1.656755e+000 1.558130e+000 1.697622e+000 1.791625e+000 5.524910e-001
<GCONST> 8.184179e+001
<STATE> 3
<MEAN> 25
 2.573063e+000 6.796229e+000 7.385396e-001 1.695351e+000 3.346538e+000 1.132726e-001 3.519876e+000 3.109417e-001 5.368187e-001 2.114882e+000 -1.668392e+000 -1.385229e+000 -5.943739e-001 -1.846441e-001 1.861069e-001 -1.213344e-001 -1.917121e-001 -4.703907e-002 2.861128e-001 7.465460e-001 4.634128e-001 3.883901e-001 -2.233981e-001 2.558959e-001 -6.275877e-001
<VARIANCE> 25
 1.110232e+001 1.985325e+001 2.212843e+001 1.506746e+001 2.674924e+001 1.888613e+001 1.447167e+001 1.500721e+001 1.349233e+001 1.664637e+001 1.032413e+001 2.258245e+001 5.125580e-001 7.478445e-001 1.089928e+000 1.017432e+000 1.595445e+000 1.167942e+000 2.166492e+000 1.172843e+000 1.290299e+000 1.569979e+000 8.614098e-001 1.542062e+000 5.266458e-001
<GCONST> 8.067155e+001
<STATE> 4
<MEAN> 25
